{
  "epoch": 1720,
  "input_size": 180,
  "hidden_size": 300,
  "output_size": 26,
  "activation_function_type": "SIGMOID",
  "input_nodes_weights": [
    [
      -0.9888183815821621, 0.5488447290735443, 0.7076798789935616,
      -1.9837898391613973, 1.3169904449258167, 0.6609124117608309,
      -0.012510612791231777, -0.8902591541520208, 0.8217070779853993,
      0.39073975915049597, 0.6073449054385873, -0.4445093065315022,
      0.2165105670230206, 0.29737896848814593, 0.5584256856836772,
      1.1530296022689301, 0.747963580912847, -0.054596174414990484,
      0.5374947643311196, -2.428921367433464, -0.5331545028808667,
      1.779340874413843, 0.2195306747030192, -0.9273282255770067,
      -0.0018465509039229527, -0.42374001674660455, -1.7508097852514721,
      -0.9346253940746709, -0.6081458809684691, 1.1868778814381291,
      1.2888410214030876, 0.0181765511970684, -0.0014699528285588958,
      0.7184822837063791, 0.5563311950925098, -1.6250001459732726,
      0.4619840424913061, 0.6943278754984041, 0.29163485521739513,
      1.8267169196501667, 0.17838882880553586, -1.2075991523420782,
      -0.13159945451463995, 0.227145202055256, -0.14670847217967828,
      -1.0793135332726569, -2.5917325969931313, -0.9305830235939296,
      -0.7090157645261698, -0.06732864133070775, -5.9390189640981235e-5,
      2.1880146160830276, 2.9667966164490185, 0.10444383377723171,
      0.23202746161023044, 0.22194046423384114, -0.1907868970854999,
      -1.0716618872468668, 0.09132975080488125, 0.6446170899982014,
      -1.759983549531544, 1.2464283608486932, -0.5757076221710284,
      -0.12385841839336424, -0.20787717340038347, -0.28738024587893374,
      0.1476063333621101, 1.880115616779139, -2.8419839786786962,
      0.26150573565803, -1.3700582508854342, -0.4307084907896467,
      -0.7753313825573896, 0.9607418337820265, 0.4871199764305519,
      0.9552252965472138, -0.3661710246412306, -1.3053190801074759,
      -0.6917796771731015, 0.7224930502322828, 0.0013551021169517397,
      0.8249162063458916, -0.19347700633016154, 0.7656477114190967,
      -0.06051320959411657, -1.626315199994517, -0.38784133062159193,
      1.183431211208649, 0.4069140080360359, 0.694979071242179,
      0.727220832459322, 0.49736431471073766, 1.2756403664805027,
      -2.01875610975658, 0.1449955944240002, -0.7704186866774538,
      -1.4694368656868924, -0.16247967713300096, -0.05755213482859312,
      -2.729551124517629, -0.3351229562589979, 0.21193290053104796,
      0.9594123485278518, 0.5276716002266436, 0.21219987389072187,
      -0.40590501933841744, -0.668102446063841, 1.4540248717577187,
      -1.6967900013104087, 0.7860878335815488, 0.10574834435990582,
      1.6117777839279388, 1.3661953833561677, 0.5297905918732595,
      0.14864792852518205, -1.0288006893892492, -0.7588379265116353,
      -0.012046385045579854, 0.3569674070426243, -1.6383856322961206,
      0.7855441178235869, -1.1162464061005841, 2.9032901588820277,
      0.44068357467247143, 0.08754846345769436, 1.21633871624326,
      -0.4448400293301098, 1.2484632200266936, 1.3103218693067835,
      -0.017680680692801796, 1.201804283264159, 0.34056703789191667,
      -0.798731998965608, 1.448290592093161, -0.7495848953982034,
      0.2311628378707979, 0.6318349601488092, 0.8155754448157277,
      -1.042617063893884, 0.23952216493183964, -0.1277694358905971,
      0.48870212962435194, 1.1453581646585136, -0.7248833305037478,
      -1.3625690947875793, 0.13882303020803108, 0.2620149184252716,
      0.1848335866933791, -0.34468213291933664, 1.4493596584245267,
      -0.47044990501557793, 0.6337411970669636, -0.3128213464343969,
      0.7278788895787249, 0.05917253990534304, 0.4617686592077831,
      -0.11804044633687512, 1.9406521396945013, -0.7218604884327275,
      -0.5712866868368879, -0.23540194351140312, -0.7331675035858302,
      -0.17272133583788268, 0.38501251698951044, 1.5785808893933935,
      -0.20076999850136754, 0.7630498019992553, 0.07816941912444485,
      0.9669460364988862, -1.3567439225826008, -0.6959530684751394,
      -0.6207655253312563, 0.25404438252509337, -0.921122779409253,
      -0.8349028076721163, -0.8742222148022374, 0.8688119252583286,
      -0.22508451790840925, -0.7342110596630286, 1.5229649882665086,
      0.28877427030363484, -1.3246793351860155, 1.4422005424998978,
      -0.2344356840803188, -2.4135956289620997, 0.6356581978086924,
      -0.40391437960318, 0.3336001117868165, -0.16766632338399992,
      0.28126518811867424, 2.4277638361925016, -0.5449378009577759,
      -0.5789428503735297, 0.15708524629443554, 0.12028791589136309,
      -0.15741704025851377, 0.5802602151515649, 1.1576225303413636,
      -0.355430612305241, 0.6469707098553045, -1.1217708367801402,
      0.31639891742220083, -0.44858763791343975, -0.6001971153113771,
      -0.6719020210116401, -0.4963560583291535, -0.09636016157070007,
      -0.4571349549268988, -1.3719769568079705, 0.5320851834657259,
      -1.4554731070258342, -0.11855804708857942, -0.08696193547077471,
      0.7180366814779539, -0.30314586956271183, -0.40545816607614515,
      -1.1410401230112852, 0.3762493498883641, -0.797948427160615,
      -0.1653173792707494, -0.9932218470468953, 0.8187756342202042,
      0.08543366846276472, -0.039277656481761014, -0.7402900512693558,
      0.7775385932323776, 0.37582479873769487, -1.6249804745778944,
      1.114832087906093, 0.029026074528595958, -0.170517173674282,
      -1.358019264473897, 0.43953664938635545, 0.5526400656821344,
      1.126487248195458, 0.6883036774356404, 1.4452702080179418,
      -0.3695517420413957, 1.6042455027506748, 1.5386067571663629,
      0.13729199929047628, -0.08507732795634614, 0.02472744505074981,
      -0.2691722420916862, 0.17958891707565017, -0.32118993581798644,
      -0.6668317904067664, 0.5236813883949977, 1.5902012689360807,
      0.46935077912548206, -0.7890470347974556, -0.6563204657453289,
      -0.6652450981280951, -0.183125803149973, 0.34629332484470604,
      -0.4273433856220185, 0.6388583352690537, -0.5300035926605942,
      -0.6001079316002849, -0.3075950278403912, 1.502841044420444,
      0.46775666625952717, 0.7023255024375777, 1.1322177701487102,
      0.6774957067462207, 0.27516761746232477, 1.3671416838899164,
      -0.5440927486944092, -1.9521214413297159, -1.358004378606833,
      0.10273973619822438, -0.9268276989033877, -0.231227544866468,
      0.6572566750316214, 1.258098528933641, 0.8145634621369187,
      -0.6213220935660978, -0.23496373942322776, -1.2493017458054958,
      2.568885145173998, -0.7115011473486976, 1.5457005259609842,
      1.7510994674691747, -1.307847331117639, -1.2892787836229627,
      1.0917619920583401, 0.08544762844814581, -0.49453655398176993,
      -0.29949667808458047, 0.9477163660359508, -0.3541770581957317,
      1.4394797463810913, -1.5702979858426507, 1.5010779285311129,
      -0.5959988744149995, -0.10647900483109593, -0.7520507354838297,
      -0.06025792536242552, 0.747305899583767, 2.0219222033166284
    ],
    [
      -0.9857881467404825, -1.2466043071805728, 0.4985545663693294,
      -1.9740723989578983, 0.030676266338915202, 0.45167287837358505,
      -0.06703144289142207, -0.29291384287314426, -0.37049404443703254,
      -1.6768514105178032, -0.02320359880621686, 2.2869323654351303,
      0.04368322987277447, 1.0851896596921355, 0.6551558222449119,
      1.1806624298982236, -1.6641708797381256, 0.18982211923651468,
      2.286903942893454, -0.26688800737698154, -1.4357133115407847,
      0.26822061452609486, -0.8817170892481242, 1.9992284371214046,
      -0.3138860828708706, -0.6561934023221735, 0.39150594319438536,
      -0.5239343732196922, -0.63470338432453, -2.6173518922700834,
      0.3943642326758045, 0.00413513697446677, -1.4899952520316628,
      0.8057528531846283, -0.3709403273768575, 0.38299988418759406,
      1.227331811247385, -0.0050275018825519996, -0.40898085934640577,
      -0.21107161529830473, -1.3093118178271919, 0.035013846489615204,
      1.8590594248817403, 0.7000205270757801, 0.6733033262386076,
      0.3024603965883929, 0.8362158465721371, 0.9372998943434098,
      2.1555373443794212, 1.085919054010847, -0.01409939301849853,
      0.6911181474762381, 0.2818579814512815, -1.088175762540221,
      1.6662309454202486, -1.5191360053105665, 0.5574809344521607,
      1.1649170961677164, -0.5001842360869421, 2.258361773166113,
      -0.90213575944531, -0.9266463560181464, -0.5297303354285787,
      -0.8068299995699084, 0.56423449291481, -0.21358741773219025,
      1.247424268782517, 0.8111535019410155, 0.5618637797955254,
      0.8128378267230789, 1.8735857482913112, -1.3859459215438832,
      0.2628594849054871, 1.4940490367562032, -0.03807475546320231,
      2.1320234291923197, -0.43983183798617387, -1.4324971749516497,
      1.8488760533226698, -0.7167800163007373, -1.1054375927053983,
      -0.17718206076884047, 1.2703768396794006, -0.015379282843133021,
      -0.31224913874642246, 0.5639642385269144, -0.9553095703047397,
      -0.17052227859206132, -0.13144618365676491, 1.3842888856411244,
      -0.5411771462907549, 0.8475713066795658, -1.1968293147260156,
      -0.600474346150486, 2.1346823131815973, 1.434027907603744,
      0.5258835245772463, 0.7005694332047963, -1.7219872219244774,
      -1.1529966762909347, 2.375562375573719, -0.19011706867200487,
      0.3996866036844571, 3.3341059195856433, -1.200582105893139,
      -1.6944316925337428, 0.7479841853936875, -0.4512626807534191,
      1.9227179282538094, 0.7933400935144294, -0.925022438636885,
      0.3479065268892375, -1.5978432499176636, 0.10922309003389075,
      -1.9569254219129661, 1.5928426626933183, 0.18893420743955816,
      -0.3189643416179063, -0.8988125689399611, 1.229332020338138,
      -0.704484128029603, 0.4775536991540217, -1.6947679789029884,
      0.912983364180622, 2.3170437676869016, 0.412594998111834,
      0.20344621552503692, -1.1616618618186738, 0.40650410921200053,
      -0.16148818266400572, 0.4743762966894342, -0.3606475398418933,
      -0.5644768726254819, 0.8718252551303778, 1.3088760431304454,
      0.051833948400916284, -0.3340147358539702, -0.776174851030882,
      -0.6831290500056567, 0.09649203510884966, 1.484496685485157,
      1.6744107158578896, 1.313917063264892, 1.656142723589504,
      0.2714338952574863, -0.16873001039922705, -0.06123584739632887,
      -0.26498610335754025, 0.3051464060092592, -0.8352923514399011,
      0.36450810679306317, 0.5493561569898832, 0.44266460400161695,
      -0.21811405618427793, -0.8687197948894556, -1.9560704956243888,
      1.7535546831205882, 0.34924384415396503, -0.938013376946062,
      0.6898404743383127, -0.46856038152012364, -0.5458391743106394,
      -0.6678069843105293, -0.461641980586988, -0.36063861630700067,
      0.415292835719953, 0.416938232644358, 1.1224686602872294,
      1.3239086689596153, 0.4716392850158229, 2.0501635521520134,
      0.12686317593468927, -1.397976123699151, -0.44034687347581253,
      0.9669956867636534, -0.6724347323220288, 0.39243810204495866,
      -1.6730360702291311, 0.5957127873383241, 1.0508273161638921,
      -0.22112575560437298, 0.9270987067457809, -1.367873119667465,
      0.5409976952988486, 0.6701701367044363, -1.23286101003352,
      3.134591213179458, -0.4710382078986831, 0.4161443177581734,
      -0.03651916560602271, -0.7027522553089034, 0.3124659537235124,
      0.13737007197174805, -0.1183973322847263, 2.8711328535348404,
      -0.8895683679178632, -0.6660293880697128, 0.3756708398174985,
      -0.17990590271091747, -0.1278865655050161, 0.4415112938708083,
      0.13167824056236388, 1.9082691511441703, -1.507000375586506,
      -2.0336196445477857, -1.0612263104564175, -0.9379826151418479,
      1.1642980376690313, -0.49486786816239225, 1.0412636056215752,
      -0.18345838083263796, 0.18970175920348545, 0.04217204845370184,
      -0.7146443919465783, -0.30574790865960927, 0.9220252560148577,
      1.0341767790077132, -0.06886132009303508, 1.4766730049612242,
      1.5897792992443351, -0.4387805773881028, -0.9335039251495971,
      -0.022961477715885865, 0.799068395639787, -0.6131706399075165,
      1.2661339915844434, -0.324930469353259, -1.626918806294508,
      -1.8928845141818298, -0.6687721395169279, -0.8099285500564798,
      1.20900953298605, -1.880685616226965, -0.6475344400942302,
      -0.8671045347355513, -1.3077033900612336, -0.05491845764908256,
      1.209819293285256, 1.6263238205016253, 0.1342619036937099,
      1.474709115949319, 0.5640229300510508, 0.17981631511048424,
      -0.046579689951824724, -0.741320208990047, 1.1647899260838022,
      -0.20937742873817766, -0.651281029156892, -0.09585234126323224,
      -0.02450123081306329, -0.8451940320608555, -0.597715811761467,
      -2.5272172965170423, -1.7853517367847822, -0.4545724893430186,
      -0.7614425208328325, 0.7410997118832555, 0.7200136668165847,
      -2.2876825579089988, -0.8104571197122616, 0.033282247390296935,
      -1.2113760147443784, -1.2360228134571585, 0.5630741020859756,
      -0.2794368869319606, 0.06814091437711478, -0.7053485043704849,
      -0.4859705577889597, 0.3966196629340634, 0.700026712558507,
      -0.5997665939583062, 0.6706560039678207, 0.7252914737888415,
      -0.6873946060865461, -1.4953595621833298, -0.919363215169466,
      1.3710001725462304, 1.1848951847522282, 0.788877784950611,
      -0.3581606428372645, -1.0115750690367198, -1.4197193070444956,
      0.9826382374445501, 0.6571016103985704, -0.577103287027596,
      1.2771747557123971, 0.1764892450070857, 0.9257257278381487,
      0.38364613569305095, 0.27599892036826296, -0.04584358763997653,
      1.9126841558336118, -0.17782569094165646, 1.0568131481883645,
      -0.02480197672214588, 1.0482947619210743, 2.767146083545875,
      0.5170747802093182, 0.1955256274558091, 0.4108583811519615
    ],
    [
      0.6076674312684625, -1.5165764460932072, -1.046807169394908,
      0.6529348315414251, 1.8926778569408276, 1.1655612015333574,
      0.7077888985505266, 2.1433255082366154, -0.6097451847543145,
      -0.9428564654082399, -1.0064536331239051, -0.07427700180516744,
      0.20602146010794967, -0.5934389061751105, -1.357245445565974,
      1.7273761762874733, 0.031888701367007076, 1.446822428246098,
      -1.460353881921929, -0.7884872766799579, -1.218763532537577,
      0.04274245992688797, -0.28662202600723796, 0.7554690786136894,
      0.2936770831574623, 2.0200938454932067, 0.1299226076851072,
      -1.1154490767698717, -1.1617423171204042, -1.6812641177245446,
      -0.9266299712993702, -0.19994752823768575, -1.3977599737471862,
      -0.6441603165682849, 0.21584687090003246, -0.7785411809495324,
      -0.5684312072174101, 0.6413584344822946, 0.6666140561195691,
      0.5791014472911707, -0.626291136687948, 3.386618754694199,
      -0.6525415731781713, -0.13624118080911893, 1.076869809600348,
      -1.7374316005655226, 1.5270564249942935, -0.5368830658179158,
      1.4931404451297736, -1.1984354448203085, 0.3558591175491754,
      0.3462851750975897, 0.13676475182416395, 0.6575251709432025,
      -2.047411166103289, 0.13110793076475094, -0.6916250766181424,
      -3.38745231393225, -0.24908399940251813, 0.5791757866268936,
      0.020221109028488702, -0.005587674047247262, 1.2786568986165225,
      -0.4394306291805984, -0.5874252364025624, 0.04537544055081168,
      -0.9546560636699353, 1.4908774800023632, 1.9793586400169927,
      1.1614334406701705, -1.1110288338764476, 0.2905553900773509,
      0.5711600435163732, -0.4938352923844306, 0.9373516316576698,
      -1.1696847094874763, 1.8350407349531788, -1.234077856573508,
      0.8677879223425868, 0.15154021033702245, -1.934013068805081,
      -0.30487491273036654, -0.1265059557239765, 0.7649767919275076,
      -1.9258960881387066, -0.3742649445875326, -1.791902773352579,
      1.552992386186547, -1.1703687402167806, -0.4002362716122372,
      -0.2962250624001534, -1.694758844265089, 0.9779635312905258,
      1.971780025388927, -1.6555101142145117, 1.2804168304599963,
      -0.6354066115319336, 0.5692273500503735, -1.7377515422606937,
      0.2939603604189844, -1.4773322718533832, -1.3909624294921605,
      1.5267664109185393, -1.2332410048107272, 0.42911646415299365,
      0.7723061892575742, 2.137139954233413, -1.8224538432223807,
      0.5315937303877115, -0.5482400934464321, 0.2980895945394156,
      -0.7938544122583306, 0.450772387741876, 1.558007841338788,
      0.03800358127046046, 0.33225712639114185, -0.7164429002139668,
      0.633176167924536, 0.3086051971178241, -0.5765887106709836,
      1.0627662227527919, -0.9328081996394189, 0.7994678081699852,
      1.415784194957319, 0.9854272732701627, -1.2478618974057165,
      -1.2230617405869264, 1.539979147767111, 1.154693392328183,
      0.7805507910508078, 0.4744597667587197, 0.6417190505993734,
      -0.694223760112454, 1.8122270013120185, 0.3877293464357377,
      -0.05717818015614176, 0.05770464718261021, 1.011718735169016,
      -0.34872697576581424, 0.7680791795067691, -0.9947261238991241,
      1.549852924651326, 0.13840400457425, -2.3813972834648798,
      -0.8845506956366868, -0.47578623592949254, 0.307484650859016,
      -1.1306309017797558, 0.13577220073216037, -0.9087441313529271,
      -0.710005580508147, -2.414060674859769, -1.9414590920083319,
      -0.7041782266735467, 0.3825328568102173, -1.2588351823679906,
      0.7533411373991046, 2.2257511498696227, 0.05016248594736527,
      -0.8622984734914079, -0.43066769071624805, 0.1383754500124184,
      -1.6634977744664174, -0.3210148008186478, 0.1669638320653812,
      0.9383249046034245, 0.6169482736876436, 0.2823057251489458,
      -2.186543589430287, 0.570685445612496, -0.2500421674695848,
      -0.8038588301300487, -0.21228088214082383, -0.25754582813093174,
      0.24778233229556793, -0.0313073816073081, 0.8870171903232587,
      0.1656696190251981, -1.8217180374523545, 1.1076151074504705,
      0.7605898572232676, -0.5004821751552534, 0.6722041488098327,
      -0.3958061917806607, 2.0316640007271918, -1.8192855778807502,
      0.46748233959208924, 0.7099810967182307, -1.625247865301552,
      0.9861536317820502, 1.2712490589094982, -1.2856953055595997,
      2.1243533234806256, 0.21465898033839892, -1.1078432339651063,
      -0.9524474404844564, -2.09262821295953, 0.23778185713422034,
      1.782472952758105, 2.0318959487123056, 0.39991067321769985,
      -0.2827527010866144, -0.22271656466207387, -1.1099989313320013,
      1.4419404795364492, -0.1838785507927516, -1.5695926722759246,
      -0.04617164707424408, -0.5162929403102348, 0.36211339505570117,
      0.9637069752237238, -0.7082270402842851, 0.9577688002499963,
      -0.07610355126865104, 0.34093331001773736, 0.7554313963518098,
      0.5445230736627692, 1.2465461020025492, -0.23490951651100397,
      -0.16875385201225782, 0.07093894672991907, -0.7967187015787436,
      -0.25199638015875125, -0.9436427359661053, -0.6427913626511514,
      -0.5153843420140212, -0.5615221274026069, 0.0672658558000178,
      -0.6060028248775852, -0.1266787272650183, 0.3656196322610925,
      -0.35511227469346374, 1.8202849962781924, -0.7950470907678295,
      -0.7780522155312491, 0.03502661787055831, 1.0030683316632871,
      -0.7687527917675386, -0.37221804981575296, 0.6199527986857474,
      1.0910230432583856, 0.21692011986882426, -1.3916544551354078,
      0.32014523098699216, 0.6122596000106652, 2.595571303850521,
      0.22662193941935174, 0.06695071617002352, -1.597060579400473,
      0.8133156811726977, -0.9353627657356465, 0.20561151230431343,
      0.20905389885182785, 0.27567940126532176, -0.11463220182943239,
      1.7915554874585549, 0.7335415881890814, -0.19702841842524377,
      -0.19520504873608066, -1.227919732683003, -0.9383302731596419,
      2.268337867092994, 1.0749135282795006, 1.5680375157167286,
      1.8017796881306214, -0.8869722310130138, -0.056204881118345505,
      -0.8686568669822428, -0.5742939663167933, 0.4242435992563658,
      0.8967525342192872, -0.29508031665651546, -0.265702169844453,
      -1.1487542611104211, -1.1594659635691975, -0.2930778138729355,
      1.0773495586675277, -1.2427288190207344, -0.2822019665240093,
      0.6307377998460925, -0.2514830111883381, 1.6062673793486029,
      -0.5908804287068011, 0.7300473253600726, 1.055219411832001,
      -1.314430765842441, 0.1257870306788305, -1.0592904839259574,
      1.0413965923662587, 0.5422284755830843, 0.13654021105917255,
      -1.46545198870778, 1.3630974747641171, -1.92569134674716,
      -0.32025813384083285, -0.04223590401068572, 0.4267326787598688,
      -0.5125342458359889, -0.767519104931241, -2.1414447437704855
    ],
    [
      -0.6572195677003692, -0.3328776512743813, 1.0557699754117982,
      0.6747720503591507, 1.4489672915326106, -1.1437017614971507,
      -0.8129822835058117, 0.21658362980255869, 1.1021532323941738,
      1.5495604124610813, -0.6744780355306792, -1.2318106766157297,
      -0.3953733371365925, 0.7470410917661465, -1.7353829570864603,
      -0.69984789300878, -0.29847319516867943, 0.9766172748407819,
      0.30543358839980606, 1.4076547548212108, -0.6196331495204939,
      -0.892370169898553, 0.24166568385299167, -0.06759709085813789,
      -0.7128544909766664, -1.9023433006032746, -0.449846171374679,
      -1.9214008517932457, -0.9350945651222058, 0.053919698512601394,
      -1.0415858608595834, 0.11841290544541254, 2.2721337734856744,
      0.16229551746673324, -0.786167919308497, 0.7096468308607699,
      -0.3942560844474042, 1.4350325428204556, -0.4469990692123416,
      -1.2049870626064114, 0.054086686197775354, -0.1733651124886527,
      -0.44644218092421745, 1.6831406857386002, 1.5524182099337085,
      0.29507323004566444, -0.0972952462163642, 0.5954278010846721,
      1.4010615155591364, -0.08161909633144905, -1.0619220664375932,
      0.3056494247559731, 1.220267848826668, 0.9820847228694876,
      -0.37507223473557905, 1.384689432338101, -1.3524867870781074,
      0.05682948913378132, -0.49673016721862695, 2.032546303439968,
      0.06304169238279766, -1.4367347373253068, 2.1586663658714778,
      -0.15840668874648398, -0.7811470814155101, 1.4340799555079735,
      -0.03330178817019376, -0.5057870641256622, 1.1790774921008074,
      -0.1463857428324128, 1.256388885675282, 0.826152961912153,
      0.557719345392045, -1.7612785631220698, -0.42819886943103397,
      -1.3200738929198181, -1.1146529596300832, 1.830681465805939,
      -0.2116987466698261, 0.38134246178597947, 0.7599861649872474,
      -0.39282100920155416, -0.6804715117392693, 0.045568394974008455,
      -0.5168130279982525, 0.23365537789864926, -0.7084786336079009,
      -0.7462835227065537, -1.9819794569794984, 0.25327586444187344,
      -0.46510980839602845, -0.2905920697275182, 0.781758262384741,
      0.22309830697870822, 0.5043130165815466, 0.2976280912829551,
      -0.7429119326543815, -1.3696655764389978, 0.7772588033892641,
      -1.347229060357987, -0.6289637757682468, 2.53176147840048,
      0.5859766013381941, -0.39473761129694596, -2.133798830810184,
      -1.1182262704731951, -0.4770100434713095, 0.39211387444928475,
      -0.1832599417324261, -0.3451453595201011, 0.3032981067301868,
      0.8441670247338076, 0.6732180411216977, 0.10377138557754341,
      0.596690986568955, -0.2840195213736797, -0.07309184942798919,
      1.0249958757805773, 1.5019858015171506, -0.1747127874944845,
      0.4532517740835011, -0.5919793685235702, 1.7896162300117477,
      0.003587735606981992, -0.5216619736783146, -0.4971867080954506,
      -1.69364320711213, 1.197984023981421, 0.10725440185160674,
      -0.04910683968678377, 0.7163753844562799, -0.0072369052950240955,
      -0.9249790212735806, 1.244110139192869, 0.49748964375450755,
      0.046420456097707875, 1.511239402367314, -2.041129993230233,
      1.6895994448612137, -0.25266724638714294, 0.2741569832690035,
      0.21955866575402522, -2.005194133449587, 0.07624609936816445,
      2.0778541188539346, 0.6021348845018049, 0.9450754369192879,
      -0.10829603813002414, 0.08722572475723067, 0.6029995849336481,
      0.45464972667925924, -0.8784316638892016, 1.231435195355221,
      -0.6604192954607908, 0.7395919692985341, 1.1593011302259906,
      0.11407033348688729, -1.7043261970292765, 2.496825174459511,
      -0.21022919694214653, -1.4547987629823032, -2.424994413196999,
      2.514012101262591, 0.020653201302295237, -0.07297866639696539,
      -0.8599806325284955, -0.4542008645653637, -0.4252346105621066,
      0.9407831123602926, 0.4635408882185909, -0.8743733050639519,
      0.31870103435266556, -0.33796450261903566, 0.5067810363541055,
      1.1108274083923018, 0.031259249501807626, 1.4035037701098938,
      -0.19584549182994368, 0.6741716701282945, 0.46125475735263444,
      -0.9030784516656133, -0.28773405368553173, 0.3305027408972989,
      0.044420087060323035, -0.31937920573985346, -0.1776235986861982,
      -2.9301307757116355, -1.0528875394061412, 0.6288750257278513,
      -0.6833133547868994, -0.23299555126661534, -0.47549897515122835,
      0.36511527029231544, 1.6475536682591057, 0.18103774765932867,
      -0.13837294837988026, -2.5120454071046576, 1.0020223956714864,
      0.670883709913708, 1.2002835688275109, -1.3710065124851023,
      -0.4590808546239978, -2.1300982891591227, -0.6911400790365871,
      -0.7492390070075363, 1.7597628584739853, -0.7172724625733885,
      -0.9889551095166199, 1.7078659141296577, 0.6490628466208361,
      -0.21697205491709046, -0.14117766695398856, 0.8920896702747447,
      1.7621275835233026, 0.5013252761748755, 0.27197434881639504,
      -0.5189431897665039, 0.9537546273776036, -1.167450622006196,
      -1.8727995749167132, 0.9672108933045309, 0.31637186250453964,
      0.21357257495745025, -0.56211666926891, 0.37671108381619717,
      -1.084375643320552, 1.8697347151570014, -1.274972067290258,
      -1.0885438631769644, 1.1131171391327424, -0.9664582329070407,
      -0.7181434673191364, 0.8767202411844005, 0.46312972435597255,
      -0.45563537319946795, -1.4449716029801019, 1.4823596587475067,
      -0.3050130710380009, 1.427601188818437, -0.8053582598775465,
      0.352731929165887, 1.6354048578221423, -0.6479938495849684,
      0.571040198357908, 1.3979137004628712, 1.3814245730561396,
      0.4383903681938613, 0.49032589809126675, 0.003913635927189609,
      -0.0588141166297887, 3.1185988681617527, -1.3921365802709291,
      -0.5458883589503053, 0.8584824172293178, -0.26196688970812254,
      0.7523613666719942, -0.1481170400427391, 1.0874671559869655,
      -0.5555592380117846, 0.38664232114134894, -0.5752705773645959,
      1.0820667418571421, 1.4896727728982828, 0.1722299982907694,
      -1.003088344966171, 0.15381249072939085, 0.6827015319354391,
      -0.019005072578771737, -0.03406739452700006, 0.22324952886888735,
      0.14037826399033063, 0.6958753254174782, -0.6756730970576693,
      -0.9217641983635332, -0.42113136157529124, -0.062074691041956,
      -0.9739059073753501, 1.380014305085549, -0.9260761625044023,
      -0.9519329848669876, -0.12469183175574708, 1.0658157163017077,
      0.029692962890958595, 1.2047905014808313, 0.14304463555217706,
      -0.5200151450711356, -2.2055882996632206, 0.5806025369109704,
      -2.6095540832531037, -0.6509246817085739, -0.7045819362584407,
      0.5990429505270861, 1.0943659623435262, -1.5652854793718696,
      -2.827877860304397, 1.0133628636381062, 0.3392587654395097,
      -1.1534122341569528, -1.1391779570387015, 0.8078479143245101
    ],
    [
      0.0740921903846211, -1.552598844687477, -0.7789349468329593,
      0.2086450342120846, -1.3859159293325274, 0.8965049523526786,
      -1.8489596243101802, -1.6790259043881441, 0.046648496823487776,
      0.44743336950529894, -0.793778967029704, -0.5201639175909308,
      0.3946775430236652, 0.7496866584403428, -1.4455512316028325,
      -0.7191069131257917, 1.2248228631391864, -1.0386341672456716,
      -2.3198414644086154, 0.3084050998374616, -0.6222409473971635,
      -3.114307790080141, -0.05015855806119652, 0.6111247747942316,
      -0.7534893180117009, 0.34362542743643865, 1.8830409646556783,
      -1.911119000731522, 0.08959768055745361, -0.5950213478542471,
      0.6478016073071443, -0.0963901376926783, -1.11307412623028,
      0.9588191369304414, -1.395382853627258, 0.6514242200498027,
      0.036121008196010884, -1.3606844682832364, 1.0341211154540029,
      -0.10085078783917059, 0.06994784784259946, 1.8417588195002825,
      -0.9541766370587837, -1.8296950853851552, -0.34182928046855854,
      -0.6517909705853707, 0.13182691164242186, 0.41275245502143587,
      -0.4297942512460412, -1.149325114123705, -0.9534222615895755,
      0.7257297812694616, 0.3380157431479795, -0.3367358026048873,
      0.24214978195023, 0.0695833469843, -0.21200417361801957,
      -0.9915651348668678, -0.8820974581274176, 1.2042733524690379,
      1.7555680120359054, 1.293126270969171, 0.9746647670231015,
      -1.4675441403733624, 0.6885241881762715, 0.24590188360307685,
      1.0359570623592025, 1.0092194600195987, -1.7083765584557395,
      0.3188144883746928, 0.33757712969509596, -0.08772250521107207,
      0.25665092157706276, 2.9537806564580125, 1.5826764126643142,
      -0.5466382599663261, 2.2385280346069907, 0.43268601052128947,
      1.5145897812664375, -0.02124500917443734, -2.2859333115087863,
      -0.5169537676292016, -1.2536751726959754, -0.35517129438267286,
      -0.4542394514500869, 0.10848956434386478, 0.9955845703634807,
      -0.018354649995960436, 2.1258913374407062, 0.14444775733693696,
      1.5491365925499512, 2.518332293527527, -0.31891925015599515,
      0.26673346914069557, -1.0593944635247667, 1.574210888692952,
      0.25054929053467595, 0.1564846072042964, -0.17228908634113752,
      0.446379807167758, 0.3978251375231007, -0.38407277756925184,
      0.7746377691958284, 0.7943361652186068, -0.023384355024636212,
      -1.956386408663606, 0.9525829211775315, -1.8830818126209277,
      -0.3387730184210047, 0.18230497537006565, 0.8233469205619128,
      -0.13290934455243403, 0.4229018306852908, -0.394233379640055,
      0.9736592904630366, 0.7653405264250758, -0.006421559051842961,
      0.4959181254768261, 0.5288059702079667, -0.11645202438317648,
      1.4185647292478412, -0.9394545648225001, 0.3568326382438873,
      -0.33448904620670306, 0.2017115347513155, 1.1542251494318567,
      -0.2060196027977765, 1.7530578076879322, 1.3670014574570475,
      -0.17296640343174322, 1.8933997892707854, 0.6635771889737783,
      -1.6092976754014212, -0.3618741409894991, -0.186951393567019,
      0.6111476037253096, 0.17587940553057993, -1.0807779091357306,
      -0.20842020643640305, 0.1101520807312104, -0.26822433897314163,
      -0.4241262150566959, -0.4531317115413476, 2.2668409212692135,
      0.21923902005582385, -1.1220441712054898, 0.9269417613887921,
      -0.665739894441192, -0.8445717827420308, 1.354482164927197,
      -1.5483144390707648, -1.4583228897605585, -0.29018833460141147,
      -0.31791450665111065, 0.7722070198689805, 2.0327990794365833,
      0.25647634478776665, -0.7299889799057142, -0.16954721426293218,
      0.9244376470333956, -0.37596058762637896, -0.9636878636887335,
      -1.553996294974568, 0.6453945770158842, 0.8748688367388305,
      -1.6776516434183866, -0.4334958894411025, 0.8816922364320413,
      -1.2741920060189775, 0.04438032784646573, -0.4147029235475976,
      0.33507573520940265, -1.8845888829742143, -0.4006384017357963,
      -0.4743345537764986, 0.4963271862039945, 0.5238474614349004,
      -0.2007664657681513, 0.5005682738343571, 1.219268773907704,
      -1.3484454422759318, -0.2794711274176655, 1.7791392526422378,
      -0.15366740256668368, -1.246454592819649, -1.9554642095166734,
      0.2723980759414827, -0.783320585203199, 0.28632623012433583,
      0.6650127758785739, 0.29112311340369007, -0.7286448353222441,
      -0.35962530784888963, 0.4352461451281501, 0.16473904588761618,
      0.9898254563805512, 1.1387690176903387, -1.5536749931854004,
      0.3135076689393768, 0.6435362910308605, 0.5708194358409666,
      1.2490570977959323, 2.4129509784194543, 0.6430353174622164,
      0.6070492847267914, 0.42010376118862636, 1.1112669544390377,
      -0.13560935428094856, 0.7528517752196463, 0.017145288824353348,
      -1.0066084603506682, 0.8427404673103226, 0.4229329986595268,
      1.217619128473513, 1.0919793584466713, 0.5098787377979417,
      0.7008531126008513, 1.3756475424244645, 1.715458273130559,
      -1.1956463363506604, 0.2131943340261286, -1.750870641176108,
      0.10633094862599671, 0.603598033658112, -0.14606917025296154,
      -0.06527006399956102, -0.5866444256426567, 0.8737638120579737,
      0.47886962327602184, 0.8949267448598794, -1.166028076407603,
      0.01828675128044514, 0.8479789824252583, -0.8547204943902673,
      1.39742127798302, 0.4540332205687745, 1.7680417207832173,
      0.10743861042836944, -0.3710525848675966, 0.12149750325628475,
      3.1608179523982303, 0.6934975548806396, 0.2590553671216825,
      1.632297013201879, 1.764873522134602, 1.3078695849640893,
      -0.04614538557895495, -0.16249574766076766, -0.026901578674772077,
      0.8122135077532544, 0.8563767678277956, 0.6694796193976476,
      -1.7877345853494895, 0.920102206806085, 0.9220997061053905,
      -0.15333947166604311, -1.2367526587625524, 0.006431898186563032,
      0.24354281916243006, 0.3105790542312855, 1.0857689368989822,
      0.06725293529493163, 0.3486845598543399, -0.93051107527661,
      0.3203121980798703, 0.682186614039552, -0.10190630077968181,
      1.9092361730797058, -0.44151892499106105, 0.8103961939320967,
      -0.09404037452499982, -0.08038091563311485, 0.3431443689599097,
      0.3869430060540041, -0.6096896647088609, -1.0923056684394592,
      0.3919373118310014, 0.06998722529914622, 1.8817583236600202,
      -0.3886178018526786, -0.1246945244236764, 0.31624295661046425,
      -1.0012406670674112, 0.8822851264485493, -1.3329621819128865,
      -0.791060193459051, -0.9496394258806545, -1.4643586691027604,
      0.6100270562352414, -1.0334900544193635, -0.5205748995971424,
      -0.32113230442614543, 1.1872666316575653, 1.8210139186731942,
      0.6009505234409691, 0.6495353941738368, -0.981201734677522,
      -0.8293860425993129, 0.2323327468037163, 0.3304532950319842
    ],
    [
      -0.18596222989080277, 0.40539152617147944, 0.9197512578480618,
      0.955041066621947, -0.0649984570280107, 0.17790136222794686,
      0.12956948845398322, -0.19647603352291365, -0.2032800493473978,
      1.1138161663702326, 1.5893292982230987, 0.5500315643760016,
      2.428323761339585, -0.5922322201026778, -0.9787839926839645,
      0.9335695118851176, 0.3320816653730578, -1.2678775200865684,
      0.7206725898042453, 1.233889859388845, 0.7034750803454592,
      0.032318371794159514, 0.9132618176311902, 1.1031476490155938,
      0.5527988608800861, 1.3894332446846673, 2.0478956350717334,
      0.14000989251287377, -1.553061167502225, 0.4985438520391874,
      -1.2974043048772612, -0.2633805446581447, -0.19557546075643936,
      -0.31027142929015294, 0.3108928155992961, -1.8404128158392588,
      -0.2178763415198656, -0.4805764951561006, -1.0956766616894231,
      -0.5933141412372872, 0.7049289151331062, 1.2463800713760553,
      0.7227073653803393, -1.5792581196934246, 0.5522926764273357,
      0.5794805364301612, -0.12099103061409236, 0.8158173407284202,
      0.9470260931473629, -0.22308718956545595, -0.2648986456739631,
      -0.5351460902895128, -1.2325370088856349, -0.23472431423670137,
      -0.42366391270457937, -1.326156249169739, 0.8234750421085287,
      -1.5073120851341348, -0.08184199105399476, -0.03851867681213746,
      0.9677571777819514, 1.8703202968029595, 1.1516266470157928,
      -0.13600806634423318, 0.5511526737996085, -0.10145352616518254,
      0.5030809594596406, 1.5642958284763588, 0.11828616350320305,
      -0.3322129485835226, -1.1496772419546866, -0.3226257763961629,
      1.1602293399946604, -0.5710289596018181, 1.8328470950205966,
      -1.5670628118530339, 1.7234724478839987, 1.0372443381604433,
      0.09770621985740861, 1.3966782398910083, 1.3747081805910406,
      3.36111113368337, 0.7688804574184916, -0.20531235324974867,
      -0.5935071568444542, -0.4493975872472488, 0.295893151925566,
      0.2691520788615887, 0.04828122508258783, 2.1376897759921087,
      1.2576144288315925, -1.0098310408250755, -1.6320252492588254,
      1.1968642933055411, 0.036109507449983466, 1.841381781670744,
      0.5289868625995708, -1.0997430688854883, -0.7867431556542214,
      -0.02146993531174616, -1.0371448203328353, -0.4720918640506171,
      1.027805329125022, -0.049686409223999965, -2.3761668654402057,
      0.5385930935526942, 0.080533173207057, 0.7357306515805399,
      -0.1695799470952519, -0.43697330553347363, 0.3371904557967411,
      0.33183955685773947, -0.2924182842819964, 0.3785854386961749,
      0.3139450768961229, -0.3499122413921555, -1.5336709958079362,
      0.42772453728673676, 0.5119783664184323, 1.1684343574009253,
      -0.19290860766776155, 0.031977214169744035, 2.01893326460734,
      0.008870891473101506, 0.33966678590473, 0.054367569652860874,
      -1.288584227948864, -0.5332521048705294, 0.10710336502017857,
      0.3231719044084498, -1.8611676177452339, 1.4815545962561154,
      -1.7066796984533765, 1.0715126917553603, -0.20990213528193755,
      -0.5359740501797345, -0.4999133131014132, -0.8469860903677969,
      0.20691695029263424, 0.4944689185055182, -0.850639399351431,
      0.21346742414467498, 0.3837629400674101, -1.9172185280147298,
      0.3583944565122044, -1.187491486062527, -0.5754297405150693,
      -1.1703128588724894, 0.47718764784309226, 0.7189693017566626,
      0.8478965618388818, -1.1998858941738153, -0.12483567646128123,
      2.2449174269870587, 0.42997782348575064, 1.1005239633269661,
      -1.0287810892503142, 0.16468525953465352, -0.07249262329647625,
      0.834916469616366, 0.28298160364314934, 0.9332245047628052,
      -1.6289762742417253, -1.0224208399355141, -0.12663746975267193,
      0.18470117933843475, -1.9696106927570183, -0.611947357728721,
      -0.08116778841913375, 0.8170880726407801, 0.7252839792373807,
      -1.5719069714851313, 0.14120870421568316, 0.4316800580706883,
      0.16974960254175092, -1.5941859015958684, -0.40689667493640863,
      1.3605653793358918, 1.036769512866112, -1.0279539585484683,
      -0.6496338586696874, -1.7239942186862953, -1.022076882962036,
      0.7851690733152403, 0.9621951826578743, -0.8630932920384395,
      0.19082732814315742, -0.8766606954189432, -0.285365058074794,
      -0.7595300843562498, -0.4767187051852936, -0.5030130936474562,
      -0.6234484131515058, 0.676210043862183, 0.5697218029828984,
      -0.837769853886008, -2.0304661405625724, 0.013024017597953958,
      1.9993865234701824, -0.5936122032732365, -0.6837558096750518,
      -0.9562252812180204, -1.9291999055590434, 1.1207689015261766,
      -0.35767446393284635, 0.46591246549120136, 0.7106261049588332,
      -1.1370419867199295, 0.32496689305565724, -0.5304917051935799,
      -0.2631842273962213, 0.5473838979322698, -1.644345343347114,
      1.8080335786118882, 1.261756197181813, 0.8756342359969042,
      0.9464947719748857, 1.5111323988198084, -0.22133803055254894,
      -0.8195585517563154, 0.7474174608377111, 1.212069584353158,
      0.6512886710331325, -0.5228237289233737, 0.7435213806148782,
      0.22906703640047757, 0.4046155091813559, 1.3929169568444228,
      -0.19026640998514394, 0.24921772224562588, -0.1985227175996377,
      2.4457555160428366, -0.6701380527840834, 0.9708323530811629,
      -0.6258831024776654, 1.210556624260496, 0.7323285734253029,
      -0.7689513891381476, -0.11103923240906279, -1.9226042148773925,
      -0.5608358319474324, 1.6510390557825956, 0.8231239072007558,
      0.803549770417764, -0.8559648963753077, 0.38363771719103035,
      0.12380995015125469, -0.45193457698308903, -1.535278221671348,
      -0.8046751210881036, 0.3953198651757553, -1.3612169709968853,
      0.2886497793597486, -0.492658713640913, 0.21472222458859735,
      0.014596362267540535, -0.437003234040365, 0.6161627434028144,
      -0.48398281132065984, 0.2633643867513462, -0.0631872642975087,
      -1.2792374772726054, -0.4083864757797283, 1.2422623869912108,
      0.5060762641167822, 1.269429575178222, -2.173029303472822,
      0.4225178137622839, 3.2175581389411714, 0.582743530993366,
      1.1056685615472344, -0.3283563767537427, 1.8654527393839155,
      0.16135696349399958, 0.6680086262023283, -0.26278099634009205,
      0.1386043944227591, -1.1595078225235675, -2.1634593010980416,
      0.3756313652708474, 0.1855715009828643, -0.4061876461017509,
      1.3233616675230904, -1.3485351464815019, 0.24711377725466346,
      -0.7804162458487128, -0.19292671763221628, -0.5616578187369806,
      0.5888914090860713, -0.019762476645362674, 0.2349563888444207,
      -1.9912910319127197, 1.1519412935616065, -0.28038207233624757,
      -0.9709085561003249, -0.47310245556987646, -0.027465656238189393,
      1.3293990093049899, -0.7355075101915083, -1.186309894525824
    ],
    [
      -0.605818221393663, 1.0855663240873155, -0.4145476899073214,
      -0.03464402137330398, 0.5865130687584675, 0.8063181972004462,
      0.5739394454237283, 0.2862998958901962, -0.6040319150476597,
      -0.3292311700769123, -0.03190158963568753, 0.42064460515806995,
      -0.4640818645440301, -1.0964966807887573, -0.029610815585945756,
      1.716692367207281, 0.23198127353280906, 0.3654376801271526,
      0.13011488115156106, -0.4417144524118722, 0.9037513817651159,
      -0.2497395390333583, -0.05131738310669386, 0.5585731063672448,
      -1.2279965802946464, -0.5803651167517282, -0.04581386270548729,
      -0.38091328051183154, -0.4096122975051343, 1.7925792331984247,
      -0.10427304139954456, -1.2772730467175666, -0.6825527871676651,
      0.344451522206402, -1.5278723946932988, -0.292796397845684,
      -1.17621020099314, -0.41092467253207365, -0.8472708652005339,
      -0.24955888448032762, -2.005741665833097, 0.03719398966417337,
      -0.6891212399728336, -0.7765537403022998, 0.15477698348159788,
      0.6766774226119525, -0.9948619526224018, 2.2717842032162894,
      -0.21614778586651018, -0.5524422925759342, -0.045690685511785685,
      0.673147456343807, 0.0515290114568894, -0.28254200246435957,
      1.5916137798655015, 2.02063512923582, 1.6946698418210155,
      -1.232805493259502, 1.702761467201373, 0.9749407880658248,
      -1.2550152830848915, -0.19576761244386692, 0.36334077959083133,
      -1.6551954655636456, 0.40247075363697743, 0.6582964602802052,
      2.075706881548765, 0.625962572111579, 0.32097730196562024,
      0.09499614240217585, 0.3301366176143425, 0.5483966085432722,
      -1.2544841551052335, -0.2328649774649094, -0.8042966729483799,
      -1.4383145907108215, 0.34776799571224104, 0.99927150801255,
      0.7063614148701532, -0.6100040840980048, -0.12319941822855895,
      1.729140242094412, -1.4079734792206997, -0.8392799498708768,
      0.7196683619752492, -1.091505973428101, 0.4195663908460909,
      0.29025256047995224, 0.018516235264890928, 0.04980552843158019,
      2.06162316473474, -0.4340153188016235, -2.174772360840936,
      1.2354383381809533, -1.2106254375111734, -0.8892416203717948,
      -0.08646453490845434, -0.534112862470357, 0.054815426469173194,
      -0.08035699328005874, 0.4805870842876624, -0.040198581343341394,
      0.3283816937447958, 2.636107856103525, 0.18079372140763783,
      -0.4656428353115933, 0.7077122252764906, -0.6774440775734899,
      1.261657459738226, -0.8609182985742647, 1.4256575747813354,
      0.5603973557611158, 0.9543453944209525, -1.5072766987398953,
      1.4583295369404037, -0.5368569634723904, 0.5089864364765394,
      2.0200582402479923, 0.14421035518972578, -1.459827237525341,
      0.38173152342796357, 1.1895520096494483, -0.48935923636964673,
      1.4355179834152485, -0.05498014214162896, -1.2089145522652465,
      0.5588173395197417, -1.542470470491358, 1.4517579608645859,
      0.07491118604284618, -0.4459848831500312, -1.0386564255491073,
      0.610510142514274, 1.7581327836581162, -1.7488200659824116,
      -0.8077584527033992, -0.4441191098905281, 0.7366571625401128,
      -0.15563115333781843, 0.8424543789313816, -0.9205551875002516,
      -0.860878981183572, -0.7742106667003645, 0.2019614564077794,
      0.18934471111595913, 0.0026667459016754373, 1.0325327420365145,
      -1.0216208633886403, -0.021372912368601154, 1.3607458224469335,
      0.023679991959188972, -2.196922867026351, 1.229399691296833,
      0.9759691136754525, 2.1979247424138717, 0.517338651035725,
      2.5756807167280606, -0.5481100753204842, 0.6536126930677982,
      -0.25154914648259297, -0.2913965883631342, -0.2694689952236548,
      0.8279232737857214, 0.44733145276412484, -2.551140833532822,
      1.7307311047151024, 0.5749709189912876, 1.6559168938048523,
      -0.15510267957640075, -1.084252249408711, -0.3613153948080905,
      0.41595177051775417, -0.9816584806504761, -0.6625435364993812,
      -0.3633636147626759, -1.1240440492892088, -0.9915533896661384,
      -1.0966912740557433, -1.0029407797213379, -0.9736524878522409,
      0.3953380284221498, -0.5696123990131233, -0.3559287918497437,
      -0.47628381544196435, 1.5612703319893804, 0.6103624162467763,
      -0.21971657136750436, 0.7967556556043984, 1.1434538466325606,
      -1.1574018054831188, -1.1081340402784865, -0.5145153480087308,
      1.2594106678374415, 0.3880421166826173, -1.0006402910383683,
      -0.10557116763070674, -1.237031584642433, 0.6509394386317379,
      0.2481129908891076, 0.6327078314121491, 0.9593029117539671,
      1.050610271502513, -0.3327092874001509, 1.788160249255952,
      -0.48068570129864885, 1.6991538120825225, -0.61514839740217,
      0.10661943848821427, -0.051677872632045374, 0.5325508602266938,
      2.0277734440917956, 1.0121196352889192, 0.8331596516028451,
      -0.590592128049675, 1.8204887147157018, 0.743009117958748,
      1.312266340700299, 0.8866216501388907, -0.08800805763827305,
      0.40601942814776215, -0.0377168153911605, 0.9154893794054414,
      -0.7837337921015326, 1.0404294996377401, -1.1876694666416792,
      -1.8127143225604951, -0.719096089739706, -0.6842088161889716,
      -1.614872084208312, 0.34671659480554573, -0.19521152666678965,
      1.6448211687433032, 0.9481648723220093, -0.7195196681250313,
      0.44223721404100386, 1.9753233063269675, -0.5921214543061184,
      -0.3165879179923527, -0.8698107013953816, -0.5939805159626207,
      -0.4756610056442715, 0.6936069294765601, 0.45144496804477136,
      -0.5137080960658029, 0.6538397045152773, -0.8622263647100588,
      -0.964973965246756, -1.964959406826016, 0.6471957784066045,
      0.780519811985845, 1.5092254209639415, -0.33080471899163233,
      0.504393733384223, -0.48583393278779696, -0.27500831297298506,
      1.15831506567022, 0.567790896929046, 0.28983717052212254,
      -1.019903063828779, 1.1278525066153136, 0.7897194771987518,
      2.7758056592163207, -1.1061778604507415, 1.2416316137269963,
      -0.05487121664954246, -1.3928787039920263, 0.9124757636445235,
      -0.8514785591253605, -1.6941921149783339, -1.035472410459033,
      -0.6480411914812809, 0.5095783947601535, -0.45046114036348883,
      1.1293646986575232, 0.393448318997265, -0.4660208800295084,
      -0.8082749158564569, -0.5633695045288488, 0.24678022000150932,
      -0.8981867493628571, -0.42659772743804986, -2.074617398938579,
      1.0445869906669076, 1.1333215151904517, -0.668799260941491,
      0.31649105967635927, 0.5477279889937318, -1.9048027363257005,
      -0.12104086053703601, 0.12096943135449213, 1.829387361218235,
      0.4775057778594845, 0.07684016401960747, -1.1359512460028787,
      -0.8382489745905776, -1.8601879554122536, 2.050602640792988,
      -1.4405282970689808, 1.0608759124060045, 0.39425288407635956
    ],
    [
      0.366354562124525, 0.6825763420922438, -0.8133777712065434,
      0.6756672825408768, -0.20667360837923068, 2.626523760689398,
      0.7999615840159732, -1.320478704965515, -1.2606526553591102,
      -0.45549339273371475, 0.9255683478949687, -0.4080239417540693,
      0.1834259433027042, 0.33923665916403867, -0.9169473499594992,
      0.08531264558903985, 0.20109239893312947, -1.2223545175522308,
      -0.4919076708749594, 0.024304057497607105, 0.27799405905890995,
      0.7310077632385122, 0.25608938870008263, -0.647342186632217,
      0.7859856333178306, -1.1114858242969703, 0.028406833628051232,
      -0.8379555915550464, -0.7988762907412835, 0.8022258891103654,
      1.1569374447563932, 1.1909165995985584, 1.554147818039057,
      1.003368686735646, -0.9168018233872368, -0.302326685227025,
      1.7318347089236337, 0.31216225334335573, -0.47530770468284383,
      -0.4080932321031943, 0.12430277108280155, 0.9006657036725044,
      0.27715079514528657, 1.3170747198250663, 0.15598303579665068,
      0.2339390547659519, 0.2578459237491945, 0.17661053730276252,
      0.15053290554113713, 0.7675118773193439, -0.38786454280993854,
      0.6178760820538326, -0.41970341132650074, 1.3791421419699899,
      1.364538667446214, -1.036150911079572, 1.3875211258251205,
      -1.2073939415636132, -0.5754802248618793, -0.6553990491811614,
      0.9340694767955077, 2.48942191234987, -1.2398289655688974,
      -0.07082446559058773, 0.5167485898926993, 1.1482147922294599,
      -0.4790866781965138, 1.6840745490411826, -0.3228522566810189,
      -0.5985100801694677, -1.4665521538944823, -0.8074233519695915,
      0.03756148472356776, -1.29095530776771, 1.5242641795556848,
      -1.3889620539873158, -0.8309610917773782, -1.49156462433546,
      -1.1839518998543983, -1.3321168474988903, 1.4674189779924,
      0.02445965471510049, -0.044025614223458354, -1.3617065047909078,
      0.899335655379764, -0.8396674249527082, -0.09861381812532057,
      -0.3304602346173269, -1.5918736835577099, 0.20330219449294584,
      1.9706011322139878, -0.7221327762902875, 0.130947598310574,
      0.15427043035447907, -0.9487599819373589, -0.42055512192808003,
      0.2820706308976696, 1.8348628554609838, 0.6511270675302547,
      -0.11291546679158818, -0.0445103017646172, 0.9889343189107698,
      1.2262781053157326, -0.2415556009396417, -0.19164071460423976,
      0.3830726969532165, 1.7547565852461573, -0.37016995647777046,
      -1.7171137841458932, -1.1716803383198722, -1.0424790673502304,
      0.6030522333851638, 0.8377281242561772, 1.7374237642714112,
      -0.9221411431306621, -1.279230721367473, 0.022435394309069167,
      -0.040371780051247357, -0.42198009375973816, -0.135631710400353,
      -0.4733863057867677, -1.7246291335418675, 0.34353886211719586,
      1.5683104427238368, 1.6824890708476137, -0.9731673773835066,
      -0.3235266442392788, -1.7009122264471686, -2.1982407799594155,
      1.33908012804926, -0.4266120086750115, -0.06211081207096729,
      -0.32075183281205566, -0.3199463698962092, -1.518432801805237,
      0.17633614755852953, -0.17638995305065872, 0.039960549203795395,
      -0.6078257587486874, -0.37161993433489865, 0.9802099367645267,
      0.005266566768811546, 2.29174565543269, 0.08704668905768333,
      2.1775835079588717, 1.3102609799900415, 0.1410284348361879,
      -0.9567914685363696, 0.31943575484492037, 1.0557022858148972,
      -0.33299690817028116, 0.8640518232896104, -1.0030013262632087,
      1.7522921260993913, -2.1331647239201628, -0.3475215196053936,
      -0.7302410273980959, -1.4384699003980626, 1.5030681365294234,
      -0.9016380743078508, 0.7645846493613635, 0.12786754879662715,
      -0.06934591132775447, -0.6082507993249109, -1.2156782841983058,
      0.03345743933454069, -0.08164176118618179, 0.527525145676977,
      0.8234365168633636, -2.0578855569622947, 0.5055515640354692,
      -2.246008865714434, 0.17999453452622183, -0.7536438121246308,
      0.8662215691848338, -0.20725298935559286, -0.9017768876152712,
      0.4990346410825611, -0.7369278186385169, 0.47587339676105656,
      1.8421039535232, 0.2770160286997011, -1.000210315555606,
      -0.9104747572238066, 1.4232709272576098, -0.7435905435862322,
      0.7928728714282427, 1.2316698891505358, -1.1952295814997143,
      -0.6659755290015132, -0.670505227660597, -0.5737467286295419,
      0.11893222227518305, 0.5418107044377936, -0.2736353221562326,
      0.4807904646800811, 1.7647420135119711, 2.3876392660916173,
      0.49336900014342744, 0.1565750255628334, -0.05321338322873909,
      0.44989222799229095, -1.0470796560862135, 0.029500831240344118,
      -1.4034596005399365, -0.4762250329857927, 0.3710696774150348,
      0.3966871434584741, -0.0881622662952527, -0.5156626536054335,
      0.5812499785317374, -2.422436031328488, -0.09407952821412605,
      0.6061665210492418, 0.49575795534152267, 0.8393282277977615,
      0.3457852069509938, 1.7050270252100408, -3.6154108364168955,
      -0.40715522646158664, -2.205885054605835, -0.17051237609079975,
      1.76371639018025, -0.854216418022112, 0.7636158020549029,
      1.7970606331420957, 0.862061615873686, 0.9740614525750987,
      0.413216335347376, 1.6235745219765625, 0.36868259092713096,
      2.209924513182361, 0.7088571192134889, -0.38843291348631515,
      -0.7740780189873726, -0.33187103234179854, 0.6353728511923632,
      0.8396542045095318, -0.7785893321514981, -0.5706923953541467,
      -0.17758381119912087, -1.5020984449169992, 0.491242700261839,
      -0.8209142418593321, -0.8083672527132234, -1.1087662779680993,
      1.623102115356147, 0.8885798385025019, -0.6602203929780193,
      1.3664397568604782, 0.43447472864376774, -0.007812397548671476,
      -1.3438512064781356, 2.1821720633534416, 0.7320494661265855,
      1.813870750629811, 1.0725300561700433, 0.8304485264867071,
      -0.055293748524643825, 0.36981083658932035, 1.8403893348909293,
      0.37901134139261916, -0.7441502343502404, -1.3037850794398158,
      -0.8172274724317642, 0.3123887914852649, -0.9902897042730959,
      0.8889683815286104, -0.501558391700663, -1.1532354789931352,
      -1.2110474796501303, -1.4410768220473376, 0.40280051691539687,
      0.7703615586781359, 0.42290365876735136, 1.3781167885685932,
      0.4289451789218561, -0.6431947005913659, -0.7806983823077808,
      0.13416794168723342, 1.2929118081110202, -1.1972694273577962,
      -0.2824386176082724, -0.44076585073904856, 2.100118302502171,
      -0.9713420568077806, 0.38026555566568976, -1.2441013007780042,
      0.6983474020153813, -0.2752509472890308, -1.8138994891537712,
      -0.8992761061559651, -2.032977773091297, 0.7986641665725882,
      -1.592994305774809, -1.0489711729049038, -0.1561144352843564,
      1.2327493101868894, 0.637629610778304, -0.055055037805631424
    ],
    [
      0.7997301999211468, -0.2789030964658812, -0.8800874665605655,
      0.16434472235734685, 2.5129273460325963, -0.23804111838600675,
      -0.17908326436143113, 0.8612689668406731, -0.7237483566049564,
      -2.204904967871989, 0.43566261396307376, -1.1732653937599915,
      -1.3420071110760414, 1.8422574105777048, 0.09135092426142757,
      0.935324793179785, -1.8069313461608885, 0.7951767660222492,
      0.16427821963729053, -1.2226449279046478, 1.677029620218362,
      -0.2078849403663583, 1.2938761096809308, -0.45893786806608666,
      -0.3914749391786234, -0.2904898112190556, -1.4457695928229612,
      1.6279880905346291, 0.02793603691121144, -0.4106483889035155,
      -1.011108281001663, -1.4070873619005915, -0.4573698816645526,
      -0.025950567346408982, -0.7454955410060078, -0.3602408476110318,
      0.21052081670831108, -1.5350947360064866, -0.3628733197398702,
      -0.4321228932021311, -0.32358195633070214, -0.30210972612088244,
      0.344689925350024, 1.2893254446348177, 0.1596093448518199,
      -0.12804525285983928, -0.2346390133679125, -0.9711126285917253,
      -0.4374139262117989, 0.5475029136674041, 0.057438402243499345,
      1.1516298387847268, 1.8628219232532057, -1.1690547009631715,
      0.8873905632578967, 1.1724756518559072, 0.6677505491406311,
      0.21459934996130817, -0.26626201106545827, -0.18982276271429044,
      1.3345717199307507, 0.9647795134939614, -0.9092928576320248,
      -0.23062757288420277, -0.3775324325797492, 0.47606472548356976,
      0.15619336725159383, -0.5741666973772177, 0.6163265087723553,
      0.14245387146748809, -1.6476515985863145, 0.7845373777654016,
      0.2046422201640982, 0.035508777702166656, 0.02203990664818302,
      -1.6851266504401048, 1.3189846731881003, -1.314696113430517,
      -0.30120124052172437, -0.546936993850246, -0.0586231599411662,
      0.25441851056521725, -0.5824092825395164, -0.5542759361149386,
      1.4410574573541417, 0.44560198238525645, 0.6259267732225912,
      -1.0594761634822993, -1.329793853825315, -0.15657364585115682,
      -1.6463181033032386, 1.142113164881031, -0.19236668424998593,
      1.8774516187381158, 0.09151974112783375, -1.2334607661705148,
      -0.2254703988298463, -1.6332873719881529, -0.7061520366662031,
      1.4803941228089041, -0.17552418901745057, 0.35124196096212856,
      -1.3385478504890727, 0.32848223474511795, 0.09768178563133831,
      0.09301692931482143, -0.18131551324911602, 0.8894562973955327,
      -0.03011216330024478, -0.4447309971657938, -0.3285554586658471,
      1.4507057241606163, -0.42706225408319726, 1.415211768419177,
      1.5540813622288618, -0.5011449669153838, 2.2607138644113705,
      1.5731523468827893, 1.9248309343099, -1.3938060468810063,
      0.2880237460452403, 1.0950239000795197, -0.9514785468919723,
      0.8667674671344608, 0.9622007487526864, 1.0094593008856334,
      -0.40393820893693083, -0.029148041066173257, 1.6270340328585868,
      -0.12580657853309976, -0.6444633617160347, 0.8292804021008308,
      0.33566879221622703, 0.7395358550064449, 1.4362633615352687,
      -0.8509473719693958, 0.5688083472846093, 2.2503188767534086,
      -0.5667576971647676, 2.1053579849727515, -2.644373376445653,
      -0.12351351654295031, 1.2100464730028164, 1.108526496858509,
      -0.12320383583417095, -1.1098084591823425, 0.3797669894223179,
      1.3724918653984886, 0.32711807945039606, -1.3164133066795354,
      0.34976653417121417, -0.7916850155566478, 0.7798741908812529,
      0.4619488910293917, -1.4063038275484172, -0.7654855512982003,
      -0.3372344561560254, 1.1088095380310656, -0.8244963048912507,
      -2.379319448266616, -0.1778580583285582, -0.251057950195607,
      -1.2005266229666114, -0.10657372279612508, 1.1760872508373081,
      -0.23573580234943045, 0.4919616021666343, -0.05969454052228717,
      1.7254921542091273, -1.1198846711586492, -0.7170453383615362,
      -1.3145685245591785, -0.4689013109991447, -1.4794155464256997,
      1.4896163926466226, -0.7118143756996536, -1.1243796355475268,
      0.244558230117708, -0.5271596158205282, 0.33576466574828,
      -0.29766668022246584, -0.1986970725445823, -0.0008693402362983695,
      1.4141348619913923, -0.11744618375670716, 0.08780063107853929,
      1.2318800724878554, -0.813642409535977, -1.3917676475633003,
      -1.660307421066553, -2.9983855141490907, 0.6765795225723187,
      0.3893908640856262, 1.3730336794937454, -0.028023648017680494,
      0.5100330682957177, 0.057614339141345956, -1.3208969372541708,
      0.2410639859964915, 0.9159414784600938, -0.3503282720127972,
      0.15714950016781487, 0.050534624374219794, -0.5805198387570617,
      1.436730471270047, -2.1945989025924666, 1.3687007949445074,
      1.2993649454854692, -1.1455404280149764, -0.1882381581017704,
      -0.2218029341512914, 0.3506998190243476, 0.4460986078292144,
      -0.04926203730589051, 0.844260245856649, -1.051612230006581,
      -0.48451691543135506, -1.3886186843904715, -1.2678868575301294,
      -0.20169240843858835, -0.5989346971313424, -0.28357977871361406,
      -0.21970615069139054, -0.9094098930571498, -0.6635407144167444,
      0.6327558569969494, -0.08432126135526553, -0.754082692940797,
      -1.3721290253272647, 0.12948052192403078, 1.1142744695924243,
      0.6469248318741663, -0.36162049048344364, 1.5945672721586506,
      -0.8423840934503917, 0.30489012749481625, -0.9466450447794708,
      2.1781641430222956, 0.5282293885460954, 0.325557033846064,
      -1.9962332370693177, 1.861992241036739, 0.034412172683277904,
      -0.6311918132438603, -0.3324274264657189, 0.17023230191295963,
      0.8694019359199715, 0.6843531917044678, 0.6154249086862762,
      1.0276438113011808, 1.2089500103311022, -0.5353290223048718,
      0.02502211507758828, 0.2881141578726852, -0.33922518232547205,
      0.9004983227864891, -0.23957664618528043, 0.9890281934720805,
      -0.0159468709630162, -1.4014409278407625, -2.741546175008193,
      0.27284387095118445, -0.21109271187425244, -0.4134645662670008,
      0.6388983897019488, -0.34755048630886126, -1.4082861831499371,
      0.07117378503090446, 0.6067908880090028, -0.3066790689450054,
      0.9852419204765657, 0.31313538667974217, 0.9151912989754322,
      1.9165935209050595, -0.529934648844965, -1.8937973452369907,
      -0.38793737403076456, -0.46354031859603345, 1.4449693426734969,
      1.1146415343918186, -2.521164633785064, 0.9680656217786389,
      0.4156085008156308, 0.2151532678760922, 0.298225710531972,
      -0.010950281023368121, 0.5067332470692234, 0.8395574905084483,
      0.37514198530464987, 0.3443520864599455, -1.1515634693427719,
      0.9396480948515045, -1.2422151136563169, 0.7390569010998937,
      0.262390773679663, -1.5972885891098771, -0.6738951126269762,
      0.36008889272652983, -0.8242605033416291, 0.2815989854894196
    ],
    [
      0.9489469056148602, -0.6560604535323391, 0.8582291176421094,
      1.589892588905166, -0.8461947678812136, 1.0994528671427737,
      -0.9826022743096426, 0.5938558044922868, -1.2828018148043445,
      -2.2117614944451196, 0.0327564809842739, -1.9996465535343875,
      2.067676059057474, -1.3364890742671374, -1.3288813465415898,
      1.5622799935777687, 0.9934117401657432, 0.5990473430411163,
      -1.4437377214876075, 0.35083362356869363, 0.6663778370178791,
      -1.1899678345305842, -0.46364738087879287, 0.9563550210867745,
      -0.10591984148895588, 0.26975134416348956, -1.012776680984185,
      0.8707580841355365, -0.6579804825749755, 0.9500060231666992,
      -0.026950528367361313, -0.2480494111690511, -1.011557893053513,
      0.6059276145800686, -0.568525294376755, -0.5107958300639072,
      0.6275639067960838, -0.6330631431917604, 0.38892908450650715,
      -0.6375081267632249, 0.7610305855476811, -2.3341296898709363,
      -1.7225886391716114, 1.5343344239575432, -0.21543114988451087,
      0.052354229940518554, -1.7837583139541786, -1.0074240873627258,
      0.7710656584426745, -0.34450890587316174, -0.5068595267753827,
      -0.3634886481189546, -0.034097341963891706, -1.155142124317546,
      0.3102122960582315, -1.8654916103969867, -1.0631533767865267,
      -0.39706089646119835, -0.9811864741495974, -0.3540332739233953,
      -1.5534114485671038, -0.04242028632881838, -1.702716177426371,
      -0.17181095007204725, -0.019834769098048648, 0.599374116365429,
      -2.1604180106703854, -0.32388861290417553, 1.5225691886287884,
      -0.615387964306749, 0.006117542361660335, -0.6818380294388997,
      1.737111233872045, -1.0645418908959718, -0.57595505058496,
      -0.39196199966841583, -0.09367983143432378, 0.08267874026369156,
      1.6233515109168415, -0.2543395987918697, -0.36248089215593887,
      0.652560901887255, 2.2663973044269983, -0.22732481236254545,
      -1.518208306763181, -1.95763673802791, -1.1955684191419411,
      -0.41698802885442504, 0.4847949707270154, -1.4073240982492656,
      -0.7641947442082833, 0.3307169772038134, 0.014307327278083072,
      -0.47557698778480934, -0.7876152674264333, 0.6213424678288907,
      -0.06993577497858817, 0.40487856294337987, -0.6489818551114718,
      -0.8886198064597648, 1.7152386075438846, 0.30114281956579897,
      -1.739254752185913, 0.23096470573755312, -0.17372129207411138,
      1.0642285991271971, -0.12465304498435953, -0.6208958840024448,
      -0.8662527222737982, 1.240846402607785, -1.0251793844892039,
      0.815109032131311, 0.649224973976464, -0.5830873524639889,
      -2.0203925648242342, -0.6880826562330906, -1.225445610831035,
      -0.33791148674829224, -0.45073851913148355, -1.6619937481042328,
      -0.9242492057656159, 2.001525828208896, -0.33758422554302364,
      0.6143891432434079, -0.3209166290873967, -0.22836830024711383,
      1.9410527913727489, 0.4999002403994843, 0.08593863609426253,
      -1.1259818913870394, 1.0670258816748062, 0.11044772515091592,
      -0.7033696345152731, -1.078095751065245, -0.33080983139223524,
      -0.03674646016213693, 0.15809567629863513, -0.7844423459357532,
      -0.23501760399095792, 1.7451567345542485, -0.7177578236735702,
      1.3770077468953161, 0.06586144627344484, -0.3899603843972356,
      1.2790705190286424, -0.6436340254464337, -0.7526356164554177,
      0.34034778971800483, -1.096712272048794, 0.6170403595348476,
      -0.5390216302948952, -0.24732441498532406, -0.067355379940792,
      -1.0679149369016478, -0.28232509457103966, -0.7071430307958402,
      2.1498223908657086, 0.28373944818468966, 0.2528190705640387,
      -1.6555332272313519, 0.5904757885638888, 0.4069644968398694,
      1.2080671529999736, 0.48791890438673347, 0.06645003080916194,
      -0.5216887218678202, 2.137226163330827, -0.465256308290113,
      0.020778591456875595, -0.28250290733330696, -3.066081533853529,
      0.3186026746856627, 0.650171036602106, 1.3845288328153873,
      -1.5817209812614477, 0.7403075781980327, -0.6672602011423154,
      0.28717313871988975, -1.3385132801725639, 1.313280564453002,
      -0.2907266973780743, -0.9149725365107514, 0.583701934618496,
      2.007192451863561, 0.3519342127416028, -0.9968658798556161,
      -0.6861603807989023, -1.1153524073621102, -0.3155979526396697,
      -0.6128455457602928, -0.543433114642869, 0.019577293187086113,
      -0.4125306529102887, -0.59389179425087, -0.49357613168009873,
      -0.1520348063464827, 0.413701360875274, 2.2206244394263748,
      0.7821114114345673, 0.03649366551329783, 1.2558497078731707,
      0.36969738557634196, -0.8820917127948436, 0.02605469540879184,
      0.86052316212264, 1.1776992949436373, -1.3151053874652336,
      1.185654485829342, -0.4381665270458958, 1.1369383733231926,
      -0.050769343176670416, -1.02061371484906, -2.239542448761364,
      -1.9923895309031823, -0.9388910685414388, 0.13559298309575996,
      2.0871041865381303, 0.0579396163702041, -0.01155056805087757,
      -0.4933837666547852, -0.7710599608544322, 0.7144903921195789,
      0.5222043254868773, -0.7780640475097469, 1.811743771786775,
      0.6813268342607544, -0.23937139341720212, 0.6115638935822554,
      0.9522829058007936, 1.1601372864559742, -1.94704018372009,
      0.03204537453294259, 1.5931000005661906, 1.7039740767098486,
      0.011265453156373667, -0.02868969491691624, -1.703376285723719,
      0.1867092365410456, 0.45955026526400783, -0.9050156676344082,
      -0.07369314123228557, -0.1982374544956633, -0.23368073271606385,
      0.7021931504795011, -0.35064620978844874, 0.9729638570172469,
      -1.492929867725668, 1.58619275806987, -0.984868821481301,
      -0.3234878121983893, -0.6683470722076722, 0.8540122810274546,
      -0.5259992441969037, 1.5200065000201182, -1.3253335524994407,
      0.6962245695451708, -1.544936722934597, -1.5391664652298453,
      0.2294491251510534, 1.6818572229434638, -0.8431683069722324,
      1.5049025557398585, -1.7492740720278295, 0.2585964141492594,
      0.014473560104558024, -0.5974866974420207, -0.23260051538392007,
      -1.836424233006476, 0.19913247682078888, -0.380600763709795,
      1.469558329182875, 1.1719796729938152, -0.06464550978037942,
      -0.7552081641127666, -1.1235931651313344, -1.0985972774976454,
      -1.0877662042014111, 1.0434592790847101, -0.7218924912819789,
      0.2232614415719409, 1.328615165412799, 0.43958439808331645,
      0.2585328429152742, -1.1461740734149872, -0.05590325769264106,
      -1.4177670434954948, 0.6119296083871583, 1.126325467602669,
      -0.8643509631393804, -0.24881750077745127, -0.8972416152519053,
      1.0662127263485301, -0.4100036788530518, -0.8253089506276775,
      0.919514723119873, 0.06511917748033859, -1.1989099507845342,
      -0.06447393814115664, 1.6844887797570054, -1.1432378017318654
    ],
    [
      0.5885655820104556, -0.40778272386687636, 0.1493424412264186,
      0.40687305906295296, -1.4044173528711903, 0.8039048313374698,
      -0.19423925930836788, 0.42404380609736775, -0.3708090372714014,
      -0.24954140135497604, 1.222045705849607, 1.3824335867605044,
      0.9404461384041042, 0.910036833462473, 0.23286511463447815,
      0.514583086817081, -0.48114505254065987, 1.6006051254092493,
      0.5354076378035181, -0.05915768614656182, 0.7927520031911696,
      0.10396805312823941, 0.8042310826737747, -1.287419651116752,
      -1.2767145818711556, 0.29996044903819336, 1.4017042581425323,
      -0.030286638131647753, -0.7277236081716794, 0.14096303150946207,
      0.33324523618807145, 0.16694175861187335, -0.3034582943334051,
      2.171896559555537, 0.9981611428192044, -0.741585319144006,
      -1.3578883723074404, -0.5683621674917215, -0.42625522674299626,
      1.4267314697000808, 0.023203112290573976, -0.9936804563451462,
      1.5540136161773486, 1.1018720076977957, -1.183622403555257,
      -1.0320990263249044, 1.4881471954965828, 0.4140648862587619,
      -0.01812677759049091, 0.11000738441847513, 1.498999780334395,
      -0.16754377413058238, 0.6169533138104145, -1.3761991138849277,
      -0.043714716302477925, 0.14903892838438823, 0.9679597284523105,
      0.40354037438968615, -0.5543722616909187, 0.2895425717284081,
      -0.3108315482806756, 2.1330970374125386, -1.219895386647468,
      -1.6563546312602584, 0.8570101153911115, 0.4756719357353956,
      0.9218053349802244, 0.12760474568421515, 3.0409368950024938,
      0.4818598667062168, -0.7519207104072867, 0.5637545985946357,
      -0.2260110594754411, -1.514883476960149, 0.9921535927323908,
      -0.8908092415159319, 0.6902923939472312, 0.08456606371087214,
      0.862473677922265, 0.7398063304445552, -0.1103567762251461,
      -0.4052140895422732, 1.1161156809076995, -1.1083713608067352,
      0.5752046221660393, -0.7068615829473999, -0.32598312716973604,
      0.10374400240373303, -0.14630650871529194, 0.19657144659220857,
      0.3257981954634056, 0.024826013547591393, -1.9399208839962225,
      0.4696354888081708, 0.7243341740449508, 0.06276204033248685,
      0.18198076577527136, -0.2137897815676166, -2.421498121851851,
      -1.5102601050298352, -2.2101802255703036, -0.9470768812291245,
      0.6006926462051291, -0.76872156374194, -0.4178824345234732,
      -0.2902546993971859, 0.7254619071670604, 0.01768633030999144,
      0.7526127933730676, -0.28597993139472955, 0.23972362853883408,
      0.24902435270098036, -0.06765059927120028, 1.277489235252178,
      1.6734728135957175, -0.2957052792134191, 0.4701897089608428,
      0.4625980713805982, -0.7894239212543145, 0.11064940265606564,
      1.6189093536656776, 0.3420441670815088, -0.5469500763139037,
      -0.6146621340827619, 0.41194578102568136, -0.6647880469721215,
      -1.1621112362640205, 0.25327993415210204, -2.082526668714596,
      -1.2379279509181709, 2.1262215329315803, -1.261793860418277,
      0.3635713103807792, -1.0739252700252901, -0.035310645982222576,
      1.7780246192068836, -1.938268291626957, 0.6850172148674923,
      -1.1743177005037262, 2.1604085872960694, -0.8420762616556309,
      -0.376609638299743, -0.241880819116135, -0.08302437772191179,
      -0.3042553048374393, -0.6233925528981367, -0.20629147913072438,
      0.9835465826450239, 1.2495993984488944, -1.5159707190380394,
      1.082002717732673, 0.7149447720407267, -1.1086825185253202,
      -1.2092177580942134, -0.10926302435924264, -0.6595526920143499,
      -0.2056216228727387, 0.9206136618320168, -0.34259414164855,
      -0.49318352027221507, -0.5089919493926216, 0.9324700696786383,
      0.24396626828611223, -0.6216911599738356, -0.17332852084299696,
      -0.3388950544268453, -0.04242401896080611, -1.3413989176889862,
      -2.1186813835664466, 0.22347817655035476, -1.1947125652419348,
      -0.9465789999778749, -0.16258777224562523, 0.6686532636732128,
      -0.4171311751848279, -1.3573187046633488, 0.8344979554837378,
      -1.7086201443190854, 1.7240305319625358, -0.4605098568955322,
      1.813753690983779, -1.274160975878905, 1.9380292262734615,
      -1.4782976049082266, 1.9939658285924735, -0.09913483321893261,
      3.24261309455762, -0.8028601812987266, 0.30167790507770703,
      -1.972180396935889, -0.00535843242971837, 0.8732238804365716,
      -1.1332081965846312, 1.4583505404061732, -0.08068117752622976,
      -0.07623129741391753, 0.009709675430822792, -0.4714780293241144,
      1.3333229060563048, 0.48011662883874967, -0.3837583415468142,
      1.0112463615027716, 0.9708926570609998, -1.0051324738329144,
      -0.9693850095889173, -0.5043138431907723, -1.3315729240751528,
      -0.49148004359564373, -1.119004123671576, 0.23272966854178598,
      0.8462527323374778, 2.332110813356225, 0.939493949361443,
      -0.38499262096898934, 0.6712436769179656, 0.25110724112270444,
      -0.5913639719879169, -0.09053164046858872, 1.696053275494406,
      0.5762379646137717, 1.8838291426498113, -1.1447527794148304,
      1.8866406099891904, 0.0719752927012744, 1.8497121957766844,
      0.7691746639804525, 1.3933832333725489, -0.6299301866310706,
      -2.6310158065507245, -0.18058057592537724, -0.6505823232542726,
      0.6813070821542496, -0.026626585268948066, 1.3346116699799537,
      1.970900628077023, -0.979723171819959, 0.2768618642647954,
      -0.5168463467718809, 0.47685165145549097, 1.1097057541328015,
      -1.4150678409596047, 0.028009076493718425, -0.7748017202296792,
      0.31108145719288954, -0.4319827638056497, 1.1281856944357342,
      0.18171086066490844, -0.39294006343077525, -1.0988333237596253,
      1.1561187174100154, 0.010476751183367715, -0.22846127757886453,
      -0.5376798297903533, -0.07716603577628865, 0.13794837252429262,
      -1.095981427059699, -1.2944166884263042, 0.276466770264603,
      -0.7475346517280181, -0.5276391554282598, 3.2888937990950073,
      -1.0485946565006028, -0.023745309519771805, -1.044690399784528,
      0.7411948189576172, 1.4058609508672288, 0.5599063333300283,
      2.0238233743924394, 0.7696646181177146, -1.624555991672166,
      1.1478192407408057, 0.24001821922714336, -0.053402146927032226,
      -0.3929253728351958, 0.5352077832605213, -0.22827892378859363,
      -0.5031182962741176, -1.7001831177733107, 1.1212774599786643,
      -0.13059272585492473, 0.15934189292810694, 0.04673619712788875,
      0.19551916825270005, 0.7324091491883887, -0.17801698406364302,
      0.13994111939331041, -0.9675119298920729, -0.887766441131037,
      0.5176898317756955, -0.572327596548938, 0.4811087748069676,
      -0.656388037306536, 1.2337296644949451, 1.04761720182779,
      0.34711714909335206, -0.6520036022345648, 0.28437664594711937,
      -1.255124063777626, 2.251063790047092, -1.0960199618210715
    ],
    [
      0.6027276924066374, 0.6066126083127871, 0.5625945756854167,
      -1.0027287556673805, -0.2697019678689501, -0.06761771047579802,
      0.49311306821730705, 0.09243796407553641, 0.09367125336760071,
      1.1459322342410752, -0.04086630038890808, -0.7352889289527157,
      0.5398891965989012, -1.0621492250671651, 0.2685151017984922,
      -0.978255850640524, -0.6625522040429613, 1.064893525823158,
      0.05642916373571113, 0.11728134366515697, -0.5404280771528851,
      -0.36932709859818946, -0.6749266043603089, -1.1675729399967476,
      0.7076516943049632, 1.0649190011583065, -0.8415578800695699,
      -0.07133643649518968, -0.8455430622711059, 0.9784411018269245,
      0.19815916193472136, 0.6416989132562746, -0.42108494529104545,
      -0.02375705691487131, -0.19896812218973756, -2.0848933486110615,
      -0.3100101404151329, 1.1184855113805334, 0.8937665179162717,
      -0.3131114982787945, 0.8587690812739632, -0.4390308279547338,
      0.7627482170563431, 0.8202363059530027, -0.6220821854155985,
      -0.04118494837257213, 0.3166628532131494, 0.5609226035399373,
      0.37230223268008383, 0.7508912419280713, -0.5092585304454345,
      1.4324205954896017, -1.0490391284641511, -0.8880983522058215,
      -0.8578642214058905, -0.5712730746193802, 0.14701733630356706,
      -0.4915175897822647, 0.1336462194678323, -1.028881984792939,
      -0.44595501452769504, -1.5011749066813347, -0.2429844312355522,
      -0.01830682253992866, -0.1974545727183483, -0.43783646558329997,
      -0.5357965165835925, -1.4912820153005668, 1.3773105475259622,
      0.33821865416702995, -0.21632041451788914, 1.3137866608891426,
      -0.7970705295673413, 0.0569842120132658, -2.3287311732426574,
      -0.29308354937629205, 0.45429546802001447, -0.9879865706160562,
      0.1515407090544764, -0.22152412614592853, -1.9742873417366515,
      -0.8890185660263064, -0.9462601042650539, 1.2315523937542234,
      -0.2858729889104891, 0.44742479823086795, -1.4285067865227927,
      0.5280371572353502, -0.8439186191558476, -0.11102629464820968,
      -2.0709847355878352, -1.0956774335897885, 0.19931548707602703,
      -0.15197626516744756, 0.8903678930264658, 2.47755237917698,
      -0.5595149906749156, -0.5477246689580224, 0.1534635672901906,
      -0.7540927008535091, -0.6154837447666447, -0.39818034384448353,
      0.9975012559780009, -1.9680181918904958, -0.35195132715309024,
      0.359857561067806, -0.020965354070827412, -0.15027378286093243,
      2.4606186150009215, -1.0266143801005234, 0.645478203241418,
      -0.407517829332016, -0.21877926829217645, -0.9180710846736284,
      -0.7578205317912605, 0.0972742032177333, -0.7667667908761286,
      -0.7252750195492238, -0.21767950963963126, 0.4684268342613314,
      -0.20753501228332433, -0.6698912631447984, 0.7056492807987053,
      -0.3737486632936626, -1.3416618625277932, 0.6801434897916868,
      -0.16604828675382807, 1.5061753708997632, -1.0377748291104665,
      1.0387731429246, 1.5355559988182734, -1.2826271793699606,
      1.5827387790899352, -0.9643954083632281, 0.9744713514370302,
      0.5424237207194804, -1.6813811148481483, 0.5643304893192964,
      -0.6065992719668611, -1.4790256648909714, 0.8156495001173274,
      2.1248394608951053, 0.05661843163589756, -2.0716031683498697,
      0.18336092160818745, -1.8228346068150605, 0.18040883207807815,
      -0.5046222391740541, 0.027176408208251422, -1.4224054902244776,
      0.6501340865405207, 0.20091641732458185, -0.743195684581008,
      0.9095552257582609, 0.6780252112636744, -0.6540987043986459,
      -0.12453035511407923, 1.349983549446977, -0.22605240580946956,
      -0.8730440724518598, -0.12434139271498156, -1.2421089616619734,
      0.1743530706639535, -0.2677845530603768, -0.30533286040813923,
      -1.4404486761665394, -1.1198809429981293, -0.2367399233407852,
      -0.35036306865942163, -0.7054946747340671, 0.718395341529796,
      1.026779985503244, -1.1237586615404362, -0.32960328637330033,
      -0.27615290285123784, 0.4048483849563964, -1.3406777884664285,
      -1.149369870894418, 0.43354599483779566, -0.9235266376733402,
      -0.06046843271746813, 0.4363827090374695, -0.32113713917520487,
      -0.11369690044599487, 0.701675532663997, 0.8628296206552853,
      0.300960012724715, 0.8472947536915478, -0.06490700040757262,
      -0.17832635270685773, -0.34139444831589383, 2.3515874386126754,
      0.7833870062940951, -0.7836990793420958, 1.1020135954948242,
      0.18544976363284665, 0.40394284542227965, 0.23554500588692626,
      1.085714253199756, -0.361990395124083, 1.5481510902924156,
      -1.2035824102049686, -0.5333101764067546, 1.14756851458924,
      -0.8566031484711218, 0.6223539137330052, -0.49473244010651796,
      -0.5983806796052072, -0.6428956395367275, 0.514256905896125,
      1.2398033422731054, -0.7305867886198983, -2.4629522242931534,
      1.1988923037212855, -0.4932065445024815, -0.11023095374321445,
      0.16681665792086892, -0.06017202975259933, -1.1410266834943321,
      0.23065324070935297, 0.20821576794418528, -0.5367483885572579,
      0.5250554491105245, 0.36377542717842604, 1.1979745567054112,
      -0.27773360055614116, -0.3702334438801221, -0.1397394114053696,
      0.43103831699359196, -0.6727689178204703, -0.9941626017263708,
      1.3765345556125967, -0.7898904111832036, -0.4259226922504879,
      1.33107266774722, -0.03559669447671986, 1.395663064546727,
      -0.21743949414616154, 1.740996242179919, 1.6502029044110444,
      -0.3069240648789389, -1.2271661045381033, 1.2841899050365018,
      1.3893073656786643, 0.11573408478176707, 0.23592339502215148,
      1.203768684609114, -1.1483486436210675, 0.4975829207000324,
      1.410221172159505, 1.1882697233079655, -1.922912915454187,
      0.13272959367870116, 0.20447296963027442, -0.655546931564901,
      2.1646927300555308, 1.2606048984801321, -0.9859848936837513,
      0.03115054945902436, 0.1032181322074314, 1.0036294563913697,
      -0.21302003499035033, 0.40626549688681063, -1.5929692227871184,
      -0.4055983631012429, -1.8435785047557907, 0.0013018817824294456,
      -0.403834765493983, 0.09312249649777986, 1.7582061255739696,
      0.4180619855310195, 0.6497462547168505, 0.26378666160810904,
      1.0739211127299646, 0.18034030306436902, 0.4874953707554402,
      1.449676746986459, -0.5719356282301469, 0.5149333113055133,
      1.503372298548145, 0.20213048595552632, 0.017236975328076647,
      -0.7486527925580675, -3.2029010884719993, -1.9094660751757262,
      -0.15218732614290292, 0.31619990746179305, -0.6124066801522119,
      -0.919008687956662, 0.1769344936201136, -0.11182839427546148,
      0.4802967431233296, 0.8655204090269972, -0.9109352019006182,
      -1.0010948122636167, -0.369506394455703, -1.7990548490466833,
      1.0965475907318118, 0.7696444691202051, 1.6669156824884068
    ],
    [
      -0.16322392983908082, -1.1764718657862956, -0.012370535164681057,
      1.2350571689926757, 1.0627721649805555, -1.1439470119371982,
      0.18599084995100934, 0.18751090255075667, 0.34844224770472554,
      -0.10840582300397707, -1.4316768036824978, -0.0742253733278098,
      -0.2694189868928667, -0.27236397587966393, 1.100310315030528,
      0.14173765590122733, -0.19756043897253187, -1.1291653258125627,
      -1.4306499456312545, 1.3584101421565515, 0.5569886167696357,
      0.1382954509604809, -0.23942573777625314, -0.8021124083391803,
      0.1126968391570078, 1.0480315508215807, 1.6434098423558032,
      -0.11203137343444906, -1.757658003505591, -0.23964184791885587,
      0.6359992579976845, -0.45463759341803556, -0.076055247849814,
      0.09512962490396101, 1.9962821215202402, -0.037676084704452634,
      -0.06861529489574197, 0.1713268662387114, 2.95144639674164,
      0.9675898448707889, -1.4055574696840225, 0.07293593692662907,
      -0.8023681440825158, -2.3942007186507417, -0.7955778711562497,
      -1.4080361087063789, -0.35532204800788375, 0.4448445384756656,
      -1.2332450080179385, -0.08784882406496194, -0.4897793177671531,
      -0.9675843877456407, 1.5153859538519008, 0.05336506377273405,
      -0.932263787004718, -0.02953643319896396, 0.5897448865787263,
      0.5111358548133667, -0.37573779339201124, 1.5365550739452367,
      -0.6358817420034703, 0.06346976911835304, -2.0986402325815408,
      0.8486931980041819, 0.44281613640528134, -0.6780734917048111,
      0.023208640329643544, 1.3621120443950692, -0.21964214531694162,
      -0.0871432747771721, 0.6535434787123423, 0.16858876454200367,
      -0.657249837527468, 0.4909254435009395, -1.0718946551889026,
      -1.878659985078449, -0.865321058703546, 1.1346758369689414,
      -1.6355918873361144, 0.3309083449935469, 0.9128088039128951,
      -0.0675552130671753, 2.365883617667887, -1.4287257924371775,
      -0.29048967363545725, -1.7866336813554695, 0.7398059590041792,
      -0.16523322175109806, -0.12763185525701515, -1.176180513197871,
      0.9926038686514627, -0.48789000659348974, 0.4264368195782861,
      -0.9658022228644714, 0.44513642628642647, -0.05596224069140734,
      -0.5283029491808005, -1.551412344278561, -0.26302569146028654,
      0.06936095215621932, 0.4920221138168943, 1.0272966547276292,
      1.3963271311461998, 0.25901072250305573, -0.3565617439934703,
      0.4661705468441625, -0.34006671260096566, -2.186013724385531,
      -0.4425078362959054, -0.5883018132697365, 1.1787152347565544,
      -1.7729485937019063, -1.1498509354937534, -0.12874757239465776,
      0.17351990880459264, -1.6186076055095295, -0.2951227028090422,
      -0.6052457447270785, -0.6475344347229961, 0.3919967890625895,
      0.41358799317790795, 0.9398595339026571, -0.20106032217832878,
      0.9130475862769586, 1.245130600676125, 1.0525588143950981,
      1.0069015934885244, -1.133468419758785, -1.515455521762516,
      1.141963010169687, -0.5413491469299814, -0.577774627586839,
      1.9212204571190117, 0.8331397452367547, -1.036536418500943,
      0.7415090352240459, 1.6736217617461746, -2.0503774660741363,
      0.3941079861106784, 0.40551862043407777, -0.04487027631867836,
      -0.15789083015860797, -0.4717469737182576, -0.29886543845673375,
      0.16451972311544538, 0.9115959506060379, -0.7029080084012251,
      -0.08179846964361323, -1.5095590961524188, 1.126872202438311,
      -1.3691396614293072, 0.020041999704620905, -0.45102183920297506,
      -0.8281689380861371, 0.5864254315457853, 0.23571168346726154,
      -1.8028291466017723, 0.5175570175391347, 1.5841826721569658,
      2.1462370985593657, -0.7403020091024703, 0.5796998852406451,
      -0.1331846802531044, 1.3194688673030728, 0.1455878405641097,
      -0.6108655183666051, -1.0467395886224276, 0.2041665596642708,
      1.1826596327125658, -0.8500207350730633, -0.9339472935412213,
      0.16485097529638762, -0.31926197654944494, -0.20651586277240946,
      0.7539494056494378, -0.605509334308546, -0.10890187007525721,
      -0.7314378339503643, 0.1440604581087037, 0.5183969581903646,
      -0.8809354350873742, 0.6823705365085323, 1.3172530743738038,
      -0.212877413456023, -1.116197171168119, -1.4126248233592538,
      1.2460490291715292, -0.9282953127038939, 1.7117350661027937,
      -0.5346226947899474, -0.3767566363375768, 1.4514178005880582,
      -0.2575115507414669, 1.1975662692266071, -0.6993000499249378,
      -0.26106176259791875, 0.854763275865943, -0.8378069474699293,
      -0.038622265022458094, 0.3228100605663413, -1.7312895860556632,
      -0.030395304532588246, 0.4363397320107978, 0.7130637600386385,
      -1.8346445045346012, 1.6491102422937576, 0.2510544785892396,
      -0.5295679455130555, -0.4607755619961065, -1.6593510778667477,
      0.46137687321148463, 1.0522748387032947, 0.06740101021690992,
      -2.276563788414074, -1.1463396353674205, -0.5014938330353365,
      -0.19069701284054527, -0.20159661634761086, -0.256536151959628,
      0.8509962841526248, -0.21136092161413528, 1.434131724191124,
      1.3770179015318917, 0.025829663261196886, -1.1573162406306443,
      -0.40170816672577486, 0.5051143466821121, -0.22918111398626648,
      0.05268224291647958, -0.0020532531894988317, 0.7777587312303013,
      -0.16217630283664197, 1.3841613415603655, 0.9570998661025388,
      2.2425955172169867, 1.0236774429438154, 0.5463928474515832,
      -0.20338549609559636, -1.3752171425000794, 0.01771052135448381,
      1.7669599556237796, -0.0009921356479925601, 0.23327064122303667,
      -1.4196985731403347, 1.0021971848637277, -1.5903275365814498,
      0.006853996301908763, -0.6764865861023808, 0.6516456849467954,
      0.74592082691364, 1.3541973090146857, -0.8579550074122156,
      1.2049887170629148, 0.14946020475492677, -1.3575707774531507,
      -0.007814578620823897, -1.9712933834215207, 0.8805643374315709,
      1.1839809156287455, -0.956876782923966, -0.5215704588334249,
      -0.12305631802215419, -0.8736903987937097, -1.636173777043681,
      0.26376903844919064, 0.04133039591650889, -0.09825327813272651,
      -1.5153905932654503, 1.3166002254825795, -0.97213150655649,
      0.6248788798463474, -0.5559692133327391, -0.01393692406999615,
      -0.22894492818652323, 0.5489266119286104, -0.3002633762794488,
      0.8566299929947949, 1.5123506558293955, 0.2893591972077063,
      1.211409597881045, 1.2000667426198102, -0.26811408266750697,
      0.36302765940448284, -0.019050213036852184, 0.8131029770430286,
      0.30367080123621687, -0.4691239026149726, 0.13879330118621902,
      0.268723787880492, -0.22704777509440047, 0.32622184349843303,
      -0.8753931773463272, -0.8645018153088454, 0.7705789400154558,
      0.14234357015315882, 0.6784086130090454, -1.0275940142563407,
      0.4835575603770502, 1.850727757617278, -0.7882589826016055
    ],
    [
      -0.46756557814200506, 0.15930264937792277, -0.7933850892175415,
      -0.4841225427114971, 0.8925781313129468, -0.3252867044953233,
      0.2730886932657481, -0.36478943325145113, -1.0937862111285552,
      2.014267408995704, 0.5382653861659961, -0.0716403891060851,
      -0.39200790283048725, -1.8337121903943967, -1.6767338662389601,
      -0.1944442580544224, -1.6799080674584344, -0.5494039547146615,
      -0.31799418347512876, 1.0344518961874598, -0.7473425184524464,
      -1.134539136399438, -0.8738173957912236, 1.3699892613230051,
      1.5644135531364145, 2.110173963286337, 0.3733613635451099,
      1.3096989533521324, 1.2320743910404999, -0.8660325474799154,
      0.5924327044005053, 1.1490342255049422, -0.41363602573246155,
      -0.18481935133379504, -0.4727097273782343, -0.3284523968808713,
      -0.9868954287720586, 0.9595482707381049, -0.235489694027321,
      -0.7816070837822879, -1.3118127145054115, -0.16925157419758594,
      0.05460962110319042, -0.6364954900554539, 0.359703808979853,
      1.4510886761814963, -0.19333174569678957, 0.7946050087137561,
      1.6864928189620036, 1.5285225998229202, -0.6280373482042643,
      -0.8804530366709298, -0.45552897699454853, -2.026508068393592,
      0.3787976625882774, 1.021642135004125, -0.5187183838550026,
      1.5521070590347732, 0.8310635331103721, 1.3722944898187093,
      -0.6625046007179017, -0.3201949789153416, 0.21541453976893046,
      1.289307091981529, 0.7126342537942755, -0.1984213478412776,
      0.2928236471820833, -1.1932421487909624, 0.4355552665261075,
      -1.609588328586985, -0.7482980652718542, 0.8343467226031099,
      -1.4492601926049704, -1.3559812290919835, 1.029132729218386,
      -0.16855530650949582, -1.5878432040845414, -1.791976735090054,
      0.06632448276606566, -0.3078825976379624, 0.29113013912688895,
      2.148613200440088, 0.6572743083664905, 0.27285752901332394,
      0.6857003678515806, 2.784976688208795, -1.6571345579987484,
      1.3439843699006953, -0.2763914011527264, -0.201176304409089,
      -0.9037799933728358, 1.8036037830393847, -0.8157942433501603,
      2.0655698210141096, -1.284425761270625, 2.009156977375634,
      2.7965604902093526, 0.895139659567566, 0.5872416358350663,
      -1.6319240048749986, 0.7859997534848255, 1.0111483408546784,
      -0.32904379427259933, -0.960714283206428, -1.3156961006923313,
      -1.523546879131171, -1.8701463453933935, -0.059007343290738805,
      -0.35141029889479697, -0.674446812179295, -0.11195247223921626,
      0.050171692295967296, 0.15234467382383413, -0.8464640175858197,
      0.3904843267678588, -2.133307281663042, 0.03355428116250914,
      0.02350071439211096, 0.39014603691416666, -0.7114068141162524,
      -0.6448878460573024, -0.7995039955805306, 0.2541896856370946,
      -0.24525849198181202, 1.177348343847424, -0.18041365005967652,
      -1.5912377921099212, -0.8772657228273801, 0.8148378736688955,
      1.0534654892789685, -0.5035930644510073, 1.5301297674204506,
      1.3176439610300121, -0.9676082902836535, 1.2814173849535724,
      0.4070825404369557, -2.025409148014907, 1.7686073320157583,
      -2.237513528211764, -0.32737657981517493, -0.04623747817451667,
      -0.5700634376422838, 1.2431625419787597, 0.6109206426612219,
      -0.4230729286983267, 1.9195930546663817, 0.2652070895290307,
      -0.2832253276615598, -1.766171141375484, 0.9313564002290393,
      0.608134800034074, -0.9856585398536817, -0.646019175664064,
      0.08584217306366648, -1.0888921952860549, 0.8123316555700145,
      -1.2786591745685243, 0.513360081171747, -2.3801683875294644,
      -0.7212297977341301, 1.6675403291480408, -2.2371949950131667,
      -1.6139438290674732, 2.2595844527049085, -0.5115556033551172,
      0.6434077149705166, -0.44898301057585316, 2.0089809677546886,
      -0.21682277849252138, 1.1114289056236737, -0.6948441311066809,
      0.03797747409799316, 0.8969794934533658, 0.6619936872491169,
      -1.0488763045341378, -1.5415308315697338, 0.12503033208546008,
      -0.8297508195629698, 0.34181445919839354, -0.37042706293452204,
      -1.4920717001962154, 0.5253054588013972, 0.5313547232748498,
      -1.2618115434269368, 1.1369915000833035, -0.05164098372406273,
      -0.8033479645631674, 0.5946994664836224, 0.35356049930108135,
      -0.5408250359987911, -0.7272121725465213, 0.2046384545047364,
      0.43508479686252316, 1.9332570686918844, -0.9832626718195857,
      0.9352074149214106, -1.1252261218671804, -0.41772862309195163,
      0.45158216651356947, 0.611551018043699, -0.7986558098560768,
      -0.06602383535167126, -0.6657492267021115, 0.61179727187046,
      -0.7022250223491006, -0.34439231686838445, 0.3530772939263206,
      0.34948868579150316, -1.5640175301514476, -1.4227781973152014,
      -0.6729464519960973, 0.5523588870169471, 1.555371237025248,
      -1.235754297446639, 0.31880260632364693, -0.33617765151411994,
      -1.6495364965981234, -0.8158259806911796, 0.9137154838730999,
      -0.08535674146109855, -1.5094414515387826, -1.075830350790651,
      0.4499367101967997, 1.0075583886043895, -1.6355531937222063,
      0.0034071977584308882, 0.5620512317084259, 0.5467526506098226,
      -0.3750442809092442, -1.3542034397092235, 2.3747978183820146,
      0.2502191149892407, -1.4766682481939386, 0.1441970353995203,
      0.26575862002281603, 0.0886032344234128, -0.060034451325470105,
      -1.8375185131291254, -0.3114019711313244, 0.876306381867951,
      -1.6391090002940503, 0.41851560069261967, 0.04669751323538681,
      0.07635983975021486, 0.3192034637793558, -0.13867774067539188,
      0.04972005796850103, -0.0571440720105235, -0.44510317841216557,
      0.5247896548852219, 0.6434150837061823, 1.1643085023838702,
      0.2781769353225018, 2.0672479513812765, -1.6176754151647006,
      -0.8264632910185867, 0.7950318101287267, -0.9099564495252969,
      -0.9883914636917895, 0.7865897471130173, -1.5122698240100585,
      -1.7982401172388005, 1.4450291937359574, -2.2194226449700656,
      -0.47910684739873655, -0.07867557107821344, -0.5243769707303124,
      0.345508480070073, 1.1851838528825354, 0.5082169524347628,
      1.3429086601448323, -1.3262720146983098, -0.4549056561776564,
      -0.9857649093240726, 0.9967284583046482, 0.5233557790619816,
      -1.4253489193643174, 0.5484113724440567, -0.6338822236096414,
      0.48956469779866, 2.129752288305133, 0.315835918101444,
      0.07852051777884224, -0.6853012201747304, -1.8886724519285685,
      1.3401648309655352, 0.8957772574410041, -0.23473723963395063,
      0.7646114539182667, 0.005778680834159027, 0.6956161095461865,
      -1.577669984019599, -2.211489689974656, -2.0158718783805,
      -0.6151237902417854, 1.547116663159978, 0.24668908954244337,
      0.3544817461950573, 0.3924975203295174, 0.18131381293532214
    ],
    [
      0.2576229057162814, -1.5350297446805796, 1.4946739546982462,
      -1.1293937309120914, -0.710281183914896, 0.10641505722977672,
      1.75889705354452, -0.5137356254117358, -0.5457448592509893,
      -0.9784006341337129, -0.4282746632830852, 1.2630514350670556,
      1.4072619947442682, 0.016334409521186043, -1.1890702080493274,
      -1.289250859257698, 0.09672150066992162, -0.44996325039922397,
      1.2942175464447658, -1.405735295395803, 0.027515242183643474,
      0.48712513468784363, -1.0401365963717828, -0.23887919212455652,
      -0.4349208674699319, 1.0182810626594092, -2.2538497911408375,
      -0.7875231380087425, -0.3306055763073364, 1.1752270593990461,
      -0.27207130546080854, -0.7640013624794219, 0.7603456497253291,
      -1.501566941654889, 0.044584639570854845, -0.7457767181041305,
      -2.458714696242272, -1.3022621323513672, 0.18881733577126453,
      2.0548481030999093, 0.8042194060416314, -1.4479595121143498,
      0.5412460083380852, -1.4945098157608967, -0.3585391115965126,
      -1.050922638539095, -2.7338594800970655, 1.1768623027626672,
      0.3130733040507831, 0.9141173309976349, -1.6884985258386433,
      -0.5738883165937206, -0.8145656961471445, 0.33798746736934215,
      0.672115509575632, 0.9007279957937578, 0.14569224845919707,
      0.24037924040346786, -0.893964500011705, 0.29591119846462577,
      -0.37856376336647807, -0.20436724803741874, 0.5035888235498563,
      1.0591323786125078, 0.13105311070194944, -0.3159872371455636,
      1.3673096704595809, 0.37836721400500056, 0.8009234129206187,
      1.0356467092279449, 0.99167101478293, -2.0516404867895104,
      0.6413174656014136, -2.3738636629231045, 1.4567420887002867,
      0.4658605978322805, 0.10593547812845878, 0.9136622852066132,
      0.14621274715189286, 1.107083120614343, 1.9143328593574855,
      -0.4589030233295295, 1.5386865341427136, -0.7101909481976215,
      -2.0193343041177987, 1.2133470198734293, 0.43748666455197277,
      0.5608779800764218, 1.5431178559711767, 0.7929651276763721,
      1.7406765452573465, -0.9521680150412992, 0.21124238548408136,
      -0.0018373544595285827, 1.4241063102857314, 1.7323542492124004,
      -0.22851762579325288, -0.3367683231184175, -1.2186511348600755,
      -1.7057324047875677, 0.5289561091828292, -0.038489956268662695,
      2.9266449248902853, 0.7583202915542425, -0.4491933551261531,
      0.5368160762139208, 1.9385577743982652, -1.068553720715332,
      -0.833926873312578, 0.9913995448879981, -1.578108464748726,
      0.2961225226113892, 0.2516287002801448, 2.4354104880779324,
      -1.9353372670108768, -1.3270161206687794, 2.357318990086093,
      -0.6452189567977538, 1.5145482992019292, -0.30540730828233736,
      0.09412236782704202, 1.0296629613639612, -0.2395175399743514,
      0.8288426558016276, -0.3913575983416291, 0.008375007691605443,
      -0.3185143179528006, -0.25078051864917233, -0.86963391953505,
      -0.6201868587029465, -1.0316550197366297, 0.010347211716095666,
      1.7093683932759245, -1.34334410743676, 0.01782681628049022,
      1.938158086438744, -1.533182245068068, -0.8804920593909747,
      0.15163800999724616, 1.5148049731998536, -0.6319012718076603,
      2.050869420870267, -1.5152451737208992, 0.5027123906779261,
      1.4750335861609387, -0.17318007916618622, -0.4961225497341045,
      0.3998967335095497, -0.6337519937057761, -0.1913256719858905,
      -2.440276077910488, -0.012993634674775257, -0.8314591001204561,
      -0.8991367770521521, 0.37206937421720443, 1.1329225507151457,
      1.0118726157038838, -0.2473957134193221, 0.341297775919923,
      1.7525668306465916, 2.2913122568049697, 0.04887065300190631,
      0.9746160528015146, -0.24234309651621608, -1.5909524769586354,
      -0.146336013151536, 0.4283228014614883, -0.008044091021762385,
      1.0790172066394805, -0.7908671353662827, -0.35356801794003545,
      -1.573444783043854, 1.0884026781043394, 0.5414741420352152,
      0.792509914736296, -1.0767351141033021, 0.8863091895530323,
      -0.09362878940906953, -1.650620868410836, 0.5257623172067841,
      1.697202009234065, -1.0558914318788728, 0.0742219876580959,
      -3.018005195303519, -0.2495996266579707, 0.16404587773081236,
      2.7330904040724313, 0.6570236132724316, 0.3020368545293519,
      -0.4221623292407371, -0.4261592332408523, 0.5109270136936356,
      -0.2664037879850462, 0.10728991550825252, -2.081397717277884,
      0.6562010283210958, 0.18937616685343694, 0.30680212130023204,
      0.4168263201833147, -0.2621638984126435, 1.1345585375813558,
