{
  "epoch": 430,
  "input_size": 180,
  "hidden_size": 300,
  "output_size": 26,
  "activation_function_type": "SIGMOID",
  "input_nodes_weights": [
    [
      -0.9912689291100157, 0.5411672448859394, 0.7106682239813494,
      -1.9815769970822088, 1.3128786208786458, 0.6687358317541763,
      -0.025579294569103204, -0.8890709292478443, 0.8138515161659272,
      0.3876289004747224, 0.6083841431818607, -0.4392837420703177,
      0.21839824121522794, 0.29999942127956236, 0.5851345336512355,
      1.1470508978063423, 0.7572066523014563, -0.054202096569535264,
      0.5157113321021844, -2.432621467237518, -0.5337079979196048,
      1.7868524545448448, 0.23888086942082978, -0.9469747406788116,
      -0.0008771887648909542, -0.4455289062093274, -1.764497837192969,
      -0.9318262035399516, -0.6170141236970841, 1.1877822101820619,
      1.2931359463264993, 0.030085494232292988, -0.0038011459554408585,
      0.6997855207961758, 0.5511681432118062, -1.623363746370455,
      0.48677727075315996, 0.6922084018490029, 0.2880223428396497,
      1.8193654807503794, 0.2070694426606692, -1.2035629727296442,
      -0.13231692384646887, 0.19033164702713679, -0.1692528122128791,
      -1.1008987051894945, -2.596012751386364, -0.9402734722777492,
      -0.6953942138219944, -0.05707374122771702, 0.011036485709910247,
      2.185052286783907, 2.98528832313295, 0.0986053126357769,
      0.21548016954493873, 0.22897886858161623, -0.19070473750529282,
      -1.0582094879189554, 0.08911624920113076, 0.6402418955874232,
      -1.7691247198491749, 1.2436341410546874, -0.559844325545898,
      -0.13185553077292086, -0.2152691300344875, -0.2896370859480883,
      0.15117795742682846, 1.8871008825221984, -2.820623671542174,
      0.2599584696949807, -1.3725045604389972, -0.4222359528583699,
      -0.7582071663464877, 0.973864761858372, 0.48515828618939383,
      0.971859736329737, -0.37203166420931727, -1.2845292282984233,
      -0.6970119591325759, 0.7311728933469984, -0.004585117447701823,
      0.8220891175706523, -0.1788297322176208, 0.7702089290018557,
      -0.05876937714835451, -1.6281950119871222, -0.3852496428052357,
      1.1878004445666626, 0.4069075953730857, 0.6866591643714338,
      0.724667538692136, 0.5048695094529027, 1.2938756487839203,
      -2.0128597034974978, 0.16738726088945974, -0.7714175939837173,
      -1.4514513170776935, -0.1633057563309761, -0.04991483339441534,
      -2.721900733403917, -0.32993975149984267, 0.2099531702211689,
      0.9589663481072096, 0.5286781111324207, 0.2016657340260375,
      -0.403173397051867, -0.6667589933656802, 1.4584576776276106,
      -1.6964294451451358, 0.7861889816522492, 0.14388382184112808,
      1.6049882122841315, 1.3712215696410621, 0.5233384698008183,
      0.1523475300426014, -1.024584458422286, -0.7498976128706067,
      -0.009108505210854372, 0.349522427094875, -1.6353664711106612,
      0.7824777567560005, -1.1236174260934988, 2.9163519870532353,
      0.4037831891881347, 0.0835379568900916, 1.2185180229342827,
      -0.4447351606600212, 1.2534169961963897, 1.3086225312535755,
      -0.02431122723326172, 1.2220470120761817, 0.33669487102245255,
      -0.793190448826554, 1.442437632652658, -0.7527396515176314,
      0.22130798762554724, 0.64821487369476, 0.8131703159349176,
      -1.0272318024136677, 0.24447414075740087, -0.1270565668810333,
      0.48761344382533456, 1.14440509984553, -0.7246654121709006,
      -1.3796194609807635, 0.14750601855442383, 0.2811963266143232,
      0.20879925114102543, -0.3464060328284531, 1.4455219998938948,
      -0.4605446551107444, 0.631781520915105, -0.32724855395709307,
      0.7568462889274457, 0.04567850275925583, 0.4567491143339681,
      -0.1180283481821269, 1.9514041418418675, -0.7228777129502187,
      -0.5813412037709483, -0.24473294439621215, -0.734439467055676,
      -0.1788881243123427, 0.3910037431711563, 1.574923017404368,
      -0.1990280500830137, 0.7711050171780359, 0.06261611563092956,
      0.9465698022155792, -1.3486615175344996, -0.7050630991849052,
      -0.6196654773603476, 0.24363517364441045, -0.9157551056504717,
      -0.8385037120124522, -0.8770395458424188, 0.8622794961932571,
      -0.22212297446027818, -0.7357696330606539, 1.517516019662593,
      0.2812600840213249, -1.326160187457464, 1.4458532508086124,
      -0.23529621977556106, -2.4137282164339227, 0.6391402608139292,
      -0.4094431080700806, 0.31655263794579097, -0.14672640926285938,
      0.27599369255697603, 2.4512591100751737, -0.5705237476164117,
      -0.5884039065346277, 0.16605528240393017, 0.12561644093283905,
      -0.14035624402881003, 0.5801823690270651, 1.1610789155521108,
      -0.34742461463321456, 0.6707253786162904, -1.1125259761283974,
      0.31563888791134737, -0.4371716153630548, -0.5897165967604452,
      -0.6725073320605879, -0.510521947295503, -0.08981093956530536,
      -0.45613306819770266, -1.3768512342634527, 0.5271792230662364,
      -1.4746222142151921, -0.10621225433661759, -0.09527482310005617,
      0.7130901681142288, -0.3018905499968547, -0.3957106707785345,
      -1.1553843548378566, 0.37841799006231897, -0.7959939532017243,
      -0.18189505366719266, -0.9932442109403471, 0.7914536023731014,
      0.09151178597843172, -0.033068887479242984, -0.7192419911190577,
      0.7742974091899446, 0.3837772378936259, -1.6327605224380377,
      1.127337620088684, 0.013634131117052754, -0.1783393057106437,
      -1.358771663589721, 0.476344519043827, 0.5586601422167203,
      1.1245110663977589, 0.6876305700739127, 1.445864976536224,
      -0.3726899460004746, 1.6055023946433278, 1.5109693408857097,
      0.13237435449163845, -0.08246767824241315, 0.03155382027563422,
      -0.28446788127950656, 0.18607886445955368, -0.2997552184835864,
      -0.6596152258383987, 0.5288570147787107, 1.6004836333878043,
      0.46726150935494004, -0.7804796917978599, -0.6389010921784278,
      -0.6638100385972785, -0.19316757312483976, 0.34688716808861586,
      -0.442158063972535, 0.6556353876534144, -0.5211425089308545,
      -0.6301845345498931, -0.3207605672796781, 1.5064229911872917,
      0.4581477985473249, 0.7180069335959323, 1.1468480460301753,
      0.6658421557232856, 0.27101950264726615, 1.3843442998104276,
      -0.5319145973564947, -1.982601803435479, -1.3438348877556603,
      0.1040365364140055, -0.9327135846009338, -0.23277498609334185,
      0.6532251874051777, 1.2620498594374567, 0.8147290131398752,
      -0.6453079371167306, -0.21834823740730525, -1.2556488717410375,
      2.573710011776179, -0.6944528017125899, 1.545660023594638,
      1.7401151556838064, -1.2858151326401686, -1.303348864919007,
      1.0994866950554643, 0.08505537626927935, -0.4931590608679664,
      -0.29805124633231056, 0.9398460694711003, -0.3586863792273313,
      1.4414929229614035, -1.575047394650922, 1.50755813314904,
      -0.6019816993502516, -0.1188820133389508, -0.7565463758258523,
      -0.06795125897055163, 0.7603350015052857, 2.022981861839579
    ],
    [
      -0.9918953002375939, -1.2628850030363017, 0.4956861788815331,
      -1.9817881450100752, 0.030069137747602507, 0.4571585419222655,
      -0.07554004705999914, -0.30946464654109124, -0.3715179201649604,
      -1.6761275966802958, -0.017337418388130393, 2.304633361381685,
      0.04437050903435525, 1.0915226943594722, 0.6789436123332909,
      1.168017237248013, -1.6128857609378155, 0.1620571319590528,
      2.258268798687835, -0.26950408491892647, -1.4277716581268927,
      0.26864167995874755, -0.9066577358632516, 1.9500130656903596,
      -0.3139653874707454, -0.7028147315954606, 0.36654165250066445,
      -0.5379539686039051, -0.6459152208006158, -2.5857098236140685,
      0.42116395350749347, 0.012687168115578112, -1.47423799310771,
      0.7736493739847334, -0.3593342456370003, 0.40278435287093084,
      1.2828619301839288, -0.005418474176826254, -0.4145979199829395,
      -0.20820260855691067, -1.2806379244590045, 0.04025104789295238,
      1.8628718179481345, 0.6321501006306149, 0.659495464319909,
      0.29783347690681683, 0.8285440537501046, 0.9777822727087176,
      2.105475400971232, 1.1101372588532747, 0.030072639671114322,
      0.6956790781281735, 0.3473421111032625, -1.0823511123832126,
      1.6705420378806601, -1.5029018507860976, 0.5488251518662068,
      1.1795993913545366, -0.48718371402002947, 2.244802686709404,
      -0.8891118868839039, -0.9461553710603338, -0.5276944884005837,
      -0.8213744581702488, 0.5620245025249028, -0.20902182374003556,
      1.2413267360556934, 0.8074636245003108, 0.5607350628523967,
      0.811196114893616, 1.8718564874775827, -1.397310874788206,
      0.21930077949575788, 1.4967964363306396, -0.042524082492325255,
      2.1531459785703864, -0.4511639010728268, -1.406105749314236,
      1.8360325507677238, -0.6887564558740623, -1.1213068893961953,
      -0.19435443184381748, 1.2693287546853878, -0.01810703154801713,
      -0.3099829153975312, 0.5596414096872475, -0.9515910683262482,
      -0.16486213216392276, -0.143241771729929, 1.377995480117279,
      -0.5558558457359127, 0.8394031099076823, -1.1629192189268307,
      -0.6214317270844798, 2.164968229511445, 1.4394669956816304,
      0.5322915072324883, 0.7071604179003178, -1.7094069698423755,
      -1.147503697647721, 2.378532228098868, -0.19823541089124808,
      0.3821014112590719, 3.3477220646362524, -1.1916684609808197,
      -1.7012745202670563, 0.7568941899511735, -0.4508656904240026,
      1.9240281758238862, 0.7937375991584067, -0.9139272275497815,
      0.3415516717348811, -1.5913463448651832, 0.09494596973309816,
      -1.9521464779422106, 1.5880374197413165, 0.20303584222326493,
      -0.31610118903760925, -0.9339419047402734, 1.2111318468989347,
      -0.7130045819734708, 0.4849906362772297, -1.6836082941750137,
      0.8547863265298998, 2.3184280853612127, 0.41561236787572065,
      0.21744938508576894, -1.1529388250273047, 0.39570792336138205,
      -0.17284017642215435, 0.530558144702256, -0.3842874717140119,
      -0.577888739870993, 0.8528169768748052, 1.2950564507209716,
      0.03822805809610347, -0.3055338753162194, -0.7699294604024839,
      -0.6591244066400048, 0.10367542379461246, 1.4668540055430372,
      1.688360196819093, 1.3123039803288354, 1.6740624785498137,
      0.26467851689566296, -0.15982358955374837, -0.007579243245058103,
      -0.2352744956050232, 0.2998821978815476, -0.8409471569904751,
      0.35749593656911627, 0.5419220061301713, 0.4362374700415019,
      -0.1917701912284963, -0.8646621253820944, -1.969482683616283,
      1.7513444214445928, 0.3402765016074092, -0.9210724309420548,
      0.7078307509444228, -0.4990868005633642, -0.5434996980693769,
      -0.6811838461688058, -0.45385773987418765, -0.33886717025848767,
      0.42313431514244465, 0.43793314966516894, 1.0755581167497141,
      1.3015427071881773, 0.47357331436372124, 2.0391136947555237,
      0.11396133352089521, -1.3924460291334744, -0.4382262705920894,
      0.9466784612344249, -0.6743999248506314, 0.37825247528433764,
      -1.660110616827437, 0.5904992483978743, 1.0544762323587926,
      -0.22703412280594437, 0.9025966073763486, -1.360552838993106,
      0.5686261433412889, 0.6825894047056514, -1.2296550493397214,
      3.1164674917596504, -0.4704222147927677, 0.4697651068115892,
      -0.034217740166469286, -0.6857027566410466, 0.31188649258689255,
      0.11556641162866362, -0.10431910735836397, 2.875786375084056,
      -0.8809557046807016, -0.6654955927803287, 0.3698332748865148,
      -0.16709388289830676, -0.0963579068492335, 0.44048430532339233,
      0.11287000496375978, 1.9180915844484008, -1.5016154600565246,
      -2.0198412270666584, -1.0602450989163898, -0.9261790367012218,
      1.1653736433073847, -0.5110082031842957, 1.064855716494246,
      -0.17048987189084594, 0.19528247899229376, 0.038298580054282355,
      -0.7042020504208013, -0.28881486549389546, 0.9227215820019341,
      1.0371136916419934, -0.06396281147652874, 1.483219353921156,
      1.5947339528340998, -0.4439293938828083, -0.9615098436988408,
      -0.011279210394148743, 0.8140174280294652, -0.5992116242462225,
      1.265952541216121, -0.3141852298326873, -1.6324721460090301,
      -1.887742685037863, -0.6312360326768028, -0.7861820870649288,
      1.2073527080489672, -1.8598560332881746, -0.6844206264940516,
      -0.8642551205444309, -1.2673412594724656, -0.058649016815328914,
      1.1823720484305509, 1.6280698589655964, 0.11806659356163815,
      1.4673229125642375, 0.5407008847872113, 0.16084325966049184,
      -0.05430436377796534, -0.759210649287746, 1.1846752036255315,
      -0.233512739419375, -0.6509533942475799, -0.11481320944253705,
      -0.030688936220951608, -0.8385916995496681, -0.576658605198126,
      -2.5127743273468646, -1.8077132654285502, -0.4525591328795644,
      -0.7719509899104788, 0.7629103307120818, 0.7342207551943903,
      -2.2936833493844473, -0.8242237211355026, 0.03809365486588551,
      -1.2444682489279508, -1.271670275585808, 0.576353141490075,
      -0.3123908517335729, 0.0631266808804656, -0.6982317058690088,
      -0.4447786413016691, 0.35964313829411887, 0.7175011951748848,
      -0.6021933986084681, 0.67404285263021, 0.7334627664794777,
      -0.6851355578886148, -1.4828346998665385, -0.91026527265032,
      1.3613617618849554, 1.2034686104659233, 0.7598673508439534,
      -0.3548515416963347, -0.9844556874695495, -1.4177518159820843,
      0.9555487884444663, 0.6766422247233891, -0.5956525441031639,
      1.296813162517989, 0.14923350425164159, 0.9261915500249721,
      0.3765552606209568, 0.2671943418362568, -0.04715699934167632,
      1.9198969033298308, -0.19207392781921961, 1.0566562962056096,
      -0.0336915850611489, 1.0341045873905004, 2.752284087452464,
      0.528517602715236, 0.213509902113997, 0.4141078809786483
    ],
    [
      0.6184795767912347, -1.5348073026457298, -1.0495741056803107,
      0.6388944656149822, 1.893394954903688, 1.17710142066389,
      0.7023062311264039, 2.1241065778292705, -0.6004518615653434,
      -0.9428631600154708, -0.9972698719901482, -0.06944315954333115,
      0.21100965948424746, -0.5764366590543939, -1.3310316061296643,
      1.7130504065991263, 0.08370554433815816, 1.4189704861112948,
      -1.4722222510466618, -0.7932597351173722, -1.2074877823261652,
      0.034827001883954434, -0.30722454491265994, 0.7117423752503402,
      0.2869785086480826, 1.9848264288381097, 0.10475210534266481,
      -1.1383761676997401, -1.1719340989254208, -1.6671160305514163,
      -0.8927833203356635, -0.2024582740215762, -1.3798054565448044,
      -0.6605585504673757, 0.20980650555620498, -0.7555730052892662,
      -0.5235082830927046, 0.6356703337159749, 0.6659363464231396,
      0.5934009780169048, -0.5978287947691342, 3.3963494767566385,
      -0.6366033303369374, -0.19843668311027554, 1.0593100361619894,
      -1.7487406243541663, 1.5263451155648167, -0.501489472521541,
      1.4442396175291943, -1.174673506798103, 0.39911022003323465,
      0.3517451332771496, 0.17579084808222079, 0.6656877623046782,
      -2.0261666673105623, 0.14820456223550857, -0.695737673933617,
      -3.383627912750626, -0.24285063092554451, 0.5663225625446083,
      0.002534133463301577, -0.025154717938484717, 1.2970058180528812,
      -0.4548700311576431, -0.5995066412847305, 0.04905516203702962,
      -0.9598829726118039, 1.4778124636832566, 1.9707032941610236,
      1.1679845158354447, -1.1087121816133327, 0.26399369835554176,
      0.5475434123682185, -0.4920111607134635, 0.9319691700360845,
      -1.153464865587295, 1.8223298501816372, -1.2091572690849228,
      0.853018713592339, 0.17912366799034413, -1.9557103524703379,
      -0.311253366510651, -0.12694897007530467, 0.7629440018009087,
      -1.9201227389400297, -0.3928701084995561, -1.792860429198911,
      1.5715808628158228, -1.1770911697598991, -0.3895337912974431,
      -0.3127297615121597, -1.7003530085462368, 1.008439206962564,
      1.9508721827846316, -1.6394665774781318, 1.286295879096378,
      -0.6154763946274466, 0.5749591660000352, -1.7238009725636503,
      0.3078181950708095, -1.4764041572183098, -1.3993544229663863,
      1.5349988879487717, -1.2234902414142783, 0.4394597784997423,
      0.7698752996837703, 2.1441320102940233, -1.8230186577847072,
      0.5411013200831661, -0.5484444193872027, 0.32564470694003156,
      -0.7979149943387654, 0.46012196354609, 1.5450534937085403,
      0.040339590498202266, 0.32915958308905946, -0.6914643987101883,
      0.6325974896082265, 0.27403112294896287, -0.605148606725703,
      1.050025146401691, -0.9298759947464752, 0.8120873408581221,
      1.3640730309322127, 0.9706407081817945, -1.235217530771178,
      -1.2020400194275642, 1.5438056719643616, 1.1372575828922744,
      0.7694788279603972, 0.5393987809601822, 0.6082780877815491,
      -0.6989180045763368, 1.8018551765442075, 0.37257970748514946,
      -0.07239245818603206, 0.07707853614362037, 1.01240202349635,
      -0.32603275499043866, 0.7749361236059421, -1.02366312536024,
      1.5666173751150185, 0.13671855343888228, -2.364703335172583,
      -0.8716345197634418, -0.48328470952959723, 0.3621287517707688,
      -1.112570663651779, 0.1295359512828705, -0.9136159804114642,
      -0.7170047030609766, -2.4003458275011695, -1.9484033681596515,
      -0.6709756069633809, 0.37915429907086523, -1.2690134332132574,
      0.768718456488233, 2.2182173103337712, 0.05192835126871691,
      -0.8524392133081137, -0.43539425007997273, 0.1511272833250819,
      -1.674344365537483, -0.31377415553622545, 0.17352891281315766,
      0.9534134771697543, 0.6367033575783677, 0.24669603420474623,
      -2.207307505080641, 0.5613223084935897, -0.26419053709001905,
      -0.8100807867449763, -0.20474989389561826, -0.25036992268131086,
      0.235270969493828, -0.019186737338173644, 0.8744670394124859,
      0.1779357598796246, -1.8235978941524087, 1.1137154674336753,
      0.7570261988868029, -0.5075455739851819, 0.688554428196692,
      -0.36549579879466587, 2.043914837129844, -1.8118348108781948,
      0.44687092153118885, 0.6832679449148683, -1.5684500079848838,
      0.9864911137288969, 1.2886012568167209, -1.305640713049844,
      2.095133098334939, 0.2338827860398381, -1.1140205939604224,
      -0.9512586186621971, -2.0919761784325575, 0.20585299396946646,
      1.7672272535791944, 2.074239061338104, 0.4119257032254149,
      -0.2900381331539139, -0.20834796064410166, -1.1290525024938605,
      1.4429943248659072, -0.14471657294119566, -1.5490154674098078,
      -0.042989745062764984, -0.5411957251393501, 0.3795541518185066,
      0.9769779248506528, -0.6949675243765862, 0.9580282001798176,
      -0.06301333324473257, 0.35851779221609476, 0.7409351728151119,
      0.5618787116893886, 1.250280765193244, -0.25449942013260274,
      -0.16118010534556923, 0.062197762064188096, -0.8169810384795073,
      -0.2510517264445186, -0.9346044640062054, -0.6383913900571961,
      -0.5020856996298794, -0.5506725711603875, 0.05027159956212264,
      -0.6126271970979926, -0.09281124297558176, 0.39765040443759053,
      -0.357604818878021, 1.8304202041453697, -0.8217271012083622,
      -0.7771369960730711, 0.08492336861395128, 1.0009105651107895,
      -0.787881554909024, -0.3705839887478394, 0.6441153186448526,
      1.0630712169386636, 0.18803816425200587, -1.4156233823655808,
      0.3225894496552219, 0.5899022382749493, 2.593825609712245,
      0.1888550679321862, 0.0738533836274096, -1.6112504102157361,
      0.8065271724443056, -0.9429965041241914, 0.23468830932187876,
      0.22869054750002812, 0.2521382867648498, -0.0971769624679312,
      1.7839889557949038, 0.7352298410228255, -0.1784989485236896,
      -0.1941582871664097, -1.238033846425131, -0.9271164381530834,
      2.237567709918566, 1.0336572488800972, 1.5815918213841058,
      1.7531347897732517, -0.8896815723902504, -0.05852400025196015,
      -0.8253115472386666, -0.6139064805791127, 0.44089614483130385,
      0.892610275709936, -0.2660095544978916, -0.2506596322538234,
      -1.1466643329614943, -1.1620782901656685, -0.2803169265421203,
      1.0698359302097502, -1.254288940202307, -0.2915560990847846,
      0.6320956709417642, -0.23862292092827894, 1.6075846817667392,
      -0.6201006889882235, 0.753000937651416, 1.056027562787383,
      -1.3210288118634759, 0.07271901701641903, -1.0633462159220772,
      1.0203248579558277, 0.5190290727493411, 0.13523526146798556,
      -1.455071490227018, 1.3391930130363956, -1.9273261572704665,
      -0.3314323363239522, -0.05609856155377033, 0.4238252388053267,
      -0.4988048821841266, -0.7453870038618425, -2.140306975333407
    ],
    [
      -0.6469954890143343, -0.3517170477309127, 1.0467918709295503,
      0.664753712971625, 1.4463006932194251, -1.171813370230446,
      -0.8137911167731735, 0.2022026219098671, 1.1000037820096058,
      1.551776973981194, -0.6706667716591143, -1.2523333407385158,
      -0.39098413263067666, 0.7584359268803507, -1.7008311190169016,
      -0.722439891900451, -0.22695153443668076, 0.9498456798060471,
      0.2945414564344919, 1.4021193159290153, -0.6024078496341287,
      -0.9075632673772188, 0.20634851672167454, -0.10982432309776054,
      -0.7150733863509919, -1.9378673739662156, -0.4752205536285128,
      -1.9336106180167563, -0.9458841957599626, 0.07298453882341424,
      -1.0103582977279193, 0.1177359435034729, 2.2840429602290695,
      0.1476834873305881, -0.7833644477187374, 0.7493089389638714,
      -0.35344306855422314, 1.4209094703768121, -0.4476729820455418,
      -1.1877908390800518, 0.06908235657501922, -0.1638819562848747,
      -0.4196776421508219, 1.6011700452807476, 1.5311282459184725,
      0.27694326817620474, -0.09867807092905152, 0.6518789463554973,
      1.288159061829722, -0.05789143268295488, -1.016091476574983,
      0.2946650914346115, 1.2851033492712203, 1.002416076757295,
      -0.3366983245311908, 1.4066505903861146, -1.3839359991959996,
      0.0644024337729157, -0.4922150583248147, 2.0046969053227217,
      0.06296771673913842, -1.4563051163935758, 2.1628810870869217,
      -0.17233402768924183, -0.7801798147570624, 1.4321094929685374,
      -0.03849090594826764, -0.5199241204896942, 1.1660358069426509,
      -0.11091096059493794, 1.2552081080719055, 0.7856338402584941,
      0.5158258984002118, -1.75930799577581, -0.4343713322552732,
      -1.3051398998362504, -1.1289141487561363, 1.8569660703916653,
      -0.23132741457198022, 0.41175686844794396, 0.7389720439937117,
      -0.3958526887062523, -0.6833835172794279, 0.04835737587175716,
      -0.505927563300548, 0.21511045208629123, -0.7150855402220335,
      -0.7104638923296486, -1.9641800895302814, 0.26760913703090594,
      -0.4868089494148479, -0.29290671675830343, 0.8147711054661572,
      0.19675915753647244, 0.5072728493789702, 0.30477665670043935,
      -0.6958745077904005, -1.3960915273914312, 0.794544257261472,
      -1.3297779624637163, -0.6204370525564205, 2.5179005662457525,
      0.6032190401319294, -0.38610411057083766, -2.1266443552825236,
      -1.1182621835109046, -0.4734591547160872, 0.3904544997406839,
      -0.17544071225736155, -0.34493432460249646, 0.34458185564440846,
      0.8427861847911887, 0.6882899920460275, 0.09368819770706344,
      0.599092308526296, -0.2863369605308281, -0.05252227611065998,
      1.0241497859151294, 1.4707701177946797, -0.2206449024422007,
      0.43748047067231227, -0.586716767507864, 1.793951850305641,
      -0.04678959104991853, -0.53412983396696, -0.4905682959043318,
      -1.6647008254228195, 1.213121477044852, 0.08772058323356441,
      -0.05220027736434589, 0.7690554940376414, -0.03769687320159848,
      -0.9117896753408345, 1.233872570825806, 0.48367049557570196,
      0.03581533071367433, 1.5336417957155928, -2.083970203345083,
      1.7246007537526635, -0.24549829104832896, 0.23199623576561923,
      0.24265348013346802, -2.006895351403106, 0.1019511426520544,
      2.0998361445085276, 0.6042388247901752, 1.0010861695237432,
      -0.11015462396486415, 0.0826380932612097, 0.5974477183765368,
      0.4472977047370413, -0.8885285137083611, 1.2138425841039224,
      -0.6084093453531797, 0.7530166204928577, 1.145368433042956,
      0.1252326476524431, -1.7129963611640502, 2.498527150818597,
      -0.19652996890878405, -1.4394194195671306, -2.4086325370527475,
      2.510410498275028, 0.021183143077758676, -0.06223130527969973,
      -0.8453405290089683, -0.40089537800870745, -0.4641921567730142,
      0.9189544905410039, 0.44308454632995786, -0.8892611989071648,
      0.3166288555407261, -0.33143707344811346, 0.5327310039151846,
      1.091012203961333, 0.04547894722912499, 1.3865736371152437,
      -0.17904357485946007, 0.6690771194324477, 0.46930161537090165,
      -0.9066111573730726, -0.2899144569384277, 0.37366335069626955,
      0.07954606180810161, -0.307265841847992, -0.14320715666237763,
      -2.947976634431013, -1.100933537780082, 0.7276430673504622,
      -0.6803675255853241, -0.21680999641108142, -0.49476416632903797,
      0.3296981859945896, 1.671453628669954, 0.17073864336534872,
      -0.13719457189370868, -2.510422738721701, 0.9618898387918933,
      0.652936396923804, 1.2422618461641481, -1.3399820494571124,
      -0.43957083646309936, -2.1154727721597486, -0.7166523421650401,
      -0.7452827281609096, 1.8449117176240315, -0.6973321095362642,
      -0.9858126982009443, 1.688788339336848, 0.6556436475289488,
      -0.20746316953266067, -0.13637294814972303, 0.8928813652368845,
      1.7690500929022912, 0.5063375510190307, 0.2581493782143319,
      -0.5082492224412529, 0.9577562650243865, -1.1956897757365466,
      -1.866135624544326, 0.9688748705595568, 0.29636352908309976,
      0.22012531763076434, -0.5432309270318125, 0.3843100900781036,
      -1.0679793160836388, 1.880540611157137, -1.3079653051464868,
      -1.0629006034300263, 1.1567746143204705, -0.9217577567340596,
      -0.7226084312070542, 0.8910083892037262, 0.4269329442684524,
      -0.4545560290673469, -1.3765768906607019, 1.4795840149595214,
      -0.32378479873412264, 1.429646199696045, -0.7908830735197394,
      0.3264072341990186, 1.600947923454235, -0.6776396730995029,
      0.5548173561677335, 1.3682954603348385, 1.3774152139443467,
      0.38983264655875716, 0.49435943866279985, -0.023247553961204336,
      -0.06482864833722699, 3.1104822755563686, -1.362661927295915,
      -0.5232079778447717, 0.8168272142176254, -0.24268830821447837,
      0.7448699445199771, -0.15103648812314263, 1.0957330930574747,
      -0.5557056981219952, 0.38653440827358904, -0.5637298653415542,
      1.054366175980635, 1.4406714502550366, 0.18492567720883432,
      -1.0564551403406282, 0.16113079899626614, 0.6791145559428647,
      0.025144752392417095, -0.07340402147883338, 0.23141055111061787,
      0.1323694192791542, 0.7251633078930415, -0.6671922530619984,
      -0.9189231657610507, -0.45553404886141874, -0.036551758839655696,
      -0.9813788089081364, 1.3699762027584483, -0.9266677324724624,
      -0.9477107074251054, -0.08502003802741394, 1.076922532512972,
      -0.016428293409928033, 1.2278568211774599, 0.14500526476429926,
      -0.5432171273332362, -2.266819643470162, 0.5814675343678846,
      -2.6332302230940297, -0.6766669850280627, -0.7020208621629483,
      0.6153277879293174, 1.0590159370015433, -1.5711954596565256,
      -2.841080446435763, 0.9995691529024283, 0.33919439897197257,
      -1.1405835366880188, -1.0790909112532139, 0.8168278616894367
    ],
    [
      0.08287419035636347, -1.5950016241532963, -0.7889551275001918,
      0.2052931529539969, -1.4008156465154544, 0.8542153345859442,
      -1.8510187979952877, -1.6924747696081566, 0.03808414376365358,
      0.45570028737729623, -0.8062725663153352, -0.5313785475345965,
      0.4396407794264592, 0.7002343073776344, -1.405538113316131,
      -0.7222635094086904, 1.3047613317638882, -1.0653191816775207,
      -2.3345321446123406, 0.2823949636068439, -0.6051239076509177,
      -3.169713274010375, -0.05478670105521413, 0.5793050555067732,
      -0.7574173432779541, 0.31422092525051487, 1.8625163539690672,
      -1.9243662726687563, 0.0745160800312156, -0.550880661201867,
      0.6757521330117457, -0.10050239284297385, -1.1630184738019174,
      0.9718274157493144, -1.3903374525543672, 0.6007848076505778,
      0.09036531074019082, -1.3893418591801239, 1.0336511264753905,
      -0.08148539990542736, 0.08475050576997592, 1.8521765631103047,
      -0.9581344845211505, -1.8846103613664016, -0.3530572894002469,
      -0.676137132011408, 0.1292305108173197, 0.44159189269081905,
      -0.4917975232787729, -1.122376526250184, -0.9178279967669304,
      0.6733716406266501, 0.39558969317069115, -0.31539339796981714,
      0.27829259174017623, 0.08358513761588776, -0.2386002941857491,
      -0.9919420067220613, -0.880764315205431, 1.1984885096314637,
      1.7564435808279582, 1.273530274611536, 1.04374507657755,
      -1.4801322957617902, 0.6713829236420348, 0.23293421722929214,
      1.030726060857158, 0.9955026216221821, -1.7277783044922148,
      0.34993871151170197, 0.33702081730661304, -0.11470967046006465,
      0.21752974536283798, 2.9900897496553656, 1.5818308289342122,
      -0.5450738244681161, 2.2353076799277525, 0.4584161899384574,
      1.5076261609302197, -0.012258095965744715, -2.291015115174059,
      -0.5053646230086202, -1.2397840925073889, -0.39850288483016,
      -0.45669580291975803, 0.08592534567825887, 1.00160781327636,
      -0.0022016019823509294, 2.1468868014639666, 0.07837483089001526,
      1.5396672265710338, 2.5169960400756053, -0.30380150589194405,
      0.2229703112239533, -1.0453241608740478, 1.578318503243582,
      0.2760054244716797, 0.14587306267915826, -0.14754945267343259,
      0.464116356589457, 0.4092097272655582, -0.39706845412712016,
      0.8159743212056078, 0.7977542036222094, -0.0072392482745518745,
      -1.9658333894931617, 0.9550164741214363, -1.884813799235949,
      -0.2955535972981098, 0.18187740971999677, 0.8309284570737466,
      -0.12136362581233415, 0.4245033032294598, -0.3970306722421602,
      0.9632377810980642, 0.7615622955750458, 0.020803725128341118,
      0.4936011670951092, 0.5047342934372084, -0.1580221065051794,
      1.4059583505632758, -0.9419229163695657, 0.38819853922684866,
      -0.37664690260802625, 0.23248838105056244, 1.1607320485158736,
      -0.17440571895433235, 1.745461087541627, 1.348353929565939,
      -0.1789782082089388, 1.93948243348628, 0.630779926835252,
      -1.5946141162566208, -0.3670239450793688, -0.17165748903827124,
      0.6001213324985002, 0.20973632236738138, -1.1331748289437642,
      -0.17864267363447098, 0.11776107644625079, -0.2877727823612972,
      -0.41744798739121286, -0.4548086421632789, 2.2739391070035646,
      0.22059404158243737, -1.1208706852740284, 0.9634600118911217,
      -0.67136779450347, -0.8367899541952962, 1.348931481334894,
      -1.5556286966968291, -1.4682811686185961, -0.29030127850948817,
      -0.2438040213839367, 0.7830960129013073, 2.0193747229391477,
      0.2846070613510396, -0.71919062840703, -0.17110809164566493,
      0.9377151772469454, -0.39419475086056727, -0.9341119457428727,
      -1.5592960026733962, 0.6450360037514462, 0.8716626086899958,
      -1.662392453233084, -0.3825164536989209, 0.860781362436112,
      -1.2909575382103535, 0.024665442032504818, -0.4774369884739238,
      0.3061682304834957, -1.8437144790921554, -0.37856565457569935,
      -0.4787477944093354, 0.5174743554186648, 0.5307606748912088,
      -0.24797594957834, 0.4955521402377688, 1.2474704487324035,
      -1.350596449618791, -0.2931036739979244, 1.8103596988507709,
      -0.11939516070592482, -1.2352547965569947, -1.9621805219527368,
      0.2788682895099569, -0.7732013137645636, 0.35957162184047586,
      0.6653290012931501, 0.3220532092037571, -0.7348054689210816,
      -0.37789798554921006, 0.460364524203404, 0.1560632487487865,
      0.9823970313049409, 1.1403879862514772, -1.604108536243613,
      0.2801494605437546, 0.7012749035995013, 0.6144524008036024,
      1.2500271857517167, 2.409982631642528, 0.6067016295255779,
      0.5991710612020995, 0.5138911347059985, 1.1517421086464643,
      -0.12739784533916387, 0.7375409822208496, 0.03848258071936002,
      -0.9853651960782694, 0.956733873892352, 0.4257973939013027,
      1.2064257493031547, 1.0970470459787822, 0.5173317384688264,
      0.7122566867998469, 1.3871586278728465, 1.6879573382200153,
      -1.1899950607677376, 0.21961209217709832, -1.7646709711014,
      0.10907898565914947, 0.6521164859429044, -0.1421968237851956,
      -0.022178066568283094, -0.5755779781496009, 0.8369132360273432,
      0.5005841089164841, 0.965817539010788, -1.122219827715356,
      0.011523241231774424, 0.888195525607401, -0.9047938790432026,
      1.3650882815520833, 0.5303272799611726, 1.7696681600162358,
      0.10711140313226053, -0.37015935074782574, 0.13464722813535934,
      3.1294275421263262, 0.6606483839604864, 0.2139770801602302,
      1.6188860765825843, 1.7339213481884228, 1.269864162889717,
      -0.0933451878213971, -0.1572369067189232, 0.04555760325736121,
      0.8066922326661383, 0.847874936537859, 0.7205513089765275,
      -1.7722670539272158, 0.9077015150738268, 0.9416108530311081,
      -0.16107436833751224, -1.2581243961894495, -0.03754293411212641,
      0.19501109988456525, 0.2503112693816294, 1.1054500968379657,
      0.040727368891595325, 0.305918041759716, -0.9459353508718727,
      0.28055148112193945, 0.6854446607968403, -0.1052982534205092,
      1.9297418656360565, -0.5002524138917785, 0.8320145297479518,
      -0.09475573808411235, -0.03527053553362328, 0.361169968423046,
      0.38496361127285245, -0.5925888809508779, -1.060695517403153,
      0.3664809882165327, 0.060124354432404006, 1.898904360778784,
      -0.3798962999347026, -0.08751342617755736, 0.33664776507005206,
      -1.0383646985394632, 0.9131656407422082, -1.3119143016493868,
      -0.8163600788977327, -1.0084164534894682, -1.4628279308566972,
      0.5949001565990757, -1.0418805112569598, -0.526762283815647,
      -0.30244489852238526, 1.1600923292203436, 1.825037677172295,
      0.5810399752909897, 0.6423752743979478, -1.000094799604186,
      -0.8197443345443239, 0.28947684662276063, 0.33737895711749094
    ],
    [
      -0.17216316245298366, 0.3925187227030858, 0.890269323649549,
      0.9527184824980388, -0.05928119683107576, 0.14251250336910454,
      0.11717524895899104, -0.2349708800257005, -0.22448684862554838,
      1.122845034300709, 1.585689507619783, 0.6113027413611702,
      2.460198216452983, -0.6708317942348015, -0.9712568699990297,
      0.921971636748747, 0.3405710295644408, -1.2900249500219383,
      0.709018093281095, 1.2100024962585958, 0.7294130760020054,
      -0.037607003327503226, 0.9267091190537369, 1.027267863720969,
      0.5480278621802238, 1.3835521642632564, 2.086264319667035,
      0.15341932776535783, -1.514177151253873, 0.5156569138398915,
      -1.2507514591885884, -0.32872324813907283, -0.24596000871540208,
      -0.28163176316110655, 0.37071625986571194, -1.9413148657116879,
      -0.2447286175079123, -0.46332906495350595, -1.0865362387554482,
      -0.5717389507001266, 0.7155907526495253, 1.2493574950431645,
      0.6918890083717203, -1.545072992896545, 0.5330291424357289,
      0.5680352344064186, -0.11898835914627849, 0.811763828152367,
      0.9735509277542477, -0.1921986741450245, -0.21283399958780258,
      -0.5500659218784018, -1.1692194930246687, -0.21870220076278415,
      -0.40037985089740497, -1.271726849515434, 0.785954393348282,
      -1.5062414918783409, -0.07735767624273239, -0.03617723643509505,
      0.9739597797985742, 1.8480262462413053, 1.134105868461821,
      -0.1399987997862403, 0.5453500857044615, -0.105761407681279,
      0.4968071869614549, 1.5491693249005856, 0.13946121906343492,
      -0.3419305323784878, -1.137515977991654, -0.31846830824085004,
      1.1314998427914538, -0.5474895974337608, 1.8102846242337742,
      -1.6077673295909138, 1.7371004072674139, 1.070308203460619,
      0.1002244882239549, 1.3904071654392702, 1.3838836810545876,
      3.3570235081109883, 0.7953130571500878, -0.28105433277786845,
      -0.5360686727922023, -0.4558490772066765, 0.31274598110922863,
      0.30216293842063385, 0.11424103422729787, 2.1113642931601144,
      1.264386923781555, -0.9869826694755052, -1.645221850273348,
      1.208087702127351, 0.045215680218374875, 1.8497862515241188,
      0.49066023721940316, -1.086885225622414, -0.785974044865198,
      -0.022388786209443824, -1.0170517434021102, -0.48196479867044195,
      1.0835818087225115, -0.04803406204862884, -2.326137821286972,
      0.5299799849016489, 0.09736373471286615, 0.7094964761406085,
      -0.14662745384389395, -0.4360921479779317, 0.33281932392355607,
      0.31507726472357955, -0.28503319471169253, 0.3880053493175854,
      0.34133810057437025, -0.34566903977524893, -1.5279384215822256,
      0.4250385136957708, 0.5200158981491444, 1.1704677806077215,
      -0.19829761738548785, -0.020187845506807262, 2.057291951176163,
      0.025134164943733, 0.43172712988482365, 0.06641989110512476,
      -1.2657175109524743, -0.522216229831587, 0.038565486925882554,
      0.33651169772481915, -1.8522957931310284, 1.457813612118823,
      -1.6590213924008135, 1.0767620466931376, -0.1913619705125227,
      -0.5791444257122668, -0.4514914396703333, -0.9224185010792424,
      0.1747445864637602, 0.4971180099256653, -0.7900199701338747,
      0.20973939330770067, 0.4075150703936021, -1.982012068626688,
      0.28386935936704816, -1.169407582307795, -0.582905733209599,
      -1.1249758934502772, 0.4759995865816601, 0.7109393914693175,
      0.8509770595080305, -1.2834133461161652, -0.1179950044313743,
      2.2703042003281984, 0.4139908971411637, 1.0504236343268711,
      -1.0622380350249707, 0.18096131636993346, -0.0344444092482381,
      0.8606052995002439, 0.21805648632993238, 0.9638834856020743,
      -1.6471015867828727, -1.0003395328417581, -0.12575869962577924,
      0.2003272849157573, -1.9413859173714, -0.6602053877691276,
      -0.09716020493782629, 0.7782030618744095, 0.6927356878025109,
      -1.624585103698248, 0.19439955749244267, 0.4484009515955635,
      0.17414262281644946, -1.5872000204601373, -0.390479355960383,
      1.3113787364978668, 1.0586336292366083, -0.9744590475408338,
      -0.642904899365288, -1.789134141250251, -1.0014801545000447,
      0.7000669939531101, 0.9900029538915105, -0.9027828030320911,
      0.19663505767951958, -0.8208799983250353, -0.29616853349225397,
      -0.7629331031004178, -0.45098508429647294, -0.46710830247785434,
      -0.608439370705338, 0.68007769762722, 0.5418492768945151,
      -0.8656852566802933, -2.030437589614032, 0.007070148683140035,
      1.9838254593144418, -0.5865108067510895, -0.6808983714476994,
      -0.9821408016424337, -1.958516728816939, 1.137585756775963,
      -0.32167471099332934, 0.47739464057960856, 0.7400359887905,
      -1.1464737077781684, 0.31275801914926743, -0.47793631636771,
      -0.246784774220116, 0.6493064087795224, -1.6588630469144818,
      1.805391605289214, 1.2289169474703976, 0.923533500019786,
      0.9357522174783011, 1.4899642200319851, -0.2047386974774928,
      -0.8144103875960251, 0.7608321574526046, 1.2481726357065939,
      0.6648218826171101, -0.463377791953146, 0.7517702472488772,
      0.24188744578189988, 0.4108935664291695, 1.3150826558873474,
      -0.15678093933329829, 0.30963627311491754, -0.2595121174530775,
      2.440581133802931, -0.6342478299836065, 0.9225618169604365,
      -0.6955156109058791, 1.272553772933766, 0.7395562670514024,
      -0.7750373351341306, -0.1095473596565835, -1.9859381661064204,
      -0.5296266088003664, 1.633610536895735, 0.8160458870195633,
      0.8089300333664208, -0.9275609962476158, 0.36280907535057455,
      0.12504482758757415, -0.44213552528234756, -1.4531576536591895,
      -0.8181858858806436, 0.4274944882374756, -1.346803718455434,
      0.3108528787352772, -0.4791240714604926, 0.2041590920292129,
      0.0083638302088578, -0.4349610289477876, 0.5398991749169958,
      -0.5284207906081922, 0.1961810951062729, -0.05095611682650628,
      -1.2913451032118886, -0.4056576228129507, 1.234098495515482,
      0.4759796583939854, 1.2807920417596097, -2.1709070225906992,
      0.470669028269448, 3.2016217269960867, 0.6286247879293587,
      1.0908992732975644, -0.30852992082934244, 1.898884486335163,
      0.1389769196787546, 0.6849607315464916, -0.2632198603090441,
      0.11084901848913299, -1.1146532802400053, -2.209035236531796,
      0.3860057777440821, 0.22815509784534885, -0.41825075775121484,
      1.3009259479256512, -1.3470000759754042, 0.15416159488283265,
      -0.8090351189528558, -0.1977156458806411, -0.5594297876812062,
      0.576073289682809, -0.024608535575454046, 0.23875244109882765,
      -1.9853280333388892, 1.1464014386409473, -0.2697022621211958,
      -0.9601205605356311, -0.5080983806549422, -0.08356696928536125,
      1.3330481166101746, -0.6871264297067268, -1.1830285814114596
    ],
    [
      -0.6034399728794283, 1.089784639641821, -0.4511241951298339,
      -0.03590994246005399, 0.6168319139871579, 0.828440077646494,
      0.5659033652423312, 0.2495180263514316, -0.6427271451770518,
      -0.31888333844526745, -0.0277444511920934, 0.5124379048179752,
      -0.43527999218327507, -1.1880851130660186, -0.053514642746786134,
      1.7029254124895252, 0.15727317849992573, 0.3861407780507463,
      0.1468378096004524, -0.4731752177928552, 0.9186392554036363,
      -0.32676018600754736, -0.05086600688347949, 0.5065825029076175,
      -1.2494788814063709, -0.571543637870138, 0.014740308973136142,
      -0.3395738039925015, -0.33828701636832653, 1.760924020173643,
      -0.06443449045135793, -1.3617902302480716, -0.7294187662129823,
      0.3926766306010041, -1.4532135309884908, -0.4265100064352495,
      -1.2724013880176483, -0.35277718092517074, -0.8246960727630338,
      -0.22787605313551496, -2.0132459000906655, 0.0356544732428201,
      -0.7496705274288786, -0.6703544286303598, 0.13703876973187346,
      0.6834740996029898, -0.9689476220185992, 2.249822540924082,
      -0.13167971271612902, -0.5256976076140634, 0.004791181324599344,
      0.6611449817302827, 0.08309400083382074, -0.2751206770764771,
      1.6300317977863585, 2.0621031852565674, 1.6852129441578314,
      -1.2231910818976452, 1.7045520328658204, 0.9759425927293315,
      -1.2571753595706399, -0.218718523537424, 0.3024529579998612,
      -1.6594959157625861, 0.381645555150922, 0.6552781036653346,
      2.0839286749282278, 0.6235736284716195, 0.38428369777680316,
      0.052649152680659665, 0.34419571885034417, 0.593669352802854,
      -1.1987419253124159, -0.19754106981856037, -0.8355894043476214,
      -1.483399946562571, 0.39535999292020596, 1.043149267421995,
      0.7012577122487298, -0.644680003222054, -0.12255237509588808,
      1.736749071919987, -1.387006723961973, -0.9376155368680053,
      0.8252131097222721, -1.0788805783920727, 0.44608613341214093,
      0.327227128046726, 0.08360343688162239, 0.005334517099170322,
      2.085280741815717, -0.39090642172412954, -2.217581563499166,
      1.2838310059770943, -1.2178213996540876, -0.8783711772926602,
      -0.16952883346571032, -0.4497213312875009, 0.03367980125871394,
      -0.08919264876569033, 0.4992357283107534, -0.06249362913233577,
      0.37734202487864155, 2.6249052137473075, 0.22968357918317556,
      -0.47379601867238685, 0.7311556497631494, -0.6875815990994392,
      1.2639206722938225, -0.8595691234110091, 1.4210015292333196,
      0.5322921262460609, 0.9673770008237798, -1.494229206714944,
      1.5434012085071853, -0.5126287262842608, 0.5053878326815956,
      2.0170224774006162, 0.17510448035477888, -1.3894789330115054,
      0.38704675088566665, 1.0966052838419038, -0.4322203181505481,
      1.5015449974748951, 0.07715176005931004, -1.194171783330481,
      0.5757735142488022, -1.5445450523114597, 1.3569867768054544,
      0.08987180676939927, -0.45664214110201107, -1.0560711203563502,
      0.654821246839116, 1.7980204202075147, -1.7249336992739908,
      -0.8547078750123516, -0.37632668445968676, 0.6160307493157307,
      -0.20006050949772872, 0.8504284852459919, -0.8225956442469019,
      -0.895739208406007, -0.7597966043301657, 0.12062333973731426,
      0.10160633711120688, 0.02399533990045593, 1.0031060760130974,
      -0.9401724169895901, -0.01674231827029093, 1.349503937448477,
      0.03973093101949443, -2.3320849381872617, 1.2458512676168865,
      0.9175618147836692, 2.164776607321686, 0.4654519239089192,
      2.5289821445243117, -0.5348661971460454, 0.6658037361702708,
      -0.22614057666028264, -0.3577921896237132, -0.22668213389039907,
      0.7991940615493385, 0.4993741059229803, -2.564825439322572,
      1.746935919104918, 0.580296993557826, 1.6241896590110134,
      -0.169259755948066, -1.1334936604259265, -0.34423692090231783,
      0.3689684844140531, -0.9572813785803639, -0.6506035124922563,
      -0.33706624744911895, -1.126035666910969, -0.9945541572776907,
      -1.150739605000712, -0.9829779062950759, -0.8995874257286143,
      0.40390018158345414, -0.6547540335906149, -0.3408545666250995,
      -0.5971969879101369, 1.6358540993863, 0.5085407213876061,
      -0.22479315656788115, 0.8684837124461662, 1.0771231407825783,
      -1.1587847056975806, -1.1020525057209485, -0.4857396559254422,
      1.3170290589646934, 0.3545353095909445, -1.0173657701280445,
      -0.13511409199312208, -1.2366611441858584, 0.6417040923033881,
      0.24163781866165318, 0.5910062703068929, 0.9105371798157406,
      0.9966289992470715, -0.35515998396029896, 1.8476824531188558,
      -0.42473153071324155, 1.6663458418036845, -0.6120151062721206,
      0.09133475473187483, -0.05178572442997216, 0.602885843062641,
      2.018115407398075, 1.1053812206819131, 0.8546468866075481,
      -0.599274162795894, 1.7668021457101322, 0.8201448208190463,
      1.2794876355000944, 0.868802293037251, -0.0640464821762445,
      0.4116023754870841, -0.018584833350006942, 0.950409457357062,
      -0.7714018256386789, 1.0897726314294485, -1.1919952568047951,
      -1.8057512401924205, -0.7190803334125832, -0.7577384973178576,
      -1.571655755859756, 0.35770473350460236, -0.34862403757106936,
      1.6424333120273, 0.9514175776903923, -0.7602873435098514,
      0.37855327476429673, 2.0085185023633185, -0.5859376606926083,
      -0.3206788516517838, -0.8674524357787428, -0.7082438996668619,
      -0.43823970584171423, 0.7203789614619208, 0.4974476645973812,
      -0.49438727416870865, 0.5714950906333996, -0.864992873905676,
      -0.9210081046995269, -1.9521338366991063, 0.724489838690357,
      0.7680793336828022, 1.5756149721914912, -0.34805076360312354,
      0.5197237938516276, -0.4654878802718251, -0.2914070761270415,
      1.1609759357764209, 0.5735915179148298, 0.195916376634054,
      -1.0566520241424129, 1.0581048795320946, 0.7958329507109372,
      2.783951936831244, -1.1062837883053276, 1.22861119728731,
      -0.07311964065390146, -1.358880002339909, 0.9222713719651527,
      -0.8128560759085448, -1.6820094999766475, -0.96530487588632,
      -0.6509814986274323, 0.5367014559135045, -0.4530176514293767,
      1.092503082633867, 0.41463078400176656, -0.4779652606224346,
      -0.8312433998664209, -0.508350768674737, 0.1963282869837505,
      -0.9089736133231925, -0.41572648165961323, -2.092783576038462,
      1.0626478543664317, 1.0977819587712647, -0.8217476493570416,
      0.2691679005628642, 0.6249170093713126, -1.904575866175315,
      -0.1290953340196674, 0.11153393947841567, 1.821876837774513,
      0.4398879022985678, 0.09211597967929726, -1.123212379588607,
      -0.7980230476042076, -1.9234383351861597, 1.9644200775653584,
      -1.4421179133441893, 1.1167242634263697, 0.3978374345827017
    ],
    [
      0.3813861013749776, 0.6932259899807516, -0.8315180707440334,
      0.6790242352415553, -0.1930047339766702, 2.6499924356576123,
      0.7853630155464945, -1.3468257567493034, -1.2768785973178216,
      -0.4509261053802522, 0.9295752099229034, -0.41848846558573044,
      0.18345094794641265, 0.33959708001854644, -0.9269580523604808,
      0.07204945471067647, 0.22027459475249225, -1.225827044964923,
      -0.5078748670797956, 0.015026712800294462, 0.2831878341750966,
      0.713541831856619, 0.2619590729232747, -0.6714828206465855,
      0.796035230500796, -1.1189710322441033, 0.04055634801750207,
      -0.837677031165907, -0.8003834544122224, 0.8055117596436158,
      1.1701488469650838, 1.1854734821558988, 1.556050605613775,
      0.9932799053986233, -0.8640866046428393, -0.3049726281138715,
      1.710029453394372, 0.30043217393554783, -0.4566755985777064,
      -0.411588391706436, 0.14706368683310136, 0.9005395504025914,
      0.2893820678304228, 1.3318103202327478, 0.14061923165157195,
      0.23613465447340531, 0.26405625832972923, 0.17436498568479564,
      0.13912261586780694, 0.7930075973074389, -0.3591922441044642,
      0.6381037729489415, -0.4151059819658411, 1.3910545944421289,
      1.3740256021329706, -1.0106575206992234, 1.3696595301400933,
      -1.1866185259610456, -0.5734786746898858, -0.6569586895621462,
      0.9883214142828269, 2.4668511515505003, -1.269015461705713,
      -0.08249204878198228, 0.49879084031689014, 1.1553534986540233,
      -0.47562660961972886, 1.6876145249035535, -0.3092092863414008,
      -0.6291723786684307, -1.4665154679753973, -0.8068916744754769,
      0.05208496343110191, -1.3033264276414935, 1.5227702310993074,
      -1.3788384410040302, -0.8393315856394924, -1.4679227942371968,
      -1.1953901419447162, -1.3307745106577862, 1.4791101088667644,
      0.023211243715178423, -0.04425573872968141, -1.362738800866673,
      0.8909007478337925, -0.860423575847524, -0.09108824560586481,
      -0.3004618357124442, -1.558809348939053, 0.21994628080397033,
      1.9492199012932292, -0.7052683344082894, 0.1279834489502023,
      0.1611455937638969, -0.9459858113351061, -0.4180663549581414,
      0.2186418720702803, 1.8383210748018841, 0.6388311529920879,
      -0.11641557665812623, -0.0289149554583126, 0.973678353871828,
      1.1970565108899347, -0.24545170333347865, -0.21409258783872115,
      0.36660196434411185, 1.7527100833435476, -0.3724835960706037,
      -1.7302579260074469, -1.1711726502784963, -1.0593492422750588,
      0.5675164082521748, 0.8492531536476553, 1.7356656450067023,
      -0.9176772491355716, -1.279742175031115, 0.029757615213198352,
      -0.04338039025090126, -0.41373288899400057, -0.12243615594642958,
      -0.48125864131420737, -1.7145338178182155, 0.3479071770230026,
      1.612305830537702, 1.6997008318155415, -0.96437974702928,
      -0.3105268103425828, -1.6975300450937432, -2.2341468508304976,
      1.338495872010278, -0.451085965745203, -0.058472710303792655,
      -0.2684957907662908, -0.3044840459629033, -1.5153673001985442,
      0.1671228142456885, -0.17148541639888507, -0.030975380668992004,
      -0.606735332098364, -0.376133201993497, 0.9847404428162033,
      -0.004358930329176047, 2.2904695557206214, 0.07474531860089721,
      2.1536502918009988, 1.336719396173118, 0.1427697371473497,
      -0.9418797570820959, 0.32582140211482946, 1.0549278338173145,
      -0.34804600972034866, 0.806216952355059, -0.999970353299251,
      1.7745720209387934, -2.1157763139478982, -0.36349310684540653,
      -0.7377422477516281, -1.4514578378145109, 1.5096259297343315,
      -0.8959383802846641, 0.7800926949199949, 0.12438042617103802,
      -0.08405759147902978, -0.6011275648246579, -1.2080201787455564,
      0.01791584210951823, -0.07059947958805579, 0.5074441217116877,
      0.8157476348971432, -2.0641057351523977, 0.5032213899966567,
      -2.2541261100272756, 0.1669590799483464, -0.7266511772251241,
      0.8629275301463111, -0.2129839506081915, -0.9201240852627035,
      0.5003105954903944, -0.7462455138225612, 0.5445591154409728,
      1.8420940787500302, 0.2536935530234414, -0.989337775285782,
      -0.935685522394601, 1.4228867366512137, -0.7630277612873447,
      0.7796023717458923, 1.2361307546993596, -1.1791661008271699,
      -0.6599104521706712, -0.6688612983637386, -0.5639138333095056,
      0.10843568647506674, 0.5372524203822651, -0.28201135518726717,
      0.47864348145960345, 1.7500122377533875, 2.378890220654971,
      0.4829417908063795, 0.13118470889822725, -0.04838237489307521,
      0.4172679637050875, -1.0466483742905488, 0.039838714968386715,
      -1.3959742438470413, -0.43974019766753003, 0.368979716538426,
      0.3819331452519551, -0.10868312791390744, -0.48892493803545445,
      0.5730962372663141, -2.4027410466319017, -0.10263338893229962,
      0.6046283093773216, 0.47261249608050415, 0.8429082787748495,
      0.3194339367376076, 1.6783263407412483, -3.5875881370366995,
      -0.4029576940440945, -2.187326709283472, -0.17858665007417238,
      1.77463251279969, -0.8453070989388606, 0.769263196283725,
      1.7960744654550862, 0.8729482803680783, 0.9245332754210255,
      0.42411564254688977, 1.6019826971062001, 0.29800664045150976,
      2.2079630990538326, 0.7112433831214033, -0.42042173991932197,
      -0.7876423025515941, -0.31066865935776394, 0.6696712192233821,
      0.841673920990634, -0.7592902551109308, -0.6282069303036899,
      -0.20522322697239137, -1.4882294555452071, 0.5087174657496658,
      -0.8630250091598413, -0.8434475864801247, -1.0927618170613385,
      1.6203244301347943, 0.8809436074266112, -0.6492109699891533,
      1.3522150969225644, 0.4321890038436695, 0.0014102210725640714,
      -1.3471579287548379, 2.150206198587436, 0.7332233063736754,
      1.8137214020070003, 1.062098944195225, 0.8379907714479892,
      -0.06595543242533633, 0.34353529226606405, 1.8470059354647674,
      0.3829365734759379, -0.7515161862396486, -1.3063785298004942,
      -0.8530360115145124, 0.3204818074102419, -0.9837985705893499,
      0.904123094293313, -0.501567078468763, -1.1550529270948242,
      -1.2141381534167084, -1.4467611191267908, 0.3979179460825586,
      0.7755205901882404, 0.3997391895982048, 1.3654169125705438,
      0.42106917245467446, -0.6086785218130653, -0.817587309900518,
      0.13959751149813923, 1.2791443724354807, -1.2144306696537956,
      -0.2872564863886896, -0.4388849961898339, 2.040024591766271,
      -0.9584699032934275, 0.3368641572930165, -1.2438839698096582,
      0.6965554899807598, -0.27942209851643923, -1.7956016072500376,
      -0.9027190165035658, -2.015189671319805, 0.7943861029544479,
      -1.5927142577139197, -1.05699475386981, -0.16487482722505659,
      1.2250383772482667, 0.6817180067940954, -0.04705918041710717
    ],
    [
      0.7999979686252134, -0.2649581868379609, -0.9012267983114399,
      0.16862449233453328, 2.523852828141904, -0.2145753218337934,
      -0.18575245498799187, 0.84652803944509, -0.7466822449516749,
      -2.207495046674911, 0.43828465019079554, -1.1783677118930471,
      -1.3444935862717424, 1.8247837453758347, 0.08220582402066155,
      0.9255668846605255, -1.7966704905926538, 0.7977338641168775,
      0.14866390075303143, -1.227734167519608, 1.6832030378100113,
      -0.21411174454433288, 1.2809087700140627, -0.48160758223101097,
      -0.36804135822769224, -0.2988553803099045, -1.4310884098704189,
      1.6407795522903972, 0.02723617636714325, -0.4191606441611101,
      -1.0113572490228768, -1.4075431239507596, -0.44594841404991836,
      -0.05282844490966243, -0.6854210918986269, -0.3651896093518844,
      0.19598343922328693, -1.5435115757641353, -0.3443703682528682,
      -0.43752843820997617, -0.3081326673136152, -0.3058491294823297,
      0.34839633712365886, 1.2889385212108433, 0.14668790644296767,
      -0.1333739448619356, -0.22757102660781142, -0.9814315007067573,
      -0.3826223081365392, 0.5624230420239573, 0.06549937123256716,
      1.1685759021703164, 1.8590441209014315, -1.1593252728540926,
      0.8856891023445799, 1.203260611753407, 0.6574385264070628,
      0.2384964419188725, -0.2641556725780741, -0.18296186199257544,
      1.388753660818918, 0.961604605379343, -0.9440436651378639,
      -0.24260731503467364, -0.38887069942940705, 0.48195590424521934,
      0.1586716624076318, -0.5676536498638253, 0.6309275965989042,
      0.10837732043492157, -1.6464055806523052, 0.7917010884130756,
      0.213295308995534, 0.03719282787177832, 0.020475269051474478,
      -1.6849171639367815, 1.317367739984757, -1.2964983815275122,
      -0.31235513262400727, -0.5430012298166781, -0.04747758872152558,
      0.24935972884056185, -0.5683649203533823, -0.5555830008916073,
      1.4403439482911262, 0.43860072945918754, 0.6353992036946102,
      -1.010366017765571, -1.2783890012261168, -0.15178628270466502,
      -1.664741888963256, 1.1576993274660303, -0.19626863459225002,
      1.8956875689655952, 0.08512251150351685, -1.2317627998869745,
      -0.2896451249222861, -1.630196257353999, -0.7175210851918439,
      1.4663811411588359, -0.17025169132076035, 0.3508326196042761,
      -1.3676626742929918, 0.33274968426266355, 0.07313558844896945,
      0.07648145298028444, -0.1849997905789381, 0.8894331903215181,
      -0.041779268816152466, -0.44383018668767427, -0.31901713345535787,
      1.4133978506141154, -0.42200750177282215, 1.4209933983707295,
      1.5605938618782023, -0.5008457668155878, 2.25636679653156,
      1.570440038231849, 1.9311648112099389, -1.3751797114248887,
      0.2856689106834215, 1.1017233109150053, -0.9567883632745326,
      0.9063292613047742, 0.9799628202172278, 1.0173909768793592,
      -0.385757758028593, -0.017052500254031197, 1.598311379796688,
      -0.12780401324423443, -0.672424559349836, 0.8362865967313744,
      0.392269834529493, 0.756892825028588, 1.43611745501688,
      -0.8580439112786116, 0.5730759676222493, 2.1734339211150195,
      -0.5771759552550491, 2.1028798649928793, -2.6375475061640477,
      -0.1387282826329652, 1.2091083062630217, 1.0929794986646346,
      -0.16268180339330054, -1.084279629830224, 0.3809933473479996,
      1.3674188296015217, 0.33212985705358405, -1.3169867817965717,
      0.3340986463949181, -0.8586010493624696, 0.8016763401119087,
      0.46831932379121954, -1.4014716351321859, -0.7772456688214604,
      -0.36459892257386606, 1.1035696656191103, -0.8141740702376072,
      -2.372514268774379, -0.19522622869556827, -0.2741867988361607,
      -1.2148717695626918, -0.09131660493093137, 1.183287729705933,
      -0.2531327413614206, 0.5065990198589101, -0.07970963532421774,
      1.73602588040328, -1.1104219222326825, -0.7122631260516487,
      -1.3237801470407278, -0.4803719174774276, -1.4536927075101436,
      1.4847461008789817, -0.7263638121910776, -1.145954542908038,
      0.24381501432105004, -0.5338480655842015, 0.3889620552160314,
      -0.2877587760146074, -0.2185411312446761, 0.005746753304614148,
      1.3881552026263895, -0.11883457271593931, 0.06749571550359945,
      1.2273481448077002, -0.7826256301217197, -1.4064453833950272,
      -1.6600045832914443, -2.9958828300230915, 0.6872913410627397,
      0.37812416842412194, 1.363446081976824, -0.029075978886792565,
      0.5021657557138695, 0.040361678457865535, -1.3224240079595266,
      0.24532059421744112, 0.890978784008984, -0.354391475754342,
      0.13240248541388333, 0.05596963636648373, -0.5537728889455529,
      1.4488298976009346, -2.175208014918884, 1.3535909952195602,
      1.2845395483883006, -1.174296624230957, -0.16924847140629712,
      -0.22952560316037976, 0.373804995553861, 0.42575953786567783,
      -0.054241922024278987, 0.831219628541778, -1.033211625530099,
      -0.5222469986065293, -1.4153794507145392, -1.2355521918521357,
      -0.19780383598908155, -0.5762353765911165, -0.29135618329430374,
      -0.21051874443112528, -0.9016617860016565, -0.6425720334842068,
      0.6207499692994254, -0.0731947931089503, -0.7963072624322151,
      -1.338223536307368, 0.11283006628927347, 1.0294422991108894,
      0.6469131745906321, -0.36385777546690556, 1.575743371428521,
      -0.8656298316777716, 0.30926715988607706, -0.9164900016917711,
      2.174447963601377, 0.547448058062396, 0.25163591352129816,
      -1.9985434233931234, 1.8815523578706799, 0.05595249963809707,
      -0.6778892238524694, -0.355794405136256, 0.188335955596485,
      0.8716232204786123, 0.6899076613127203, 0.6274998931648955,
      1.017074537202237, 1.2157913270630065, -0.530350162164516,
      0.015491131614903522, 0.2559692336643596, -0.3439962345696926,
      0.9001198365071899, -0.2201891967930565, 0.988780618108609,
      -0.031040086153719657, -1.4288449007995223, -2.741401445086353,
      0.27776447609965516, -0.19857510567162853, -0.3986179795308682,
      0.6355847412139398, -0.33944214034890663, -1.4019120086027301,
      0.10606357924293447, 0.6020340191393496, -0.3144090560980403,
      0.9870691640183964, 0.29107026799839325, 0.9089704600450222,
      1.9166394357179415, -0.5554875409481612, -1.9100722974118263,
      -0.39313853900786594, -0.43424607214166205, 1.401152943156355,
      1.1112092655458485, -2.5256756310166315, 0.944837495241212,
      0.41156939696764994, 0.21660241989264667, 0.21828942895814227,
      0.0169371358344974, 0.5040659761406369, 0.8397091631765029,
      0.38127299747150756, 0.34011485727887514, -1.1313569496345308,
      0.9302538680560247, -1.2246797767770625, 0.7448306588779,
      0.2645194179431048, -1.5981970593986665, -0.6766326685143756,
      0.34949508593930495, -0.7842212518379031, 0.28875244437447417
    ],
    [
      0.9462719947128778, -0.6435564544598622, 0.8301200994523903,
      1.5962783199259183, -0.8336334936479258, 1.1220404108521222,
      -0.9889661193689026, 0.5771603982983767, -1.3050347709200671,
      -2.2141356884214063, 0.03424039987409919, -2.0054507910818975,
      2.063964165369175, -1.3525059277818337, -1.333555754612296,
      1.5541706250914795, 0.9931371334504541, 0.5957940784957906,
      -1.4584930993207164, 0.3445916693712247, 0.673139312129123,
      -1.181161783649217, -0.4812431221164036, 0.9528785802123261,
      -0.08263861384012966, 0.2617869055238988, -0.9973234465419949,
      0.8778224661269223, -0.6585700467479879, 0.944123822321859,
      -0.03154615376305128, -0.25102933692636126, -0.9998386347802474,
      0.5792054710130525, -0.5304328148935032, -0.5170593175411471,
      0.6200979658584639, -0.6384587307149525, 0.4082151746339785,
      -0.6420956985266666, 0.7700810813765133, -2.3374324218539266,
      -1.7142203505227818, 1.5301549797164524, -0.23045620613130346,
      0.04397833610177573, -1.7701617223823674, -1.016658621562063,
      0.8161937633063858, -0.330160116139183, -0.49442318949200653,
      -0.3558844276141916, -0.03855701290464342, -1.1504058030872466,
      0.30843376203520756, -1.8304844354296625, -1.0769415757337273,
      -0.3786927970279132, -0.9831647525903506, -0.3548531727757058,
      -1.5303750024203537, -0.04261345729541507, -1.7177224886994156,
      -0.17173256986600408, -0.024616829345847826, 0.5962999323253207,
      -2.1571615943588167, -0.3146951916635072, 1.5269605819270533,
      -0.6448477317765403, 0.006743647838018269, -0.6707597034626877,
      1.7438185370085064, -1.0535149039507532, -0.5752784367986993,
      -0.39104305923170735, -0.09306358520094839, 0.10123350015519446,
      1.6080757951810054, -0.2487435975704496, -0.3507333397021043,
      0.6515809910510435, 2.27283468200714, -0.2305515155746529,
      -1.5153828242984761, -1.963678177394379, -1.2038222712808833,
      -0.36899924416111385, 0.5346823806684663, -1.393544116519577,
      -0.7894279590079044, 0.3388549452650996, 0.010807902651780301,
      -0.45459573643726425, -0.7930029632345944, 0.6178693651351781,
      -0.1151613771556987, 0.40231049741743424, -0.6599567741786376,
      -0.9035493545355794, 1.717786461842281, 0.3058852548291869,
      -1.755044155165805, 0.23754436206779914, -0.1916455786201092,
      1.0618306676794433, -0.12844863462445483, -0.6191614552107589,
      -0.8709013762258608, 1.241447355148728, -1.0087224792559726,
      0.7754149134189419, 0.6518029334027343, -0.5760921447611301,
      -2.0211508062813994, -0.6850112097328582, -1.208827272323383,
      -0.3404553710883772, -0.4418252933241437, -1.6489136371652955,
      -0.9249656661645362, 1.999038632863797, -0.33644252220788073,
      0.6444100740352048, -0.32190862430711525, -0.2181236730473508,
      1.959105985852369, 0.513921780860002, 0.06632818649947002,
      -1.132985038992075, 1.0395417620553038, 0.11861070358325691,
      -0.6614739708505213, -1.0617314613367053, -0.33019355825180674,
      -0.0479228333729626, 0.16171515306581358, -0.8594222897234362,
      -0.23414625755374044, 1.7426867441453864, -0.7177498928577942,
      1.3595405447531679, 0.0648964396122924, -0.39965578253996736,
      1.2533736782139726, -0.6176258229245879, -0.7494761006176859,
      0.3303185420242441, -1.0890720337399904, 0.609888548761243,
      -0.5488533589154838, -0.2933371586779385, -0.034026965112276195,
      -1.061046303794184, -0.2755714807326952, -0.7103917236692862,
      2.1383823906647588, 0.27685156389673554, 0.25125176661328874,
      -1.649153365927983, 0.5827796394868079, 0.3745481696355853,
      1.202819339428794, 0.5032442307049562, 0.07325324459401783,
      -0.5394534498822557, 2.1620854273544365, -0.4784693584935781,
      0.0315189426331561, -0.2754657903421483, -3.0612505924791815,
      0.31671936217639357, 0.6487615530358242, 1.4101350194882785,
      -1.591402903030098, 0.7265793636963267, -0.6879962501020193,
      0.28742001345682605, -1.349428658619436, 1.357627853688478,
      -0.2891360854349217, -0.9183956829609292, 0.6016277142587309,
      1.9948336852695743, 0.35000615310496164, -1.0172145406381683,
      -0.6873421820463962, -1.0927741713814767, -0.32853700639403205,
      -0.6208837719705612, -0.5394421213966867, 0.02141876058574705,
      -0.4150897756687411, -0.5949064073069341, -0.49395787143632597,
      -0.1562939093663773, 0.39647006600422574, 2.2130399705286807,
      0.771643928858075, 0.02941245271611758, 1.245482133951013,
      0.36293781018653476, -0.8826113228592163, 0.03944616486278803,
      0.8721161749738429, 1.2180108887934606, -1.3284652764570357,
      1.1836187738502808, -0.45710435818787637, 1.1511248027032825,
      -0.055560754158690225, -0.99910192815139, -2.2416933921097817,
      -1.9973948674325013, -0.9481753647811616, 0.155606116835575,
      2.052756786346571, 0.06254461987376403, 0.0030488141508581263,
      -0.4934683546990524, -0.7477578493639347, 0.7014179953435454,
      0.5299699889829987, -0.778038227320246, 1.831045306592547,
      0.673633765298353, -0.22835135984593502, 0.5789379789719831,
      0.988248330669868, 1.1396748423023568, -1.9912987928876442,
      0.032022136551485524, 1.597631949873287, 1.692733943996002,
      -0.010332850197712202, -0.028179911542915312, -1.6730769682128177,
      0.18540777403697423, 0.479302116005704, -0.9506887542369094,
      -0.07789830467511107, -0.1724155622606098, -0.22154309491295834,
      0.6503186419374235, -0.3486148889253965, 0.9833454507323116,
      -1.5037374435665005, 1.5911930940575887, -0.9686288875445357,
      -0.3263086498575795, -0.6608422500263631, 0.8612333073623073,
      -0.5360045574330137, 1.484636178448212, -1.3444688814295271,
      0.7016004361289255, -1.5365312273134721, -1.5483074913988362,
      0.21750121602360226, 1.656078735916546, -0.8412648251615022,
      1.5131250573622659, -1.7394665069073751, 0.2767519316843578,
      0.010492384564697883, -0.5781435640068251, -0.22859581788641162,
      -1.8125670708233215, 0.1955351532399967, -0.3813579610170878,
      1.4731730092666069, 1.1498382073834725, -0.06415039865211734,
      -0.7534365342138303, -1.1486496752043742, -1.1081281679517556,
      -1.0934753855006212, 1.0454778832418754, -0.7509629591149354,
      0.22086447374965038, 1.3318108919318528, 0.4138062254973727,
      0.25417304837861776, -1.1444780675428818, -0.12659766834695574,
      -1.400077360790943, 0.6102581448878638, 1.1245529917591435,
      -0.8612931205376211, -0.2691650702353305, -0.8792128951585282,
      1.0663424762007494, -0.40100196363959395, -0.8185747716444653,
      0.922862130189185, 0.061193675081371905, -1.1926739047103387,
      -0.07672901876472306, 1.7415451942574713, -1.1365669176243196
    ],
    [
      0.5987927683479403, -0.40174383077386255, 0.13463207749098668,
      0.41269667491483536, -1.3962267478810415, 0.844563552892439,
      -0.19896440879110022, 0.4129766513742552, -0.3893484423450303,
      -0.2526753050421394, 1.2237888492720261, 1.3795964702684336,
      0.9370231099578358, 0.9048783670472647, 0.23198029639664564,
      0.5051471607689118, -0.4693199210098735, 1.5962904819703092,
      0.5329102073861313, -0.06538790895858945, 0.799705256407216,
      0.11440535294152163, 0.7778705707562702, -1.280782440797463,
      -1.2550294939148148, 0.29395071966731595, 1.4159529308045324,
      -0.016855040331875258, -0.7301767088997869, 0.13867477510702778,
      0.3272318614509096, 0.16393961694134557, -0.2950844207507111,
      2.148621908557455, 1.0317293277634714, -0.7449431805819241,
      -1.3660782378319372, -0.5724720026096572, -0.4098463308189117,
      1.4268649295349456, 0.02819392429018347, -0.9930766348589855,
      1.5585290790225428, 1.096751467110302, -1.1982613317886996,
      -1.0374784647147224, 1.4952566499046798, 0.41089523186779947,
      0.02289430776911701, 0.12552173785658238, 1.5079809101231731,
      -0.1594131660375511, 0.6236819712303872, -1.3598964757663905,
      -0.04588298228074962, 0.1856951948119065, 0.9548984410083643,
      0.421847589531253, -0.5652883268509217, 0.28296947112853005,
      -0.2936893519767126, 2.1304826787468993, -1.2163736935273264,
      -1.6544141124941636, 0.8480261450009908, 0.46679885489495077,
      0.9320317362435715, 0.13407237703207803, 3.060186953925659,
      0.46849848590333165, -0.7525811641350028, 0.580218855506183,
      -0.22434419272219425, -1.5042255121496055, 0.9939283568441561,
      -0.8927780913146981, 0.6909334881842714, 0.10866589985657991,
      0.8499470616974946, 0.7467682770739574, -0.10401054615346662,
      -0.4181485172128114, 1.1279472072761476, -1.1077857441768322,
      0.5777489802060749, -0.7056082229884595, -0.3312953248017962,
      0.15509450429924473, -0.11350923289074956, 0.20087827140409917,
      0.3000916358985241, 0.04667600376042014, -1.9397324216095133,
      0.4830241941431018, 0.719569021050404, 0.05641628123799931,
      0.1724159021821201, -0.21242923489310633, -2.428047539815187,
      -1.521159970887667, -2.207790623601553, -0.9462434252250267,
      0.5926727987243808, -0.7653517836723909, -0.43946769708736066,
      -0.29188364732260463, 0.7204217560631937, 0.021829179422652785,
      0.7446604136948627, -0.28486506582379856, 0.25563367344510757,
      0.21530016610820943, -0.06788176606939342, 1.2814302923399663,
      1.6730395147345152, -0.2905812446356547, 0.4825849797429114,
      0.4598785787025847, -0.7778743000983309, 0.12246502375129871,
      1.6157581800610912, 0.3363423718821419, -0.5497941090703423,
      -0.5966122927557967, 0.4163672505007007, -0.665237772792645,
      -1.1473292694397905, 0.26961823194556317, -2.097938869863031,
      -1.2443202587405175, 2.0942816574732923, -1.2508203855226785,
      0.40929704044603704, -1.066645871431368, -0.035717453543231636,
      1.7687936835007916, -1.936427597887104, 0.6316269705508314,
      -1.1851731565350507, 2.156379868283769, -0.8380974287212855,
      -0.39457278688515657, -0.24283765825340892, -0.08966335362664038,
      -0.3186083485593447, -0.592042795979003, -0.20379670136128963,
      0.9757373955103631, 1.256174156015358, -1.5286675765771744,
      1.080928678590071, 0.6791846659168286, -1.0863416725346888,
      -1.206603882034176, -0.11217383779612576, -0.6621507816283158,
      -0.20789374708415245, 0.9165442952171261, -0.3470643424758422,
      -0.4971973015638469, -0.5105233728425604, 0.8916253782935948,
      0.2354635758901049, -0.6131932603174928, -0.16822857302979385,
      -0.3600532279710032, -0.01841050324589158, -1.3595778133597316,
      -2.1075394850409, 0.23176188311971646, -1.2020010092445728,
      -0.9586367515350913, -0.16539769144444758, 0.6932735647704157,
      -0.42540247175431406, -1.3677814535863226, 0.8077418956666172,
      -1.7062725728050525, 1.7139688329188292, -0.4181421406700067,
      1.8164174459385145, -1.26418311697386, 1.965716962102155,
      -1.4900825295494982, 1.980633414572299, -0.10826828463430528,
      3.2410168859714164, -0.796195757298644, 0.28724075326063986,
      -1.9748754695932944, -0.0014323274471346261, 0.8664779588370389,
      -1.141809221898201, 1.4572104275026296, -0.08084188626360234,
      -0.08126141333960868, -0.004283823486142699, -0.47375884186338263,
      1.315719692067364, 0.4760464521425548, -0.3929681355939905,
      1.005700349423858, 0.9768844446673165, -1.0003797720310141,
      -0.9580188613338881, -0.4590437092163127, -1.342216940295382,
      -0.4939351315165544, -1.1375641606184443, 0.24571947480959286,
      0.8198735583250794, 2.3305099014555615, 0.9380645718574672,
      -0.3907241780076064, 0.6706206767459404, 0.2682649078026909,
      -0.6109668683014154, -0.0902624872695307, 1.7112989250033428,
      0.5677980994966826, 1.906970483414238, -1.158959049456588,
      1.8953419341402966, 0.07134895646700086, 1.869351661148326,
      0.7678652274803988, 1.4016595471035587, -0.6613573118268482,
      -2.592716484066286, -0.20419543539184884, -0.6923858988337175,
      0.6819554649154166, -0.011661077168009945, 1.3214740956228372,
      1.9574315418835724, -0.96959401022509, 0.30877450293441316,
      -0.5229198893022733, 0.49734670956518234, 1.0557345614955058,
      -1.4174882000563733, 0.04779987063870791, -0.7467467996517734,
      0.25490570078868396, -0.4292015486296559, 1.1446020386840652,
      0.1707271476193851, -0.387303741488683, -1.0744486464042913,
      1.1496472455555125, 0.015130473791481015, -0.22522849152771338,
      -0.5404198615029057, -0.1126790227312835, 0.1224805936717387,
      -1.10204222726724, -1.2942935456548477, 0.26619587328404654,
      -0.7622815923396258, -0.5558312125388261, 3.2935329392535784,
      -1.0559533561557797, -0.010323958705390771, -1.0330882780512953,
      0.7341111360833245, 1.4237707499649515, 0.5734300178523662,
      2.0222356062449975, 0.7629776669038918, -1.6263677163795154,
      1.1517497937891519, 0.2190772644050717, -0.04413514786527629,
      -0.39520833021585294, 0.5124911292490785, -0.231057515441022,
      -0.5212032410534264, -1.6911930657658205, 1.104014974986306,
      -0.11909867627359849, 0.16893587902045104, 0.03607371174909858,
      0.1884451356186238, 0.733500995943091, -0.22427499452208585,
      0.15460350315787816, -0.9609441136592739, -0.8902943525138747,
      0.5233925075984536, -0.5892835633123579, 0.49888116074618266,
      -0.6637667512704153, 1.2429834890371625, 1.052017190235776,
      0.3494611357142265, -0.655338425790248, 0.2938951915931704,
      -1.2678741604056811, 2.3017029232321073, -1.0895585126687521
    ],
    [
      0.6139540314868793, 0.6117115065323565, 0.5495522083205666,
      -0.9977172194182714, -0.2666766959756874, -0.04821711174669298,
      0.49470909300194177, 0.08458940902535451, 0.07436027368675126,
      1.1393302942673003, -0.039825522112105785, -0.7444295958603488,
      0.53768426869906, -1.0665015441021442, 0.26983233870031986,
      -0.9867694740579048, -0.6545743403160549, 1.0670247356554312,
      0.05003113566304076, 0.11223411304674012, -0.5273843158002128,
      -0.36477282171973024, -0.6967667812619152, -1.1665674374051616,
      0.7208272616557453, 1.0637013428857824, -0.8362684644726531,
      -0.06410193585947056, -0.8427569826304985, 0.9733029363790793,
      0.19394457773584645, 0.6428324783081597, -0.42086942385768294,
      -0.03822194203118182, -0.18645140597839036, -2.082828783617548,
      -0.31399710254207475, 1.116875023281665, 0.893664756498661,
      -0.31302617106547787, 0.8785873138433045, -0.43741629753733896,
      0.7637264624237048, 0.8154192611295417, -0.6362082042983195,
      -0.040666313712148995, 0.32035383164056414, 0.5584123684928721,
      0.37795398364509064, 0.7627065941888742, -0.510679616426902,
      1.4323176562764386, -1.048831747422482, -0.8815394544238588,
      -0.8589275682740823, -0.5560868539447916, 0.13260188779708346,
      -0.47819105367612474, 0.12434431456576492, -1.0356755973281693,
      -0.43073045972452323, -1.5031151560515499, -0.24086360108707147,
      -0.01692406562560733, -0.20528958344039105, -0.444379579034851,
      -0.5283207336522658, -1.4886112604557022, 1.3981727283349812,
      0.333046870355631, -0.21784894547939157, 1.325212643995472,
      -0.791113052959637, 0.06131389225296612, -2.3272461258846113,
      -0.2934102551129196, 0.4533144757591648, -0.9689084325068054,
      0.14674648082124278, -0.21851359148313806, -1.9762469167851886,
      -0.895188873298081, -0.9338484190259837, 1.232588376855683,
      -0.28250886270573705, 0.445855965853044, -1.4353346758288383,
      0.5629352696824778, -0.8185928862086116, -0.10666075036031676,
      -2.0766298042372004, -1.0809266308313257, 0.20067897010911423,
      -0.1414964376718974, 0.8845398727172329, 2.472601044656685,
      -0.5430855298723053, -0.5506225129204686, 0.14804448930373693,
      -0.762214959187624, -0.6150738620372741, -0.3977861329089792,
      0.9975111555269665, -1.967122327882472, -0.36555509158243604,
      0.35902508448215736, -0.021629374105530154, -0.14691107700425957,
      2.4576571191754573, -1.0262406089138971, 0.651542775971532,
      -0.41811578814500183, -0.21877378783580642, -0.9129066919266713,
      -0.7583757725899974, 0.10220472937194286, -0.7648635014173575,
      -0.7273910248619533, -0.21038475358238115, 0.4791011158370511,
      -0.20994062003385952, -0.6770314768910076, 0.7038560589834629,
      -0.36870392903755944, -1.3399160953162417, 0.6797581551736476,
      -0.15736097657678486, 1.5200230698899266, -1.0499687904267632,
      1.0350171017828784, 1.5108286881270672, -1.275985738755873,
      1.607733318998295, -0.9615298067070065, 0.9732934369018998,
      0.5428104153283273, -1.681299492647238, 0.5108468808475345,
      -0.6085184551901941, -1.4833555414978226, 0.8165829404863696,
      2.1177006866697563, 0.05555318327924434, -2.0787585582315313,
      0.1642303647181106, -1.7940815940389887, 0.17954660756095428,
      -0.5096498128978676, 0.025796934423477053, -1.432033495290414,
      0.6602476861364422, 0.1673593249556542, -0.7326256782016409,
      0.911674609817429, 0.6769674564982004, -0.6565766748332438,
      -0.1243198880889655, 1.3578515210892057, -0.2330699088010503,
      -0.8780640392316581, -0.1184310496290133, -1.24867451471445,
      0.17017008812963155, -0.26362671167232893, -0.30611227864078994,
      -1.441686475519868, -1.0918165349170972, -0.24276370329889038,
      -0.3460043098390517, -0.7042145165835191, 0.7083722667308221,
      1.0271140778854984, -1.1231805221660998, -0.31414975457747774,
      -0.28135821813861334, 0.4055759397304005, -1.3532680150671803,
      -1.1461978896182936, 0.43072538418248174, -0.9134493792083559,
      -0.06018710608725337, 0.43464462459658176, -0.2942526063223697,
      -0.11509472336970632, 0.6889198516518511, 0.8556727382713817,
      0.29781601060796564, 0.8339507582465365, -0.06682134026925539,
      -0.18391495093800098, -0.33898889303972085, 2.347884591238823,
      0.7731843695922224, -0.7839457326709516, 1.1046653188104107,
      0.1833470197539764, 0.40142535157431625, 0.23577382524793106,
      1.0862867920977166, -0.36562365076501674, 1.5455389394499064,
      -1.206451439150622, -0.530200711729712, 1.1556271723178886,
      -0.852381600785416, 0.6572120276991766, -0.4951303767972202,
      -0.5975427969577892, -0.6485669792268012, 0.5147319917264342,
      1.2194419259621538, -0.7292021006121762, -2.4668001232786754,
      1.1920122165536895, -0.4946329264477922, -0.09842889198326574,
      0.15716403072147653, -0.05902875720344155, -1.1342552147018041,
      0.2173313409114006, 0.2217883820578198, -0.5383707175907851,
      0.530510550047593, 0.3628388243799819, 1.2032886003764076,
      -0.27604950941457473, -0.3662612194293715, -0.16671706819863868,
      0.4585689523544929, -0.691423562328717, -1.005809109383341,
      1.3767977977410628, -0.7753420274469932, -0.43056157341444484,
      1.3305665009238075, -0.02382279950669297, 1.3993340977220627,
      -0.22118606534443097, 1.7432937750936146, 1.6144762910381822,
      -0.31111460919683004, -1.2218961601804053, 1.3016733847647473,
      1.3552557808850534, 0.12100831474671701, 0.2450358287700526,
      1.1976931996892832, -1.1449735205488394, 0.510953696003949,
      1.408741052225799, 1.1906144263558902, -1.9208193808588747,
      0.1290513726262824, 0.19344778457478692, -0.6550383383860048,
      2.161192263980234, 1.262384646243994, -0.9972684629482282,
      0.02362032032143111, 0.09124700760718822, 1.0097591891054707,
      -0.21412558594200085, 0.4198854814272289, -1.5907278438196926,
      -0.40635486466093784, -1.8324453017854518, 0.015985194040166534,
      -0.40495284478680227, 0.08930442231693005, 1.7603788611343323,
      0.41829652168617804, 0.6390976189716835, 0.27235260771352726,
      1.065978454193031, 0.15505633784057077, 0.48672012639738277,
      1.4336962087391734, -0.5667108034850117, 0.5072141154273082,
      1.515827138702669, 0.2101622819401689, 0.015999954013796426,
      -0.7561160998352492, -3.2011294838395314, -1.9408664707457075,
      -0.14258196773343643, 0.324474384418394, -0.6126471493792099,
      -0.9124135563702157, 0.1695512779402302, -0.10008663631763233,
      0.47497501206092807, 0.8700154479334371, -0.9065971671859284,
      -1.001734604337284, -0.37207908258802846, -1.7953257260369062,
      1.0836602548507508, 0.809421386896023, 1.6731109121630896
    ],
    [
      -0.15061890608778908, -1.1884641368501838, -0.009575085422791245,
      1.2283185924510085, 1.0610981273575908, -1.1305433968217875,
      0.17488191103399278, 0.16958144442082787, 0.3467427931835112,
      -0.11215383013283486, -1.4369933071734606, -0.0804805130051885,
      -0.2688201174947819, -0.26688211488349295, 1.135436301650252,
      0.1321028621147705, -0.18705228498267176, -1.1532726020561537,
      -1.4532920078336982, 1.3529385966397889, 0.5700226847636687,
      0.13017816162571613, -0.2140427211363187, -0.8296214396017876,
      0.09957957484003421, 1.0263766815974944, 1.6262148276302681,
      -0.12475797968153832, -1.7606530174826054, -0.23997535663839045,
      0.650280602654415, -0.4454079537509852, -0.0868571765988419,
      0.07342214422248501, 1.9570662650698152, -0.03689984546916411,
      -0.048481613541989765, 0.17449362834357016, 2.9500399682006946,
      0.9650602013732351, -1.37551684549551, 0.07659354709532895,
      -0.8096943949703973, -2.410732007546849, -0.825634932363787,
      -1.417764385781307, -0.35795324459101424, 0.424961342773089,
      -1.2376352517794782, -0.06138492034593038, -0.4654820074625204,
      -0.958729139512064, 1.5448299755479813, 0.05685673707779491,
      -0.9424358861570394, -0.025910366683012928, 0.5924397233403935,
      0.5354458730872929, -0.3823970378165296, 1.5298359502086694,
      -0.6626643887934281, 0.028548918532941815, -2.0555485703226353,
      0.8336672346789236, 0.4360711369561603, -0.676228899396205,
      0.028315992710547418, 1.3537635024669203, -0.21328463312387916,
      -0.07973080096700942, 0.6539379295811969, 0.17866474096956053,
      -0.614076537163213, 0.5017382685805527, -1.07916284650158,
      -1.8552069530279236, -0.8772216459569353, 1.1629510009000028,
      -1.6390584690394268, 0.3394689227030857, 0.9053098341356275,
      -0.07273438673809716, 2.38423915088004, -1.4179506791952579,
      -0.29505728990310925, -1.795101494149259, 0.7603519496335562,
      -0.1820584765350357, -0.12997695801459982, -1.1693161541216304,
      0.9940892262245671, -0.47422798955512163, 0.45515147470648093,
      -0.9835321131573226, 0.46623174201650636, -0.052231190412882086,
      -0.5058188735144732, -1.5539268156421016, -0.2561303954216739,
      0.08694953741836385, 0.4920719847146994, 1.024143822645274,
      1.390658082523133, 0.2564334041850629, -0.36205806778100497,
      0.4779331603002875, -0.33040284844574175, -2.1735178934973356,
      -0.4422868188300847, -0.5996673722417687, 1.1670229843065958,
      -1.7733209169612945, -1.1407001879287944, -0.1434693507085627,
      0.17846122150124058, -1.616552428222735, -0.27570135964795367,
      -0.5975399704233756, -0.6689698242311077, 0.3890740161401084,
      0.4115351904309305, 0.9359359169000445, -0.19350430618819672,
      0.8847335586592427, 1.2429691360888868, 1.0593115116746281,
      1.008757611919886, -1.1175434325670286, -1.5195460387695041,
      1.1396538822662103, -0.5243243598707558, -0.5948574667966697,
      1.919370703513091, 0.8283021896873057, -1.0335280131707414,
      0.7274764554072558, 1.6859809341405354, -2.048401653415475,
      0.4288893252199176, 0.4104988373285441, -0.04194556759725015,
      -0.1523571786748022, -0.4732710315303883, -0.31231540208742936,
      0.15100665577958872, 0.9080511855630451, -0.6798649258257511,
      -0.04889536170118207, -1.5090934193842653, 1.1142956247253637,
      -1.3601506146169116, 0.013289987517248546, -0.4790527051854009,
      -0.793869961885624, 0.5650453632243084, 0.23380643908446916,
      -1.7987516954568064, 0.5132471517451015, 1.5869410118024558,
      2.150171755122393, -0.7526232734521168, 0.5890950385041164,
      -0.13296438254112045, 1.3316609472698753, 0.15662000022753964,
      -0.6037966658971934, -1.0402060472489416, 0.17261593090189967,
      1.1623225523507603, -0.8453694571442196, -0.936791763959691,
      0.18136668774841821, -0.3389802967390309, -0.19559663644099168,
      0.7491704012584494, -0.6039649858440647, -0.11391743455749266,
      -0.7146791079246954, 0.14682840928160684, 0.5179730450276953,
      -0.8850944831092264, 0.6769295129550686, 1.3157944938581436,
      -0.21377291699612355, -1.115686726699612, -1.4046423342331982,
      1.2273014898252097, -0.9586738179237321, 1.7440673655896934,
      -0.5417666600013779, -0.34387418426464605, 1.4245306279678793,
      -0.25123869114998815, 1.2132996006935022, -0.6976746557503949,
      -0.25619265964406673, 0.8550351134336233, -0.8320086553132247,
      -0.03557421060159118, 0.35019288040894203, -1.713635552102895,
      -0.03358533273037508, 0.4494177210824989, 0.7069968505615559,
      -1.826560076250967, 1.6414861524131898, 0.2866675399272478,
      -0.5265597230900695, -0.4633376801764675, -1.671097525376197,
      0.42985063681779856, 1.0525329413972662, 0.06938069122716181,
      -2.270028538600022, -1.141990887293767, -0.5025277650117382,
      -0.17025314991717633, -0.2000563696933348, -0.2562497500561567,
      0.8364955217925448, -0.21549058886552286, 1.4074979559259206,
      1.381389490284319, 0.03389938530082972, -1.1382126537733355,
      -0.40288217976941487, 0.5129985730900579, -0.23581124942352386,
      0.07389394200296674, -0.00812128984160787, 0.7888714174308934,
      -0.1664487910946884, 1.4255207538641026, 0.9362754871474529,
      2.254360862439186, 1.0496950513001513, 0.5510942768444737,
      -0.2086707760254783, -1.3755116914607686, 0.02528639423878627,
      1.7573516995362388, 0.011513766364653462, 0.2050602359668152,
      -1.4378952294946161, 0.9944771590861642, -1.5858452679527792,
      -0.0003943092416547882, -0.668779702450794, 0.6623531876045913,
      0.739038576138841, 1.3579141130342456, -0.8293060171021277,
      1.2288597103240573, 0.1498126818431828, -1.3586653539112756,
      -0.02064866806510193, -1.9550725667424695, 0.8904767737684722,
      1.1655022175468779, -0.9738471937379746, -0.5190707936122975,
      -0.13699478395106243, -0.8486716994188487, -1.6263911121432562,
      0.24053425497442243, 0.02838670676238682, -0.08045920610804995,
      -1.504313164669452, 1.298961650388404, -0.9460650024189271,
      0.6204389495132302, -0.5618698283877838, 0.009421492999926335,
      -0.2309417526502195, 0.5530596216725134, -0.29354997241582065,
      0.8384687554147984, 1.5283982686185202, 0.2774376947552428,
      1.2254272081419042, 1.2050202105910681, -0.27119453495216106,
      0.3438422018654593, 0.011528867098078316, 0.838091260629514,
      0.29910648868443596, -0.47343614436621656, 0.1413437554243728,
      0.26853733417756526, -0.24084196482381495, 0.32502354053365545,
      -0.872717853725679, -0.8660065506646842, 0.7747971942726324,
      0.13071515057374486, 0.664180963597572, -1.0323804971480213,
      0.49397522668753535, 1.8717154533527647, -0.78953558778621
    ],
    [
      -0.5011042196345672, 0.09183575549752751, -0.8406589258956756,
      -0.5071640538319677, 0.8601313414685517, -0.36630486748806657,
      0.28380547788486754, -0.38238472377573884, -1.071589877211436,
      2.0130234646988554, 0.5103118859105538, -0.11587668568184047,
      -0.36780984778720244, -1.8164590955552744, -1.635338621777722,
      -0.2152241821934858, -1.602993888985582, -0.5900846451505228,
      -0.36666957170379827, 1.0224696848384867, -0.7366398775246211,
      -1.1598182495142118, -0.9489359192971136, 1.260205463432119,
      1.5055456812440817, 2.065611806860599, 0.3071584440441971,
      1.264175817694752, 1.23109213037124, -0.7889733222700609,
      0.5534096290542535, 1.1971596352920943, -0.4098383850413905,
      -0.11825030890671374, -0.6063656365243059, -0.20289147650829478,
      -0.9150506177470176, 0.9141021960129686, -0.30417735421578135,
      -0.7927762864622557, -1.2558744684396554, -0.19020790961073258,
      0.07628196959067901, -0.6962820556807774, 0.3266586697546139,
      1.4351521569873327, -0.1900202968188127, 0.8657841971111648,
      1.4062330541343242, 1.5608410109929993, -0.5452438666717858,
      -0.8701087260206792, -0.4349206206192334, -2.03109053357287,
      0.43862320483122647, 0.9879221595362183, -0.5217971041113141,
      1.5664307612815929, 0.8645844867108843, 1.37528737778534,
      -0.6088440992877042, -0.364403891264394, 0.2089371408639431,
      1.3007885751699646, 0.6884373526518645, -0.16532235347419563,
      0.26842783654071, -1.1714562339888668, 0.44545144565934847,
      -1.5728781590352388, -0.7597685598102293, 0.7712033143009391,
      -1.5829563519476841, -1.364738238899663, 1.0253794092875053,
      -0.07338439797160376, -1.619443342073383, -1.7916377617705128,
      0.08147212877189915, -0.27331798685176245, 0.24059406437095213,
      2.0900733114605523, 0.6553965552042779, 0.3007445923440814,
      0.6642109018691943, 2.774398370731028, -1.694319392406625,
      1.3452605798348662, -0.22490318237014786, -0.21004681362684113,
      -0.9245684865396729, 1.7661220902574617, -0.7006198272230333,
      2.072152044413767, -1.2449574383079727, 2.0199730675186753,
      2.8108924096069456, 0.8559671594654764, 0.6135679843799987,
      -1.5937599502249002, 0.7969931849721617, 1.0065810840693414,
      -0.3624170371432718, -0.9656408221844627, -1.3236277180431868,
      -1.5255417225926184, -1.8565490016479311, -0.04589615755740824,
      -0.34368253398518545, -0.6570825674231112, -0.035962177894087,
      0.11748115329583954, 0.15935750560636777, -0.8577319224513323,
      0.4200191422043122, -2.1517700270890074, 0.05464790938593311,
      0.05948798500123212, 0.3048485031617165, -0.7715854842220308,
      -0.6739900093379094, -0.7338219850145068, 0.25224569872204833,
      -0.35380729719502196, 1.1726124332384793, -0.1688377321073162,
      -1.5883331000360188, -0.832012160582505, 0.8240733666483425,
      1.0666627167902765, -0.4104071280193687, 1.5102880460871961,
      1.3104848637635265, -0.9856894988619977, 1.2653374210409103,
      0.39112630199521137, -2.011211876187643, 1.7420023116642867,
      -2.20833235283152, -0.32021596973975874, -0.11230761763261438,
      -0.43615517736763104, 1.2442146562213399, 0.6363379044842266,
      -0.3984562166491551, 1.900604025704751, 0.32550824017722046,
      -0.3362452711267355, -1.7821441354926053, 0.8910742420845656,
      0.6019040555736412, -0.997156686416498, -0.6970307607331448,
      0.15407029682466797, -1.0470278381439855, 0.7901669515348575,
      -1.2678105152843397, 0.5163823146715862, -2.3722374127074377,
      -0.7058618292203813, 1.626252550902974, -2.1975818929928184,
      -1.5845371591379915, 2.261519357724689, -0.4931905947730353,
      0.666799433118004, -0.39884900493632264, 1.9704438700893325,
      -0.21782348782097136, 1.0860898362246534, -0.7421131028017182,
      0.12020117113122751, 0.8683240131899229, 0.7086502590181192,
      -1.1090713809646373, -1.5816012098172045, 0.13520918560282144,
      -0.7933116196918192, 0.3642374101496187, -0.35887211947374315,
      -1.507171626601629, 0.4821958320048215, 0.5645542158724357,
      -1.192895272517591, 1.1482089113544958, 0.0020165426201347843,
      -0.8162592478672397, 0.5642108870846898, 0.5297223095048941,
      -0.594360393453035, -0.6651141577725048, 0.15080146523519086,
      0.3897920664172261, 1.942204093062017, -0.9977852657535623,
      0.9386528037144035, -1.1281285168387885, -0.47403868161557444,
      0.5074164298507661, 0.6754163553600627, -0.795548202154289,
      -0.06663635750730847, -0.6593102336746551, 0.616118150540853,
      -0.7218712374780009, -0.25952773616351504, 0.36791868161156205,
      0.39610528787053545, -1.5914570137722686, -1.5548962994569167,
      -0.6822194502346042, 0.5197902352786118, 1.5468134832664597,
      -1.2412341531313755, 0.3183770264963104, -0.36947718144689246,
      -1.6372483309069603, -0.821202552596295, 0.8607242205974325,
      -0.07042780189408789, -1.5107296142902993, -1.059154406639368,
      0.48318669803940445, 1.0356565978623666, -1.6068752178851515,
      0.03530062683235386, 0.5623208598985618, 0.5589349584870249,
      -0.30092783848721666, -1.308389423748268, 2.450319601160643,
      0.2388025794947181, -1.5021591348805003, 0.13542066994493535,
      0.24589661612123498, 0.18439681376597616, -0.09135308272102184,
      -1.8720987185307454, -0.3102259398805596, 0.9472105558425241,
      -1.6672434346403218, 0.349567130399602, -0.02545368021708928,
      0.06326222398138019, 0.3199076919754938, -0.19901851256119116,
      0.010157978648661803, -0.0789900001163029, -0.5266383065121925,
      0.524514758658876, 0.6264398288635118, 1.1692130026386658,
      0.30964638780783454, 1.9935139499599623, -1.602853709071291,
      -0.8567984997979743, 0.8302278260219009, -0.8673516506720363,
      -0.9742006585671177, 0.7810393236780255, -1.4888124665603246,
      -1.874773670098457, 1.3905797258999277, -2.1308573772911905,
      -0.5662316743038464, -0.07803649432794695, -0.5480223357805735,
      0.4161998872461333, 1.1284879276517785, 0.503699161540605,
      1.3151152970720252, -1.2961393332780704, -0.4225177739522511,
      -0.9720251134397279, 0.9473771257229324, 0.5647081111861403,
      -1.394729684965506, 0.38113012715531525, -0.6295511849637645,
      0.4729407468173704, 2.144984422268422, 0.2958284696153504,
      0.015079978845648732, -0.6561822021675088, -1.8887709587997275,
      1.3139392419504414, 0.8263721912149588, -0.22172020346048935,
      0.7845743694574376, 0.007168880402222152, 0.7054514354738454,
      -1.5480615773104216, -2.2264779781238357, -2.0015089240560497,
      -0.622088005458542, 1.5571064685394505, 0.27766571543572377,
      0.35544487336357267, 0.45271100840087053, 0.17559975227041758
    ],
    [
      0.24373627387259875, -1.6136595115218244, 1.4666834444528019,
      -1.120460745089042, -0.7781086660309509, 0.017949095977079884,
      1.7659068979548784, -0.49336012800459417, -0.5254240993182937,
      -1.012079018959102, -0.4820079154216137, 1.182524849644304,
      1.4616360142296054, -0.026159741762780086, -1.0962269085321685,
      -1.2779358103814136, 0.16926289316882331, -0.48014139951126483,
      1.242950772006881, -1.4165193048040785, 0.018904670237965097,
      0.4187009160998894, -1.074917128549967, -0.3273137229988211,
      -0.49007872068830954, 0.9994884299680047, -2.3329961002144213,
      -0.8297049220992916, -0.3999557687849849, 1.271330145070366,
      -0.3674126705027807, -0.6740711238608934, 0.6707692570174338,
      -1.3541884816334941, -0.1159281692686832, -0.6820590303081366,
      -2.373260591527449, -1.3787390767655114, 0.14370315010251114,
      2.048925092154741, 0.8289872102095944, -1.470237357029627,
      0.546718855254809, -1.5559404162451935, -0.37760942079146376,
      -1.093847520992677, -2.7462575102335487, 1.2225504154355953,
      0.057315810212487675, 0.9267711285899765, -1.6354100059228356,
      -0.6292716013401733, -0.8090726075324959, 0.3406959316608583,
      0.7460295779264184, 0.8158032171853241, 0.15574902090373818,
      0.1873423243905307, -0.8711854413617838, 0.31214404948143054,
      -0.3192801720736977, -0.2095327609860186, 0.593577723558381,
      1.0513232589764796, 0.12743582070685294, -0.32773185504058466,
      1.3517866027189795, 0.43390290313433344, 0.7798820158087554,
      1.0836774882456177, 0.9763893365087468, -2.11259240805633,
      0.5469113462736174, -2.3326783209375095, 1.4511529928359306,
      0.5391121467685657, 0.12864246990454437, 0.9248909948358597,
      0.15250401170852276, 1.1138299152986217, 1.878139471638019,
      -0.46570420158915365, 1.5532956177605635, -0.7285252989602712,
      -2.1136531056078653, 1.155943713859886, 0.3624109336352163,
      0.5201306933822822, 1.555850767701135, 0.6864202682355152,
      1.7267083048484162, -1.00474136635181, 0.33258550183210167,
      -0.03982939599006027, 1.4732639704313621, 1.7569843147640953,
      -0.17628194391178162, -0.41367426754015746, -1.171585252874198,
      -1.6381031929281678, 0.5598171827024464, 0.004105199284722366,
      2.9322909313029473, 0.7812784053058865, -0.42361619525065586,
      0.5230933725171304, 1.9593968495414942, -1.0587458785880752,
      -0.7762889430425315, 0.9783134183678122, -1.5165842372652445,
      0.3985824351617704, 0.2458903692018373, 2.404016409269705,
      -1.956773909336532, -1.3355908396063987, 2.422280213980543,
      -0.5981108325767492, 1.4220132596128332, -0.3840943032989654,
      0.07234118688728508, 1.0583455267567974, -0.21770774605087412,
      0.69246214582976, -0.4148944969618974, 0.006083887185896509,
      -0.28238682337626, -0.22069561978502003, -0.8546361978007571,
      -0.6047086484077032, -0.9067158895762477, -0.006545633114851487,
      1.7184463218981842, -1.3651807927879052, 0.02825453597485725,
      1.9076173871420792, -1.508891251235502, -0.8733801218074839,
      0.16911931697740443, 1.5326650521586405, -0.709017009303415,
      2.1477484484375653, -1.5124526897202395, 0.5149717874594285,
      1.458978729628766, -0.15538846196266104, -0.46030297974391204,
      0.3343008686753869, -0.6314527693368167, -0.21303910067503104,
      -2.4443278101302703, 0.018941299181377505, -0.938247790823463,
      -0.7655028947892686, 0.391924289153971, 1.1318236535525967,
      1.0767699006674052, -0.19822165969743602, 0.3209957189578042,
      1.740739967739977, 2.269187090180019, 0.1321772601450383,
      1.0328576417081143, -0.2856670800331416, -1.6071496401571745,
      -0.1293326347463579, 0.45144633262791456, -0.05928189758543939,
      1.0811471904205616, -0.7988985931628804, -0.47216730272620805,
      -1.513108208156454, 1.1413967395774849, 0.6058422000581145,
      0.7404608735983904, -1.0548506135873061, 0.9490704468904096,
      -0.0928215428347813, -1.6685015685342632, 0.48719499800657196,
      1.6656148822043257, -1.058473150376364, 0.10920301308154229,
      -2.9072887706678046, -0.22896163258759705, 0.25580558884878796,
      2.7667382770445177, 0.6643465927405663, 0.5039448622818328,
      -0.449558479218903, -0.30044725751252477, 0.4519854004766784,
      -0.27150348313323, 0.10686490146973374, -2.0824629782538855,
      0.6569161461226843, 0.12089095161851933, 0.17798308524554793,
      0.4402935246708451, -0.0984421707269429, 1.1687391472440052,
      0.8766093294049444, -0.7141860160752255, 0.5274196495722445,
