{
  "epoch": 550,
  "input_size": 180,
  "hidden_size": 300,
  "output_size": 26,
  "activation_function_type": "SIGMOID",
  "input_nodes_weights": [
    [
      -1.0032686865819431, 0.5418474950634337, 0.7107232701172453,
      -1.9819478538531812, 1.3122769390713054, 0.6514974132669962,
      -0.025333304577519356, -0.8865013154217269, 0.8137860774748803,
      0.38799226789005525, 0.6076119116287928, -0.43916745455906003,
      0.2185456765957492, 0.30000140228993477, 0.5847598374783792,
      1.146737458964718, 0.7556978159965605, -0.053365294032923435,
      0.5178847630785282, -2.4307458017890418, -0.5365078599853903,
      1.787322551892468, 0.24291824546122914, -0.9476014453595567,
      -0.0006203015063362114, -0.445668239704012, -1.7639211210133858,
      -0.9348051519730972, -0.6179926921579307, 1.1872054723288712,
      1.2928236998244023, 0.02780574700532427, -0.0023074048721874437,
      0.7005582044304219, 0.5514562891406855, -1.6237825675920905,
      0.4864634853710184, 0.6919102399274554, 0.2877352008042181,
      1.8193733958852059, 0.2071213924423852, -1.2048634178163748,
      -0.13218210825001392, 0.19125037807263445, -0.16763751171911018,
      -1.1001830243202795, -2.5957124269878653, -0.9403403658720018,
      -0.6960927400340853, -0.05803580080821522, 0.010677967240329824,
      2.186236827924567, 2.9846831462867485, 0.09891532175005335,
      0.21585922015996667, 0.22825440254220836, -0.19067186142830245,
      -1.0573076625869424, 0.09800442289235449, 0.6421540449613122,
      -1.7688395090097926, 1.2439465549852298, -0.57111993229744,
      -0.1325253937606139, -0.21448254884815826, -0.28699488004260826,
      0.143703112718524, 1.8868820720917252, -2.834204893992076,
      0.2597290366936059, -1.3721981165773758, -0.428070782613043,
      -0.7621106989934692, 0.9732079688954306, 0.486235429767301,
      0.971399651056057, -0.3721448732821712, -1.2903604033418985,
      -0.6977709253296284, 0.7310272701569079, -0.002371637746646919,
      0.8283207999369689, -0.1813868464219223, 0.7693675761255565,
      -0.05891983708009751, -1.6279566293265761, -0.3809212238337914,
      1.1885243945307675, 0.4078470825833776, 0.6864230524306371,
      0.725061184476282, 0.49489018893582154, 1.2933290274489078,
      -2.013679674956871, 0.16712161837387599, -0.7683351990057029,
      -1.4721031631763632, -0.16292037296161754, -0.05015347908178212,
      -2.7218607115658413, -0.3299709245745631, 0.20931410038202716,
      0.9588673800746889, 0.5280016836139562, 0.20379328064605903,
      -0.4036665055535162, -0.6678169640443485, 1.4569472784925388,
      -1.6959216282779936, 0.786228546229977, 0.14369322792388772,
      1.6052464773521267, 1.3709680112635456, 0.5246708014380933,
      0.1522775943437698, -1.028886930627937, -0.7507752243463548,
      -0.00888561724515782, 0.3474505187084846, -1.6335141448746862,
      0.7825278223216616, -1.1158578361889826, 2.916500651046126,
      0.4128417519911812, 0.0840815250375924, 1.2186270015519776,
      -0.44427004242277446, 1.2491685691853438, 1.308053020721962,
      -0.023424013191659862, 1.2223782866371282, 0.3367027308526875,
      -0.7934092866860657, 1.4416770261039813, -0.7522167146850407,
      0.22154880794616824, 0.6502457522787974, 0.8035770155612518,
      -1.0272651602671388, 0.24595776874373798, -0.12588921603199826,
      0.488370825348163, 1.1446473894157478, -0.7250303298184646,
      -1.3739201969321546, 0.14361960283613215, 0.2814072400002286,
      0.20864752880065862, -0.34626682301417744, 1.4461723977432623,
      -0.469274399573569, 0.6318436239877289, -0.33008946535787126,
      0.7569740872955778, 0.05467856498961542, 0.45673105487932936,
      -0.11806109177118512, 1.9507881431745528, -0.7177429947193387,
      -0.5744140262393275, -0.25075001234525746, -0.734031281135525,
      -0.17877809688681207, 0.3896809138664111, 1.5766084882209561,
      -0.19863356027498896, 0.7709715459507808, 0.061125888382495996,
      0.9466574423834434, -1.3490669715408141, -0.694678442857659,
      -0.6200162139737728, 0.2432358159663845, -0.9157282658020558,
      -0.838358192373974, -0.8775311217613716, 0.8659732244599199,
      -0.22791444567201394, -0.7356167623491303, 1.5174527692693978,
      0.28146305434237956, -1.3259612884439567, 1.4472813313619357,
      -0.2352866471775655, -2.4046636113239725, 0.639276531263261,
      -0.40744165598213655, 0.32984052606940306, -0.14663614094904118,
      0.27959336517862865, 2.450672881874675, -0.5628899302013581,
      -0.589566559448411, 0.16604894484599841, 0.12568482779992543,
      -0.13986246775300704, 0.580348966005696, 1.1621692824032435,
      -0.3457334097927606, 0.6701911717750964, -1.111955464166345,
      0.3156688910410954, -0.4377843442555078, -0.5892452090415,
      -0.6722492116097293, -0.5105902417773625, -0.09049911343976363,
      -0.4561386256887699, -1.376579626171884, 0.5274658039428817,
      -1.4578936977237749, -0.10613494093909014, -0.09489687359192497,
      0.7141530422380559, -0.3018844575913632, -0.3958833420945198,
      -1.1548334407068102, 0.3783022822354642, -0.7962166826001196,
      -0.17031917095111393, -0.9935952847012437, 0.7916684285868839,
      0.09196766721387757, -0.034096063622876566, -0.7191737390349452,
      0.7745297904089454, 0.38601795554413854, -1.6329122936935543,
      1.1256075148830285, 0.013677689912639754, -0.17841186154807598,
      -1.359286841371862, 0.46632191546854923, 0.5561923284516105,
      1.1245438444390288, 0.6802330780830983, 1.44595470487228,
      -0.37083505583605203, 1.6048207502038623, 1.5121179115602825,
      0.13216287641683608, -0.08203775192981541, 0.021913358865729447,
      -0.2786351745820228, 0.18160389349533468, -0.2991550130190103,
      -0.6574297450824608, 0.5288459049338767, 1.597228722812044,
      0.46802802387522263, -0.7803554525174221, -0.6389125091426207,
      -0.6639098336301367, -0.19328824833307942, 0.3462823702278308,
      -0.44257704037548495, 0.6553406123706931, -0.5210848826850786,
      -0.6296841535913813, -0.32120197460598265, 1.505775973901191,
      0.46538057250118053, 0.7151773743189126, 1.1463914624104858,
      0.6663323408073076, 0.2723663685541121, 1.3759138651167642,
      -0.5318642583058834, -1.981605235083447, -1.3429643520793038,
      0.1038637671575717, -0.9325239911535219, -0.24659640319938514,
      0.6552758627602671, 1.260738991448323, 0.814752559391633,
      -0.6373137721215018, -0.2187912143070031, -1.255592930036357,
      2.562654684460385, -0.6988812088239498, 1.5457192631769274,
      1.7438245082036001, -1.2866538813094472, -1.3030455235373966,
      1.0996778051242913, 0.08513891989383568, -0.4931157694585482,
      -0.3053907615819578, 0.9339901780454731, -0.3589705448453909,
      1.4415268346377115, -1.5748501095238252, 1.5063086147939841,
      -0.6015341760924575, -0.11700710745842459, -0.7563691503774872,
      -0.06788669500607468, 0.7602158877109307, 2.0229176163038636
    ],
    [
      -0.9920770809193997, -1.266119389627234, 0.4954239902408894,
      -1.9752801728144667, 0.02969669677635575, 0.45795117595593254,
      -0.07449725105248863, -0.298287234809889, -0.3714712144862638,
      -1.677223080087022, -0.016799875177249977, 2.304836460472473,
      0.04821778402415601, 1.0848871834938378, 0.6788822166435758,
      1.1672003555966155, -1.612019811109678, 0.1615058301894859,
      2.260343991526601, -0.26946261176016195, -1.4275037167970064,
      0.26731545160116826, -0.9074241536140968, 1.9514903759586215,
      -0.3127519994507598, -0.7037491890595441, 0.3668150746164242,
      -0.5377938140729418, -0.6462685303829904, -2.5855552773605837,
      0.4209378484302759, 0.012748589721764009, -1.4824357870975495,
      0.7739686685471262, -0.35920347804152086, 0.4026561830171998,
      1.2831202089785179, -0.005007659515358602, -0.41478753320640993,
      -0.2075545336020459, -1.2809183712476937, 0.04077712324079447,
      1.8629583819225504, 0.6327207539477597, 0.6595509545901663,
      0.2991118327391132, 0.8238981284036841, 0.9729227513231306,
      2.1062213452315772, 1.109592210241756, 0.028975962422596795,
      0.6957309157728101, 0.3502458096711148, -1.0820804601351741,
      1.6694122338863013, -1.5013036523428085, 0.5488851694434811,
      1.1795867148494565, -0.48800070937187445, 2.247411853557751,
      -0.8889238648015718, -0.9455482617061094, -0.5277815290308427,
      -0.8214571531911544, 0.5616030191599697, -0.2088290071449852,
      1.2416289470092496, 0.8065147182570758, 0.5568784985712326,
      0.8095606974863387, 1.8713365631655092, -1.3944265818320898,
      0.2182832497994315, 1.4973458033544473, -0.04260968462011527,
      2.1531042824283912, -0.4494384691504849, -1.4062853415143943,
      1.8380563554924538, -0.69330059648259, -1.118320579006917,
      -0.1918748562621928, 1.2704848971966767, -0.01870701561284998,
      -0.31005483106729, 0.5604478295632115, -0.9515633157562304,
      -0.16525313912545572, -0.14266765470372617, 1.377650540727985,
      -0.5532456526264196, 0.8387548431123028, -1.1634398299976108,
      -0.6235209778491131, 2.164664532919281, 1.4386436723269762,
      0.5328746006315562, 0.7074117325132528, -1.705428605241326,
      -1.1483078547800156, 2.3793396043225115, -0.19817761726387395,
      0.38539890343901795, 3.3473315543692723, -1.1881605947135117,
      -1.7019811129464852, 0.7572835261042721, -0.4509674698454847,
      1.926494920282213, 0.7937388882172625, -0.9142562300506205,
      0.34203744910140216, -1.5907881838732647, 0.09535483552723951,
      -1.952359474351966, 1.5872196087862238, 0.20150253743086305,
      -0.3156336023612923, -0.9361681892710803, 1.2156576741839813,
      -0.7129588619351337, 0.48486717277325747, -1.6838913256577643,
      0.8598474926292117, 2.319345811720765, 0.41552001284019524,
      0.21763738850292844, -1.155099632609129, 0.3963470963510248,
      -0.1726767198282679, 0.5309462476279363, -0.38443189476926715,
      -0.5783150220732788, 0.8547632217673098, 1.2996761020195373,
      0.03974754385703622, -0.30612363632940687, -0.7701121915591612,
      -0.655818323531722, 0.10369835002468342, 1.4670183766738816,
      1.6887221151288831, 1.3123228528894455, 1.6738781742409585,
      0.26381715903801267, -0.15983052833596967, -0.013107761071873416,
      -0.23554963148534488, 0.30411142715940354, -0.8405239734266676,
      0.35804338197772906, 0.5443868410986776, 0.4343072147372037,
      -0.19178577390322238, -0.8644774919845089, -1.9694899735362223,
      1.7513105418224373, 0.34136124788114647, -0.9210480310721827,
      0.7069096049878277, -0.5004715121667935, -0.5434216007412538,
      -0.6806778389990401, -0.45417386922153014, -0.34169163221248766,
      0.42343157709555374, 0.44212803519277954, 1.0749041354493605,
      1.3021380640157667, 0.4732921446830416, 2.0392478359414308,
      0.11482353657762681, -1.392921594372278, -0.43743612566297524,
      0.9518064810137896, -0.6741528956749586, 0.3792595773897832,
      -1.6650805888642586, 0.5890749496595183, 1.054208589208714,
      -0.22687236318365506, 0.9027203570420972, -1.3594145295174445,
      0.5686675085561245, 0.6825970429177439, -1.229594658214208,
      3.116426642038356, -0.47040204478234815, 0.46430970406677574,
      -0.03422718926650645, -0.6857834680808642, 0.3125132778083895,
      0.1177698276725545, -0.1046818433839655, 2.875780651443612,
      -0.8799569678287849, -0.6654884731694303, 0.36902473070102904,
      -0.16709202833782594, -0.09570570301178388, 0.4409630959217802,
      0.11277410653551266, 1.9171829394635496, -1.503828477613313,
      -2.0198775862903737, -1.060099038239941, -0.9245103914367726,
      1.1654129760013894, -0.5149715853762135, 1.064077197939656,
      -0.16985345363870621, 0.19536776216852694, 0.038951942520305136,
      -0.7047805596902902, -0.28884751597502245, 0.9233333237770472,
      1.037598433922833, -0.06390130053611214, 1.4834749624005048,
      1.5874511660361499, -0.4439060856328556, -0.9606855784135231,
      -0.011126546628255126, 0.8148800925370349, -0.6014888938870273,
      1.2661620308185868, -0.31420844294085143, -1.6331285914252007,
      -1.8877531213573662, -0.6254170250958014, -0.7857097144697163,
      1.2073800330380065, -1.8602444279117565, -0.6849230305277753,
      -0.8639231298048907, -1.2678746314266829, -0.05808547183059429,
      1.184126446940754, 1.6271353595631912, 0.11785067635879234,
      1.465079318970479, 0.5405251389642928, 0.16088981254140575,
      -0.05435811054587686, -0.7591218419065622, 1.185571412684725,
      -0.23355171940915245, -0.6491119488850976, -0.10672845275728102,
      -0.029522440802215496, -0.8387909905170888, -0.5767145788249897,
      -2.5128110984003458, -1.8047190760262122, -0.4523735274540798,
      -0.7719484343380045, 0.7627561659602318, 0.732555198103825,
      -2.301671362236259, -0.823850504272659, 0.038966466654850776,
      -1.2455485314113073, -1.2714744536245512, 0.5692704359269753,
      -0.31233323283235853, 0.06205285942391937, -0.6983717212738685,
      -0.4418429544712534, 0.35808986749328175, 0.7195041411075823,
      -0.6022933361230982, 0.6754672920779634, 0.7335713861898278,
      -0.6839116274854802, -1.4829148892634467, -0.9105853039151585,
      1.3609858961312187, 1.2033512034364702, 0.7613550767841382,
      -0.35463369252218935, -0.9838644566753463, -1.4166619727011738,
      0.9554161519167061, 0.6761208650953343, -0.5920815937049629,
      1.2967582662992754, 0.15024905763406582, 0.9262121188675555,
      0.37807738016882997, 0.26704326547047746, -0.047541605571601135,
      1.9196916277531388, -0.1918361302019182, 1.0571364186794545,
      -0.03385460808410404, 1.0348922061250518, 2.752069479684028,
      0.5284646357051953, 0.2135885099432464, 0.4128092201865717
    ],
    [
      0.6178233204799505, -1.538267494537524, -1.0498296511866856,
      0.645544133563332, 1.8930080600451593, 1.177515461485872,
      0.7036440597505629, 2.1350586797116815, -0.6004131882791527,
      -0.9436925223379535, -0.9967364436363068, -0.06888898442808644,
      0.2148829333781322, -0.5830018936337715, -1.3310637608874818,
      1.7138410918852667, 0.0847052359692569, 1.4186077827179937,
      -1.46985475921161, -0.7934239488052063, -1.207473311760408,
      0.033039461789464084, -0.3080179466349479, 0.7132002555733454,
      0.28790661188065575, 1.984010168176495, 0.104751197382482,
      -1.1375426692432025, -1.1722961752524204, -1.6671824798090942,
      -0.8944945674941813, -0.20233711787491723, -1.3878045584578163,
      -0.6603929150360766, 0.20956505769402275, -0.757458464182205,
      -0.5227608501407873, 0.6361102880181569, 0.663899967790118,
      0.594135328291307, -0.5979982644261403, 3.395599790999376,
      -0.63729846573152, -0.1980000235576922, 1.0589658638944086,
      -1.7472690356060459, 1.5214017433755622, -0.5062686700619679,
      1.4471009961789296, -1.175035921319522, 0.3983104161415169,
      0.3511607959219619, 0.17870380164898214, 0.666041928305294,
      -2.0269824290733793, 0.14969896317962636, -0.6956687570435391,
      -3.3837673458826143, -0.24346572321586044, 0.5684951789784763,
      0.0027119672024687627, -0.02454050475918836, 1.2967481999668837,
      -0.45506906900135974, -0.599446317245856, 0.0490018132878397,
      -0.9595882540526808, 1.476971532922965, 1.966850795375076,
      1.1666068877450761, -1.109052446769184, 0.266681200988541,
      0.5462626245805604, -0.4917980721696061, 0.9318994651733825,
      -1.1525317400979285, 1.824322840254084, -1.209301256691459,
      0.8550469202143983, 0.17496479261683107, -1.9525430064792995,
      -0.30865894289950513, -0.12595977295347052, 0.7623510641654823,
      -1.9202328079757918, -0.3920028980551219, -1.7926904669071857,
      1.5724317865733757, -1.1779704645061224, -0.39263164019641134,
      -0.3100632726219573, -1.7020599081794283, 1.0083576737625763,
      1.947741485330029, -1.6396647202032528, 1.2854949395327142,
      -0.6148417553678717, 0.5752047021457712, -1.71991081090276,
      0.3070413717007707, -1.4755779927825017, -1.399284192384287,
      1.5383164459700718, -1.2241729379479853, 0.4429925036621624,
      0.7692100269992974, 2.1444248318157197, -1.823058300496939,
      0.5435495019051466, -0.5483910019817742, 0.325660636826141,
      -0.7974107293294109, 0.460456283701651, 1.545305821585871,
      0.04018029741750953, 0.3282396634579652, -0.6932758679421638,
      0.6330216867471616, 0.2710349059000467, -0.6004388038266198,
      1.0500730668934772, -0.9288953806337527, 0.811830540497345,
      1.3687617710292708, 0.9709860801137427, -1.235394673599814,
      -1.2020591851460236, 1.5416973825175544, 1.1379620992797053,
      0.7697231175080482, 0.5398650696029963, 0.6082182059340204,
      -0.6989431103715921, 1.8037352216528375, 0.3773275150537322,
      -0.07072604200282377, 0.07642480655968736, 1.0123238891759074,
      -0.32294312385499546, 0.7750023457425116, -1.0236875354035078,
      1.5675154391148527, 0.1367383856121771, -2.3656994934257667,
      -0.8714607986959886, -0.4833833236806956, 0.35657454205212274,
      -1.1126706946827611, 0.13375915379069145, -0.913274790489938,
      -0.7164763846133799, -2.397901205248939, -1.9507020383788203,
      -0.671088218134619, 0.3796336100074218, -1.2690497389400632,
      0.768081062723671, 2.217989289751596, 0.05212524168145985,
      -0.8533665421508464, -0.43667780016488555, 0.15125194369854877,
      -1.6738949284877345, -0.31414693666155435, 0.17099882163277189,
      0.9537255799259232, 0.6410626757561403, 0.24594292357923575,
      -2.20680783783382, 0.5613026595544877, -0.2639875853950525,
      -0.8091643972421078, -0.20496733360884728, -0.2505478026623024,
      0.24023004260075714, -0.01907121250301383, 0.8755072927057285,
      0.17302185639199566, -1.8247337476518781, 1.1130493206774414,
      0.7571883512440161, -0.507424146342125, 0.6897002377190674,
      -0.3655156252901099, 2.0439279330139897, -1.811759327018659,
      0.4468280768542086, 0.6875994703320573, -1.574351205226672,
      0.9866108268437093, 1.2871266087758488, -1.3050017123439737,
      2.0943221525156717, 0.2336117768788937, -1.1140145622108981,
      -0.9500704987494623, -2.0919613707208162, 0.20508611942502922,
      1.7669719423935248, 2.0749100796974407, 0.41244012600876745,
      -0.2901731167941097, -0.2091790541015052, -1.1312582962276387,
      1.4429301212771035, -0.14451493771978638, -1.547176311090891,
      -0.04295483463883819, -0.5463711428608666, 0.3787468927304459,
      0.9776194215188094, -0.6948832308584172, 0.9587420451481138,
      -0.06356604180529996, 0.3584524924037945, 0.7418628046332523,
      0.5655018806601041, 1.2504184519558355, -0.254263060692572,
      -0.16854635615733116, 0.062242246075564486, -0.8161367117420203,
      -0.25099254794448184, -0.9341357266832739, -0.6378338780342981,
      -0.502230464040961, -0.5506823445280167, 0.050168259136680236,
      -0.6120707761540795, -0.08677781206190091, 0.4008290748875123,
      -0.3575902486430795, 1.830307580886772, -0.8231680687975682,
      -0.7767775705823741, 0.08437603305258948, 1.0014699591504777,
      -0.7862305126665915, -0.3715134864993256, 0.6441962480098355,
      1.0610251305751845, 0.18785540888789676, -1.4156295902291933,
      0.32258959369973916, 0.5899520524883999, 2.594113826431146,
      0.18886669366969452, 0.07372487933757316, -1.603357640432781,
      0.8075514881267734, -0.9431122135901583, 0.23342667872968365,
      0.22864741698264202, 0.2550663717569705, -0.09698805428459756,
      1.7839954293176186, 0.7355142666768136, -0.1803114543503737,
      -0.2022261062774517, -1.2376160939779575, -0.9266143003776871,
      2.2364513659603933, 1.0334861902833083, 1.573242336820166,
      1.7532091633311662, -0.890787287426283, -0.05865486820656566,
      -0.8226629519622611, -0.6150943820124603, 0.44286819085293305,
      0.8925111230008466, -0.26465800272895157, -0.2505379078324316,
      -1.1454870606954626, -1.1615855856704396, -0.2800372062429133,
      1.0692495627904124, -1.254815763506169, -0.28985573494798494,
      0.6322314743093209, -0.23781671151949138, 1.6086745169738101,
      -0.6203889037611928, 0.7526808698980026, 1.0601288552317116,
      -1.3210692802122725, 0.0721442899230601, -1.062766040162882,
      1.0219125546635255, 0.5170868119841112, 0.13484708997755085,
      -1.4552980956814356, 1.340705642608321, -1.9268466113235723,
      -0.33157000684584736, -0.05504698679327364, 0.42363468401043686,
      -0.49885636538086076, -0.7453653438637744, -2.141658360828105
    ],
    [
      -0.6468225108192885, -0.35778176644264276, 1.0523077222795154,
      0.6711487630461666, 1.4456899607797031, -1.1711901937024123,
      -0.8174723667451816, 0.21373202630752614, 1.1076036856261646,
      1.5547965413930265, -0.6702339238748857, -1.2356202577087079,
      -0.3871299693571338, 0.7520714569737924, -1.700017603367714,
      -0.7147384229952668, -0.22801172736934952, 0.9503596956935815,
      0.2966270367463251, 1.401396162244065, -0.611470413514378,
      -0.9093651962452942, 0.21189992921901865, -0.10965931106785388,
      -0.7193697310365371, -1.938683545664175, -0.47596550666789966,
      -1.9377867551187402, -0.9454338181604349, 0.07296334809270227,
      -1.0081519353683412, 0.12036664227486212, 2.2759858958324806,
      0.15027300492701248, -0.789440426987858, 0.7470171856794922,
      -0.34834576414126417, 1.4276717004112935, -0.44979182404237983,
      -1.1870550919772724, 0.06917836838758636, -0.16463086399562143,
      -0.42267788526974914, 1.6016620488886828, 1.53356419466082,
      0.27840576494550917, -0.10362436521025808, 0.6467737164730182,
      1.2896071762231114, -0.05821202107640421, -1.0168763403441108,
      0.29492367229259975, 1.2878496382250288, 0.9936032061829865,
      -0.33662888843673455, 1.4008642266690718, -1.3717208908791603,
      0.06270639016227483, -0.48491241774310806, 2.0115583228302834,
      0.0575575916387679, -1.4556946798964696, 2.163717786025802,
      -0.17254674382208848, -0.7808997909874899, 1.433722543127179,
      -0.0381944748297333, -0.5208395869305483, 1.1622826647227993,
      -0.11257791042903045, 1.25459506289003, 0.7876693348772397,
      0.5142381468611831, -1.759073431596213, -0.4338405103495079,
      -1.3043735189550887, -1.1267438990032956, 1.8525645821924326,
      -0.22497911230114154, 0.40402302768083037, 0.7420780233891828,
      -0.39716186485210003, -0.6802100112701535, 0.04748855337178093,
      -0.5084925515684733, 0.21525993991264086, -0.7150614663534341,
      -0.7205713087040935, -1.9841688306204233, 0.26401414811200813,
      -0.4793633410545876, -0.2944616432147261, 0.8146160071699989,
      0.19355651659405418, 0.5175256387398626, 0.3039709991354188,
      -0.6950814984532792, -1.3906816849620922, 0.7984410644952774,
      -1.3293541201950654, -0.6195146593371258, 2.5181990222665944,
      0.6065262277202147, -0.3866761267634259, -2.117845485799295,
      -1.119110162686062, -0.47303524256973045, 0.3900642158418341,
      -0.17282304063881335, -0.3448585096399102, 0.34703298764344265,
      0.8434408418050655, 0.6869737268890233, 0.09084605187713234,
      0.5989034506117658, -0.28727469718605775, -0.054977274541351685,
      1.0245966743287216, 1.4660748445637846, -0.2160591124925702,
      0.43779769777984323, -0.5854903248508608, 1.793878908961785,
      -0.051123761500045606, -0.5338038069094503, -0.4893926571305583,
      -1.6751175149398834, 1.2069654044736922, 0.09008759907460787,
      -0.05209877246087848, 0.7747034277512569, -0.04010952851301358,
      -0.9258910505308171, 1.2345991866463075, 0.48843678206532926,
      0.035784357492265696, 1.5330175770800127, -2.04254244863261,
      1.7274333743661974, -0.24583303239204052, 0.2319646264493012,
      0.24353377827465075, -2.00687059836914, 0.1009263892254529,
      2.09982797814025, 0.5892130622922723, 0.9955761353103147,
      -0.10602179391539636, 0.08686078060303958, 0.5978665181484341,
      0.4478583132828359, -0.8712112475007354, 1.2116664716433816,
      -0.6165657519655149, 0.7438856362471337, 1.1458288641776353,
      0.12475790796694308, -1.7112134438098894, 2.4992635736593174,
      -0.19747309526591986, -1.4516601053314544, -2.4085111399246504,
      2.510516876431649, 0.02083855504010534, -0.06503851420296305,
      -0.8447920640110809, -0.41798034137643864, -0.4649378399669834,
      0.9195502871758177, 0.4431753167078094, -0.8890738843311762,
      0.3175170235789681, -0.3320449108254489, 0.5159301978802757,
      1.0960387001973817, 0.045733133629666294, 1.3936945879092681,
      -0.182900122446045, 0.6698765430761471, 0.46585081149978946,
      -0.9071097849734667, -0.29021682892555245, 0.34935323246370414,
      0.07962158251864122, -0.30724969439062844, -0.1425752034034202,
      -2.948362858586502, -1.096502953140115, 0.722645736809755,
      -0.6818889597567135, -0.21826050476487804, -0.49315945612807693,
      0.331284566757115, 1.6713348098512826, 0.17202945725457838,
      -0.13600056121833304, -2.5104218986173867, 0.9614117354675865,
      0.6527101656114946, 1.2429318662032314, -1.3395876777237277,
      -0.4388359198178712, -2.116352231752151, -0.718860990648588,
      -0.7536856490061313, 1.8085365034061065, -0.6954742637755353,
      -0.9857625008294575, 1.6836149060470307, 0.6548359323100927,
      -0.20660348055281935, -0.12735250629667028, 0.8926613013624165,
      1.7717799517868456, 0.5063333939561977, 0.25644108918381736,
      -0.5045645888651744, 0.9578771793817001, -1.1972169913100077,
      -1.8726377437552846, 0.9597678912941265, 0.2976050025745524,
      0.21407022764061498, -0.542622001021747, 0.3801237262407459,
      -1.0750138604292, 1.880735447472149, -1.2903168035424026,
      -1.0786358000170893, 1.1628858483859141, -0.91830999765444,
      -0.7225941461812143, 0.8910302616746345, 0.435318081467929,
      -0.4541441365767599, -1.3904123433910576, 1.4801367156437335,
      -0.32211395379453733, 1.4285768243117032, -0.7876699200153512,
      0.32344908344337747, 1.600751211246859, -0.6787966023246176,
      0.5725016831635572, 1.3684477097344403, 1.3776708921345004,
      0.3976074003477504, 0.4942266864692499, -0.015455420471691357,
      -0.06380683340540584, 3.110961879660692, -1.3638891694534703,
      -0.5225933231996754, 0.8302273189766004, -0.2422418764355535,
      0.7448513333644257, -0.15075148825381882, 1.1025291476919288,
      -0.5611804388129029, 0.386973273054657, -0.5647300550428215,
      1.0531417606524662, 1.44717125888714, 0.17656445703473586,
      -1.0551285661817935, 0.15290910459267756, 0.6796754214818225,
      0.027655630555095706, -0.07731862246687188, 0.23368280397422606,
      0.13226963761162125, 0.7275664591352199, -0.6658080157210533,
      -0.918064122781562, -0.4311668907363514, -0.03645991614783205,
      -0.9819868021336667, 1.3694477453093163, -0.9247554963748066,
      -0.9475781953494581, -0.08421227644385086, 1.0780162703753615,
      -0.014246553888169615, 1.2276551650194294, 0.14887332340386786,
      -0.543597116434947, -2.2532544713477636, 0.5815720152003997,
      -2.631221835581895, -0.6781465269219467, -0.710238666202362,
      0.618806010462828, 1.060464395835881, -1.5693073919070164,
      -2.841313833338392, 1.0005818698790037, 0.3365461625506329,
      -1.1406388468084758, -1.1173349010496292, 0.8098630036118016
    ],
    [
      0.08291702021811231, -1.5905448006755731, -0.7834987096841497,
      0.20433498777957543, -1.4005144403481846, 0.8546774926400986,
      -1.8545256616751264, -1.6916719399974678, 0.045603543015060935,
      0.4584431839893942, -0.8056278284135724, -0.5145301043698017,
      0.42994581655619296, 0.7006226362021297, -1.4048833185330911,
      -0.721527544292728, 1.3027671089322872, -1.0650220816605676,
      -2.331787648766633, 0.2869918619544529, -0.6141653679852299,
      -3.166595080160461, -0.04880644782376454, 0.5780514700718162,
      -0.7618621352135101, 0.314988903854088, 1.8637546338089548,
      -1.9286877835883462, 0.07519777650768858, -0.5520257332749036,
      0.6751262143419612, -0.09804041869012686, -1.1612102599861063,
      0.9736462420704661, -1.3957493173709479, 0.5993015707793116,
      0.08830682124133885, -1.3784879231471292, 1.0315288073560571,
      -0.08094862853947091, 0.0847516948778827, 1.8507472801703961,
      -0.960295436580649, -1.8859934766205126, -0.3546310186903437,
      -0.6746588509624801, 0.12958221630500694, 0.4455313137762492,
      -0.49132131292649034, -1.1228320868866846, -0.9183493633906442,
      0.6771679147623592, 0.3940890002949283, -0.32437653016581675,
      0.2793351409592049, 0.07880956808169377, -0.2287937077866943,
      -0.9929678360484147, -0.8739357596058035, 1.2016639141285612,
      1.7511354662872152, 1.2741545688084637, 1.0302886397101338,
      -1.4801785125246576, 0.6716174640945186, 0.2426962915735053,
      1.0308365103276593, 0.9946704113707729, -1.7295992141802081,
      0.3482974411357527, 0.3368856717866683, -0.1219804206318213,
      0.2173215509738941, 2.9894891070032403, 1.5824731475801774,
      -0.5353864131870618, 2.2338280706718967, 0.45378040883290155,
      1.50453895325022, -0.01163495303638195, -2.2909178847913925,
      -0.508973480318653, -1.2481292847509924, -0.3814919348033858,
      -0.456477423909842, 0.08475186909249954, 0.9983375881721294,
      -0.012488912810960366, 2.1289597192813097, 0.09515061610220558,
      1.5420759881261301, 2.5146824818941456, -0.3033057294743112,
      0.22385863868077163, -1.0298392653377433, 1.5802319181000106,
      0.2773138222123696, 0.14013254078102289, -0.14901248252966964,
      0.46474065956890726, 0.4088606473576813, -0.3971766455942448,
      0.8101009951889195, 0.7971621046563603, -0.00748372508655843,
      -1.9659655274198868, 0.9549617192986236, -1.8851922225703106,
      -0.29359098479927115, 0.18195222626190716, 0.8348952820615716,
      -0.128447190929629, 0.42324883726553486, -0.4020108950491307,
      0.9621203427025729, 0.7614592198649993, 0.019622584632641257,
      0.494019286302403, 0.5026017214845262, -0.15768278578893188,
      1.405526303692759, -0.9419138085900841, 0.37693713190692224,
      -0.3877234379503665, 0.215635655336418, 1.1621766421278543,
      -0.1849170992808697, 1.741561375193288, 1.3506850921403637,
      -0.1788476998549303, 1.942795848271296, 0.6286773117110156,
      -1.6087215533910089, -0.3682188161281564, -0.1737084810478231,
      0.60009240323623, 0.20914787924411485, -1.0909875105291116,
      -0.17747408277789806, 0.11742458159552915, -0.2868144783826981,
      -0.4043869800803404, -0.45476773098609086, 2.2732988276522876,
      0.22194996588966848, -1.134391976664469, 0.964183508213419,
      -0.6697705896099369, -0.8362767413270702, 1.349350805370717,
      -1.5550958325332216, -1.453479834155958, -0.2863498257668072,
      -0.2522284004438907, 0.7737874425002979, 2.0190713382451957,
      0.2825937388782071, -0.734733677798979, -0.16953667105652237,
      0.937165361697532, -0.39706612409139513, -0.936630464223483,
      -1.5595660459606802, 0.6449449771027344, 0.878191733746922,
      -1.6620528058932036, -0.41308486707536113, 0.8591208772090649,
      -1.2899933338610954, 0.024752540566572515, -0.46444768379646706,
      0.30582970372436546, -1.8453018017086191, -0.39609122893327764,
      -0.4789671873981903, 0.5172157819944189, 0.5378518917172738,
      -0.23077962443761277, 0.4977352919047752, 1.2452724186963646,
      -1.351018107183092, -0.29275017322364555, 1.78953231087595,
      -0.12048785633534116, -1.2381810836498386, -1.9478809513317252,
      0.2782760414006773, -0.7697884014310963, 0.3598506753302866,
      0.6639456331909461, 0.32043738573825903, -0.733585406958374,
      -0.3796027222140206, 0.46051193426357834, 0.157354695939792,
      0.9817634606032438, 1.1403637229930985, -1.595013836548941,
      0.2798940610791728, 0.701272001068843, 0.615358572234495,
      1.2631548687064857, 2.413963001517737, 0.6071556258264938,
      0.5908960482364217, 0.47238055310238486, 1.153238499622801,
      -0.127393471746339, 0.7374787559149533, 0.038003298090452525,
      -0.9850263129300898, 0.9420680759867645, 0.42579598003739705,
      1.2120480609611735, 1.0969662971062797, 0.5099891547780446,
      0.7153386261915757, 1.38892440212205, 1.686222305807561,
      -1.1902040286485671, 0.2104786846383557, -1.7641833951087578,
      0.10447146713137748, 0.6511902169781258, -0.14412904019782502,
      -0.043134448742550374, -0.5753832431791982, 0.8545987596283896,
      0.4859808488512781, 0.9548544447512061, -1.1204907682095122,
      0.011550237027987098, 0.8848511334585651, -0.891048209192879,
      1.3713315808726856, 0.5226322982736104, 1.7694954347572358,
      0.10588601074109716, -0.37033645843092655, 0.13190187991170435,
      3.128645669007692, 0.6611144072213959, 0.22413938785891077,
      1.6335730827744983, 1.7334036040339984, 1.2698299878682282,
      -0.08547968089830328, -0.1641238234787256, 0.038175602025064245,
      0.8077355851914049, 0.8481158639326022, 0.7120409301544123,
      -1.7691726246912398, 0.9129052105364455, 0.9419533440937928,
      -0.1609938048160582, -1.257983489125896, -0.028146083503400567,
      0.21620036184125835, 0.26787367311064053, 1.0993052111301915,
      0.04453761507756803, 0.3117749518041489, -0.94326601960349,
      0.279338857166529, 0.677374345277098, -0.10473804360335916,
      1.9266119831344939, -0.49099083014824874, 0.8336737894946948,
      -0.09403488187509292, -0.03840073849532197, 0.3608710050888686,
      0.38627721734128456, -0.5783043314456661, -1.0594428023199558,
      0.36687955650155335, 0.05870832972831468, 1.8866627633452615,
      -0.3790918972988466, -0.08804258120850354, 0.33715765873215986,
      -1.0353295442129749, 0.9129897225343584, -1.3151969464997963,
      -0.8177645242118748, -0.994923258057424, -1.4629264288398165,
      0.5954467957957612, -1.046520523946059, -0.5345075407231457,
      -0.29940458997691066, 1.161803467710978, 1.8256261359977801,
      0.5832124599087167, 0.6424329982464623, -1.0022555786700165,
      -0.8195987793776747, 0.25137459195844813, 0.33157316212165044
    ],
    [
      -0.17208452386798034, 0.3965954518195297, 0.8958285394936019,
      0.9512768440578011, -0.05889692613833477, 0.14310190256528676,
      0.11740266384226332, -0.23298695134962286, -0.21697569543053524,
      1.125642007860491, 1.5863041961137552, 0.627470709304041,
      2.451129098237484, -0.6704397620423443, -0.97055921223942,
      0.9226344781715152, 0.3363082831034118, -1.2899795174303539,
      0.7147156377495872, 1.2144124145153539, 0.720411239389122,
      -0.03453879486174921, 0.9325197765285161, 1.0260559785785062,
      0.545108206659476, 1.3817346744443426, 2.087470971155023,
      0.1491162170883341, -1.5137430686043698, 0.5145696651166325,
      -1.2512881858125793, -0.3196474934822184, -0.24403030464851883,
      -0.2796381994995815, 0.3656686517873206, -1.9386117794592088,
      -0.2553489137802954, -0.45273603212227015, -1.088653652038566,
      -0.571185347643966, 0.7156414269935031, 1.2480588919809275,
      0.6897928800758204, -1.5463242671450492, 0.5314699378120366,
      0.5695205292628835, -0.11899840707288235, 0.8264994827304889,
      0.9740687407971026, -0.1934075487117573, -0.21251131243666183,
      -0.5479281413976751, -1.171001153152666, -0.22747245416980763,
      -0.39809695819529123, -1.2764743953444413, 0.7964344409001483,
      -1.5072237096958958, -0.07059007685980015, -0.033008351985781864,
      0.9675129713869715, 1.848630077656142, 1.120708616592931,
      -0.14019697161493952, 0.5337427613828248, -0.09610662850623786,
      0.5048789054044066, 1.5481788762995148, 0.13758887495192035,
      -0.3435403553873437, -1.1377528746022856, -0.32556221135870855,
      1.1313504247369643, -0.545879024067614, 1.8098355961088755,
      -1.5979603314220456, 1.735614260514246, 1.0653178955994658,
      0.09716704229847195, 1.3910659758521566, 1.3825970310316233,
      3.35250973830171, 0.7868925091149764, -0.2640455998160573,
      -0.5358452655656332, -0.4567730540135651, 0.30933872737172075,
      0.291589639136017, 0.09633040669491304, 2.128235145851223,
      1.2672844452959835, -0.9884367794131678, -1.644428470861412,
      1.2087765079820918, 0.060688519655111024, 1.8529095276039367,
      0.48983761631122796, -1.0773989713067327, -0.7872911607291851,
      -0.021782305029146326, -1.0175212673390301, -0.48408432440605087,
      1.0746848499844328, -0.04856302270568401, -2.328622694818397,
      0.5295646798336641, 0.09757487016439609, 0.7175080016189245,
      -0.14477357316159917, -0.4360160248830952, 0.3366459742820388,
      0.3079939168647774, -0.28672493519696646, 0.3830754227829333,
      0.3461604489085552, -0.3451403851471857, -1.529140474824631,
      0.42545827439598777, 0.5178295388383694, 1.1757527388260394,
      -0.1985539801890116, -0.023273655380019225, 2.0464698121714315,
      0.013642715601520358, 0.41429972012235383, 0.06510680326871542,
      -1.2762315410109342, -0.5323828673491903, 0.04094947191050487,
      0.3365761496039706, -1.8489428655502531, 1.4556709234021614,
      -1.673159821820996, 1.0738261797599338, -0.1933400335334832,
      -0.5787430663301923, -0.4513017073936365, -0.8790707653381399,
      0.1850037658052351, 0.4971340747156088, -0.7889666921635508,
      0.22294003590065173, 0.39884215827677333, -1.9820283152345914,
      0.28662929459343395, -1.1828231127741375, -0.5770516649557382,
      -1.1235356555487217, 0.47957035584048135, 0.7114304393661316,
      0.851602167191285, -1.2631868388993543, -0.11414458409026848,
      2.2621246616390556, 0.40375459496278443, 1.0531785515362186,
      -1.064259212804096, 0.16566176982030972, -0.04348021050692498,
      0.8610006439888152, 0.21425529474522093, 0.9613420682654973,
      -1.6473374970981536, -1.0001113883515498, -0.1226914276156986,
      0.20065039399192056, -1.9719365749762634, -0.6620036636458292,
      -0.09619488752144995, 0.7792754512900206, 0.7057244387767019,
      -1.6200492352667064, 0.18825526737646656, 0.43152369283108744,
      0.17538628477413465, -1.5877341733997257, -0.3831599021246264,
      1.3287058065631923, 1.0603094365687413, -0.976843657554063,
      -0.6432273291982064, -1.7889454430755851, -1.0219879432928136,
      0.7008181097619643, 0.9940725670494774, -0.8886507347987107,
      0.1914902183113619, -0.8210602603043473, -0.2954214759651967,
      -0.7641999201684372, -0.4526559433187212, -0.4659727249851498,
      -0.6101023369133186, 0.679029306636337, 0.5487535666610981,
      -0.866212948411463, -2.0304923575779177, 0.011986268169792964,
      1.9833315460503835, -0.5871635866686411, -0.6788807484858055,
      -0.9687992422251326, -1.9546027412217406, 1.1379085570381273,
      -0.32923632615543935, 0.43006527539919676, 0.7415558792005255,
      -1.1464443851733188, 0.3127037843337816, -0.4782558459474519,
      -0.24629264536793447, 0.6347379502908066, -1.6584580781275005,
      1.8098754865750344, 1.2312630675959937, 0.9161710178752994,
      0.9386582554077877, 1.4917267394158666, -0.20648507011390269,
      -0.8147300212536952, 0.7512634462000422, 1.2463122610897934,
      0.6603584197158896, -0.46561036743588213, 0.7396764015716789,
      0.22136142986140278, 0.41123717923400244, 1.3328052336772012,
      -0.1712913994262377, 0.29509651405014375, -0.2691147852480484,
      2.4406038626141586, -0.6376005737143361, 0.9364118550854846,
      -0.689275232445926, 1.2649338655954847, 0.739368216351418,
      -0.7761791826977562, -0.10971377506345364, -1.9901833871680257,
      -0.5300041828581323, 1.6340502902339689, 0.8353277698716403,
      0.8233840985396134, -0.9295074761326596, 0.3625861657299188,
      0.13272752952915037, -0.4489163521354964, -1.46048082872377,
      -0.8171895041187854, 0.427716770026679, -1.3552651772546929,
      0.31399391674170957, -0.4739558804817659, 0.20449103999737073,
      0.008432011993665452, -0.43446096645899024, 0.5493073374712308,
      -0.5071841800572089, 0.2129056993821291, -0.05708258924988093,
      -1.2875489996402663, -0.39980947260017075, 1.2366250968920685,
      0.47509693602496506, 1.2728807412663905, -2.170367163914831,
      0.46759319932506543, 3.2120339439990806, 0.6316310949604584,
      1.0978532620778239, -0.3075233297567763, 1.8902748327450718,
      0.13848800820315818, 0.6992120987818534, -0.26176040434416986,
      0.10989574631749069, -1.1165871355276717, -2.2185784307745977,
      0.3841258127477065, 0.2277078582306286, -0.4139924587270218,
      1.3037764097877815, -1.347207009569727, 0.1532905706540387,
      -0.8103454193636985, -0.1840505228326281, -0.5595309466628898,
      0.5827384136461662, -0.030343419565973053, 0.22973014221480947,
      -1.9918071648840832, 1.1522132818028454, -0.2690775488323432,
      -0.9647443368843559, -0.5124872243056489, -0.08592318795071588,
      1.333488489096796, -0.7250300807841696, -1.188559642957822
    ],
    [
      -0.6034753084021713, 1.0941982721214085, -0.44568092190415987,
      -0.03723518829253625, 0.6169658607456695, 0.8287303547837986,
      0.5627256469640932, 0.25067521156617756, -0.6351198869107838,
      -0.31608522043475284, -0.02713368304813832, 0.5289819662023475,
      -0.44492229603290273, -1.1881373619939732, -0.05292678835881114,
      1.7036238398419894, 0.15535247364657043, 0.38635221291033595,
      0.14990525550463554, -0.46859809282712694, 0.9095820164944769,
      -0.323531105500155, -0.044770509745116184, 0.5053277437232082,
      -1.253912730530321, -0.5707665229687732, 0.015986554550796398,
      -0.3438363098193548, -0.33784486177920214, 1.7597979071778656,
      -0.06496878835951662, -1.359266406308734, -0.7275715853958378,
      0.3944321778094995, -1.4586005001704783, -0.42766570947650134,
      -1.274453803613673, -0.3420218132545467, -0.826866550369282,
      -0.22682107599686877, -2.0132329220070515, 0.03435099973791231,
      -0.7516897717383558, -0.6717461934491809, 0.1354708388575986,
      0.6847571469295656, -0.9688911465589352, 2.2538140231423314,
      -0.131107830559829, -0.5264169579058766, 0.004317596574471312,
      0.6647811341354865, 0.08194923840394054, -0.2840543806626705,
      1.6309912696189397, 2.057598767092844, 1.6951256146341083,
      -1.2241837498744466, 1.711358782045654, 0.9791738242228467,
      -1.2625059145641697, -0.21809191795644847, 0.2890879541974527,
      -1.6595225993803013, 0.3815206953994869, 0.664919069988372,
      2.0838263060694966, 0.6220142949667548, 0.38242505969883844,
      0.05101348349659571, 0.3440401017406346, 0.586421736077591,
      -1.1989807848904854, -0.19807129797554782, -0.8349556415315429,
      -1.4736724975177833, 0.393724909137319, 1.0383876890736898,
      0.6982091857554399, -0.6438963899984828, -0.12238376945318964,
      1.7332825439643902, -1.395382302374248, -0.920605246182129,
      0.8253978286338538, -1.0798115334998437, 0.4429176100822469,
      0.31681533728001554, 0.06570552537736433, 0.022182619358530095,
      2.0876969350352548, -0.39311643233089666, -2.2172719540838806,
      1.2847341035705435, -1.2024390301927628, -0.8763764462499625,
      -0.16818550241559208, -0.45550012737719947, 0.03220611932343982,
      -0.08839999685990811, 0.4987903950263324, -0.06260180240350366,
      0.3715748508252076, 2.6243642686590176, 0.22941277791180306,
      -0.47403751460525934, 0.7310327843329509, -0.6880965714707807,
      1.265882096799496, -0.859531824173162, 1.4248695749556801,
      0.5252211158512713, 0.9660361526119569, -1.4993011110932803,
      1.5423454472933884, -0.5126292960304331, 0.5039177545882874,
      2.017441145842239, 0.17274848792852837, -1.3890918428139216,
      0.3866219593165604, 1.0964418352966434, -0.44346880689944973,
      1.490374173080917, 0.06024926705662947, -1.1928954458959842,
      0.565270625706855, -1.548503090544869, 1.359451606698741,
      0.0900156595017399, -0.4534173148096609, -1.0581970842406716,
      0.6406230537343491, 1.796749696752563, -1.727119776116086,
      -0.8546301347927162, -0.3769138137003568, 0.6582167144166747,
      -0.19863653150107172, 0.8501943018035419, -0.821899434302235,
      -0.8825317695995052, -0.7597585162537361, 0.12028295582701044,
      0.10306962264611581, 0.010573935923793598, 1.0036990414292328,
      -0.9386806029864145, -0.01619026976403489, 1.3500143779178846,
      0.04034619344602442, -2.3171667683805715, 1.249681495471256,
      0.9091084291610945, 2.1555267496154378, 0.46502521077825554,
      2.526781417599178, -0.5503277372799452, 0.6672502306896139,
      -0.2269478595443872, -0.3606049921555628, -0.22931365876118598,
      0.7988762410099779, 0.49921832463631516, -2.558323699890037,
      1.7472701906476202, 0.5498560961090829, 1.622524699489027,
      -0.1682988945448318, -1.133264584031528, -0.33126662433139775,
      0.3692909938966462, -0.9588106848502294, -0.6681782919767861,
      -0.3372203600950646, -1.12623106235983, -0.9872399532601465,
      -1.1335208867031357, -0.9808432040293779, -0.9019326155568417,
      0.4036307858709407, -0.6544409204204857, -0.36166672958496504,
      -0.5983372968309004, 1.6329369904674587, 0.5227172371003098,
      -0.22565111369043958, 0.8720650242991472, 1.0773098413541395,
      -1.160016920102088, -1.1038883425676471, -0.4842205329947906,
      1.3152053246970037, 0.35480577151527976, -1.0159468803763627,
      -0.13568605788419838, -1.2367104715923791, 0.6505251403832494,
      0.24127190661897843, 0.5910492467125557, 0.9114863608740498,
      1.0097093918483726, -0.3517652828954294, 1.8483856916477688,
      -0.4328402189458343, 1.6249139216605166, -0.6101378044950376,
      0.09132025273673228, -0.051791919014233634, 0.6021200181833786,
      2.0184966344888786, 1.0907336525414828, 0.8548392981763656,
      -0.5939097866814624, 1.7667636060934286, 0.8126286342252232,
      1.2825381293238238, 0.8705690790986117, -0.06569779388200428,
      0.4112891906041423, -0.027591546881926447, 0.9506098754090502,
      -0.7759126892326355, 1.088454785449052, -1.1939144477680832,
      -1.8265674470609279, -0.7189548473960296, -0.739996462889126,
      -1.5862245862880862, 0.34676166352149795, -0.3467210859903595,
      1.642463652357099, 0.9480909847139619, -0.7468624981570781,
      0.3848209628308429, 2.00082247104774, -0.5863094402835559,
      -0.3218662292264475, -0.8678121182190874, -0.710996650137182,
      -0.43878195779732826, 0.7208343659373584, 0.5077033338606657,
      -0.47966036802206236, 0.5710024291534949, -0.865027583470273,
      -0.9132204571052812, -1.9589992973037789, 0.7172258964728928,
      0.7691060653631018, 1.5758377508977828, -0.3566666981347868,
      0.5227242536059866, -0.4604559179567264, -0.29066265197425006,
      1.161096773022056, 0.5737458680340618, 0.20528499735022082,
      -1.035238226297943, 1.0756258871135231, 0.7896893987939252,
      2.7877344243616267, -1.1004608990320852, 1.2311219599584042,
      -0.073941404224303, -1.3669667599496786, 0.9227539691786535,
      -0.8158720994549824, -1.6728249063560072, -0.9636595312975275,
      -0.6501973499729985, 0.5336003216018516, -0.4535509250866959,
      1.093643070134512, 0.4288488285473121, -0.4767632101914518,
      -0.8312077389426523, -0.5097350422624095, 0.18436668320269772,
      -0.9081019476417028, -0.4162049005750258, -2.0919337703711536,
      1.0656651711410974, 1.0976197462090291, -0.8249194130922364,
      0.2676852651235915, 0.6386794296630007, -1.9046709252760987,
      -0.12839971402291486, 0.10667320173252541, 1.8137532759654054,
      0.4429824998138909, 0.09401200436144992, -1.1226027245416936,
      -0.7959962348891374, -1.9234050540392418, 1.962213332988487,
      -1.4419677483949065, 1.078652066977203, 0.3919708427516688
    ],
    [
      0.38175224681683956, 0.6896503306813295, -0.8260767377419597,
      0.6786340393677173, -0.1968354760643872, 2.631141079286634,
      0.7818579480746036, -1.3427349278710188, -1.2692292033522468,
      -0.44799557622349767, 0.9286503310557824, -0.40146107941953946,
      0.18424249569957574, 0.33938123498253464, -0.9247568782435919,
      0.07818615311751859, 0.21841936287927508, -1.2249837251874796,
      -0.5150371045127506, 0.014381501186465893, 0.27413907874535703,
      0.7148171390760379, 0.26841375246895904, -0.6880071737080052,
      0.7905272594456019, -1.117460701727427, 0.0342543729603264,
      -0.8470050576611274, -0.799812689106933, 0.8053915981996788,
      1.1742282959051105, 1.1880647230986667, 1.5497031875617855,
      0.9980051157690062, -0.889960081923856, -0.3003739681463772,
      1.7186399933454686, 0.30773261377370065, -0.47354026596808335,
      -0.41056643746615656, 0.1599594408848069, 0.9011781206903144,
      0.2819046841574599, 1.331588285880834, 0.14399375153779745,
      0.23724986671441436, 0.2640859855629484, 0.1743883793523556,
      0.11835190562050249, 0.7922976209273426, -0.369643701636375,
      0.6383677268049704, -0.4177537267685529, 1.3746433881181173,
      1.3751731427747127, -1.0306307621982622, 1.3807217113409738,
      -1.1893172580854914, -0.5628189626809638, -0.6514680272244779,
      0.982983069286952, 2.4674691618145097, -1.268319823786218,
      -0.0827538644491379, 0.49764987272657607, 1.1568922082006352,
      -0.479537197173152, 1.684005415395797, -0.3105570271325271,
      -0.6303013047143002, -1.4672565889962195, -0.8143072911056105,
      0.05041677990756846, -1.3031472141593847, 1.5232961269011929,
      -1.3778256200597396, -0.8377006247888469, -1.4760018753117674,
      -1.1859044845792945, -1.3369966871018333, 1.4692666884367547,
      0.01947675915371076, -0.041224775604518385, -1.363362749523536,
      0.8883174212238841, -0.864780377279437, -0.09293697519751597,
      -0.31876161878305276, -1.5792482585182164, 0.2210814559011864,
      1.968970834570921, -0.7061554974658787, 0.12904932893006757,
      0.16110422740818048, -0.935451040103347, -0.4176608237117061,
      0.22086046417744756, 1.8511892928028153, 0.6380683830411585,
      -0.11283977882322362, -0.02924002256572718, 0.9737121085311717,
      1.1976121628326521, -0.24619291994306772, -0.20142121577795621,
      0.366067577240577, 1.7529169558441764, -0.3736901660777566,
      -1.725998479127683, -1.171103595443539, -1.0569846771544391,
      0.5893082046952904, 0.8471833991616028, 1.732684081672621,
      -0.9185271133127263, -1.2797717908607888, 0.0227410783104193,
      -0.04293572598031596, -0.4175110649536665, -0.12200997081107728,
      -0.4816465141146191, -1.7132592703979936, 0.34743674317858253,
      1.590352609018696, 1.699897998608093, -0.9615201217375209,
      -0.32986009154928814, -1.7024410639208107, -2.231483949423693,
      1.3387228250459986, -0.4457263108563589, -0.060872872360114794,
      -0.2934863234666242, -0.310552057989598, -1.5155044439878393,
      0.16714623200549455, -0.1719900676541222, 0.010278312039459203,
      -0.6090928703771182, -0.37647184173428855, 0.9846089463323173,
      0.00197709999047909, 2.2908131495338906, 0.07503984244649717,
      2.1507629612772217, 1.322515339363396, 0.1428995672087514,
      -0.9376938610385939, 0.31765817914202116, 1.0510939103564376,
      -0.3450344261518989, 0.8233539502097605, -1.0000173759441433,
      1.7660787306040224, -2.126057233410138, -0.3634308530894154,
      -0.7377052707567642, -1.4401226281226007, 1.510029335274843,
      -0.89669776843922, 0.7695656964709552, 0.14499563080814976,
      -0.08440676538607697, -0.6018990249982499, -1.2118300717948,
      0.034292200285430986, -0.08986733488577829, 0.508149713777791,
      0.8133255074715252, -2.0703255927301134, 0.503367500277705,
      -2.251631123667056, 0.1651719279993867, -0.7525158621573225,
      0.8645218339740076, -0.20951011340164002, -0.9128769898759368,
      0.5009911318865632, -0.7362706188411556, 0.5339552289998017,
      1.840555146656524, 0.2432584448732875, -1.014139484565397,
      -0.9365149826862541, 1.4226651336822038, -0.7625495454023486,
      0.7791759554013462, 1.2211808819195549, -1.1761542617692002,
      -0.6655425108907068, -0.6696043181417706, -0.5586994174336956,
      0.10937781871492988, 0.5378129838666038, -0.27683535603924675,
      0.4783405473216911, 1.760902463314726, 2.3892862635051606,
      0.4987102044179823, 0.13031850590426702, -0.047865304426983835,
      0.41866776162888836, -1.0490830832679232, 0.043725710335105236,
      -1.410545491795794, -0.4880649724750789, 0.370971251557577,
      0.3847406251677456, -0.10759967330107252, -0.4936969829779668,
      0.5754671033677519, -2.390827669708063, -0.10896511710842831,
      0.6074053561948342, 0.47243125966310945, 0.8375414055557703,
      0.3211790109367172, 1.6787284068770143, -3.5944780039789035,
      -0.4039511664812461, -2.204151464646147, -0.16920609831536224,
      1.7700158899851972, -0.8457819538615152, 0.7632952049207203,
      1.7902322562629829, 0.873118673576631, 0.9418443689219442,
      0.400557952678346, 1.6022289954740072, 0.319974472139479,
      2.207963570394499, 0.7110230672662411, -0.4072673952436477,
      -0.787050729737728, -0.3230099201971629, 0.643521960798403,
      0.8405032698660561, -0.7753309369837943, -0.6211849541995244,
      -0.20596914215943976, -1.4987386220478207, 0.5062070162068412,
      -0.8270385922832456, -0.8392922534365119, -1.092997295850199,
      1.6344644934715824, 0.8804702596518704, -0.6534019209444879,
      1.353333727350512, 0.4342964192851097, 0.0005333824824377694,
      -1.3484321818834806, 2.1793565268550807, 0.7472339504547946,
      1.8136374540181386, 1.0627639506767166, 0.8471375301441466,
      -0.06112279265817539, 0.3537573469431153, 1.8419794361533026,
      0.38297807115462434, -0.7456171126915571, -1.3079717528328325,
      -0.8469295333534169, 0.3075166365133279, -0.9822925961243324,
      0.9033347730595801, -0.504241769067396, -1.1527452335157429,
      -1.215857287412841, -1.4442610302408487, 0.3984647017290032,
      0.769261597384595, 0.42390119979526025, 1.3630134785003059,
      0.4205627589079784, -0.6089453367975136, -0.8142370529191044,
      0.13976351536631945, 1.2791605426751245, -1.2071516101886095,
      -0.28278217503569447, -0.43895451731001767, 2.0406837323667997,
      -0.9609924679515319, 0.35990490545495035, -1.2439725762367726,
      0.6982659251062252, -0.27397013875825604, -1.8064387011122887,
      -0.8992639780194464, -2.0159011279739314, 0.796117500386123,
      -1.5942932137931414, -1.0536679681487784, -0.1704846329945411,
      1.2238812278040396, 0.6319766403985118, -0.052799708101560434
    ],
    [
      0.8004516019824481, -0.26853760876241534, -0.8958464334444192,
      0.16816853267800522, 2.5200021146416955, -0.23343919767168886,
      -0.18947097316574024, 0.8503760011704529, -0.739034668038504,
      -2.204592102028112, 0.4376418282425288, -1.161294188199306,
      -1.3434656184930476, 1.8244155766461938, 0.08422146855900593,
      0.9315620722525447, -1.7983708198934072, 0.7986766330123135,
      0.1414069950826935, -1.228272993918155, 1.6741308841023386,
      -0.2130410691779386, 1.2876047377189608, -0.49842561327887386,
      -0.37373621391939776, -0.29736467857074494, -1.4377934732686046,
      1.6312742489389527, 0.027967721224780608, -0.4191749804292551,
      -1.0069855502009648, -1.4045997852784287, -0.45254425552012345,
      -0.04781737304370212, -0.711412402400756, -0.36068955114687123,
      0.20440005631504113, -1.5362456827400006, -0.3612731192137729,
      -0.43651156623070386, -0.2952472901090949, -0.3052845657674896,
      0.3407376499480642, 1.2887904141833926, 0.15025829654923806,
      -0.1320858442173459, -0.2272796499476111, -0.9813984930009246,
      -0.4042914268544432, 0.5620739189628281, 0.05545497793025681,
      1.1689102817549895, 1.8569764144734033, -1.1757860212666693,
      0.8869054660388621, 1.1831758099999894, 0.6683563501304436,
      0.23579265819447526, -0.2536762969221952, -0.17765171203764812,
      1.3834113611133108, 0.9616007001079772, -0.9433622867998069,
      -0.24286704891884875, -0.3896600157024663, 0.4835372358684726,
      0.15477658514630577, -0.5711131473977867, 0.6292189455172565,
      0.10742989396507906, -1.6471209133679279, 0.7842602196776777,
      0.21159372582736397, 0.037202578863056335, 0.021012594024996827,
      -1.68386218707433, 1.3189498254382164, -1.3046608442024439,
      -0.30289564344970854, -0.5491643715274146, -0.05756411349782177,
      0.24565452333191953, -0.5651729328409114, -0.5561441209477325,
      1.4377243096083243, 0.43405383202264197, 0.6336920516564042,
      -1.0285166307020315, -1.298863866946917, -0.1500722110339861,
      -1.6448596427689055, 1.156794982798281, -0.19524457144384277,
      1.8951222825006533, 0.09595300429471512, -1.2314730047239144,
      -0.28734539269941367, -1.6173488247736694, -0.7182120691564963,
      1.4703940070727064, -0.17070909460457148, 0.35082550308942984,
      -1.3671196029857795, 0.33197143678834884, 0.085840149837862,
      0.07623386228512738, -0.18473630241588687, 0.888174555547205,
      -0.03756152717052759, -0.4437706041507329, -0.31656605099321866,
      1.4353629750455434, -0.4240701894957969, 1.417868311375604,
      1.5597981245144275, -0.5009516309288595, 2.249400445371064,
      1.5708840442861995, 1.9273335525807214, -1.374956643152881,
      0.285343817774622, 1.1029797564716568, -0.9567542894224433,
      0.8842888920343939, 0.9803292216916322, 1.0203741301400457,
      -0.4050505311224337, -0.021931533454727075, 1.6008903073800393,
      -0.12753325069111598, -0.667514016091053, 0.8335701784882289,
      0.36722103969533126, 0.7508414699153823, 1.4359757913784077,
      -0.8578187240705177, 0.5725614227662097, 2.214724675305462,
      -0.5793943940503254, 2.102546862744427, -2.637680076192479,
      -0.13247418049897192, 1.2094502060718801, 1.0931849955200317,
      -0.16560555277435215, -1.0982406307281196, 0.3811538627117873,
      1.3716479872553504, 0.32400313417259785, -1.3208587019722566,
      0.33712305153574146, -0.8418017194671237, 0.8015123973233667,
      0.45978818099254926, -1.4115397510137395, -0.7773024359732139,
      -0.36455994325067165, 1.1144910030336608, -0.8137006439815095,
      -2.3732614319910295, -0.20580155665003533, -0.25341240353985156,
      -1.2152900768322379, -0.09201549752886143, 1.1792041462691991,
      -0.23677706472393623, 0.48741348415801006, -0.07899759409630791,
      1.733495715123298, -1.116858863404539, -0.7120124874815166,
      -1.3215208184435983, -0.48207745100891636, -1.4798174326514035,
      1.486454714529075, -0.7231653408833845, -1.1391707372993487,
      0.24455206707567476, -0.5235226741102832, 0.3790456711337381,
      -0.2895641474947262, -0.22914024157326132, -0.019242500005566793,
      1.387310112099897, -0.11906314453693458, 0.06790090978209472,
      1.226787476337768, -0.797551973295145, -1.4025562491644978,
      -1.6658369166149316, -2.996615301586871, 0.6922394007535709,
      0.3793472774401339, 1.3640515278181513, -0.024016287001584112,
      0.5019351120122502, 0.05128442685344735, -1.3117322072868318,
      0.26110611833651776, 0.890361018228635, -0.3538538025223171,
      0.1336947634581946, 0.05348672945933318, -0.5499840105391436,
      1.4342140634236815, -2.223576550809265, 1.3555374778624614,
      1.2873596789176762, -1.1732169462290851, -0.17387588837689094,
      -0.2271278746607891, 0.3857334087816161, 0.41950093606826333,
      -0.05130591387916789, 0.8311692207382616, -1.0386039351533498,
      -0.5199119796251643, -1.4149582597704256, -1.2427416925982122,
      -0.19867569095852985, -0.5930735064406673, -0.2815895293191865,
      -0.21478123374179342, -0.9017965043287273, -0.6487974353475925,
      0.6147975141125019, -0.07303036936742992, -0.7786240655236143,
      -1.3617919838881252, 0.11315725013911647, 1.051419979723807,
      0.6469140311291198, -0.36399391189854857, 1.588797905216448,
      -0.8648858189687268, 0.29692039010259746, -0.9426229649887907,
      2.173089876374504, 0.5313902556360283, 0.25877876937110883,
      -1.999394297347724, 1.8709824559142076, 0.0537611690983709,
      -0.641876011664967, -0.3517166680414244, 0.1880471300523391,
      0.8858987705005005, 0.6897052161593058, 0.623352128694376,
      1.018121056732082, 1.2177060181756023, -0.531229771665312,
      0.014174454790591864, 0.2851111415952879, -0.3299143814501645,
      0.9000588741113872, -0.2195280702747761, 0.9980023182441524,
      -0.02617910568172716, -1.4184313829563509, -2.746481579727573,
      0.2777270635035592, -0.1926303400893063, -0.4004866718184902,
      0.6413805208037088, -0.3524230881422431, -1.4004306488863574,
      0.10549633050536879, 0.5995659440779265, -0.31194497995924597,
      0.9851773695443244, 0.29343458287150004, 0.909752863387418,
      1.9109166943434994, -0.5312203128457991, -1.9124354209486603,
      -0.3933330187448867, -0.4342685944750964, 1.4042869519793555,
      1.1113895703016776, -2.5257044152517025, 0.9520452836729364,
      0.4161360735764743, 0.21654518165522002, 0.21897141116856889,
      0.014425299945512398, 0.5264147618648286, 0.8396259929522899,
      0.3830106209959007, 0.3454262173937629, -1.1420106098220315,
      0.9337253255713632, -1.2256602619446573, 0.746260107967181,
      0.26313564804458367, -1.5950385474745805, -0.6825740445704422,
      0.3486205298123772, -0.8341304462819741, 0.2830260424674356
    ],
    [
      0.9466703960173223, -0.6478272171602486, 0.8359985914901952,
      1.5952150725160175, -0.8383276137788395, 1.1024414553982598,
      -0.9928074246967162, 0.5820166317959498, -1.2971362198493257,
      -2.2112459967723423, 0.03267200931715081, -1.9857235536196165,
      2.0659724155075936, -1.3525057425675515, -1.3307420274616215,
      1.5601544961099347, 0.9916847688491187, 0.5969808773360045,
      -1.4665755388309925, 0.3443267863199937, 0.662043390386161,
      -1.184812093450377, -0.47422172720255396, 0.9351357439747582,
      -0.08941566733663267, 0.26344381993005894, -1.0050413446827442,
      0.8683571041639556, -0.6576140826855686, 0.9441490023092839,
      -0.027131452527510893, -0.2476131084540929, -1.00688907961399,
      0.5843370156241183, -0.55736108117058, -0.5126363392232238,
      0.6286837934146243, -0.6309635573097893, 0.3910539717842511,
      -0.6413092871658775, 0.7832500323513047, -2.336829584655994,
      -1.7218787070062258, 1.5302632719969438, -0.22659034431098832,
      0.045848927542438314, -1.770935566012522, -1.0164870131812809,
      0.7942193031848491, -0.3303416374960498, -0.5048366433005739,
      -0.3562020478123991, -0.040534928676275964, -1.167063192558282,
      0.30982155226291114, -1.851609172900011, -1.064832132401519,
      -0.3820986401979765, -0.9715564925279199, -0.3487040138035867,
      -1.535824532441821, -0.04262032729365339, -1.7170888402560887,
      -0.17202545805019712, -0.02590614280589268, 0.5980891404576136,
      -2.161116829135738, -0.31852099688377544, 1.5276755552348802,
      -0.6454458734603644, 0.006121458827683748, -0.6786827300098031,
      1.7418471813829048, -1.0533366645393112, -0.5745646909328167,
      -0.3899672674032836, -0.09102396719209059, 0.09296294489768868,
      1.6187370492287119, -0.25495874060608725, -0.3622574438105702,
      0.6481098840361489, 2.2763883235093747, -0.23165232645771366,
      -1.5182722425319088, -1.968194579032712, -1.2022730479916974,
      -0.38726404824566013, 0.512530038904112, -1.3969029237901673,
      -0.7670356348850146, 0.3378836987633501, 0.01179024523223483,
      -0.4563810400992524, -0.781744831342088, 0.618361512029311,
      -0.11285163693184098, 0.41607846193965553, -0.6609077840613158,
      -0.8985206409505686, 1.718598403564512, 0.3056848296269392,
      -1.7545231532704244, 0.23663222472156437, -0.17891741286826873,
      1.0597382186164819, -0.12791561837428725, -0.6204604022408287,
      -0.8664398411565709, 1.2415035505906045, -1.0063396543049783,
      0.7987692271508948, 0.6497331043778714, -0.5793382168908309,
      -2.01871807837481, -0.685344038611836, -1.2187396061310227,
      -0.3400231781074809, -0.44603734260419037, -1.649845327266737,
      -0.9229785860505028, 2.001081114822884, -0.33602378858744314,
      0.6221047606729455, -0.3210539050815511, -0.21520379988059526,
      1.9392151268090492, 0.5088313549358979, 0.06890364773919413,
      -1.1327121610922735, 1.0445683122037608, 0.11558229098229725,
      -0.68678403004622, -1.0678743860696915, -0.3305745569012159,
      -0.0477479856323734, 0.16162869311183267, -0.8177511362996014,
      -0.23774161088147971, 1.7423426727673121, -0.7177752080211109,
      1.3662244887403832, 0.0653126552136682, -0.40094285880292474,
      1.2500813175895924, -0.6335385273884835, -0.7492318292863162,
      0.3361922613743009, -1.0980614433181044, 0.6060956881718699,
      -0.5458158448309136, -0.2764596133152651, -0.036022851780706876,
      -1.0696111790486704, -0.28533132399498257, -0.7105548689156638,
      2.138412362316464, 0.2879039767160372, 0.25201448627379985,
      -1.6496622936826943, 0.57211837823099, 0.39935631376691144,
      1.2022584094419964, 0.5022287771123998, 0.06915329129177086,
      -0.5228899337364363, 2.140611049578944, -0.47684154562126424,
      0.02863167259636224, -0.28202410567530284, -3.0615232783872792,
      0.3188054135485197, 0.6471083990892248, 1.3824842729302425,
      -1.5878257871089156, 0.7302802739012124, -0.681172499136054,
      0.2887393944438593, -1.3386342042212567, 1.3458471811316393,
      -0.2912352553343985, -0.9292123732478706, 0.572564981416065,
      1.9939748594182403, 0.3500177524616389, -1.0164384278109655,
      -0.6877750261901484, -1.1077722439814883, -0.32459579237428066,
      -0.6268570985760323, -0.540484808811858, 0.026526578143362307,
      -0.4119674040252717, -0.5944037170196704, -0.4887962281121298,
      -0.15643759683086556, 0.4073707414569857, 2.2252680408457794,
      0.7875236066742771, 0.028852785448504167, 1.2462145420329667,
      0.3642595633628513, -0.8858173714877535, 0.04326599402624194,
      0.8570222415274493, 1.167637879992101, -1.3267228332185994,
      1.186426042060125, -0.4558608523220523, 1.1461311620678962,
      -0.05285234753355909, -0.9870520473610043, -2.2485287768592306,
      -1.9940064913144582, -0.9496921711737891, 0.15003139373484115,
      2.0567802848079397, 0.06103022695845522, -0.004278791707860271,
      -0.4934839323021454, -0.7648404074545943, 0.7111373662393021,
      0.5243895715411224, -0.7775203447522554, 1.824652739638489,
      0.6674316530737915, -0.22818630537615692, 0.5985233709124651,
      0.9645221788959801, 1.1406251865550099, -1.9667761343698262,
      0.03202569024524328, 1.5972412688354896, 1.706467923496608,
      -0.009447107335750157, -0.04252532793452908, -1.7015034133890126,
      0.18393171431290395, 0.46293918502355863, -0.9433307349532362,
      -0.07876360001709973, -0.18423285457496819, -0.223474502159279,
      0.6887698513116616, -0.34431829392997454, 0.9829490035362494,
      -1.488919480366303, 1.5908532309057477, -0.9741094665531137,
      -0.3253918929346076, -0.6590877707631753, 0.8602841107153034,
      -0.5362906005571648, 1.5165421635104794, -1.330350149835194,
      0.7004303388568184, -1.5356026240959293, -1.5376813045535274,
      0.2233257152765122, 1.6673048476302312, -0.8466669240709216,
      1.5118129380366556, -1.7328789899564896, 0.2735489963747549,
      0.016652645144175113, -0.5912445901989496, -0.22712097516976967,
      -1.8132685028133841, 0.19302577364977666, -0.3783481752848133,
      1.4702607064512216, 1.1521615047327145, -0.06340828050273903,
      -0.7595587089937466, -1.1243729300680954, -1.1103164746261387,
      -1.0935906007408356, 1.046359529601672, -0.7475986355865479,
      0.22071783102960205, 1.3317814474611298, 0.42115564860167054,
      0.25874837953166147, -1.1445272073471038, -0.12684933098580894,
      -1.4026556723114059, 0.6325154452357908, 1.1247143217626483,
      -0.8576032011185628, -0.26380989832102164, -0.8904966468723612,
      1.069466585813547, -0.4020461135206961, -0.8165518490479825,
      0.9210068310599423, 0.06439505275235463, -1.199423220404104,
      -0.0777253657983375, 1.6901112183544427, -1.1427426951239161
    ],
    [
      0.5859497760229228, -0.4051604838239331, 0.14091242670811813,
      0.4116799665381858, -1.4008341842056657, 0.8075555647610394,
      -0.20326180223187015, 0.4197213928302199, -0.3818066919361113,
      -0.24910393949109727, 1.2215806777804203, 1.3985878465795611,
      0.9390247889741357, 0.9047115409044362, 0.23449367451000017,
      0.5108538530585927, -0.47091973996039876, 1.598523764733856,
      0.5253856276776064, -0.06384345278909584, 0.7861293565541592,
      0.11074340935533775, 0.7900644183838801, -1.2985969864876792,
      -1.2621368379550457, 0.295586659877505, 1.408375360466444,
      -0.03139981544299829, -0.7299982140961181, 0.13834838425612198,
      0.3318208895587926, 0.16759262127359167, -0.30085138703363173,
      2.1537660685496265, 1.0051196118901404, -0.740948008525872,
      -1.3572889219941924, -0.5650796340897379, -0.42679569246766164,
      1.4272141435930314, 0.041937246348197656, -0.9936641556370279,
      1.5506830866069636, 1.0980571116824687, -1.19315371333637,
      -1.0354738346995893, 1.4944599621805648, 0.4109356980024632,
      -0.00035594730402577646, 0.12430351409625158, 1.4978803481492524,
      -0.15911637041718096, 0.6204548625009697, -1.3772724099125486,
      -0.04372431509329483, 0.1629768397784353, 0.9670519578589811,
      0.419384471429732, -0.5441459272585084, 0.29071431777095197,
      -0.29915224861145223, 2.1302518235285484, -1.2275629815047988,
      -1.6559944726462024, 0.8469484823105753, 0.4716207300524464,
      0.9202036575678548, 0.13088317993577467, 3.0470632842342726,
      0.467350760926244, -0.7530453627949526, 0.5664300897896698,
      -0.22992225227253293, -1.5040544736881019, 0.9955358387124112,
      -0.8913727927293059, 0.6915617694838009, 0.09462799107814311,
      0.8592999357671854, 0.7401431308027964, -0.11317860308527174,
      -0.415100843292408, 1.1278297570324127, -1.109050206459458,
      0.5748798986076866, -0.710012996791806, -0.3256543349930409,
      0.13756326594009258, -0.13521272240900667, 0.19871545077892497,
      0.3228567397733844, 0.03557887763017328, -1.9400631483779127,
      0.48127417067663725, 0.7305239427692334, 0.059775301035678116,
      0.15452399650530355, -0.19868425883497337, -2.4291469031673047,
      -1.5164891025625173, -2.206984094413672, -0.9479447146892599,
      0.5926067566095982, -0.7659856233877956, -0.42508106488676517,
      -0.29382261309719804, 0.7197108974289965, 0.01939445051349608,
      0.7492318427892986, -0.2847275025831775, 0.2576954538029497,
      0.23829479181921975, -0.06925122228858382, 1.2796319855639604,
      1.67546503124592, -0.29528804857700464, 0.47235009180864224,
      0.4603921856403751, -0.7838050741848754, 0.12327575575001243,
      1.6177472943044413, 0.34664575752672555, -0.5491660976600795,
      -0.6093624533840049, 0.4172393876884483, -0.6616216140423469,
      -1.1662539168623796, 0.2612533227837118, -2.096369629440177,
      -1.2434674034736206, 2.0994062247526943, -1.2540249787677493,
      0.3840083423529949, -1.0732546738435254, -0.03570177432270857,
      1.768922343571084, -1.9346425621375878, 0.6635392856780874,
      -1.1878092366068063, 2.1574580262177396, -0.837509489232223,
      -0.3879509980574487, -0.24242186365575205, -0.09088186333592536,
      -0.31700903963156024, -0.6113870810698177, -0.20330250242237075,
      0.981359725995486, 1.2474105831235704, -1.532891096778108,
      1.075164825357553, 0.6957342882061963, -1.0922651724212937,
      -1.2146919582304627, -0.11269421743105833, -0.661855754357105,
      -0.20727489278727915, 0.9273213983453079, -0.34146194712579575,
      -0.4892702298334737, -0.527033362867468, 0.9168299091520938,
      0.23498198515432572, -0.61560967474992, -0.1705599360966689,
      -0.34297072502845033, -0.03988910333902737, -1.3579574690820684,
      -2.110428115263251, 0.22490505338778197, -1.191954396149356,
      -0.9565314563753468, -0.1670553585644588, 0.6656528640446654,
      -0.4220569277440785, -1.3655672854750336, 0.8187631177732178,
      -1.7108646893140502, 1.7245890869516218, -0.42997342096710806,
      1.814228321431169, -1.2752922492752332, 1.9379880703624512,
      -1.4909204793454496, 1.9905174846481384, -0.10762715081919985,
      3.2427679139171426, -0.7973762860967367, 0.2911731517162847,
      -1.9773385421058047, -0.002644691283315432, 0.8791550621222928,
      -1.1394896429954353, 1.458179368337298, -0.07563430190168825,
      -0.08067539978773075, 0.0063811646776233645, -0.4602524786323438,
      1.3335551945362694, 0.47489671707543357, -0.3915868891893403,
      1.0069922499181267, 0.9745734078909687, -0.996164840177678,
      -0.9732385948706814, -0.5095062379660902, -1.340992424671408,
      -0.49108436765301494, -1.1362569415626218, 0.24093758968362172,
      0.8409208900710843, 2.3429013227066893, 0.9312560123537932,
      -0.3861219170870896, 0.668366512834766, 0.26286251988487247,
      -0.6069650072865704, -0.09179112088305032, 1.7040203909629488,
      0.5802695594283336, 1.8886887184457868, -1.149386938351651,
      1.889702981069334, 0.07053597790795389, 1.863126647797425,
      0.7611650990696641, 1.4041082357767234, -0.641631940667334,
      -2.619364141469764, -0.20335383494620607, -0.6690577736492258,
      0.6814006785518972, -0.021440043632773895, 1.3332823575789945,
      1.95844896695619, -0.9913531803824233, 0.28075495062901656,
      -0.5242369908715764, 0.48057075576620706, 1.0646118014549553,
      -1.4183755276995922, 0.03675887550809128, -0.7588806314416222,
      0.2996384628525908, -0.4296705355626855, 1.1441776193006352,
      0.18771480283411615, -0.3876233346605444, -1.0830060667109829,
      1.151370970486585, 0.017326802100578846, -0.22537265222109068,
      -0.5394392135254397, -0.08056226183961765, 0.13579803380698896,
      -1.1036162175902453, -1.2941217414362804, 0.27687080418170734,
      -0.756566788847204, -0.5456257290941335, 3.28797420407192,
      -1.0492786344857281, -0.006846656962548242, -1.035549863136918,
      0.7404425001286666, 1.4121275844763854, 0.5666332371184288,
      2.0222120514407034, 0.7612025896840845, -1.6239973883855043,
      1.1487409220001072, 0.22187206279601035, -0.05778861479209545,
      -0.39975299692781285, 0.535240993546478, -0.23356880477257197,
      -0.5128244655928206, -1.6901526368913007, 1.1075857095086217,
      -0.13058031664352632, 0.16399806982117465, 0.043471269869184335,
      0.19698922152580484, 0.7331069277386244, -0.22460857635657003,
      0.1522157555020877, -0.939097677999715, -0.8901303457344679,
      0.5198031377229345, -0.5891037791212398, 0.4877165070079853,
      -0.6602380251947458, 1.241910624946363, 1.053020735053209,
      0.3479671527022955, -0.6508999529611793, 0.2871322653706957,
      -1.2689857171339682, 2.2504010518044826, -1.0957513980534672
    ],
    [
      0.6023892613254017, 0.6089651189663269, 0.5557601163621134,
      -0.9986244233391544, -0.2676057686038912, -0.06592272918236826,
      0.4895264925357458, 0.0885363720491194, 0.08197625575113801,
      1.1439315817869917, -0.041749705226559214, -0.7254829475079578,
      0.5387792026879259, -1.066098929856538, 0.27097447801007357,
      -0.9801642416471179, -0.6580380957284073, 1.069090407775242,
      0.05185282004447035, 0.11349223065720414, -0.5414846707340552,
      -0.36596548034245924, -0.6857079321863111, -1.1693797784684872,
      0.7149820528498676, 1.0638260392149363, -0.8369571699749528,
      -0.07213961709220533, -0.8426889461448415, 0.9729555544903347,
      0.19754655936059412, 0.6434646968029852, -0.4198438745679248,
      -0.03487477354911319, -0.1930634726604165, -2.0833478033379706,
      -0.3094967631279, 1.1228546775362571, 0.8931617218571648,
      -0.31302697147040526, 0.8794914520265347, -0.4386968846001538,
      0.7617665461225109, 0.8162712999039416, -0.6316027184203038,
      -0.04018904713942155, 0.31954414397403913, 0.5583245597624668,
      0.37542283123063025, 0.7617740741953862, -0.5107950604895444,
      1.4337927141611593, -1.0497593627003041, -0.8908446790995741,
      -0.8574290557466943, -0.5653854637602719, 0.1448472176981738,
      -0.47897923039894463, 0.14103901042457984, -1.0292240489999491,
      -0.43609322036124365, -1.502826949566132, -0.2515494065211105,
      -0.017630556967940067, -0.20526592187377726, -0.4400562483511199,
      -0.5359590662560554, -1.488979762719778, 1.3846641873740766,
      0.33306640291609224, -0.2177889662324282, 1.318382864354714,
      -0.79556130387215, 0.060508061252021766, -2.3255948929706736,
      -0.2938685297026747, 0.45397576260695177, -0.9793828008523375,
      0.15034142501293601, -0.2218805381432179, -1.9757125541214535,
      -0.8931478420160904, -0.9340798577151779, 1.2317748700224398,
      -0.28498667028371444, 0.4452488781137513, -1.430640889279758,
      0.5527176280465725, -0.8369662706905288, -0.10887309779204908,
      -2.071288953548022, -1.0908601734456465, 0.20053647156120763,
      -0.14295984318424143, 0.895367835335895, 2.4755894416066577,
      -0.5632414954608232, -0.5443028288278448, 0.1478242582780822,
      -0.7599677009200964, -0.6151006770041378, -0.39821201224192376,
      0.9972788928386902, -1.9676781900657956, -0.35823370008693,
      0.35677738501673467, -0.022431173707609987, -0.1486126678114937,
      2.458202056966804, -1.0261265685048429, 0.6539416768854703,
      -0.4162317111206422, -0.22080839036192043, -0.9148002126200322,
      -0.7569561194957182, 0.09781731099168277, -0.7681633936381624,
      -0.7271679942127405, -0.21422518436413443, 0.47974636227516976,
      -0.20793903739675673, -0.6687069583546512, 0.70475388859967,
      -0.3694410189254615, -1.3393821603267868, 0.6814352106874735,
      -0.16798736864297095, 1.5119979501164824, -1.0487857218449608,
      1.035739521333436, 1.5163616691875617, -1.2789332536164095,
      1.5932387388274944, -0.963430348708655, 0.9736051337074366,
      0.541597785589404, -1.6792655926215785, 0.5428443074781674,
      -0.6095971599700423, -1.4822493874431197, 0.8173026585757119,
      2.118370086519689, 0.055872602412386375, -2.0800438835390884,
      0.16955644943147624, -1.8130550046972553, 0.1799088035783266,
      -0.5039184895120702, 0.025934319951081947, -1.4316490500747585,
      0.6515166383607621, 0.1819841373056301, -0.737032514473048,
      0.9039148681414201, 0.6766940439029533, -0.6565778956766422,
      -0.12434485247020828, 1.3589703539598275, -0.22745250707550152,
      -0.871020763359526, -0.1350826895828172, -1.2467764997714512,
      0.1695728843095819, -0.26498859328702873, -0.30473748868567047,
      -1.440954645081538, -1.1134866668783034, -0.24403302405421504,
      -0.34590531622718346, -0.7045548120257422, 0.7184257335049019,
      1.0270523298193175, -1.1236100352891791, -0.33252569025776674,
      -0.2792644461547906, 0.4049802061783709, -1.3437187536202468,
      -1.1505642199764732, 0.4332835961723445, -0.917044829527604,
      -0.060884543308930436, 0.43407774963719253, -0.31880779884517935,
      -0.11513421151926792, 0.6979754170267751, 0.8561759242474702,
      0.29960187364955077, 0.847122550885626, -0.06553558963651059,
      -0.18191152198539462, -0.3395480943025244, 2.356705377792508,
      0.776114072855231, -0.7836933443694882, 1.1060214724356012,
      0.18411557086254313, 0.40159271867300994, 0.23772278594555524,
      1.0880555924000346, -0.3658108805640378, 1.546156108900208,
      -1.2053698366318049, -0.531301787922999, 1.1561012054621396,
      -0.8610810597435861, 0.6202012088808007, -0.4952393775295484,
      -0.5975243084481657, -0.6482504395478701, 0.5148610354026927,
      1.236394337001523, -0.7202267545599059, -2.4676509313905943,
      1.1968002207652078, -0.49600252718074617, -0.10122049863138817,
      0.15891553837092062, -0.059228483307356625, -1.1366377530995242,
      0.22982974210713228, 0.21201329218517112, -0.5380332062512954,
      0.5250378384208715, 0.3617162275596504, 1.1987414466716817,
      -0.2828224322397918, -0.36378245858783786, -0.14735166279491244,
      0.4405043557765799, -0.6908820527427634, -1.002877251747299,
      1.3762586017987974, -0.7850205916786137, -0.42310373422942504,
      1.3306410737005556, -0.04562272092668218, 1.3969521121322221,
      -0.21947871443568764, 1.742156525765924, 1.6190207638770653,
      -0.31180711178029824, -1.2222015673597426, 1.290744250862668,
      1.3805860211161174, 0.11662570388559819, 0.244839375276608,
      1.208239883695176, -1.1448681019454985, 0.5062903483786096,
      1.4092807241961416, 1.1915279945999862, -1.9208263568719275,
      0.13002876429564345, 0.20382814341755376, -0.6553430340543925,
      2.159970335971776, 1.262407977369875, -0.9870831183537061,
      0.026850677399459833, 0.09129319096358056, 1.0075202387753808,
      -0.2077891020681074, 0.42333027727136063, -1.5915564143524086,
      -0.4045058666616141, -1.8382339115594193, 0.008248490186824256,
      -0.4049167077913931, 0.08739694283100514, 1.7615939771374964,
      0.41801043069664057, 0.6402016373619731, 0.25969517428553873,
      1.0678491445324205, 0.17755909168057227, 0.48652985892527256,
      1.441775004772049, -0.5671395262643266, 0.507546383278361,
      1.5045730808341693, 0.20572648371945645, 0.016083760540462497,
      -0.7498429321362085, -3.2014095318851004, -1.9413130405919659,
      -0.14272956692402933, 0.3381285257474874, -0.6124982356006609,
      -0.9173464879040053, 0.16380321167684855, -0.10821523343328585,
      0.4786890423250871, 0.8701154061500086, -0.9059746663384177,
      -1.0014922382892164, -0.3702493287980195, -1.79833882316556,
      1.0840204442429047, 0.7694977371006387, 1.6670801544198461
    ],
    [
      -0.1625965406968314, -1.1886862572211363, -0.009756592213794544,
      1.2346148551758134, 1.061804697714527, -1.144217235550087,
      0.1753577784635363, 0.17680061322414903, 0.34546448117754874,
      -0.11007639396960395, -1.437700407325092, -0.08037962233523167,
      -0.26890484955613025, -0.26875824238071955, 1.1362203033569578,
      0.13388232240804113, -0.18845827466696186, -1.1525356829887208,
      -1.450314560733221, 1.3551177342999134, 0.56820006312391,
      0.13366602435517655, -0.21088897486124014, -0.829798474402073,
      0.10036039828428339, 1.0262102287054706, 1.6281662912381079,
      -0.1275576939807434, -1.7615914663679677, -0.24031833370740308,
      0.6505574549028037, -0.44790531488837676, -0.08865638385960332,
      0.07439298380414977, 1.9572456612822555, -0.03815176960366368,
      -0.04812420845644775, 0.17278005382910594, 2.9501226862735392,
      0.9651416991325162, -1.3762239781538765, 0.07538832159524461,
      -0.809706890005468, -2.4104772539089394, -0.8234373287945763,
      -1.4174059509524333, -0.3575282945077578, 0.4249139291526438,
      -1.2382684490663427, -0.06302067178301826, -0.46592697037790676,
      -0.957958120366125, 1.5462456430834022, 0.05778817980680884,
      -0.9439594219027455, -0.025916788397678393, 0.5912460715278427,
      0.5363447105180379, -0.37515999241403536, 1.5308428980762236,
      -0.661809032647315, 0.029217586213720288, -2.0658120159339006,
      0.8325726194106188, 0.43711655495793034, -0.6760048961113477,
      0.02107248359472078, 1.352929851439939, -0.2321997490365233,
      -0.08001610291403398, 0.6539802789319149, 0.17247770301880727,
      -0.6179822714257317, 0.5011790436913238, -1.0806198082674712,
      -1.8565236542475656, -0.8745853055178928, 1.1575640161053566,
      -1.6410265537974291, 0.33927204285480056, 0.9077323833082945,
      -0.06281880789312914, 2.3819244067797336, -1.4207742496782558,
      -0.29461176399571953, -1.7936220113732997, 0.76160893806344,
      -0.18074893535865774, -0.12746388391627952, -1.172143524295709,
      0.9923330976795902, -0.4840714094631228, 0.45400863308579714,
      -0.9838752155161431, 0.46339360870970664, -0.04954909400988556,
      -0.5277640279938134, -1.5532348785063466, -0.25576826650449713,
      0.08603592614464776, 0.4912407322586819, 1.0231767626970425,
      1.3957023405987543, 0.2555121782658436, -0.3570404150319213,
      0.47739299495445153, -0.3314853462755125, -2.1754313450742413,
      -0.44018857441144127, -0.5996373858486989, 1.1670259435266155,
      -1.7732118810119717, -1.1409232068709174, -0.1420755460760569,
      0.17477559081231456, -1.6205255117191173, -0.27492613198780547,
      -0.5959587256524265, -0.6732864044652113, 0.39135892242550147,
      0.4107980506001771, 0.9458126707784404, -0.18765351966607463,
      0.8944320336058891, 1.2448730586629537, 1.0566664173624116,
      1.0121111341270792, -1.1236107286043278, -1.5194173476307116,
      1.1406075060681165, -0.5235143191648366, -0.5945763823240613,
      1.92003700738759, 0.8283917050475975, -1.0330090304408373,
      0.7276684287414281, 1.6876531710498643, -2.059892569490142,
      0.42942495661947133, 0.41335630855183114, -0.04121503493731108,
      -0.15125190289214094, -0.474123271885754, -0.3112074114463496,
      0.153837741719167, 0.9089512506249454, -0.6798069624781452,
      -0.04827166149761591, -1.5077951572628359, 1.1150461215222611,
      -1.3690413304389057, 0.013288683406074076, -0.48224663247458005,
      -0.7936314892679102, 0.5751494159125057, 0.2344571385660338,
      -1.7989503608812114, 0.5128726978410127, 1.5906714834529319,
      2.1567117584791013, -0.7583670786961204, 0.5856852994913234,
      -0.13252194766879524, 1.3305535207136665, 0.15846931067964495,
      -0.6036058555057797, -1.0372280948162738, 0.17021718838953848,
      1.16279349071267, -0.8456227745715981, -0.9282338242579922,
      0.18108172306898948, -0.3358063702940615, -0.19514837822533507,
      0.7493411135588727, -0.6051232241212535, -0.108203802710346,
      -0.721048465344005, 0.1464245488858296, 0.51862972818455,
      -0.8850875219511127, 0.6771382430792955, 1.321319651048222,
      -0.21372845439547497, -1.106070063289296, -1.4045547902052447,
      1.2297764006239529, -0.9439650524688266, 1.7440073800161888,
      -0.5379345770408749, -0.34436737221161584, 1.4324481325344012,
      -0.25197836434603704, 1.2126066615752462, -0.697629169037583,
      -0.25564681634253456, 0.8546984074398379, -0.8330696346338641,
      -0.03467698557734584, 0.34953857763688423, -1.7150893606214077,
      -0.03345806134704938, 0.449620805647142, 0.7024025893330086,
      -1.8266371485686632, 1.6430575537064782, 0.285766395218352,
      -0.526383200655617, -0.4632723949985026, -1.6667530150501766,
      0.45471415415102806, 1.0607869334360573, 0.07033695196669999,
      -2.2692352832254774, -1.1409549890360147, -0.5020076198252366,
      -0.16996447431173523, -0.19675483465364343, -0.2553234724315623,
      0.8469564704555238, -0.21536347689464322, 1.4077192660808524,
      1.3797644501815556, 0.032152981101385564, -1.1380175699902848,
      -0.3994665262550614, 0.5151272425712325, -0.23708182079389828,
      0.07206521909921493, -0.007677538158351776, 0.788746207207811,
      -0.16696531491949843, 1.415415199925327, 0.9329874380925549,
      2.2529775808311676, 1.043535216286457, 0.5513202599822598,
      -0.2042807403735331, -1.376118938313303, 0.02828914610684191,
      1.7576609692110727, 0.011746602193223793, 0.19479965987418446,
      -1.4268625883880524, 0.990977539356917, -1.5853137381537405,
      0.0014726773534759464, -0.6689211758939215, 0.6589705563057151,
      0.7398689906979647, 1.358243217981649, -0.8288325531649062,
      1.2264516420520786, 0.1470216829261612, -1.3592525273005025,
      -0.020706442776599387, -1.955640564529566, 0.8880918669804182,
      1.1647329592050255, -0.9743103100907716, -0.5182064921894068,
      -0.13157110893156254, -0.8526013666441937, -1.6266035887310264,
      0.2408311588780779, 0.030062558125973485, -0.0889984635029979,
      -1.5041358265612428, 1.295936555789305, -0.9462342335648052,
      0.6221003235493697, -0.5609622454994906, -0.0007083573845345629,
      -0.22962124904287412, 0.5516684886741161, -0.29832537486081967,
      0.8462782715254329, 1.5277810459269598, 0.2797356925223444,
      1.2121207121567519, 1.2017164353600758, -0.27111932633225694,
      0.3468211543059388, 0.009473801717826018, 0.8458577489764557,
      0.3001133197939971, -0.47558756209751774, 0.1412450092750288,
      0.2612041317390518, -0.24709483869554244, 0.32536429913035997,
      -0.8726610033085305, -0.8658333631556943, 0.7732832013603824,
      0.12905705360181982, 0.6655142298501483, -1.0319185088973375,
      0.49425434910246363, 1.8719852531685262, -0.7894734040010144
    ],
    [
      -0.4960859973882446, 0.09307043328967153, -0.8370552518316114,
      -0.4943866122041176, 0.8665346939083358, -0.3497443026519115,
      0.28099733784194064, -0.3605925548926141, -1.0686060015480934,
      2.015727014518411, 0.514106065300388, -0.10693862393016236,
      -0.3744532120879538, -1.8248091299949276, -1.6346543962889322,
      -0.21275252253299753, -1.605169403478117, -0.5944867851599073,
      -0.35977492462672317, 1.0269956261846078, -0.7438039323084779,
      -1.1521391573633597, -0.9487220942049985, 1.2737464341430988,
      1.5161074886862258, 2.06478265255242, 0.31037467963545656,
      1.263313386801814, 1.231300002112482, -0.7904173943771785,
      0.5580696714459036, 1.1933052631543257, -0.4198950391184388,
      -0.1173783652782527, -0.6091888011704936, -0.2101052643233167,
      -0.9197625586916813, 0.9180051455754511, -0.28820261058354046,
      -0.7909931766824001, -1.2626705343485525, -0.17857231381597088,
      0.07417675207985353, -0.6974805333688924, 0.32652239577617,
      1.4356544091460666, -0.1993375979329324, 0.8591282962366145,
      1.4255171955386976, 1.5578122026088053, -0.544573534099125,
      -0.8700058883039775, -0.4322145299890967, -2.0362708858330314,
      0.4209824956749321, 0.9864773322273789, -0.5188593775443231,
      1.5678799246575892, 0.8646763730935746, 1.3759139761039005,
      -0.6139293037357842, -0.3618532435547131, 0.2006671951254262,
      1.3023931528993762, 0.6926250142768565, -0.16746930051964512,
      0.27300951612707997, -1.169341023290128, 0.4303272998817435,
      -1.5730274910103907, -0.7593189921652108, 0.7723084061193171,
      -1.5799308990586836, -1.3656673312070264, 1.0215989252572477,
      -0.07571226241209732, -1.6154960393730076, -1.7886873622236203,
      0.07323996707154484, -0.2763614126851023, 0.24471834120918076,
      2.09900646721872, 0.6479421865343542, 0.31177016403723495,
      0.665015290825616, 2.778453029921946, -1.6977149968062646,
      1.3368926896495124, -0.2391833603322783, -0.1901904025527628,
      -0.9278653360000357, 1.7670612252814561, -0.7105345662100885,
      2.07053027979331, -1.2409858007290109, 2.0162813675721685,
      2.8111885537919887, 0.8504716260951584, 0.6219700786022813,
      -1.5968954518998146, 0.796820206238599, 1.0044698924856177,
      -0.3408088276035103, -0.9737829175690565, -1.31779556517555,
      -1.51963090709538, -1.859523968997211, -0.045561448272089446,
      -0.3334137683506755, -0.6650752458550997, -0.03519115263914016,
      0.10428633748926147, 0.1588323632564373, -0.8613546861544495,
      0.4022396742502282, -2.152120090021471, 0.062360679120248536,
      0.06328223523047652, 0.3079833968555388, -0.7677289507630325,
      -0.6796004621075151, -0.7357169651163452, 0.2508054837683625,
      -0.3491520276206855, 1.160428182570951, -0.17134867172247956,
      -1.5861972526515067, -0.8377891972126699, 0.8186770912975369,
      1.0663266450971292, -0.40608823363201657, 1.5084356889221502,
      1.2978185109006115, -0.9831041321080175, 1.2706968793135867,
      0.3911197097093627, -2.0131408930009194, 1.7798956376637005,
      -2.2049368137809044, -0.3195188031505684, -0.1104308674635245,
      -0.43558217096481766, 1.2442410083485826, 0.6393534743679711,
      -0.4016647071113233, 1.8990874429147884, 0.32052048883950496,
      -0.3374267446362983, -1.7748169855603575, 0.8938122475170648,
      0.6022594658729756, -0.9806321781024553, -0.6899966623182606,
      0.14822384105500377, -1.0553809124656368, 0.7961096576328662,
      -1.2735368292529177, 0.5030527227478037, -2.3745777561463144,
      -0.7114740249691053, 1.6207016901565718, -2.2016663267151793,
      -1.5762440015441201, 2.2633115272787783, -0.49269162641718783,
      0.6685748111519052, -0.4219202925558159, 1.9637760674016569,
      -0.21670157728941586, 1.0955544234926282, -0.7267121119504433,
      0.11604757575338365, 0.8800385691855859, 0.6995007514544279,
      -1.109921083702185, -1.5828850565790165, 0.14210798585469678,
      -0.7833767391494423, 0.36073913275617686, -0.35367465788948443,
      -1.5033034481424807, 0.48726978595722886, 0.5498458201652199,
      -1.1892168766848266, 1.144908748139677, 0.013839023411437158,
      -0.8162187510337443, 0.5736214886583636, 0.5226158976790849,
      -0.5916187558860149, -0.6647794274976686, 0.14860552606839508,
      0.38633925860975593, 1.9384790776690237, -0.995505365350458,
      0.9398134722657298, -1.1334170018015681, -0.47162851920740745,
      0.4962842260304439, 0.6763877570158787, -0.7974350890040417,
      -0.055216935677063914, -0.65380745723159, 0.6042127224195817,
      -0.728160161025538, -0.29508879578381214, 0.3739361539405969,
      0.3961565878141113, -1.6016112725654608, -1.5369878531769225,
      -0.6781367740879751, 0.5114200084006485, 1.5494999577525794,
      -1.239128098020098, 0.3225744837216349, -0.37064690052053,
      -1.632978914825935, -0.8166971644197824, 0.8657327345214146,
      -0.07928928318541671, -1.5182361395236914, -1.0553277828557288,
      0.47608135887789316, 1.0320409094618928, -1.6125987946030256,
      0.02203657379191754, 0.562465967918432, 0.5641812627394474,
      -0.31523777575145734, -1.3130826381354386, 2.4491712795073,
      0.23883295233046556, -1.5018536238724354, 0.14537878809355217,
      0.2479291349518851, 0.1775717356415636, -0.08974456278290466,
      -1.8661392048460248, -0.3115968457849411, 0.9446254597698235,
      -1.6684625185671755, 0.35101995218757104, -0.014910894600151551,
      0.07225397944679428, 0.3219703890575821, -0.19798559455689174,
      0.015083058075268614, -0.08429314013352107, -0.5203093022877128,
      0.5245783978272066, 0.627864664199475, 1.1659966183500277,
      0.303010390120718, 1.9987873568785386, -1.6032677666652242,
      -0.852140031744271, 0.8274068088823966, -0.8746749296366807,
      -0.9679672303903478, 0.7902551165033073, -1.4911795587831307,
      -1.873620084141771, 1.396533035154466, -2.129747887971987,
      -0.5679285895101771, -0.08374020532224213, -0.5452184459615425,
      0.4185668841156698, 1.1357830157601585, 0.5044490338348335,
      1.3237272161650087, -1.2987055345643872, -0.4174415411738652,
      -0.9736804391808478, 0.9640152066599156, 0.5633594282571479,
      -1.394325673534231, 0.3776444762010748, -0.6317567047715514,
      0.47394688069937774, 2.1470378270675092, 0.2969524110781222,
      0.0159731181845433, -0.6571734739456427, -1.8686462764639262,
      1.3171797539331564, 0.8358701178729929, -0.22377014307404727,
      0.7762739714070627, 0.003976843753386127, 0.700924391856533,
      -1.5472894995195463, -2.224649833737715, -2.0019334075904087,
      -0.6240679950777263, 1.5483041058509845, 0.28671805328940464,
      0.3573385054377894, 0.4179856422071712, 0.1682449535364683
    ],
    [
      0.22609128354816005, -1.5960489373587667, 1.4754210771943121,
      -1.1264299970425302, -0.7705619193100425, 0.03208601669460545,
      1.762877532316518, -0.5128766272661143, -0.5176766149062421,
      -0.9735101899247436, -0.4722892695468498, 1.1909216889720262,
      1.437606815615164, -0.00617364815835158, -1.1076858534030223,
      -1.2815475084620378, 0.17009148181168562, -0.48378696426087225,
      1.2693179938676304, -1.4116711456091182, 0.02048693737424763,
      0.42451417785829243, -1.0615025697367748, -0.31141531678554973,
      -0.48366521725621303, 0.996769512651386, -2.3276149792073615,
      -0.8373037762161293, -0.4033478244652713, 1.2702814562093772,
      -0.36614223045005306, -0.6833849117390598, 0.7035114348973949,
      -1.3558472078118864, -0.11698361634237447, -0.6818933846375934,
      -2.3879911088589276, -1.371297676332831, 0.15814374351006885,
      2.053516721019412, 0.8253216715801426, -1.4575008606300912,
      0.5446296645936104, -1.5471768575973517, -0.38153409575528546,
      -1.0908473832798056, -2.7454343471465927, 1.2209936252433355,
      0.030666199805016323, 0.9273142249572466, -1.6288656092505098,
      -0.6098245783536994, -0.8020915317669556, 0.3284400227828771,
      0.7361123515401012, 0.8160526943559893, 0.1516829887357004,
      0.19845787326550196, -0.867244607262566, 0.30790071317425133,
      -0.3295110916470097, -0.20298506487909884, 0.5571642946421743,
      1.063095471019907, 0.12454898936886812, -0.3129627042064203,
      1.3540969960374554, 0.4081315426059729, 0.7878918022478067,
      1.0831742907039117, 0.9771574857795702, -2.1196263402071933,
      0.547581124527843, -2.333276485430845, 1.4503582697920159,
      0.5391761550361103, 0.09790532897809362, 0.9016982137448769,
      0.16006612217616842, 1.1184890645124783, 1.879484788124637,
      -0.4500762615468314, 1.5366746543595784, -0.6974403101257158,
      -2.1093625992387017, 1.1752484322711259, 0.3794490005530225,
      0.5170135576093996, 1.5474427863597648, 0.7144433129667013,
      1.7215839778464024, -0.9995111792196476, 0.3291348367811483,
      -0.04157447725008041, 1.4800298915867707, 1.7663843011653029,
      -0.1644480073869471, -0.42929769007038737, -1.1675123831606857,
      -1.6417144981912926, 0.5625809099985806, -0.03845719060386179,
      2.9465679216428504, 0.7330601950694782, -0.425380915140242,
      0.5362411595579637, 1.9562266755323967, -1.0592427085036276,
      -0.7872343484868549, 0.9718144820902885, -1.5297419427244416,
      0.38414779279742184, 0.2461760798912978, 2.4023445419653293,
      -1.9710669688820683, -1.3332481714862308, 2.4324062171821383,
      -0.5994420700376715, 1.431903606815567, -0.38197690590677325,
      0.06623371669069122, 1.0932773318408504, -0.22950782952828985,
      0.6833376548998591, -0.4267038757325594, 0.003803815727388281,
      -0.2910911638264998, -0.22069730447163866, -0.8522820805296291,
      -0.6028828964774301, -0.9307510169548125, -0.0016368648742679213,
      1.7050744402408813, -1.3696785027318095, 0.028293551038209987,
      1.926096183257777, -1.5080327654298726, -0.8460853873554547,
      0.16379193268025632, 1.5330693188613542, -0.692157869218287,
      2.162863636505274, -1.5122380653771776, 0.5238060071985631,
      1.483432267703882, -0.21148965915047735, -0.4459729983038364,
      0.3317920597833114, -0.6294132862360631, -0.2146823349818278,
      -2.4449405897325573, 0.041405491932300496, -0.9214416535633774,
      -0.7761765016677686, 0.39925667075497984, 1.1355135250882875,
      1.0451531182844513, -0.23501831867038028, 0.31980494944919885,
      1.7426960058565817, 2.2659127989477352, 0.12742431469863,
      1.027985202655597, -0.278615546122307, -1.597365184969333,
      -0.12816548715094886, 0.4254833450482421, -0.050375211324584696,
      1.0858343958135224, -0.794339703751723, -0.46159903551747955,
      -1.5179407553993034, 1.1359666321192636, 0.5938195380451055,
      0.7383688985125171, -1.073081456435485, 0.9565646307469553,
      -0.07632859775331392, -1.653629447603779, 0.49432315622470485,
      1.6717580732714519, -1.054448998581623, 0.09395428319534749,
      -2.910003298184757, -0.23789525846961224, 0.28305531539062967,
      2.7687099059711913, 0.6723869685348376, 0.5012124956496292,
      -0.4368724544744218, -0.3063799799921594, 0.451632633448744,
      -0.2993140507787338, 0.10945834612211382, -2.0801211785094558,
      0.6672494410572806, 0.16380323827339133, 0.20116259098219852,
      0.43101395053699465, -0.0979762109508068, 1.1830743728955664,
