{
  "epoch": 1780,
  "input_size": 180,
  "hidden_size": 300,
  "output_size": 26,
  "activation_function_type": "SIGMOID",
  "input_nodes_weights": [
    [
      -0.9886418326233578, 0.5495819151922194, 0.7076644309322043,
      -1.9838130962239156, 1.3169435657897621, 0.6609141566772296,
      -0.012225490243401764, -0.8902303606984698, 0.8217267356919542,
      0.39074899541736874, 0.6075440984535807, -0.4444996886911911,
      0.21618582243796686, 0.2971728783709421, 0.5583063565071893,
      1.1530093870791454, 0.7480839842522624, -0.054625211149692786,
      0.5376918294338894, -2.4287537608528393, -0.5330531817839713,
      1.7792928083897808, 0.21864457431229162, -0.9275187116656917,
      -0.0016886341933820017, -0.42360095650946455, -1.7508626178847269,
      -0.934336242118063, -0.6081148482305133, 1.1866282225570919,
      1.2888594465019816, 0.018057102971513687, -0.0013159427037996265,
      0.7185857103333114, 0.5564762910072245, -1.624996759842389,
      0.46165341010962135, 0.6943209637526598, 0.2917213735111938,
      1.826749168780339, 0.17788598248081008, -1.2074949490131164,
      -0.13156070606024825, 0.22732118419508018, -0.14621173239382354,
      -1.0790314964361793, -2.5917164477005867, -0.9301992153405131,
      -0.7088666776275799, -0.06747425601726294, 2.1669041094662025e-5,
      2.1879825217813575, 2.9668166062342243, 0.1048989543141844,
      0.2318883669316992, 0.22247111715444803, -0.19079346616622656,
      -1.071781527317876, 0.09115749753404662, 0.6445478389959817,
      -1.759831743202645, 1.2464110647347655, -0.576369854215818,
      -0.12394678743098846, -0.20785964564876502, -0.28728865231383865,
      0.1476967604019341, 1.880118288125269, -2.841789393724308,
      0.2615246616517299, -1.3700454725289186, -0.430752721165019,
      -0.7753581210292027, 0.9606698475423084, 0.4868577863962575,
      0.9552623556898601, -0.36604920237970934, -1.3051079704654345,
      -0.6916301835660388, 0.7218595322714535, 0.0014824740316157759,
      0.8247510212586906, -0.19330156307822893, 0.7656134497630018,
      -0.060519438117707075, -1.6265571128123621, -0.38782490258224583,
      1.1834009712934945, 0.4069812439086174, 0.6950450459537992,
      0.7271923498922085, 0.49768671120079444, 1.2756125801425136,
      -2.018650912443314, 0.1442094798024607, -0.7702187049569509,
      -1.4690961043779327, -0.16251412358566608, -0.05754467508705115,
      -2.7295342742493567, -0.3350484478433573, 0.21206622085969554,
      0.9594222370423823, 0.5276618635252046, 0.21219515674542325,
      -0.4059337806687409, -0.6679208958410413, 1.4538226086136319,
      -1.6968018074577254, 0.7860815351262355, 0.10550416108787612,
      1.6118038012618, 1.3661944400689288, 0.5297587521597676,
      0.14869403177298413, -1.02884146464584, -0.7591286076744417,
      -0.011903986167921342, 0.3567196901951605, -1.6383621870182756,
      0.7855216493162687, -1.1160698834584042, 2.9028084523396283,
      0.4409894636376625, 0.08775227966980044, 1.2163246072686502,
      -0.44483284923665745, 1.2483096631501944, 1.3103464515124557,
      -0.017380644251935584, 1.201710447110795, 0.34062349482792614,
      -0.7983177942133906, 1.4479302918605077, -0.7495696507562826,
      0.2313975637541055, 0.6319889652519929, 0.816066906666959,
      -1.0427435227778035, 0.23957892242759765, -0.1277649385575242,
      0.488828922706328, 1.1453530729238341, -0.7244654246458938,
      -1.3624006858507522, 0.13911636404934297, 0.26200679129532667,
      0.18474034143571208, -0.3446530871860551, 1.4494069224440234,
      -0.47048003234579716, 0.6336298804956263, -0.31273655529135524,
      0.7270255033920969, 0.05917080574570304, 0.4623245507952146,
      -0.11804627473785803, 1.9406473995171603, -0.721321225603223,
      -0.5710806551041925, -0.23559406069784009, -0.7332244915629953,
      -0.17258456493948465, 0.38480656229202687, 1.5784871900675352,
      -0.2009766477495426, 0.7630882354678243, 0.07834413276411606,
      0.9671630309389094, -1.356761048448342, -0.6958949999991082,
      -0.6207821945861755, 0.2544082687930836, -0.9212104218824033,
      -0.834864993547029, -0.874152114423998, 0.8687210877872348,
      -0.224713852715121, -0.7341887453914744, 1.5227016298778278,
      0.28892104056362844, -1.3247931221952518, 1.4418787737322971,
      -0.23443441306389828, -2.413546244415615, 0.6358587754542201,
      -0.40414323855561446, 0.33343301602001824, -0.16764121509669502,
      0.281260401384525, 2.4278095256574552, -0.5449013491146896,
      -0.5792018649731072, 0.1570934097914674, 0.12038517996753868,
      -0.15741356915603058, 0.5802476769526975, 1.157574195537722,
      -0.3555415327438155, 0.6467850503851286, -1.1215711060022913,
      0.316362939229793, -0.44884432418112025, -0.6004322923760711,
      -0.6716905591699481, -0.4962195231032269, -0.09633606606776317,
      -0.4571367110597085, -1.3721245824718968, 0.5321301315221107,
      -1.455521017848444, -0.11849614446320281, -0.08660615867436126,
      0.717923725414682, -0.3031316239991876, -0.4056201952952672,
      -1.1409607954990029, 0.3762368517152058, -0.7979753814698975,
      -0.16542575558857486, -0.9931423669338392, 0.8188551151919216,
      0.08538679498477987, -0.03885076745424813, -0.7409056819528012,
      0.7775158254893986, 0.3756095324014495, -1.625186090243789,
      1.1148840001782834, 0.028977359239267225, -0.17059751035907617,
      -1.3580147263606033, 0.43949622162186786, 0.552225233282076,
      1.126436822519386, 0.6886092314065421, 1.445300168148434,
      -0.3695407923956657, 1.6041956847845975, 1.5386562729785243,
      0.13730524329879876, -0.08508293373231997, 0.024771370935865514,
      -0.26906419073877025, 0.17942055973474336, -0.32116414266341414,
      -0.6668400571913097, 0.5236749809900695, 1.59015197315886,
      0.4693622161603424, -0.7891351968712547, -0.6564104806576261,
      -0.6652687341414777, -0.1832487063180684, 0.3462915635798967,
      -0.4270802373996967, 0.6387379330220369, -0.5295957551361427,
      -0.5998864807697459, -0.30753381988905265, 1.5029248969981681,
      0.4677515281098924, 0.7022533162409481, 1.1320516089897523,
      0.6780788212120604, 0.2750475116894161, 1.367163331387539,
      -0.5440838517089308, -1.9520374771441054, -1.3580705218966638,
      0.10277449533094452, -0.926647708601961, -0.23104100496369923,
      0.6572513101623432, 1.2580309834902004, 0.8143643787893345,
      -0.6213558647022619, -0.23504100704338374, -1.2493625134535458,
      2.569597983401092, -0.7115131886604011, 1.5457154932317136,
      1.7511488459945332, -1.3082745828258195, -1.289112869391164,
      1.091775543852044, 0.08553119942145318, -0.49462814511894326,
      -0.29927192344516523, 0.9479586258276664, -0.3537667951036494,
      1.4397693050030826, -1.5702391775687286, 1.5009537809374869,
      -0.5960084053032596, -0.10651293409769594, -0.7520751294155946,
      -0.060275487193289096, 0.7473612330696442, 2.021900285709686
    ],
    [
      -0.9857826690950989, -1.2442268993320234, 0.498662139051729,
      -1.9736755790389493, 0.030621373379978577, 0.45169336845726255,
      -0.06681768720969843, -0.292800124512338, -0.3709367379629873,
      -1.6769163889533274, -0.02208006726925245, 2.2867506433586398,
      0.04324472639780513, 1.0849848900205803, 0.6550866952883322,
      1.1805590317873367, -1.6641287548580754, 0.1899019330052792,
      2.2870197217907986, -0.2667526383742768, -1.4356722161237145,
      0.2675176286764306, -0.8826082060990447, 1.9990018520349184,
      -0.3137022898823848, -0.6560664936805749, 0.39132717210183343,
      -0.5233573412896276, -0.6347117479190362, -2.6180982650354183,
      0.3945350353377227, 0.00403667283306785, -1.4900606220800876,
      0.806158535479878, -0.37081007806216987, 0.382656099012437,
      1.226890286520844, -0.00503829744532107, -0.40889641115905956,
      -0.21099816806128527, -1.3093220695030952, 0.03552415399819999,
      1.8588596725022917, 0.7000904001675844, 0.6733135192572209,
      0.30271095372875745, 0.8350260504058603, 0.9376092537272965,
      2.1559474193124415, 1.0858371251885954, -0.01401317641691301,
      0.6915632514597343, 0.2819149168097891, -1.0872700329212295,
      1.66542096613344, -1.5190396786600247, 0.5575505632665696,
      1.1648125230203554, -0.5002794391913459, 2.2583792735780914,
      -0.9020029641118084, -0.9266474192745526, -0.5300438272642104,
      -0.8068266536194656, 0.5641243967459948, -0.21355431635646324,
      1.247540042602902, 0.8111706522217969, 0.5622075420533239,
      0.8122786197753553, 1.8738813031342398, -1.386859969733045,
      0.26248669019353543, 1.4940728699625883, -0.03808130098950482,
      2.1320103817689033, -0.4396811905786679, -1.4323070134337166,
      1.8504772039158925, -0.7176762219865038, -1.1052945550214102,
      -0.177276837123534, 1.2704300233555736, -0.015259588983131648,
      -0.31254813820480615, 0.563727140504444, -0.9553182044431964,
      -0.1705762120823884, -0.13132034979866297, 1.3843959365608118,
      -0.5411958274373257, 0.8479046208856642, -1.1971754606483906,
      -0.6000433657728569, 2.1338408677386873, 1.434043648448634,
      0.5263078802821636, 0.7005749724406841, -1.7219820717635232,
      -1.152940067734848, 2.3756067617802397, -0.1899753960165814,
      0.39922829013015587, 3.3341999304236145, -1.2007568911738118,
      -1.694637767977533, 0.7481076566778548, -0.4512717070435025,
      1.9223995153828766, 0.7933342576721732, -0.925244643395258,
      0.3479135205091403, -1.5978566435312611, 0.10919853434798807,
      -1.956936217010599, 1.5926143990122983, 0.18884603145675866,
      -0.31888656320085207, -0.8988953015616944, 1.2293587054705766,
      -0.7045487104690431, 0.47754794457466837, -1.6960622016141287,
      0.9135432048705645, 2.3173624379498725, 0.41246562642344275,
      0.20339031589866507, -1.1616694752648107, 0.4065237927533563,
      -0.16096794127162198, 0.47408103441674204, -0.3605194993370407,
      -0.5626610152750711, 0.8699555355111362, 1.3092889907661929,
      0.05203292761583662, -0.3340842595379751, -0.7753738423192895,
      -0.6834112125382686, 0.09652653797896472, 1.4846130504862989,
      1.6744892719102356, 1.3139203492665492, 1.6568946399326783,
      0.27209579938205297, -0.16740257795018437, -0.061149655405734506,
      -0.26512562171704196, 0.30514843895029176, -0.8352731419041752,
      0.364532392904894, 0.5496573300810318, 0.44276408669738804,
      -0.21889637384407237, -0.8687319706865219, -1.9560056257916376,
      1.7530640530335555, 0.3493797206882887, -0.937808763731779,
      0.6898073104391702, -0.4687710006149695, -0.5460449830838021,
      -0.6678060183710236, -0.4619515204627086, -0.36089790292565355,
      0.4151710201658149, 0.4169642244803481, 1.122496292869607,
      1.3240833525145275, 0.4716468592997822, 2.0501840583076993,
      0.1265245964957848, -1.3977123043921849, -0.4404761404250604,
      0.9670558678598483, -0.6723100321053295, 0.39239011689011827,
      -1.6729115365618612, 0.5957459280519394, 1.0508578671316704,
      -0.22073646837873667, 0.9265388613864897, -1.3681169727915032,
      0.540959256563753, 0.6701319761303611, -1.2327150942453378,
      3.134499454859891, -0.47140114614630996, 0.4162348707510317,
      -0.03625689530671323, -0.7027022019215459, 0.31241131900393165,
      0.13720751340054474, -0.11838637217431926, 2.871115806605271,
      -0.8893246520191871, -0.666047820967132, 0.3756773215355087,
      -0.18008484256123405, -0.1278282089222218, 0.44170521995659007,
      0.13171120905532507, 1.9075322454885204, -1.5070971378987068,
      -2.0336445659831517, -1.0615476196426892, -0.937942625526799,
      1.1642961977328026, -0.49511880248233603, 1.0412347741982477,
      -0.18355238251417177, 0.18976179283779912, 0.04235656224337887,
      -0.7148469678901795, -0.30540502079335086, 0.9218646682178852,
      1.0335063584474342, -0.0695379014472935, 1.4769032635142474,
      1.5896618955012223, -0.43874895628821114, -0.9334696874964187,
      -0.022957245888272824, 0.7997675424624131, -0.6131986929376254,
      1.2661091333761996, -0.3251502304143324, -1.6268492660794163,
      -1.8931618230521758, -0.6694688066761215, -0.8118100121663991,
      1.2090134272281683, -1.880518685479903, -0.6480471817751519,
      -0.8672923752532167, -1.3076944616970234, -0.05492498738738199,
      1.210221666583976, 1.625980631437504, 0.13388046853634328,
      1.4747147048485123, 0.563940298988918, 0.1799029273336888,
      -0.04653577784390879, -0.7419519471552173, 1.1648064068685426,
      -0.20932483244071604, -0.6516537217312004, -0.09577737483106548,
      -0.02436730890831223, -0.8453521181265388, -0.5975846356826923,
      -2.527246316124789, -1.7856353120991866, -0.45398273547214046,
      -0.7613861400773954, 0.7409830156214501, 0.7200222607144022,
      -2.2878785874074303, -0.8100716231605835, 0.03310855427954344,
      -1.2109824467916939, -1.235894127514328, 0.5630019860277071,
      -0.2791238726174277, 0.06812382384987664, -0.7053618670623997,
      -0.48582406051086174, 0.3966385668677387, 0.700191641099371,
      -0.599702486007569, 0.6707956609659034, 0.7252725296273024,
      -0.6873804973256817, -1.4962369605698547, -0.9198191201415558,
      1.3710325826731888, 1.1847709978872227, 0.7886015569532425,
      -0.3580835136214961, -1.0115026535191134, -1.4196421927485723,
      0.9827465905869152, 0.6568978121524433, -0.5770638982502849,
      1.278616353743116, 0.17659921997545805, 0.9257236543820266,
      0.3838162880039125, 0.27752639733363976, -0.04573508128509638,
      1.9129302492167284, -0.17703029460523617, 1.0566651735312917,
      -0.024766336552875034, 1.0483440255516479, 2.7661527161504234,
      0.5170118380958507, 0.19556122424075092, 0.4108583503342953
    ],
    [
      0.6072120825928996, -1.5142193226729201, -1.046637172290812,
      0.6536702854543524, 1.8926212400653748, 1.1650339669139496,
      0.7080114675125645, 2.143478925306499, -0.61020693617235,
      -0.94247335075886, -1.005338769499139, -0.07448830952866664,
      0.2055507186445515, -0.5934488060758693, -1.3573631131647643,
      1.7272162874766306, 0.03214870377492204, 1.4471449611750167,
      -1.4599276679855888, -0.7883257301583064, -1.21933141309564,
      0.04200473076268636, -0.28752851783809874, 0.7552772532574071,
      0.29381476992606415, 2.020235349401161, 0.12946239017965605,
      -1.1147503761268711, -1.1618168449349306, -1.682122944676955,
      -0.9264980819095916, -0.2000279643402114, -1.3977719356652971,
      -0.643753628863952, 0.2159138280637679, -0.7788989229449318,
      -0.5688555218364787, 0.6413720771794761, 0.6666768328119732,
      0.5791286597049049, -0.6263006686869083, 3.3871004366931907,
      -0.652738143170989, -0.1360976416957034, 1.076899253489009,
      -1.7372035459297654, 1.525835223672854, -0.5364667545542339,
      1.4931133475194016, -1.1984923762184603, 0.3559290753294261,
      0.3457859977377031, 0.13686150062497868, 0.6585286859237572,
      -2.048114414471395, 0.1312114475423014, -0.6915734534951096,
      -3.387474409404311, -0.24915715239775404, 0.5792241862596129,
      0.02029680297275197, -0.005589300152477357, 1.2777796601215174,
      -0.43953170172799266, -0.5875143297071624, 0.045388124468373564,
      -0.9545515970171873, 1.490931088820602, 1.9797233768835267,
      1.1607732057147675, -1.1107627184822337, 0.2892227101395765,
      0.570428375161275, -0.49380159889893305, 0.9373423504063185,
      -1.1693712284245372, 1.8351240619500238, -1.233897846745906,
      0.8695929042978381, 0.15061972885020294, -1.9337535345579433,
      -0.30473256901649176, -0.1265246071557183, 0.7651446319490456,
      -1.926281488545899, -0.3743544108288138, -1.7914625703185612,
      1.552961993884789, -1.1703513888785302, -0.40050547447401724,
      -0.29616917125213876, -1.6943935471746825, 0.9776303590306695,
      1.9721868409099956, -1.6563555477588412, 1.2804651866345302,
      -0.6351796685932023, 0.569226222806172, -1.737766500123024,
      0.2940158986386612, -1.477251512076893, -1.3908198735397324,
      1.5263230307532822, -1.2331894793140878, 0.4289914034336538,
      0.772051285881893, 2.1372474839222986, -1.8224867704051049,
      0.5312655842609078, -0.5481245883685874, 0.2979418582218482,
      -0.7938281543467055, 0.4506358157524059, 1.5579804362853864,
      0.038007506192418994, 0.3319547828247555, -0.7170264608782577,
      0.6331356517306286, 0.30851567411743364, -0.5762610870222882,
      1.0626882583686263, -0.932470139438328, 0.7984023747528239,
      1.4162406044954927, 0.9859186019421788, -1.2479972818956793,
      -1.22314941772839, 1.5399829947317016, 1.1546644313012038,
      0.7810834477301319, 0.47392016287187555, 0.6418699037718848,
      -0.6922997434718029, 1.8101111633685352, 0.38813914731290006,
      -0.05672264745686185, 0.05764814931602605, 1.0127167449082037,
      -0.3489909621949357, 0.7681128195190068, -0.9945809889522218,
      1.549990668631212, 0.13840115280655788, -2.380608592386332,
      -0.8835448365802928, -0.474452646049925, 0.3074903086300076,
      -1.1308232841041415, 0.13578218419332538, -0.908833657435129,
      -0.7100553251136049, -2.4137465424330067, -1.9415932569665315,
      -0.7049787439748545, 0.3832166118740177, -1.2586041421369267,
      0.752816702295825, 2.226067619109709, 0.05055598868978798,
      -0.8623272000813926, -0.43087322048599275, 0.13818534936231097,
      -1.663495696064621, -0.3214641548807993, 0.16752059187980986,
      0.9381935134692603, 0.6169445235203919, 0.28265814554390967,
      -2.1865927377438537, 0.5707777793003216, -0.24994619432896237,
      -0.8041810875300579, -0.21202692542858637, -0.2576815315660315,
      0.24788832176630918, -0.03157402767114946, 0.8870756107815111,
      0.1657860219464173, -1.8216497086515206, 1.107574912904097,
      0.7610691966110122, -0.5010130187626552, 0.6719232616890625,
      -0.395841804809508, 2.031625969160606, -1.8190823258377962,
      0.4674043064129199, 0.7097665876865925, -1.625023445710189,
      0.9865604443491509, 1.2712545755550284, -1.2857233664498853,
      2.1240264129313884, 0.21431425724945674, -1.1077824471995286,
      -0.9521352839908568, -2.092580015400856, 0.23841541439800024,
      1.7822815252125936, 2.031951485506027, 0.40007836163082194,
      -0.28270888496469293, -0.22329216822033418, -1.1099900096571544,
      1.441793056622212, -0.18425265087906417, -1.569604271626645,
      -0.046188789613064433, -0.5165442211575301, 0.36207508308496644,
      0.9636147100570469, -0.708167768204164, 0.9579914061268656,
      -0.07618187044812792, 0.3412342768963833, 0.755272894014925,
      0.5438119383658527, 1.245894518706326, -0.23468387599252757,
      -0.1689393723231278, 0.07098819148126385, -0.7967779344350411,
      -0.2519989500529455, -0.9429578500452087, -0.6428053692840459,
      -0.5156903649045617, -0.5617030517085787, 0.06756542070205218,
      -0.6062640566159769, -0.12711404877076193, 0.3636567437268321,
      -0.35511487672630754, 1.8202483150424158, -0.7956457520359543,
      -0.7782566791783099, 0.0346808375654742, 1.0030836838500221,
      -0.7684949790272749, -0.37256012014933626, 0.6195972960660032,
      1.0910844960697377, 0.21679653677620606, -1.3916570031026219,
      0.32019136675044074, 0.6114362148356686, 2.5955727814410143,
      0.2268783398156248, 0.066496297068865, -1.5969813926191918,
      0.8134511446899224, -0.9354521347003664, 0.20574719651498424,
      0.20902208800308728, 0.2753873369083995, -0.11400175918209508,
      1.7916078834162605, 0.7334989482258341, -0.19706490030345802,
      -0.19541180140919387, -1.2275581595317964, -0.9384846448423961,
      2.2687354140422347, 1.0750719828048112, 1.5678597958601763,
      1.8021591612308352, -0.8870561279532104, -0.056215767354920655,
      -0.8685118441588928, -0.5742909965478115, 0.42438102576891645,
      0.8968393316190195, -0.29504348196367003, -0.2659717781900712,
      -1.1487516128580126, -1.1603140302138777, -0.29355355772507324,
      1.0773618132232448, -1.2427642888335206, -0.28246882266946793,
      0.6307965230606942, -0.25140560163819325, 1.6063702079428595,
      -0.590777625569588, 0.7298209066383216, 1.0552567761523906,
      -1.312984873923631, 0.12599842913588444, -1.0585633374673105,
      1.0416544129424152, 0.5435228650477653, 0.13673271313989793,
      -1.4653272887593134, 1.3639389729812228, -1.925847002491992,
      -0.3202239688581374, -0.042131042417543174, 0.42562694800057255,
      -0.5126032261985545, -0.7675689025624488, -2.1414329947861055
    ],
    [
      -0.6567355107339049, -0.32955028117922197, 1.0558937307176337,
      0.675187014374372, 1.448911206160408, -1.1437235571235116,
      -0.8126403552159207, 0.2168474252114238, 1.101236815422698,
      1.549444846932024, -0.6732716898208336, -1.2320118015276904,
      -0.3967867269600956, 0.7464884753818997, -1.7355430960397742,
      -0.6995774959549217, -0.2984382398577597, 0.9767001604809068,
      0.3061362871940733, 1.4080874524711031, -0.6195934043959225,
      -0.8934558061096428, 0.24016021919127037, -0.06816062512268475,
      -0.7127214946469883, -1.902200974500323, -0.45011524151727356,
      -1.9205624287418983, -0.9351468587845756, 0.05243658219735872,
      -1.0414282459571598, 0.11826081608910577, 2.2722819483348573,
      0.16269680737414047, -0.7861004069691154, 0.7092201347050128,
      -0.39473864116016943, 1.4350036544483042, -0.44693319316248953,
      -1.2046935300713402, 0.053708651136375254, -0.17262167339607132,
      -0.4467618010286541, 1.683379200431918, 1.5524341562324546,
      0.2953111275983009, -0.09851612959711863, 0.5958427771939607,
      1.4014971486291734, -0.08167661224211392, -1.061824465322093,
      0.30686728537869995, 1.2202096184720232, 0.9829935748170989,
      -0.37593384498851523, 1.384808175343805, -1.352428692119789,
      0.05675666677756658, -0.49684004333624915, 2.032645641720525,
      0.06317932912060384, -1.4367364089050074, 2.1583815793218903,
      -0.15847686352828844, -0.7814980514770032, 1.434186225600733,
      -0.03319211809969693, -0.5057196443938461, 1.179571751563433,
      -0.1477620539102973, 1.2568926423228581, 0.8248896659841084,
      0.5569781592206006, -1.7612773886860058, -0.42821034976136835,
      -1.3201189570186083, -1.1141239876833622, 1.831400745307773,
      -0.2095738529841355, 0.3804067145410322, 0.760135229695169,
      -0.3930335991189069, -0.6804225769335049, 0.04577428962739908,
      -0.5173382378455433, 0.23354579518890745, -0.7084199337653767,
      -0.7464115710228524, -1.9821060660262557, 0.2533021028052101,
      -0.46513989106438053, -0.290204198535554, 0.7814040323149916,
      0.22360513190606957, 0.5031223602972941, 0.29763235417922695,
      -0.7421957373347173, -1.3698411245457542, 0.7772257373561748,
      -1.347155989446956, -0.6289357120541798, 2.531968912382448,
      0.585250301697656, -0.3945351653776891, -2.134055548939143,
      -1.1186145612970426, -0.47689699049902734, 0.3920848039381133,
      -0.18365312616468032, -0.3451521662323597, 0.303037585421064,
      0.8441653509195276, 0.6731622534248213, 0.10393389163155811,
      0.5967108800252195, -0.2846915727457794, -0.07342732103558951,
      1.0250526035007006, 1.501779940632543, -0.17452763007488345,
      0.4531658652354418, -0.5919983771911856, 1.7882127030153847,
      0.0040047234838709155, -0.5214328902201306, -0.49741122856825737,
      -1.6937135229839535, 1.1981146668815468, 0.10726598111124871,
      -0.04866543800835908, 0.7158741410648568, -0.0070866887518815005,
      -0.9219756096069243, 1.2420339334063444, 0.4979422252533261,
      0.04662056785265264, 1.5112398320895142, -2.039686242346087,
      1.6893205750145186, -0.2526344888097925, 0.27437133894216614,
      0.2196305283924773, -2.0051965889618892, 0.07730815012450613,
      2.07862358688847, 0.6035565927364792, 0.9452335719030379,
      -0.1085037626890883, 0.08728669639655767, 0.6030187349998867,
      0.4546761604567706, -0.8781242098404282, 1.231366818829797,
      -0.6614270656785473, 0.7395225880878359, 1.1603398780176726,
      0.11356251986232563, -1.7041596211155148, 2.497333735373199,
      -0.21031377511851512, -1.4555043688811962, -2.4251881930622017,
      2.514025632715271, 0.01997774926726611, -0.07326398137667456,
      -0.860110827749606, -0.4542225780606373, -0.425139059063059,
      0.9409569697243505, 0.4637505086984853, -0.8743143514365086,
      0.3181642511931563, -0.3370398472179078, 0.5065578033381161,
      1.1110933394329294, 0.031221505230548535, 1.4034606228656914,
      -0.1954185028312162, 0.674239717072052, 0.46115704047675515,
      -0.902351399226227, -0.2882724326305127, 0.330165435723942,
      0.04431990304770213, -0.319340359262103, -0.1771882028893347,
      -2.9302032461877023, -1.0530405345741096, 0.6294843167865907,
      -0.6825827864690941, -0.23295752202761114, -0.47555962490851766,
      0.36446119109177705, 1.647565348920515, 0.18128785754468169,
      -0.13810002327893883, -2.5120457932963873, 1.0020482383774911,
      0.6704392384025523, 1.2003455726939893, -1.3703732849988748,
      -0.4590898580440109, -2.1307910926247184, -0.6912198650929355,
      -0.7492556685854548, 1.7587810897710467, -0.7172846790037332,
      -0.9889602411993627, 1.707600405064235, 0.6489168627206218,
      -0.21705300763502602, -0.14083760779448776, 0.8925096749000041,
      1.76183433769468, 0.5017325189779207, 0.27184252179808094,
      -0.5196913638147148, 0.9522702528635959, -1.1670985870259243,
      -1.873020753806311, 0.9672915796878109, 0.31640348823247366,
      0.21358017960310186, -0.5610054700762391, 0.3765170985669495,
      -1.0844201008034902, 1.8695151164182777, -1.2749340428399636,
      -1.088955670121513, 1.112076871444338, -0.9689656886895978,
      -0.718139058183103, 0.8770380681916355, 0.46264244701803164,
      -0.4558412954923541, -1.4448188812652991, 1.4823725951174482,
      -0.304605353545396, 1.4272139010705491, -0.8057569659738496,
      0.3527789333851505, 1.635282699098221, -0.6477813516227662,
      0.5711494099936338, 1.396357820867868, 1.3814270076262847,
      0.4384290835451726, 0.4898152501097832, 0.00408200995494666,
      -0.058673037856442095, 3.118638214752513, -1.3909712788516546,
      -0.545933433141348, 0.858145947620473, -0.2613356374048314,
      0.75241813252301, -0.14814587326723114, 1.087778091922374,
      -0.5561094126995287, 0.3870566607611503, -0.5744546147384416,
      1.082752002046623, 1.4898328822373255, 0.17225548029044382,
      -1.0026098685890734, 0.1532964231752504, 0.6826873112766978,
      -0.01876123763626395, -0.03411926188616284, 0.22338631511958623,
      0.14048663287462507, 0.6958618468319496, -0.6756432041086339,
      -0.9218018104482463, -0.42189469594772, -0.06272274797376366,
      -0.9739380364950599, 1.379832494256521, -0.9268422297999935,
      -0.9518637109968006, -0.12478129992124509, 1.065901606889485,
      0.029922801741828063, 1.204597378672234, 0.143024427434326,
      -0.5184294394494041, -2.2053888753314603, 0.5805034516947915,
      -2.6092287394532794, -0.6491325037862837, -0.7043697726381698,
      0.5996948155497831, 1.0957329764344008, -1.5654162114434407,
      -2.827834449540067, 1.0134063119496841, 0.33804977420570603,
      -1.1534730823362653, -1.1391686161172543, 0.8078480236591827
    ],
    [
      0.07459793089313603, -1.5490379667883065, -0.7788120244879392,
      0.20906603968361387, -1.3859534865635172, 0.896485286529764,
      -1.8486109778885411, -1.678745393634703, 0.04578073737207351,
      0.4472238215957462, -0.7924991778295233, -0.5203940711060379,
      0.39301384454108146, 0.7494598109818725, -1.4457146103807772,
      -0.7189743288095817, 1.224756401573049, -1.03855820341734,
      -2.31915012181256, 0.3089927626057073, -0.6222027174463618,
      -3.1150863302719753, -0.051659767428134724, 0.6105506749549485,
      -0.7533996886761526, 0.34377452965994737, 1.8827830527298457,
      -1.9102918612768032, 0.08952362496316475, -0.5965592946530242,
      0.6478994682428303, -0.09653249688892529, -1.1125396407208403,
      0.9591961808691163, -1.3953161411857984, 0.6513310122241079,
      0.03560864071379564, -1.3606129573479389, 1.0341782391665193,
      -0.1005650926063795, 0.06956970095744343, 1.842498470531383,
      -0.9543834818623014, -1.829522981831101, -0.34195152483392643,
      -0.651549710352576, 0.13060442529721633, 0.4133082642471737,
      -0.4295136828900218, -1.1493601275548877, -0.9533195955577258,
      0.7272293906027093, 0.33788430849662343, -0.3358343199820195,
      0.24129220344142988, 0.0697692922776555, -0.21206871188281254,
      -0.9916094595989664, -0.8821556585105785, 1.2042825246188322,
      1.7557072941032523, 1.2931247562128434, 0.9738345050382943,
      -1.4676145199041513, 0.6881893798408301, 0.24611064153789314,
      1.0360730955085211, 1.009270946187426, -1.707903989126996,
      0.3174583495735149, 0.3380793210971796, -0.08909762721737581,
      0.2559096871998772, 2.953623576627695, 1.5826696203644695,
      -0.546512618449042, 2.2389569943231535, 0.43334624865900984,
      1.5166404308442463, -0.022097893488724273, -2.28579853331573,
      -0.5173954283069135, -1.2538003116088106, -0.35461235849690625,
      -0.45473093754338445, 0.10846688153457061, 0.9955255964260749,
      -0.018466513122680953, 2.125736808653914, 0.14498586060585028,
      1.5490868736255412, 2.5186977647366917, -0.3190519476817115,
      0.2672614189119927, -1.060445912940754, 1.574254106384993,
      0.2513128181888034, 0.15617349318159834, -0.17232280854763501,
      0.44642800279993455, 0.39784832426004285, -0.383888663986545,
      0.7737864973945519, 0.7945474782858415, -0.02368103815792295,
      -1.956776073545275, 0.9526513215879492, -1.8831103767699227,
      -0.3394544202369211, 0.18229871868884517, 0.8231345818308056,
      -0.13292934965312134, 0.4228692288696394, -0.3940972521354232,
      0.9737783709291417, 0.7646774723773652, -0.006799249751551793,
      0.4959519848364223, 0.5286471198451902, -0.11627141354740435,
      1.4184658490311095, -0.9395122913173536, 0.3552244938088277,
      -0.33414872067425516, 0.20162316848623404, 1.153999915135365,
      -0.20610250258745108, 1.7532532908762435, 1.3670005040577724,
      -0.17250363727435436, 1.8927517227242903, 0.6638082820027323,
      -1.6062984614402087, -0.36392714920736485, -0.18668318234593892,
      0.6113477694062109, 0.17587337451094137, -1.0792968700370222,
      -0.20868774884078295, 0.11018299060462788, -0.2680477684162592,
      -0.42401600290569547, -0.45312737585437524, 2.2679007847550037,
      0.22004681945267743, -1.1206317364276488, 0.9270889044520915,
      -0.6659663740714382, -0.8445719754271411, 1.3545003912131328,
      -1.5482885119769476, -1.4579758389134636, -0.2901608662352171,
      -0.31897793302774796, 0.7721270127903522, 2.03382674510541,
      0.2559430184373413, -0.729921327031672, -0.16902640637796998,
      0.9243679480863711, -0.376424655624792, -0.9638836015580863,
      -1.553987862200829, 0.6447312558764731, 0.874663124152343,
      -1.6777817254041854, -0.4336246718349946, 0.8817251295217261,
      -1.2740579272620483, 0.04456595653174793, -0.41456833735992193,
      0.3346173281355399, -1.8837769279290053, -0.40082208049780343,
      -0.47406026060955403, 0.4962443675221851, 0.5238042119576938,
      -0.19992378154635332, 0.5006368085144726, 1.219118927632227,
      -1.3476955479936437, -0.27990246988021517, 1.7788655961863218,
      -0.15377471604314463, -1.2464487922109435, -1.9548127524898555,
      0.2722606034031073, -0.7838284466187718, 0.28704068591670534,
      0.6657802312081743, 0.29111215703974436, -0.7286014510682346,
      -0.3603153178060443, 0.4353155972439553, 0.1649720004238615,
      0.9900900886713689, 1.1387669865697778, -1.5536179115630029,
      0.31309763030644194, 0.6435437509253373, 0.5714094297075526,
      1.2492049807082999, 2.4123829076034125, 0.6429673961851868,
      0.6070637686284558, 0.4191072955811676, 1.1111955750650973,
      -0.1356145294873716, 0.752571436741173, 0.016974008566495717,
      -1.0067434031564482, 0.8423579944945674, 0.4233460335800097,
      1.2174117328436476, 1.0923857525421967, 0.5096267379958724,
      0.7000841665240846, 1.3741150357953014, 1.7158050002510692,
      -1.195864548021615, 0.2132535144056023, -1.7508672979385556,
      0.10635003017430178, 0.6045316530262863, -0.14624209595840212,
      -0.06550011737184125, -0.586873053887667, 0.873789249269753,
      0.47849884397805154, 0.893862689515427, -1.1685003074831806,
      0.01828838354287098, 0.8482328207730433, -0.8550147640675483,
      1.3973106371342356, 0.4545163566766191, 1.7680465562074579,
      0.1078411972685858, -0.37145274943628565, 0.1210376166410375,
      3.160867108862975, 0.6933660699884728, 0.2593276165656072,
      1.6323913474603469, 1.7632874312725988, 1.307871859905891,
      -0.046093597454730975, -0.1630992330899869, -0.02723697119272983,
      0.8123247846440087, 0.8564152818744047, 0.670471060623698,
      -1.7877213978022586, 0.9195645439065412, 0.9227311062369713,
      -0.15328242874550843, -1.236663360153165, 0.007131952299099514,
      0.24333832314903805, 0.31113636352036766, 1.0865046799141707,
      0.06800149957735635, 0.34885271252530675, -0.930455903141532,
      0.3207471134425261, 0.6816752091580083, -0.10191875743816602,
      1.9094619758481097, -0.44138163480831555, 0.8104052184093321,
      -0.09402051148354351, -0.08043169843034664, 0.3431392866059599,
      0.38693178182838905, -0.6107664530807978, -1.0929713732373756,
      0.39191508167582223, 0.0697932187174183, 1.8808281497407715,
      -0.3885362851708432, -0.12479890459012956, 0.3163274175707791,
      -1.001028201741331, 0.8821104266336932, -1.3332600037232727,
      -0.7895258002417664, -0.9494619083949422, -1.4644508445439313,
      0.6103070040966925, -1.031692215209304, -0.5203605574827077,
      -0.32049658498125744, 1.1886526911293716, 1.8208248256700235,
      0.6010699989593171, 0.6495831279559025, -0.9823676369282144,
      -0.8294806771698291, 0.23232922837926304, 0.3304408686006531
    ],
    [
      -0.18532900622366333, 0.40808469219721694, 0.9200412115178018,
      0.9606051085054866, -0.06507046887567423, 0.17795477997923623,
      0.1300440906759004, -0.1955184985800542, -0.20457439932066926,
      1.113598098420388, 1.6007853025837349, 0.548398590632107,
      2.4208470311980417, -0.59391385622648, -0.9789453088144034,
      0.9338663986373478, 0.33209721865242653, -1.2677905518616053,
      0.7277752903575111, 1.2353119038214044, 0.7034404104946763,
      0.030734051982192773, 0.9122722529258599, 1.0996400226281557,
      0.5505507923073679, 1.3892937143733581, 2.047400960632144,
      0.14086364735444884, -1.5531444151571034, 0.49697325360424427,
      -1.295610258198826, -0.26312332168369296, -0.19265642222852813,
      -0.3099105289101783, 0.31090515387364753, -1.8399957855965345,
      -0.21882791972740082, -0.480516564348497, -1.0956324355328186,
      -0.5927692226547076, 0.7043785312031241, 1.248534188962386,
      0.7227318269157007, -1.5793448164126138, 0.5521502658632952,
      0.5796605218507124, -0.122776105624695, 0.8173653297643383,
      0.9476404935516507, -0.223227689050353, -0.26482269790545715,
      -0.5262403917125177, -1.2328882898524756, -0.2319724437463449,
      -0.42652960147489144, -1.3252419623478384, 0.8234935425372778,
      -1.507220097203873, -0.08190088074977839, -0.03805890939608844,
      0.967984648909954, 1.8703194119440067, 1.1447663224483455,
      -0.13861661526614202, 0.5478657805447045, -0.10048383518182372,
      0.5030744281024876, 1.5643453462620092, 0.12006565005511183,
      -0.33851600188853803, -1.149366976374777, -0.3241666762090129,
      1.1594292297746533, -0.5715412652161058, 1.8328440237399832,
      -1.5680454743181096, 1.7239190044455932, 1.0399160331152397,
      0.09926209072604661, 1.396007916886776, 1.3754121878793972,
      3.360661472643505, 0.7693289321923042, -0.20274552350215255,
      -0.5942661371399841, -0.44941422772743767, 0.2990011794416197,
      0.2682285758203279, 0.04767713302616587, 2.138207228243361,
      1.2574338679248367, -1.0097989186876368, -1.6319910654697476,
      1.1977701755501147, 0.035595319040145734, 1.8414079751707872,
      0.5299377769916532, -1.1004042842069341, -0.7867541159528757,
      -0.021112970103965276, -1.0367110374716262, -0.4719485435258667,
      1.020513578471842, -0.04873197188634258, -2.3769803388631723,
      0.5380655697282344, 0.08101054375325438, 0.735618026397491,
      -0.17004512383575834, -0.4370671035544939, 0.3370816121695183,
      0.33176458310046386, -0.29232341811452683, 0.3792867719424551,
      0.31406676132108985, -0.3516360883365266, -1.5342896097682674,
      0.42775826725622046, 0.5105541874660543, 1.1696128078015504,
      -0.19569535788790027, 0.03205464396971324, 2.017885156308664,
      0.012301460741239272, 0.33878226033705106, 0.05347842278432248,
      -1.2884993088778285, -0.5330038747383854, 0.10721429698676786,
      0.32415387647446514, -1.8615820979615159, 1.4816876870442353,
      -1.6998953486442916, 1.0673616867998477, -0.2097201297916851,
      -0.5351761291627155, -0.4990645707599878, -0.839340300060349,
      0.204456117092144, 0.4945831243626527, -0.8505658744107867,
      0.21360552396503754, 0.3833119320872843, -1.9127652858779987,
      0.3627088125068359, -1.179526667997063, -0.5692442576384472,
      -1.1709469606414078, 0.47733692511238973, 0.7190321009256346,
      0.8478774004139816, -1.1996052667294523, -0.12515949752639913,
      2.236384068198583, 0.4298377627023606, 1.1032226111038343,
      -1.0291825870786837, 0.16462228606582954, -0.07129081758784547,
      0.8347746809593711, 0.28006002151680887, 0.9331263019199049,
      -1.6289688400516533, -1.0234681602250522, -0.12679641044272588,
      0.18452211443007002, -1.9699687141666575, -0.6119865585817382,
      -0.08104361912904659, 0.8228836740791649, 0.7276350573354067,
      -1.5724130583795528, 0.14251593402751558, 0.4314638975534772,
      0.1703596661213479, -1.592217276286605, -0.4069858905772434,
      1.3615097963855805, 1.0366809227358553, -1.0281470750138568,
      -0.6488430939399172, -1.7279002262445105, -1.024137948844717,
      0.7852725759829216, 0.9629814141148234, -0.8612681864701625,
      0.1904494216903365, -0.88051131688021, -0.2845765707058677,
      -0.7588588713298943, -0.4767341024725864, -0.503055541972356,
      -0.6252188785571055, 0.6761957556458428, 0.5709217715584118,
      -0.8374941186979988, -2.030465717380033, 0.012953076894560411,
      1.9981901675931397, -0.595004703690366, -0.6816282098380205,
      -0.9560889302224801, -1.929432570008015, 1.1205568025210388,
      -0.35737272342080095, 0.4647239961894783, 0.7104533304949326,
      -1.137704566656952, 0.3243906468763376, -0.5305951050481625,
      -0.2635270927918777, 0.5469152580165653, -1.643747080196094,
      1.8047867701101132, 1.2627436998801653, 0.8753944344699981,
      0.9450309513140831, 1.5100858781594586, -0.22121983317090194,
      -0.819943061508892, 0.7475094157473086, 1.2153421403221667,
      0.6511088067973841, -0.520772634721795, 0.7361064371039077,
      0.2295326609900533, 0.404394158302164, 1.392497202409789,
      -0.1909494799089342, 0.24813107068823956, -0.21062999995636555,
      2.4456777827538017, -0.6700080400019754, 0.970120931263201,
      -0.6258164667885974, 1.211226771006376, 0.7342763346211615,
      -0.7685159916024392, -0.11241843138315973, -1.922705668764353,
      -0.5608647483895624, 1.6508846690751202, 0.8235262659509591,
      0.8036146193516032, -0.8575697435617381, 0.38410948171010006,
      0.12377502954611626, -0.4537910501243043, -1.5367664953220255,
      -0.8065140539447254, 0.3954328417597233, -1.3602072212487186,
      0.2880493346435223, -0.4940338224077845, 0.2153317432245995,
      0.015344321166051304, -0.43700247621477745, 0.6213871071861977,
      -0.4858296768726113, 0.2639325122150272, -0.06209337780393998,
      -1.2786682720884555, -0.4083879327696622, 1.245936963051241,
      0.506496116046538, 1.2685485980697413, -2.1728930999949574,
      0.423287238337698, 3.217450063340254, 0.5809529739467025,
      1.1059972299856082, -0.32798079909805267, 1.8653876228023152,
      0.16040207330848766, 0.6676656527331939, -0.26696243897878374,
      0.13862989748854884, -1.1598968709189739, -2.168342340721094,
      0.37855507764479024, 0.18536350136091378, -0.4052933787656441,
      1.3235927436001627, -1.3487066648454977, 0.24713622219363038,
      -0.7766092119476699, -0.19290956546784063, -0.5617839508029749,
      0.5895313295859198, -0.01857300793975917, 0.23626900035854206,
      -1.9891197149898168, 1.1532993832847003, -0.28060669144280503,
      -0.9712889889066268, -0.4729374813849177, -0.028700499512466,
      1.3295301446175773, -0.7355445728189957, -1.1803633644584144
    ],
    [
      -0.6053493683077269, 1.087032352076244, -0.413681141506587,
      -0.029304285712720167, 0.5862888912080352, 0.8065145032126432,
      0.5741870435405294, 0.287355302227645, -0.6052479078485963,
      -0.3294331498893184, -0.020524910446931097, 0.418892809422026,
      -0.47145349049590685, -1.0984163069247586, -0.029662885855341343,
      1.716467082439575, 0.23210150671681193, 0.3652968218750849,
      0.13767853356938992, -0.4397666979726369, 0.9037469345993985,
      -0.25069969767273365, -0.05188615258901241, 0.5550174429542817,
      -1.2309464403952186, -0.5805459240837002, -0.04650231335973266,
      -0.37959675293302897, -0.40985330025213557, 1.7913325859682874,
      -0.10215637957391488, -1.2769345542414965, -0.679531354934816,
      0.3452441623044013, -1.5278516423083108, -0.2920622381844229,
      -1.1766365596181478, -0.41091792981413994, -0.8472017124801072,
      -0.2492766085919105, -2.0068317921771115, 0.03977805679575061,
      -0.6889404066441186, -0.7769200105186054, 0.15521430234078498,
      0.6778376405046322, -0.9982089409434648, 2.272888215248195,
      -0.21554313134780018, -0.5530712205501778, -0.04568139930357081,
      0.6823733774120533, 0.05141764423915437, -0.2794765660397599,
      1.588335772572176, 2.022089833793468, 1.6946778047546454,
      -1.232740119768219, 1.7027243207827187, 0.9753781779438666,
      -1.2545758963944444, -0.19577898246630382, 0.35574501329300523,
      -1.6572655206457079, 0.39897289954885146, 0.6591723305648807,
      2.0756471627126523, 0.6258693745159845, 0.32249523079418935,
      0.08917008492695598, 0.3302001830361802, 0.5477417201252933,
      -1.255807031403092, -0.23335003895367445, -0.804391541255503,
      -1.4403016210610773, 0.347954801943059, 1.0014443962235664,
      0.7069760106519652, -0.611180066961743, -0.12085140590797856,
      1.7286181207201838, -1.4063398986053015, -0.8367086542211601,
      0.7191065049395461, -1.091870990120296, 0.4226135920861701,
      0.2893900037915775, 0.0178351716819332, 0.050257551354639995,
      2.0613740687516717, -0.43347588212609783, -2.1760147272426944,
      1.2362222877047417, -1.2105166038804296, -0.8891971829295348,
      -0.08499307048270417, -0.5346754051525806, 0.054493575214247345,
      -0.0798152131818949, 0.48102599356746306, -0.03995699458686091,
      0.3199327960600877, 2.637338860800302, 0.18006812862954633,
      -0.46623560684546467, 0.7082345123704837, -0.6774999667211545,
      1.2614776272578232, -0.8610071828536905, 1.4257572241393133,
      0.5603771705299498, 0.954504222413465, -1.5058183598902337,
      1.458300937879034, -0.5395111400217277, 0.5078540643336471,
      2.0201425135134734, 0.14298375032912888, -1.4586713227672639,
      0.3785554470786369, 1.1906838842874505, -0.4909820133715343,
      1.4397037190256183, -0.055970227843342615, -1.2103773682437688,
      0.5588439216174929, -1.5424348873932998, 1.4522374131839808,
      0.07643485331308221, -0.4464114189039702, -1.0383774883812118,
      0.6160750769421676, 1.7517334661743105, -1.7487577746294434,
      -0.8066352674333093, -0.44343902960148174, 0.7465191352509576,
      -0.1580553034029097, 0.8426973122189954, -0.9206195903615964,
      -0.8604027516180538, -0.7744677200474576, 0.20689727917432052,
      0.1940050871049615, 0.010284813645162436, 1.0383587714917384,
      -1.0223638137521138, -0.021378846520902578, 1.3609573987863104,
      0.023265821319853407, -2.1938273616666577, 1.2285867390468903,
      0.9667050627924406, 2.19734223108885, 0.5189365136923473,
      2.5755517168270714, -0.5481977191781819, 0.6543213816414326,
      -0.25173249069763887, -0.29425953521837456, -0.2695961516735492,
      0.8278239999369578, 0.4465138734003041, -2.55123124359869,
      1.7294625149835554, 0.5747388690589329, 1.655802328983713,
      -0.1549734292953709, -1.077168182758979, -0.3589461496749565,
      0.41544859381233695, -0.9817649622288432, -0.6625249354737577,
      -0.3621692257315931, -1.1219931163434511, -0.9916212304582376,
      -1.0956289385515836, -1.002941149921421, -0.9746379686365823,
      0.3958322200400132, -0.5738800570827002, -0.35854842860620806,
      -0.4761541022633555, 1.5625015146957835, 0.6132017194123995,
      -0.220083680097912, 0.7920484151096477, 1.1438549414494341,
      -1.156851319755072, -1.1081551753034893, -0.5144178371871141,
      1.2561804060392143, 0.3881220220172619, -1.0003509731076017,
      -0.10533547881654068, -1.2370347017942978, 0.6507895892081548,
      0.2467770253922275, 0.6310932762963678, 0.9611427677182025,
      1.05079659904925, -0.3331764970159744, 1.787528202203371,
      -0.48071182554461517, 1.6987542141590575, -0.6151547790278452,
      0.10577164049066999, -0.05233503614569624, 0.5325345126781473,
      2.027050146856551, 1.0114611094305792, 0.8337870596095015,
      -0.5941026487720497, 1.8219617465139635, 0.7427186001593662,
      1.3111663010345946, 0.8843253281917175, -0.08771802986947691,
      0.4055245227266861, -0.037765669912110125, 0.9185372494727497,
      -0.783977349663378, 1.042341081738592, -1.1943358004064732,
      -1.812236348167242, -0.719319002306222, -0.6848917974320181,
      -1.6158681996317927, 0.3463740097415957, -0.2086959813818248,
      1.6447397815294655, 0.9485463384478322, -0.7202465611626372,
      0.44227830003175644, 1.976085315247732, -0.5900542016126634,
      -0.31534048062953984, -0.8709437875874554, -0.5939207206033446,
      -0.47577515633463086, 0.6934778172913751, 0.4516718567928204,
      -0.5136171764727974, 0.652800228018097, -0.8603466412023826,
      -0.9651176927703295, -1.9664046220867872, 0.6459551362946682,
      0.7777429081024736, 1.5091587462714393, -0.3309868371027654,
      0.5036466558011515, -0.48777764198262846, -0.27447050261018335,
      1.1590273583425446, 0.5678699657017935, 0.29474970196908246,
      -1.021428294523751, 1.1287297753840393, 0.7919163234704344,
      2.7758043340274603, -1.1061619630436386, 1.2463306495394302,
      -0.05448519405029704, -1.3936112164634766, 0.9126575318522894,
      -0.8507028281839116, -1.6941334504049246, -1.0384955209178266,
      -0.6477545186230879, 0.5099306054527113, -0.45029275275859537,
      1.1278917960855688, 0.39255634182322907, -0.4710234295122081,
      -0.8086928579375191, -0.5635636533031135, 0.24212088803418905,
      -0.8956835563190609, -0.4267988315123131, -2.072715028843026,
      1.0448652579705044, 1.1330836715318944, -0.6685031393884611,
      0.3204163364951681, 0.5475409138405083, -1.9048059680975389,
      -0.12044023604521376, 0.12263650801170331, 1.8312686638104152,
      0.47829013858265096, 0.07738138762235094, -1.1362762937556619,
      -0.8390271715569296, -1.859604049420317, 2.0491155864002426,
      -1.4405754233074564, 1.0585346353994023, 0.40028095117126783
    ],
    [
      0.36644997782952743, 0.6825837110341465, -0.8128304929429754,
      0.6756420414521263, -0.2067876420891004, 2.6264618865286153,
      0.8001970744127316, -1.3200748104101812, -1.2606285107988202,
      -0.45562112770929153, 0.9256099441613302, -0.40803478446449487,
      0.18281598351550915, 0.3388590228156135, -0.9170281978959328,
      0.08523714860041644, 0.20106176884318597, -1.22232676745861,
      -0.4911214948987706, 0.02516243726979702, 0.2779824583958315,
      0.7309793348229737, 0.2555930196111328, -0.6473587972263336,
      0.7852570029523634, -1.1115242426504324, 0.02833087210988424,
      -0.8376824257036071, -0.7989069607169392, 0.8021559689190937,
      1.1572327016235024, 1.1909531566033105, 1.5544125862727396,
      1.00400435138523, -0.9167811744612693, -0.30236039668455755,
      1.7317838726635046, 0.3121656317734407, -0.47531206595912295,
      -0.40809143569805917, 0.12426645136890613, 0.9013849675236466,
      0.2771981296109376, 1.316961151397346, 0.15608887026978524,
      0.23504633921775583, 0.25576180877831245, 0.17692885814118073,
      0.1507344013151765, 0.7674798344991219, -0.3878716661929775,
      0.6192069194484233, -0.4196990152580677, 1.37952578319802,
      1.3644753822726972, -1.0357882667594502, 1.3874994982410223,
      -1.207322669064792, -0.5755006416105608, -0.6553229501038346,
      0.9343783341734763, 2.489410295642516, -1.240041812631875,
      -0.07080523949298292, 0.516249960464229, 1.1481975899041956,
      -0.47912154719386046, 1.6840744413312958, -0.3225951519120754,
      -0.5987595145253666, -1.4665475291763006, -0.8074067957019954,
      0.03692783413963692, -1.2909946570555126, 1.524255452969884,
      -1.3899782609256148, -0.8309241878909573, -1.4915127449709724,
      -1.1837043035743164, -1.3320116970439946, 1.467427678331949,
      0.024278730303729526, -0.04285628716342402, -1.3615629715814856,
      0.8992813449445834, -0.8398996135153732, -0.09854273535628676,
      -0.3304677901765282, -1.5919882751098888, 0.2033226391849552,
      1.9706092843348235, -0.7216955410823275, 0.1299522081493305,
      0.15446561451699822, -0.9487937972674878, -0.4205231397201976,
      0.2829940018076089, 1.83478391779369, 0.6508205329253283,
      -0.11276980139582116, -0.04445994915781527, 0.9891346375855885,
      1.2251669280494586, -0.24113872817578286, -0.19170129172537909,
      0.38245155385571394, 1.754722710540927, -0.3702374152292881,
      -1.7170259843834035, -1.171683325783363, -1.0423570856000368,
      0.6030775585651352, 0.8377571521122807, 1.737916500334378,
      -0.9221248417387418, -1.28015877746757, 0.021592420563360946,
      -0.040345521630288136, -0.42204549236210565, -0.13538473352679495,
      -0.47384342211899966, -1.724628790791574, 0.34285045925211194,
      1.568388416315098, 1.6826967428408872, -0.9742243574945809,
      -0.3235325028295798, -1.7010893007066028, -2.197853386433152,
      1.339805215261221, -0.42709373820986174, -0.06206952131517576,
      -0.3202575694999436, -0.32363302867085353, -1.5184391594776399,
      0.17695119390521644, -0.17628192686587812, 0.04293087780646307,
      -0.6079188950357165, -0.3715982089541679, 0.9802701610738253,
      0.005338959347813966, 2.2917491969152435, 0.08727536061520387,
      2.178054314426234, 1.3104048159491775, 0.14116352903324886,
      -0.957031789507058, 0.31947100953262847, 1.0557216482535474,
      -0.3329686321092663, 0.8657910659733478, -1.00360123551128,
      1.75062720565545, -2.1335948640853957, -0.34737132865760056,
      -0.7302754636304846, -1.438418536748077, 1.5030918300265375,
      -0.9017046606726867, 0.7641429404151612, 0.12778228189032892,
      -0.0692017385405814, -0.6084240546825056, -1.2158014977567444,
      0.03266114224063067, -0.08154674833164156, 0.5275026767637749,
      0.8235649149936719, -2.0574016344229586, 0.505644444888843,
      -2.2464181252928737, 0.1800008907218788, -0.7536484764989282,
      0.8668298604148039, -0.20741031870295143, -0.9018123570806952,
      0.49903707015778076, -0.7368493322330298, 0.4748229417793739,
      1.8422238852687476, 0.27689254529366025, -1.0001965149627472,
      -0.9104343512420922, 1.423561876417722, -0.7427791061894091,
      0.7929067774164468, 1.2304953532534884, -1.1950915012775571,
      -0.6656345737811646, -0.6705058658078872, -0.5735804873679147,
      0.11727591955731224, 0.5418371093730594, -0.2735482868735307,
      0.48083040294191676, 1.764730421392203, 2.387625790222596,
      0.49337004052805167, 0.15614274765298003, -0.05286059999268565,
      0.44991289583049254, -1.047180459330478, 0.028973252794459024,
      -1.4034428829854044, -0.47608068417909344, 0.3710922740667858,
      0.3965363656455351, -0.08813484924682963, -0.5156570570792036,
      0.5808387655396743, -2.422418969613465, -0.09394042116769961,
      0.6061258335802715, 0.49665566654040666, 0.8391932416434302,
      0.3457279922798218, 1.7029737365787991, -3.6152355425358813,
      -0.40736731520457964, -2.205872998137342, -0.17053464962650175,
      1.7636374113558517, -0.8542170764923281, 0.7634103226954713,
      1.797032683740854, 0.8618342914508828, 0.97394955445121,
      0.4133319992691989, 1.623632483352197, 0.3674036358049738,
      2.2099296803629347, 0.7092333215716756, -0.38845386232465606,
      -0.7741036914377064, -0.3317084949484443, 0.6354870405434768,
      0.8404876463249851, -0.7786292203586095, -0.5707274166285926,
      -0.17754209083209474, -1.5021648269343837, 0.49126126401263664,
      -0.8209621172625922, -0.8082829588153412, -1.1074720776119913,
      1.6231000875228336, 0.888488225963423, -0.6601914790332667,
      1.3655916716762984, 0.43441644112352423, -0.007924331470436188,
      -1.3438924489236395, 2.1821330772456626, 0.7320161165881031,
      1.813890705698984, 1.072573085174414, 0.8304754764446277,
      -0.05526593115007336, 0.36984777326758056, 1.8423418904763629,
      0.3789164654942364, -0.7441344888492397, -1.302818742469153,
      -0.8170177088739154, 0.312205724995576, -0.9902491416160448,
      0.8890162910704839, -0.5015670203674814, -1.153887907071472,
      -1.211007770138546, -1.4410355233512853, 0.4028824637018443,
      0.7700219809744479, 0.42291892217949384, 1.378047434268531,
      0.42893292011761813, -0.6431437294391862, -0.781208500520562,
      0.1342472474815499, 1.2929323731848268, -1.1959627164461852,
      -0.2822474420100013, -0.44087704919110227, 2.1002998448848946,
      -0.970530412845598, 0.3803444259164828, -1.2441041748506119,
      0.6986008850262346, -0.2751533746252204, -1.8138225821709797,
      -0.8992036889163347, -2.03290207328473, 0.7985536501772138,
      -1.5931227870768976, -1.0487460229994954, -0.15637764909705024,
      1.232684257228465, 0.6354629461890672, -0.054921488829451304
    ],
    [
      0.800024898847198, -0.27889312031816715, -0.879531973245295,
      0.16430667959745995, 2.512803086869592, -0.2380246807581441,
      -0.17886329240328966, 0.8615747252127082, -0.7237124267068268,
      -2.204974651343148, 0.435755752451497, -1.173269937313196,
      -1.3426142384047297, 1.8420765848595926, 0.09127179385321393,
      0.9352757934685081, -1.8069042829136097, 0.7951940966678309,
      0.16506362485881945, -1.2218142693290535, 1.6770462634268752,
      -0.20793905423952078, 1.2936876018172903, -0.4589580730655687,
      -0.3922582629392698, -0.290526680588882, -1.4458773275623344,
      1.6281556624051485, 0.02797529640145147, -0.41073855319177843,
      -1.0107790458470158, -1.4070516348873834, -0.4571095708102802,
      -0.025271320943646387, -0.7454260429969063, -0.36024313097809435,
      0.2103994141282463, -1.5350979673016039, -0.36287397942697763,
      -0.43210690146415803, -0.3236124771979202, -0.3013504007315738,
      0.3447533037893566, 1.2893543058066843, 0.15971447334274205,
      -0.1268545131717161, -0.23672715694924287, -0.9707911763143261,
      -0.4372591665383806, 0.5474682048520545, 0.057432467832235407,
      1.152883787475816, 1.8628173505662513, -1.1686641638532753,
      0.8873623102889461, 1.172827172362361, 0.6677320154662191,
      0.21457717222687206, -0.26630505918449143, -0.18981121946334215,
      1.3348404212460996, 0.9647680321652328, -0.9094758740464925,
      -0.23059780223109086, -0.3780578641806867, 0.47605137168580036,
      0.15616344511624383, -0.5742122106653728, 0.6164782252916833,
      0.1422140733471659, -1.6476422569644356, 0.7845202126957459,
      0.20413871492412244, 0.03547124496987196, 0.02203108286459384,
      -1.6861421675089987, 1.3190192313600733, -1.3146409054169985,
      -0.3009800883513327, -0.5468635036338134, -0.058604570261732686,
      0.25429197492753014, -0.5811997170917719, -0.5541053745981067,
      1.44100046038241, 0.4452254037249421, 0.6259937641006128,
      -1.0595224496443467, -1.3298977217280716, -0.15654931959364635,
      -1.646308737831357, 1.142562384457576, -0.19336540894566426,
      1.8775469498938355, 0.09137971730949823, -1.233418952112418,
      -0.22448746588220445, -1.6333474717997305, -0.7064297657964853,
      1.4805946927759732, -0.17548890907186374, 0.3513719629288674,
      -1.3396548862991713, 0.3288239247084387, 0.09762518357968232,
      0.09244621570772578, -0.18128406798982113, 0.8893847092808077,
      -0.030035724658974066, -0.44473458359633217, -0.32865291529288787,
      1.4507590081124166, -0.4270092063183838, 1.4157151629852196,
      1.554096702006889, -0.5020699829560474, 2.259974243329113,
      1.5731770587138971, 1.9247719890324997, -1.3935542641518688,
      0.2875834810481178, 1.0950114925305794, -0.9520728006940975,
      0.8669848658037654, 0.9623242880369117, 1.0084035314284432,
      -0.40390124193264015, -0.029360228126564, 1.6274673184781778,
      -0.1250782588408631, -0.6444481451099378, 0.8292534601334022,
      0.33611869846889986, 0.7358669230255673, 1.4362675307030164,
      -0.8503497221635465, 0.5689241958866363, 2.2532792279666727,
      -0.5668680090325063, 2.105368338065281, -2.644352889781643,
      -0.12338805041090921, 1.2100500852515323, 1.1086843373366653,
      -0.12267792781707708, -1.1096652862405556, 0.37984527435359466,
      1.3724258691751807, 0.3271530573252911, -1.3163894900056392,
      0.3497994175545046, -0.7898694145264328, 0.7793431377935319,
      0.46030642462581894, -1.406750217976931, -0.7653572024749232,
      -0.3372378672845408, 1.1087853806792018, -0.824489479186613,
      -2.3793232822351262, -0.17821087942307962, -0.2510673423417714,
      -1.2003799080050768, -0.10680764764692423, 1.1759972388734214,
      -0.23652130489085296, 0.4919925966758945, -0.059717984806398595,
      1.72557053945127, -1.119526893750396, -0.7169277701482235,
      -1.314977059062349, -0.4688678829669142, -1.4794293587625083,
      1.4902121884097337, -0.7118250652877989, -1.1243429201822337,
      0.24457703024917601, -0.5271301058557415, 0.3346189805547395,
      -0.29754522365656405, -0.19882097236339408, -0.0007856727230416589,
      1.4141775565503183, -0.11715660993587827, 0.08857552084534433,
      1.2318110853229993, -0.814917680636686, -1.3917383826663678,
      -1.6598805635434422, -2.9983586851039656, 0.676742299083654,
      0.38791930438839795, 1.3730582441822095, -0.028034138655131286,
      0.5100829607019604, 0.05762356987784877, -1.3210093073191373,
      0.2409993294044704, 0.9155225276659695, -0.34995983743788334,
      0.1571805253303906, 0.05037754969902812, -0.5811637054420031,
      1.4367444403443888, -2.1943254632165483, 1.3687808922155231,
      1.2992158102946179, -1.1454868172715633, -0.18822231801544773,
      -0.22221706227790686, 0.3506936376322734, 0.4462212842457652,
      -0.049312912240567754, 0.8451310420395165, -1.0517677164434187,
      -0.4844810317227532, -1.3906730798607507, -1.2677476049910554,
      -0.20190044696540532, -0.5989604645214205, -0.28352788601266554,
      -0.21978731550583042, -0.9093962724288608, -0.6637425362124303,
      0.6328059816002863, -0.08455044373531308, -0.7541765210996862,
      -1.3720870790232407, 0.12943445293749825, 1.1131892656786095,
      0.6469246728350712, -0.3612494830287784, 1.5944748337104564,
      -0.8423919489668013, 0.30514388661863173, -0.946498622726802,
      2.1790021674879, 0.5281953382713426, 0.325573386124438,
      -1.9962342824253343, 1.8619183280567728, 0.034415738978817306,
      -0.6311947542806498, -0.332484469232617, 0.17152701829756936,
      0.8694162661759698, 0.6842586370953765, 0.6153489165146602,
      1.026781268313721, 1.2088179567410846, -0.5354396708567778,
      0.02500536483878111, 0.28805722027851627, -0.3392144317188823,
      0.9005223893620196, -0.23958457690001503, 0.9890616256143617,
      -0.01589500747857886, -1.4014045332170773, -2.739530321440411,
      0.2728284345371689, -0.2111098069550511, -0.41254726169732636,
      0.6390208724214821, -0.34771296909558946, -1.4082415509034913,
      0.07123791837660805, 0.6068208253867504, -0.3073276410972737,
      0.985253065332269, 0.3133654260228066, 0.9152181648118822,
      1.9163570607816693, -0.529972819168917, -1.8938554192747963,
      -0.3879457423499325, -0.46358494277328116, 1.444629959796215,
      1.114746016733916, -2.521171285546514, 0.9693751185606099,
      0.41581260918323676, 0.21505146640680967, 0.2984556709115165,
      -0.010319825408328532, 0.506722967707899, 0.839555230731188,
      0.3752364394054223, 0.3444284306240367, -1.1515089713135058,
      0.9396953319872947, -1.2421716781646732, 0.7389369564324744,
      0.2622501579873503, -1.5970645975977775, -0.6741643726080306,
      0.3601046563434626, -0.82637855485179, 0.2817375169114574
    ],
    [
      0.9478115019741112, -0.6549467309734084, 0.8592437192751383,
      1.5899269739515856, -0.8463666786899704, 1.0944746096045985,
      -0.9823678992236574, 0.6018798803501573, -1.2830000099971866,
      -2.2118157099258333, 0.035334405059328174, -1.9999307087814135,
      2.067453016343512, -1.3343804206168686, -1.3296601929965024,
      1.561570594836054, 1.0077390810618205, 0.5990996728367094,
      -1.442646916900526, 0.35185369123846927, 0.666553106491283,
      -1.1904915554609397, -0.46385172189512097, 0.9572171107798734,
      -0.10701595992098666, 0.269677649084181, -1.014741319109611,
      0.8691866842580915, -0.6579106336345775, 0.9499942011251469,
      -0.025976234545765885, -0.2478991826823938, -1.0088906893090583,
      0.6048670697098474, -0.5683541959942168, -0.50681503275715,
      0.6271379934281449, -0.63175457076364, 0.3889562477587508,
      -0.6375017190087509, 0.7602088653902943, -2.3333042161392106,
      -1.7229876589257345, 1.5344712293911629, -0.21471269814677907,
      0.053974956005226137, -1.7871668088136696, -0.9998739778856826,
      0.7620904124655677, -0.34461210475557463, -0.5111285851549072,
      -0.3647164721216885, -0.025584297006639375, -1.1447491663218903,
      0.31052436248831966, -1.8646156939497838, -1.0631364340041947,
      -0.39704551658313986, -0.981226531103951, -0.3540060870109928,
      -1.5533488907900157, -0.04243506382995529, -1.7076833061821803,
      -0.17190310998035213, -0.025282885967850686, 0.5993933560401272,
      -2.162504642212928, -0.32601805167758463, 1.522429278205305,
      -0.6167583814488383, 0.006134318829469651, -0.6870453014203876,
      1.7364900307301345, -1.0643793307279605, -0.5720311576983043,
      -0.3929653041099699, -0.09582038892607737, 0.08273997237805118,
      1.6235992741298884, -0.2542814715115831, -0.3593429041650761,
      0.6536076160096164, 2.268444870317595, -0.22295269658391045,
      -1.520036070379682, -1.9510856968298567, -1.1862054912924946,
      -0.4155283355854903, 0.4846492438377393, -1.410917688037381,
      -0.7627797936497025, 0.33127720855275544, 0.013329432674377516,
      -0.4781204348394534, -0.7888223637781018, 0.6246216580374593,
      -0.08490712215767068, 0.40448938923187533, -0.648455541386111,
      -0.8883065325777054, 1.7152799603910842, 0.2900918360103286,
      -1.7384069813141714, 0.22282653673293035, -0.17378590566132512,
      1.0628933797128195, -0.12613915490146582, -0.620978297480386,
      -0.8664724465208895, 1.240844140206287, -1.026757494787603,
      0.8172210671582065, 0.6492723680994035, -0.5817245170203124,
      -2.020051156720896, -0.6936449098656411, -1.227178094751524,
      -0.33806315214563676, -0.4516348505841147, -1.6613519018576755,
      -0.9253545552895115, 2.0163696007559926, -0.33703666189625775,
      0.6152129169109345, -0.31465239783617943, -0.23459047975140748,
      1.9411952410383908, 0.49738616453400064, 0.0863053238473963,
      -1.1252011648791607, 1.0648019357647023, 0.11062914465305825,
      -0.7008600309178561, -1.081739520959039, -0.3295349869750399,
      -0.03560311720645903, 0.15824511784463352, -0.7838758295149438,
      -0.2437437317039919, 1.7451710496507051, -0.71311288098154,
      1.3762118953880529, 0.06575036310072763, -0.3886571990342405,
      1.2840093767014713, -0.6435109276218574, -0.7579628358708631,
      0.34043744519824287, -1.0966626470446634, 0.6177731524257972,
      -0.5390652247485574, -0.24284736454822117, -0.07510651873768837,
      -1.0695985041825002, -0.27541738168786983, -0.7053173365669517,
      2.1496835063228494, 0.28651573484477505, 0.2559042851668979,
      -1.6554932603506622, 0.5901023927594794, 0.40682314864470526,
      1.2069091116212416, 0.4866319575454623, 0.06699749955886546,
      -0.5224561752008451, 2.1351154632097207, -0.46530334543590235,
      0.020871399930669856, -0.28212404222620724, -3.06583650654309,
      0.3182754222066827, 0.6505472878819378, 1.3835948386441232,
      -1.5794897085990334, 0.7401723912771534, -0.6672226071762658,
      0.2823950232759231, -1.3346015166772187, 1.312197832062676,
      -0.2891418229228718, -0.9156062215181651, 0.5836866361096958,
      2.00721060873118, 0.35222645495075927, -0.9933041771762212,
      -0.6866736558391167, -1.1166269256224282, -0.315646521294792,
      -0.6124077355995938, -0.543647014216281, 0.022082688638645202,
      -0.414807022931029, -0.5980978322855147, -0.4936056001943513,
      -0.15124173017868103, 0.41373849139496466, 2.2206735165039997,
      0.7820370615030386, 0.035944145744373254, 1.2618628761565143,
      0.3693698486037828, -0.8676611544560651, 0.02554365791890825,
      0.8611437962930568, 1.1775108279262718, -1.3151272303005823,
      1.1854548762574235, -0.4380996250656502, 1.1369655750960954,
      -0.05057740194610107, -1.0213914826657315, -2.2394024356174747,
      -1.9923384800987816, -0.9377322127908946, 0.13177631534145032,
      2.0922880186808435, 0.05599867779851198, -0.01504606422485558,
      -0.4827726207193767, -0.771723022448062, 0.7134589350827821,
      0.5221201606372117, -0.7793287715278346, 1.8116684517466954,
      0.6813571372857078, -0.23959171750487543, 0.6159795737697797,
      0.9487290201976264, 1.161108970301796, -1.949156689033204,
      0.03204523329329637, 1.5850367090768704, 1.7010624469146676,
      0.0112718515018823, -0.028686388436687183, -1.700967390252133,
      0.18449795874466954, 0.45919563420471166, -0.8967741148649544,
      -0.07048057088571347, -0.2041395973671306, -0.23578143213736263,
      0.7065728501243593, -0.35145833168088814, 0.9753575018919219,
      -1.4929320760831637, 1.5858847302913779, -0.9879808587176067,
      -0.3244465702455601, -0.668064305792494, 0.8513157092952496,
      -0.5261753363737584, 1.52012653928673, -1.3244821314924242,
      0.6854946860466273, -1.5448977825456998, -1.5408766734573496,
      0.22949089353481056, 1.6819950078073633, -0.8434269950857017,
      1.5059777464991975, -1.7492926240961513, 0.24697140132146833,
      0.015235376130771326, -0.5976556124519448, -0.23253514103421066,
      -1.8363502494068118, 0.1991389226980026, -0.38188655070621363,
      1.4695575007232748, 1.1724039585486765, -0.07681446254030089,
      -0.7554388187943852, -1.1239289234755339, -1.0981160101305198,
      -1.0854663044505315, 1.0478405340827381, -0.7215897376726643,
      0.2232126099366166, 1.3286160351619412, 0.440898175220467,
      0.2587719656899279, -1.1462532981936797, -0.055761198482480005,
      -1.4169898711521225, 0.6147789155628742, 1.1299713296744345,
      -0.869695038423383, -0.248272705231, -0.8972802154647536,
      1.0552027668440978, -0.4094749903405792, -0.8269403254139948,
      0.9189156287867597, 0.06553581276537178, -1.199258133484838,
      -0.06376471211123688, 1.6804934011615245, -1.142106886212305
    ],
    [
      0.5885770481823038, -0.40664540031378754, 0.1496897409453858,
      0.4068685078982076, -1.4045298250314717, 0.8039019688182385,
      -0.194022333729923, 0.424376236061935, -0.3709819340311148,
      -0.24961035701726414, 1.2248535456511889, 1.3819912621266743,
      0.9388165681297516, 0.9085941217665967, 0.23210037218690308,
      0.5145761498733097, -0.481116835546478, 1.6006074646333872,
      0.53568969448319, -0.05897249978648302, 0.7929356202764495,
      0.10349061366580772, 0.8038578022454318, -1.2882457391448787,
      -1.2770103523580036, 0.29993948993081543, 1.4016134713414046,
      -0.029695686877863454, -0.7276487628052493, 0.14095918691096485,
      0.33359123182897055, 0.1670769710682664, -0.30345010323964294,
      2.1720297762619003, 0.9983345020956435, -0.7415854615291878,
      -1.3582619738644015, -0.5681475026184876, -0.4262215150978272,
      1.426729662016479, 0.022390638728740187, -0.9936174657373138,
      1.554072563661188, 1.1018806291342598, -1.1828995215170905,
      -1.0314514321826476, 1.4867446099241635, 0.41504728950060477,
      -0.01842674413495892, 0.10988835240279654, 1.4990105259176127,
      -0.16762116471654326, 0.6169764385873178, -1.3751828005125482,
      -0.043781064292532944, 0.15059170481225315, 0.9678822798364399,
      0.4034475661120271, -0.5544700782400043, 0.2895586447001773,
      -0.3107239344739127, 2.133208269285155, -1.2201668768719385,
      -1.6564258899245305, 0.8570837560193579, 0.4757052441558092,
      0.9215467685096701, 0.1275859319283881, 3.0411006933482927,
      0.4804134702231995, -0.7518887966857559, 0.5637291879090213,
      -0.22611723032946754, -1.5148783983190663, 0.9912709788236429,
      -0.8908077393624827, 0.6906295220373163, 0.0846567616880301,
      0.8625701007027443, 0.7398875446913068, -0.10713009667463978,
      -0.4052095313604018, 1.1173400245941865, -1.1076578057557434,
      0.5738439342541187, -0.7070740507022764, -0.32607242783406204,
      0.10369141574782044, -0.1462836715132097, 0.19646988301619522,
      0.3258485783600083, 0.024919542475409395, -1.940138947849,
      0.4696806591061943, 0.7231274908692578, 0.06282242215689665,
      0.18305307498434759, -0.21439411390930457, -2.421468664131441,
      -1.5101157605661666, -2.210178012869935, -0.9470097715151213,
      0.6005396074128551, -0.7687267324232012, -0.41787381343178875,
      -0.2910496949110665, 0.7255854078530914, 0.017613030370731877,
      0.7524567461043224, -0.28603312065089465, 0.23964374012070555,
      0.2500727859986871, -0.06766812648076277, 1.277962033077006,
      1.6738664152571836, -0.29582427518081583, 0.46917445029748245,
      0.46275314726084027, -0.7896397598417028, 0.11099203001632817,
      1.6183134969745716, 0.3423627438160393, -0.5485062270637906,
      -0.614396963581716, 0.4118585718609884, -0.6650720267289005,
      -1.1619691585473293, 0.2530914009518292, -2.0823971554838194,
      -1.237749996490515, 2.126365379827916, -1.2615697801987114,
      0.3656629481888301, -1.0741422896240804, -0.03530372104661537,
      1.7787422453144794, -1.9382758387676293, 0.6851942719971512,
      -1.1744617441709395, 2.160432784597211, -0.8421239652749025,
      -0.3763522980183772, -0.24197330740968312, -0.08186517153261315,
      -0.3032123916380909, -0.6233625593926168, -0.20625648470788924,
      0.9833913219235144, 1.2496921679656334, -1.5149834461975853,
      1.0820716617618145, 0.7149439420793162, -1.1102282120487514,
      -1.2094184949374096, -0.10920370232214575, -0.6576981185831651,
      -0.20562612421377033, 0.9205881612019512, -0.3424809966341396,
      -0.49306166484743214, -0.5090457758275176, 0.9323228048043419,
      0.24427946728336242, -0.6222672062510972, -0.17344327669323517,
      -0.33895862087471074, -0.04239431517231989, -1.3413328898264312,
      -2.118573231678776, 0.22349543450751977, -1.1944930527672843,
      -0.9465929883840237, -0.16241773357030076, 0.6677189433415789,
      -0.4165030369023926, -1.3573265648618609, 0.8345203788039399,
      -1.7081982522507415, 1.7240518229656052, -0.4610375153589412,
      1.8138407531498317, -1.2747679663833447, 1.937865602734839,
      -1.4780300284691295, 1.9940602787617663, -0.09915335945895648,
      3.242042511352172, -0.8030144119320128, 0.3018485159337743,
      -1.9721332783626078, -0.005331400053135102, 0.8733548470585879,
      -1.1338331308636773, 1.458371525363334, -0.08040596165880531,
      -0.07611328650663705, 0.009715951016830536, -0.47162682494969926,
      1.333227055193625, 0.48012209184899524, -0.38357777197815573,
      1.0114338140015662, 0.9702419302739902, -1.0054450501860925,
      -0.9686454568626138, -0.5044481465938659, -1.3314346160245834,
      -0.4914790578194107, -1.1193915116718194, 0.23273450127967768,
      0.8461653517965321, 2.3321209433048624, 0.9395539090745043,
      -0.38642689709007205, 0.6716045226106132, 0.25091412759632203,
      -0.5921251205924013, -0.09058940813631589, 1.69603722613765,
      0.5759526157809433, 1.8838226854928772, -1.1447169016935304,
      1.8866405714236547, 0.072130441114988, 1.8496489120793942,
      0.7692836730186899, 1.3931650576228631, -0.6298148557822761,
      -2.6310012816613924, -0.18109430659258788, -0.6516864468891059,
      0.6812984822856645, -0.02637013719975726, 1.3345379991509547,
      1.970916330745148, -0.9793785613555982, 0.27757148486574246,
      -0.5164566716486376, 0.47669014864236264, 1.1097220799887284,
      -1.4150661914746723, 0.02763868706718945, -0.7747987700823067,
      0.31163619537256476, -0.43205856940830506, 1.129016386800201,
      0.18169348323808374, -0.3934013361611089, -1.0995366495992314,
      1.1560793807058471, 0.010798042252861965, -0.22855039758807422,
      -0.5378592609848286, -0.07717619044129462, 0.1379455189461986,
      -1.094867144820899, -1.2944192603370297, 0.2778490750238533,
      -0.747489156270331, -0.5274465327769927, 3.288878926624416,
      -1.047514330430553, -0.023756789129590703, -1.0448215531448395,
      0.7418378007531081, 1.4057584233970313, 0.5599310591059631,
      2.023925065596794, 0.7696968708543324, -1.6247115936850896,
      1.147854904882455, 0.24024494510970076, -0.053354021710571554,
      -0.39271138251134, 0.5352156903261648, -0.22819754458303196,
      -0.5031370468897809, -1.7005856360486384, 1.1213786147117168,
      -0.13047969802446763, 0.1593320587544138, 0.046762503933616015,
      0.19543938253421855, 0.7323111876900894, -0.1776710690470944,
      0.13992396475564778, -0.9676231661935433, -0.8877672868209532,
      0.5183338762605454, -0.5713677366529667, 0.48106825529706265,
      -0.6563718982840423, 1.2346448229855949, 1.0473310009177876,
      0.34715331363812396, -0.6520309102204155, 0.28420817462148745,
      -1.2543809617949562, 2.249409693638888, -1.0949847685770948
    ],
    [
      0.6027165657240684, 0.6078033276157816, 0.5629445456343473,
      -1.0027241830100881, -0.26979290969662156, -0.06761990547116227,
      0.4932781501510609, 0.09271764210402969, 0.09346097416958588,
      1.1459082173688935, -0.038087348169782466, -0.7357558144602786,
      0.5381568461097437, -1.0635624560205263, 0.26773930434324417,
      -0.9782177606804816, -0.6625408483844343, 1.0648982060975618,
      0.056830557748427296, 0.11744326830759569, -0.5402611848970367,
      -0.36981021862903274, -0.6752462380715097, -1.1684952984075763,
      0.7073338029783822, 1.0648904439355664, -0.8417811089159339,
      -0.07074879493442941, -0.8454725263339959, 0.9783887003395499,
      0.19851140718854973, 0.6417952125886429, -0.42111483812361666,
      -0.02374935740158601, -0.19887081701297588, -2.0848889795845973,
      -0.31037014058716017, 1.118696529842553, 0.8937671732775586,
      -0.31311983340029576, 0.8579571891976541, -0.4389600155945102,
      0.7628935675997303, 0.8202641675073665, -0.6212530986632351,
      -0.04067568274033492, 0.3150876913169347, 0.5618636557151165,
      0.37237800879283495, 0.7507204733524074, -0.5092554981467184,
      1.432675672355219, -1.0490279708923371, -0.8871182223231803,
      -0.857924932311906, -0.569675886909662, 0.1470126046446177,
      -0.49154613999634517, 0.1335482129215026, -1.028858167738887,
      -0.44582396997726226, -1.5012190657057765, -0.2432584261880539,
      -0.018360494286873925, -0.19744156806235533, -0.4377917170291856,
      -0.5361433516736008, -1.4912884434547524, 1.3775368378717057,
      0.336689143384475, -0.2162809807523049, 1.3137345159315923,
      -0.7972253399338962, 0.05693625110541851, -2.329604148174405,
      -0.2930881760964844, 0.45469228589928323, -0.9877847334333357,
      0.15169878385410104, -0.22144334835350324, -1.970938006467727,
      -0.8890945068324301, -0.9450181004333563, 1.2322722711346343,
      -0.2873533923227764, 0.4472087196662237, -1.4282035824655777,
      0.527973910279356, -0.8438946484951924, -0.11115617263869004,
      -2.0709608900360275, -1.095508526078295, 0.19904134129520634,
      -0.1519267106195857, 0.8890580940073609, 2.4776281899030037,
      -0.5588350348972736, -0.5481313327762846, 0.15332752062046862,
      -0.7539596781531552, -0.6154784966577126, -0.398168855291579,
      0.9972783991685281, -1.968031944064857, -0.3519416009620993,
      0.35902610342478647, -0.02087797093268629, -0.15034899657671946,
      2.4604360400319587, -1.0266368762121592, 0.6453882413425723,
      -0.406464296082072, -0.21880816187329322, -0.9175909497889969,
      -0.757422302731343, 0.09712852981071081, -0.7678350042702939,
      -0.7250450868897927, -0.21778558968439365, 0.46884732171305216,
      -0.20807604746223687, -0.6695212318969266, 0.7040556468460641,
      -0.3734506217567189, -1.3417570857618741, 0.6797960189048265,
      -0.1659315246211386, 1.5059106997831155, -1.0377126440461122,
      1.0389237900845925, 1.5356925519482454, -1.2823543358967138,
      1.5847956114955344, -0.9646199072054733, 0.9744747904537089,
      0.5430390652225721, -1.681353674685172, 0.5645228978696144,
      -0.6069544169493141, -1.4789925641942563, 0.8156492975146347,
      2.1249894881987745, 0.056501943132409964, -2.070337112239134,
      0.18440778026232776, -1.8228164173039436, 0.18045367679855231,
      -0.504712937698452, 0.027203646942256608, -1.4216472550103412,
      0.650094040663367, 0.20108447962737067, -0.7448434747596887,
      0.909327522872303, 0.6779651298321235, -0.6522200959416822,
      -0.1246138165229127, 1.3499951464964448, -0.22581138998128214,
      -0.8729370128302746, -0.12439704218579967, -1.2422516434438045,
      0.17445961356822554, -0.2682712793228974, -0.30540940291649094,
      -1.4404862063683699, -1.1198955366557104, -0.2367618241271094,
      -0.3503387342960929, -0.7054780623705467, 0.7186917943543653,
      1.0267691267944785, -1.1237829150935756, -0.3305545894407142,
      -0.27548090399839453, 0.40484333274265216, -1.3406835309493046,
      -1.149020623074948, 0.43359527046054047, -0.9236994378381596,
      -0.06035151297506218, 0.43573874871396484, -0.32135576650730985,
      -0.11369410450443371, 0.7017619258788133, 0.8628748276050288,
      0.3003910337130456, 0.8471029685085208, -0.06488853934502388,
      -0.17818923200948983, -0.34135019682639844, 2.3517233789225718,
      0.7827450593195472, -0.7836858337667343, 1.1022691509427736,
      0.1855518236334931, 0.4039579593614437, 0.23550633672170626,
      1.0856155359914883, -0.3621871141799747, 1.5482382074786942,
      -1.2035600366993269, -0.5342190964805837, 1.1472354336963886,
      -0.8558694983216995, 0.6220194237281724, -0.4947497620238469,
      -0.5983868835313866, -0.6433459209162619, 0.514240271615247,
      1.239638213114327, -0.7305354115072018, -2.4629448621044565,
      1.1974680562674882, -0.49287170123345236, -0.11034800736110646,
      0.16587215115172305, -0.060462858558352615, -1.1410012515279453,
      0.23042074054540007, 0.20820836970689502, -0.5366034454631649,
      0.5250614081676527, 0.3639268233395385, 1.1978542613390386,
      -0.27768733865532724, -0.37047105266047603, -0.1399656632199361,
      0.43106970123663907, -0.6735774121673039, -0.9956300611378985,
      1.376536353486581, -0.7895828224868023, -0.42610094550537214,
      1.3310486053835568, -0.035255202012709, 1.3963954803366543,
      -0.21698454077085721, 1.7408118292980526, 1.650176632761251,
      -0.30690129898778046, -1.2274712267563936, 1.2842552113746717,
      1.3899113735671915, 0.1156428649687595, 0.23704137160542377,
      1.2037367861675456, -1.14878169235368, 0.49689747949866364,
      1.4101401089841066, 1.1885977552901106, -1.9229790011420027,
      0.13269270247687703, 0.2044001436785895, -0.6555408645076132,
      2.165808505402579, 1.2606006577702396, -0.9846314091469804,
      0.03111352838628927, 0.10342352704592164, 1.0036395533872724,
      -0.21181237662108787, 0.40626685662937123, -1.5930044980416505,
      -0.4049504114275808, -1.8437756067353697, 0.0013276833165616667,
      -0.4037516689117105, 0.09311145832178001, 1.7581177969488957,
      0.4180714114721015, 0.6499534268461473, 0.26382624367518137,
      1.0740171308148534, 0.18036350863085254, 0.48741031021398895,
      1.449516295278387, -0.5719550530089162, 0.5150016728769234,
      1.5035441396650873, 0.20210699465935858, 0.017321928045717562,
      -0.7485978566758326, -3.202992718213293, -1.9093311017571775,
      -0.1522593601810249, 0.31612536199633334, -0.6124680678974324,
      -0.918408587092311, 0.17791210071802166, -0.11183630470788007,
      0.4803724743229831, 0.8664564269685133, -0.9112608557390157,
      -1.0010852991785375, -0.36947081556512784, -1.799246480307895,
      1.097248896994795, 0.7678736539305255, 1.668094980598292
    ],
    [
      -0.16304800883448653, -1.1752950521109364, -0.012360157700081635,
      1.2365749844655702, 1.0626966534042885, -1.1439288191484605,
      0.1863296006515555, 0.187606952073012, 0.3473460454151967,
      -0.1083640278321219, -1.4277038089179848, -0.07416504105977272,
      -0.27069770646130414, -0.2733955814754533, 1.0992474325378858,
      0.1418170257406728, -0.19729286514570082, -1.1290425485915794,
      -1.4302702124296456, 1.358850490313229, 0.5570310488536644,
      0.1383270977148123, -0.24090088327035242, -0.802352776703694,
      0.11283169986378132, 1.0481675722999197, 1.6431508246102682,
      -0.11148563435330117, -1.75770172713192, -0.24158048760101736,
      0.6367235364222986, -0.4546434524484819, -0.07488519401481596,
      0.09530815161526406, 1.9965266478852144, -0.03765628566072374,
      -0.06958886171772369, 0.17138649520082228, 2.9520737603661105,
      0.9675907592457794, -1.4060707959611145, 0.07304407818383271,
      -0.8021982062744967, -2.3942366615343786, -0.7949612092698825,
      -1.4077808518430996, -0.3555005595233412, 0.44529196045673347,
      -1.2322038607774823, -0.08806646348932685, -0.4895647146752532,
      -0.9668345086019285, 1.515438281925203, 0.05388017220872274,
      -0.9329732893600202, -0.0280206675139839, 0.5897473756717718,
      0.5109631859929276, -0.37580059847396186, 1.536571618981924,
      -0.6357707341843386, 0.06344107772299441, -2.1000085553599344,
      0.8483962618410781, 0.44191125585652274, -0.6780111805956797,
      0.0231290659148558, 1.3621340601300773, -0.21919686002772482,
      -0.08716494480688673, 0.6538251626664667, 0.16844007686726795,
      -0.6573605387941321, 0.49086364973736496, -1.0721922919668654,
      -1.8791536021465467, -0.8646352244535938, 1.1350320783066499,
      -1.6353535329530597, 0.33029306597986147, 0.9143380803161075,
      -0.06812008700149268, 2.365989272621866, -1.4274694229297278,
      -0.29095534301820497, -1.78698439729142, 0.7399107330055124,
      -0.16538020120093416, -0.1275885510745686, -1.1760683131657896,
      0.9925221725176565, -0.48759716934115943, 0.42486382551795676,
      -0.9655770001630517, 0.44262918506877696, -0.05489790199179803,
      -0.5278065004058792, -1.552145184402742, -0.26303207551807967,
      0.06954870797543197, 0.4920986942221949, 1.0274471969455592,
      1.3962215408248928, 0.25901924696185025, -0.35686754740461507,
      0.4655420413588231, -0.339913560635086, -2.1862116796666218,
      -0.44263655421932774, -0.5881856907231671, 1.1782113941348062,
      -1.7729311549062985, -1.1498608540452577, -0.1287416986363285,
      0.17422718978646684, -1.6194523918128065, -0.2965764883075968,
      -0.6021876124826937, -0.6485287182972859, 0.39209343748443504,
      0.41353965875947774, 0.9400064271247638, -0.20197151464934285,
      0.9133124595734426, 1.2453137494125912, 1.052220295220286,
      1.0068943489931461, -1.1335708200436176, -1.5152117671052188,
      1.1422668939449494, -0.5414346343891203, -0.5776696891747938,
      1.9217085120341262, 0.8327923059397639, -1.0359897723172968,
      0.7417135219966983, 1.673803826825583, -2.049843871903031,
      0.39309373455788493, 0.4055852836151435, -0.04491885664545138,
      -0.15773680732604362, -0.471805654654161, -0.2982678967542097,
      0.16480216289693597, 0.9127506962676469, -0.7009792162878659,
      -0.08198592300158505, -1.5093025671440754, 1.1269644854919985,
      -1.369201746840606, 0.02015163966756258, -0.45103799449965154,
      -0.8324287888037374, 0.5861704235774307, 0.23815878217343392,
      -1.8040359617613666, 0.5176025088675239, 1.5848483552107318,
      2.1464029779899643, -0.7404907648616893, 0.5795502713536551,
      -0.13336967131874639, 1.3192232261686363, 0.14547700055008064,
      -0.6110704660848982, -1.046746345260102, 0.20455170523811667,
      1.1828338295176952, -0.8482855665276825, -0.9338188116018104,
      0.16249422456836643, -0.318569790095596, -0.20744154616392457,
      0.7545836013921562, -0.6051417303233699, -0.10897702870880835,
      -0.7298747815390996, 0.14405019462476631, 0.5180651815686287,
      -0.8805479543564881, 0.6816632604880083, 1.3168373629341479,
      -0.21283179161807814, -1.1160707499050455, -1.4118864248024092,
      1.2459912353748581, -0.9290776028533285, 1.7135173650772844,
      -0.5342977453671847, -0.3766943841034864, 1.4512161977035891,
      -0.2596239239163859, 1.1976395329179625, -0.697618615970813,
      -0.2610199019091245, 0.854763964959701, -0.8377629355078283,
      -0.03982523278450679, 0.3223134982582922, -1.7303650978793936,
      -0.03101682882063545, 0.4345698502476952, 0.7128033797897679,
      -1.8340199396086112, 1.649037033538935, 0.2507391974928875,
      -0.5296086109594059, -0.4626821753947458, -1.659380395643815,
      0.46127474667090246, 1.0525253657406153, 0.06847260401136573,
      -2.2785577326035305, -1.1463322424839208, -0.5016232776696216,
      -0.19144293928215567, -0.20182611055807362, -0.25646180627052023,
      0.8509471981220837, -0.21124365712830245, 1.434547694010664,
      1.3769034568746703, 0.026576256488175, -1.1585262453991703,
      -0.4015696386367854, 0.5048992568500162, -0.22938510379960173,
      0.05171326828397691, -0.002587678471378993, 0.7752465528060699,
      -0.1621646554884765, 1.3855515920594348, 0.956727130196844,
      2.2424714951550357, 1.024324369789489, 0.546416635937304,
      -0.2032972920630284, -1.3757060682016191, 0.017647025810449322,
      1.7670070390063761, -0.0012459415351928423, 0.23345803046307204,
      -1.4186999172439205, 1.001966812408741, -1.5897855753042403,
      0.006910585173973897, -0.6772601859092415, 0.6511935034082301,
      0.7461088552424262, 1.3541204402311764, -0.85551512509616,
      1.2048963081004738, 0.14917190810139355, -1.3556461902158883,
      -0.007401029838540832, -1.971431848098538, 0.8810699398731281,
      1.184079745384284, -0.9566588394548974, -0.5192198459622377,
      -0.12294967630621456, -0.8738087560063313, -1.6353992521851797,
      0.26436277504118494, 0.04106733870681442, -0.09822734369716446,
      -1.5152737166724233, 1.3165684196939933, -0.9723384722726958,
      0.6249359414935208, -0.5557620927590967, -0.013891264697158638,
      -0.22899475490714516, 0.5488376780914375, -0.3024969493975921,
      0.8564219742988652, 1.5121338284478796, 0.28913631250868554,
      1.2122290634880553, 1.2000707258523995, -0.26803671232697296,
      0.3632349857505582, -0.019517287671725905, 0.8133981252319039,
      0.30754146262564963, -0.46909958395918844, 0.13853922873340946,
      0.2690386328447976, -0.22650975021284497, 0.3266895579950093,
      -0.8748762204002676, -0.8644410297370799, 0.7704148203130865,
      0.14223181020990416, 0.6783244604369342, -1.0287517592204234,
      0.48343715565460416, 1.8507465533840943, -0.7880588281420539
    ],
    [
      -0.46676240961840715, 0.16814713460652045, -0.7916531213897081,
      -0.47811868786303174, 0.8926087973883039, -0.32930109172569905,
      0.2746045080465712, -0.35694497289423777, -1.0973326433148327,
      2.0140494503275024, 0.5482791985646899, -0.07297139951680395,
      -0.39432278902895235, -1.8359445157592633, -1.6775898151686404,
      -0.19236821400584656, -1.6654008490456944, -0.5498642267135813,
      -0.31303687265387614, 1.0358140790909112, -0.7469983741010389,
      -1.1364797534976105, -0.8768067421138951, 1.3689373542655705,
      1.5645354713774204, 2.109788112119185, 0.37072428490387127,
      1.311328223985327, 1.2316041900102737, -0.8720623902183354,
      0.593940337587979, 1.1492086689550358, -0.409552412699984,
      -0.18581548513815577, -0.4718184665481062, -0.32377974767644213,
      -0.9888573589692433, 0.9607805026596674, -0.23296891922534085,
      -0.7799977637996192, -1.3128996727381315, -0.16718590739797434,
      0.05701099990678353, -0.63538023910722, 0.36014863457201013,
      1.454226871316112, -0.19566984878962632, 0.8065131403475708,
      1.6787744519048116, 1.5269437077439851, -0.6317926883414366,
      -0.879459510959547, -0.4484045156067172, -2.0136381353939456,
      0.3766851790533048, 1.0248930221951857, -0.5193752752518891,
      1.5517300102672063, 0.8285993123503442, 1.372752880204409,
      -0.6626565437430996, -0.32079930535266477, 0.20806484698975067,
      1.2849823675607488, 0.7071323244025597, -0.19826530526583214,
      0.28975174383834257, -1.195600159692713, 0.4363221616727786,
      -1.6113788092569445, -0.7458254285663343, 0.8244971120016161,
      -1.4510248383183522, -1.3569070147222948, 1.0334430049045433,
      -0.17136904644572792, -1.5864577138296143, -1.7905724761105375,
      0.07100248698487913, -0.3129254019768428, 0.29570842865318425,
      2.149650089761967, 0.6572162282623562, 0.2782055097197085,
      0.6844016619578981, 2.791622677378081, -1.6480489288991809,
      1.344828793914286, -0.27651625940107327, -0.20337330065623524,
      -0.9029825749949785, 1.807839341510794, -0.8183549863872269,
      2.0635427899394196, -1.29005389218091, 2.0138461176338187,
      2.7827618074395106, 0.8926770052911795, 0.5881662201118694,
      -1.6313618409215336, 0.7857860938217386, 1.0000216711756627,
      -0.3286147543920946, -0.9681762474071368, -1.316712588149152,
      -1.5290237889124814, -1.8713070148495334, -0.05916789970468671,
      -0.3530487878960998, -0.675415950061413, -0.11617800678921611,
      0.05081398048528867, 0.15244399749077664, -0.8452839429610403,
      0.39127809064029456, -2.1400391164238473, 0.030860945200259213,
      0.02770080271664852, 0.38804923005391895, -0.7112370582610588,
      -0.6472018881354374, -0.7847594745285115, 0.2522027435117728,
      -0.23877233260107877, 1.18292162782961, -0.18848797218273772,
      -1.5905192705110263, -0.8787009564700665, 0.8153787302189468,
      1.0548002199770312, -0.5055033183278788, 1.530611864872534,
      1.3276770352606986, -0.9697018009657346, 1.2851511211697269,
      0.40729782903883305, -2.0234625156320227, 1.7707550178467548,
      -2.2468495480816375, -0.32732682452318224, -0.04193615686498466,
      -0.5712630527470363, 1.2425970414363268, 0.6128195477775567,
      -0.4179576781143634, 1.9233667308421432, 0.26543985480608595,
      -0.28344125510650126, -1.7650266790690767, 0.9337821182717555,
      0.6079236538142582, -0.9801589791688878, -0.6519383818046899,
      0.07697599337754883, -1.0829143959072465, 0.8156837227644561,
      -1.2829295184292524, 0.516257859897465, -2.371771063433116,
      -0.717395844348673, 1.667894294511599, -2.237493159593487,
      -1.6165231198408216, 2.2574573280563484, -0.5114133048243827,
      0.6430862991778673, -0.45070029092927366, 2.0101898402546823,
      -0.21677092326465122, 1.1202917367043423, -0.694465598275745,
      0.03203437919096531, 0.9000903935794644, 0.659260934906118,
      -1.044676117313853, -1.5392137665507093, 0.12475245432764719,
      -0.8328544309655701, 0.34464068037472995, -0.3738432554830575,
      -1.4865835671245353, 0.5207312614951134, 0.5312358157557256,
      -1.261507974820053, 1.1382898029486852, -0.046940744208572874,
      -0.8042792303279166, 0.5923170779705507, 0.36007766166276184,
      -0.5381668401110757, -0.7274945228587789, 0.2072883260904615,
      0.4316021483428639, 1.9288296763130128, -0.9775602869542128,
      0.9365667133433004, -1.124913318248132, -0.4172028314346268,
      0.4474988558083334, 0.6114362956045747, -0.787900878000427,
      -0.06689730711329403, -0.6568214497022462, 0.6101014060506526,
      -0.6987262154926045, -0.34704070968818707, 0.3531728560903076,
      0.3442719372983627, -1.5677585249814523, -1.422887781758396,
      -0.6727535096413569, 0.5514594172937903, 1.5592763999228503,
      -1.2367075807288093, 0.3215531106524437, -0.33964556674874996,
      -1.6450483231391333, -0.8220906026899176, 0.911782418723721,
      -0.07591136558851491, -1.5108441596436173, -1.076203530498285,
      0.4497862216825313, 1.0073099813346509, -1.6402942507321288,
      0.003820711719755708, 0.5620398049434504, 0.5485155763921953,
      -0.3811257867388737, -1.3548891909700047, 2.363417695465439,
      0.2502170659156067, -1.4825096562632507, 0.13556933260921847,
      0.26577934727359526, 0.09361437784906106, -0.05528483850773234,
      -1.838489113646494, -0.31350288679337235, 0.8834556166935846,
      -1.6357905109340212, 0.41097157820700286, 0.04473589222426938,
      0.08228678424340884, 0.31311344993921664, -0.1362084870626431,
      0.04915987522659149, -0.058606302241240804, -0.4513934610748936,
      0.5224813719623534, 0.644175895462204, 1.174837738161282,
      0.2764491909703996, 2.0658404465997586, -1.6102564920993283,
      -0.8349168322967174, 0.7954266272319289, -0.9126027872718306,
      -0.991190859004957, 0.7875392964555752, -1.507671283086393,
      -1.793778670970998, 1.4452090202320853, -2.2292833976310225,
      -0.47704088286525953, -0.07935848557672157, -0.5234736082886242,
      0.3459302287699293, 1.1845079579548028, 0.5056024151806602,
      1.343633178997616, -1.3255131626626913, -0.4669240015404153,
      -0.9867847971006227, 0.993333886464067, 0.5187744125472985,
      -1.4232476103737302, 0.5513661242712057, -0.6379557894098971,
      0.4945708672453339, 2.128823080926286, 0.3174468074594999,
      0.0793449297440101, -0.6855993500902929, -1.8867583787716458,
      1.3519111306214315, 0.898652514092113, -0.23183283422612808,
      0.7585211664335061, 0.015529181385218454, 0.6973063797300098,
      -1.5874156663621906, -2.2102877043359377, -2.018745746927644,
      -0.6159987681340502, 1.547197868927499, 0.2408609123480204,
      0.35663762986560366, 0.3881564234925137, 0.1834819752385357
    ],
    [
      0.26012281115492364, -1.5289668683821316, 1.4920504469358769,
      -1.1364279089318197, -0.7097214322340097, 0.10669344369636291,
      1.759681649237833, -0.5141169335966941, -0.548405392819815,
      -0.9789858018815637, -0.436795088220569, 1.26258556391116,
      1.4133074821371012, 0.020318773279790904, -1.1902393270585505,
      -1.2865534765747668, 0.09572470098795544, -0.45024865780972345,
      1.2972947308474312, -1.4050464926233321, 0.02730895140449526,
      0.48729116405664263, -1.042193186942915, -0.24138520600655736,
      -0.43495151715547925, 1.0179563595755647, -2.25218416187972,
      -0.7922959478979332, -0.33104339677373584, 1.169844939546561,
      -0.2703210757723361, -0.7643590032470354, 0.7622393283859809,
      -1.5011532808609607, 0.044531296086641185, -0.7493050791113038,
      -2.461138914150931, -1.3019951380317054, 0.1901890690446052,
      2.052578088973687, 0.8048638403856259, -1.4479954731908524,
      0.5418774066250883, -1.4937358506778653, -0.3584122395446719,
      -1.04800892532937, -2.717787801056482, 1.1660395848136924,
      0.31570069937851075, 0.9165222492114123, -1.6890272505365596,
      -0.5715779393846118, -0.8164232169449088, 0.3398194317140175,
      0.670210991380862, 0.8941784593686539, 0.14512680319882867,
      0.24089163345835038, -0.8952320507135639, 0.2961143092879302,
      -0.37855783322132297, -0.2049647183619884, 0.5004908001139237,
      1.0647621951811292, 0.13334496605772442, -0.316121389596442,
      1.3663233443879614, 0.3779928988031527, 0.7972543154860248,
      1.0341802368608108, 0.9911574529327406, -2.0492598191191447,
      0.639930443406757, -2.3752453363558805, 1.4563361633184482,
      0.4650996123722433, 0.10554141758535596, 0.9127479812234855,
      0.1352607291845063, 1.1052368187294077, 1.9159512580057612,
      -0.4584890550109361, 1.538826827085303, -0.7120124161697271,
      -2.0193342059452055, 1.2144375988532816, 0.42965529457342855,
      0.5619248917441229, 1.5430228349530324, 0.794512080201458,
      1.7404195551120254, -0.9506441797277657, 0.20908648581036737,
      -0.0014712043786560404, 1.4197508574694537, 1.729406027059843,
      -0.23050354245284885, -0.337632159420497, -1.2191288163464546,
      -1.7057852729710192, 0.5282700731083959, -0.03810818963225907,
      2.9251670890783426, 0.7590468205370033, -0.45089171299388897,
      0.5319552242652995, 1.938848553416308, -1.0688365373697808,
      -0.8357148620695067, 0.9907978800721023, -1.5795522798516075,
      0.2960827296587432, 0.25208787062345894, 2.4315148271495324,
      -1.934129052746649, -1.3285435611462524, 2.358073296037382,
      -0.6431855528674392, 1.5178547115663463, -0.3076255531160826,
      0.09260346559231397, 1.018040845599765, -0.23587100768030786,
      0.8305694963405805, -0.39209918818934236, 0.013055380273541257,
      -0.3185111262799282, -0.25148697772511897, -0.8691201317319415,
      -0.6193292648680344, -1.03216068389554, 0.007694392211572458,
      1.7163397886655476, -1.3434997341174177, 0.015016517891964103,
      1.938633594113434, -1.5328466851179134, -0.8969649802875891,
      0.15072048814952732, 1.5144979661692903, -0.6320205345326684,
      2.050757283701571, -1.51574435703383, 0.5027705782721031,
      1.4730898751677828, -0.17123738712612832, -0.4996068495473854,
      0.3997894735650091, -0.6329160932484702, -0.19114519104282493,
      -2.4403981690486583, -0.011481863527179538, -0.8314091887332643,
      -0.9035890430932141, 0.373072985202118, 1.1354684331899194,
      1.008381317467619, -0.24732944155841702, 0.34508601036649006,
      1.7564425505498875, 2.2920004000740017, 0.048471241712674806,
      0.9733476250950399, -0.24311078559871768, -1.5906063234189056,
      -0.14578983433482565, 0.4285397985628792, -0.007009469351089162,
      1.0778755275660068, -0.7834001751281168, -0.35278489074604913,
      -1.5784000132286875, 1.0882562740920352, 0.538645847641392,
      0.7909557742116158, -1.077946602844444, 0.8856109855233575,
      -0.09203545082098194, -1.650790864967626, 0.5244903641295232,
      1.6996538807977792, -1.0601856606438724, 0.07370722182060079,
      -3.0190704533265915, -0.24907115151823292, 0.1648003304799604,
      2.7336084447402382, 0.6598651778700922, 0.30256695752860363,
      -0.42330033184793814, -0.42732651436811203, 0.5108606892931432,
      -0.2681054173746434, 0.10682677409298091, -2.090223911769282,
      0.6549432790545893, 0.18902070539575805, 0.30781792756341025,
      0.41418514119590366, -0.2643353354517945, 1.1340164251108396,
