{
  "epoch": 530,
  "input_size": 180,
  "hidden_size": 300,
  "output_size": 26,
  "activation_function_type": "SIGMOID",
  "input_nodes_weights": [
    [
      -1.0031162135614224, 0.5418044732397063, 0.7107169017931717,
      -1.981907494697048, 1.3122830649019388, 0.6517616161489174,
      -0.02535369228816257, -0.8865584409483959, 0.8137590254658437,
      0.3880131129595313, 0.6076426247869683, -0.4391828253592295,
      0.21853381164160274, 0.300007359967905, 0.5848096979738986,
      1.1467424017459487, 0.7557093925184023, -0.05336082516381043,
      0.5178008709997775, -2.4308050882579906, -0.5364132691562981,
      1.7873052685079722, 0.24290652443826002, -0.9475732943802977,
      -0.0006513970030943174, -0.4456516863954943, -1.7639485152278624,
      -0.9347522694781352, -0.6179426750393747, 1.187247565524093,
      1.2928238951706084, 0.027825232042096276, -0.002373930911894174,
      0.7005586636521174, 0.5514219186295042, -1.623761375764068,
      0.48651435761186984, 0.6919234141153, 0.28776659099139107,
      1.8193729431998522, 0.20719379616634018, -1.2048226855035156,
      -0.13218597156691328, 0.19121314702418266, -0.1676938520127237,
      -1.1002560822910503, -2.5957522417196244, -0.9403392632238148,
      -0.6960779482798019, -0.058027497420609926, 0.010725367939574345,
      2.186245050097673, 2.9846775464098654, 0.09889959238518702,
      0.2158879846331244, 0.22823932306966888, -0.19067158857261537,
      -1.0573289570335673, 0.097875539562254, 0.6420893845333694,
      -1.7688756522046445, 1.2439182897901417, -0.5709911035593851,
      -0.13249529633065893, -0.21450673661956968, -0.2870430530070093,
      0.14382137903464456, 1.8868945118275593, -2.833958016696236,
      0.2597613251893228, -1.37223132906904, -0.4279238335745552,
      -0.7620414659596599, 0.97319634596914, 0.4861925661361789,
      0.9713867116971977, -0.37212484859976713, -1.2902600408676357,
      -0.6977808174474681, 0.7310560263959093, -0.0024006768966939275,
      0.8281791334588656, -0.18142045580868915, 0.7694468768760728,
      -0.05889897502671383, -1.6279436690287683, -0.380967764748607,
      1.1884827830526077, 0.407799084292811, 0.6863997756821252,
      0.7250511818899246, 0.4950438043081448, 1.2933945546217853,
      -2.013588004087443, 0.16715251977479548, -0.7684007682838473,
      -1.4717849297161831, -0.16295122568457496, -0.05013254677376797,
      -2.7218654233373107, -0.3299682072208822, 0.209360398587473,
      0.9588746300292469, 0.5280345795854909, 0.2037072468894718,
      -0.40365225272210326, -0.6678193557471755, 1.4570128222357945,
      -1.6959782334322817, 0.7862279594846173, 0.1437174686752278,
      1.6052189556346057, 1.370995430619081, 0.52463391614712,
      0.15228075379808406, -1.0288282295810487, -0.7507542148587927,
      -0.008903327945711305, 0.3475092843960916, -1.6335413423832577,
      0.7825230885826601, -1.1160818360534674, 2.916509648460816,
      0.41262846244103973, 0.08405092048136671, 1.2186099902702612,
      -0.4442666985860599, 1.249307632618295, 1.3080382614974502,
      -0.023454025914402887, 1.2223640033642156, 0.33669486317441694,
      -0.7933894406301656, 1.441729432296191, -0.7522489740982863,
      0.22152718392311016, 0.6501917512546509, 0.8037123433151745,
      -1.0272705691314523, 0.2459322152648053, -0.12594312265529406,
      0.488335751803596, 1.1446348755691707, -0.7249939362207014,
      -1.3740310364947517, 0.1436871026922573, 0.28141716513974835,
      0.2086676405684938, -0.34626716931229795, 1.4461308968323554,
      -0.46914299828217215, 0.6318412252823697, -0.330074852598313,
      0.7570027550865556, 0.0544642080754622, 0.45672270601339565,
      -0.11806061992542813, 1.9508328133591812, -0.7178555997342869,
      -0.5744960924485938, -0.2506321142744053, -0.7340731147763345,
      -0.17879154133966402, 0.3897126442231932, 1.5765898476839506,
      -0.19862494954088689, 0.7709924858286508, 0.061155908231902395,
      0.9466565341679415, -1.3490319720736734, -0.6948842312290334,
      -0.6199863750243485, 0.2432823967541235, -0.9157363949936611,
      -0.8383771793574721, -0.8774986706060585, 0.8659350616455668,
      -0.22785294163962772, -0.7356396819423155, 1.5174571594336377,
      0.28143350107169474, -1.3259793937137043, 1.447263795473804,
      -0.23528996435560104, -2.4048181950034895, 0.6392643570568077,
      -0.4074514688899327, 0.32965507044793063, -0.14664665790165646,
      0.2794906475730189, 2.4507046055325574, -0.5629808724325708,
      -0.5895329056741111, 0.16607619631013007, 0.12567594022343004,
      -0.1398523063120586, 0.580327590819117, 1.162192033048355,
      -0.3457587680734282, 0.6701898246618346, -1.1119742653810998,
      0.31566391829437274, -0.43773367555804477, -0.5892469691989409,
      -0.6722740571611695, -0.5105792574808081, -0.09041517388232354,
      -0.4561381094831601, -1.3766030462246288, 0.527433559497981,
      -1.4581704933523483, -0.10613564732295026, -0.0949380108074039,
      0.7141359819949599, -0.3018792257910699, -0.39586897004328575,
      -1.1548745181336206, 0.3783136078256968, -0.7961858170704083,
      -0.1704725095981942, -0.9935772914552075, 0.7916304273745702,
      0.09191866900300227, -0.03413313107588401, -0.7191587959655137,
      0.7744983417754243, 0.3859824501513012, -1.63290477238885,
      1.1256066374698583, 0.013669236996645871, -0.1783973306456934,
      -1.3592837816326715, 0.4665988986150797, 0.55625484178697,
      1.1245503858776151, 0.6803196775399429, 1.445962737839989,
      -0.3708494605739171, 1.6048429114496872, 1.5121343646529815,
      0.13218836305364012, -0.082034561602309, 0.02205018035984023,
      -0.27872199990554225, 0.1817067336512535, -0.2992396092370289,
      -0.6574840120276289, 0.5288465501619632, 1.597302040289395,
      0.46800194760304553, -0.7803280471506167, -0.6389113017703597,
      -0.6639007022556599, -0.19326853661999327, 0.346290779242822,
      -0.44262092832955424, 0.6553794142752168, -0.5210941664407502,
      -0.6297359706507303, -0.3212378411627793, 1.5058470429975954,
      0.46527958017995896, 0.7151953154416582, 1.1464436224262768,
      0.6663101170141726, 0.27237113581976324, 1.376057915456516,
      -0.5318698951304568, -1.9816570343809348, -1.3429934227162525,
      0.10386238774724811, -0.9325131256521171, -0.2464055584616486,
      0.6551745551636902, 1.2607571405693907, 0.8147562138421375,
      -0.6374315160027516, -0.21878735766604546, -1.2555951103363843,
      2.562765892499935, -0.6988084517279234, 1.5457128532824675,
      1.7437562227905175, -1.2865803899799368, -1.3030692343217944,
      1.0996717683075627, 0.08510369760880256, -0.4931128775329134,
      -0.30528639902459553, 0.9340978273716112, -0.35894725914849923,
      1.441531233807705, -1.574839425704571, 1.506350993278449,
      -0.6015869922523193, -0.11705131892880018, -0.756371221295972,
      -0.06788664247201379, 0.7602310630226223, 2.022923815586583
    ],
    [
      -0.9920446752075138, -1.2660565045306331, 0.49544427150361026,
      -1.9754152766277258, 0.029729044399397386, 0.45790734993940535,
      -0.07458804739876791, -0.29862177548283814, -0.37147733381754083,
      -1.6771207952988876, -0.016845945828839137, 2.30480572450405,
      0.04812772304441417, 1.0850738775930775, 0.6788895854184994,
      1.1672575069523592, -1.6120180576835252, 0.16155597744966352,
      2.2601672566546966, -0.26946556671890853, -1.4275240086691716,
      0.26732823402960093, -0.9073881342116638, 1.9514337205365226,
      -0.3128457218069742, -0.7037753457700745, 0.3667695313955397,
      -0.5378121039277002, -0.646263206651479, -2.5854878673201096,
      0.4209775860745495, 0.012747186594922348, -1.4821986782157666,
      0.7739729733681676, -0.3592242808272459, 0.40265865957831654,
      1.283167693240419, -0.005059830533573716, -0.41476706799910773,
      -0.20760492449854784, -1.2808750328873544, 0.040771107767543474,
      1.8629441916196123, 0.6326944369527465, 0.6595422742324788,
      0.29899213094778954, 0.823989829229996, 0.9730732578861759,
      2.1060921937546593, 1.1096622229007573, 0.029110523334065084,
      0.6957348293968727, 0.3502697705415572, -1.0820977200657131,
      1.6694384138872918, -1.501443075227223, 0.5488646180441262,
      1.179584789490996, -0.48795240572467835, 2.247348450922408,
      -0.888945680769752, -0.9456444496291081, -0.527780362659945,
      -0.8214662066024112, 0.5616119954963588, -0.20885748356389036,
      1.2416061485611032, 0.8065936391969918, 0.5569754678258748,
      0.8097135731210753, 1.871338340805738, -1.3945288766790818,
      0.2182688047090889, 1.4972627093631112, -0.042606769908250276,
      2.1531109237014814, -0.44948647487826315, -1.4062515625392007,
      1.8379789451296382, -0.6931734701428096, -1.1184252065704292,
      -0.1919944264289762, 1.270354659300641, -0.018657290705679085,
      -0.31005144176668725, 0.5603873934672803, -0.9515605495731044,
      -0.16520395602721533, -0.14275382469480338, 1.3777060854002194,
      -0.5533185107602115, 0.838832971481505, -1.163382171960675,
      -0.6234517203780044, 2.164721368150936, 1.4386636186791493,
      0.5328290665489306, 0.7073786873269848, -1.705521561900183,
      -1.1482785524791403, 2.3792714649141993, -0.19818447232098876,
      0.38530215962634506, 3.3473743725637464, -1.1882613896828005,
      -1.7019630791090847, 0.757247726930889, -0.45095490808527455,
      1.926285617228233, 0.7937386932235162, -0.9142165495972817,
      0.3420209229007137, -1.5908298121770683, 0.09529951693974188,
      -1.952349097952147, 1.5872389366227317, 0.20163936003430025,
      -0.31567389518292965, -0.9361035347496118, 1.2155349190979639,
      -0.7129648155349928, 0.4848771392852757, -1.6838703350456583,
      0.8596499967425759, 2.31932172822158, 0.4155303540309478,
      0.21761767479305846, -1.1549857663941843, 0.39627951502234027,
      -0.17269982767033187, 0.5308867297111411, -0.38441714772743435,
      -0.5782758294313075, 0.8547106654638705, 1.2995358688013787,
      0.039622449052582095, -0.30607134749074794, -0.7700927184581209,
      -0.6559576239176574, 0.10369845130034733, 1.4669767284784465,
      1.6886684595186952, 1.312320573312933, 1.673917155764878,
      0.26382093050468286, -0.15981864712055244, -0.012956682228012502,
      -0.2355145384663802, 0.3039828329582664, -0.8405632388117582,
      0.3579964293228134, 0.5443098581821932, 0.43429090649484414,
      -0.19178693674236477, -0.8644603903116695, -1.969487320843201,
      1.7513155938329936, 0.3413461688789111, -0.9210522781638343,
      0.7069905674189018, -0.5004678022138354, -0.5434260722312637,
      -0.6807227915301974, -0.45413904948647404, -0.34159626961211614,
      0.42340805045611696, 0.4420302042595253, 1.0749587217570267,
      1.3020803507592371, 0.4733294504467475, 2.0392185768531212,
      0.11477941357378739, -1.3928521355535877, -0.4374890104677118,
      0.9516425434680594, -0.6741667740022992, 0.37917341445126324,
      -1.6649578160191685, 0.5891182954981234, 1.0542543355856553,
      -0.22689838084793615, 0.902701777492739, -1.359514581621588,
      0.5686768157484441, 0.6825966652664507, -1.2295982366760423,
      3.116430134844887, -0.47040270365929265, 0.4646035346816231,
      -0.034223615866881274, -0.685767081488121, 0.3124656646686325,
      0.11770589446727218, -0.1046376384584902, 2.87578000232247,
      -0.8799166502129069, -0.665489527951848, 0.36909508317874207,
      -0.16708988121231558, -0.09571607754947987, 0.4409226177667709,
      0.11273178447797517, 1.9172739407229533, -1.5037918353411717,
      -2.019881694732056, -1.0601112975350198, -0.9246272726297494,
      1.1654123920371167, -0.5149572141986709, 1.0641473930545418,
      -0.16989401288638784, 0.1953593091778234, 0.03892477939585743,
      -0.7047430368899289, -0.288838091029566, 0.9233350415885895,
      1.0375500844177745, -0.06389817235450702, 1.4834591664204808,
      1.5877784815008282, -0.4439037189072549, -0.9607600288449092,
      -0.011160599974053408, 0.8148624908670975, -0.6014047146376958,
      1.2661268224289912, -0.314208594325608, -1.633086521524943,
      -1.8877527332249788, -0.6255533495047446, -0.7857383052254087,
      1.2073765351317862, -1.8601733589845613, -0.6848956500447638,
      -0.8639259369734676, -1.2678874748842663, -0.0580951387278102,
      1.1841055001719583, 1.627166005414371, 0.11787710887168595,
      1.4651518631362017, 0.5405323841727241, 0.1608890503040978,
      -0.0543497884709, -0.7591139975178348, 1.1854938246879,
      -0.2335572276194232, -0.6491279323745062, -0.10688995562519403,
      -0.029624105352544918, -0.838768826690286, -0.5766989518817397,
      -2.512807588469322, -1.8047837655400096, -0.45238633929910993,
      -0.7719470706801667, 0.7627844853953234, 0.7325916297446348,
      -2.301504068841496, -0.8238799991573631, 0.03895954896533692,
      -1.245510302272955, -1.271516746857604, 0.5695598221916978,
      -0.31234011110410603, 0.062145760618917086, -0.6983555455916765,
      -0.4418973801732271, 0.3581102925109215, 0.719350911621865,
      -0.6022865887636707, 0.675352503505947, 0.7335660743275565,
      -0.6840197061616254, -1.4828959406758115, -0.9105780951224712,
      1.360968683921983, 1.2033720609859484, 0.7612986919501998,
      -0.3546584754951931, -0.983866304051127, -1.416722064184796,
      0.9554079533812428, 0.676177802429743, -0.5922164294568201,
      1.2967696432680258, 0.15013491156724273, 0.9262103027000986,
      0.3780242488701807, 0.2670556658592286, -0.04750377090445934,
      1.9197113733944475, -0.19185824057931083, 1.0570988994814168,
      -0.033860374649137756, 1.0348366425368727, 2.752075656258061,
      0.5284752537114875, 0.2135841889916569, 0.41285452634245934
    ],
    [
      0.6179028140754317, -1.5381747953987266, -1.0498105430709324,
      0.6453921204366486, 1.8930422083736738, 1.1775172042622921,
      0.7035294407419688, 2.13475545662223, -0.6004178600090718,
      -0.9436204954155061, -0.9967821238354364, -0.0689562007950605,
      0.21478968346943647, -0.5828221694466195, -1.3310588579271223,
      1.7137877496088079, 0.0846925326169494, 1.4186351402843125,
      -1.4700629143869501, -0.7934140580827873, -1.207463187839466,
      0.03310406884071533, -0.3079818106234508, 0.713142778950308,
      0.2878523269828606, 1.983967895206393, 0.10474139877727742,
      -1.1376146377114866, -1.1722896424544433, -1.667102442772184,
      -0.8943289061853144, -0.20234613474029142, -1.3875917030186717,
      -0.6603780728794473, 0.20957091008946202, -0.7573322525662289,
      -0.5227647360464301, 0.6360531369726705, 0.6640699862520734,
      0.5940796045558145, -0.5979695102154151, 3.3956930533228045,
      -0.6372542911331894, -0.1980104655094259, 1.0589882480394959,
      -1.7474053315429263, 1.5215326048936064, -0.506126369843417,
      1.446802456570305, -1.174975902786598, 0.3984062001041318,
      0.3512415919470652, 0.1787269057640523, 0.666016077304925,
      -2.0269892051725793, 0.1495726472860641, -0.6956900389109022,
      -3.3837537541867286, -0.24344470918173777, 0.5684618549036476,
      0.002692409310326299, -0.024636788311790187, 1.296769519823623,
      -0.4550631483127849, -0.5994722685443461, 0.049007312576043946,
      -0.9596100996937537, 1.477040267233145, 1.9669472631723668,
      1.1667278929759286, -1.1090573059630686, 0.26660243095195135,
      0.5462836116778728, -0.4918376035874407, 0.9319000234326538,
      -1.1526000947684765, 1.8242481935160229, -1.2092686717681047,
      0.8549693713186252, 0.17504991612791967, -1.9526646921820656,
      -0.3087927947262842, -0.1260703556839865, 0.7624002486753366,
      -1.9202245504316229, -0.3920713455153272, -1.7927045703449038,
      1.5723849434047958, -1.1779288077801873, -0.39236923505092985,
      -0.3101428662177854, -1.7018951183226743, 1.0083671254698259,
      1.9478880585119611, -1.639628936710963, 1.2855122347060768,
      -0.614888033539427, 0.5751721669394748, -1.7199956522292437,
      0.3070677725010123, -1.4756482020671768, -1.3992920322837712,
      1.5382181058136821, -1.224118394687539, 0.44288839701032306,
      0.7692242382995018, 2.144402199436179, -1.823054533268149,
      0.5433425304690432, -0.5483973074812303, 0.32566902475212156,
      -0.7974292103668834, 0.46043425573162633, 1.5452713302380654,
      0.040189314762797045, 0.3282718104007581, -0.693108199426357,
      0.6329871316090915, 0.27115867790192344, -0.6005872753717325,
      1.0500669416887392, -0.9289903342253852, 0.811849988632319,
      1.3686117183258983, 0.9710078360565697, -1.2353753075337284,
      -1.2020503880972566, 1.5417983167745453, 1.137886832561319,
      0.7696943884119682, 0.5398017372891392, 0.6082156483859543,
      -0.698936852678276, 1.8036914064768226, 0.377182052297868,
      -0.07086834663168026, 0.07648290315720024, 1.0123263228154975,
      -0.3230674220338045, 0.7749970493152774, -1.0237027327665669,
      1.5674516419964524, 0.13673598767829753, -2.365604797581269,
      -0.8715513969734813, -0.4833573405217758, 0.35673213906675366,
      -1.1126465107213468, 0.1336307662520864, -0.913304905537231,
      -0.7165211253477591, -2.39797567317229, -1.9506695378714924,
      -0.6710785192093598, 0.37961514969906296, -1.269055339588733,
      0.7681322605172431, 2.218042843126388, 0.052102754601177255,
      -0.8532856965689732, -0.4366881509100962, 0.15123900663069972,
      -1.6739319412926768, -0.3141038611798565, 0.17105796331987427,
      0.9537001759518626, 0.6409429647078534, 0.24600043576454167,
      -2.2068546555766027, 0.5613048046057032, -0.26402146847899444,
      -0.80921350540038, -0.2049350736441123, -0.25053263121455405,
      0.24009002111956917, -0.01906987832570929, 0.8754181221227525,
      0.17313948612534646, -1.8247086919493585, 1.1131392006362693,
      0.7571623101616737, -0.5074420237076404, 0.6895992992699084,
      -0.36550377343299595, 2.0439267828107544, -1.8117642158228584,
      0.4468318935497079, 0.687238527111562, -1.5740272777834758,
      0.9866039381472291, 1.2872610727322107, -1.3050507778875606,
      2.094504417757099, 0.2336438478036641, -1.1140141850539973,
      -0.9500538467159728, -2.0919634208458384, 0.20515253100967595,
      1.766987043988392, 2.074897332313825, 0.4123957076325545,
      -0.2902139655031924, -0.20910807202165171, -1.1312229953877213,
      1.4429285079023149, -0.14452686195174833, -1.5473149614068258,
      -0.04295488219632391, -0.5462611492043478, 0.3788166106401972,
      0.9775786063864285, -0.694891711747839, 0.9587085033859793,
      -0.0635311674753028, 0.3584652888599974, 0.7418393501750019,
      0.5652297034960057, 1.250411768822317, -0.25427753673657727,
      -0.16820733388479706, 0.06224243283886705, -0.816189695977973,
      -0.2510133202171098, -0.9341210991186045, -0.6379691450878475,
      -0.5022195463486733, -0.5506841294588597, 0.050153402626826084,
      -0.6121277044097528, -0.08693544752503901, 0.4005783990129974,
      -0.3575923077911705, 1.83033979280945, -0.8230627429202009,
      -0.7767839510620259, 0.08436519156674713, 1.0014609164266357,
      -0.7862390110897431, -0.37148302328929067, 0.6441944357547759,
      1.0610830892788992, 0.18786196170250524, -1.4156271784293275,
      0.3225913233130044, 0.5899646808166634, 2.5941154279214467,
      0.1888493349766703, 0.07387570664655208, -1.6035100231223303,
      0.8074624236283399, -0.943096576789875, 0.23353656507018924,
      0.2286511456394495, 0.2550114457276235, -0.09699901345501256,
      1.7839966038511965, 0.7354887793777467, -0.18025426259419883,
      -0.20204914426074297, -1.237650443332188, -0.926603876143319,
      2.2364874225335036, 1.0334900189191834, 1.5736040396175668,
      1.7531996951202882, -0.8906893903738418, -0.05864046076365586,
      -0.8226878945913767, -0.6151043092302518, 0.4427184528317977,
      0.8925175914442369, -0.2647738319799518, -0.25053835486430104,
      -1.1455886354513598, -1.161609623305393, -0.28007863786506637,
      1.0692605860630346, -1.2547593538374655, -0.2899300176386349,
      0.6322172344001199, -0.23783659807874247, 1.6086144254532455,
      -0.6203846708944679, 0.7527105571047934, 1.0599362853224208,
      -1.3210589624439195, 0.07217264307660633, -1.062833507980435,
      1.0218505634583883, 0.517253723606322, 0.13488537548836296,
      -1.4552752195356515, 1.340570888267184, -1.9268830288576146,
      -0.3315785600517462, -0.05512238156801244, 0.42363862942720304,
      -0.4988459109312336, -0.7453588699098725, -2.1416106048804653
    ],
    [
      -0.6467674837893106, -0.35763225020361206, 1.052223902829454,
      0.6710159694730662, 1.4457295353842958, -1.171212560651483,
      -0.8174848273236919, 0.21341762321512164, 1.107455217998733,
      1.5547995010048117, -0.6702781327513486, -1.2360630505773251,
      -0.3872201171914718, 0.7522594634015574, -1.7000298965976957,
      -0.7149276407158334, -0.22797447534731152, 0.9503810741574599,
      0.29642856470958356, 1.4014170113373459, -0.6113228702512761,
      -0.9092982187467656, 0.211812224433237, -0.10969069246114539,
      -0.7193241102837717, -1.938725795472177, -0.47596770496158164,
      -1.9377636317783733, -0.9454434612773254, 0.07304169999130954,
      -1.0080666706960213, 0.12031272317401423, 2.2762017262244063,
      0.15023676442894315, -0.7893303365047132, 0.7472012136461925,
      -0.3484263552446049, 1.4275045222811842, -0.44962016378687314,
      -1.1871109650112783, 0.06920182613530254, -0.1645376355994206,
      -0.4225631989722712, 1.601657851060822, 1.5335340594514586,
      0.2782706515344687, -0.10349346600327049, 0.6469503176095347,
      1.2893314209701152, -0.05815278660018308, -1.0167834301972276,
      0.2949553493219732, 1.2878639692209206, 0.9937530426942242,
      -0.33664728593545384, 1.4008944131294154, -1.3719639807293695,
      0.06275073573518318, -0.4850353311047786, 2.011417296605299,
      0.057646387406203654, -1.4557908998849227, 2.163657817603888,
      -0.17254233636410912, -0.7809098842725383, 1.433695098838554,
      -0.038216616866882394, -0.5207704552211722, 1.162377957151666,
      -0.11245290044998092, 1.2545955975664884, 0.7875663488878573,
      0.5142569674396201, -1.7591121533052376, -0.4338511480633714,
      -1.3044218036297084, -1.126828592624194, 1.8526671378992299,
      -0.22513862775313834, 0.40417208913804725, 0.7419632467293101,
      -0.39725364576634153, -0.6803640022605667, 0.04757291702274193,
      -0.5084276229786943, 0.215204229765912, -0.715059170134182,
      -0.7204031639237036, -1.9837805347182713, 0.2643095645597275,
      -0.47953668596996973, -0.29429894928847533, 0.8146352779122723,
      0.1937128457130967, 0.5173657085592259, 0.30399068934444046,
      -0.6951365883313886, -1.390818827405603, 0.7983555950457022,
      -1.329350409145465, -0.619583477326688, 2.518175123168765,
      0.6064256608721912, -0.38662348436182437, -2.1180661189733607,
      -1.1190918822279803, -0.4730758082216034, 0.39007550486305204,
      -0.17303364698733134, -0.3448599195675537, 0.34698972710927567,
      0.8434179616912421, 0.6869757041700747, 0.09086964016517839,
      0.5989176285372192, -0.287246270304428, -0.0548234242740635,
      1.02455941165277, 1.4662413945568724, -0.2161960736152935,
      0.4377864382489234, -0.5855700365186832, 1.7938678061035367,
      -0.05113233833074094, -0.5337756579112304, -0.48939158773702307,
      -1.674951721060584, 1.2071552703309776, 0.08997394164184977,
      -0.05210725639416837, 0.7745125428986319, -0.04005487178275893,
      -0.9255606866829961, 1.2345748175951896, 0.4882854141080569,
      0.03568842436618067, 1.533075145244907, -2.0435709889007803,
      1.727314760430526, -0.24583063269707323, 0.23195051604698327,
      0.243473685077135, -2.00687309042719, 0.10102163750185411,
      2.0997532785751916, 0.5894541902149607, 0.9957298134180659,
      -0.10608363909025173, 0.08673210065037024, 0.5978275403633608,
      0.4478095616398047, -0.8715889533556259, 1.211679122673992,
      -0.6163876100241611, 0.7440915502653445, 1.1457857808713845,
      0.12478951614741379, -1.7111857772976438, 2.499231953173737,
      -0.19738868421083405, -1.451430492369658, -2.408523599203258,
      2.5104590640491176, 0.02087732523236245, -0.06494531578661651,
      -0.8448223403999756, -0.41773257064869196, -0.4648773721361586,
      0.919492133051895, 0.4431615320575434, -0.8891066960287295,
      0.3174710701351657, -0.3320075029401862, 0.5162620326220054,
      1.0958994474158923, 0.04571872850123865, 1.3935005397041522,
      -0.1828005057348677, 0.669865998093688, 0.46599467911339365,
      -0.9070962528506725, -0.29022603229782307, 0.3496537530735091,
      0.07961727637597903, -0.3072509048890493, -0.14259187356901487,
      -2.9483597666572745, -1.0968938407885995, 0.7229534789277261,
      -0.6818616721419082, -0.21813040629461697, -0.4932270611366647,
      0.33141897404472015, 1.6713487955067914, 0.17199967512466038,
      -0.1359846467638061, -2.5104219887241253, 0.9614950756373868,
      0.652721273494645, 1.242919131941839, -1.339615472042744,
      -0.4388782286810994, -2.1162754246695186, -0.7188252058496727,
      -0.7535305641800965, 1.8090923519668447, -0.695615649387167,
      -0.9857633115153446, 1.6837250815973992, 0.6549049663859247,
      -0.20667426132696962, -0.12754899471860107, 0.8926465748600275,
      1.7717634939852227, 0.5063388700083877, 0.2564691065366072,
      -0.5048377519693809, 0.9578718478637258, -1.197203202721658,
      -1.872313312672295, 0.9599537372151844, 0.29754219339101706,
      0.21417305768739803, -0.5426118565074701, 0.38008493071323357,
      -1.0748849858770895, 1.8807312855118898, -1.2906548272923317,
      -1.07839353560413, 1.162720507435088, -0.9185654562435276,
      -0.7225963370483427, 0.8910446391956302, 0.4352505317107705,
      -0.4541512942416841, -1.3901229194622111, 1.4801278072583506,
      -0.3221298230835382, 1.4286100012471796, -0.7877280928273618,
      0.3235290190521696, 1.600756571705589, -0.6787618071200893,
      0.5722186138327612, 1.3684480207191059, 1.377673718571946,
      0.39743416462051157, 0.494375688832329, -0.01564769134982642,
      -0.06389572362934004, 3.1109600715386234, -1.3637840529699987,
      -0.5226020379549036, 0.8299805702593942, -0.24225859855784543,
      0.7448529713811326, -0.15077697815064114, 1.1024383757282514,
      -0.5610265812261642, 0.3869365976128199, -0.564695987934964,
      1.0531931776594057, 1.4470347998365476, 0.176929361997721,
      -1.0551691515357615, 0.15314195349831228, 0.6796741934780204,
      0.02763336630082944, -0.07725877114822698, 0.233527376306569,
      0.13227585015666307, 0.7274334492093982, -0.6658489273939517,
      -0.9181595566553161, -0.4316332518280153, -0.0364937937256401,
      -0.9819750017471609, 1.3695046031797893, -0.9248422236886548,
      -0.9475929032556687, -0.08423236721217182, 1.0779556262311416,
      -0.014289447264867113, 1.2276814792323962, 0.14865218307014655,
      -0.5435799306756063, -2.2534764884067053, 0.5815685517144061,
      -2.6312976053811536, -0.6780064625475923, -0.710058436515982,
      0.6187473077594431, 1.0603295542912765, -1.5693776573899787,
      -2.8413202615653184, 1.000511295888789, 0.336599727897427,
      -1.1406286348023167, -1.1167142904369909, 0.8100260740104719
    ],
    [
      0.08298309378485375, -1.5907140792304009, -0.7835804361007267,
      0.20435013020779635, -1.4005309118275326, 0.8546524354931133,
      -1.854546936933433, -1.691718068329143, 0.04544848013976098,
      0.45851760595531904, -0.8057189650196275, -0.5149767569828942,
      0.4302578889962631, 0.7005793715622587, -1.4048837882703744,
      -0.7215150019027587, 1.302827814052434, -1.0649909607847963,
      -2.3320109791802848, 0.2867985629599096, -0.6140195334425169,
      -3.166801334218123, -0.04887189524910218, 0.5781070188677045,
      -0.7618100863096363, 0.3149205852111427, 1.8636918167941279,
      -1.9286591216346354, 0.07518720588648524, -0.5519417665320439,
      0.6752803204553877, -0.09809266962162616, -1.1614782192544562,
      0.9736569351937292, -1.3956539729765751, 0.5993247474703881,
      0.08839163441982459, -1.3788109031267937, 1.0317020597227446,
      -0.08100084431125293, 0.08477823630210968, 1.8508624751705471,
      -0.9602860515311591, -1.885943848947445, -0.35457392057142634,
      -0.6747952700933885, 0.1295646103885061, 0.44545369182210354,
      -0.4914589871510723, -1.1227662535705083, -0.9182626993709002,
      0.677075488176237, 0.39423228804778526, -0.3242244454319587,
      0.2793152816260495, 0.07880409066931306, -0.2288889238713338,
      -0.9929609083597982, -0.8740355091467331, 1.2016742379980485,
      1.7512199045940797, 1.2740581193671134, 1.0306877687136586,
      -1.4801753803548001, 0.6715691936206213, 0.24255142060117887,
      1.0308216738110711, 0.9947370537907482, -1.7295091877992363,
      0.34842019718839734, 0.3368750587913986, -0.12189158206799013,
      0.21731963992309514, 2.9896438122818276, 1.5824598342371095,
      -0.5356520888468733, 2.2338522379530263, 0.4539647501667614,
      1.5046154928959332, -0.01168825378070253, -2.2909402981413356,
      -0.5088382360385472, -1.2480335128595805, -0.3818810632255488,
      -0.45652026425661996, 0.08472173821284756, 0.9985219030464887,
      -0.012329330718364916, 2.1292552387089603, 0.094887990891069,
      1.542083440986235, 2.514880640983629, -0.3034276540605865,
      0.22389890763627113, -1.0301884395849146, 1.5801988758475414,
      0.2772339866458224, 0.14023131886262255, -0.14897274762155302,
      0.46475455903727464, 0.4088486784265298, -0.39718724516198944,
      0.8102325574181902, 0.7972167069986955, -0.007494204549273421,
      -1.965963108283711, 0.9549340901148127, -1.8851816595554174,
      -0.29368742633882994, 0.18195085976022246, 0.8348061620526166,
      -0.12832749046071906, 0.4232462908577065, -0.4019412832097895,
      0.962129728454137, 0.7614626536085645, 0.01976002288814298,
      0.4939823996574412, 0.5027028941309865, -0.15771798329881986,
      1.4055509844717964, -0.9419204585567668, 0.3771784350591843,
      -0.38755755017744586, 0.21606008235511986, 1.1621717381266203,
      -0.1847322460798062, 1.741667793312912, 1.3505730836836092,
      -0.17886095229374757, 1.9426649377099494, 0.6287057452383091,
      -1.6083912535665679, -0.3681898402681262, -0.17361900172278302,
      0.599996375266301, 0.20917543748092018, -1.0920363122224457,
      -0.17756521039321851, 0.1174270268382098, -0.28688365657605425,
      -0.40464644868241145, -0.45477018498504324, 2.2733612400330188,
      0.22178998743969214, -1.1342234779398979, 0.9641882230870394,
      -0.6697754582492806, -0.8362808937892932, 1.3493117790437896,
      -1.5551428005827672, -1.4537721986072374, -0.2864931381823838,
      -0.25204419325758165, 0.7739919941029211, 2.019040962494189,
      0.28264855679306816, -0.7344967386702586, -0.16958392176790468,
      0.9372403858750992, -0.3970822435423254, -0.936523397663097,
      -1.5596150298910059, 0.644977300312226, 0.8780786011688401,
      -1.6620742422937291, -0.41259730972849207, 0.8592184369179349,
      -1.290050732830593, 0.024758983673087345, -0.46472034481775504,
      0.305880829727583, -1.8451621043973414, -0.39574101394577144,
      -0.47896382574954927, 0.5172392959733857, 0.5376596156318589,
      -0.23128518313040544, 0.49768672650436535, 1.245355504290177,
      -1.3510147417538463, -0.2928146409533143, 1.7896645999416436,
      -0.12046298176795271, -1.238112724527863, -1.9481953984744382,
      0.27832625450008414, -0.7700143462892024, 0.3600264156177562,
      0.6639666393452911, 0.32057386069469823, -0.7336488768223351,
      -0.37934863378508726, 0.4604640808383203, 0.1573248255845427,
      0.9818202178553215, 1.1403643812944642, -1.5951516722725803,
      0.2799044901687396, 0.7012811669840762, 0.6153181781297953,
      1.262908584782115, 2.4139097087770565, 0.6071164892874105,
      0.5910366946937965, 0.47308947723659467, 1.153181918782466,
      -0.12739313224361934, 0.7374730373703117, 0.038070858879522496,
      -0.9850554550484134, 0.9425360781080003, 0.4257675400942352,
      1.2119340288725404, 1.0969737942592557, 0.5101786601087605,
      0.7151131699506724, 1.3888612569007115, 1.6862407129357826,
      -1.1900123145026062, 0.2106785299557536, -1.7641442624336516,
      0.1045138765930683, 0.6513372154613205, -0.1442169675507364,
      -0.042689243462884975, -0.5753873920674014, 0.8542634544827795,
      0.48620195642153025, 0.9550215644803876, -1.1206641256867154,
      0.011545230941945744, 0.8849675039354788, -0.8912293082283129,
      1.3711473720934335, 0.5227933389328183, 1.7695192489582325,
      0.10596815112288091, -0.37032823451313246, 0.13199708392031617,
      3.1286659836510684, 0.6611013480280044, 0.22390214348642126,
      1.6333558998983702, 1.7334285671574323, 1.2698312748689615,
      -0.0856741812269761, -0.16384509037260941, 0.03847924636802591,
      0.8076437161259834, 0.8481200429753487, 0.7123604925359092,
      -1.7692166602923802, 0.9129342958384857, 0.9419396553501858,
      -0.16099778692815345, -1.258023169502097, -0.028477946315858354,
      0.2157529717511401, 0.26745514089783273, 1.099491511055849,
      0.04447298531830512, 0.31166715780735627, -0.9432427027912347,
      0.2794140278593243, 0.6775943849195857, -0.10473922143321553,
      1.9266986881343542, -0.4912218368291823, 0.833577474111649,
      -0.09403768232569477, -0.03842874235521615, 0.36092892505514385,
      0.3861530288435223, -0.5784758708153562, -1.0595046707868998,
      0.366850897327477, 0.05880364933476985, 1.8868561789883092,
      -0.37913854669195113, -0.08803070115356262, 0.33711649967333496,
      -1.035389409599805, 0.9130153940345719, -1.3150589822055476,
      -0.8177249715922931, -0.9951442421534533, -1.4629201385072401,
      0.5954267385448972, -1.0463202142315633, -0.5343483464186763,
      -0.29945141791244195, 1.161656064429349, 1.825607370415105,
      0.5831234737782687, 0.6423861688016607, -1.0022915510738388,
      -0.8195878869569174, 0.2519953821873051, 0.3317041876843571
    ],
    [
      -0.17228721560596352, 0.39674231133482835, 0.8957433775103185,
      0.9513639066669268, -0.058989927797668, 0.14294262890158185,
      0.11353395835433044, -0.23399527271907547, -0.2171261258101631,
      1.1256847132418222, 1.5862159650347891, 0.6275515538906619,
      2.4509809966138434, -0.6705657915454041, -0.9705530495068139,
      0.9227404498265867, 0.3386805047594929, -1.289734528330467,
      0.7117967989493799, 1.2142501818062539, 0.7205188290513157,
      -0.03475006967001498, 0.9326517625715574, 1.0260894171299493,
      0.5436307072577046, 1.3842599421272748, 2.0874145275456737,
      0.14916020091471635, -1.513737769731258, 0.5146440641258914,
      -1.251148839241368, -0.32618288789775507, -0.24430124704958045,
      -0.27984359389884483, 0.36538018036043657, -1.9428181593704394,
      -0.2466549397181182, -0.4529413054554359, -1.0884848171938935,
      -0.5712419271872407, 0.7156272679109903, 1.2481659362199804,
      0.6897894441512986, -1.5463108590155914, 0.5315242534862762,
      0.5693784212176718, -0.11897131134780813, 0.8156400355928067,
      0.9738622047708884, -0.19267302346808549, -0.21363319350857565,
      -0.5464956566886224, -1.1708287067156935, -0.22740457293166877,
      -0.39874630184271626, -1.2764801492184925, 0.7957454539700333,
      -1.5072253067368016, -0.07066258450008792, -0.032995241205250096,
      0.9687045148771941, 1.8485345810510403, 1.1211340870383604,
      -0.14002881488680163, 0.5452280495754284, -0.09624522157267006,
      0.4968426785218543, 1.5482486527954413, 0.13773784362228364,
      -0.3434174462201891, -1.1377510744251425, -0.3256472469094309,
      1.1312489059997006, -0.5479376780886803, 1.8109145890977019,
      -1.5982841263037024, 1.7356389818970321, 1.0657796221512232,
      0.09723356640628833, 1.391007145408407, 1.383962494169344,
      3.3536026812681863, 0.7869891924329673, -0.26443330054337505,
      -0.5358857273760936, -0.4569072544892137, 0.309678444710436,
      0.2918509387068448, 0.09662376242349699, 2.1279720161548243,
      1.26674786881839, -0.988927818766102, -1.6448704560854825,
      1.2089825730134036, 0.060338717411072315, 1.8517759280177233,
      0.4918992679998434, -1.0921545731150184, -0.7872565371380672,
      -0.0217731765964715, -1.017502801901381, -0.4821334730459715,
      1.0777892197171546, -0.04851216643263696, -2.326411451753159,
      0.5297932819851082, 0.09725881128517204, 0.7091161617890216,
      -0.1447449715344979, -0.43601976073464777, 0.3366673536415863,
      0.30798703680120104, -0.28639319614593195, 0.38311524223521776,
      0.34021969473901165, -0.34566079913750747, -1.5290016792798173,
      0.42542214624180763, 0.517942284387588, 1.1708289411061592,
      -0.19855122997161517, -0.020309717194877588, 2.046288325660354,
      0.014018095680031041, 0.4152460088945812, 0.06758343269271631,
      -1.2760458296222816, -0.5260437473491374, 0.04082517733182905,
      0.3365656355980376, -1.8490972100699876, 1.4557024057324977,
      -1.6728241927677483, 1.07553529799138, -0.19325146768598098,
      -0.5792961938313195, -0.4520845712517142, -0.881272477524409,
      0.17590869726408984, 0.4968277009671211, -0.789044703417444,
      0.22267335556990173, 0.4075529280274246, -1.982249118375536,
      0.2851439805280365, -1.1826605773021917, -0.582228012957049,
      -1.1235012263987387, 0.4765167203584657, 0.7113681570987941,
      0.8515113636017443, -1.2689111556284938, -0.11428695043564606,
      2.2619014130765103, 0.4049261826970765, 1.050148300754103,
      -1.0642058429849002, 0.16571409521572059, -0.03300716471748701,
      0.8601273938337615, 0.21513347428640628, 0.9614715381062245,
      -1.6473887281175876, -1.0001168467942594, -0.1193407573951396,
      0.20063956249143441, -1.9714525747614995, -0.6618933659100076,
      -0.09625827653601739, 0.7783784862901222, 0.7054470806029611,
      -1.6244770681010423, 0.19309418528314035, 0.43126938669186315,
      0.17401108642596777, -1.5876851526025435, -0.3833745833921083,
      1.3281751841804716, 1.0603691759811489, -0.9767535133489306,
      -0.6432236874670805, -1.7887465426240756, -1.0221466155932983,
      0.6989559823863306, 0.9871454457045429, -0.8889131162201598,
      0.19602399722818106, -0.8175933431731992, -0.2954625819284569,
      -0.7641785098163891, -0.4525153859535342, -0.46602206505630134,
      -0.6098841413127325, 0.6798805771997057, 0.5432903940513435,
      -0.8661996819650167, -2.0304910641781975, 0.015857268471077306,
      1.9835230966409931, -0.5864685839683769, -0.6800190730820499,
      -0.9691677594500148, -1.954588577905775, 1.1379727144059435,
      -0.32974993332248603, 0.4366284584594621, 0.7415332400353897,
      -1.1464467603562745, 0.31269669917085585, -0.4783080828699731,
      -0.2463296426654687, 0.6352029811792174, -1.6586774779665405,
      1.8106308628228565, 1.2289049513611925, 0.9163507019310937,
      0.9384313009557418, 1.4916749106369933, -0.20646309429865498,
      -0.8145227078775019, 0.7519816785881718, 1.2485678139367875,
      0.6603293991688887, -0.4643708229119399, 0.7498022013638953,
      0.22166656471662935, 0.4111224338701503, 1.3324595172146607,
      -0.17111640950902343, 0.29886789623790244, -0.2582710577653885,
      2.440599433995993, -0.6374653988350483, 0.936235588720317,
      -0.6894601005473501, 1.2650758067786043, 0.7394132141297497,
      -0.7762982185401025, -0.10970889922590642, -1.9887028451578292,
      -0.5303989922495206, 1.634049194866513, 0.8260469955883178,
      0.8234404869010612, -0.9280468013034452, 0.36261171178629303,
      0.13257778315239122, -0.44864803784289553, -1.460273818750114,
      -0.8172754098508581, 0.42763118186383237, -1.354956295452879,
      0.31396040098727707, -0.4739113471904814, 0.2045067060462149,
      0.008432574734934578, -0.4348608482752414, 0.5489667795526182,
      -0.5076547858120951, 0.21326642084772737, -0.05689824158103792,
      -1.2876206320817014, -0.39991184143285047, 1.2366634804991328,
      0.47514950088662783, 1.2729453568532219, -2.1703539634336253,
      0.4676790113116843, 3.210478958151973, 0.6302850664166232,
      1.0916887723557047, -0.31167093956067377, 1.8984163014291302,
      0.1399006929597546, 0.6990769772674817, -0.261982700162781,
      0.11082400647238891, -1.1159810889136896, -2.2208458665072572,
      0.3866557376516962, 0.22771692242710515, -0.4176836598397732,
      1.3038919494205732, -1.3471832337653586, 0.15108028977308158,
      -0.8103794764077558, -0.18427518595159517, -0.5595243774891623,
      0.5766238823802367, -0.029056169961812546, 0.23114620034462763,
      -1.9822700835610354, 1.1481694034172099, -0.26912173622115426,
      -0.9579707417890532, -0.5077777779698796, -0.08579898082653112,
      1.333210241728405, -0.7244663399839415, -1.1887541053713986
    ],
    [
      -0.60339099825723, 1.0940302350182798, -0.4457535644525049,
      -0.03721293813992489, 0.616966355755246, 0.8287380310266286,
      0.5626729873574606, 0.25060942326270674, -0.6352849173642909,
      -0.3160182389244916, -0.02722183461138916, 0.5285558383303066,
      -0.444620994568724, -1.1881414854733778, -0.052925219831786954,
      1.7036351662940463, 0.15540025399579382, 0.3863864969223441,
      0.14965675246633134, -0.46879924829619857, 0.9097292355044904,
      -0.32374567067513327, -0.04485035586362199, 0.5053812013349978,
      -1.253860465687241, -0.5708373313704981, 0.015931276944540593,
      -0.3438137371080262, -0.3378406265751669, 1.7598768778718927,
      -0.06483273241613037, -1.3593284382724713, -0.7278333114258198,
      0.3944442817472952, -1.458501319504639, -0.42767949195212374,
      -1.2743777112964976, -0.3423270796372666, -0.8266887482948664,
      -0.226921351013931, -2.0132053325119013, 0.034456408884187384,
      -0.7516944964222696, -0.6716890101181934, 0.13552446513243036,
      0.6846567685380154, -0.9688965252452519, 2.2537303343830213,
      -0.13124416164876462, -0.5263145250534158, 0.004400835942969958,
      0.6647127991000115, 0.08204333787944577, -0.28390757616616114,
      1.630982917515983, 2.057573705585025, 1.6950226859663704,
      -1.2241806954405408, 1.711259138043128, 0.9791764518403406,
      -1.2624206504591646, -0.2181899818097783, 0.2894788103726162,
      -1.6595223974474318, 0.38148099972899263, 0.6647795581336204,
      2.0838387380061, 0.6221414982809477, 0.3825216197059596,
      0.05112578783159023, 0.34403155938053165, 0.5865141815284799,
      -1.1989783630253066, -0.1979095219905458, -0.8349671661079163,
      -1.473946602732351, 0.3937639693652361, 1.0385774765679352,
      0.6982796505856605, -0.6439669268924236, -0.12240917072889168,
      1.7334059503368442, -1.3952900080959694, -0.9209965805280502,
      0.8253641343029953, -1.079855582054866, 0.44309107116003804,
      0.3169786242378182, 0.06599238577222738, 0.021920970211110856,
      2.087704684599054, -0.39290624228997095, -2.2173787953097928,
      1.2847709486790035, -1.2027798158090435, -0.8764091861358732,
      -0.1682717743920487, -0.4553748982157051, 0.03225561782930041,
      -0.088406704361082, 0.4987944763790088, -0.06261091855726005,
      0.3716945185822084, 2.6244132657139803, 0.22940925259156694,
      -0.4740237591059843, 0.7310116952860295, -0.6880743833823851,
      1.2657852890749066, -0.8595291953445543, 1.424786100624461,
      0.5253368979967086, 0.9660350007276308, -1.499224198042029,
      1.542348190359459, -0.5126304064867814, 0.5040772307575498,
      2.017404308977409, 0.17287914427369436, -1.3891128522080192,
      0.3866466025610661, 1.0964359300293085, -0.44322119751470335,
      1.4905557707430692, 0.06068108920937568, -1.1928885540115488,
      0.5654542185190033, -1.5483957295383672, 1.3593150710669368,
      0.0900044652788582, -0.45353987282507846, -1.0581677517500236,
      0.6409662964681558, 1.796783582821864, -1.727001520512145,
      -0.8547451084563227, -0.3768866044304001, 0.6571634939746184,
      -0.19874885503071757, 0.8501796241578488, -0.8219222200730826,
      -0.8827991014349023, -0.7597607848221428, 0.12031385642235312,
      0.10290815956141945, 0.010735534216568877, 1.0037117633259292,
      -0.9386770903412628, -0.01619722413377359, 1.3499661876623055,
      0.04028048855840897, -2.3174742498123426, 1.24954026187197,
      0.9092965935061338, 2.1557228376977124, 0.46501024682529135,
      2.5268500067758515, -0.5500956623934329, 0.6672091435213072,
      -0.22684868391143648, -0.36062693695642173, -0.22920178093112115,
      0.7988364715006239, 0.4992621810527258, -2.5584316330135124,
      1.7472479864970472, 0.550330584259828, 1.6226194709410942,
      -0.16835748666878364, -1.1332715121586083, -0.33154103453314526,
      0.3693027221339416, -0.9586795359082055, -0.66781653501298,
      -0.3372194916013196, -1.1262145411742575, -0.9874520766334139,
      -1.1340362854647765, -0.9809006075859842, -0.9018474344437046,
      0.40362846407390984, -0.6545040568291877, -0.36153299037127984,
      -0.5983042214494935, 1.6330041160870725, 0.5224033507959862,
      -0.22558326153250746, 0.8718284194008, 1.077489015685684,
      -1.1600014177992048, -1.1037368718685552, -0.4842828219830948,
      1.3154720571354703, 0.35474104365070364, -1.0159780642046439,
      -0.13563797378711503, -1.2367100569606182, 0.6504016790311689,
      0.241287549705734, 0.5910512510132114, 0.9114405491973838,
      1.0094716126650354, -0.35176102590002806, 1.8483240544345514,
      -0.4327091684246443, 1.6256118737471463, -0.6102461653539313,
      0.09132214971683542, -0.051802143566317335, 0.6022231511476075,
      2.01846748795983, 1.0912087507330854, 0.8547966515927053,
      -0.5940102749121561, 1.766766552606468, 0.8128424348173268,
      1.2822999542249491, 0.8705045390770869, -0.06568507067601649,
      0.4114838450493808, -0.027405979619285897, 0.9506548828952103,
      -0.7758779372703088, 1.088623348100569, -1.1940034683459602,
      -1.8261276909017659, -0.7189526784281359, -0.7403438216004192,
      -1.5860055195211213, 0.3469252196045174, -0.34692440516082507,
      1.642458023670457, 0.9482027787817555, -0.7470180199966882,
      0.38463335197048065, 2.0009780617003026, -0.5862686023458343,
      -0.3217846944978094, -0.8677883539986893, -0.7109169924757688,
      -0.438796156175557, 0.7208227104200314, 0.507478376955712,
      -0.4798829066753722, 0.5710176081009924, -0.8650255472295155,
      -0.9134017911471355, -1.958720914163191, 0.7175166281462224,
      0.7690148669728901, 1.5758392491171904, -0.35634328601531406,
      0.5227023702152, -0.4604084514135672, -0.29071424982870187,
      1.161088821210595, 0.5737040228394926, 0.20495205229148808,
      -1.0357099583858587, 1.0752096546754646, 0.7898758583405757,
      2.787671520204944, -1.100563459140655, 1.2311624332303805,
      -0.07387736087502728, -1.3667421042034018, 0.9227586563064435,
      -0.8158023786954424, -1.6730373810221708, -0.963743497996346,
      -0.6502010234833968, 0.5335738337291068, -0.4534912528724818,
      1.093513007941179, 0.42867710272907983, -0.4768239169937656,
      -0.8312409847802698, -0.5096412178650623, 0.18454270010521145,
      -0.9081469627510237, -0.4161919828927021, -2.0919990695270405,
      1.065607588251024, 1.0976345198071815, -0.8247903428449839,
      0.2677320449005244, 0.6384487536292537, -1.9046649622454408,
      -0.1284288405110174, 0.10689376660065654, 1.8139433764540893,
      0.44292260432364394, 0.093865513221126, -1.1226250933624056,
      -0.7960682570805147, -1.9234460319933269, 1.9621781581794506,
      -1.4419574589975972, 1.0792685687283647, 0.39211128598983674
    ],
    [
      0.3817894250455715, 0.6897635265201097, -0.8261136494562386,
      0.678648177816377, -0.19668307369636792, 2.631502734321465,
      0.7818206243359659, -1.3429437832931588, -1.2693817151182012,
      -0.447987008440228, 0.9286423430403165, -0.40197791587089404,
      0.18423932241380683, 0.3393879423062659, -0.9248296235838657,
      0.07811140380034312, 0.21846154069816728, -1.224963506972821,
      -0.5152058280248665, 0.014404116672393405, 0.2742870824590912,
      0.7147000708046591, 0.2683190955987036, -0.6877165895659406,
      0.790542784555158, -1.117541374122617, 0.03434933467673285,
      -0.8470625396627877, -0.7998231119894232, 0.8054161617836488,
      1.174190522062399, 1.188044605106076, 1.5498051012673253,
      0.9979491341782953, -0.8894442261200126, -0.30048048745862366,
      1.7185142051213484, 0.30756493019482006, -0.4732019956746137,
      -0.41065253068244323, 0.15970942633642432, 0.9011712435050627,
      0.282020831689791, 1.3316091688044427, 0.14390737474676757,
      0.23716677398790156, 0.2640691046944495, 0.17439062808259567,
      0.11849311301868262, 0.792391364144722, -0.36935922607721766,
      0.6384136400319551, -0.4177207517001871, 1.3748763935292592,
      1.3751723717207995, -1.0303332806394385, 1.3805326827017137,
      -1.1892649974611424, -0.5629973166873561, -0.6515806251546143,
      0.9830659692610216, 2.467371424159127, -1.268348518934561,
      -0.08275075306916604, 0.4976522035952312, 1.1568667588366353,
      -0.47949321471124506, 1.6841754889709555, -0.3105120393869973,
      -0.6302628803354537, -1.467231862699178, -0.8142007303900154,
      0.050445307471492534, -1.303182336340093, 1.523295219065912,
      -1.3778433071601666, -0.8377499733768736, -1.4758092598460255,
      -1.186258492526764, -1.3369265058893478, 1.4694334069356838,
      0.01954886742702403, -0.041378223909759454, -1.3633119704054406,
      0.8883725270194742, -0.8647525184717445, -0.09283093932659255,
      -0.31837850706764476, -1.57890218467006, 0.22119398634481732,
      1.9686699954729476, -0.7060550624316938, 0.1288834623935494,
      0.16111984082929495, -0.9356431581140874, -0.4176636758229976,
      0.22077860105763467, 1.8509215266054782, 0.6380682347202434,
      -0.1129354798379582, -0.02925324213467226, 0.9737104602787392,
      1.197533273776353, -0.24608677952147204, -0.20167291700615173,
      0.366092205140042, 1.7528992114844681, -0.373651516509341,
      -1.7262194646718083, -1.171101727914584, -1.0570148225444835,
      0.5888565972036821, 0.8472921622546463, 1.7327195607360244,
      -0.9184570515280871, -1.2797700352735712, 0.02297522686243876,
      -0.04297347903144894, -0.4174086871103154, -0.12204402723156137,
      -0.4816235803324982, -1.7132783459049377, 0.34746920928722347,
      1.590774085125047, 1.6998840348563666, -0.9615198116369563,
      -0.32947607833674397, -1.7023041020978382, -2.231610500803941,
      1.338701126164584, -0.4458835848291554, -0.060813487342332224,
      -0.2929252417502, -0.31041631049661617, -1.5154864191090376,
      0.16704650230988446, -0.17196311032320277, 0.009249996045602333,
      -0.6090109314462947, -0.3764691434422786, 0.9846029527699808,
      0.0018576696980988842, 2.2908046140911287, 0.0750536856516765,
      2.1507607786278267, 1.3227387598066387, 0.1429218739281053,
      -0.9378021947853259, 0.31779696876513497, 1.0511376362165772,
      -0.34513721262758884, 0.8229664394133948, -1.000050060227325,
      1.766257855516412, -2.125799477918166, -0.3633668395048816,
      -0.7376409749627899, -1.4403432297415604, 1.5100194100897775,
      -0.8965989244453081, 0.7697465724369308, 0.14459241879096418,
      -0.08442012619114773, -0.6018782011474832, -1.2117130605309474,
      0.03396540726166549, -0.08961684882347838, 0.5081939213836788,
      0.8133375892401307, -2.0701845483663077, 0.5033366997979187,
      -2.251676578523898, 0.1652278163323969, -0.7520376323609662,
      0.8644019019725471, -0.20971990855971726, -0.9130727712785924,
      0.5009923418355312, -0.7364919032501669, 0.5342044663980824,
      1.8405585862652658, 0.24343211510613916, -1.0139176645282815,
      -0.9364743144515677, 1.4226756173439215, -0.762568281465704,
      0.779160361037048, 1.2213446376599253, -1.1760554609661202,
      -0.6654712583422225, -0.6695737507495121, -0.5588298614441607,
      0.10945634148648424, 0.5378551442827313, -0.2769319248388594,
      0.4783916551482305, 1.7606246650426076, 2.389123228979555,
      0.4983186384119741, 0.13034094369627347, -0.04791032863104743,
      0.4186045939491694, -1.0488418697138533, 0.043637918168117844,
      -1.4102681922001723, -0.48738011991314495, 0.3707424214931436,
      0.38468372212163693, -0.10769455802483385, -0.49353601164230876,
      0.5753975782307615, -2.3910205029765548, -0.10887782681393908,
      0.607379552685657, 0.4724557641850081, 0.8376769972202353,
      0.32113210600006037, 1.6786624435565956, -3.594351128335527,
      -0.40374867546377513, -2.203873918973107, -0.16941439155832888,
      1.7700401661436138, -0.8457456175801346, 0.7634648002924161,
      1.790231197503639, 0.8731208495168808, 0.9415218737458874,
      0.4009031085895297, 1.6022252830589905, 0.31937200241056296,
      2.2079631638884303, 0.7110555056021491, -0.40744789100404794,
      -0.7870583272223579, -0.32276397054988015, 0.6440735146279676,
      0.8405804915642687, -0.7749853698255248, -0.6213169794744492,
      -0.20597125557089718, -1.4984242438709479, 0.5062539906904782,
      -0.8276848438337473, -0.839357872567319, -1.0929904310027467,
      1.634166845489738, 0.8805060753070612, -0.6533082561859812,
      1.3532287527467026, 0.43429926286644754, 0.000647271652844044,
      -1.3482254525602502, 2.1788276146546686, 0.7468898465535044,
      1.813630637684115, 1.0626581238487967, 0.8469881951710225,
      -0.061220572669643154, 0.35356786991336936, 1.8420799167858757,
      0.38296849202548194, -0.7457213067795125, -1.3077974039046172,
      -0.8470558097650169, 0.3078214319731669, -0.9823143218999144,
      0.9034218249112501, -0.504194303356315, -1.1528924468692883,
      -1.215830361544505, -1.444387903109426, 0.39845992598311286,
      0.7692785683282037, 0.42346072689906333, 1.3630153068001163,
      0.4205602491845466, -0.608907086962851, -0.8142987238474642,
      0.13973972780257032, 1.2791754810329252, -1.2073264991379284,
      -0.28287554350738287, -0.4389424181389065, 2.0405873385469127,
      -0.9609234718218722, 0.3594073105808456, -1.2439667447342104,
      0.6982476765795083, -0.27401077528319157, -1.8061950632747383,
      -0.8993213217812661, -2.015912581161157, 0.79605402952577,
      -1.5942450041264689, -1.0538242805828544, -0.17036523913497847,
      1.2239022750977584, 0.6329183249253278, -0.052674833374738085
    ],
    [
      0.8004640958413114, -0.26841846300664884, -0.8958824087691922,
      0.16822851290187232, 2.5201509977265926, -0.2330880085066961,
      -0.18948322099423093, 0.8501826428898556, -0.7391868999411539,
      -2.204580736832509, 0.4375989496528838, -1.1617959488680545,
      -1.3435011122747815, 1.8244397987638885, 0.08417284887828985,
      0.9315145864179712, -1.7983579304856239, 0.7987029469889938,
      0.1412371506983088, -1.2282514311474553, 1.674282003323813,
      -0.21315246107737326, 1.2874726389509261, -0.4981107290470447,
      -0.3736961929078221, -0.2974423943732279, -1.4376520244310718,
      1.6312348064852344, 0.02795878504122126, -0.4191750677490882,
      -1.0070649087080572, -1.404661585402734, -0.4524401615667736,
      -0.04791080098288495, -0.71089017671783, -0.36078566775594084,
      0.20429722900172131, -1.5364089086295216, -0.36093591993238633,
      -0.4365969911231915, -0.2954974833827473, -0.30528753924608765,
      0.34087867952160783, 1.2887972766002427, 0.1501469294132423,
      -0.13219856189007478, -0.22729859650609677, -0.9814091504937517,
      -0.4040024448713321, 0.5621158632924776, 0.055663027935030016,
      1.1689431926243896, 1.856920438066003, -1.1755489330264923,
      0.8868904226661033, 1.1834774611397934, 0.6681902272839704,
      0.2358431057323147, -0.2538280058588996, -0.17773906277930523,
      1.3834964390048188, 0.9616007352003585, -0.9433886807865336,
      -0.24286904215394095, -0.3896636323273031, 0.48351165303518606,
      0.1548179528085825, -0.5709452080428887, 0.6293116626871069,
      0.10744547030051192, -1.647098849184209, 0.7843681895833752,
      0.21163476793478936, 0.037197335275937014, 0.021011568945314096,
      -1.6838912661401635, 1.318909683640531, -1.3044610003046149,
      -0.303245599397162, -0.5491032733780772, -0.057369549947751994,
      0.24572276184853672, -0.565317339193978, -0.5561029528091598,
      1.4377811080465586, 0.43408777922081687, 0.6338023022246262,
      -1.0281488702263024, -1.298508128699721, -0.15005777393704506,
      -1.6451649876721757, 1.156876009064409, -0.19540616244434492,
      1.8951996156244966, 0.09570271800038796, -1.23147293997762,
      -0.2874376882957036, -1.617637215128624, -0.7182470170938737,
      1.4702499742626338, -0.17070195779357217, 0.3508298639834163,
      -1.3671969363698468, 0.33207450489325463, 0.0855881532256851,
      0.07622286703073494, -0.18476160262355534, 0.8882192587143349,
      -0.03777555579525602, -0.4437677427636394, -0.3166110053846839,
      1.434902255915256, -0.4239529642864838, 1.417930184522477,
      1.5598609859358683, -0.5009499635760292, 2.249623571516529,
      1.5708463491585727, 1.927442512145973, -1.3749740550300469,
      0.2853602618862937, 1.102981131204792, -0.9567817571129975,
      0.8847350693804663, 0.980294621334209, 1.0203641611267475,
      -0.40467270404522393, -0.02179527218407466, 1.6007785177278733,
      -0.12755912453303223, -0.6675959202647981, 0.83366773611146,
      0.3677717693642805, 0.7509774946398462, 1.4359844920819684,
      -0.8579464279585861, 0.572589434845772, 2.213689776463191,
      -0.5793490939572795, 2.1025484868812256, -2.6376892939341134,
      -0.132592789953696, 1.2094422908373086, 1.0931765416744226,
      -0.16561662740445934, -1.0980534989650823, 0.3811709400662259,
      1.371538570411779, 0.3241355226576597, -1.320809265031014,
      0.337019018279706, -0.842150350118603, 0.8015285672386072,
      0.45997256302369044, -1.41131780620002, -0.777225928605926,
      -0.3644959824984225, 1.1143172661603362, -0.8137105263367742,
      -2.3731643907828426, -0.20561348380309477, -0.25381512602172784,
      -1.2152941018833248, -0.09201418265539492, 1.1793546578183387,
      -0.23710112026635682, 0.48764921646507686, -0.0789500457776179,
      1.7335254462976961, -1.1167031913375682, -0.7120496727698866,
      -1.3215685393006407, -0.48203459483263644, -1.4793091632585433,
      1.486331961436612, -0.7233395151154347, -1.1393241749313205,
      0.24454638335967452, -0.5237715775945108, 0.3792160361969577,
      -0.28954157293516086, -0.22894780401638345, -0.01901307850987811,
      1.3873503126081723, -0.11905180804123212, 0.06790167228256176,
      1.2268000603107168, -0.7973918508815077, -1.4026090242213103,
      -1.6657643002223175, -2.996582443334213, 0.6921120988559571,
      0.3793893751277023, 1.3640891367770593, -0.02411312740714934,
      0.5019719385442414, 0.051007955894908696, -1.3118966924006563,
      0.26072262916887906, 0.8903511010145815, -0.35390294402965783,
      0.13365140555391058, 0.053734598289937145, -0.5500495828123594,
      1.4344915617812042, -2.2228922323452602, 1.355313950252928,
      1.287301355306004, -1.1733046011194106, -0.17373729841887003,
      -0.22719461095737925, 0.3855420934480589, 0.41955757136144883,
      -0.051333110540452254, 0.8311734315819127, -1.038466235493992,
      -0.520006366533309, -1.4150286480937007, -1.2425798155446897,
      -0.19847889067099234, -0.5927974807350184, -0.28181126057512423,
      -0.2148078368345509, -0.9017833125252784, -0.6485803217734302,
      0.6147996334482169, -0.07302730020716611, -0.7789889462328292,
      -1.361451330986154, 0.11314224846154457, 1.0508182061326607,
      0.6469135380404628, -0.3639690281599296, 1.5886357264487947,
      -0.8649301267600804, 0.29716899981127465, -0.9420884733212941,
      2.173180736289817, 0.5317279762718137, 0.25864588732456567,
      -1.9993809674599003, 1.8713006906875584, 0.053760167009567796,
      -0.6425231028338884, -0.35177017980757624, 0.18806146744021981,
      0.8855975250391146, 0.689702622007385, 0.6234417177122283,
      1.0180302821979548, 1.2177331270230833, -0.53111612910005,
      0.014371195897155754, 0.2845830396509491, -0.3302628674098334,
      0.9000492824431733, -0.2196333431687401, 0.9978509164648881,
      -0.026279698062936153, -1.4186399006981947, -2.7463749296317514,
      0.2777314919413782, -0.19272293784140448, -0.40027348197572205,
      0.6412611478281631, -0.35212288409688347, -1.4004521284967388,
      0.10555432224623303, 0.599582026670344, -0.31211754722845736,
      0.9852074577309913, 0.2933191661973774, 0.9097457233980396,
      1.9108951931800633, -0.5316799596814809, -1.9124422305983044,
      -0.39332091385548473, -0.43426362724768625, 1.4042278079668489,
      1.111368359367361, -2.5257013647278623, 0.9518640910532258,
      0.41603466284870083, 0.21655708903528903, 0.21886673517078672,
      0.014492361966207306, 0.5259934882823447, 0.8396312349074223,
      0.38300162928038833, 0.34540900880214237, -1.1417808604331885,
      0.9336643974277796, -1.2256712788667747, 0.7462333171375908,
      0.263157904705221, -1.59516471224057, -0.6824275902531165,
      0.34860249558899165, -0.833179950814252, 0.2831490911200424
    ],
    [
      0.9466949189135904, -0.6476652529379013, 0.8359571260315355,
      1.5953374912349632, -0.8381309957171063, 1.1028486352052005,
      -0.9928108990980169, 0.5817033902179397, -1.297294904328781,
      -2.211230167222233, 0.03260917093212852, -1.9863192511607934,
      2.065889218174127, -1.3525210431589436, -1.3308617862421737,
      1.5601123602526967, 0.9916405494968972, 0.59699641417026,
      -1.466726564927795, 0.3443023200522343, 0.6621782782398408,
      -1.184682357680281, -0.4743549905060015, 0.9354515511201548,
      -0.08939655421273333, 0.2633657346796624, -1.0048566023832322,
      0.8682714674808535, -0.6576221813372479, 0.9441540218387474,
      -0.02716800552090743, -0.24769609318598637, -1.0067738956923469,
      0.584239488771917, -0.5568163569484208, -0.51273431507027,
      0.6285919801127716, -0.6310905581407248, 0.3914033058285345,
      -0.6413650260876144, 0.7830003264443846, -2.33683068242111,
      -1.7217373134067477, 1.530258861222157, -0.2267278725820862,
      0.045677269021062394, -1.7709714034177029, -1.0165242065150644,
      0.7945219233502234, -0.33030894358456914, -0.5045736427607785,
      -0.35606036173579253, -0.04063943482788009, -1.1669128835123412,
      0.3098113899665734, -1.851264390133241, -1.065051320869335,
      -0.3820032052259134, -0.971754649486592, -0.3488381292561463,
      -1.5357348567846751, -0.042620334711608227, -1.7171046571424893,
      -0.1720279567203588, -0.02586563973158188, 0.5980446065949481,
      -2.1611196529506618, -0.3183383499831492, 1.5276763977841301,
      -0.6454966196355527, 0.006130362041522759, -0.6785018013267338,
      1.7418929177911855, -1.0533475529497354, -0.5745271567280831,
      -0.38999709297251384, -0.0910564118441461, 0.09316906336061437,
      1.6183126346031147, -0.2548925124085412, -0.36208943538651855,
      0.6481366590056749, 2.2762222974043347, -0.23155717326544245,
      -1.518294323294852, -1.968195667141989, -1.2023782262911784,
      -0.3868992246167394, 0.512977718210316, -1.3966426917228336,
      -0.767461725653051, 0.3379853531822242, 0.011631659251422507,
      -0.456163292667829, -0.7820220988834984, 0.61833927135459,
      -0.11285259276378935, 0.4158302124050615, -0.6609537575427386,
      -0.8987122090503508, 1.718549170068133, 0.30575756738539783,
      -1.7546148794546572, 0.23678614713160354, -0.17917103059298867,
      1.0597436644130456, -0.12794687371335675, -0.6204128380688021,
      -0.8666742604942607, 1.2415072099884277, -1.0063669824717179,
      0.7982574903262075, 0.6498511806813944, -0.5792987396728989,
      -2.0187888315375386, -0.6853000163735217, -1.2184162241838992,
      -0.34005814514738214, -0.4458857215970466, -1.6497478366165266,
      -0.9230273602098117, 2.000962821096324, -0.3361183427415961,
      0.6225503368976261, -0.3211680560223941, -0.2151751262914655,
      1.939545826117948, 0.5090015086028409, 0.06879605292517077,
      -1.1327382432049273, 1.04448232166301, 0.11571317742573203,
      -0.6862360913464258, -1.0677371985556317, -0.3305372920684493,
      -0.047890814571185936, 0.16164186043107578, -0.8187952289553958,
      -0.237545142870527, 1.742344462571651, -0.7178116669825457,
      1.3660799857293575, 0.06530418121268576, -0.4008978588586877,
      1.250032530127372, -0.6332301069306836, -0.7491931941797831,
      0.3360112151330767, -1.0978793777589095, 0.6060901973946868,
      -0.5459198345066701, -0.2768224093022155, -0.03593039803234376,
      -1.0694248551279928, -0.28519357234803877, -0.7104450592335774,
      2.1384780599311224, 0.2877100860647353, 0.25196654675755387,
      -1.64957199917842, 0.5723115963499621, 0.39880864671084787,
      1.2022675323512826, 0.5022371195668256, 0.06927703742922335,
      -0.5232228504258848, 2.1409544911167835, -0.47683137563748823,
      0.028655933202655137, -0.28186131051282903, -3.0615600264134177,
      0.31878126916029126, 0.6471430778256531, 1.383032834856316,
      -1.5880504588345083, 0.7300745991334432, -0.6813266969763497,
      0.28873692520143673, -1.3389126593445444, 1.3460803506924317,
      -0.29121336097356537, -0.9290423834308367, 0.5729901698966982,
      1.99401567294421, 0.3500171175734223, -1.0164839580718397,
      -0.687787613547864, -1.1076177498064117, -0.32465223652557773,
      -0.6267819244323967, -0.5404116606727043, 0.026373983937440393,
      -0.41193545227236805, -0.5943282556568771, -0.4889003454621954,
      -0.1564102753810299, 0.4071013865003475, 2.2250396413013345,
      0.7871371741128355, 0.028819799990244224, 1.2461264443954156,
      0.36422124723471794, -0.8856122706557935, 0.04320334469878497,
      0.8572900662934672, 1.1683909818714944, -1.3269229841358978,
      1.1863696486170807, -0.4559487466003599, 1.1462840311140117,
      -0.05292603519016876, -0.9872462318766217, -2.2484473354143315,
      -1.9940507634862172, -0.9496609117956447, 0.15019258700412202,
      2.0564936665169884, 0.06105342327146131, -0.004090920753234867,
      -0.4933778634052126, -0.7645753147923944, 0.7109327031501954,
      0.5244166401136211, -0.7775602884717893, 1.8248867980646968,
      0.6674356400063437, -0.22818320353531293, 0.5981301173319423,
      0.9648684885306472, 1.140544443345, -1.967504466159379,
      0.032024837296655236, 1.5973499314919677, 1.7063037818832927,
      -0.009502908783692678, -0.04219964524898938, -1.7009702684231078,
      0.18404203335814645, 0.4632824073555938, -0.943506336114409,
      -0.07877755962729349, -0.1837827442082444, -0.2235127379573139,
      0.6880293645724865, -0.34437101376411594, 0.9829765010389504,
      -1.4892407275995618, 1.5908651087545054, -0.9739382754731871,
      -0.3254684817587366, -0.6590091888794246, 0.860412793767642,
      -0.5361152268040559, 1.515877256656301, -1.330705985126512,
      0.700511230092246, -1.535724216045825, -1.5378284732983423,
      0.22318327271327654, 1.6670835351947244, -0.8465148142503747,
      1.5119123781674286, -1.7330002195418475, 0.27387830669814095,
      0.016519571930239133, -0.5909399078537457, -0.22714127712371374,
      -1.8132043812482581, 0.19300055984253733, -0.3785337234295935,
      1.470328069352117, 1.1520531498461546, -0.06332575505813039,
      -0.7595630031637919, -1.1248292256620276, -1.110353838815642,
      -1.0935954478441012, 1.0463057989466666, -0.7476603989102848,
      0.2207239612792071, 1.331784597960847, 0.42096902593996427,
      0.2586460878447758, -1.1445155453794902, -0.12696828617937367,
      -1.4025870847035344, 0.6321564005932108, 1.12470118090428,
      -0.8575757720540764, -0.2638180530018656, -0.8902253039138041,
      1.0694886890241964, -0.4020699094819176, -0.8166039365917845,
      0.9210458155128559, 0.06426277059632425, -1.199256982613296,
      -0.0778022827834005, 1.6910495806362715, -1.1425991000266233
    ],
    [
      0.586150507337162, -0.40506644686612037, 0.14081973475396667,
      0.4117921323933694, -1.4007198278062392, 0.8082408290709988,
      -0.2032178590678347, 0.41947553716663677, -0.3819560336142031,
      -0.24909495195473588, 1.2215307388197043, 1.3981010818310244,
      0.9389473559661023, 0.9047487750363109, 0.23442226892772264,
      0.5108076576360358, -0.4709084781745304, 1.598520520730009,
      0.525368754739835, -0.06392870425626626, 0.786310245285104,
      0.11087258343653376, 0.7898670711695465, -1.2982639239659544,
      -1.262074562447865, 0.2955082379479028, 1.4085372602852255,
      -0.031175926359273375, -0.7299928301754911, 0.1383607379838616,
      0.33178100756691925, 0.16747668925241221, -0.3007598032077884,
      2.153666168582527, 1.0056181512374125, -0.7409921624059144,
      -1.3573968344687009, -0.565193299018811, -0.42647611153196313,
      1.427196183358068, 0.041687333127125005, -0.9936432116779496,
      1.550837086410443, 1.09803585460957, -1.1932990883480787,
      -1.0356475495570094, 1.4944266789680218, 0.41092155691297644,
      4.1475633496345515e-5, 0.1243446031340589, 1.498081062556529,
      -0.1590727126470057, 0.6205253756800911, -1.376969561494008,
      -0.043746171368273086, 0.16335910745247303, 0.9668311190719128,
      0.41945143168610577, -0.5444814245702653, 0.2905518796952597,
      -0.2990611820664915, 2.1302539802357634, -1.227425583692566,
      -1.655973614409894, 0.8469548443261631, 0.47150540438719646,
      0.9203675954386884, 0.13100155415147263, 3.047339977273251,
      0.4673862080385055, -0.7530578028467275, 0.5666909770840437,
      -0.2298451222015805, -1.5040627490554617, 0.9955754401776363,
      -0.8914057812560723, 0.6915397843415098, 0.09492810968880235,
      0.8590781888538979, 0.7402599395454512, -0.11304261022352617,
      -0.4152363310744065, 1.1277367937845828, -1.1089276814914593,
      0.5748527570689776, -0.7099636418507459, -0.32575010760157447,
      0.13791010420852748, -0.13483114471859053, 0.1987330740882094,
      0.32242627790993034, 0.03583753739024524, -1.9400360039884752,
      0.4814648412346314, 0.730294214819853, 0.05972454703637069,
      0.15474220597242852, -0.19893370628888032, -2.429160600907655,
      -1.5166346950324703, -2.2070327986700478, -0.9478970901094067,
      0.5926052604864998, -0.7659479012253885, -0.4253655313509919,
      -0.2938315755257587, 0.7196775664497742, 0.019464403455188208,
      0.7489640044563713, -0.28472828899325214, 0.2576586777395524,
      0.23784408054162973, -0.06924161535623685, 1.2796252917412614,
      1.6753866520491554, -0.2952144937031135, 0.47263348580599907,
      0.4603436019665393, -0.7836302133938278, 0.12334423059832347,
      1.6176971570636396, 0.34639607587055643, -0.54924332964254,
      -0.60908220210588, 0.41716512879762546, -0.661705554565737,
      -1.1659594834210332, 0.2614527795001885, -2.0964553958095733,
      -1.2434849348368695, 2.099310942982776, -1.2538815074866994,
      0.38455475969151887, -1.0731033131080199, -0.03567204127922826,
      1.7687839168682458, -1.9346581994842562, 0.6626373708237493,
      -1.187790528269654, 2.1574370773007927, -0.8375138684767715,
      -0.3880870306695853, -0.24243027810541867, -0.09084622677333941,
      -0.31706903578496226, -0.6110658453958584, -0.20333384101882587,
      0.981227443139831, 1.247585556157341, -1.5328969435636437,
      1.0752005665640951, 0.6954311260188809, -1.0921764274623793,
      -1.2145170951079167, -0.112720482640789, -0.6618239064589164,
      -0.20728191410529365, 0.9271618259737892, -0.34156842928437287,
      -0.48933431090298396, -0.5267511670920685, 0.9162387438230664,
      0.23497742497926347, -0.6155567279336484, -0.17045657054058894,
      -0.343306190157751, -0.03955296599805016, -1.3579483323342092,
      -2.110404028475479, 0.22507324648913368, -1.1921846179530073,
      -0.9565499733804049, -0.16701695045414985, 0.6662016456652056,
      -0.4222113823766397, -1.365599605271728, 0.8185363487989861,
      -1.7107978555141048, 1.7243433257449368, -0.42974466636848124,
      1.814261803911334, -1.2750708013109655, 1.9383950570163662,
      -1.490895502430781, 1.9903509107253348, -0.10764632727403642,
      3.2427319272804422, -0.7972557695483551, 0.29111528597470177,
      -1.9772968820449364, -0.002586276704904391, 0.8789092047077118,
      -1.1394958508567898, 1.4581705794198825, -0.07574432914807126,
      -0.08065913476025031, 0.006142438983396811, -0.46046937344197786,
      1.333196091532865, 0.47487338920621325, -0.39165905484680635,
      1.0069514835500086, 0.9747224234063945, -0.9962489702446908,
      -0.9729618613437532, -0.5087452006747288, -1.341129340456134,
      -0.49114502542233107, -1.1363514574115794, 0.2410741852632802,
      0.8405713068538317, 2.3426554299880373, 0.9313522114352927,
      -0.38618326263500696, 0.668398663494599, 0.2629937535479006,
      -0.6072090868513788, -0.09176565494729884, 1.7041883555007642,
      0.5802495174591994, 1.8890506659916961, -1.1495891328289944,
      1.8897387320434946, 0.07049733415160737, 1.8633655574014771,
      0.7612523453559812, 1.4040737015406966, -0.6420100458627725,
      -2.6188642994429725, -0.2034013808973201, -0.6696062361455712,
      0.68141009826043, -0.021168325635488996, 1.3330972923613775,
      1.9583825038328502, -0.99094598129497, 0.2812770209028876,
      -0.5241568889800042, 0.4809068035084301, 1.0644483521117587,
      -1.418378366981354, 0.037034970869883894, -0.7587206608447533,
      0.2988528370372925, -0.42965780937994635, 1.144204105496271,
      0.18735559716520467, -0.38761217681052657, -1.0827972389419331,
      1.1512807349869687, 0.017346777331113367, -0.2253564517407103,
      -0.5394473929964607, -0.08124368610689679, 0.1355429467786322,
      -1.1036191102173254, -1.2941355624676907, 0.27670749095595387,
      -0.7566937504677258, -0.5458438585978906, 3.288131174380121,
      -1.0492989477888142, -0.006922128842266063, -1.0353467953306903,
      0.7403302425499916, 1.4124216912953147, 0.5667310602766217,
      2.022181792085688, 0.7611531739868195, -1.6241712428114443,
      1.1488003674792273, 0.2217517096440651, -0.057606545801677594,
      -0.3997773063809998, 0.5348313404953735, -0.2335565399318314,
      -0.512988037011129, -1.6901764419734808, 1.1074949718657923,
      -0.13043206349362177, 0.1640767826345191, 0.04326925757996496,
      0.19682974041824017, 0.733123393382343, -0.22472229317839065,
      0.1522687842784252, -0.9394012367963291, -0.8901353725574599,
      0.5198863313052265, -0.589078953783486, 0.487968793101924,
      -0.6603003500500545, 1.2418876958306364, 1.0529779287635235,
      0.3479587526192348, -0.6509895634238636, 0.2872939786659037,
      -1.2690471127904197, 2.251322172636554, -1.0956055997265741
    ],
    [
      0.6025604464092105, 0.6090493971872216, 0.5556588144966053,
      -0.9985295273106274, -0.2675884988593267, -0.06562086625746852,
      0.4896473095925246, 0.08838040882698935, 0.08180431256156773,
      1.1438349582633485, -0.04172129924668424, -0.7259692631414069,
      0.5387243725870712, -1.066107012176922, 0.27094555041243423,
      -0.9802910153300669, -0.6579909669668867, 1.0690636193231957,
      0.05177495892621574, 0.11344685170416888, -0.5412431957622498,
      -0.36591366978800177, -0.685890211538619, -1.1693264144249214,
      0.7150393679167902, 1.0638256102060701, -0.836919730589241,
      -0.07202807408849851, -0.8426639950391529, 0.9729699009849919,
      0.19751661759603975, 0.6434165281999716, -0.4198721149110159,
      -0.03493285290636588, -0.19296812283918446, -2.0833154463303694,
      -0.30955657580974033, 1.122824121247186, 0.893197802140042,
      -0.313026209750794, 0.8795188901751076, -0.43865520248190504,
      0.7618027344821547, 0.8162504445811434, -0.6317318214793644,
      -0.04021651424720687, 0.31951539510262833, 0.5583230803756696,
      0.37546958497568356, 0.7617869409691964, -0.5107961061242805,
      1.433818450792144, -1.0497560995251325, -0.8907083988009704,
      -0.8574287390916597, -0.5651777940691228, 0.14461826529851496,
      -0.4789533711164351, 0.14078071610451684, -1.0293770938448765,
      -0.4360161360033829, -1.5028538807393392, -0.2514381086306076,
      -0.017609354782530853, -0.20527683114227338, -0.44013645180379507,
      -0.5358753053106802, -1.488957700217773, 1.3849549095437457,
      0.3330157110057237, -0.21782043219250902, 1.3185497839675038,
      -0.795484554246334, 0.06052498743155169, -2.3255747145187877,
      -0.29387734081636924, 0.4539645034836489, -0.9791636749189241,
      0.1502463680095768, -0.22183790208350254, -1.9757411123451758,
      -0.8932111482988092, -0.9341674052876447, 1.2318430813147228,
      -0.28500819219627244, 0.4452759560161695, -1.4307033918445025,
      0.5528794187848975, -0.8366477392288043, -0.10884095530698677,
      -2.071400111681427, -1.0906876217394628, 0.20054703842980787,
      -0.14280273504281144, 0.8951441234574514, 2.4755457186898386,
      -0.5629439145662397, -0.5443836875969339, 0.1478006706563159,
      -0.7600768988390993, -0.615080091282519, -0.39817533435026214,
      0.997290024191946, -1.9676507543145154, -0.3584228348395334,
      0.35677802795586033, -0.022446208695941026, -0.14856029464839943,
      2.458163046431705, -1.0261277467819974, 0.6538915637625584,
      -0.4163050484648727, -0.22074341720183036, -0.9147941860815764,
      -0.7570025572102829, 0.097879184168657, -0.7680976508953191,
      -0.7271855694892675, -0.21412119594916226, 0.4798218689904723,
      -0.20799274408399993, -0.6689310625046208, 0.7046628773242761,
      -0.3694331992011144, -1.3394112403629352, 0.681381790016084,
      -0.16785927882502832, 1.5121894838802779, -1.0488555021865549,
      1.0357327058370702, 1.5162299706678601, -1.2788157080852258,
      1.593563268134457, -0.963366014106229, 0.9736009887488589,
      0.5415705829531423, -1.6793140390520807, 0.5419418663785528,
      -0.6095266323221443, -1.4822715547495025, 0.8173058068072707,
      2.118352944416787, 0.055859472435501406, -2.080001879869875,
      0.16940955409856648, -1.8127491573785315, 0.1799032223220436,
      -0.5040737367940382, 0.025933764141852403, -1.4317005621493786,
      0.6516483366474528, 0.18171762900627206, -0.7369898173858744,
      0.9040850244109763, 0.6766643329945501, -0.6565393920288431,
      -0.12434408997684623, 1.3590175713621826, -0.22756401881022625,
      -0.8711094377232914, -0.13477163640930037, -1.2468380246146789,
      0.16958069177953014, -0.2649638024606956, -0.30473797119956036,
      -1.440968698048085, -1.1131158530533611, -0.24402068139588978,
      -0.3459156741941992, -0.7045385755676241, 0.7181949572673836,
      1.0270571801532997, -1.1236040106153031, -0.3321381824606317,
      -0.2793754201023201, 0.40502893890656, -1.3438308743686307,
      -1.1505276166295253, 0.4332061517453036, -0.9169599509353324,
      -0.060889737516669096, 0.43406818053992663, -0.31840690164690555,
      -0.11513667760996672, 0.6978218369098026, 0.8561748042190538,
      0.2995593595859073, 0.8469240794545398, -0.0655944265984817,
      -0.18199397188922206, -0.3395259445762981, 2.356562201208598,
      0.7760721620963185, -0.7836940962047605, 1.1059881357574672,
      0.1840946205423561, 0.4015717980324159, 0.2377306550908541,
      1.088030937018387, -0.3658616401234957, 1.5461325826851695,
      -1.2053970188816168, -0.5312331342379238, 1.156106607883754,
      -0.8609422661941973, 0.6207718103421932, -0.49523395406417475,
      -0.5975254556083657, -0.6482672719532232, 0.5148484083358636,
      1.2361277580382306, -0.7203986895074396, -2.4676474094605156,
      1.196711218160016, -0.4959817636651751, -0.10115844234716681,
      0.15875521502922396, -0.059219536289785726, -1.1365324552227378,
      0.229662340479732, 0.21220954513907306, -0.5380396969242831,
      0.5250770447501115, 0.36172297184770447, 1.1988377356453908,
      -0.28272291972024793, -0.3638218737166676, -0.14773433176907866,
      0.44079467921757, -0.6909222718144449, -1.0030149969009743,
      1.3762643025313044, -0.7847538295974822, -0.42322128694857997,
      1.3306480157790532, -0.04521203962314219, 1.3969735716343226,
      -0.21948863676665695, 1.742177765960273, 1.6189481626730164,
      -0.3118411393001328, -1.222161725015373, 1.2909311444032772,
      1.380178731483093, 0.1167156946564434, 0.24485471646444645,
      1.2080117242438178, -1.144886091278429, 0.5063980530680453,
      1.4092823894676068, 1.1915453516770194, -1.9208254932427913,
      0.13001898864911376, 0.20365711715908916, -0.6553405665838817,
      2.159951595212463, 1.2624041898475282, -0.9872409114686733,
      0.026758731495864715, 0.09124726897846265, 1.007622750773283,
      -0.20781838520822524, 0.42325849173738, -1.591496499159712,
      -0.40454225543658745, -1.838099394003269, 0.008372698996238756,
      -0.40494051220902005, 0.08738089359778986, 1.7615729503222368,
      0.4180100283012023, 0.640213334657672, 0.25985827611575324,
      1.0677375830681242, 0.17714622298644708, 0.4865413216956872,
      1.441643211442764, -0.5671365522313058, 0.5075245723146103,
      1.5047140012855191, 0.2058012863093868, 0.0160763485903091,
      -0.7499675554555875, -3.201401554032049, -1.9413955180547768,
      -0.14273183926747504, 0.3379569552295176, -0.6125029784797721,
      -0.917227259034301, 0.16394237754487365, -0.1080467233535085,
      0.4786200454974678, 0.8701025079192617, -0.905987592512213,
      -1.0015263337867146, -0.3702860590124423, -1.7982958403355436,
      1.0839340682750298, 0.7701295644410371, 1.6672123289313487
    ],
    [
      -0.16243208459157227, -1.1887101645757923, -0.009753840462719454,
      1.234483890425165, 1.0617326137763548, -1.144079149707377,
      0.1752929914680993, 0.17663392963555155, 0.3455010534991415,
      -0.11010346155873013, -1.4376757683207126, -0.08039338474675786,
      -0.26887981111052206, -0.2687335512131691, 1.1362362309959515,
      0.1337992997678404, -0.1884508812150154, -1.1525347943386919,
      -1.4504189707358204, 1.3550031873285215, 0.5682287729441555,
      0.1335017468998623, -0.21083822827144758, -0.8298158177819731,
      0.10031097934529215, 1.0262268632736462, 1.628051387404912,
      -0.1275252853007787, -1.761562751734465, -0.24029864775944146,
      0.6505641658453033, -0.44787819393022654, -0.08870252575197901,
      0.07439503166873969, 1.957229778746625, -0.038111803834069403,
      -0.04808525893776949, 0.1727997134421113, 2.950146678891835,
      0.9651338693840735, -1.3761115903028895, 0.07541231066812955,
      -0.809736160137185, -2.4104565878370723, -0.8234790015321627,
      -1.417437585700904, -0.3575540653786207, 0.42490749555919627,
      -1.2382495486950023, -0.0629402458118216, -0.4658784601348482,
      -0.9578972324277026, 1.5462200722963468, 0.05777362492372795,
      -0.9438111766784653, -0.025995501085620713, 0.5913035531691138,
      0.5363028229445207, -0.37525008539116966, 1.5308441991740316,
      -0.6619083884776286, 0.02912293607362418, -2.0657193660891986,
      0.8326032676938296, 0.43705614562740175, -0.6759769177210843,
      0.02125203932965197, 1.353044194443453, -0.23179474315999848,
      -0.07997656243314523, 0.6539810310950939, 0.17268988289273332,
      -0.6178912502760381, 0.5011765040947747, -1.0806021033682676,
      -1.8565012746117373, -0.8746422918808961, 1.1576096159527913,
      -1.640959260158198, 0.33929766630349223, 0.9076944746550453,
      -0.0630121533677768, 2.3819591770440653, -1.4207550869644396,
      -0.29462804435784656, -1.7936426979109832, 0.7617207681019934,
      -0.18077987064354414, -0.12760668680563791, -1.1721761131964978,
      0.992413999234357, -0.48389241458679716, 0.4540876721722738,
      -0.9838402917241181, 0.4634821908560089, -0.04959352394235569,
      -0.5274045916034462, -1.5532773610043233, -0.2558079217517742,
      0.08610014409245126, 0.4913323273034809, 1.0232437838893618,
      1.3955632221170182, 0.25552727649860374, -0.3571683100673879,
      0.4774121404526115, -0.3314644860676912, -2.175335058637853,
      -0.44023300958387773, -0.5996367800954424, 1.1670066546414812,
      -1.773222765371686, -1.1408968258863232, -0.14211581576424656,
      0.17490120546269547, -1.620469889204994, -0.27497820406227363,
      -0.5959478945840209, -0.673174731446671, 0.3913223905554846,
      0.41084674703014473, 0.9455433176885525, -0.18778852724805253,
      0.8941914347804665, 1.2448061931015013, 1.056760034477872,
      1.0120057422531217, -1.123426572531848, -1.5194719279782478,
      1.1405688145952957, -0.5236035349601661, -0.594618706021852,
      1.919997997883158, 0.8284313914122221, -1.0330315249485127,
      0.7276631678107294, 1.6876126804466978, -2.059633614471284,
      0.4293737492526083, 0.413295202321011, -0.041226127253093506,
      -0.15135838190094042, -0.474088816744377, -0.3113034783517098,
      0.15379189448131605, 0.9088250706091039, -0.6797865847812927,
      -0.04820530492174536, -1.5078399878285953, 1.1150161240981151,
      -1.3688863454296951, 0.013247080963709582, -0.48222844276653243,
      -0.7936126147732284, 0.5748850899366866, 0.23443860280726517,
      -1.7989222727785112, 0.5129130226245743, 1.5906135741848313,
      2.156660171588412, -0.7582807721226127, 0.585870778527899,
      -0.13256370311304388, 1.3305949852453725, 0.15843207683872806,
      -0.6035904732557463, -1.0373811812135403, 0.17027194467921972,
      1.1627918743570982, -0.8455994124518474, -0.9283578917182121,
      0.18111345998948217, -0.3358583164776641, -0.19518909295599032,
      0.7493256850162113, -0.605062125964762, -0.10830927695305495,
      -0.7209398169840894, 0.14645137165443317, 0.5186475918285871,
      -0.8850900100049249, 0.6771252227719488, 1.321095719430791,
      -0.21373463383117602, -1.106252368528676, -1.404571717653806,
      1.229692717555621, -0.9442895454963283, 1.7440130715590294,
      -0.5380044139502481, -0.34434323649593174, 1.4323311088127382,
      -0.2519565279828929, 1.2126467568850816, -0.6976354051424903,
      -0.25563308028151743, 0.8546673748873144, -0.8329771630787086,
      -0.03466670521622431, 0.3495707485908216, -1.715090244215831,
      -0.03349554813527138, 0.44960345667789603, 0.7024744413437494,
      -1.826613260957956, 1.643001628836052, 0.285884675366527,
      -0.5263829093000981, -0.46328100992012217, -1.6668765951109723,
      0.45424204990533734, 1.0605646764990255, 0.07029326509282076,
      -2.2692471068871787, -1.1409603109304094, -0.5020240626702159,
      -0.16996514841217186, -0.19684647125296487, -0.2553581944880137,
      0.846821585417665, -0.2153738274384043, 1.4076747117536832,
      1.3796624329677358, 0.03217553955024327, -1.138011307631621,
      -0.39962210534551895, 0.5150908347576151, -0.23704397430955956,
      0.07208632149863163, -0.0077163810769758645, 0.7887663998903451,
      -0.16696242858173116, 1.4156835127417728, 0.9330608978277588,
      2.252990438039018, 1.0435382131772766, 0.5513446601896154,
      -0.20435092389189602, -1.3761073957014145, 0.028258380060732627,
      1.7576277884031506, 0.0117798327711922, 0.19494273353137992,
      -1.427087872344744, 0.9910418925272567, -1.5853887680941485,
      0.0014531800148876552, -0.6689004107724055, 0.6590679606897641,
      0.7398332747003096, 1.3583156928123146, -0.8288422561995085,
      1.226620316470681, 0.14716602795683478, -1.3592434667047555,
      -0.02073814707750611, -1.955584781638851, 0.8881370633791961,
      1.164755064630778, -0.9744193456886063, -0.5182127816896805,
      -0.131609657830905, -0.8524976933884425, -1.626597233207818,
      0.2408168164121515, 0.030037257054477795, -0.088869290808808,
      -1.5041507862140306, 1.2959734795984412, -0.9461795372067104,
      0.6220203729999606, -0.5610008255778816, -0.0005974508170983406,
      -0.229742336503447, 0.5516969009790355, -0.29824541574250024,
      0.8461450606049266, 1.5278122661484284, 0.27968209212377254,
      1.2122900657285007, 1.2017288971312823, -0.2711393769385093,
      0.3468400507855269, 0.009589190334981878, 0.8456463199261534,
      0.3000499358625583, -0.4755198890164985, 0.14124764602093065,
      0.2613004869629129, -0.24693964684877934, 0.3253601995768693,
      -0.8726658328885729, -0.8658161969996072, 0.7733417898617612,
      0.12904260603854922, 0.6655189333437191, -1.0319590955506472,
      0.4942532671783328, 1.872014658195761, -0.7894821015421042
    ],
    [
      -0.4963465856183163, 0.09308202201172076, -0.83709811655541,
      -0.49469770179287026, 0.8663551586842184, -0.3501845897636541,
      0.2810019223224123, -0.36139822536544747, -1.0685633103264263,
      2.0156666387545896, 0.5139169237059068, -0.10720931504119316,
      -0.3743786752475645, -1.8246470439318587, -1.6346998411257327,
      -0.21282189767768112, -1.605189567239326, -0.5943107622943936,
      -0.3600302892291775, 1.026899025353588, -0.7437198368818748,
      -1.1522859198336204, -0.9486948260120187, 1.2732721451743079,
      1.515615872911327, 2.0647785130201255, 0.3102424317994867,
      1.263330886163219, 1.2313052606723347, -0.7903010198106122,
      0.5576998962138355, 1.1933069285286444, -0.4193868802066925,
      -0.11742040944739833, -0.6091897287457464, -0.20958859158240184,
      -0.9196525722948268, 0.9179538040379746, -0.28843127651226447,
      -0.7910848766509049, -1.2626064209659917, -0.17909413372315794,
      0.07441580249258532, -0.6975964706200772, 0.3264698991766174,
      1.4355029048974441, -0.1988595531409796, 0.8594756280288377,
      1.4248957363087402, 1.558006350406502, -0.5444172783213713,
      -0.8697335337074709, -0.4323642127751637, -2.03637483915356,
      0.4214525203115963, 0.9864445203632315, -0.5190464188238131,
      1.5677304269919576, 0.8647847223799515, 1.3758296979898545,
      -0.61381566187378, -0.3620208716812454, 0.20051799743104257,
      1.302372852690904, 0.6924738792171442, -0.16694547012496333,
      0.2728843686680453, -1.1693077522376722, 0.43094139632587014,
      -1.5731129845349954, -0.7594098963830561, 0.7721946192546395,
      -1.5800657480599285, -1.3657707419818252, 1.0217046240709555,
      -0.07561493413328887, -1.6157025355027723, -1.7888818179147508,
      0.07343488828201805, -0.27631140410401506, 0.2445056518482388,
      2.0985793631202574, 0.6480265005482648, 0.3118163290248307,
      0.6650130025390638, 2.77824505271751, -1.697652158818061,
      1.3369584936526302, -0.23891626196720456, -0.1902710637081969,
      -0.927838160637754, 1.7671267071791124, -0.7096996005033351,
      2.070887601151081, -1.2409287378702811, 2.0164227110786785,
      2.8113015437875335, 0.8506229025403357, 0.6217000139504165,
      -1.5967115381279622, 0.7968500143884499, 1.00447138299731,
      -0.34154927535987517, -0.9734700364546867, -1.318218213714712,
      -1.5196556879253473, -1.8594853988171829, -0.045591488575520214,
      -0.3340546181879065, -0.6649429161748712, -0.03495090880684852,
      0.10447453876437798, 0.15891859652354376, -0.8613870683388802,
      0.4029605311410792, -2.152115901459026, 0.061983690123895194,
      0.0631176053468273, 0.307883798080226, -0.7678514854452584,
      -0.6795383258671769, -0.7356784198498028, 0.250519848351456,
      -0.34970355083417287, 1.1605163984869533, -0.171170986561842,
      -1.5860981656738655, -0.837584629002638, 0.8187655388218337,
      1.0663567037345216, -0.4062998148659046, 1.5083564868191635,
      1.298046301689961, -0.9831796303068954, 1.2705161937188492,
      0.3910141714486348, -2.013092810622272, 1.7789852133588873,
      -2.2049470838982654, -0.3195408504107777, -0.11050019749535095,
      -0.4348887509896274, 1.2442477229857356, 0.6393512804093113,
      -0.4016060821846832, 1.8989727903084215, 0.32071806940090963,
      -0.3375505462699101, -1.7751462865031495, 0.8936166898463315,
      0.6022252722756342, -0.9810575777655128, -0.6901527083561291,
      0.14832516887118993, -1.0552466258787871, 0.7957027460603522,
      -1.2733289238209484, 0.5031345518913521, -2.374393791554703,
      -0.7114179965134126, 1.6208704514366072, -2.20151368558227,
      -1.5763507046282745, 2.263332695081745, -0.4925312812042531,
      0.6684375547685094, -0.4217027783311959, 1.963975048822817,
      -0.2167632307115357, 1.0953335215519493, -0.7270736401181994,
      0.11611071636142425, 0.8796714278369423, 0.6995231071340875,
      -1.1100205852479286, -1.5829100458773449, 0.14200085931956738,
      -0.783484823688313, 0.36085070176033435, -0.3537715075812765,
      -1.503394458859527, 0.487077003720036, 0.549807012927706,
      -1.1893303779113473, 1.1449723934989378, 0.013608080077111572,
      -0.8162552342465358, 0.5729281297252569, 0.523006309248302,
      -0.5918437420506174, -0.6646855644132691, 0.14858436514378406,
      0.38670885409257527, 1.9387592969120608, -0.9955677285236793,
      0.9398155210917721, -1.1332075882232602, -0.4713935665027017,
      0.49648087850518485, 0.6763535309741265, -0.7975363524306053,
      -0.0553165277975029, -0.6538951744262989, 0.6045659206494836,
      -0.7280430697133042, -0.29463600796632733, 0.3735860122629527,
      0.39618055744017605, -1.6013807686595465, -1.5374821641778,
      -0.6784387463673804, 0.5116078446941278, 1.549288430047144,
      -1.2391130679903515, 0.3224638952217652, -0.3707062545943494,
      -1.6333860072827444, -0.8168829297606035, 0.8655363935309668,
      -0.07893163975687241, -1.5181477544321056, -1.055580308277844,
      0.4762363785019273, 1.0320786760722254, -1.6123393557586347,
      0.022168921157980262, 0.5624569732120667, 0.5642152849454002,
      -0.31467741375962827, -1.3132381608974333, 2.448878410541634,
      0.23882572565425034, -1.502317173937124, 0.14541858666352503,
      0.24802205632127014, 0.17774902954167207, -0.08982406485710966,
      -1.8662109800721647, -0.3115126209304081, 0.9446201040496369,
      -1.6684462143784646, 0.3512087229543482, -0.015093633195966408,
      0.07197208585758537, 0.32175568382711517, -0.19807708336486715,
      0.014971836276837878, -0.08412923349161422, -0.5205553738522666,
      0.5244891031110069, 0.6278597811890402, 1.1659881324098107,
      0.3035574989068608, 1.998702238856125, -1.6033854699654775,
      -0.8522347635096427, 0.8274797903711273, -0.8741250614912829,
      -0.9677451949389874, 0.7902889399147389, -1.491065818393459,
      -1.8735985666645099, 1.3963793916896954, -2.1292874318061807,
      -0.5680309198969702, -0.08355302024542165, -0.5452643752752959,
      0.41853340132603567, 1.1357852856190789, 0.5043009676304873,
      1.32343108978069, -1.2987890682975656, -0.4174401479573017,
      -0.973790444384769, 0.9634107916223771, 0.5632773575226234,
      -1.3943954491173085, 0.37767981882120577, -0.6321878261832241,
      0.47396193100145406, 2.1469571527310407, 0.2967228838958471,
      0.01592808693375736, -0.6570784751340336, -1.8694944591039506,
      1.317043586654002, 0.8357805320787006, -0.2236904048291542,
      0.776411448908324, 0.003980274421776514, 0.7010106167130256,
      -1.5472338748806693, -2.224710478661012, -2.00191574955726,
      -0.6238917301066849, 1.548527703316737, 0.2865640726945558,
      0.35727099493417575, 0.41854283404821346, 0.16838232433657432
    ],
    [
      0.2259608498521276, -1.596601123812814, 1.4752875794932434,
      -1.1262569430406004, -0.7706630950770644, 0.03172940129643208,
      1.7628532052227122, -0.5125089630188235, -0.517792210312092,
      -0.9738978724806033, -0.47263140039732937, 1.1906643603339744,
      1.4384150882460571, -0.006658352014714332, -1.1074229463907572,
      -1.281362277123039, 0.17013452314522237, -0.4836298334433852,
      1.2687273386314757, -1.4118464429887765, 0.020313103662384327,
      0.4241519237140306, -1.0618023832477563, -0.31181299693941145,
      -0.48401310902149325, 0.9967732302335186, -2.327823783163327,
      -0.8372433770952264, -0.40330558601114774, 1.2703306982983211,
      -0.36639907959849644, -0.6831305660520695, 0.7027401838087981,
      -1.3558889893075428, -0.11700430092302307, -0.6818703154209699,
      -2.387534006403486, -1.3715808343857543, 0.1578720985922649,
      2.0534014232827094, 0.8251796910221536, -1.4580730622719336,
      0.5447920029021314, -1.5472560917907838, -0.381376983784386,
      -1.0908751749694658, -2.7453003413908346, 1.221205536884346,
      0.03118810487983175, 0.927344825887385, -1.6289373689178845,
      -0.6103258296790974, -0.8022166949869983, 0.328613049387215,
      0.7364236900768342, 0.81592601472617, 0.1518439996576508,
      0.1981082998562695, -0.8672499018168137, 0.30820195044139914,
      -0.329054152713373, -0.20317573357309363, 0.5579424187498461,
      1.0626760591428657, 0.12443310860816167, -0.31296262054660823,
      1.3542922658210357, 0.4085215739634477, 0.7875823727631867,
      1.0830924058109326, 0.9771067675509919, -2.1195342347674306,
      0.5475926949808999, -2.333062159010231, 1.4504165226551684,
      0.5391752643648522, 0.09821469195690867, 0.902120543826744,
      0.1599717658221595, 1.1182072880066531, 1.8793812073126541,
      -0.45030113048934955, 1.537063256616177, -0.6981826010727179,
      -2.1096678360229424, 1.1749696010435744, 0.3793939253619646,
      0.5171214485763093, 1.5475938803739988, 0.7140291456759125,
      1.7216959481316578, -0.9994759818457354, 0.3295711693838829,
      -0.041413496529177876, 1.4799077530691325, 1.7663104901167446,
      -0.16479536335350592, -0.42878332364715704, -1.1676195643709595,
      -1.6413279411676303, 0.562937297985456, -0.038038432780317814,
      2.946115272314811, 0.7340530975806876, -0.4254326957890185,
      0.5362097429054729, 1.9562451168776356, -1.0593953584144749,
      -0.7872246038516653, 0.9718691135936651, -1.5292355930681223,
      0.3845250560410622, 0.24619671458410172, 2.402393380613049,
      -1.9705603109458525, -1.333427378344524, 2.4320711648737174,
      -0.5994092625824876, 1.4314939939185634, -0.3819992572419203,
      0.06635881642889428, 1.0928977018405384, -0.22923571504932402,
      0.6832368217617804, -0.42640808988614193, 0.0037704330330967026,
      -0.2905597981448177, -0.2207144669575482, -0.8522520550593011,
      -0.6028890236278002, -0.9301758002889808, -0.0019915244778580432,
      1.7053109132266762, -1.3696078920384396, 0.02828708081902409,
      1.925598717906048, -1.5080526687936173, -0.8468017524171356,
      0.1640260468387147, 1.5330252771864141, -0.6925420463406563,
      2.163126007064029, -1.512236029357269, 0.5235709872110081,
      1.4828105039081685, -0.21038563955568262, -0.44639705252909123,
      0.33174747840266067, -0.629547614782515, -0.21488148275979796,
      -2.4449700264706955, 0.040661953698986376, -0.9217793158558913,
      -0.7759179745002212, 0.3994158872870104, 1.1352322287235195,
      1.0459659846723879, -0.23427402405453682, 0.31996256187124145,
      1.7425877220058033, 2.265930055348661, 0.12782863563987726,
      1.0282532271774625, -0.27878102999704363, -1.597749748191741,
      -0.128266904260679, 0.42564444905899573, -0.05051188085103994,
      1.0856903774834485, -0.7943731359615612, -0.4617674484445053,
      -1.5178110440939798, 1.1362561958168456, 0.5939651191227184,
      0.738506217377532, -1.072733262707953, 0.9562980605954751,
      -0.07678544771633879, -1.653941851556857, 0.4940371908098294,
      1.6715901819363002, -1.0545790978075582, 0.09392727002999889,
      -2.909918880975506, -0.23756213621621952, 0.28243954807529614,
      2.7687335543623566, 0.6719314864326728, 0.5014930891629132,
      -0.43720781497214456, -0.30620322420343654, 0.4516192895571261,
      -0.29832239534755894, 0.10935470323032645, -2.0801659489139923,
      0.6670651306707975, 0.16252325786481284, 0.2007269178676677,
      0.4311545730073632, -0.0979963962463553, 1.1827194812281179,
      0.8869589701026465, -0.6847919652037023, 0.5252344770599567,
