{
  "epoch": 2260,
  "input_size": 180,
  "hidden_size": 300,
  "output_size": 26,
  "activation_function_type": "SIGMOID",
  "input_nodes_weights": [
    [
      -1.007146677318513, 0.5496722540037476, 0.7076261113472762,
      -1.9838825900170478, 1.317355177154954, 0.6594348361912085,
      -0.015573864521935894, -0.885145816312493, 0.8296554128792192,
      0.3904103182780582, 0.6077240741596576, -0.4479644148771245,
      0.2170075514674458, 0.2808544010773907, 0.5579878506803638,
      1.1502458739150045, 0.7461481143349143, -0.058072707907597776,
      0.5415045586085885, -2.4282749249741884, -0.5333782647757142,
      1.7763990817642472, 0.19079215273485733, -0.9291756414787238,
      0.003504242015184108, -0.4184626235433527, -1.750501591806631,
      -0.9341921189694153, -0.6130678664532427, 1.184273622846381,
      1.288761624904236, 0.025191925367373347, -0.002998478339323477,
      0.7183445372283883, 0.5539193035879352, -1.62525444207118,
      0.461538240112467, 0.6942776447638318, 0.2960514072238624,
      1.8277504335464625, 0.177529685010154, -1.2110786691212385,
      -0.13167009308734354, 0.21722985516308138, -0.14575677661995864,
      -1.0813382438662613, -2.591406531102424, -0.934455982301669,
      -0.7122944391953806, -0.06775238319344745, 0.0025006514119123324,
      2.1880363227381103, 2.9646845411862612, 0.1067788391944881,
      0.22925050543716724, 0.22595996299151383, -0.19080150762374568,
      -1.057549607796917, 0.0873286645066536, 0.6414317130415261,
      -1.754088395461229, 1.2471060417654265, -0.5800246213892146,
      -0.1187438278644093, -0.20511751865273653, -0.2875722929385414,
      0.1512756436792017, 1.8777019889181075, -2.828496129212891,
      0.26189233872365264, -1.3699730393398506, -0.4309452894703311,
      -0.7751879801926514, 0.9585076567108934, 0.48674286703453457,
      0.954410447819387, -0.36554282633927165, -1.304993360822478,
      -0.6892401071785231, 0.7233095665244665, 0.0016046517894748324,
      0.8251523955212122, -0.19153952744239738, 0.7650726042372324,
      -0.06101647369371532, -1.6346386304109417, -0.3829465303341039,
      1.1782416206514703, 0.4076294580338299, 0.6962485614913405,
      0.7281530201902694, 0.5001644382050279, 1.2754967153833419,
      -2.007127540245538, 0.14013588021620257, -0.7685881965843772,
      -1.4674016402643228, -0.16137972494171873, -0.05723475259721883,
      -2.729710976816299, -0.326556246839615, 0.21750008556435585,
      0.959681816014736, 0.524031891545967, 0.21300530972475376,
      -0.40695240328075916, -0.6753888476952618, 1.4536968159839585,
      -1.6963081235624287, 0.786030930186131, 0.09210863876801795,
      1.615059613461468, 1.3703677708658921, 0.5298091650301803,
      0.14595775182355394, -1.028474435599051, -0.762475352585508,
      -0.011734383467794362, 0.3548730745457146, -1.6371732426642085,
      0.7860307818910145, -1.1163024065044014, 2.8978840748763504,
      0.43850688752316147, 0.11009772457751045, 1.2166374061462775,
      -0.4440368885178749, 1.247758600939582, 1.3087210805735983,
      -0.010923004883998553, 1.170489263987952, 0.3480565661879172,
      -0.7953818762337636, 1.4430826746942436, -0.7490522852801442,
      0.23836546761181898, 0.6251441537720899, 0.816699258027059,
      -1.0459636377226038, 0.2411211961069996, -0.13437965119957992,
      0.4952345998534188, 1.1454955932129296, -0.708510377948741,
      -1.3633586323592322, 0.13578878211366507, 0.264227751737998,
      0.16712658650793596, -0.34400929430601795, 1.4504354221148292,
      -0.47057688994638114, 0.6272839259164518, -0.3096591503865915,
      0.7282652323069662, 0.06150742440147403, 0.4627641636197119,
      -0.11804815244711497, 1.9429102166882748, -0.7220736133221071,
      -0.5829373578099546, -0.24165144730890767, -0.7407406769026114,
      -0.17152140648265884, 0.38318033298647797, 1.5647524575383078,
      -0.20104985725382787, 0.770460948438627, 0.06605256789123674,
      0.9688837321641337, -1.3570954907031059, -0.6973143049541373,
      -0.620786022095173, 0.2542948666048355, -0.9176514640426212,
      -0.8335209212242882, -0.8734911708789681, 0.8596724348603059,
      -0.2237221515613846, -0.7364563992912081, 1.5204699804849386,
      0.289145112127838, -1.3247368167450992, 1.4446514844049572,
      -0.2343677521615664, -2.4143585778544554, 0.6350983251629229,
      -0.4041462703940739, 0.3302882886421523, -0.17301815142860283,
      0.27243964672746857, 2.4277402950201257, -0.5436867795782695,
      -0.5978601304271748, 0.15847061430251091, 0.11814575091520917,
      -0.15864307063905414, 0.5770469866167364, 1.1667646960926101,
      -0.3569120912130085, 0.6521033337992275, -1.119585578870691,
      0.3156461079766794, -0.44526241921489185, -0.6068015131636145,
      -0.6706992136311318, -0.5072530629088554, -0.09358868986608256,
      -0.4576208609814974, -1.3719731550085468, 0.5320647609877227,
      -1.4574312719219764, -0.13021266399839182, -0.0839851516349887,
      0.7209019194573908, -0.30203411898337734, -0.4082076944599328,
      -1.1370690879655994, 0.3762545401987041, -0.7983179526782621,
      -0.16583745457817456, -0.9928966493784713, 0.8077400132051221,
      0.08534293193363743, -0.0383932122373797, -0.7427597080164631,
      0.7628054190209457, 0.37365694950962824, -1.6291133439153302,
      1.114216396077974, 0.032801458761952326, -0.17279975980774767,
      -1.3587331462953924, 0.4389553895697306, 0.5559454568423616,
      1.1269498973354597, 0.6914001531566493, 1.4398175382664729,
      -0.3678380731487096, 1.6042490068763648, 1.554622070564536,
      0.1373042569116964, -0.08478140849277516, 0.023010380148051863,
      -0.2745955854817139, 0.17909986225763785, -0.32122065066770084,
      -0.6706512400610717, 0.5213333531906275, 1.6150640170332493,
      0.4690117955214295, -0.7915424588173262, -0.6569708484291893,
      -0.665311570326045, -0.1830025843585412, 0.34593828614101235,
      -0.4221973809692556, 0.6279464282103613, -0.5304134334309362,
      -0.5937473083152736, -0.30323177171871357, 1.4909462141778036,
      0.455359531227573, 0.7052180811120555, 1.1263248966534984,
      0.6781354691049385, 0.2736313111473458, 1.3672178242038766,
      -0.546031862907544, -1.947124250357183, -1.3553581188463046,
      0.10196677414132083, -0.9376296122870268, -0.21925981105575126,
      0.651494430810016, 1.258087409296473, 0.8183575220941169,
      -0.616964085523823, -0.22361519041542122, -1.263069005292942,
      2.572771189968879, -0.7150583922807853, 1.5457801726286466,
      1.7500888650252195, -1.3094370953607404, -1.2694858308294226,
      1.120876173791465, 0.08050395437862756, -0.4940449533881874,
      -0.29173980989993903, 0.9556090086600282, -0.3546387436216224,
      1.440269172309265, -1.5749845176779016, 1.4997783011756618,
      -0.5903570289176298, -0.10646786650191925, -0.7555199528309126,
      -0.06917720444011052, 0.7436362256841328, 2.0216943226452524
    ],
    [
      -1.0140552870911355, -1.2423187737226544, 0.49817249177137934,
      -1.97354249013574, 0.030991749090125434, 0.45005326554794706,
      -0.0703985220471446, -0.28719404332186566, -0.3640497364378873,
      -1.6775614562427723, -0.022024013740853103, 2.286263287161581,
      0.04406481689535174, 1.06790809266797, 0.654511702180574,
      1.1775429324238773, -1.6656325530299088, 0.18645334140558792,
      2.290788581638356, -0.26643988359001425, -1.435960790884572,
      0.2643982468243843, -0.9090012598264435, 1.9974191020401986,
      -0.30830311139162775, -0.6508215569969651, 0.39201709901733645,
      -0.5236227884596435, -0.6397582517925943, -2.6193000714719923,
      0.39575871434265897, 0.017365000310876223, -1.4913084148287716,
      0.7937272456218445, -0.3746375020415846, 0.3713653616631144,
      1.2263899931250222, -0.004849176245050285, -0.404509113867058,
      -0.21325154527166548, -1.3093600223860764, 0.03189164595725299,
      1.8584327359242563, 0.6823322224709253, 0.6734595426931287,
      0.3005301251973409, 0.8349422095747315, 0.9340416153420235,
      2.1529366709906483, 1.0854731851021486, -0.012223316384598568,
      0.6918643890612688, 0.2862748359602356, -1.0860911837282219,
      1.6620340921183936, -1.5157448618225096, 0.5559530895287568,
      1.1791360813852862, -0.5037335648268967, 2.255456933677656,
      -0.8964505261262438, -0.9266127535024745, -0.5345279091259703,
      -0.8020024041328957, 0.5665362763301224, -0.21318064878046966,
      1.2487921701129912, 0.8087165793842386, 0.5758896078709655,
      0.8123641191720046, 1.8743955327173034, -1.3842571964815622,
      0.2564913227164541, 1.4927590893934635, -0.037915981444813035,
      2.1337463387688, -0.4392887363443256, -1.4323512447607645,
      1.8560845955415537, -0.7168178328677015, -1.1050835197019695,
      -0.17665101521765783, 1.2711899051997804, -0.015299238251365086,
      -0.3133613947062987, 0.5574695402090447, -0.9503307164327527,
      -0.17152620891573908, -0.1305383892389519, 1.3867635348659093,
      -0.5401176792531629, 0.8490997943587244, -1.1979524360910239,
      -0.588318080369903, 2.128865478028969, 1.435556728397303,
      0.5269360202656895, 0.7014727596473888, -1.7218862189172721,
      -1.15625986947597, 2.3841928373671286, -0.1855481640695351,
      0.38926440570302995, 3.3304442954511853, -1.2013197364914354,
      -1.695768093106012, 0.7402596511440954, -0.4513079354254812,
      1.922882103813604, 0.7933058193544708, -0.9388978727211591,
      0.35107940639481844, -1.6006032318699803, 0.1094505116431536,
      -1.959710386668924, 1.592467252861783, 0.1854297290590342,
      -0.31877183054125946, -0.9007808988657278, 1.2319540461849408,
      -0.7048258766377858, 0.4776925415432005, -1.705641246329712,
      0.9122024313672966, 2.3395975232108923, 0.4126774413751933,
      0.2043865359424333, -1.1621871775385246, 0.4048232511223871,
      -0.15393716448896133, 0.4426791879570592, -0.34841501895989285,
      -0.5540877453325952, 0.8620528576321919, 1.3091444361165014,
      0.059118476475110496, -0.340916525322251, -0.7747923081721673,
      -0.6864693122510293, 0.09803004930422185, 1.4835341199152774,
      1.6803299199830901, 1.3159380677439274, 1.671902739119319,
      0.2701022733380951, -0.16530034057533605, -0.059278245908743345,
      -0.2828073643215476, 0.30581434031576876, -0.8351237550471295,
      0.36461078075826425, 0.5428449895835067, 0.4431931516285236,
      -0.21826162357448112, -0.8655044165997069, -1.9559482866909255,
      1.7468110478509031, 0.35217735704414027, -0.9388321958180011,
      0.6783847509127056, -0.4793404087954435, -0.5543026537943687,
      -0.6668509710122983, -0.4612072874508658, -0.37492642450928393,
      0.4153127960140692, 0.4243808265936594, 1.1122418296410364,
      1.3259049516753187, 0.471314275861342, 2.048703036188549,
      0.12638324810435303, -1.399650021148905, -0.4369124061477008,
      0.9686696739404377, -0.6834174024962005, 0.3836639020767924,
      -1.6729987118152871, 0.5936687882947471, 1.0494715978974984,
      -0.22062349843778692, 0.9234753346671123, -1.3648867738090387,
      0.5402839378687976, 0.6699983824349465, -1.2337030007005862,
      3.134596171633701, -0.46153648341109177, 0.41070638851678726,
      -0.0449108924183868, -0.7028386672918623, 0.313794760694903,
      0.11829252186237764, -0.11779072633263415, 2.868842884693305,
      -0.8906592992850537, -0.6692548917995007, 0.3847432678372061,
      -0.18003710001056414, -0.12264758323434471, 0.4431975648424342,
      0.13278140982040196, 1.9104930482496825, -1.5130922514657377,
      -2.0328373348432915, -1.0754108048997437, -0.9350059340868501,
      1.1638302742067157, -0.4947522077342305, 1.0409820407896146,
      -0.1800311805996132, 0.17830743901098597, 0.04522162236821274,
      -0.7123066361701826, -0.3056000555925007, 0.9192459819442386,
      1.028522767895739, -0.07000699926205818, 1.4793342452464717,
      1.5898855267818965, -0.436696691680902, -0.9443850956230759,
      -0.022286637281076216, 0.8000552843744718, -0.6135255800920627,
      1.248207075471063, -0.3271041329168531, -1.624009945960073,
      -1.8861987209643225, -0.6660412141470108, -0.8167971815415371,
      1.2082315390413885, -1.8766045053932041, -0.6424973295800508,
      -0.8680904888481757, -1.3122480177431537, -0.0719818311109133,
      1.2045334667495455, 1.625940404642273, 0.14785459093287326,
      1.4773407659188376, 0.563412372147328, 0.17944045839462938,
      -0.05180052554873047, -0.7387271660061755, 1.1647508330012868,
      -0.21263992876604287, -0.6495813870568032, -0.07081420435494933,
      -0.024179681447649794, -0.8481593555435509, -0.5984922248670586,
      -2.527215549337959, -1.7850051243738667, -0.45791517986213176,
      -0.7567752213305033, 0.7431788810853115, 0.7190239661356357,
      -2.2819473539430137, -0.8086147637937915, 0.015421240468411241,
      -1.2222951845368044, -1.2313640428525432, 0.5619212524859587,
      -0.27916094260893787, 0.06678772863731523, -0.7053951099898019,
      -0.47287295661308704, 0.4015081391172074, 0.7021876542105833,
      -0.6004500019448229, 0.6599150850271286, 0.7362157314343203,
      -0.692911582902947, -1.4967549704162462, -0.9164197957074038,
      1.375549927769955, 1.1971153020694563, 0.7748508092439587,
      -0.3594104630659716, -1.0149562923265791, -1.4198979606905886,
      0.9830570428217985, 0.6558354776487212, -0.5681326608163123,
      1.3226864680170642, 0.172041851077541, 0.9263926476997596,
      0.39472853111885614, 0.28357394548704523, -0.04677499783698041,
      1.9103644047644879, -0.18106552451186583, 1.0555401433230576,
      -0.019098152503441504, 1.0483397079131638, 2.762338808866288,
      0.5076936062664438, 0.19196859178319312, 0.4106774623668705
    ],
    [
      0.5583887958359318, -1.512512599741612, -1.044641595631178,
      0.6727186214856742, 1.8929931493757324, 1.1280259551941245,
      0.7045088806269476, 2.1488441896507275, -0.6037504042343337,
      -0.9081745353090634, -1.0055399709227368, -0.07472487660558001,
      0.21100331689222152, -0.5889318708993345, -1.3605291031676008,
      1.7219906588167273, 0.04550640331463684, 1.4571890138027124,
      -1.4402599959086646, -0.788215657959099, -1.2574945224924332,
      0.03848486610135135, -0.30838635105959095, 0.754311120281104,
      0.2986530814185769, 2.0254815457249187, 0.11709340215152439,
      -1.1172593329665816, -1.1685282766376175, -1.6843652881676243,
      -0.9245687856642417, -0.18629084463581866, -1.3996522531546767,
      -0.656292654752463, 0.2121124418572794, -0.7902856884092383,
      -0.5693658326740981, 0.643959103358714, 0.6706710436621659,
      0.5764880248942881, -0.6262907814765996, 3.383415021702129,
      -0.6530379998651387, -0.14956649199535743, 1.077178985385487,
      -1.7387238868840784, 1.5255393448368446, -0.5355264615238462,
      1.469903378344924, -1.1987143956172484, 0.35608755271847564,
      0.2969636929106162, 0.14137473630282685, 0.6643931591977005,
      -2.0453480131658206, 0.13391135818173025, -0.6933014727684305,
      -3.370237180340571, -0.2523923833287754, 0.5761126932683108,
      0.021817971705419926, -0.00555435939547765, 1.2412634294649174,
      -0.439460842576271, -0.5852100476273018, 0.04600502243676874,
      -0.9536579598504219, 1.4884786309756965, 1.9931739524455678,
      1.1607947375483898, -1.110377434492778, 0.27281150473797894,
      0.5571903139183667, -0.49337158722797303, 0.9375479562814425,
      -1.1488823238772568, 1.8304225921965864, -1.2342705773712663,
      0.8827284452064494, 0.150859599816017, -1.9271160203893374,
      -0.2871320275235382, -0.12927508591094633, 0.765585193813523,
      -1.9307553333274368, -0.3802445785055058, -1.7659583227650282,
      1.5530063990256595, -1.1706205914527086, -0.414320299677087,
      -0.29104146218494975, -1.6932087324446583, 0.9775158604755835,
      1.9822524430241246, -1.6609187530745178, 1.2837670963984764,
      -0.6627831339945948, 0.5701296638174741, -1.737772795619035,
      0.2908146081257783, -1.46667763374676, -1.387306245387612,
      1.5171547073218603, -1.2427425421002884, 0.43055181384839414,
      0.7711507200896227, 2.1292610015646827, -1.8224735602177415,
      0.5317186058027757, -0.5406929561448446, 0.28308150536263377,
      -0.7896074052718912, 0.44173104239832334, 1.5580794185765086,
      0.03502074200754178, 0.32789949115379474, -0.7393017426206099,
      0.6276951706161262, 0.30665854829920014, -0.561188431112761,
      1.0623917876467333, -0.9171004902504707, 0.8011921194996907,
      1.4150980034471377, 1.0192987005196439, -1.247972389841392,
      -1.222420133618139, 1.5393332968233502, 1.1508990077619492,
      0.7895889196000918, 0.44282591805055255, 0.65416879842945,
      -0.6837126163442161, 1.7993819420229031, 0.388066499986717,
      -0.03474250791895566, 0.050900014538980486, 1.0133175627702014,
      -0.3519655535786241, 0.7696123529152611, -0.9957764787143736,
      1.557135320497063, 0.14040282054936445, -2.3652647664386652,
      -0.8717901658416604, -0.4727456831329388, 0.30481633735216157,
      -1.1475522757212413, 0.13650348216534322, -0.9148385448248894,
      -0.7145024836931014, -2.4198354844971948, -1.9494294384319373,
      -0.7030118995032055, 0.41719138245059245, -1.258353284094178,
      0.7455833537328747, 2.237715341825261, 0.05652295007037457,
      -0.8731091274751598, -0.4411883501500358, 0.1298835344889748,
      -1.6625260835428235, -0.32215133305807325, 0.194330833414923,
      0.938320995253272, 0.6219094313591471, 0.2882205521089259,
      -2.1986273338880613, 0.5704335434657202, -0.2511395767590063,
      -0.8024320855855983, -0.2137861618627805, -0.2540525448217034,
      0.2515781023465353, -0.05638683165491379, 0.8839554311147779,
      0.16569459632987238, -1.8242600624897949, 1.1056026079844838,
      0.7622497674675587, -0.5039188207702721, 0.6759800164919089,
      -0.39650670105455743, 2.031492981347159, -1.819605165485902,
      0.46753158595631394, 0.719858533936778, -1.6311738275283678,
      0.9852162684898287, 1.2688301822200954, -1.2827292570778337,
      2.0968444749327353, 0.19806595646154096, -1.11028612540729,
      -0.9509169015089868, -2.0925831620051722, 0.28239950499167277,
      1.7815163029920718, 2.037116520270135, 0.4031044078377468,
      -0.28191050684113866, -0.20948691192632835, -1.1163067123542143,
      1.4361397983343493, -0.196313997557946, -1.5673873921605175,
      -0.047435536656043796, -0.515492226704038, 0.36189610297508,
      0.9671370007988123, -0.720955809748486, 0.9608942180540765,
      -0.06682370763632628, 0.33883418329540965, 0.7521699016597021,
      0.5399986921729198, 1.2474790430578, -0.23236010310844857,
      -0.16690889706146397, 0.07224611257321302, -0.8123922421602527,
      -0.25139961165125435, -0.9428619226575675, -0.6395732709819271,
      -0.5469829900091133, -0.5611555912032593, 0.08422161030055134,
      -0.6021302249042958, -0.11477357257106935, 0.3593270491276929,
      -0.35633330203427654, 1.813861067780512, -0.7956759917824402,
      -0.7789924620541973, 0.00658730911997922, 0.9860320194993296,
      -0.7816424189382073, -0.3725632909076408, 0.6345667862715344,
      1.0945169108356148, 0.21417512235408598, -1.3995423125184372,
      0.31492581867746733, 0.6040805150391007, 2.595481024292896,
      0.23509132663349033, 0.06921251854706063, -1.5730692697432906,
      0.8137845141651555, -0.939205557918279, 0.20472938611088776,
      0.20895647399189887, 0.2770292895616536, -0.11368181066962868,
      1.796198864902491, 0.734918245593259, -0.20102233502994482,
      -0.1893437882585542, -1.228206630558898, -0.9556835999823639,
      2.257708216610553, 1.0796245411506524, 1.553959761599299,
      1.8020415624593416, -0.8884106456384293, -0.05606193232834771,
      -0.8568768729851823, -0.5686981235080546, 0.4260574743633404,
      0.8961080980231024, -0.30598164412870554, -0.2696616848276602,
      -1.1541230600828158, -1.1606724348787347, -0.28856204518708745,
      1.082089356811839, -1.225905441529793, -0.29347100451589636,
      0.6291268686361212, -0.25506248662095127, 1.6069410512294109,
      -0.5905124394738469, 0.7257528550561394, 1.0662250359690106,
      -1.2690540257623604, 0.12658068196633243, -1.0256594442570393,
      1.0526286238768934, 0.5232282242630776, 0.13548584852937368,
      -1.4747639274100892, 1.3594721963608172, -1.9272295255424947,
      -0.31467419010232517, -0.03750339066632913, 0.4220413965521718,
      -0.5222584225078252, -0.7742283093137996, -2.1413418237889696
    ],
    [
      -0.6842643976584866, -0.32736907669429527, 1.055465801317448,
      0.6731831370788235, 1.4501291780640855, -1.142709728492148,
      -0.8161103315130942, 0.222238362617163, 1.1081609064011844,
      1.5447201557775276, -0.673110621956444, -1.2325863086223876,
      -0.3967578775793919, 0.7300021689027665, -1.7362066967344074,
      -0.7021929933828861, -0.3035089399952056, 0.9730660251147609,
      0.31032877070711207, 1.4083930462474776, -0.6199087596045275,
      -0.89584183147846, 0.2130501685659268, -0.06956921546599366,
      -0.7079823039215281, -1.8968972331099268, -0.4494747347419144,
      -1.919667088582897, -0.9400362239310053, 0.04998059805129833,
      -1.0423960506855818, 0.12640759749020797, 2.270147012150977,
      0.1508554269180605, -0.7898842357867408, 0.6953581642771718,
      -0.3953224909483128, 1.4351738132291751, -0.44293713361058706,
      -1.206803254976493, 0.053372583069244306, -0.17604580776171763,
      -0.4471312749411438, 1.6663436638673117, 1.552649443213922,
      0.2937231970481944, -0.0986449613547327, 0.592074550761305,
      1.4006863712779676, -0.08189896887541478, -1.059954638413349,
      0.31112906606837076, 1.2231000435807267, 0.9842596118289746,
      -0.3804754378920498, 1.3885882895494084, -1.3541350792434261,
      0.07112838467394668, -0.5010331434436277, 2.0295068839610604,
      0.06887738237456403, -1.4367003314072928, 2.1542259368020895,
      -0.15334628055002267, -0.7792681575480832, 1.4344016746303323,
      -0.03193577466748506, -0.5080999475504587, 1.195045010447702,
      -0.14835828551265037, 1.2579934558297539, 0.828249864552447,
      0.5509332882037171, -1.7626487314032258, -0.42803386005751465,
      -1.3191782761185922, -1.1133719559969184, 1.8317884738140142,
      -0.2040412167768483, 0.38271039848436517, 0.7606362926449542,
      -0.3950724908954984, -0.6793871503524288, 0.04474047107928983,
      -0.5183458238327637, 0.22691075548028264, -0.7033613701297383,
      -0.7484873231374217, -1.982528433495192, 0.2558895908944458,
      -0.46416718717662714, -0.288466228845328, 0.7807261917384389,
      0.23473471012190442, 0.4975162719855645, 0.2983391748402805,
      -0.7413967086788036, -1.3690673362672112, 0.7762642291743466,
      -1.350332340456445, -0.621303971638879, 2.5370734626427445,
      0.5748231389443862, -0.3978993636121881, -2.1342789159175286,
      -1.1198163993888466, -0.4847938646014595, 0.3924448066880853,
      -0.18299295683301423, -0.34520746035042094, 0.2913393715969669,
      0.8467905670678996, 0.6709835809012493, 0.10342668340558019,
      0.593886567092142, -0.2851665631231347, -0.07531387228897062,
      1.025065034822779, 1.499874629944646, -0.17251986735784827,
      0.45286783774004424, -0.5928249266078076, 1.778461500609192,
      0.002568364207773974, -0.5004816933520614, -0.4972170658096985,
      -1.6939606908353806, 1.1976171486992453, 0.1054996838323,
      -0.04184977965763209, 0.6860936226622956, 0.005122792812479587,
      -0.9125293228418327, 1.2341559361821786, 0.4972291761535106,
      0.05368994328314555, 1.5043841563437463, -2.03771011843819,
      1.6862921409990177, -0.2512369872586976, 0.2728978005892877,
      0.22667359039337, -2.003177289535018, 0.09270488395244407,
      2.0770368622568043, 0.6056638917539761, 0.9495656962923217,
      -0.1255523221493367, 0.0880537993386143, 0.6031645700274262,
      0.4547914762666361, -0.8848556254371295, 1.2335038174957957,
      -0.6596937442921226, 0.7425636230616333, 1.1612021620060633,
      0.10787072003230373, -1.7014750360598723, 2.4965807326765104,
      -0.22160837734759922, -1.4661876165678502, -2.4336000527237243,
      2.5150190321213093, 0.023346047197345926, -0.08688828305503785,
      -0.8599704762709112, -0.44716590305588005, -0.4360714695853828,
      0.9427786001980548, 0.4674929637064714, -0.8781153816646211,
      0.3180328349067834, -0.3385203921801143, 0.5102739307950125,
      1.1127052049343111, 0.02004687503925666, 1.3947597440839756,
      -0.19511884367212567, 0.671590350210843, 0.45943155752217374,
      -0.9024471056273189, -0.29110137356472, 0.333346985816473,
      0.04362672474555851, -0.3194221023734397, -0.17760313995185942,
      -2.930115101721129, -1.0431479072094967, 0.6235418132121523,
      -0.6908037935771072, -0.23341617255904615, -0.4737441129874196,
      0.3469579214445238, 1.6482005916613824, 0.18220237616806226,
      -0.13956118679801804, -2.51563245331526, 1.0108979621388128,
      0.6690986813004072, 1.2057703336418875, -1.36865793523426,
      -0.4582728413735719, -2.1281568693074275, -0.6982558488112018,
      -0.7480585246702527, 1.7445005703236567, -0.7147406290321309,
      -0.9894542350755989, 1.7086693228959755, 0.6486063845183602,
      -0.2136148420880289, -0.1532581952542793, 0.8955696846402051,
      1.764306527146666, 0.5028097364041518, 0.26961031768774935,
      -0.5247181452163134, 0.9511291720264543, -1.1645863930124638,
      -1.872894293146647, 0.9693367827083774, 0.30671299342760205,
      0.2142023263099326, -0.5605449319789128, 0.37617109880368005,
      -1.1021774206295614, 1.867549513716368, -1.2721347950084692,
      -1.081585416485209, 1.1148135605053389, -0.9750637769664782,
      -0.7189641411778066, 0.8811445354469323, 0.4675416674173911,
      -0.45670005585668694, -1.448964245000338, 1.4650852497690436,
      -0.31003404858051153, 1.4272044069349739, -0.793156953317664,
      0.3552670013631867, 1.6345227870103407, -0.6469500244302057,
      0.5645667766604908, 1.4014443538580084, 1.3813587039302924,
      0.43476549752375265, 0.4909625620258489, 0.028987347812701774,
      -0.05860455036628527, 3.115788498234288, -1.391048227895073,
      -0.5464079967298273, 0.858465381915921, -0.26486428204596213,
      0.7570137955986432, -0.146741283785697, 1.0868390687816707,
      -0.5507277777351716, 0.38861909722242916, -0.5908500572508644,
      1.071548854282111, 1.4944714817845153, 0.170432427623957,
      -1.002866439367886, 0.15020576593262255, 0.6828206658037532,
      -0.0071591751780975404, -0.02924987675562855, 0.22528326738197138,
      0.14039309723883425, 0.6838161784354817, -0.6618803984433849,
      -0.930222802518212, -0.418842597247236, -0.05948451486235783,
      -0.9698544751048668, 1.3915693534280373, -0.9402393340531466,
      -0.9526843948203971, -0.12815175411615262, 1.0661827612081158,
      0.03014873021674489, 1.2036594066223565, 0.15498982051010277,
      -0.4746066226776742, -2.210091948170062, 0.5810961659693676,
      -2.5961460059526345, -0.6407053392458759, -0.7048031562494432,
      0.5994713998510377, 1.0921411306341566, -1.5667187807203726,
      -2.822186362463743, 1.0134204768297168, 0.3345698156115252,
      -1.1626001739738132, -1.1429600962241846, 0.8075235032091957
    ],
    [
      0.0473251652992984, -1.545872069029152, -0.7792295252844245,
      0.20705542309012442, -1.3844256838268922, 0.8974473495947677,
      -1.8520167431005456, -1.6731579625599975, 0.05304704011801534,
      0.44170527365565754, -0.791770051798907, -0.5230503181201571,
      0.3911976275317547, 0.7355848375034835, -1.4462885996543873,
      -0.7220987840600651, 1.218977232663329, -1.0422453257182664,
      -2.3149263714673207, 0.31022227591683066, -0.6225202348344178,
      -3.115255677931901, -0.07883707166746765, 0.6090621628895949,
      -0.7488901489150434, 0.3490467430038914, 1.882878813641207,
      -1.9106887836206947, 0.08452519154066569, -0.6016977279824592,
      0.64675926897524, -0.08830756009879985, -1.1121197444825517,
      0.9497473127708557, -1.398410478678519, 0.6401130302611828,
      0.03441974218965027, -1.359556523397765, 1.0381284758120797,
      -0.10262625260172105, 0.06923366015807651, 1.8390313772645903,
      -0.9536890730779851, -1.8446135499795842, -0.34266092112963825,
      -0.6530863221841668, 0.13043350191531575, 0.40911445356184273,
      -0.43151883131460606, -1.1495105212834407, -0.951453523966559,
      0.7334611426119712, 0.33990313309564674, -0.33455355074995585,
      0.2372168164811482, 0.07411160982920013, -0.2145149336997688,
      -0.9770382388624091, -0.8860749834722025, 1.2004112245153438,
      1.7613975840688083, 1.2931618545712777, 0.9664496618582177,
      -1.4624902118021412, 0.6904777565598448, 0.24733009063356634,
      1.0374080091852595, 1.0066624948569414, -1.6925137308532574,
      0.31702852459242575, 0.3391803272794381, -0.0870932355294348,
      0.24991977892269016, 2.9509700248248634, 1.5828591759646178,
      -0.5459911187111324, 2.2386624592775948, 0.4334443210241837,
      1.5215940946822446, -0.019430894758617867, -2.285340454831,
      -0.5206716700564273, -1.2531740834290914, -0.35369101354871346,
      -0.4557383901910966, 0.10176480158044103, 1.000278661055999,
      -0.021498070986933127, 2.1250300675376126, 0.1514936771766606,
      1.5500035389928704, 2.5205917778878884, -0.3181015847807943,
      0.27780463693542967, -1.065877239856985, 1.5754659982338435,
      0.2525126959581032, 0.1567579339391789, -0.17326237518016174,
      0.4431793667469691, 0.40546737028759805, -0.3788931383012815,
      0.7640115002686513, 0.7912151268596193, -0.023848754961650405,
      -1.9579794167834952, 0.9446360145213356, -1.882746601752151,
      -0.34089614848055905, 0.182243428700451, 0.8093564374581625,
      -0.13007951646107085, 0.42160128503195193, -0.3947417214345774,
      0.9715243465464596, 0.7642016376768805, -0.008868948580053772,
      0.4958610087665063, 0.5270440887839292, -0.1142853519670386,
      1.4181269005267598, -0.9403323561546896, 0.344733754810993,
      -0.3353702995452055, 0.21834403188511237, 1.1541784246700317,
      -0.20642070040389407, 1.753257740660343, 1.3651957605857798,
      -0.16553214797853322, 1.8666559427084193, 0.6765693890694097,
      -1.5968813482095943, -0.3717787507961449, -0.18842089356932293,
      0.6184169970853145, 0.16896068466689076, -1.0770341161926316,
      -0.2116810491028102, 0.1115742747925654, -0.27153073049345217,
      -0.41606340831887473, -0.45110692679691783, 2.2816519125351316,
      0.21884150612589767, -1.118469620225155, 0.9312584115634476,
      -0.682751212977331, -0.8442790702707617, 1.3546440859439282,
      -1.5481756700993268, -1.4646158606865511, -0.2866258621721314,
      -0.31730656786660255, 0.775002427971501, 2.034614546098339,
      0.25022626516351193, -0.7286847207114259, -0.1698439430693532,
      0.9137708619592831, -0.38402705578611357, -0.9721104754080557,
      -1.5530207771648405, 0.6481233008948857, 0.8618058605712802,
      -1.6776367967914698, -0.4281020408314499, 0.8702562841165351,
      -1.2725965941610968, 0.04817633263811048, -0.41855889735813817,
      0.33514418612298835, -1.8860593011009146, -0.3969742587013014,
      -0.4723479334130092, 0.4847181133219969, 0.5151020404131261,
      -0.19607206822565693, 0.4980070124653664, 1.217184863893462,
      -1.3476129901799996, -0.2817704396720942, 1.7823026866642346,
      -0.15407503377632017, -1.2468697464782978, -1.9528787857992573,
      0.27188290170787355, -0.776934080081517, 0.2804726869274571,
      0.6577033706018168, 0.29035566297329285, -0.7252484773071697,
      -0.3778493130249443, 0.4364947771975885, 0.16584368594555673,
      0.9886059998924644, 1.1351819346207959, -1.5447786377547479,
      0.3117998061189218, 0.6486469741782462, 0.573087554808068,
      1.2502839304521178, 2.414440178480133, 0.6358848438798276,
      0.6084940437387533, 0.4049874507855531, 1.11341769782138,
      -0.13610843244811574, 0.7535274827207301, 0.01650373101132524,
      -1.003471517523098, 0.8217295588714655, 0.4263477344623093,
      1.220874369160895, 1.0934587248005312, 0.5060012054896307,
      0.6950048172847572, 1.3725333169482532, 1.7182649996339678,
      -1.1954625643784138, 0.2151198192543267, -1.7606365003765896,
      0.10703049839160486, 0.6041147325701897, -0.14662300877203277,
      -0.08298548634220748, -0.5889282454560472, 0.8764625680770071,
      0.48595188193616384, 0.8960213986852065, -1.1731559028187721,
      0.017468490624502883, 0.850112669437194, -0.8505897259388738,
      1.3970793314189545, 0.4551665529631519, 1.7507237830562339,
      0.10240322487602924, -0.3714948170418773, 0.1361433706717049,
      3.163390510339583, 0.6916381048442015, 0.26011318473887424,
      1.6258540370561534, 1.7681606585517742, 1.3078050150134186,
      -0.04969934864674102, -0.16364857396502935, -0.006234511777127056,
      0.812300522675981, 0.8535359526734901, 0.669209781444394,
      -1.7848378562712868, 0.9183580056313659, 0.91920807238156,
      -0.14868245311994086, -1.2347000873991951, 0.009026758674822584,
      0.25202627336112265, 0.31393750893734007, 1.070922005880251,
      0.05861109271255047, 0.3535199975611335, -0.9323629960250757,
      0.3198896804081965, 0.6785941076454767, -0.10178243573571218,
      1.9203584949839174, -0.43493716891911727, 0.8114085635656495,
      -0.09477568165799204, -0.09245853813378117, 0.35664920978411596,
      0.37867549780202664, -0.6104701417504064, -1.0895738563102324,
      0.3964387421732291, 0.08150317898301389, 1.8676545768577038,
      -0.38906788785569796, -0.12862947329810392, 0.31660072594976385,
      -1.0013095230437599, 0.8812351143586088, -1.3207719216717397,
      -0.7490563062148946, -0.9542528233110673, -1.4638383348632025,
      0.6230627582768798, -1.022832309939911, -0.5207260699625603,
      -0.32012322377182223, 1.1850428090179006, 1.818648415345248,
      0.6071062463185195, 0.6496669252405984, -0.9854792857105693,
      -0.8388890944324594, 0.2284484826310969, 0.33011916407247305
    ],
    [
      -0.21472530353739983, 0.4102345396226469, 0.9202970042459635,
      0.9603400411756347, -0.06351984118741309, 0.18055726340870484,
      0.12738230181741647, -0.1881643517980522, -0.19518669532588923,
      1.1087249899452194, 1.6045323838363459, 0.5411345908447319,
      2.4172076982181765, -0.606464353780544, -0.9790740157225732,
      0.9311248252109006, 0.3256989989862968, -1.2725197360326612,
      0.7363354882280749, 1.236417327179452, 0.7006909627868303,
      0.03304876728505047, 0.8836734595074949, 1.098578444842687,
      0.5545477019619958, 1.390083336440381, 2.046410744891749,
      0.14104448481303924, -1.5585316492883199, 0.4921235899740614,
      -1.2977231455195393, -0.25082968923594773, -0.1912825059952002,
      -0.3153019153680112, 0.3072930149511269, -1.8487895703431783,
      -0.2193173583885666, -0.47969153042854945, -1.0917167112374802,
      -0.5938980757716618, 0.7040885886594176, 1.2454726963407368,
      0.7240199507648992, -1.5982816967534248, 0.5512423775194583,
      0.5758719772321694, -0.12298207977117218, 0.8142011874114002,
      0.9442703101714378, -0.22324864753109733, -0.2647982373033371,
      -0.5185535168482583, -1.231673831116155, -0.2298420367873266,
      -0.43059692520595094, -1.3217588674554384, 0.8216337228250925,
      -1.4895043924387898, -0.08513849490726383, -0.041335288111335494,
      0.9723777070151967, 1.8704977300317929, 1.1368544206147637,
      -0.13701879258524066, 0.5486722318084378, -0.09888773233488597,
      0.5064486573153926, 1.5619331099671552, 0.1342362207046182,
      -0.33870245040880875, -1.148610853422179, -0.3224365000717198,
      1.1524958879723295, -0.5742651803076545, 1.8333128105841034,
      -1.568487974111959, 1.7235141656398518, 1.0406597204114807,
      0.10354444971888943, 1.3997458531075704, 1.3762488804845474,
      3.3572500909968896, 0.7689321421891806, -0.20093243016198634,
      -0.5966239248384614, -0.4574966371412733, 0.3043835375543945,
      0.2627075293669195, 0.04811031511116097, 2.1434926252102544,
      1.2581076250949523, -1.0086459745713043, -1.6303650956655202,
      1.20470703168809, 0.0312903898696981, 1.8440340280448215,
      0.5323115065828109, -1.0991029621472166, -0.787422492597099,
      -0.025308623796151373, -1.0292015682180256, -0.4670320103570228,
      1.013868052927321, -0.05182419907442901, -2.377137356524418,
      0.5375741495080297, 0.07030771751926285, 0.7366058362969745,
      -0.17118072683361285, -0.4372158938572021, 0.3238646339340553,
      0.33550600986986556, -0.2938908428165004, 0.3787727010804902,
      0.31091581060379636, -0.3524032138597633, -1.536099843877139,
      0.4278323067063977, 0.5079382999119709, 1.171514230033889,
      -0.1969549639868037, 0.03180966437055527, 2.00791351553575,
      0.00865939081488804, 0.3532549152535827, 0.05294203777608384,
      -1.2884341268143202, -0.5325807342634284, 0.10583737527102445,
      0.32775005775461763, -1.8885459046231499, 1.4935335953693363,
      -1.6904310246756538, 1.0599281550113322, -0.2116449076117214,
      -0.5286262809365476, -0.5056818255214262, -0.8355891424185157,
      0.2033120975541042, 0.4959596673352697, -0.854772412662042,
      0.22350157129380874, 0.38451222145062125, -1.8969898916875694,
      0.36533820023471253, -1.1751092570235402, -0.5606386672776098,
      -1.1859697991936808, 0.4784234176683398, 0.7195967103623422,
      0.8469727276063596, -1.2035359478463588, -0.12271671673507616,
      2.235761307589169, 0.43299689404354547, 1.1049928214644673,
      -1.0317776944612462, 0.16444148291544072, -0.07253152705463331,
      0.8208871225185657, 0.27819932731353136, 0.925583024185308,
      -1.6276958447483731, -1.0204275783125234, -0.13944314332464458,
      0.18469971175921676, -1.9629382902998211, -0.6253037086395836,
      -0.07965017473978779, 0.8278465571845811, 0.7242121638772723,
      -1.57113876150889, 0.14096333656442242, 0.4355855177892862,
      0.1716389581006054, -1.6021601166062924, -0.41531097234225856,
      1.3665450310267364, 1.0324537319373066, -1.0309456088836528,
      -0.6488582423852722, -1.7287625097852108, -1.0182929207496223,
      0.7878913566440928, 0.9628282536941944, -0.8583481230001098,
      0.18955544037916378, -0.8772715996277243, -0.2903957756008302,
      -0.7658981034983302, -0.47717972419279686, -0.49938639832925646,
      -0.6476050519045335, 0.6774164238377209, 0.5716638802251798,
      -0.837606064491451, -2.0328000192484352, 0.02162305434640871,
      1.9937898836362196, -0.5897028359288313, -0.6805281910928772,
      -0.9554303480273757, -1.9244739562798943, 1.1160472238382433,
      -0.3566598914143194, 0.4525452469023416, 0.7104015168620479,
      -1.1379956083743161, 0.325245275023518, -0.5304478354523585,
      -0.2603269286610855, 0.5248658875671312, -1.640305078499875,
      1.8056558414041168, 1.2662408712587163, 0.8710958178104903,
      0.9351800876215335, 1.5092291837017957, -0.21935894707368797,
      -0.820190346701661, 0.7485042874628616, 1.2068555866945256,
      0.6516864030923754, -0.521258952928522, 0.7332285658523556,
      0.21532148667111595, 0.4019937473075698, 1.3972441612824777,
      -0.1861539755710233, 0.2523978166208663, -0.21574404336136477,
      2.4451929759367292, -0.6701080785810379, 0.9741353196174916,
      -0.6242889121543196, 1.2154809304244925, 0.718020539584542,
      -0.7724527486883378, -0.11295074323356291, -1.9063068158111323,
      -0.559043434271445, 1.6491540308399961, 0.8240418749685734,
      0.7967019919217067, -0.8511090631213984, 0.38355909773324653,
      0.11811928419924207, -0.45438776597479874, -1.5174543699842382,
      -0.8070820169540299, 0.3914193979348467, -1.3612991300034718,
      0.29233684135661736, -0.49588755047814237, 0.21145048703181324,
      0.02075512018687001, -0.43853734391831856, 0.625535698269418,
      -0.4817680151626633, 0.2668503162594159, -0.07763955671681354,
      -1.2884332234380675, -0.40455014023318614, 1.2447103205269805,
      0.5036165828766779, 1.2654780799985619, -2.172828767727068,
      0.43255074886003114, 3.220737908830159, 0.5816335741599117,
      1.1064574672641554, -0.3384233575164629, 1.8767222576055334,
      0.15225941842778487, 0.6679442974805266, -0.2654149767102741,
      0.14166043517019677, -1.1512500480088919, -2.185641073131116,
      0.3787235812065326, 0.1814129036826829, -0.40343350171081543,
      1.323811646911751, -1.3493670612748574, 0.26284994806924594,
      -0.7374299873487573, -0.19897599982466085, -0.5619846079503952,
      0.601277947566028, -0.012902967486400563, 0.23598470924829215,
      -1.9884661670821957, 1.1488586786823773, -0.2838393925920044,
      -0.965849385710017, -0.4719640721360776, -0.03164237508519085,
      1.3215566443752844, -0.7398664336845129, -1.1786382000239328
    ],
    [
      -0.6341418420884766, 1.0871632412985677, -0.4130067911630132,
      -0.029739656623133593, 0.587436972398119, 0.8149600427176563,
      0.5694127914963859, 0.2971700488192484, -0.5999116700253861,
      -0.33233295332988005, -0.016798890139741545, 0.40934527368883517,
      -0.47521412518980655, -1.111637639286466, -0.029470539054342566,
      1.7127834980255232, 0.22666157643815826, 0.3634158230020319,
      0.14491448924113617, -0.43855054115519665, 0.8989101066005603,
      -0.2491036393903024, -0.08284528741808578, 0.5537220948329866,
      -1.2240711175292256, -0.57998227083562, -0.05051588060833196,
      -0.38081486676782184, -0.4171235012064324, 1.7854213551207796,
      -0.10343741892363005, -1.2652803344759824, -0.677733138539976,
      0.3399392607822013, -1.5316116005182276, -0.2907455362971576,
      -1.1748863140497499, -0.41033445352952114, -0.8476732545287305,
      -0.2505059402145947, -2.006887407306693, 0.03690229659366692,
      -0.6839574073344562, -0.802048978779734, 0.15453657630461612,
      0.674360266338022, -0.9988190574222647, 2.2710532030716934,
      -0.21517036273754395, -0.5531636373969191, -0.045778754658552266,
      0.6898078544152086, 0.05514335855945722, -0.27773561701420096,
      1.583600021616694, 2.025750681921481, 1.692986248606894,
      -1.21886717754066, 1.6995000685261994, 0.9732809036067747,
      -1.2495549394586125, -0.19557309548829405, 0.3485469805477722,
      -1.6553544336276633, 0.39979793872182845, 0.6607069984588664,
      2.0773079134947885, 0.6209908477091468, 0.3341671752313754,
      0.09004107203914308, 0.3308007441648765, 0.5503200210207794,
      -1.2618934191622702, -0.236594357189132, -0.8040333816449116,
      -1.4417863746216562, 0.3464322169439303, 1.0014981611248561,
      0.7099656525997367, -0.6069121100956308, -0.1165299449498167,
      1.7253407494567403, -1.4067691255754369, -0.8349454098063591,
      0.7156796769529322, -1.09667806214593, 0.4247937206280807,
      0.287649704571027, 0.01837469692356826, 0.0552720948320317,
      2.0617979457269033, -0.43038186695588243, -2.1747349871890234,
      1.242351175113814, -1.2136602537236374, -0.8837306395702701,
      -0.08336552670336646, -0.5347423488546765, 0.05303743482598041,
      -0.08415336868348482, 0.48738166082129264, -0.03592716281992646,
      0.31989267397694815, 2.6348806617713656, 0.18024577903894465,
      -0.46619759349100554, 0.6975057370014848, -0.677035595134386,
      1.2608158809293346, -0.8611564042844593, 1.4226715490464374,
      0.5654187086214535, 0.9489186817199627, -1.506022841999757,
      1.4550793651498966, -0.5408025081298559, 0.5051723725093078,
      2.019817775009513, 0.14070890266433925, -1.4572072029470995,
      0.37655422098326935, 1.1919519510472385, -0.5010445314639616,
      1.4352586978290491, -0.04654092448227487, -1.2107549945856426,
      0.5582024759372474, -1.5421696394600442, 1.4512980464198446,
      0.08004759683297041, -0.4741827738306876, -1.0265125660148955,
      0.6260776240165806, 1.7436122508635035, -1.7510689790037883,
      -0.8025427191754293, -0.4511250113883642, 0.7504668970507463,
      -0.15919033533257626, 0.842886479941439, -0.9221355610224192,
      -0.8511903973994895, -0.7728427779637003, 0.22147154740049288,
      0.19488662394666634, 0.01665275712079551, 1.0448453653762582,
      -1.0377120156640154, -0.020630678113124377, 1.3617507115739855,
      0.020396098950141883, -2.1987451631853334, 1.230435076020963,
      0.9724728550808609, 2.2015098452904867, 0.5198161975783313,
      2.5752149236686632, -0.5477543280351771, 0.6538269754742676,
      -0.2631379824887338, -0.29498946616313343, -0.26988750694208014,
      0.8289531832672875, 0.44848425941560965, -2.56313289897278,
      1.729210461802252, 0.581397708996301, 1.6458986396861808,
      -0.1535364575964608, -1.0718691618322929, -0.36241427441871915,
      0.4167298117328491, -0.9836684183890677, -0.6608651647243543,
      -0.36087011598140734, -1.1337572522962394, -1.0003227846751914,
      -1.0888355031040318, -1.0062382945375306, -0.9792433780630562,
      0.39568549909394685, -0.5745569784146566, -0.3543553389294383,
      -0.4734570310004365, 1.5619931122246462, 0.6187485427125013,
      -0.22192227577586648, 0.7921844908094531, 1.1406026704053402,
      -1.169472098920721, -1.1083277629888328, -0.5097055579028326,
      1.23366994404119, 0.3894728123896337, -1.0018920493799708,
      -0.10637206913475848, -1.2345122975082905, 0.6632981775564021,
      0.23964536843424436, 0.6375274861457612, 0.9628912081680385,
      1.0517789384749123, -0.32744344908229717, 1.7775044746878954,
      -0.4805233001480553, 1.6877456288108408, -0.6151544725739743,
      0.10538420502550364, -0.05175507844714237, 0.5324474357732979,
      2.029262399861463, 0.9971856902749893, 0.8363260943026591,
      -0.5926606399058489, 1.8260002398351995, 0.7382021525047072,
      1.30326730574746, 0.8829684253913441, -0.08544124158685157,
      0.40645570459272845, -0.03667883590551008, 0.9068640235253609,
      -0.7833136114465383, 1.0401777971762116, -1.1953562466806413,
      -1.8247795409184349, -0.7215971909028049, -0.6798779884759518,
      -1.611670520765069, 0.3506887997274734, -0.21171631811500752,
      1.6446831824472097, 0.9483405259210542, -0.7160477708655518,
      0.4433669517701693, 1.9820326233542074, -0.6062520300520946,
      -0.3145184367785943, -0.8713859249861569, -0.5815595649395014,
      -0.4744752683854658, 0.6907312070661612, 0.45113967115566445,
      -0.5205625990304696, 0.661807540456969, -0.8608289533066379,
      -0.9687247917985231, -1.9656092406836703, 0.6645529654039881,
      0.7769603296181695, 1.5047082774787506, -0.33287776183820805,
      0.5084615355851091, -0.48967111338375297, -0.27830454304297975,
      1.1598921818748424, 0.5721706912793616, 0.2984454887601546,
      -1.017391059968169, 1.1307364752152909, 0.7764682454738475,
      2.765310607791568, -1.1020385205676662, 1.24620898149155,
      -0.05730286563819221, -1.3963986178972547, 0.9127838393147096,
      -0.8398456377489014, -1.688583856892689, -1.0392610867960579,
      -0.647838838447293, 0.49846034994006244, -0.44137077733275515,
      1.1202796851871577, 0.3911319442457027, -0.4690930685792544,
      -0.8079342599713026, -0.5558026693887129, 0.22820354305271,
      -0.8925862291194064, -0.43258552956874213, -2.070139510073227,
      1.0447734425193547, 1.1318074039613626, -0.6641402112146562,
      0.3642523204849423, 0.5383671630258502, -1.9048054147366504,
      -0.10663401946979638, 0.12746387000541867, 1.8314775030369155,
      0.4786513222920562, 0.07513640272944809, -1.1392387133258235,
      -0.8330035174194657, -1.857790150909627, 2.047762186544421,
      -1.453559975991616, 1.0529705386303723, 0.40186843280343415
    ],
    [
      0.3361392583068358, 0.6822339979797553, -0.8126025354397061,
      0.673427176012718, -0.2065772750160469, 2.626282788283216,
      0.7945478057647326, -1.3102896264926478, -1.2582745165537355,
      -0.4604421363458527, 0.9256195037542082, -0.41020693867458424,
      0.18337870852992152, 0.321016344309518, -0.9173090409680424,
      0.08187853454906482, 0.19591709885850098, -1.2222348831822432,
      -0.48856104510352544, 0.02605766590653558, 0.2725069388046342,
      0.7311968158411689, 0.21674763543359132, -0.647339917512233,
      0.792989093209476, -1.1110445814149013, 0.026882252317318663,
      -0.835328480305472, -0.805122119398096, 0.8009150659464761,
      1.1558051109167595, 1.2034627841013694, 1.5536470338983868,
      0.9941771380283784, -0.9213144458606133, -0.3128032417814778,
      1.7335425414791321, 0.3122909833556152, -0.47528903739898487,
      -0.4104735890526648, 0.12445908334628498, 0.8972373255079296,
      0.27719773939854336, 1.2880726381610261, 0.15625964066625436,
      0.23064221526435738, 0.2549803721073487, 0.17735469210730193,
      0.1530596602064954, 0.7674695401950167, -0.38812163750675477,
      0.6224610491696534, -0.4145775300466611, 1.3803002079659794,
      1.3595646178951308, -1.0342885446440686, 1.3861746074196009,
      -1.1882181787973067, -0.5785652800949037, -0.6561959367398434,
      0.9397216109096062, 2.4894603037940506, -1.24360202835943,
      -0.07059959556450089, 0.5185841459487444, 1.147989265511823,
      -0.4790703000154106, 1.6821172266714381, -0.3069452362802595,
      -0.5980563961955253, -1.4660642077454802, -0.8023289492306866,
      0.030571274379473132, -1.2915556281919147, 1.5244447151341558,
      -1.3889484891402974, -0.830498204858126, -1.4918315484531097,
      -1.1794244817593886, -1.327826792412095, 1.4674398126896282,
      0.022063755182054078, -0.043191403810963126, -1.36268167629833,
      0.8982320799644727, -0.8417769599751768, -0.09653970601367495,
      -0.3266538462139395, -1.5890399807825986, 0.20488637716655422,
      1.9730123660373435, -0.720137256885522, 0.12962239853775903,
      0.16668790966515523, -0.9518981866238759, -0.4204630292957775,
      0.2836089392337246, 1.8352923524395597, 0.6492351805961851,
      -0.11827226679333715, -0.03681172454776755, 0.9945939454920537,
      1.214985262565474, -0.242005854815909, -0.1915655999522179,
      0.3812022234606924, 1.7435822661228761, -0.36991086622241603,
      -1.7161038027603086, -1.1717374060845125, -1.042373941653219,
      0.6059991505922215, 0.8310814139756334, 1.736863655773614,
      -0.9236144158417205, -1.2804797256022356, 0.018767906200700235,
      -0.04019359008369232, -0.4245345759017391, -0.13350126572768278,
      -0.4747785146931205, -1.7251942447375068, 0.3328226896726136,
      1.5608459504535195, 1.7028942096825634, -0.9745547269143191,
      -0.3241344461339319, -1.7011185107509168, -2.197936718699392,
      1.3429371519255318, -0.46261898339012236, -0.049702494292731006,
      -0.31077185426125, -0.33185503689869345, -1.5198499086243624,
      0.1841363456357103, -0.17983037116633546, 0.04517372256734973,
      -0.6086692934056214, -0.370554693243589, 0.9845418113474265,
      0.004956396556113152, 2.293806975023227, 0.10341350625509947,
      2.174759586880358, 1.3147720173700148, 0.1469211621313292,
      -0.9745548995532662, 0.3202252461009978, 1.0558736078457545,
      -0.3334913683007619, 0.8575119872659253, -1.0039616054030858,
      1.75232985240564, -2.128784472892601, -0.34721633626573095,
      -0.7343764502248696, -1.434970966839936, 1.502609686561534,
      -0.9157799096107849, 0.7519809992799227, 0.12016557823995751,
      -0.06805737103833435, -0.6050524392901391, -1.229712846876762,
      0.03244137251621214, -0.0729338222166589, 0.5240522965567144,
      0.8250143314391036, -2.053891945435704, 0.502119689902945,
      -2.246541753077223, 0.17831560702996466, -0.7532103088410712,
      0.8678392577980449, -0.22008831806891244, -0.910965333193821,
      0.49941568157324234, -0.7388365166759746, 0.4716645039744106,
      1.8419175565024097, 0.27449125841643834, -1.00170097780506,
      -0.9098100675788268, 1.4236894224161383, -0.7418520683112977,
      0.7931515742381138, 1.2392812258336707, -1.1968285134951635,
      -0.67862498337569, -0.6703602133292711, -0.5711760851859836,
      0.09316132730668629, 0.5430662088721201, -0.27389861695345524,
      0.4804890379263168, 1.7636336743320795, 2.401542927511602,
      0.49278736703435194, 0.1627119341206265, -0.05271248745966981,
      0.45128133894547423, -1.0397288643425617, 0.024804853522236794,
      -1.403049447703941, -0.4905399772604491, 0.3707129937240697,
      0.39633323009422644, -0.08720212555723707, -0.5163650015824647,
      0.5850060685204198, -2.4278653467279523, -0.09047033636772395,
      0.6072857724796631, 0.49882239952642204, 0.8374594436002203,
      0.3352671416145187, 1.7025397756535772, -3.6129502006800034,
      -0.40804733886705635, -2.2032712184305505, -0.18547712935067337,
      1.7641527798538978, -0.8550560952464644, 0.763750783623121,
      1.7808280234431149, 0.8599165707271754, 0.9792558072656986,
      0.42118431163605613, 1.6287976560733657, 0.3602080781962107,
      2.210273344889838, 0.713145534360177, -0.38060350368514023,
      -0.7735534009153272, -0.3358793325918405, 0.617970965471735,
      0.8372173085303976, -0.7787719139502889, -0.5671310860948227,
      -0.1749378201031357, -1.503118594614853, 0.49275879375387555,
      -0.82792717215436, -0.798456259387938, -1.107154556764304,
      1.6215997550931238, 0.8919949002334031, -0.6358461574020884,
      1.3655202604898244, 0.4323209330938906, -0.008882856791243347,
      -1.3425601344324163, 2.183870049121315, 0.7278671298016491,
      1.8137127690594856, 1.0793680278758138, 0.82972480105532,
      -0.054474136458418886, 0.370536753767127, 1.825745659160522,
      0.366765555186556, -0.7400111221560238, -1.3031053581783516,
      -0.8168468061480268, 0.3105582605276871, -0.9902699905651384,
      0.9017699709175245, -0.5009472850007088, -1.1527025763024144,
      -1.2103306206468563, -1.4535782131592618, 0.4101427015952582,
      0.761595578082934, 0.4255843288360437, 1.3795549502458608,
      0.4286361848917116, -0.6309875564439621, -0.7994091561831481,
      0.13072709164118831, 1.2902259246480454, -1.1950872858094748,
      -0.28143833143767866, -0.441184778938533, 2.0963395379751106,
      -0.9224427775937167, 0.37384069009153026, -1.2441040987067107,
      0.7128986698392084, -0.27547361493037814, -1.8142416639893062,
      -0.8998347269318183, -2.0345977960112944, 0.7973363463332966,
      -1.5862503462535158, -1.0483845481340008, -0.16130641413916194,
      1.2186364809909114, 0.6299056687656476, -0.055170970699782364
    ],
    [
      0.7940601465770065, -0.2789065443615935, -0.8793449001367364,
      0.16395081393393052, 2.5121863949779097, -0.23641593326168353,
      -0.17603193672866072, 0.8618426715910384, -0.7213177236221991,
      -2.2048293075144625, 0.4360925614493968, -1.1736290077784415,
      -1.3422318383636724, 1.8432244743542445, 0.09100223923638827,
      0.9348825827800832, -1.8075377258876713, 0.793323979679071,
      0.1675935854838043, -1.221329353496195, 1.6778459362861484,
      -0.20858487531739464, 1.294151399336535, -0.45865687928783316,
      -0.39353082312856463, -0.2901354611791568, -1.4462383680127102,
      1.6260449437763922, 0.028412485275817145, -0.4113364777875077,
      -1.0106720844664292, -1.4024478523701738, -0.45781817654413987,
      -0.029984051744492084, -0.7445339236846258, -0.37110762830313015,
      0.20987720776731641, -1.5350856520304343, -0.3628594238383654,
      -0.434553401080205, -0.3233801493977584, -0.30074387357921334,
      0.34497578128073986, 1.2828947592474953, 0.15981768477148006,
      -0.12225321506740151, -0.2377033177989567, -0.970034606974704,
      -0.43966062367553815, 0.5473351556993392, 0.05718413332534794,
      1.152489564538208, 1.8685001489563513, -1.1676733398366048,
      0.8872210666927792, 1.1733779393698445, 0.6660875625025974,
      0.21314371749082986, -0.26873196993589754, -0.19021002234621529,
      1.3335254514903316, 0.9647910366300979, -0.9087580113824926,
      -0.2303150254066437, -0.3781309778803984, 0.4760439613961747,
      0.15621350020833105, -0.5766884720267041, 0.6118240045249752,
      0.1429360969509921, -1.647659946086651, 0.787019844424867,
      0.19695293922116536, 0.03460062158470433, 0.022210246946430156,
      -1.684789310440383, 1.3192368589080206, -1.3146690632093696,
      -0.2999279486600722, -0.5461843912204437, -0.05846745124572742,
      0.25479335254660745, -0.5810784657561968, -0.5540539715658555,
      1.4401639753675548, 0.442747270968045, 0.6263822051165897,
      -1.064623911748006, -1.3299118282371776, -0.15494560523190223,
      -1.6463608471813207, 1.1437558989954633, -0.19390745912831545,
      1.8727797398576236, 0.08804321437952203, -1.2326212109359584,
      -0.22212852233205357, -1.6325248347700156, -0.7062688113413579,
      1.4778962550232189, -0.17560988374157183, 0.3512247730099281,
      -1.349476225784621, 0.32758889981303146, 0.0971285309759926,
      0.09233701381392373, -0.1806347575217895, 0.8893745309031493,
      -0.029262905488892377, -0.44479309536867456, -0.3323816582439372,
      1.454195773336622, -0.43392231661333974, 1.4155129834868923,
      1.5531630348714902, -0.5023881314122596, 2.2628734209082606,
      1.5732814320292956, 1.924105305229805, -1.3922946821926163,
      0.2867867039450294, 1.094995174260096, -0.955034828583039,
      0.8674582653800054, 0.9628485246191855, 1.0081760976709044,
      -0.40280009097221475, -0.031675863052973804, 1.6277173806512897,
      -0.12175688663388885, -0.6440797020008249, 0.8320149783074724,
      0.33791946775147913, 0.7323914675424748, 1.435553571417193,
      -0.8510447182624751, 0.567331345963976, 2.2546766565243725,
      -0.5679049172233221, 2.1052472717623374, -2.639521508522281,
      -0.11731892608372099, 1.2121007632723553, 1.1075119282339154,
      -0.12183747154255004, -1.1049555866027139, 0.37960915065260215,
      1.3731450212851797, 0.32790308027088044, -1.316209977370753,
      0.35022729293650967, -0.7871802764282294, 0.7773658276976092,
      0.46002590698481477, -1.4070998605102973, -0.7655690676776595,
      -0.3415668890319683, 1.1066849395400604, -0.8250597968906342,
      -2.3783081002985322, -0.1822385376078825, -0.25166827274382714,
      -1.1992101502709929, -0.1065599686932776, 1.177703727777119,
      -0.23644765771881682, 0.49106504195094747, -0.06309840415028999,
      1.7261519550819067, -1.1198399646812496, -0.7181826095363822,
      -1.3152513208765364, -0.4700898539422554, -1.4796110407144194,
      1.4910742966725852, -0.7227348914989016, -1.1237288227883528,
      0.24456378480035293, -0.5291452416623573, 0.3315508049369957,
      -0.2974622469460351, -0.20125517067360404, 0.003938584326177319,
      1.4147916134738903, -0.11703184166059301, 0.08913246746462067,
      1.2314672041337298, -0.805706509293756, -1.3936782623148336,
      -1.6586233405293442, -2.9982263492287657, 0.6780788124440071,
      0.3896729756568587, 1.372992874422845, -0.03022450137636483,
      0.510145641505609, 0.05814462592230431, -1.3248236079424534,
      0.24044877397839223, 0.915903268972067, -0.35010801022771765,
      0.15866783608773452, 0.049062060681922474, -0.5840952520398519,
      1.4369588632554329, -2.193285191611374, 1.3695051531499625,
      1.2990251459362485, -1.1420149164967626, -0.18711310931377612,
      -0.21826087100019315, 0.3455803955176265, 0.44695919043022647,
      -0.04873359079475936, 0.8460021451756761, -1.0541093617164814,
      -0.48652906966546283, -1.3911328405493495, -1.2656945808440954,
      -0.2017704674351384, -0.5973876370144432, -0.2821085620919093,
      -0.2192403744535577, -0.9096020964274852, -0.6631368789372691,
      0.6304597864197277, -0.08684512815568628, -0.7487293626422455,
      -1.365554600986233, 0.1301594720614993, 1.1168800710090703,
      0.6469268409640809, -0.35730434837825625, 1.5957575588429114,
      -0.8416252586803014, 0.3045336758472431, -0.9578972494229208,
      2.173300382179875, 0.5280900498240518, 0.3305945005593699,
      -1.9935132348817015, 1.861390263942342, 0.03581007752807708,
      -0.6309164443328527, -0.3288076658190878, 0.17183913151619828,
      0.868832039151658, 0.6879092191611904, 0.6152935364981029,
      1.0266831693146308, 1.2067739223426852, -0.5365149066560477,
      0.026854557206529094, 0.2877658058956188, -0.34330754089234894,
      0.9006154518269545, -0.2298798388433229, 0.988450248809886,
      -0.013986856337377607, -1.402082344075893, -2.74360577533529,
      0.27285702255794136, -0.21125919153950692, -0.4128121252346081,
      0.6355482617670942, -0.34839815932349066, -1.4083646819284494,
      0.08427919688798607, 0.612070710406024, -0.306113184648933,
      0.9851979968875065, 0.31713576334338994, 0.918175281664111,
      1.917713406472548, -0.5300297711801588, -1.8916800639402556,
      -0.38648991343369954, -0.4700608698767515, 1.4477111368485713,
      1.1112442575016706, -2.5241607002907, 0.9704327382174175,
      0.4167321148425351, 0.21463613051207198, 0.29437945493294426,
      0.0002118964984817805, 0.5016933978904196, 0.8395688010338043,
      0.375696185310296, 0.34337133090552646, -1.1523334240061682,
      0.9368161817972934, -1.2439016578981978, 0.7374525468190372,
      0.2616510049132292, -1.5967050014294166, -0.6737069750078116,
      0.3649390320468939, -0.826901566737987, 0.28163020089877955
    ],
    [
      0.9506860929864442, -0.6550787480808472, 0.8600947800547083,
      1.589589730395712, -0.8470876324059008, 1.0940937736986112,
      -0.9792230374188433, 0.6065000848952579, -1.2799375234434744,
      -2.2116651346802225, 0.037778819338794886, -2.0039600072450354,
      2.067613421884573, -1.3312528107461634, -1.3307516503949413,
      1.5608726629700966, 1.0146537720396103, 0.5973638629321188,
      -1.4395484952938842, 0.3524656801983697, 0.6674904127853948,
      -1.1916417898309348, -0.46300447416097745, 0.9575286801201159,
      -0.1085744179537901, 0.27006802615214054, -1.0161679069171288,
      0.8658447185594256, -0.6574122310147873, 0.9476546832911759,
      -0.02506407904397288, -0.24777712856670117, -1.008980474050077,
      0.6109827559149125, -0.5656910500462211, -0.5046084477312602,
      0.6262417539433953, -0.6309855595127656, 0.3889505929496303,
      -0.6366287303257592, 0.7598300640121493, -2.3326257878402727,
      -1.7231480225395899, 1.5364512089985953, -0.21411690488677163,
      0.05906525142002756, -1.7889019459183637, -0.9961994842974597,
      0.7556624254402281, -0.3447900446440452, -0.5131234550922912,
      -0.3661976903874277, -0.021414589747028395, -1.1373053208636124,
      0.31057579526593593, -1.8634326520287203, -1.0631458416038952,
      -0.3985399129096832, -0.9838058486299046, -0.3543943351309204,
      -1.5547511697040617, -0.04243192066193729, -1.7095087849151984,
      -0.17189041422041915, -0.028123147634931796, 0.5996267969733546,
      -2.1614649773838193, -0.3296487500435992, 1.5174662013602727,
      -0.6172822667652008, 0.006165368735697324, -0.690745568869219,
      1.7360775674631306, -1.065412369358181, -0.5696931524051506,
      -0.3935103572401371, -0.09744856739357259, 0.08280406801257385,
      1.6232943585293778, -0.2537379394119505, -0.35673963544874704,
      0.6547148095100064, 2.2702133250791494, -0.22039859696519093,
      -1.5218142214984038, -1.9520144801402712, -1.1806742628145044,
      -0.42409181786283195, 0.4842527195900119, -1.4115085158759888,
      -0.7619751951502665, 0.33429252590245, 0.012727733679547146,
      -0.48443045816831426, -0.7934865898848669, 0.6272050124236597,
      -0.09066319727021617, 0.4053737958794122, -0.6475697329361791,
      -0.8877877176240648, 1.7151712509763066, 0.28446057284181436,
      -1.736993725383097, 0.21733184966234428, -0.17369038265466022,
      1.062167125374197, -0.12606246309010055, -0.6210390679155233,
      -0.8660832516268745, 1.240768486222908, -1.0321449057762195,
      0.8220096607538109, 0.6494721032999532, -0.5812696385898444,
      -2.0207074573769637, -0.6962353760919041, -1.2253255086707873,
      -0.3380679773903499, -0.45274700256915035, -1.6609041945786547,
      -0.9259304265705112, 2.024448065264877, -0.3343779570483507,
      0.6163698274234919, -0.3108317015001695, -0.23736548248150138,
      1.9423909484683874, 0.49383917426237645, 0.08633675328949085,
      -1.121677840170176, 1.0639483962507938, 0.1087673392485288,
      -0.7013395251119265, -1.0832956686717257, -0.32864398966178976,
      -0.03582344972016472, 0.1566406352349019, -0.783625926283642,
      -0.2496007032075784, 1.7450527184569042, -0.7108408643832864,
      1.382240732759335, 0.06566298794499083, -0.3890127957905815,
      1.2875831776994828, -0.6441387077502785, -0.7608154504071153,
      0.34120305852744, -1.0959191607390741, 0.6185598712085768,
      -0.5390033323545151, -0.23867203577184284, -0.07890702462936067,
      -1.0694870035479749, -0.2721711504877533, -0.7041319300197453,
      2.1510015023929636, 0.28604073185017204, 0.2573144188854689,
      -1.6544719056459907, 0.590889657542558, 0.40678675614535614,
      1.2072324030292183, 0.48385466103334723, 0.06895987163018213,
      -0.522372858947732, 2.1326186392212914, -0.4701064355907511,
      0.021783020835141265, -0.28234133457650534, -3.066970979122599,
      0.3182987494521274, 0.6507287631004084, 1.3828278501873266,
      -1.5775332723063051, 0.7412219450999696, -0.6663951050754221,
      0.2805101579620914, -1.3346277785982321, 1.309466140667522,
      -0.28801963625161, -0.9155477711122669, 0.5882167566320096,
      2.007737493927287, 0.3523582902016388, -0.991088356569337,
      -0.6875771455605277, -1.1189277223818, -0.31759982050253255,
      -0.61085248769156, -0.5436563355136047, 0.0246843846330072,
      -0.41363720578102225, -0.60067860625076, -0.49576159096748756,
      -0.15083011134082222, 0.4142785133017827, 2.2170878496899737,
      0.780494922047571, 0.03607102689038885, 1.2653856834448312,
      0.36867879998737374, -0.8632486487750264, 0.022543264958384115,
      0.8618636117455223, 1.180848831003078, -1.3145112350107448,
      1.1848827776220014, -0.4348094309668269, 1.1382274080822246,
      -0.05030488126781479, -1.0268535883901804, -2.2391595794595354,
      -1.9914113178780593, -0.9367613006601757, 0.12743977259131317,
      2.101284877766037, 0.055048615106332355, -0.017212975867508938,
      -0.47671633647992845, -0.7725119813715823, 0.7142887413117659,
      0.5220216866030497, -0.7800941909828861, 1.8109110650562819,
      0.6824254506801436, -0.2417969431144901, 0.6167964409590451,
      0.9449869089725251, 1.1606142296424617, -1.946510354123498,
      0.03204764666649881, 1.5809411059739846, 1.6981390368031186,
      0.012158798270993022, -0.022558899551192762, -1.6992128988183162,
      0.18354066291739785, 0.4588964641364284, -0.8857707600150291,
      -0.06871580207335858, -0.20824849120986885, -0.23670768268296244,
      0.7092827530759807, -0.3527438597023456, 0.9768218769061067,
      -1.4933885526157085, 1.5844478586101058, -0.9900136714697273,
      -0.32502571698780525, -0.6700340916571201, 0.8493552571672215,
      -0.5246561651408161, 1.520036199925948, -1.3237472420737133,
      0.6804394802604996, -1.5480569243198516, -1.541833361803606,
      0.23124771747510736, 1.6835758189777605, -0.8429796537030548,
      1.5066638869297138, -1.7494337304595602, 0.23455661796380925,
      0.012258496932688762, -0.5986356451695116, -0.23256466313586627,
      -1.8385952242452874, 0.20436659073929286, -0.38066745079429426,
      1.4695226805306025, 1.176459641834294, -0.07957538278820407,
      -0.7541481286554484, -1.1242175202060753, -1.0956563600594866,
      -1.0826135126899228, 1.0437450250459794, -0.7182983183839466,
      0.22385608536202334, 1.3251827166488792, 0.44245044732159294,
      0.25876331602175295, -1.1466714982070196, -0.048602503958068165,
      -1.420602901892407, 0.6112684034624355, 1.1321960200864334,
      -0.8753096678846085, -0.247647280973131, -0.8981412045645141,
      1.0498242446949966, -0.4107549049735015, -0.8292699312755099,
      0.9178395715545193, 0.0661111207504595, -1.1987961280163681,
      -0.058162074589482374, 1.6780841634386485, -1.141446221818436
    ],
    [
      0.5919748666624465, -0.4063960664262012, 0.14993725913799147,
      0.40649819640339635, -1.4052451375010593, 0.8050933729564488,
      -0.19099484122658925, 0.42507955668201275, -0.36831900557548863,
      -0.24946425064266375, 1.2274765315231781, 1.3782133717482266,
      0.9382213407524852, 0.9090078693461024, 0.23099149260685814,
      0.5143287777889589, -0.4816240693285212, 1.598888215425,
      0.5371697834757692, -0.0586437063990005, 0.7939476751412589,
      0.10233792532458032, 0.804730070171629, -1.2889446273362697,
      -1.2781644975583037, 0.3001435282703285, 1.4015165002014822,
      -0.03138917463851363, -0.7271482791274132, 0.13861493462246408,
      0.3340711167885257, 0.16710559547435427, -0.30458801237117433,
      2.1771312618920136, 1.0003712939992264, -0.7415873563744306,
      -1.3591050222479883, -0.568046221249071, -0.4261118457159125,
      1.4267532144998465, 0.021737299058271483, -0.9933099243534259,
      1.5543927600741436, 1.1034326174786262, -1.1822460439915254,
      -1.0273955430890636, 1.4858920371241733, 0.41565672727543973,
      -0.022106346676926788, 0.10967986148624881, 1.4992661099291253,
      -0.16841226332162607, 0.6169978454922013, -1.3731120853638359,
      -0.04397103021488406, 0.15218887200842793, 0.967612238147147,
      0.40171019312544426, -0.5572232627266398, 0.28935722910257733,
      -0.31133977239062594, 2.1336337352594104, -1.2192783708109254,
      -1.6564734439253714, 0.8573570936551277, 0.47605324822123135,
      0.9235481437882609, 0.1252696359311168, 3.036691824127429,
      0.4792450792460761, -0.7516646866806016, 0.5626704065401513,
      -0.22601752868404343, -1.5160090176149341, 0.9907547899177899,
      -0.8908111088209738, 0.6904108925633639, 0.08471346299511816,
      0.8624468793984565, 0.7404210721125533, -0.10450832977566146,
      -0.4047243158499586, 1.1187996259012882, -1.1071824177768232,
      0.5723107385402914, -0.711645373376687, -0.32615931317788766,
      0.09433203680102478, -0.14616035712933828, 0.19778922743656502,
      0.32586356624760127, 0.026829655846887242, -1.9404526404674431,
      0.46606942193338474, 0.7188249708234847, 0.06388010390489267,
      0.18667149926079143, -0.2145067408015556, -2.420722225240205,
      -1.5097294585205148, -2.2103044922497554, -0.9471351476446261,
      0.6006619208580345, -0.7702839242401538, -0.4177274959154884,
      -0.2914608066709083, 0.7268247736261406, 0.017445526027818507,
      0.7528983586931991, -0.2862967822637133, 0.23563643309633917,
      0.254204611367713, -0.06765978111965397, 1.2781002248218796,
      1.6733487768380408, -0.2958315229467957, 0.47139888864507123,
      0.46334766504811575, -0.7908812521963509, 0.11107912635851519,
      1.6178237151231885, 0.3424676444709087, -0.5472125139295756,
      -0.6135106074746255, 0.4122692145176177, -0.6649061231400758,
      -1.1605455119940904, 0.25090151597885946, -2.0823479151926767,
      -1.2346890256555467, 2.1272989532357967, -1.2633595654050649,
      0.36478353455940526, -1.0740764465803485, -0.035000962753859735,
      1.7783086432699993, -1.9399486566111885, 0.6854701474999204,
      -1.174922542603813, 2.1603374226302097, -0.8423908298423796,
      -0.36973396828840344, -0.24205091494173547, -0.08106375225992159,
      -0.3022016873824788, -0.6242133188074309, -0.20620098516970772,
      0.9834675777162807, 1.2506385809387692, -1.5131885966052905,
      1.0824277383011607, 0.7166233052894028, -1.111090978273476,
      -1.2085242457554084, -0.10880322037075833, -0.6564462796622921,
      -0.2056077037152695, 0.9184251646939023, -0.3431154168427777,
      -0.4919228486462154, -0.5082369414836014, 0.9325246241272449,
      0.24607770296963422, -0.6242258368072797, -0.17185026411277265,
      -0.33856675100960304, -0.043657516825643, -1.343992005017933,
      -2.1177219503728524, 0.22341217348888587, -1.1956789445436529,
      -0.9465690584466526, -0.1617501158570714, 0.6670179985841144,
      -0.4153902908551396, -1.3570270312930484, 0.8352962038332226,
      -1.7070221270948518, 1.7221491368937663, -0.4640056114135283,
      1.8141016890472244, -1.2751703665920946, 1.9407479761550195,
      -1.4769496316921944, 1.9941936646930638, -0.09935612708783137,
      3.241213754003472, -0.8045418689775045, 0.300469066105134,
      -1.9718838699200845, -0.00521765781167278, 0.8744150711338439,
      -1.131859169669183, 1.4583575352781675, -0.08217741371988908,
      -0.07601410901844077, 0.009760662613407644, -0.475638229335675,
      1.3330095685307328, 0.4809414654534015, -0.3827451739689175,
      1.0116402187174753, 0.9689883355127702, -1.0075011886018692,
      -0.967836268012923, -0.501205100836105, -1.3306304307253018,
      -0.49192910512406246, -1.116710328900695, 0.23393650734378613,
      0.8462613079173962, 2.329080028897733, 0.9397362684834716,
      -0.3864805075751024, 0.6721577287425429, 0.24836207246925276,
      -0.5875450307109609, -0.09056200994404184, 1.6957960713766942,
      0.5756796041773858, 1.883586494709492, -1.1441795013701994,
      1.8866330359732035, 0.07235186862945552, 1.8487975249490403,
      0.7700816692902734, 1.3909635830038105, -0.6305188765689089,
      -2.6311945780160455, -0.1815474716074824, -0.6486338299715001,
      0.6812924599182496, -0.026354683972581935, 1.3333257685658644,
      1.971437791891397, -0.973153370617603, 0.27806270439972064,
      -0.5159426612460573, 0.47652210621032615, 1.1168313415137325,
      -1.4151156341294269, 0.026569776529221878, -0.7751605265203579,
      0.3123378481215004, -0.4323285459903734, 1.128734482302646,
      0.18107313325848706, -0.39502743539577545, -1.100580239465134,
      1.155959255306026, 0.009189658833280262, -0.22909781140268862,
      -0.5383936986999821, -0.07721002820078997, 0.13812384186831345,
      -1.0937552288149865, -1.295762671025344, 0.278517442671927,
      -0.7458359624953922, -0.5257603914091687, 3.2893254295015204,
      -1.0470316065078455, -0.023888766329550906, -1.050025451592052,
      0.7389729241413372, 1.404844976423823, 0.5599078023997671,
      2.0239472424679286, 0.774955655144766, -1.6233680435823838,
      1.1478912948419162, 0.24376904624234294, -0.050305996364655325,
      -0.3909681246852653, 0.5354862333778966, -0.22621093395079525,
      -0.5013051922232865, -1.7074061517928674, 1.1230683454961314,
      -0.12999534528637208, 0.15587105037396193, 0.04694292170646809,
      0.1948802013233815, 0.7319575790888885, -0.17137784717479151,
      0.13647086687443116, -0.9733696755526431, -0.8877225582269451,
      0.5168594765595437, -0.5704350157889518, 0.48018720124582576,
      -0.6563096200197434, 1.2334864163119985, 1.0462431204973797,
      0.3464245280412782, -0.6519034059403283, 0.28465659402310395,
      -1.2486826771896256, 2.248576438356641, -1.09424094782772
    ],
    [
      0.603653195628856, 0.6080754922498396, 0.5632133161633723,
      -1.003073421858973, -0.27037822090635566, -0.06694645571782057,
      0.49444184771309196, 0.09313630448224994, 0.09624693127815524,
      1.1463835289060993, -0.03565428627054335, -0.7394306148436244,
      0.5372085044712134, -1.0647448964133768, 0.26689663260419044,
      -0.9783519458267704, -0.6636456364302731, 1.0631982270055982,
      0.05768358725159109, 0.11777254722891162, -0.5396744968401279,
      -0.3707979022184987, -0.6759065886860444, -1.1694256912205052,
      0.7062618832980664, 1.0650018336682603, -0.8416184064093254,
      -0.0701296964120059, -0.8451584032156477, 0.9760872235960804,
      0.198415352260573, 0.6402778438371455, -0.42141609574030187,
      -0.022935574842960774, -0.19853521467493632, -2.0851490225664664,
      -0.31096598367697215, 1.1185744744582984, 0.8937132822252707,
      -0.31314880002218787, 0.8572920472879882, -0.4390763862138847,
      0.7630871384564994, 0.8211946735528115, -0.6205857647171569,
      -0.03909611098396002, 0.31422160103217034, 0.56211210388357,
      0.37235292174618984, 0.7506817115181763, -0.5090484411202774,
      1.4326170281792348, -1.0496290806596724, -0.8858537274307645,
      -0.8580819717646169, -0.5680418438262647, 0.1470049388986916,
      -0.49189648781925704, 0.130527353102899, -1.028994724388468,
      -0.4443477444377163, -1.500552956304041, -0.2419019420436458,
      -0.017764936036412694, -0.19713962169211324, -0.4379564324929485,
      -0.5358767421358561, -1.4934996598994434, 1.3755748609270564,
      0.3356061973307426, -0.2161700784967151, 1.3133306396570197,
      -0.7972987388430075, 0.05511202410046123, -2.3302368087829604,
      -0.2939383301493033, 0.4560319253721228, -0.9876479609589918,
      0.15092598948892724, -0.22075507071654463, -1.9683741665390482,
      -0.8888852483900541, -0.9434938568547291, 1.2324326766892537,
      -0.28892915910628436, 0.4468307618701729, -1.4277912353859952,
      0.5235530383864351, -0.8434489797841006, -0.1102753447201951,
      -2.0705826884058185, -1.0957790308621465, 0.19875788530891647,
      -0.15314468245764581, 0.8870775720739424, 2.4784544301504803,
      -0.5576465233158705, -0.5482226471738888, 0.1531418985489699,
      -0.7536548488445792, -0.6154562206020272, -0.3972808488494883,
      0.9972938779818115, -1.9691932841942033, -0.35178507088702726,
      0.3583559850438334, -0.02055255918176815, -0.15047695784294315,
      2.460671430063869, -1.0266575625020036, 0.6455800351604053,
      -0.40232215310421343, -0.2188890805776602, -0.9176140040243209,
      -0.7579129885582809, 0.09726447956977381, -0.7677298891999308,
      -0.7247758227924141, -0.21848796669262044, 0.46912610966849816,
      -0.20838485179301244, -0.6697895719815555, 0.7035977793147161,
      -0.37362704208316194, -1.341141574296667, 0.6796853946368284,
      -0.1649533554875678, 1.5036266234026838, -1.0373593532889893,
      1.0398272381414604, 1.5363071991033286, -1.2831640904669872,
      1.5852108229118707, -0.9647976792764638, 0.9746437730614046,
      0.5436311863338497, -1.6826233993484223, 0.5648383025006493,
      -0.6070401572825026, -1.479079642000672, 0.8156357617722899,
      2.1284236680344755, 0.056585718155971035, -2.069478474680338,
      0.18542885955747335, -1.8231429249116997, 0.18095011205852649,
      -0.5044402090552018, 0.027743075040100727, -1.4200357286709466,
      0.6500532362668312, 0.20216408917057657, -0.7452196795888139,
      0.9091852312245429, 0.6769351956237785, -0.650887141079861,
      -0.1246487906839818, 1.3475204793523266, -0.22554214759634816,
      -0.873573923437515, -0.12401491968202762, -1.242249066192506,
      0.17542578989974233, -0.2687971355214476, -0.3057008560737895,
      -1.4404830852225925, -1.1211617467679273, -0.24039816425330712,
      -0.35014046192056464, -0.7055265470661094, 0.7176642085456975,
      1.0266366769888287, -1.124000360835429, -0.3314373169000101,
      -0.27473718157714205, 0.4047401864458844, -1.340389904125658,
      -1.148703084992973, 0.4340928975937093, -0.9252164156160427,
      -0.06015265867167994, 0.43523368220661024, -0.3218127598040916,
      -0.11363920753324919, 0.7010714286091696, 0.8626672082872793,
      0.29963643292266806, 0.8443663349651525, -0.06472837408880609,
      -0.17838984847750425, -0.3411242974467039, 2.352361512273777,
      0.7843909619016518, -0.7835254988734677, 1.1011971094542778,
      0.18560302430658326, 0.40401945334432193, 0.23499755494294683,
      1.084930457451303, -0.361926163312525, 1.5484222411185629,
      -1.203798878199439, -0.5362909062295891, 1.1458423869597554,
      -0.8551323793372926, 0.622621032518251, -0.4945770385819155,
      -0.5988591294630039, -0.6428490127373673, 0.5143806611855961,
      1.2380137720973927, -0.7330298056324948, -2.462926616275607,
      1.197275613573199, -0.49176336245518726, -0.11208334859407731,
      0.1668356077124998, -0.0605505441898948, -1.1414014601756635,
      0.22968011636939895, 0.20821868323675322, -0.5363618181000452,
      0.5251537817942622, 0.36415311949497275, 1.1978170360019573,
      -0.27735617532739976, -0.3721382526515998, -0.1394713216814056,
      0.4310580256009665, -0.6750034476382525, -0.9957939751736875,
      1.3766427389357276, -0.789454489741689, -0.4269768026601525,
      1.3311050292905537, -0.029048046884395974, 1.3970148782483889,
      -0.2150024327092233, 1.7405738520790388, 1.6565236333038436,
      -0.30669235808214784, -1.227400006754319, 1.2846734513165599,
      1.3900644623647236, 0.11579971179366313, 0.23792782061459278,
      1.2037958470250567, -1.1502315030392123, 0.49624098414885703,
      1.4098252207891127, 1.1881694214393406, -1.9233551891400578,
      0.13272089053055922, 0.20431326016882995, -0.6558638975786643,
      2.166880076231799, 1.259241083825971, -0.9839847611451447,
      0.031414253009997846, 0.10556731121235427, 1.0040402148384644,
      -0.21140065498568544, 0.40627713875281857, -1.594425043446551,
      -0.4037454627070652, -1.8447442157905314, 0.0013636214452083437,
      -0.40365061490173865, 0.09590899693551858, 1.759722764007805,
      0.4180775948378531, 0.650877711913508, 0.2661213336796416,
      1.0748946060020046, 0.18073894371445492, 0.48855954890227143,
      1.4498873558710212, -0.5749995974940743, 0.5156648172216686,
      1.5040492874705287, 0.20070207897112208, 0.0174480978949211,
      -0.7488493352170784, -3.2033585713041655, -1.9042507019090782,
      -0.15481104248150046, 0.3108963038338679, -0.6124737446833995,
      -0.917710924002635, 0.17868151750868333, -0.11239987842569366,
      0.48044024061036356, 0.8670679817315217, -0.9123620984247802,
      -1.0017115187806445, -0.36907712947014354, -1.7990792431108997,
      1.1006974226785005, 0.7664920482583448, 1.6687100309888356
    ],
    [
      -0.18261409992566072, -1.1742141458432693, -0.012364710297199271,
      1.2378234514440831, 1.0630589839951934, -1.1458908318364787,
      0.1833571072823538, 0.1928124627761165, 0.35152674511063425,
      -0.10914018135627654, -1.4248132913684497, -0.07384303365473179,
      -0.27055832049761847, -0.29003257833194124, 1.098176548409087,
      0.1394287326453873, -0.19855473960475667, -1.1306005516152247,
      -1.4269301737761246, 1.3597824691063292, 0.5561169162369033,
      0.13615152716404852, -0.2685000878479998, -0.8037772042640788,
      0.11858348061539362, 1.0531926590675365, 1.6436524133435177,
      -0.11124998807230148, -1.7631277638215719, -0.24241374470588456,
      0.6372003910325165, -0.4472667478713886, -0.07573942966914594,
      0.09486342442973195, 1.9939040689562328, -0.037684941151261815,
      -0.06969573051935861, 0.17236468200954122, 2.9567550858304674,
      0.9683889405110518, -1.4065744856539768, 0.0694147270764413,
      -0.8021612480667155, -2.4054726674089126, -0.7943582054983186,
      -1.4107226569558549, -0.35556125702554875, 0.4415019422070435,
      -1.2349667773005077, -0.0879342645926543, -0.48718946242676514,
      -0.966375822997134, 1.513838111004622, 0.05515796445400959,
      -0.9363090049435885, -0.023817833185063433, 0.5897578515704348,
      0.5250255449224577, -0.3762068073621087, 1.5333375242016989,
      -0.6302206572034854, 0.06438772938692268, -2.1047865616625567,
      0.853540788744407, 0.443754848845842, -0.678671231450632,
      0.02597363625432367, 1.3614931294876496, -0.20385781687819238,
      -0.08631789039526486, 0.6540224928817421, 0.168971462906536,
      -0.6572042697824174, 0.489326299178086, -1.0726381022704523,
      -1.8802887484563684, -0.8635430966854983, 1.1353174564811628,
      -1.6327840180326576, 0.33184991578517187, 0.9153427222468096,
      -0.06858713748325246, 2.3671950394156287, -1.4274731512797942,
      -0.29132853186521296, -1.7949231803400219, 0.7442532698957831,
      -0.16647705923872852, -0.12692414491507667, -1.1746465334137386,
      0.9933879455580029, -0.48556513053908346, 0.4237984782345761,
      -0.9532233234769197, 0.4381758705306649, -0.053452995454746355,
      -0.5264989302761456, -1.5515843845627555, -0.26257719010451247,
      0.06900248368533282, 0.5005687217382343, 1.0328474343738197,
      1.3962252740652037, 0.2565358736853147, -0.3561947417642208,
      0.4639946339218732, -0.347901607270575, -2.1862815781756386,
      -0.4427125019810268, -0.5878435374777963, 1.1650243528544675,
      -1.7728411919315727, -1.1457732078552443, -0.12872228123913734,
      0.17265236292078337, -1.6199777368867014, -0.3011990913563377,
      -0.600316832363245, -0.6510654574264484, 0.393693401375614,
      0.4138634974555531, 0.9395146643335334, -0.207283938189198,
      0.909786806464809, 1.2675285084559962, 1.0519523053993023,
      1.0068855255583649, -1.1340961543482269, -1.51607986814135,
      1.1485975705846752, -0.5727231021473657, -0.5694023774255266,
      1.9259291878310643, 0.8279091030616441, -1.0353880415511942,
      0.7480214614246511, 1.6682123835921454, -2.0491237344552538,
      0.38970665507350216, 0.4071650494090248, -0.05179205251068901,
      -0.1540776483370977, -0.4719191517644499, -0.28191441506399695,
      0.16419157359474915, 0.9103152450618612, -0.6974448442183433,
      -0.10017442394744305, -1.5095637101739068, 1.1281875326741289,
      -1.36923292339387, 0.014056737170981805, -0.44832876132400806,
      -0.8342211340099718, 0.5886945986695682, 0.24043707257454386,
      -1.8050749990956827, 0.521834518529705, 1.583972177435807,
      2.1345777907054186, -0.7466493645030187, 0.571437475812771,
      -0.13272739632714756, 1.3174566201347098, 0.13212675274287017,
      -0.6111812467733343, -1.0379013618118211, 0.19570434243205162,
      1.18417401678848, -0.8470001842257382, -0.9344529771825102,
      0.1611601594084103, -0.3178191134129584, -0.2045059179216276,
      0.7558804886201335, -0.6044675311624544, -0.11824475702488467,
      -0.7281330088235907, 0.1419038707136605, 0.5171772771682969,
      -0.880370107315298, 0.6813919182276323, 1.3194710025691918,
      -0.21254741488899506, -1.115939762355097, -1.4120493547333246,
      1.2475787389845525, -0.9296658813816352, 1.7098544185092721,
      -0.5429683941038075, -0.3767321389868888, 1.4519366847918254,
      -0.2810311776944343, 1.1992556315365988, -0.6974456827403188,
      -0.2620942097371757, 0.8517093810847868, -0.8281718376360498,
      -0.041574142679291964, 0.3274293835975659, -1.7276701148612783,
      -0.0316168875070985, 0.4378001153281001, 0.7076912949551486,
      -1.8328558898978713, 1.6376799085950282, 0.25303790184199065,
      -0.5296862746010748, -0.4640457032541067, -1.65963938879758,
      0.45933734697420237, 1.0441857741253133, 0.0713378505126805,
      -2.278076354977686, -1.1453490932932897, -0.5033203017911421,
      -0.18926659004073293, -0.20184675139505415, -0.25655561883771516,
      0.8501891666947357, -0.21061675859146822, 1.4235107626523997,
      1.3769475606184305, 0.025464433783480043, -1.1607491535590913,
      -0.41652008161453735, 0.5029610477663083, -0.23329325151499491,
      0.050487589737597996, 0.0016937528890510509, 0.7717213221998449,
      -0.1628409502820007, 1.3868286739495086, 0.961606699124461,
      2.2428313405767377, 1.0213262557428837, 0.5407783924221294,
      -0.20159178051876506, -1.3758198581053485, 0.027012045781111618,
      1.767618239882434, -0.0009204857833009569, 0.23184077136052803,
      -1.4235666106387328, 1.0016937155344874, -1.589462433341017,
      0.0030348392324903617, -0.679918251335693, 0.6759994116552873,
      0.746345672758137, 1.352008123000385, -0.8543070774720339,
      1.2046298101822317, 0.14894273659280038, -1.3547524802324167,
      -0.002233060506314174, -1.9809818394762782, 0.8804768147608781,
      1.1900459699900199, -0.9534968041289024, -0.5303776577987881,
      -0.1352671244967851, -0.8709656758501841, -1.640033990504413,
      0.26447002972011574, 0.040276163389344845, -0.09814769021151108,
      -1.5166483024731343, 1.3190623328392885, -0.9705627319535758,
      0.624124250943275, -0.566822100374868, -0.0038298030311261348,
      -0.2350560013699137, 0.5488422780826636, -0.30089052593750903,
      0.8598922276858773, 1.5252310158805245, 0.27537647724170244,
      1.2152859809017889, 1.1981751578495188, -0.2679575696805594,
      0.36208866907706727, -0.019897015305779173, 0.8286943020039875,
      0.3409784586070417, -0.4696724446822248, 0.1389969901222625,
      0.2768877561917763, -0.21848640191322102, 0.326499848780035,
      -0.8741567491054212, -0.8689976472610499, 0.7699884276508967,
      0.14874667270286832, 0.6777340656903389, -1.0336749236283642,
      0.4716411539567427, 1.8469751041670612, -0.7879986678828809
    ],
    [
      -0.4749938943529601, 0.1853262020877508, -0.7863074902098566,
      -0.4775504766254077, 0.896225419338597, -0.3159381522255861,
      0.26352290424554975, -0.34340477190751, -1.098572194639743,
      2.066126915775495, 0.5501209681485378, -0.07010300800818461,
      -0.3894409350514026, -1.8120048434658393, -1.676349649705671,
      -0.19104154058420983, -1.641162640286462, -0.5606849075140111,
      -0.29196347716936816, 1.0364488224555874, -0.7437711445452421,
      -1.1363379079367468, -0.8640254563618791, 1.38051579224851,
      1.5650799520671412, 2.112016018511728, 0.36270729300735766,
      1.309969035210217, 1.230494175166699, -0.8798842928774091,
      0.5985854995282996, 1.1428723398555345, -0.41907901160144,
      -0.19687849173266134, -0.46028074858476564, -0.3148365533753859,
      -0.9927550652886972, 0.9699344389668355, -0.22486377551535586,
      -0.7749334397332805, -1.3107330236480137, -0.1603591792274613,
      0.05812565930820735, -0.6381169790445859, 0.3580785734754029,
      1.4628925114472868, -0.19695326724942422, 0.8294422209057822,
      1.674596993509816, 1.5250880871169912, -0.6553158964018942,
      -0.9035122807945275, -0.44153777140920836, -1.9974764784901287,
      0.3794832913231875, 1.0233399119270317, -0.5162856662546874,
      1.5467528707514455, 0.8278674505120864, 1.373173447308497,
      -0.6722952704139292, -0.3190090987320386, 0.18901167444851094,
      1.2702999305436329, 0.6959999467276755, -0.19340588088915744,
      0.28596427485937914, -1.2183822372118618, 0.44350488079396033,
      -1.605832175287785, -0.7461564483869081, 0.8162185729546025,
      -1.4527478454293437, -1.3407190928157104, 1.0605195433919088,
      -0.16231738252757824, -1.6109353801357562, -1.8051015925416247,
      0.08100328006780208, -0.31549526750821627, 0.30782627229318715,
      2.175956856947537, 0.656630232110496, 0.2934910250346195,
      0.6872084109535193, 2.8005829898079013, -1.6075814799965895,
      1.3754579948567496, -0.2756515187769676, -0.22107624559989156,
      -0.9031863381345361, 1.824612484683051, -0.8158473394974297,
      2.0608892075397605, -1.3077754657075273, 2.029015943830477,
      2.748168259288015, 0.8940476798350869, 0.5924120497574854,
      -1.6345628903673166, 0.7844764048107645, 0.9900598973735777,
      -0.2825948605075423, -0.9736141545333973, -1.3178846806490632,
      -1.5219358387627164, -1.8699386847392356, -0.0599033213511301,
      -0.35357536746497914, -0.6815386246581691, -0.14772751909308857,
      0.05133330084911147, 0.1542515869772556, -0.8450409418249417,
      0.3763429636178056, -2.1487963456116206, 0.011931363494725511,
      0.017395250723089985, 0.3932770783737365, -0.7051744910116376,
      -0.6473376796934216, -0.7808327293439477, 0.2581561761480197,
      -0.23235292123909704, 1.1850596555441442, -0.1969800337797653,
      -1.5821350688790548, -0.8872530735041758, 0.8190710015164135,
      1.0562872315303289, -0.49602033120228395, 1.5318827199921825,
      1.3367103682520514, -0.9721783377516804, 1.3030732022575808,
      0.40749457295127883, -2.0138805284148074, 1.7503292638543386,
      -2.2714693064478215, -0.32728817758018425, -0.038466273991814195,
      -0.5924416563846365, 1.24362001414293, 0.6289314582750669,
      -0.4161588580549723, 1.9267624942606418, 0.26267508952414587,
      -0.2813725277308713, -1.7621824328718456, 0.9305613173660081,
      0.5975238718152247, -0.9803168457199035, -0.6989108086767115,
      0.08050398375336343, -1.0353379963875144, 0.8248065575526777,
      -1.2905359475633493, 0.5284457490626246, -2.3649218451959793,
      -0.7129201027013498, 1.6606757158158056, -2.24229064257265,
      -1.6164976181759683, 2.236413612328032, -0.517128014839726,
      0.6430622124171789, -0.45412469125690663, 2.0162820102457895,
      -0.22004038535893847, 1.1210049589753694, -0.6966311706593726,
      0.022151920173766014, 0.9048144575829219, 0.6646125018307102,
      -1.035873257639293, -1.5381577775059816, 0.1146651370360034,
      -0.8329140955518045, 0.3580640649747057, -0.37860768741948864,
      -1.479324072591944, 0.5187456223062157, 0.5380656458247552,
      -1.2610033286223936, 1.1381230562538858, -0.03614927996249033,
      -0.8061604526834779, 0.6000937418245861, 0.38262749929758566,
      -0.5438462782176848, -0.7338039181691735, 0.22980717381385604,
      0.416495360256406, 1.9178030484787534, -0.9965035776368204,
      0.9456156141681121, -1.121303018761834, -0.4231404076147896,
      0.4369605102743648, 0.5965878330277538, -0.7592947347871073,
      -0.05285195335262538, -0.6112785659404381, 0.5940201046918487,
      -0.6956573510226504, -0.3572902070901144, 0.3532490915846923,
      0.3401642404150721, -1.5626981422723425, -1.4153749240108073,
      -0.6206446105316209, 0.5300602274631063, 1.5661844414365242,
      -1.2428404022062676, 0.3151891317110054, -0.36443458257381317,
      -1.6409345611153219, -0.8220299523413034, 0.9014510865435714,
      -0.06252578570689238, -1.5163290227015278, -1.0693981694072316,
      0.4429743887264676, 1.0017456698341018, -1.6396829070806032,
      0.007810597315991215, 0.5623082785795227, 0.551342528563582,
      -0.3978647298001229, -1.3268560215213834, 2.3506345862585887,
      0.24978033133435687, -1.5010382853061757, 0.13157569900219748,
      0.26728106077924235, 0.03172715912206066, -0.06279451712715428,
      -1.8676326786209063, -0.3162837541237545, 0.9007792623942256,
      -1.6179437362002527, 0.4066745120491961, 0.0457459482552287,
      0.10313853719326517, 0.2963687596461187, -0.1363558266067532,
      0.057335617531265023, -0.025378277354068914, -0.4707541809778468,
      0.5308242057865564, 0.6464469203646843, 1.1802165535858256,
      0.27823316281265037, 2.0722311143560894, -1.6026189269781406,
      -0.8299571518026165, 0.8132335248046851, -0.9287614691350076,
      -0.9840584323135292, 0.7740077978793811, -1.5001799792423127,
      -1.7653817408040033, 1.4467531290613334, -2.222160465896325,
      -0.4863728384151951, -0.07259669611281948, -0.51689349779456,
      0.3450771304282523, 1.1779900070674565, 0.49074140455689114,
      1.3458001208002133, -1.3234790029988701, -0.4720714932748429,
      -0.9876428183034592, 0.9621648242133158, 0.517260400177175,
      -1.3997465284888395, 0.5596311893719657, -0.638253912021366,
      0.5086760633791515, 2.1432614595631163, 0.3125927607280035,
      0.0780970688519353, -0.6866774786009612, -1.8596085431105065,
      1.3621468951493503, 0.9011091745106544, -0.21481337724101118,
      0.7550577826533427, 0.008700317634176197, 0.6977931146894126,
      -1.5973804784813785, -2.2192532720500484, -2.0418943558140716,
      -0.6182297204219968, 1.5459608250561079, 0.2134781646058555,
      0.34511140827175246, 0.38398190738002824, 0.21306188683077676
    ],
    [
      0.2741488191427566, -1.5272968952582, 1.491145054804592,
      -1.1274079401624926, -0.701487274011157, 0.0952615261639214,
      1.747963033027687, -0.5292335072696355, -0.5484296368635506,
      -0.9593091400215005, -0.4323297259947049, 1.2606472262790305,
      1.4121243290873116, 0.042135364543381564, -1.193217266673172,
      -1.2875234596942402, 0.0974295513400153, -0.4470632353544726,
      1.3104299222657005, -1.408177200311256, -0.006672755405562107,
      0.4914521496517249, -1.0314767045887785, -0.23825928878043567,
      -0.43579247702350477, 1.0212241344665425, -2.2627721880627885,
      -0.7925455877778786, -0.3314426004618855, 1.1605951028100066,
      -0.26660728996208766, -0.779150371248242, 0.7531243352710325,
      -1.5011579333365057, 0.05846250198752911, -0.7402717128615628,
      -2.466799618858845, -1.2958843629210532, 0.19541888806781935,
      2.0589444124046796, 0.8118442780024631, -1.4393244431100065,
      0.5422429847980303, -1.4909199990815705, -0.36330941029507774,
      -1.0391985528227883, -2.713429510628024, 1.1641655471336476,
      0.31474059955143846, 0.9172113306077502, -1.6910976677978726,
      -0.608520997152386, -0.8285221407867424, 0.3447016234030541,
      0.6713683552481384, 0.8988593806378175, 0.1450340368477225,
      0.24418595130088483, -0.9054076198230591, 0.29203564841804414,
      -0.3872056246537932, -0.2046005472515729, 0.47643741338285744,
      1.074805255447661, 0.13796861749500475, -0.3142438547837177,
      1.3722217264317471, 0.3729733840252517, 0.8112923265469087,
      1.0367620976768852, 0.9949890461491868, -2.066107897152242,
      0.6386463544789396, -2.3734064983841847, 1.4577353420595935,
      0.4912223095240949, 0.1107250966413781, 0.9139786346663981,
      0.13590959010229312, 1.1063708607010185, 1.9267352865964014,
      -0.4368554568587583, 1.539024903264031, -0.7146569721831617,
      -2.017221972137324, 1.206857547887902, 0.449697289310714,
      0.5794649654420262, 1.5450890523262986, 0.7921353607910971,
      1.7421150564546617, -0.9305003148172158, 0.2102286218831645,
      -0.0006370220262638899, 1.4032294820070335, 1.7348439479924427,
      -0.24808522446003078, -0.32848017092973575, -1.2200742468196595,
      -1.707986715970036, 0.52363529162163, -0.02858797536992172,
      2.942908693281576, 0.7539917724339344, -0.452051418150411,
      0.525386814554385, 1.941221343782756, -1.0683126439672792,
      -0.8371995498737496, 0.9932716933292138, -1.6071852378106077,
      0.2948010971590729, 0.2592237772997415, 2.4300700584411286,
      -1.9349502178430527, -1.3298082454267848, 2.334783564803534,
      -0.6544297398993988, 1.5267010799748897, -0.3010220047940744,
      0.09347656253843435, 1.0170807714483283, -0.22394868511761232,
      0.8364829381322367, -0.39382619163303934, 0.01800402616455817,
      -0.3189814021999841, -0.25277975696271704, -0.8651622522271442,
      -0.6189679912598909, -1.0202654868122647, 0.005212170404878221,
      1.7183525297168314, -1.345678003871054, 0.013049961029358322,
      1.9528213527027267, -1.5330646458245487, -0.9001007080710716,
      0.16029449578570068, 1.512249778327753, -0.6342799037090289,
      2.0589458373258003, -1.5162946184481094, 0.5167718778355322,
      1.4824216575406177, -0.1654331246520028, -0.48977013465191294,
      0.40005355754872884, -0.6325364556994345, -0.1919153078855398,
      -2.4463146852488187, -0.017972585750257616, -0.834575677094842,
      -0.9057820436208371, 0.3829282868162305, 1.1438218669763869,
      1.0168839274194907, -0.24468831196168808, 0.34883600057963504,
      1.7560671133567043, 2.2946090811330517, 0.03548384929326509,
      0.9779999906938062, -0.2366019963350986, -1.5568262253167517,
      -0.14595469690684526, 0.4260251753116033, 0.0017294717521870962,
      1.0680133181183538, -0.7768904943681807, -0.355248878279402,
      -1.5915427861438496, 1.0820394797842643, 0.5397213124016406,
      0.7898190206066266, -1.079743737078682, 0.8784968599755738,
      -0.0904906607969635, -1.6552526662313118, 0.5239079789738091,
      1.703380121641074, -1.0606992263406836, 0.07478818714267069,
      -3.0221669455174687, -0.25105413305157614, 0.16556524907109862,
      2.729514778851407, 0.6448738305646453, 0.3214453624791126,
      -0.424626912631878, -0.43651369973775217, 0.5119134982729368,
      -0.27786465887447287, 0.10066517876437286, -2.0863877701159668,
      0.6555958126541005, 0.19229245361660782, 0.3358486187886392,
      0.40519252923203614, -0.2844467022194654, 1.1342499258322623,
      0.8652993244831425, -0.6880902151600042, 0.5419705706581011,
