{
  "epoch": 60,
  "input_size": 180,
  "hidden_size": 300,
  "output_size": 26,
  "activation_function_type": "SIGMOID",
  "input_nodes_weights": [
    [
      -0.997367606792079, 0.5372030725339837, 0.7103598776282354,
      -1.9772712991468453, 1.3115666095770877, 0.6574563522552329,
      -0.027191915133586368, -0.8894911490771468, 0.8128869057036259,
      0.3898148428136165, 0.608565856082373, -0.43986780343326987,
      0.21392956788700432, 0.30002828383671143, 0.5970688841750899,
      1.147133852581259, 0.7572909018702145, -0.050587915811306755,
      0.5149805170537235, -2.432810515953595, -0.5262858724581969,
      1.7832036448570279, 0.2415307364490066, -0.9434230161204546,
      -0.008480251256410101, -0.4442921513117562, -1.7715854979042536,
      -0.9293358177115207, -0.6121879289049427, 1.1989198173374773,
      1.2927667879891622, 0.029172394569288645, -0.006508096246775239,
      0.7026088587404915, 0.5463564993056194, -1.6194308266762438,
      0.4972396296392032, 0.694903855585206, 0.29082844138791025,
      1.8192867858369055, 0.21640695686005554, -1.20076051055944,
      -0.13244028785843362, 0.1696181096916133, -0.17406036033261094,
      -1.1042551800756335, -2.608300749601327, -0.9359739650212833,
      -0.6941397167685907, -0.06581802370357046, 0.03285931970981189,
      2.180852246016608, 2.9826856355736706, 0.09886431868356668,
      0.2274825971771055, 0.2212714755059017, -0.19079259191778955,
      -1.0712052095497628, 0.08938274589110304, 0.6355105657596587,
      -1.771496366831293, 1.2380453044113022, -0.5610993646278274,
      -0.13094939878454775, -0.21598584606474824, -0.2909376070814863,
      0.15099270598636022, 1.888523470897893, -2.816421350222284,
      0.27251781962725835, -1.3782512905985922, -0.4161664224340371,
      -0.759555348881327, 0.9581138428138462, 0.48375321475279165,
      0.9752308747187717, -0.3694836086866698, -1.2810087012240428,
      -0.6992561005813601, 0.7329577386898358, -0.004418605291596664,
      0.8175207492409422, -0.18622823739289657, 0.779205613231993,
      -0.05572838167417686, -1.6262640230554368, -0.38621869234008643,
      1.184429063357462, 0.3983879041510495, 0.6826155154192325,
      0.724041828714966, 0.5055285834578168, 1.3119048588785656,
      -2.0022085129429925, 0.16863015460035152, -0.7730801576168195,
      -1.4453091366606918, -0.16556746708331285, -0.047328427523891374,
      -2.7187693042360985, -0.3301757069032492, 0.21303344317972714,
      0.9590257381539852, 0.5325167744902176, 0.19431111594773373,
      -0.4031065444996521, -0.6680548647160042, 1.4632242083913285,
      -1.6997779946974372, 0.786285525940116, 0.14621797478844067,
      1.601893317043726, 1.3726470487157503, 0.5197775730514782,
      0.15139890074857013, -1.0235884707799587, -0.7499027102191734,
      -0.00891793556528766, 0.34649539448339217, -1.644909594685069,
      0.782052129953422, -1.1261588399689437, 2.9154748953994662,
      0.38265137384002074, 0.08050568100119948, 1.2170264262122552,
      -0.44282425831142974, 1.2691286625537797, 1.3179369926592712,
      -0.02582893152785249, 1.2223665879836187, 0.33705444880034263,
      -0.7917852735022861, 1.4459392760776728, -0.7533274812525531,
      0.21919889483274885, 0.6398733045620176, 0.8251021554703811,
      -1.0275952581984469, 0.24671942101636393, -0.1344306658106003,
      0.4780773578959453, 1.1435814851253974, -0.7184514394689756,
      -1.3792128033148616, 0.14802712381961577, 0.28647632984782617,
      0.20890392899049628, -0.34575473056814865, 1.4417513358748704,
      -0.45866605686593803, 0.6325298864350679, -0.3308511587586609,
      0.759138331387039, 0.048868954713925404, 0.46265025108977154,
      -0.11806085323191597, 1.9537253113180693, -0.7255604689855827,
      -0.5808341162481051, -0.24103808078885547, -0.7352820587969662,
      -0.17953741605317147, 0.39143403875178373, 1.5744097831740522,
      -0.1991687804022215, 0.7787601611219741, 0.06884936922686732,
      0.9447547758020015, -1.338800482792637, -0.710126868682874,
      -0.6175350877706846, 0.2603439112498173, -0.9162749388560416,
      -0.8416107885977709, -0.8746149527767935, 0.8659319917909897,
      -0.2222023081006916, -0.7376570299456219, 1.508817191852682,
      0.2801614522766515, -1.3288323256808832, 1.446479409954168,
      -0.23578238039770594, -2.415626631174129, 0.6383471680979108,
      -0.40877912372336106, 0.3105773841673252, -0.13525499703331376,
      0.2705108377793007, 2.464327086217187, -0.5714292699914498,
      -0.5881890920449209, 0.17656787178184385, 0.12467430945802092,
      -0.13232250945015073, 0.5789300687906503, 1.159106842285591,
      -0.349726530594806, 0.6723450155760247, -1.1071823785103165,
      0.31588414174854984, -0.42976856546487097, -0.5896668860365715,
      -0.6758095986420932, -0.5100975097790277, -0.07615872712332493,
      -0.45605903186412144, -1.378458552898928, 0.5237763943295434,
      -1.4783843681525017, -0.10741267109996729, -0.095916981769128,
      0.7125568352648826, -0.30148831985747787, -0.3950185454122317,
      -1.1589838459511665, 0.3826899423936556, -0.7941247372238326,
      -0.18348588242234584, -0.992428747460405, 0.7750156185376517,
      0.08210142129220374, -0.03204250275040922, -0.7242343056395931,
      0.7708856335485027, 0.38309169351090466, -1.6188159168557372,
      1.1268672770091357, 0.013995323582911978, -0.17787779012730554,
      -1.3609303193532087, 0.4902027645442792, 0.5606590018630994,
      1.1248875587060274, 0.6922356248016611, 1.4465665436878337,
      -0.37169589702083317, 1.6062380400275016, 1.5212037695795455,
      0.1329165481555964, -0.0827650667951016, 0.025516464334561072,
      -0.283895417723662, 0.18793241304100133, -0.3254013977982083,
      -0.6604355090806688, 0.5289586941034521, 1.6029841454330431,
      0.46787231045618655, -0.7767472572772758, -0.6385114322146919,
      -0.6630471110542864, -0.1916353283632463, 0.3479247814019887,
      -0.44431056712598055, 0.6624534162114454, -0.5187256960479546,
      -0.6365962138997041, -0.3229119311842143, 1.5135728586204096,
      0.458053126800521, 0.7028815013546927, 1.1577841772173778,
      0.6643693326250486, 0.27301766053705395, 1.3876769854096271,
      -0.5318930687783123, -1.9923620112633587, -1.3443599054908302,
      0.10270291651324952, -0.9299989324150365, -0.2281303138709657,
      0.6465812027448766, 1.2627798450874668, 0.8132918412712888,
      -0.6458656979339301, -0.21992133812249917, -1.2538414279780712,
      2.574594577522313, -0.6925754720137827, 1.5453631741041534,
      1.736131276481347, -1.2791196001962715, -1.2921509954077082,
      1.0994168838140665, 0.0756419538002545, -0.49398100276451795,
      -0.2972788397889515, 0.9430431596461174, -0.3559575145232643,
      1.44692694171179, -1.5766346242445861, 1.5120040025091481,
      -0.6058503004583183, -0.11992963426200717, -0.7548687872434988,
      -0.06788329519006686, 0.7670300309649782, 2.02303260071174
    ],
    [
      -0.9992513394740833, -1.266916970791659, 0.4955847242679515,
      -1.981164831169787, 0.029683506626118728, 0.44255985819561783,
      -0.07676693325735023, -0.3236574929057025, -0.37145070676460995,
      -1.6752553813331148, -0.017335023780030996, 2.2997173871626666,
      0.0436439933890524, 1.0894352925868174, 0.6844439507850807,
      1.1682858270718193, -1.6122229976990907, 0.16551275534947754,
      2.2603150470312574, -0.26612446072599644, -1.427529925176343,
      0.2633955341166407, -0.9048584341796437, 1.9508643976524263,
      -0.32503989537518085, -0.7020986030045143, 0.3558119459711415,
      -0.544929803124051, -0.6458889237611039, -2.5743967274815907,
      0.42295207944067575, 0.01458803150129803, -1.4729033937691858,
      0.7758748935445196, -0.35926874062321074, 0.40279333199252954,
      1.293967725653513, -0.00501600219543829, -0.41043139897303504,
      -0.20810098008514186, -1.2703781178716758, 0.04124025361465021,
      1.864892767004699, 0.6148332084506519, 0.6588120905290836,
      0.2953224278624906, 0.8164786988687406, 0.9779550888096532,
      2.1034843649127994, 1.1037844131571592, 0.05140758925349856,
      0.6874347700470231, 0.3469995345650759, -1.0826630508490838,
      1.677614571733012, -1.5104525373362283, 0.548880969807634,
      1.1668987938276496, -0.4805013483256562, 2.2435247364599906,
      -0.8910514097904398, -0.9489872825160914, -0.5288235774560499,
      -0.8234050475761205, 0.5616413540958092, -0.21934145999192753,
      1.2407729352206291, 0.809784581011752, 0.5623740450842635,
      0.8238218257365487, 1.865140661293718, -1.3957308506099255,
      0.21138566392426786, 1.4799659719342193, -0.04199165302347682,
      2.1567189825871744, -0.44930560900368893, -1.4059406394738967,
      1.8307011886458502, -0.6902776753041066, -1.1221373341384613,
      -0.19438390990892498, 1.2618847543129559, -0.017608344917742318,
      -0.30960549244971053, 0.561738578635768, -0.951447765716492,
      -0.16427265569543945, -0.15346051664500218, 1.3793983562304661,
      -0.5562170839130606, 0.8399336003027629, -1.1482737036385964,
      -0.6187170748168325, 2.1629117469647836, 1.4394796152254443,
      0.5325521874716462, 0.7047869592664245, -1.7096296705004437,
      -1.1431409879395928, 2.3775803731373926, -0.19674512649213785,
      0.38056945047633445, 3.35328806116149, -1.1920595517047654,
      -1.7019075066284528, 0.7535382485812745, -0.4486054385237256,
      1.9224976735436918, 0.7936867964416168, -0.9112976076023618,
      0.3408499467583594, -1.589652134401888, 0.08755808252629119,
      -1.9539071245081157, 1.588780685291024, 0.20459078446931137,
      -0.3156388355172126, -0.9380225152420155, 1.2044166141286012,
      -0.7127584239230078, 0.48365429747523736, -1.6858713094641786,
      0.8351162262838712, 2.319941499844006, 0.41702847857169895,
      0.2123926809711698, -1.1399789230969666, 0.40412632662004383,
      -0.17405096367935527, 0.5289033742778722, -0.3773480043755569,
      -0.5763524188149503, 0.8520306644927873, 1.2911520566802983,
      0.037960443853743794, -0.30782734385032506, -0.7589134859443667,
      -0.6566069783834209, 0.10637765789804762, 1.456686687966257,
      1.6759986997908485, 1.312273680279461, 1.6742626444943904,
      0.26682241705491055, -0.1609390739530156, -0.005747330887180172,
      -0.23730054807513365, 0.2995495882516899, -0.8413473157847163,
      0.35785216571340966, 0.5403267169688782, 0.4309063486255153,
      -0.19155175553032672, -0.8606975095597624, -1.9622071639673893,
      1.7525088146069068, 0.3409331199661229, -0.9231763533670341,
      0.709687183035234, -0.496367058506413, -0.5414079718613954,
      -0.684454156519407, -0.4550807166500909, -0.3387171069181465,
      0.4236456677613906, 0.4455499614823965, 1.0810257088717092,
      1.3003083433581155, 0.48345444960598233, 2.0379756352707306,
      0.11404848107402756, -1.375387083834004, -0.43974822119714974,
      0.9360546919990136, -0.6739015418301849, 0.3761468833430098,
      -1.6600295267660585, 0.5929396577962192, 1.048062383821922,
      -0.22753282340227537, 0.90125137469132, -1.3618367899986177,
      0.5706317565065666, 0.6827149309347773, -1.2289307999669699,
      3.115880449008902, -0.47510416207205175, 0.4850235517388616,
      -0.03518579741564434, -0.6761468278025836, 0.31143588016602364,
      0.11783350766106034, -0.09011826100704404, 2.8748137942596066,
      -0.8727372732295767, -0.6656812710610893, 0.3645568724310771,
      -0.17086762382727966, -0.09551368666832487, 0.44642471246703636,
      0.11092917509208126, 1.9336617117277275, -1.5003349416337861,
      -2.0202248203179214, -1.0608278014638053, -0.9157953082784728,
      1.1654421867403086, -0.5092237617499936, 1.0693142735927919,
      -0.1708280972913848, 0.19472778259290452, 0.03911386156124434,
      -0.7047803241123883, -0.28802224525448483, 0.9231662165709319,
      1.0245672649099558, -0.06128900651383328, 1.485152917518738,
      1.593789325051574, -0.443517837525463, -0.9825842710720719,
      -0.020172008994345608, 0.8172716468491691, -0.610737579508902,
      1.2547907151691629, -0.31424198650995094, -1.6130363687509044,
      -1.8876075364624154, -0.6310849134557415, -0.7897014227472952,
      1.2059925783899943, -1.8466263244045162, -0.6816554849169608,
      -0.8635323223577107, -1.2649240980451948, -0.05814350529558722,
      1.1816699099398011, 1.6285509594727934, 0.12919867504610866,
      1.4661446776833902, 0.5412897430555779, 0.16168829756697,
      -0.05134542027385475, -0.7574642399556057, 1.1593295931162642,
      -0.2302497097364084, -0.6504460624495646, -0.10958200584298565,
      -0.030412150173335453, -0.8351714690012321, -0.572219116409778,
      -2.5123660129723175, -1.8096216166777366, -0.4542180069860978,
      -0.7706321100956226, 0.768142666159426, 0.7343004831382256,
      -2.2961301666680436, -0.8241205200188734, 0.041185176599749594,
      -1.2406166708806454, -1.286176743777197, 0.5895401944530925,
      -0.313116578620497, 0.06376924682179666, -0.6969574902857254,
      -0.4412404303832407, 0.3528409664268834, 0.7161006048973886,
      -0.602550326730759, 0.6779486782130855, 0.7342190888279481,
      -0.6861624633583935, -1.4829553030539562, -0.9138894359960064,
      1.3539639805424648, 1.2004090962457004, 0.7622200138277879,
      -0.3558380300530258, -0.9852629006252844, -1.4182430466404485,
      0.9532256678223094, 0.6833245071794257, -0.5807567441817102,
      1.29723452787962, 0.14109235600211548, 0.9261401778107751,
      0.37783557105913085, 0.2692039049022864, -0.04668368154631864,
      1.9235993258898696, -0.19673821383130832, 1.057124791372764,
      -0.03394635959173302, 1.0334077502770673, 2.751778975741274,
      0.5287342562596953, 0.21548447063467768, 0.41474182057044806
    ],
    [
      0.6209505222746543, -1.5346220177967722, -1.0496854098635406,
      0.639747719515466, 1.8937563162250466, 1.177067066104039,
      0.7012489298236567, 2.1207022960779462, -0.6005920316751086,
      -0.9416852633639415, -0.9973166324099761, -0.07002480570884877,
      0.21028226538013334, -0.5765560458439154, -1.3314596902053988,
      1.7119595130342937, 0.08442307114857285, 1.4188311467133516,
      -1.4732469368631984, -0.7944785336312888, -1.2063493100228748,
      0.035792925657747235, -0.30588783263016345, 0.7106015901497535,
      0.28683708220477955, 1.9842637852688894, 0.10437308030454637,
      -1.1414248381904384, -1.1718706594245367, -1.6657423523202288,
      -0.89076468836098, -0.20251818720329476, -1.378929954101673,
      -0.6609207593973772, 0.20905079458251122, -0.7555869753316378,
      -0.5239611658946471, 0.6361543735587395, 0.6670882555557496,
      0.5934060821667639, -0.5949775032215703, 3.3978824974550994,
      -0.6368873757136949, -0.1999581014968899, 1.0590193095238793,
      -1.7509734025378187, 1.5265625319442642, -0.5012547885996453,
      1.44282784923544, -1.1725567249583615, 0.40014454174515246,
      0.3535791222868686, 0.1750239940853844, 0.6655651865066678,
      -2.0273440285848467, 0.14762594301911844, -0.6959977553626996,
      -3.3830522635611224, -0.24276857231725038, 0.5658962759522427,
      0.0015511795556479165, -0.027686670946976542, 1.29709456337819,
      -0.4549489762274004, -0.5998981820367594, 0.04862540855711998,
      -0.9603900547789752, 1.4785634453305805, 1.9729999338643602,
      1.1681543355336461, -1.1105656555952792, 0.2663859460781637,
      0.5479627785765009, -0.4910477129228081, 0.9318185650072834,
      -1.1535068673488624, 1.8217730455380285, -1.2083581116450495,
      0.8518144165721954, 0.17984641669073873, -1.956491882290395,
      -0.3127324525214716, -0.13146167945305368, 0.7634455422719095,
      -1.919743406794601, -0.3927451335265022, -1.7925545198899855,
      1.5720689475656635, -1.177535077729234, -0.38803780988821723,
      -0.31292607658515736, -1.6997034936951745, 1.0084974383658334,
      1.9517391445259147, -1.6392879445307549, 1.2863060733682563,
      -0.6152100826058489, 0.5729117871305689, -1.7235782745003354,
      0.30809696685090066, -1.476493677106838, -1.399428196149977,
      1.5339756566947504, -1.2209324170455924, 0.43870596878929197,
      0.7697328869045937, 2.1440405709049855, -1.8228069838196521,
      0.5391177038286162, -0.5484503488668377, 0.32520133146302205,
      -0.798101900101562, 0.4618143705221343, 1.5440322077552886,
      0.0411478932204795, 0.32912069979116465, -0.6909633282035024,
      0.6325364161924492, 0.2756599168856776, -0.6061527401043691,
      1.0498368552286312, -0.9300469017140836, 0.8121336558845139,
      1.36322643374536, 0.969821685266796, -1.234243453152997,
      -1.2008621532825576, 1.546052797698357, 1.1337217700862803,
      0.7684245548913434, 0.5366263185682589, 0.6079936315112031,
      -0.6973393296906274, 1.801752688898163, 0.3711979572697223,
      -0.0727129023604126, 0.0786313335589738, 1.0123642698228825,
      -0.32617960733306667, 0.7747068263565499, -1.0250939574837472,
      1.5659726582480127, 0.13665844377050182, -2.3648633434662156,
      -0.8735122018054126, -0.48169041761730336, 0.36243292735052995,
      -1.1120995391679938, 0.12914770647006363, -0.9139505951018729,
      -0.7171409808534723, -2.399940030650978, -1.9490882747238019,
      -0.6703272390749274, 0.3785105435378762, -1.2704370827807778,
      0.7688681420429389, 2.2180673317090696, 0.05150334111546303,
      -0.8502308153178563, -0.4358487342897381, 0.15060703655730037,
      -1.6756634161341135, -0.3127515324522829, 0.17298291164530272,
      0.953272414547328, 0.6365990245721308, 0.24751897037197315,
      -2.20856765556413, 0.5613702854267865, -0.26529127512318373,
      -0.8100720268098981, -0.2047263353406016, -0.2518980428255015,
      0.2350177241495806, -0.01863759760796371, 0.8742499994916532,
      0.1779331003373082, -1.8226594085908336, 1.1163844145236292,
      0.7566392249425955, -0.5081593704024643, 0.6872758174234279,
      -0.365346471322773, 2.043859655401899, -1.8122746729055894,
      0.4469988721405968, 0.6819742202387296, -1.5681278778876864,
      0.9862988688602355, 1.288624548974777, -1.3059218589075154,
      2.09605911523084, 0.23462675979575806, -1.114159751467445,
      -0.9518761051247685, -2.0919782211499207, 0.20662157687933289,
      1.7668769028716795, 2.074230440541508, 0.41179567133950035,
      -0.29169257943695137, -0.20681532772194391, -1.1283880008658929,
      1.4423787083531525, -0.1447392368655842, -1.5474433631482967,
      -0.04292347458591346, -0.5425266296333616, 0.37967529822858165,
      0.976183489582906, -0.6953834501518694, 0.9567998490951063,
      -0.062451326873608076, 0.35849861140280337, 0.7412625510152324,
      0.5616294791488765, 1.2503419907258178, -0.2545069781876426,
      -0.16028261350775186, 0.061941133919655, -0.8177714924834545,
      -0.25323544073444354, -0.9359094295112264, -0.6396971460443791,
      -0.5034199973404333, -0.5507076162752029, 0.04921556402129803,
      -0.6141647567950095, -0.09318232895121344, 0.3961769085444005,
      -0.3584025315594549, 1.8330458955464435, -0.8228737895339252,
      -0.7776302001487048, 0.08389706921019806, 1.0015127042929546,
      -0.7876001866088044, -0.3700682358351179, 0.6442827216886404,
      1.0631686973361536, 0.1874908921196497, -1.4150525589858107,
      0.3228258920536716, 0.5909809502611857, 2.5941221772616365,
      0.18912592735975586, 0.07433573177778532, -1.6096389812028071,
      0.8064262748304816, -0.941108435410113, 0.2348898058650591,
      0.22871187693377557, 0.25341827351025875, -0.09726645186781131,
      1.7840286154089942, 0.7341372614073839, -0.1779211384001886,
      -0.19434743878096755, -1.2389658464025435, -0.9272495899399068,
      2.2387145412828247, 1.0366330998404694, 1.5833907620035323,
      1.7525443313237712, -0.8892197296310925, -0.057083323218050215,
      -0.824518815209364, -0.6146407157610007, 0.4401901644422468,
      0.8922427438733939, -0.26635272246684916, -0.250976765670535,
      -1.1474938462135968, -1.1617995025097942, -0.28058144523778833,
      1.0697313603450653, -1.2529086094757407, -0.29249726977245305,
      0.6321866487318585, -0.23946131930639303, 1.607091845224026,
      -0.6207462152643444, 0.7545397171438238, 1.0538245462255305,
      -1.3204315610583728, 0.07401016003854759, -1.0634698153554125,
      1.0193268289528026, 0.520111751762039, 0.13580625496192775,
      -1.4549628435648785, 1.3391410775651815, -1.9278839530664578,
      -0.33210499250108877, -0.056621196903412496, 0.4222759346129925,
      -0.4987148702638846, -0.745004944149725, -2.1399097611157814
    ],
    [
      -0.6445028454823799, -0.35126255750685775, 1.0460215322678945,
      0.6656422301369832, 1.4466856625130586, -1.1718712869601222,
      -0.8144721547211247, 0.19870712416685365, 1.0990792383236507,
      1.552501959497638, -0.6707023597199276, -1.2543222763326405,
      -0.3917121355958921, 0.7582780265612197, -1.701395685218858,
      -0.7242204277767793, -0.2260438114385538, 0.9496188269004533,
      0.2935540612072001, 1.4009615809027973, -0.600114668571171,
      -0.9065973948711046, 0.20710505204319524, -0.11080852163758372,
      -0.7147057793323079, -1.9384301693638857, -0.4755317398364782,
      -1.93630586461087, -0.945898193529657, 0.0743565611658051,
      -1.0086584770743598, 0.11747334268485035, 2.28492023907574,
      0.14708502286961506, -0.7832889058577498, 0.7492973360302264,
      -0.35432521073043416, 1.4208597108882202, -0.44651222475659913,
      -1.187784479337062, 0.07191099481269335, -0.16234890911115785,
      -0.419732211685034, 1.5996545443056387, 1.5304833600584262,
      0.274716373589573, -0.09846032108039292, 0.6521140661848986,
      1.286883878585657, -0.055778321182734604, -1.0150588526403581,
      0.29646312937229635, 1.2843575228753996, 1.0031604762138338,
      -0.3379442465324428, 1.4067042676762782, -1.3853070366773619,
      0.0651997404240334, -0.49286232538624614, 2.00382808175962,
      0.06260045739516065, -1.458836693753726, 2.162853752359275,
      -0.1724158244037056, -0.7804995893160817, 1.4313992808743286,
      -0.03899865389352586, -0.519166057881206, 1.1683167769369944,
      -0.11072447090107272, 1.2533773494127618, 0.7880952690488742,
      0.5162807346995216, -1.7583458869549642, -0.4345682914174007,
      -1.3051701291370232, -1.1294854797233993, 1.8583238631482126,
      -0.23295139841959578, 0.41280250795527046, 0.7381972683774707,
      -0.396871168788821, -0.6881271560180573, 0.04886099185954956,
      -0.5054075377469771, 0.21531401892889804, -0.7147542301521612,
      -0.7088449586291482, -1.9623915453532377, 0.2691363330247875,
      -0.48743420902671347, -0.2922568918401207, 0.8148299772305686,
      0.1976185344283519, 0.5062346704691774, 0.30478798230012166,
      -0.6956251269704166, -1.398576917851515, 0.7947670293735388,
      -1.3296059852568431, -0.6205365600509118, 2.5178129095830917,
      0.6022158519694948, -0.38357457206680146, -2.127876726485969,
      -1.1183851670217386, -0.47355096935555735, 0.39070228427353626,
      -0.17744126393673407, -0.3449408685917607, 0.34385941019339417,
      0.8425874237012277, 0.6903078911953268, 0.0929720569511559,
      0.5998979164471577, -0.28637047746580807, -0.05196802674379558,
      1.0240855902721273, 1.4725780317212667, -0.22163413677168034,
      0.4372621298894178, -0.586901425144329, 1.7940061790124506,
      -0.046547706542124166, -0.5349150905246277, -0.48973682386739303,
      -1.6623608064352298, 1.2157738590209115, 0.0840055738841344,
      -0.05325063904344405, 0.7657393578756266, -0.03764707865444227,
      -0.9091171386848962, 1.2338855272839353, 0.4822969888884647,
      0.03566586837345531, 1.5351918801854443, -2.0871854360647135,
      1.7244909110974862, -0.24568387758494317, 0.23055799286753395,
      0.24201499959771225, -2.0069559541423656, 0.10179450920229538,
      2.0979811141938547, 0.607551914150065, 1.001384778852033,
      -0.11007968812623853, 0.08225019423452211, 0.5970993159522883,
      0.44715767547200275, -0.8895949400207647, 1.213154199612824,
      -0.6068181472750073, 0.7533877036350428, 1.1439312838334372,
      0.12537880692943404, -1.713320231631695, 2.498088540084367,
      -0.19432018893530237, -1.4387301145836768, -2.40915161902173,
      2.5091463458240426, 0.022204848287737746, -0.06274408436124851,
      -0.8455020107689537, -0.398600358404585, -0.4633793794470075,
      0.9176821055920853, 0.44313112330209337, -0.8903596170130181,
      0.3166414932789515, -0.33137763978844204, 0.5327505846317557,
      1.0907523794814091, 0.04600974263031299, 1.3856642154559022,
      -0.17915591006605386, 0.6698094381586841, 0.4722576079194628,
      -0.9069464211471846, -0.2904809468099012, 0.37568173434756386,
      0.07969843091145483, -0.3073212791597208, -0.1437129228387458,
      -2.947844443391181, -1.102220420712142, 0.7278854565784623,
      -0.6804015737773502, -0.21679000051306208, -0.4951201898116619,
      0.3304029243941985, 1.67217898038289, 0.17042894040385087,
      -0.13781113818680105, -2.510423679714426, 0.9626043642669445,
      0.6525812964389907, 1.2422532635890684, -1.3401062105291262,
      -0.4413324120009152, -2.113937639012371, -0.7159893675717157,
      -0.7450433865620036, 1.8487526100956024, -0.6957559004787546,
      -0.9857483088070108, 1.6874623428721127, 0.655765489347367,
      -0.208260080143169, -0.13774008023729237, 0.8917487041703874,
      1.7692836748786531, 0.5063124219511503, 0.25871694178863636,
      -0.5085055800760139, 0.9578197700026192, -1.195515028576037,
      -1.8653242444532818, 0.9693403422859848, 0.29553302988400476,
      0.21858967138824031, -0.5445500697442667, 0.38344870820907706,
      -1.0687405012610307, 1.880488166405306, -1.310711925298503,
      -1.0628897025563966, 1.1564015410896968, -0.9232534609666601,
      -0.7234060730757901, 0.893619396747851, 0.4248523605126094,
      -0.4550502149926887, -1.3765159589372729, 1.4801866107040385,
      -0.323499282978326, 1.4301812167210164, -0.7909843913453143,
      0.3265691313908079, 1.6004023559344416, -0.6768699319742713,
      0.5528064831879963, 1.3693643211131958, 1.3777206827461743,
      0.38946044556751264, 0.49484500895240124, -0.021585152559794058,
      -0.06492910821872237, 3.1123439919385265, -1.3624601754622212,
      -0.5232510576864451, 0.8167553020547376, -0.24279665127562633,
      0.744912184543549, -0.15212922933943784, 1.0952198706493772,
      -0.5562252717195959, 0.385597727486466, -0.5636647016152717,
      1.055513625352583, 1.4430307441903054, 0.1867155133838915,
      -1.0571743332528813, 0.16228360064008748, 0.6805579973636057,
      0.02595387492840058, -0.07389477355256584, 0.23067107183111457,
      0.13200217818555132, 0.7247907754565184, -0.6676325873872491,
      -0.9197203990234825, -0.4576911329376879, -0.03679989986279043,
      -0.9814813556914154, 1.371356890792508, -0.9276078516899572,
      -0.9476160707356565, -0.08585896511513096, 1.0764296508894178,
      -0.017313957673943135, 1.229381236354368, 0.14285448321122426,
      -0.5425971493334527, -2.2668310343992846, 0.5814061527722731,
      -2.634270773415383, -0.67563100030426, -0.7006095139521328,
      0.6150818775011316, 1.0589680615870267, -1.5719234825331054,
      -2.8417447325373857, 0.9990493150606913, 0.3379171240568818,
      -1.1404934790871384, -1.074975497669941, 0.8178633568293308
    ],
    [
      0.0854027080210758, -1.5958076362007652, -0.7896169894367898,
      0.2060169030025279, -1.4011040531457413, 0.8541720313122736,
      -1.8527533127006346, -1.6952632964911107, 0.037182380782572064,
      0.4545925717198711, -0.8063129115486477, -0.5333935588128051,
      0.4398754611517103, 0.7007731974540081, -1.4058060595524966,
      -0.7230153265903557, 1.3053621780062659, -1.0654943477804704,
      -2.3364011294225517, 0.28033795920226784, -0.6028223208999174,
      -3.169557756749862, -0.05297240085113887, 0.5789843281622223,
      -0.7572388932571913, 0.3139838085600383, 1.8612871345163158,
      -1.926838031071806, 0.07418938792807678, -0.5479665912879659,
      0.6789462429451258, -0.10092888821131889, -1.1632410585623894,
      0.9726775081136737, -1.3903272708428565, 0.6010852313938279,
      0.09035001766798563, -1.3897888302288008, 1.0353016766667276,
      -0.0814460535321344, 0.0875686452634996, 1.8541002037723324,
      -0.9582583988880269, -1.8842161372887, -0.35306280672825596,
      -0.678287858560011, 0.12776732735837235, 0.44008721905959197,
      -0.49332195862252826, -1.1202256013306437, -0.9174063387057084,
      0.6745057043083258, 0.39311160814444146, -0.31588414412475524,
      0.2773273741029929, 0.08355872417612892, -0.23950325779991874,
      -0.9908985703489065, -0.880623328914045, 1.197980746420311,
      1.756075684569036, 1.2709964853879336, 1.0465048484434303,
      -1.480199376774979, 0.6710026236392703, 0.23033888646232278,
      1.0296092891306132, 0.9968310108018049, -1.7251534511353306,
      0.3488233925609621, 0.3351697153170336, -0.11133298623376968,
      0.2183693551430742, 2.9911270286676594, 1.581620367598595,
      -0.5463186513347118, 2.2350355707532263, 0.4597388076670272,
      1.5070300690973628, -0.012976703376383424, -2.2910282673919604,
      -0.506189442809156, -1.243405907681199, -0.4002787587483124,
      -0.45554835495304175, 0.08678255498462789, 1.0026581951827374,
      -0.0009380606299372353, 2.147694538942124, 0.07433926519424146,
      1.5398792786888862, 2.5187706264738385, -0.3056110687825075,
      0.22274846947201865, -1.047341256801719, 1.5777529648021034,
      0.2761847632308778, 0.1460947302009473, -0.1469283792347885,
      0.46443396019099076, 0.40936456298305607, -0.39707867708800954,
      0.8172793114361014, 0.8002392525707736, -0.007124556689202199,
      -1.9658888867630246, 0.9550518131440854, -1.8845761098665061,
      -0.2975176631152548, 0.18187728998857694, 0.8300377658752476,
      -0.12043097164346499, 0.4271258533005583, -0.3977913901696278,
      0.9647413658213577, 0.7616747591207679, 0.02120757671586756,
      0.49342841801684056, 0.506444828466792, -0.15825821040640456,
      1.4058719740419514, -0.9425429838648969, 0.3903780055669735,
      -0.3755012428571024, 0.23375851261894293, 1.1615483062897922,
      -0.17428729115884853, 1.7479325844945313, 1.3446488151331886,
      -0.17965998020975965, 1.936454982215174, 0.6307867275418285,
      -1.5923887650746282, -0.36752694448362305, -0.17211962411480228,
      0.5999177726615925, 0.2104189018287587, -1.135600692744661,
      -0.17936647625205304, 0.11757505641769268, -0.28984430488463314,
      -0.4210512206763666, -0.4543519977344108, 2.2732736218648344,
      0.21832113506365636, -1.1182003382954295, 0.961775536146129,
      -0.6708356625915181, -0.8373071064021352, 1.348513222083648,
      -1.5550076701574003, -1.4688337179749518, -0.29154566690026423,
      -0.2416384405858458, 0.7833523725732925, 2.0180526252507374,
      0.2850392064166981, -0.7162537846285731, -0.1712111796926781,
      0.9397805660714796, -0.3939638085150851, -0.9340151881044593,
      -1.561920545829412, 0.6451219306001741, 0.8701606525420217,
      -1.662485212241388, -0.37919654577019235, 0.8615603510684325,
      -1.2914464041878253, 0.024464803010748486, -0.4804540712213725,
      0.30759418012734024, -1.8435705454370899, -0.37840795182293746,
      -0.47976674597234514, 0.5171079702225353, 0.5298737589622755,
      -0.25015188124209586, 0.49605152039397316, 1.2500093098309257,
      -1.3510959766672728, -0.29374863473805696, 1.8114984751220606,
      -0.11869072737526339, -1.23486735977662, -1.9646041993068382,
      0.2789125800966298, -0.7751395949011349, 0.3591529113271892,
      0.665335278630695, 0.3242295988606309, -0.7350985919530463,
      -0.3764881145856213, 0.4614683493240257, 0.15562862138945877,
      0.9817337417660839, 1.139342769094443, -1.6048962752774194,
      0.27901418184161464, 0.7017363971472385, 0.6142726789625835,
      1.24616142180271, 2.412392507449039, 0.6066914637768268,
      0.5994128461831899, 0.5180245367592948, 1.1524359885694508,
      -0.12733068861637684, 0.7360797993723665, 0.03843471593373996,
      -0.9859910487473185, 0.9590063759229579, 0.42466170727089747,
      1.2061219552069165, 1.0966572585303271, 0.5174077774964553,
      0.7127654319519755, 1.3868147156492885, 1.6882068216607622,
      -1.1897403631673635, 0.21889978189563117, -1.7653894541056918,
      0.10729161408624587, 0.6508752662888857, -0.1435859138950039,
      -0.02268964994587325, -0.575626227822501, 0.8344668861565803,
      0.5004626278452887, 0.9677284557946121, -1.1231817216220423,
      0.01044772106876471, 0.8936810709377188, -0.908108023230948,
      1.3637567738789882, 0.5295432263185559, 1.7704963294659297,
      0.10796772162776994, -0.36950833412541245, 0.13513121332181816,
      3.129027229265415, 0.6599786973318265, 0.21303170871500096,
      1.6172824675677258, 1.7350540644773034, 1.2699047269358463,
      -0.09372471271558568, -0.15622211174380585, 0.049432579833803995,
      0.8076985738283651, 0.8497799103905831, 0.7219042179165074,
      -1.7724351282147572, 0.9085609767936531, 0.941514461793217,
      -0.1610843377024741, -1.2588330845951048, -0.03735612704823927,
      0.19150792256259966, 0.24607830672220754, 1.1064659794512044,
      0.04080564475697701, 0.30838668041467326, -0.9444554102989718,
      0.2800002028266766, 0.6855871196963158, -0.10382802974464901,
      1.9303719882541448, -0.5030516793731329, 0.8311964075599245,
      -0.09578102274420888, -0.034399844715432136, 0.3611233490796983,
      0.3846592636147334, -0.5930175219852861, -1.0614532324139274,
      0.36495647482587507, 0.0618922804795962, 1.9000595192109202,
      -0.38002083677755666, -0.08830482205070951, 0.33624904987059295,
      -1.039394968020004, 0.9146908562209117, -1.3128798903843246,
      -0.8156531593966282, -1.0083844138731892, -1.4628367400089013,
      0.5937768107914743, -1.0393959642370014, -0.5253448056112685,
      -0.302614061680274, 1.1583591055972196, 1.8240278287327762,
      0.5796253732171002, 0.6418756993309772, -1.001664163024266,
      -0.8200122317934398, 0.29354033487257936, 0.33827731537050154
    ],
    [
      -0.16971120454747643, 0.3934459004019047, 0.8878854472660138,
      0.9568299230808696, -0.060570475266550586, 0.14074271656831394,
      0.11834476820361349, -0.24274855798353567, -0.22513858997793382,
      1.1215447131142484, 1.5861551598720074, 0.6099558144427895,
      2.4594513980157506, -0.6710592019186252, -0.9724073915943984,
      0.921279753656069, 0.3411028486036539, -1.2900920979844273,
      0.7058523074192518, 1.2092301198492077, 0.7320000797450148,
      -0.037626690568167365, 0.9284467613156624, 1.027436596861454,
      0.5459414850596133, 1.3833784017463562, 2.0865521701493654,
      0.1454810308069002, -1.5126732856705014, 0.5184179103699202,
      -1.2483932089418812, -0.33009448174529704, -0.24721833201134144,
      -0.28071153087159695, 0.37156512279258064, -1.940721675477011,
      -0.24481280177302037, -0.4620532995373773, -1.0848757345534799,
      -0.5712327367459753, 0.7213302596872172, 1.2508942644914487,
      0.6914992670588122, -1.545208709532094, 0.5330670464106338,
      0.5661842839084001, -0.11738764285653011, 0.8100588163303214,
      0.9709213657417163, -0.19022354048322726, -0.21141434951118504,
      -0.5467433714963041, -1.1693226777127406, -0.22036617563498379,
      -0.4057002459691816, -1.2721155409451295, 0.7828402439402176,
      -1.5054214868557731, -0.07640078043806925, -0.03611840179825689,
      0.9737152906780051, 1.8454061023416835, 1.1361029032079857,
      -0.1395532339142485, 0.5478488735499405, -0.11023059638460485,
      0.4957913448607196, 1.5501631400797529, 0.141460256065222,
      -0.34512197965758973, -1.1395996213949846, -0.3146974194953738,
      1.1321627849382645, -0.546753896421467, 1.8102568427460368,
      -1.6097025615616352, 1.7368295885105491, 1.0725420948961195,
      0.09743954742599559, 1.3877982807587148, 1.3842195455255184,
      3.357752884873231, 0.793017391487162, -0.28310889843609466,
      -0.5350396103084807, -0.45545430220881367, 0.3143293643049353,
      0.30424788207174264, 0.11550277493424999, 2.1065271287588714,
      1.2649066377888822, -0.9879732688580998, -1.6476896500541913,
      1.2081589457549673, 0.0419462491713869, 1.847993430502634,
      0.49136284435735766, -1.0896844086148856, -0.7876484366377807,
      -0.021712219073411067, -1.0152615204693127, -0.4818323957495692,
      1.0841209717553395, -0.046418257823612516, -2.3253152224466733,
      0.5288525352315884, 0.098050778229498, 0.7091349536848008,
      -0.1481375493824, -0.436076660677691, 0.3319602749444486,
      0.3162916820412344, -0.2807439143514282, 0.3870745409254862,
      0.3415512142358456, -0.3462438920724872, -1.5269850113214396,
      0.4248609712411426, 0.5218451148392556, 1.1721143896194752,
      -0.19843849067610259, -0.020475713980821993, 2.058100395775249,
      0.028469826455912232, 0.4337619920516939, 0.06851983385425872,
      -1.2655682161229571, -0.5205562287569466, 0.036098480260988816,
      0.3362317014723811, -1.855753764313176, 1.4592954260134383,
      -1.6568682286575704, 1.0762345796351738, -0.1925339325012795,
      -0.5791198934309976, -0.45129829605436794, -0.9247660504186845,
      0.17502326856044106, 0.49685345321632246, -0.7924721972407832,
      0.20555834650962865, 0.40803184145617044, -1.9844261699925367,
      0.28075591017282603, -1.166903660054593, -0.5844125816251302,
      -1.1239414447288414, 0.47553878892711815, 0.71045198736848,
      0.8523707306032965, -1.284478870555523, -0.11885576670965477,
      2.273500455519159, 0.41421415757228736, 1.049616425494579,
      -1.0609616368508465, 0.18402635863408787, -0.0346106656092429,
      0.8618659031586338, 0.2193843777497229, 0.9643446526938931,
      -1.6496958583833756, -1.0020349289419272, -0.12816548798291139,
      0.2003156438661038, -1.9381202512934759, -0.6588585419224571,
      -0.09727300404122133, 0.7775635093824447, 0.6890356291161862,
      -1.6247875253422628, 0.1937687767867618, 0.4488126017834996,
      0.17163731495382242, -1.5863325189895716, -0.3915510526291694,
      1.3084135837324908, 1.0611792123085437, -0.9703823316194897,
      -0.6443594593781647, -1.7909064093278242, -1.0000052994313955,
      0.7018153994150482, 0.990404190510837, -0.9041673947878535,
      0.19621582315280606, -0.8259012153232039, -0.2976370537967033,
      -0.7644271340642703, -0.4488185786307596, -0.46830401806703753,
      -0.6058549376271914, 0.6833842196345296, 0.5394206501035543,
      -0.8667172935365354, -2.031051809071606, 0.00731526282502441,
      1.981306482458161, -0.5864506235511034, -0.6800361662556877,
      -0.9865303920524154, -1.9570557674638653, 1.1393708267366345,
      -0.32151369893421716, 0.48220891835473373, 0.7413482217002592,
      -1.1465323690824916, 0.3122330080906815, -0.47744719852378004,
      -0.24764697085042667, 0.6521095384429135, -1.6610994135898978,
      1.8068591358836708, 1.228303026432873, 0.923652315475213,
      0.9341028293362001, 1.4896742348582659, -0.20134655471903998,
      -0.8139231465959131, 0.7598259272463241, 1.2491526730528912,
      0.6614345960408227, -0.4632072594280928, 0.7474272866636626,
      0.23744007850966722, 0.4107247162984231, 1.3125016923954487,
      -0.15758804727990486, 0.3102628085949873, -0.2625476640928506,
      2.439508518011359, -0.6277472644222695, 0.9196935311576641,
      -0.6967545637983675, 1.2717692094881963, 0.7404035019400085,
      -0.7745155000155493, -0.1091286045434611, -1.9842243673061475,
      -0.5300700965338387, 1.6332368057705668, 0.8145054454659996,
      0.8071435305794342, -0.926699127927654, 0.3635473725735546,
      0.12553665129969208, -0.44164706582312596, -1.4489347622616786,
      -0.8156065801405694, 0.4286822338391894, -1.3452911654821904,
      0.309610816184938, -0.4803658435976808, 0.20363920130116214,
      0.00864152330201876, -0.43734072647131106, 0.5399029035446002,
      -0.5315886920954023, 0.19227838010220502, -0.05157297219824101,
      -1.2916357297303918, -0.4031731175222641, 1.2368272036804606,
      0.4725108643457173, 1.2799522993079469, -2.16939428629417,
      0.47286771423765944, 3.1993753742193882, 0.6273179569345898,
      1.0875021175859898, -0.3058891792065486, 1.9009658561277032,
      0.14207082567561097, 0.6840505418435722, -0.2653916945059326,
      0.11209976024062215, -1.1128303437234863, -2.2080832694861297,
      0.38763890573176496, 0.22670565740865384, -0.4182436007520778,
      1.2999885035331478, -1.3456837303286298, 0.15338979986029716,
      -0.8094491618697074, -0.1976038487851592, -0.5588052283937441,
      0.5752181879978354, -0.021350683464473007, 0.24045812590443374,
      -1.9859197790730385, 1.1412061234577238, -0.2708996377030994,
      -0.9622735263070352, -0.509505706639242, -0.08720045050186769,
      1.3325727784192192, -0.6835410257745584, -1.1825080151323404
    ],
    [
      -0.6008277270771567, 1.0905525266272895, -0.45406837389519306,
      -0.03177801349424347, 0.6263306588185769, 0.8301672469520152,
      0.5662815574861968, 0.23961944488207607, -0.6461793150628047,
      -0.3202846324247413, -0.02744114979656819, 0.5110644836186086,
      -0.44285187880632315, -1.1870268386656833, -0.05499250920808589,
      1.7023214691959767, 0.157660921507394, 0.37589507480162315,
      0.14818021664076372, -0.47350540154776327, 0.9209917152173571,
      -0.326641850005636, -0.050288109845177384, 0.5167252697203014,
      -1.2508887933852686, -0.5716885550985807, 0.013810623484659673,
      -0.34758589481427526, -0.3369736080500693, 1.7637910991331578,
      -0.06275794953218403, -1.3646815356045414, -0.7221044872285243,
      0.39206069423301343, -1.4515875093252795, -0.4319871118676148,
      -1.2769632321085442, -0.3532024334658687, -0.8176417522062863,
      -0.22991950387320562, -2.008231896584486, 0.035589471167268266,
      -0.750022686305576, -0.6700189466869959, 0.13607286269429839,
      0.6809672806605138, -0.9524764987085803, 2.2477144257868225,
      -0.13419646038901137, -0.5291443693171668, 0.005360441875727677,
      0.6641598183066556, 0.0838177736612422, -0.27338146029167915,
      1.6290698679596096, 2.0728636130893694, 1.6837467643668498,
      -1.22228252626349, 1.7042355994525782, 0.9748911810412209,
      -1.2576892610819967, -0.22169148214331816, 0.3047037670596885,
      -1.6596801354531774, 0.3943613356863491, 0.6505537114521783,
      2.088678062895125, 0.6326137434554049, 0.38630202155927384,
      0.05138686547803296, 0.34233558215275345, 0.5971405640820613,
      -1.1964164366449865, -0.19726519050722188, -0.8355842671078952,
      -1.4853562717236553, 0.38825416167448934, 1.0461818381619843,
      0.6981501827378574, -0.6463464106116946, -0.11625546221429923,
      1.737514623324893, -1.389638436779828, -0.9393707823914041,
      0.8264230693495758, -1.0794797577722455, 0.44642792687119814,
      0.33684358189172725, 0.10235036600389377, 0.0014835228088886671,
      2.062524815243837, -0.39061501602949594, -2.218762887975694,
      1.285648858790789, -1.2245149498883863, -0.8833953989632726,
      -0.16996732070770007, -0.4529558724841844, 0.043447972701894204,
      -0.09509755440929187, 0.49958098226437275, -0.06280262286409885,
      0.3778350591373948, 2.62611303926035, 0.2282087058387591,
      -0.4451389547874111, 0.7314489562208412, -0.6817791477613305,
      1.262124394032462, -0.8623615001969845, 1.4197489316038465,
      0.5294030673884965, 0.9709135196171669, -1.4907711204804954,
      1.5423154767587433, -0.513233283350368, 0.5163505994043176,
      2.0168480059007843, 0.19605230621190559, -1.3895437457520055,
      0.3862782354545329, 1.0839248491461084, -0.43024784405896543,
      1.5051925765381204, 0.07903989146137022, -1.1959927198743168,
      0.5759724329742815, -1.541469919403854, 1.3527437069636572,
      0.08889995676575754, -0.4636613778967502, -1.0556063733327898,
      0.6579096060486641, 1.7999432714409331, -1.7247901364757938,
      -0.8549223855906056, -0.37584044564947133, 0.6108060548506103,
      -0.19808908770600922, 0.8501489197721229, -0.8227000730639704,
      -0.9007156920245817, -0.7598622151316289, 0.11916182121667768,
      0.09802369615855928, 0.04134524247910196, 1.001261202185099,
      -0.9462424395673115, -0.016800760517276962, 1.3496013968429377,
      0.03907298397177701, -2.3396347866639022, 1.2460358280677504,
      0.9227011209519603, 2.167904436969605, 0.4657805152932131,
      2.5253194384939657, -0.5329220107236253, 0.6662075526345526,
      -0.23620275987217426, -0.3554523436674939, -0.22692075776729298,
      0.7970340921928678, 0.5032804989272969, -2.566405523527011,
      1.7303797347182521, 0.5970215990093471, 1.6255547078140364,
      -0.1697152038281077, -1.1335167703287268, -0.34747162090402917,
      0.3609400800852309, -0.9571190167688175, -0.6491358218821438,
      -0.33953710505057294, -1.1278752345429919, -0.9969260814014779,
      -1.1530123837524375, -0.986796190712422, -0.8837167074225467,
      0.4191694264412148, -0.6530513326058388, -0.32927627664876913,
      -0.577561968996936, 1.6361968099792887, 0.5070109211714893,
      -0.22299372717238336, 0.8637943331913615, 1.0778512981510682,
      -1.1530124985205954, -1.0952001390274417, -0.4893644979638645,
      1.3205089849772798, 0.3504472869466494, -1.0192918473940051,
      -0.1356439118373505, -1.237810871194538, 0.6301972498129138,
      0.23687670558192397, 0.5910866995723035, 0.9103201906304271,
      0.9927056424614091, -0.3387120888977316, 1.8443278860133339,
      -0.4210027218584888, 1.680260617044874, -0.6116617176665018,
      0.0909883401806778, -0.05448521548742808, 0.6146798571214285,
      2.0175145159881507, 1.1079123273117073, 0.8655735684048683,
      -0.5975802719017729, 1.802006485439938, 0.8256593764521355,
      1.273388799623462, 0.8690496797142894, -0.058133347074788656,
      0.4125238874247173, -0.018420265960123482, 0.9514329663556229,
      -0.7717478969976891, 1.0793789526038535, -1.1952803307463593,
      -1.8087007143828957, -0.7188548646468542, -0.7613248882953442,
      -1.5601208456750468, 0.3587169838162988, -0.3724914022293868,
      1.6413459587017352, 0.9578654434148913, -0.7696885209598504,
      0.37713393937178236, 2.008103979666332, -0.5592350973149455,
      -0.32021760334757327, -0.8540561780234928, -0.708646955524207,
      -0.4386084757841893, 0.7264378361421635, 0.4972737629154117,
      -0.49644728718838294, 0.5686752009826918, -0.8648153434913086,
      -0.9281020536170774, -1.9510198785699187, 0.7296782741906537,
      0.7702637746764707, 1.576055282306712, -0.3457060917563964,
      0.5177603465442945, -0.4726719002438867, -0.30426826361133613,
      1.1629611375760227, 0.5711161036799433, 0.1958747951103651,
      -1.0655284649145955, 1.0517532446505022, 0.7969133082260487,
      2.7840420449746284, -1.1036362360485825, 1.232601162912091,
      -0.07934142995913163, -1.3587788782442718, 0.9239518133642456,
      -0.8032862457605799, -1.6843506753051753, -0.9670233214069037,
      -0.6472837483386977, 0.5376781329033216, -0.4509975400969364,
      1.0976123640188489, 0.4132849648468931, -0.4796184095920554,
      -0.8288916982840678, -0.5106788213396842, 0.19639614148402235,
      -0.9044390704823687, -0.4168902542428972, -2.1037989408566586,
      1.0616787471076068, 1.0984316879002032, -0.8242143926813227,
      0.2703561315291163, 0.616019722688106, -1.9049504490891245,
      -0.1455377991034963, 0.11040629998463138, 1.843784149949465,
      0.4395499768925296, 0.08677809165864438, -1.1243309386943587,
      -0.7983298497228279, -1.9238913829961888, 1.980106050375364,
      -1.4390230039439444, 1.1220355190455116, 0.39922462886991966
    ],
    [
      0.3833254827068871, 0.6964937028519138, -0.8331394168727108,
      0.6830516307751838, -0.18059582008834468, 2.654917197772399,
      0.7855097895320164, -1.359109062377945, -1.2805873443619709,
      -0.45198473174627524, 0.9304055440071912, -0.42393710138876617,
      0.17506852617631555, 0.33793017694546235, -0.9299073671141973,
      0.07059484096865148, 0.22070839060622444, -1.236192774550277,
      -0.5084445819314958, 0.017064446386462383, 0.2855453516479966,
      0.7140858251202952, 0.2624772609358744, -0.6576872569738362,
      0.7925904553647493, -1.1191502151616317, 0.04045471719820416,
      -0.8509419372239135, -0.799211509499745, 0.8083078642993807,
      1.171901250279405, 1.1846361519195734, 1.5647790840270712,
      0.9922508212344011, -0.8572766141553564, -0.31109975060954365,
      1.70391494987817, 0.3004646023087958, -0.44495257482413014,
      -0.41360912582691994, 0.14987889986179695, 0.8996999230570678,
      0.2898697641674031, 1.3322186255422634, 0.1384987720018628,
      0.23396149843515207, 0.2803294060366346, 0.17289759890742398,
      0.13810389310529078, 0.7893940029433715, -0.3566763872057988,
      0.642492466464542, -0.4143386864972934, 1.3914446974123629,
      1.3735409230160116, -0.9970360227896852, 1.3681640503444168,
      -1.1849555114700256, -0.5745622380598333, -0.659069169360196,
      0.9877122529168604, 2.4639477048825777, -1.270491990952407,
      -0.08256551956638286, 0.5115481817736771, 1.1522927546282802,
      -0.4714465639555669, 1.6969027523184532, -0.30846108385730947,
      -0.6322218746782745, -1.4682722370854293, -0.80250762518236,
      0.05471400528566516, -1.303095295365878, 1.5231687714708935,
      -1.3798982107690867, -0.8472415228898699, -1.4641263527155453,
      -1.207261066342839, -1.3323409101730628, 1.487625073857721,
      0.026360752905702646, -0.04857770256882367, -1.3621030337113778,
      0.8924676230613826, -0.8602376007839656, -0.09109002452462045,
      -0.2891728220748301, -1.5373597538890145, 0.22743887128905305,
      1.922902256014699, -0.7048051711867193, 0.12041068232862627,
      0.1644198661451752, -0.9537418113561231, -0.42290755292567617,
      0.21783952898236264, 1.832749630646114, 0.6472104317303401,
      -0.12394736718365812, -0.029386395815747094, 0.9733532322496575,
      1.1954124629699898, -0.2423106370828586, -0.2180457840582555,
      0.39547789069441697, 1.7526881449435343, -0.3665134165689154,
      -1.7318337424941672, -1.1739957533425907, -1.0610602313884496,
      0.55666976818449, 0.856438111109146, 1.7389529409727171,
      -0.9190304366640363, -1.2802465772320926, 0.04253487201680063,
      -0.043570039001148, -0.39287719693621487, -0.12242509053635331,
      -0.48205041538461346, -1.727649054787056, 0.3477019012575954,
      1.6167565254752574, 1.6996807701533192, -0.9657795060190162,
      -0.30866438300144383, -1.694336293364926, -2.2383797568296604,
      1.3375338884658001, -0.45845493276961113, -0.057527065586586684,
      -0.26313766126148586, -0.30116923003817503, -1.515495772848602,
      0.16690149015774958, -0.17128911405080685, -0.03631184032484718,
      -0.5998987589951443, -0.37631497778714845, 0.9847133075581094,
      -0.008710281229687929, 2.290319613577621, 0.07419642812883667,
      2.149606246204214, 1.3559004396474499, 0.1411508759710214,
      -0.9505633240510198, 0.3275417787864071, 1.0558229830352872,
      -0.3491188784508896, 0.7974523538564183, -0.9991742315391281,
      1.7784273299665319, -2.1114445882058415, -0.3606350093838306,
      -0.7396598835325704, -1.4542031341240895, 1.5102115434450774,
      -0.9064660130118647, 0.7837177248451104, 0.12138486185470744,
      -0.08620104757779151, -0.5983136211067582, -1.207223363757126,
      -0.001906995696747387, -0.05532622012156988, 0.5081179657905337,
      0.8159100210282277, -2.062764078707834, 0.5020259407674568,
      -2.2625770894196475, 0.1673225140078004, -0.7231551864555146,
      0.8571170550824726, -0.22086020354907326, -0.9224227293475135,
      0.5004477856801847, -0.7514769140302965, 0.561938399102095,
      1.8576557952750936, 0.2556732220406624, -0.9767437683263489,
      -0.9160636094054159, 1.4228591969319346, -0.7629313830125264,
      0.7803260789028957, 1.2300082521610438, -1.1788882010230695,
      -0.6542219436211891, -0.6617892318313126, -0.5681750093785904,
      0.11397642439151633, 0.5347368588666294, -0.2843909958497929,
      0.47826638170066255, 1.745683167200606, 2.366231301849158,
      0.4735830791306147, 0.13144693017142794, -0.04852379167772366,
      0.4154546761548753, -1.0255657593643792, 0.03682664196634632,
      -1.3906292932258713, -0.42357552208072846, 0.3676247240642271,
      0.38111973221785284, -0.11106271386034673, -0.47621695429062033,
      0.5720093179341087, -2.4028942390454304, -0.09028314147182528,
      0.6062094126615489, 0.5081413387850809, 0.8481694278823263,
      0.31221740047980573, 1.6787964157178767, -3.5806255749505436,
      -0.40188385509260127, -2.1867386068565318, -0.1799130491341273,
      1.7737154582531436, -0.8553153299892193, 0.7672225108395326,
      1.7878547973242447, 0.873172448117058, 0.9215509093294632,
      0.4349829578289091, 1.6009208745072627, 0.2647935679037183,
      2.2076880481542798, 0.7173084621448665, -0.4295107321996131,
      -0.7880284646740547, -0.3103121434480447, 0.7011085901525789,
      0.8421737294159325, -0.7428426779321915, -0.629888976269861,
      -0.2056733128918333, -1.4764300412804436, 0.5102081502237701,
      -0.8693143832798049, -0.8465817061871718, -1.0926805267659498,
      1.6119470705944812, 0.8812196826945924, -0.6448574255894105,
      1.354103687382164, 0.43366023607440063, 0.005440162479993285,
      -1.3434029857019647, 2.1390262283754584, 0.7160974674022148,
      1.8156812467558068, 1.0572940401093411, 0.837823298140299,
      -0.07190794908049232, 0.3384574315003726, 1.848324376990577,
      0.3837283296196617, -0.7488834322699753, -1.2994316623547513,
      -0.8605883326345423, 0.3212000204152532, -0.9822835547554954,
      0.916711759608287, -0.501315796724549, -1.1569728034664188,
      -1.209774036536233, -1.446058295016034, 0.3998187416460373,
      0.7821482250543119, 0.3958719996174789, 1.3624563157611913,
      0.4234684149237087, -0.6117755644832413, -0.8195000387450523,
      0.14347501549542022, 1.2779103519946249, -1.2254873305359222,
      -0.2880550658775038, -0.438643963639623, 2.0365346993755495,
      -0.9570374494553471, 0.3261696808145624, -1.2442599539254577,
      0.6817539936517113, -0.28055719764116277, -1.7730374160957747,
      -0.9029848336204406, -2.019053690195445, 0.7930191769887304,
      -1.5911513926807932, -1.0611262158850263, -0.14736880764363958,
      1.2279217377613438, 0.6888984038953013, -0.04643910445845593
    ],
    [
      0.803164796902121, -0.2541935200962821, -0.9054299139761186,
      0.17309536035112416, 2.551069845551566, -0.20077899462214682,
      -0.18201506225846587, 0.8353455648429365, -0.7512456584965705,
      -2.2066779108212318, 0.44400101159347943, -1.1946669444955278,
      -1.3583291752254325, 1.8225762419150526, 0.07526208964186809,
      0.915799589710696, -1.7954707498792466, 0.7642572566389108,
      0.1535099586432992, -1.2248943169593496, 1.6879145275995842,
      -0.16840520958572333, 1.2800003868550478, -0.4546141283966664,
      -0.3539838273667321, -0.30526664636514644, -1.422123871992656,
      1.640922927267972, 0.026342948861225953, -0.4186450751039989,
      -1.0123661397869799, -1.4125702987893034, -0.42464515564265126,
      -0.0805873993106552, -0.642733379638585, -0.3713054366522484,
      0.1886251494150457, -1.5435945246383744, -0.32748877990968045,
      -0.43955900333201997, -0.3056516566791161, -0.3079371579724056,
      0.3497669393494486, 1.2875546045680146, 0.13883733523850897,
      -0.14047799011956627, -0.20978861804665827, -0.9811721164159641,
      -0.3351292891357521, 0.5549674943162534, 0.06816215211928736,
      1.1725733830584917, 1.8650293002063412, -1.1555558365001997,
      0.8841333589716799, 1.2197473200984175, 0.6556699343685914,
      0.2393025844088613, -0.27990209667773025, -0.18558265982411482,
      1.3888577975285488, 0.9616096997379457, -0.9454884068969982,
      -0.2381289777247478, -0.378821501490675, 0.4776554174849239,
      0.16598363311024847, -0.5595962377441743, 0.6054327976181557,
      0.10591477834052553, -1.6473766642852028, 0.7965757296486358,
      0.2168638752210818, 0.035841654299217776, 0.02061795124032309,
      -1.6866991652153003, 1.2912795216323711, -1.2902910451760345,
      -0.32344044616155987, -0.5374985699662016, -0.027228870232781487,
      0.2526475413320028, -0.5753141326635912, -0.5552329530039104,
      1.444440864908159, 0.4430345929652432, 0.6215541619135257,
      -0.9802298187246263, -1.237784096991181, -0.12071181197927666,
      -1.7002641700538108, 1.1577867358567084, -0.2017538024672072,
      1.9031821999401861, 0.07068968733480248, -1.2383463126538823,
      -0.29307060767353993, -1.636230400955638, -0.6896038972912047,
      1.4497806751262299, -0.17287539603019392, 0.3506816060096997,
      -1.3690496748798395, 0.3367404979915129, 0.06608015133102371,
      0.10931662829637201, -0.1858874268025036, 0.8974176786887698,
      -0.04352558356899828, -0.4482231619108337, -0.3206355672499229,
      1.3844947785756456, -0.41431706606243435, 1.4269214735347397,
      1.557608719239952, -0.5005636162980257, 2.2750044705560275,
      1.5704167433444864, 1.960473871433168, -1.3684355323305104,
      0.2717616820052075, 1.082278136385857, -0.9609207771887927,
      0.9295921534990699, 0.9791297854446657, 1.0129687852676197,
      -0.3805731933642511, -0.008875356845422545, 1.5920469359287575,
      -0.12961321473594775, -0.6830570985583191, 0.8409020518058423,
      0.42750326716738, 0.7665570538875586, 1.4363075570135921,
      -0.8575012386121854, 0.5732824508030921, 2.126104495467162,
      -0.5683187076652133, 2.10269428543201, -2.635574347552076,
      -0.14879214576240504, 1.2084584637254878, 1.1019462744448927,
      -0.160648561275548, -1.064258710585815, 0.38067707625759123,
      1.343883501420692, 0.3338360313208802, -1.3107912219592168,
      0.33204333703244976, -0.8735895566181419, 0.8362031288250965,
      0.4831993227408822, -1.3968143688416421, -0.7740898487744423,
      -0.36656285292573654, 1.0912748860457975, -0.8135141593251021,
      -2.38320120147607, -0.19082758772724065, -0.2960318755457661,
      -1.2149287532079962, -0.08491191045416456, 1.1867162040188086,
      -0.2730218002869236, 0.5237139745091989, -0.08196482064851077,
      1.7374452660755315, -1.1030490265352397, -0.6954657447809515,
      -1.3399880113299685, -0.4799116107822724, -1.4355776881418556,
      1.4736711455360751, -0.7335959018092391, -1.152404429385938,
      0.2403198851322855, -0.5696565891870349, 0.40734873972903135,
      -0.21541129995853137, -0.19715885422649454, 0.03155194363933034,
      1.409159869945467, -0.11883528831758902, 0.06582722531315617,
      1.2289484425250639, -0.7860236088693556, -1.4118448203025478,
      -1.6469216601848222, -2.9871813079411513, 0.6853477427740842,
      0.36009040619876104, 1.358910544056424, -0.034477065273017096,
      0.5010261823487256, 0.029617925086934137, -1.3567087762200134,
      0.21959260333159597, 0.8900400332944725, -0.354632186600644,
      0.12971334252115652, 0.08507101614733288, -0.5597120198634045,
      1.4627226789760568, -2.149202672973047, 1.3599630918819612,
      1.283506682584542, -1.1860493529906462, -0.15699078882482484,
      -0.23619969134503252, 0.3696540126243807, 0.446799117215397,
      -0.054099173581931115, 0.8789178256039402, -1.0266348579474,
      -0.5386002110819242, -1.3716767358436197, -1.222465448415269,
      -0.19849723406672481, -0.572689779539727, -0.30602976547214816,
      -0.2105909637554871, -0.9183464116383578, -0.6437132099500988,
      0.6157586747319959, -0.07304197064343831, -0.807329315599984,
      -1.3094471205560387, 0.10687514572145007, 0.9955317167790108,
      0.6469882688256862, -0.3642382745614808, 1.564613068298908,
      -0.8654632699983508, 0.3124657171375445, -0.8775928791565173,
      2.1777381098798094, 0.5835657324387037, 0.2487078448165469,
      -1.9926458112385397, 1.9106621663035142, 0.057092881548806616,
      -0.6885118194429681, -0.35856290194878654, 0.18847754010103976,
      0.8394270918249472, 0.6895444496451048, 0.6468072692362465,
      1.0180155708017078, 1.218281565660863, -0.5263433831762386,
      -0.01878698268272451, 0.24530526401977046, -0.36957966522301455,
      0.9020551499345335, -0.22491285806553185, 0.9798045740751021,
      -0.0522552819840067, -1.4376882683254102, -2.726933188042827,
      0.27987750245205645, -0.1981390736121649, -0.3896871787432246,
      0.6264652206038106, -0.3337246247872891, -1.399704963720617,
      0.11960240416444451, 0.6189206843991056, -0.33783393433241055,
      1.0031560955194694, 0.29001447512506767, 0.9046220063820585,
      1.921390980768731, -0.5600050480832088, -1.9123888820221824,
      -0.3921000897576616, -0.43900107707360075, 1.4013803007514214,
      1.1173636549488715, -2.5254336456044575, 0.9337948004886778,
      0.4080649374217388, 0.2157195877645917, 0.23040385240778177,
      0.0185037706025585, 0.4810721278836402, 0.8391232165557151,
      0.33636214088247973, 0.33010558543627166, -1.1101321283561523,
      0.9298960985786968, -1.2224745450785, 0.7382038334174009,
      0.26579550913320155, -1.6020318479725624, -0.6101811434950225,
      0.35495845698890227, -0.7516201748429782, 0.2896869128722302
    ],
    [
      0.9493761394028648, -0.6284787780358845, 0.8233214913079325,
      1.6021032706628056, -0.8054753624398223, 1.1368411079013945,
      -0.9851122765351443, 0.5631195553455451, -1.3104952457535308,
      -2.213347150984897, 0.04875619989798786, -2.037535442525979,
      2.044562666519387, -1.3562176520445963, -1.345936983480008,
      1.5442754487042918, 0.9944296888545011, 0.5619473471695816,
      -1.4536070428570096, 0.3471401286722738, 0.6895227814424414,
      -1.120971531831613, -0.4843591538391002, 0.9869794529816001,
      -0.06357783418599108, 0.2543858073145865, -0.9885092055332757,
      0.8816112919041008, -0.6606718505907495, 0.9450189489135993,
      -0.03253066700134227, -0.2569307310192282, -0.9782562841154636,
      0.5513608804734057, -0.4834852379537805, -0.5227973840938149,
      0.6115794754443411, -0.6393923650040927, 0.42575717778436867,
      -0.6438999983906433, 0.7683749473704791, -2.3395041498600393,
      -1.7128566216153365, 1.528805365658665, -0.23930269267587012,
      0.03546454241928134, -1.747210044687338, -1.0165656936655443,
      0.8658158235326143, -0.3377412040958714, -0.4910331743730358,
      -0.35210781144451464, -0.03196220105465981, -1.1435219463805992,
      0.30660704981315673, -1.8084041351096334, -1.0789569157660293,
      -0.37706049031033456, -0.999029634422085, -0.35793387073753363,
      -1.5297318265033533, -0.042595129258406084, -1.7186554297021919,
      -0.16707366229564075, -0.014461752952894726, 0.593554070939289,
      -2.149489765704175, -0.3069040970951761, 1.4988202345941948,
      -0.6489692120937252, 0.005672263704059964, -0.6652717161503384,
      1.748184280312447, -1.054896703335687, -0.5750658267371141,
      -0.39264115686804607, -0.12331560371343693, 0.10751039518840483,
      1.5975519684595443, -0.2413501988545803, -0.32121570686463463,
      0.6543554861735955, 2.2644425481867154, -0.22899612848342804,
      -1.5141740191789195, -1.958338976501322, -1.2191224301771082,
      -0.3386303667213392, 0.5758213801173374, -1.3495720743217294,
      -0.8254994584271945, 0.340125364295575, 0.004248845546916459,
      -0.44498758268044003, -0.8097663479115688, 0.6112107549097253,
      -0.12048930933119761, 0.3898680321039796, -0.630359790202167,
      -0.9233214821482458, 1.714880180520344, 0.30564963218424085,
      -1.755358897954354, 0.24154742311509508, -0.19892825036958645,
      1.1094921631683374, -0.13105001399952915, -0.611021261166843,
      -0.8732764487665059, 1.2370505737787114, -1.0102725653369848,
      0.7356885662596027, 0.6594699391217095, -0.5697435572945472,
      -2.0331724586684707, -0.684429539016261, -1.1797395722649273,
      -0.3404852854592798, -0.4115245670653815, -1.6361136058182222,
      -0.9495115744020644, 1.9785686431258047, -0.3424335470212132,
      0.6687357281452341, -0.32197034381660494, -0.2230992568369404,
      1.9675462912843777, 0.5224185809671499, 0.06008904317643326,
      -1.134787438660433, 1.028373744048752, 0.12516875873197905,
      -0.6246445904138128, -1.0521013233094914, -0.32957221696593847,
      -0.04705592444343113, 0.16205457731298478, -0.9069861863882358,
      -0.2216255578739486, 1.742577067249006, -0.715508570103852,
      1.3486932267332463, 0.06378102749678007, -0.383843380900979,
      1.2592128908180649, -0.5970009815416966, -0.7503998413461491,
      0.2974997558498961, -1.0866597352490446, 0.6173215735943931,
      -0.550896616261096, -0.3071884132590204, 0.009589109878449659,
      -1.0460855176883026, -0.2707698049029545, -0.7071022206898386,
      2.1355595783036256, 0.2644962488791895, 0.25223016736730436,
      -1.6599785810180274, 0.5868255004959677, 0.3452556869114903,
      1.2032853645544523, 0.5096636692737806, 0.07618356831352158,
      -0.5593703535880773, 2.1813191790264557, -0.48121914996210596,
      0.03168693076181275, -0.2679865680500871, -3.040960008337384,
      0.30081345876356874, 0.6491726634239011, 1.436670510571676,
      -1.6129664773257821, 0.7186086171671429, -0.6945496326597554,
      0.2810395405043053, -1.3874850317795198, 1.380729078101609,
      -0.21476018288141102, -0.894871301375192, 0.6303780227094442,
      2.0157057245656196, 0.34995700991984263, -1.0192644475776858,
      -0.6865012215324724, -1.0929378147398248, -0.3339605397309098,
      -0.6077910298901968, -0.5299923873522007, 0.019381422750131685,
      -0.44407988497395673, -0.600286073614996, -0.5003144999579704,
      -0.15796183362968913, 0.385792368755054, 2.1772158603418945,
      0.7466590555597248, 0.02779133758289238, 1.2453505592528349,
      0.3604716922469709, -0.8504360440224668, 0.032410831780141834,
      0.8893122430202893, 1.2476029940432045, -1.3218583779365385,
      1.1826561071666708, -0.4691973796246362, 1.1614081891208596,
      -0.06423724565152615, -1.0039024127372964, -2.2199562469575036,
      -1.9994283528951802, -0.8889859923435666, 0.16226625994678937,
      2.0328842558798454, 0.1075000392916024, 0.014328124320112818,
      -0.494604770659376, -0.7433930180328326, 0.6866570479063278,
      0.5306627972981162, -0.7958622423781534, 1.832466376463707,
      0.6694717014881373, -0.22820252799761823, 0.5605499996287812,
      1.0172442573202423, 1.1318046380434763, -2.0360198738739848,
      0.032092920098449385, 1.5971234374952414, 1.6810255467533561,
      -0.010204090613353489, -0.016725203100208152, -1.6197978196944165,
      0.18879401911053073, 0.5178966695801936, -0.9538462097715038,
      -0.07201180769878113, -0.1396575794181587, -0.2196411141612942,
      0.6287483962608558, -0.3512763498296468, 0.9843298516699008,
      -1.538729177424537, 1.592247497145796, -0.9426268335073352,
      -0.32488832065063256, -0.6581563148521161, 0.8644676843426943,
      -0.5722274188484102, 1.4728091299381842, -1.369495079640662,
      0.7078227014216437, -1.5399946933510429, -1.5671653110980939,
      0.19599732831837255, 1.6452737645602693, -0.8261413919920193,
      1.5219418629457062, -1.7391390709888954, 0.2877138917743813,
      -0.0004072253387349098, -0.5722937455411133, -0.2263567370828936,
      -1.8003906306964632, 0.21382105857576114, -0.4054694790914831,
      1.4893269773897149, 1.1490245259359573, -0.06892522421943563,
      -0.7484792638778079, -1.1528515199593674, -1.1101594159540047,
      -1.092435453095358, 1.0406060044142595, -0.7513822689106633,
      0.226729251445904, 1.3320546050626705, 0.4026513933454639,
      0.2506485145149917, -1.145386149617358, -0.11011584502273826,
      -1.3981512498747182, 0.5867215699103854, 1.1239125118956672,
      -0.9202656077946171, -0.28005345091733297, -0.8577546159793015,
      1.0658581894540191, -0.39870020160338193, -0.8290216851807836,
      0.9244747049403154, 0.057271061050357654, -1.1207821331776122,
      -0.07242343283759342, 1.7815991693882622, -1.1323762509927897
    ],
    [
      0.6105537891012226, -0.3888479740046389, 0.1277852218049937,
      0.4180776938340081, -1.3791349861615543, 0.8620216781435246,
      -0.1971563669190875, 0.3936821009847343, -0.3922002035985923,
      -0.252184727848015, 1.237813973695174, 1.3483381551805877,
      0.9247943214428388, 0.9011712045766516, 0.22145274314824906,
      0.4961852646057606, -0.46796362400799374, 1.573138999791209,
      0.5374757527258012, -0.06386588148260958, 0.8158749660198169,
      0.17483222926804284, 0.7749395274392057, -1.2565772440594518,
      -1.2363943760914156, 0.2863607934541196, 1.420779151909736,
      -0.00431378771808766, -0.7332457561486798, 0.13966187208620962,
      0.32731257017239873, 0.15953160280470757, -0.2821357214381434,
      2.12223719927373, 1.0777723252836395, -0.745051527101722,
      -1.3704657326347058, -0.5733545869570446, -0.3955937459343439,
      1.427237284210497, 0.031246847912941862, -0.9933286106182275,
      1.5630048247407309, 1.0951507274443142, -1.2062767657282127,
      -1.0455912186894574, 1.503395454922727, 0.4111483736404137,
      0.07603360168238063, 0.12407771361280442, 1.5099768778216658,
      -0.15859795840244031, 0.6288120992330767, -1.3528247790177148,
      -0.047765349255512485, 0.19662777884465055, 0.9534740304067146,
      0.42289710419458115, -0.5774136657186707, 0.2803951101637293,
      -0.2930880311332895, 2.130171981911569, -1.214523457157422,
      -1.6494964511536128, 0.8482387816823591, 0.4561179368258625,
      0.9366966215828897, 0.13544423278565407, 3.035880333311926,
      0.46657935431977454, -0.7582604422539744, 0.5857791284492657,
      -0.226721839017193, -1.5056165457105086, 0.9950153993607828,
      -0.8941036919030936, 0.6680720734827507, 0.1155820624466521,
      0.8444164569568309, 0.7539882178665283, -0.08206815900768852,
      -0.4194564987163445, 1.1206207716961303, -1.106279897618216,
      0.5789407703776255, -0.6988411054314775, -0.34702867731361187,
      0.17770535254612804, -0.0908327214050537, 0.23593465793169427,
      0.28665873997118174, 0.049308694203322706, -1.9403580449517195,
      0.49144396305613225, 0.7060939417462585, 0.052406446366112004,
      0.172147432307018, -0.2218833742157368, -2.4094491395886206,
      -1.5342565586159145, -2.210063249541548, -0.9461573759779374,
      0.5936084677995831, -0.7599091789531205, -0.4448391168372111,
      -0.27365688228906265, 0.7148042151394687, 0.02611309295982804,
      0.7414026683695498, -0.2864793631506226, 0.25601113637663925,
      0.1806048043702191, -0.06413430607047746, 1.2792936738165874,
      1.6604523292357007, -0.2883891840184181, 0.5007856211738505,
      0.4587439729360221, -0.7605680693500008, 0.1363937824929894,
      1.5926685706102854, 0.32664669321340734, -0.5583371277204036,
      -0.5749341273383474, 0.41777368341853416, -0.6674117754214197,
      -1.1456343409848309, 0.2789732050367691, -2.1028033564311217,
      -1.244872545607426, 2.0870185887152983, -1.2378669333638006,
      0.44582062231934166, -1.0588034834847782, -0.03770008610264566,
      1.7695629361233316, -1.9363649924292115, 0.5888780474557337,
      -1.1780150551205981, 2.155942131040537, -0.8380822326227136,
      -0.4066792224706426, -0.2433751513047423, -0.07566293805493136,
      -0.3130632173887185, -0.5849673619026783, -0.20918313673557848,
      0.9503936949547632, 1.2580707939093936, -1.521785581598099,
      1.0826303361993677, 0.6711334770433902, -1.0420876833807786,
      -1.193906036413177, -0.11218923596197009, -0.6613487933880259,
      -0.2077884033759531, 0.905263125548366, -0.34866036643151027,
      -0.4974690121811961, -0.5067468973905919, 0.8644875685726379,
      0.23395851360633244, -0.6113466307287824, -0.16567776476553686,
      -0.36292352903867425, -0.013022724376032796, -1.3625521483678436,
      -2.107372187858813, 0.23855703986892468, -1.1835276418122709,
      -0.9699752532008947, -0.1650217075519708, 0.7189602972962872,
      -0.44997062277939764, -1.369272603164041, 0.7997424938128657,
      -1.7116994280338131, 1.6824156946674163, -0.4069359052903259,
      1.8738545963852287, -1.2421119003494094, 1.9839061785242478,
      -1.4865490089324207, 1.9785904007391573, -0.10997166999280314,
      3.2411704923654856, -0.7950079862762799, 0.2809058350642496,
      -1.9701918115245092, 0.003963366183265063, 0.8637850157562329,
      -1.1729340061236175, 1.458548378389072, -0.08799009155206976,
      -0.08319442131208268, -0.013429465196023123, -0.4994341476073643,
      1.294961801584973, 0.47449050543324606, -0.39324896254769914,
      1.0030339642102677, 0.9991116974144272, -1.0037157507222705,
      -0.9450331669065195, -0.439593026726856, -1.3351122864341427,
      -0.4945289420853285, -1.1458184434662062, 0.25012520467550314,
      0.8077275262862749, 2.3251864690397928, 0.9471731323444711,
      -0.39296108380848777, 0.6940506975690419, 0.26969543495434045,
      -0.6340171860192906, -0.04576359220662464, 1.7191810829374965,
      0.5641801756995678, 1.912434403623897, -1.1765746415275118,
      1.8897076603614693, 0.06344725431043932, 1.8695212143195992,
      0.758684484244496, 1.401385168522386, -0.6757189209609861,
      -2.571763406648011, -0.2120459275131986, -0.7133690957397218,
      0.6821350771234637, -0.010555698214560025, 1.3181547887838443,
      1.9578039437325485, -0.9563646372934406, 0.3361275689596087,
      -0.5207086926510908, 0.5238155289897309, 1.0538459001597658,
      -1.414683677041247, 0.07207047692803217, -0.7389711322932782,
      0.23234891384085365, -0.42750312976981003, 1.1458791817508973,
      0.14519782569176673, -0.3862999238087167, -1.045748675161277,
      1.1509085651636681, 0.017963598655050254, -0.22201037590061495,
      -0.5812249131520913, -0.1196462134278881, 0.11028239018554686,
      -1.0976502585269359, -1.2943585626039933, 0.24826787363706226,
      -0.77909560204815, -0.563223459257782, 3.311862145706806,
      -1.046605906366625, -0.009317424804586071, -1.0241468227152741,
      0.7261193584113028, 1.428494399560721, 0.5773590885125561,
      2.0249576898442827, 0.7808631784502096, -1.6499883342177373,
      1.1626155308771475, 0.22117552705864452, -0.045349291055123725,
      -0.39358396497245796, 0.5093134475417288, -0.2345086606022071,
      -0.5296620147279922, -1.6935211266347185, 1.1015912705045352,
      -0.11421780142366338, 0.17022008383022827, 0.03334346794253186,
      0.1828767320808469, 0.732677376239797, -0.20838714729438937,
      0.15558328103862465, -0.9716462354486177, -0.8904004635911011,
      0.4817443019909329, -0.5961167602215688, 0.5015620906165956,
      -0.6642168127171443, 1.2454169457382598, 1.0430574439761808,
      0.3485445995880727, -0.6564762636893678, 0.3457309665370764,
      -1.2668758068877017, 2.3357274039242077, -1.0847765722236256
    ],
    [
      0.6233969440913134, 0.6250688380654816, 0.5426217047463713,
      -0.9897057607472172, -0.2512414718230502, -0.03448519284655751,
      0.4968727001587578, 0.0761532111447194, 0.07052581650497489,
      1.1389107380319123, -0.025233571300755778, -0.7728016738307381,
      0.5236942194842498, -1.0684067091658722, 0.26413852372523355,
      -0.9967717803740658, -0.6531389760635268, 1.0440228678038386,
      0.05031532973832885, 0.1127433252020295, -0.5061510937842716,
      -0.3043261480885392, -0.6998853916614166, -1.145930136646049,
      0.7401126226385359, 1.056435691687997, -0.8292038844872939,
      -0.04957267178769823, -0.8409981893339372, 0.9743480400740007,
      0.19321832456644747, 0.6373573272870083, -0.40928307396365504,
      -0.06396187251294773, -0.14775662019847902, -2.078544924845249,
      -0.31771715186539035, 1.1189897077704216, 0.9025284150292208,
      -0.3130396111585551, 0.8805012328362903, -0.43701570584943583,
      0.763909967718944, 0.8136138860158567, -0.6457529345939516,
      -0.04705055855797399, 0.3286153348268287, 0.5607894308089346,
      0.42736739512163574, 0.7602998164019953, -0.5096018636857282,
      1.439230986297636, -1.046333685113569, -0.8768875324809406,
      -0.8574648938305659, -0.5476277313510667, 0.13071469497075486,
      -0.47760535250321434, 0.10876937190255079, -1.041086950615487,
      -0.4309162184801644, -1.5081663092003361, -0.24161784403033792,
      -0.010525149754161448, -0.20553932418561965, -0.44715240394349187,
      -0.5249046827431169, -1.4876692239989466, 1.3738983060443122,
      0.33135411537899406, -0.22247253192647876, 1.331170152319354,
      -0.7875330456569648, 0.060432603953077174, -2.32765577836344,
      -0.2948188125230455, 0.4306163759955939, -0.9627056140237116,
      0.14349196868990038, -0.213080948655292, -1.9550488957052614,
      -0.8971530920370245, -0.9408015732422872, 1.2415139495799328,
      -0.278528691524052, 0.4515067999472702, -1.4507390712863757,
      0.5807139530928532, -0.7964961606370395, -0.06945864836744954,
      -2.0864675202660856, -1.0787074745907257, 0.2030247389899026,
      -0.12608099385674557, 0.8724840229974051, 2.4686591826602715,
      -0.5429751723055993, -0.5586360377391895, 0.16873495331327465,
      -0.7756157681684234, -0.617180719149884, -0.3978477968063803,
      0.9981550059576038, -1.9643909798050072, -0.37551294810009345,
      0.3771857922017742, -0.025376571164872436, -0.14349389935392323,
      2.4539331798734154, -1.0278604843188472, 0.6505231268821045,
      -0.45072877777361514, -0.21494197678942892, -0.9112271518660546,
      -0.7702355343787135, 0.10351847713199593, -0.7467060863901454,
      -0.7285057080225306, -0.19575842252598213, 0.49176903441829006,
      -0.2337114020972357, -0.6869200747419444, 0.6986078291676324,
      -0.3495657395907335, -1.3400128243119134, 0.6750432138123003,
      -0.1501131288775771, 1.5305198554820623, -1.055035596090901,
      1.034619796814648, 1.5028997467725789, -1.2702174612879604,
      1.640671621263578, -0.9522510605721515, 0.973981994745225,
      0.5420234829352393, -1.6844455118290165, 0.46817171100629734,
      -0.6022777516428287, -1.4838807896014805, 0.8188532119826675,
      2.1091397287982496, 0.054291820600820696, -2.0604483080907614,
      0.16786657834811106, -1.7861018544196743, 0.17875651652682875,
      -0.5346461538829539, 0.026468353615774102, -1.4291872453582886,
      0.6619267031984359, 0.15999152793302043, -0.6888688421593762,
      0.9254224675608757, 0.6773783176550137, -0.6551364387798967,
      -0.12437998509541463, 1.3498566879597416, -0.2340569491907443,
      -0.8781643923044937, -0.11506844536461032, -1.2748899203033723,
      0.17074070650504447, -0.260038607629591, -0.30450299600321606,
      -1.4422512991558207, -1.0867955929259094, -0.2447233811496923,
      -0.34658088022379563, -0.6987543736640185, 0.7246825879213002,
      1.0171537025564734, -1.1225316401931715, -0.2905698381498362,
      -0.2996830131906952, 0.40461404325833833, -1.355894865063133,
      -1.1523436946844072, 0.398261921074373, -0.9033089723094727,
      -0.003424068486740502, 0.45261667726409077, -0.2764452337364476,
      -0.11384100874588374, 0.6869232469211306, 0.8539352760685349,
      0.297676841232756, 0.8313824230062727, -0.07370314663536137,
      -0.18382413318769603, -0.3315329977315346, 2.3456775941131487,
      0.7407398261615211, -0.7853771585799205, 1.0992079679577662,
      0.18145473400642353, 0.3930873405855027, 0.21416938965785842,
      1.0691088376691986, -0.3678882309476217, 1.5450436042824391,
      -1.2086987263601179, -0.5149253504774165, 1.1532365942311547,
      -0.8421723495057702, 0.6735850702473309, -0.4880250593102755,
      -0.5976958175707039, -0.6595333817798036, 0.5138033446536829,
      1.2081028496316233, -0.7336890186550182, -2.4587993583560466,
      1.1898411869486722, -0.4715791701665356, -0.09754035758357027,
      0.14209919712141145, -0.013342341899255228, -1.125822052787263,
      0.216239172835755, 0.22589395167996307, -0.5493097673746122,
      0.5275014441452848, 0.35641763115992686, 1.2037635478121596,
      -0.2776592975102715, -0.36674350635322345, -0.1848324255943604,
      0.47675564441971513, -0.6996641955251363, -1.0218969273425673,
      1.3761536818317834, -0.7743177202969962, -0.43398380382523444,
      1.3303546742185295, -0.01059857404329256, 1.4228684920798123,
      -0.21831798157671378, 1.7663481007171646, 1.6133856255160977,
      -0.3084481645853348, -1.2011622826628767, 1.3045332844021877,
      1.336341865673124, 0.1223305048773354, 0.24598018295831592,
      1.1710785663081296, -1.1441364434748569, 0.5360484082316185,
      1.410554877973205, 1.1913714106594082, -1.9207555074745697,
      0.08806644815317777, 0.19318936460570074, -0.6623367045038284,
      2.165283596090281, 1.2622500828351095, -1.0154751308128742,
      0.004194854290924378, 0.08436220937456487, 1.028930542291358,
      -0.20694200421653575, 0.42178635454214003, -1.5840527959137887,
      -0.41353851558308785, -1.8269167610256598, 0.019934681483563494,
      -0.4034375634570343, 0.1077119363191771, 1.7377658264952536,
      0.428497679539484, 0.6399262802581178, 0.27118691433263226,
      1.0622731273376416, 0.15185584717767886, 0.4867715868754576,
      1.4329594122719345, -0.5668463904727947, 0.5066238623433093,
      1.5205576607186815, 0.21202287216363255, 0.01442010656718781,
      -0.7621203052267331, -3.2018931884433224, -1.926720177106441,
      -0.1425612490978422, 0.3135670527666789, -0.6129709967434719,
      -0.9556188196226278, 0.16461618329774536, -0.09717111765209822,
      0.47607694677620704, 0.8739812067428488, -0.9162164239114868,
      -1.00378546886573, -0.3729565809259735, -1.7432654849923739,
      1.084270859486269, 0.8462643179706888, 1.6772254219424445
    ],
    [
      -0.1627658478127849, -1.1936962976447838, -0.009686232747573478,
      1.214535995638049, 1.0593016711098469, -1.1478561380684131,
      0.16853046890108542, 0.1599019599354814, 0.353829704196628,
      -0.11486953932820196, -1.432459063797839, -0.08141199351382192,
      -0.26112395435683927, -0.2626939454597975, 1.136204614079846,
      0.12717079027674513, -0.1868029598192753, -1.1502125227802704,
      -1.4523305045319113, 1.3493900317074108, 0.5691458757755045,
      0.12474204336130151, -0.2098672682218505, -0.8277362269434114,
      0.09229633072364321, 1.0275002976390175, 1.616683962829944,
      -0.12669233993126133, -1.7597497054375366, -0.23132777556858117,
      0.6496974789293084, -0.4448920259388681, -0.08603324829700916,
      0.07562242180823887, 1.9550904540608336, -0.04325943415483732,
      -0.03307364872524493, 0.17327807805954146, 2.9537400603788804,
      0.9641673963861329, -1.3662739325907922, 0.07777353764882851,
      -0.8106263921339292, -2.421100254014033, -0.8240727554905809,
      -1.4132144751393492, -0.36906245544538335, 0.4274121859498068,
      -1.2364772289742274, -0.06788118795197759, -0.4435541841588267,
      -0.9796315657043844, 1.5401342136626972, 0.05514852050204987,
      -0.9278890428729064, -0.037038696841654416, 0.5928077013834225,
      0.5225552544284557, -0.38503152078362085, 1.5402163981850854,
      -0.6702505123254472, 0.027108716907586445, -2.054117423295816,
      0.8342180736386908, 0.4372530901854593, -0.6726786495589575,
      0.039545844982509945, 1.3776815674938412, -0.2188834376660064,
      -0.06682016514012283, 0.6539336903262848, 0.18320395911330464,
      -0.6149482500930921, 0.4764062541365332, -1.0768813319720865,
      -1.849902960269469, -0.8795553030454593, 1.1472111664385902,
      -1.6386067846697494, 0.34048861401272934, 0.9045619131593826,
      -0.07737253474922011, 2.3858721989999423, -1.433534769214761,
      -0.29769613152987723, -1.7963000921480694, 0.7632537441434801,
      -0.18246568089269424, -0.1440432757368593, -1.1596400467582124,
      0.9922570019308475, -0.46960119209195733, 0.4730183730264074,
      -0.9817665137753498, 0.47369252282595403, -0.05336801961547046,
      -0.49687548026881223, -1.5567910114882544, -0.2571241285330812,
      0.09541551599586866, 0.4908956353507483, 1.0283714350006372,
      1.372291774442402, 0.2573678001766275, -0.3670695078268177,
      0.4789124075593219, -0.3318393122672631, -2.168173671043526,
      -0.4426529701447809, -0.5995411915316173, 1.1677140982052188,
      -1.7736375232708916, -1.140276999965884, -0.14658922558726406,
      0.18085213926398525, -1.6043396547144804, -0.27536196987143785,
      -0.5812736858415669, -0.6709090678246725, 0.3789970798567603,
      0.41211535748699885, 0.9300620100048878, -0.2024933503824067,
      0.8638028127128662, 1.237722888581876, 1.071285792301851,
      0.9956239158505747, -1.0999425055490073, -1.5135217242986563,
      1.137551927843553, -0.5273068152737951, -0.5964504055469843,
      1.9187116139879299, 0.8270648138315629, -1.0361571379099168,
      0.7256191392824015, 1.683504682572881, -2.028047906553928,
      0.4264250605044252, 0.40983582954202297, -0.04617312958216511,
      -0.17471367034967492, -0.46817977699035, -0.3236794963839933,
      0.15497560946973718, 0.8899591335341964, -0.6741705872121416,
      -0.049732513020142366, -1.5084585972824773, 1.1223612007750539,
      -1.356408388193194, 0.009176082059107402, -0.4810759059305271,
      -0.7916851732102631, 0.5660444032910464, 0.23772545445628454,
      -1.7976086094060952, 0.5149204119499358, 1.5873320883129087,
      2.151235097413851, -0.7492732482381973, 0.5960432473909555,
      -0.1354381779723033, 1.332608685298364, 0.15507620822479057,
      -0.603760308842074, -1.0361068099194535, 0.17786559624509102,
      1.161522377920778, -0.8359773823021233, -0.9287936471650617,
      0.18088183848398853, -0.3252524659261163, -0.19660910453770145,
      0.7459317097916814, -0.6009637695873887, -0.12666792593979445,
      -0.7137858004682353, 0.15083006200651944, 0.5146938257497926,
      -0.8852152462298092, 0.6781563265958725, 1.3139574091828667,
      -0.21376170790960086, -1.1197433385336, -1.4058049878986172,
      1.2229980380236336, -0.9696460942595471, 1.7581270991655027,
      -0.5334396513677532, -0.33478057701488656, 1.4196473395477398,
      -0.2530369179369595, 1.223677443811204, -0.6985862909226427,
      -0.2473328638402457, 0.845243568240437, -0.8392455062394841,
      -0.037914076170852774, 0.3543723373255981, -1.706413678606029,
      -0.03387967922551546, 0.45417889020648383, 0.7056613175217766,
      -1.8252782982927984, 1.6411487282737225, 0.30051129482490385,
      -0.5266800208839749, -0.4633132064074253, -1.681120570802077,
      0.41537003898433444, 1.0360023566129786, 0.07409083185579574,
      -2.271167076043272, -1.1325905128036895, -0.5034121067505916,
      -0.17263203505128577, -0.197038448283355, -0.2612436956019461,
      0.8363759745483803, -0.21910226227541227, 1.3909310833855977,
      1.3740836744787548, 0.03806993947305674, -1.1434684758407128,
      -0.41054287291783076, 0.5122884691016162, -0.22101346483604947,
      0.07210329513776954, -0.008487716184052946, 0.7897954441176155,
      -0.1686363222633372, 1.4329253829720285, 0.9406960980971476,
      2.262787394728641, 1.0527187085731706, 0.5528218331612523,
      -0.21908762224525427, -1.3750002061893831, 0.03433283862094736,
      1.7549924929168779, 0.01382787237537104, 0.19994017169660191,
      -1.4499397376632583, 0.9891879094524604, -1.6114624952323227,
      0.0005235711423548498, -0.667282567097012, 0.6656495710908797,
      0.7378837113777734, 1.3648249423862313, -0.8298615648901503,
      1.2367984326612012, 0.15090868845755312, -1.3587229451274614,
      -0.01587367916978198, -1.9478531319531556, 0.8900159609372682,
      1.1631732948271736, -0.9804274234598291, -0.5188095572732776,
      -0.12492391656096026, -0.8687513394653336, -1.6149870049857578,
      0.23866870485141872, 0.029675500689053787, -0.08082345904068643,
      -1.5047672277461226, 1.2975065889740114, -0.9469617025978865,
      0.6199587940992832, -0.5693894076541592, 0.007543631394227004,
      -0.23597794018180515, 0.5540582731625253, -0.28988473756562294,
      0.8375326357820041, 1.5241582367141084, 0.2737572636419401,
      1.2308115005557776, 1.202710599162839, -0.2721212302313962,
      0.35139821734390975, 0.0189927805569406, 0.8417407674706712,
      0.2952060178893222, -0.49533259659009937, 0.14015734789500994,
      0.26749091620720983, -0.23444519221102747, 0.3273913086715347,
      -0.8687806154192284, -0.8702253453055632, 0.7794565662623107,
      0.1334586964107711, 0.6758195218166053, -1.034454271690435,
      0.4944051427196628, 1.8807800104373562, -0.7897908438323187
    ],
    [
      -0.5132942270650017, 0.07814624081968363, -0.8326703583221008,
      -0.5184203448587683, 0.8419560470057946, -0.39080304296336515,
      0.2804874162640943, -0.37913796908968095, -1.0611857579547148,
      2.0109697133033846, 0.506346839957361, -0.09806034653138668,
      -0.35928818581337396, -1.8209033373094756, -1.609632060202505,
      -0.217374528293942, -1.60071921235193, -0.5811363743499305,
      -0.3646776146836302, 1.0141178509090827, -0.7400180231308813,
      -1.1719039981867696, -0.9430216223397176, 1.2547364961445115,
      1.4992268012193422, 2.065169295153853, 0.2936671088061263,
      1.2775133997999206, 1.221480786300629, -0.7775075481139798,
      0.5399045831774903, 1.2178396139500511, -0.4096790671564589,
      -0.1190483144592274, -0.6197917103770268, -0.1930486031651529,
      -0.898489192146606, 0.9025430461803395, -0.33050685523596707,
      -0.7929487044330781, -1.2593417412378536, -0.20695061192357767,
      0.06906725172127347, -0.7206782681304835, 0.322779155726641,
      1.4318697187858322, -0.1922442448388268, 0.8747694607754181,
      1.3947283860154334, 1.5578890961557812, -0.5263830123640746,
      -0.8831301292977551, -0.45245936815667587, -2.0414023384572975,
      0.45740927546804677, 0.9778664564662376, -0.5140586025725858,
      1.5322551083593394, 0.8726936607170456, 1.3811587679447368,
      -0.60867812761899, -0.374796971674233, 0.20753644489636758,
      1.2898898578244142, 0.6841163296183193, -0.14549425224800488,
      0.2512533379632599, -1.169705783142266, 0.468232264890189,
      -1.5685108714698668, -0.7683844724131463, 0.7587083482439491,
      -1.5971856641696667, -1.3813220269868312, 1.033312182125371,
      -0.06104218429577889, -1.6172527158835452, -1.8015916124577285,
      0.10891465881171757, -0.2832310420828329, 0.2345048220801792,
      2.07527771323356, 0.651889222711159, 0.31250483882324487,
      0.6549003797891295, 2.769601040164248, -1.6965669238254568,
      1.338725055638541, -0.2429844843165789, -0.25916685206793677,
      -0.9151575720313255, 1.7502431636845042, -0.6513015535760087,
      2.0685826811071144, -1.2319158364967973, 2.022163860650417,
      2.807358446352713, 0.8550797388845376, 0.6024208141202296,
      -1.5834783600069682, 0.794164673042363, 1.0134176282599772,
      -0.39027222318633487, -0.9659119360581223, -1.3523792191539394,
      -1.5296387709777137, -1.853346274507223, -0.0518503063733902,
      -0.349583345002252, -0.6537819864281442, -0.014281084063203086,
      0.13314503017232457, 0.16341074070417502, -0.8591661605820116,
      0.4431687405523879, -2.162792567792724, 0.06205939180609335,
      0.06273638902051722, 0.2516776577957305, -0.777826854375344,
      -0.6733633275761702, -0.7132618889363477, 0.245573101251971,
      -0.3893353854712695, 1.169577105785281, -0.1659106750159375,
      -1.5781517511919132, -0.8198007268675164, 0.8277697371931774,
      1.0655689697994541, -0.4150920573400936, 1.4917099051142035,
      1.309820170360862, -0.9890956316122607, 1.2731865516655958,
      0.3912994859883214, -2.017225829868739, 1.7569095757922861,
      -2.207080408440031, -0.3190913577252566, -0.13579910823020352,
      -0.38596861871448873, 1.24541196644428, 0.6264251586053663,
      -0.39052044501531696, 1.893256722460875, 0.32580076840879885,
      -0.3358018578709887, -1.786410693687619, 0.8829832217516389,
      0.60168649551234, -0.9998319594631305, -0.7159077239455025,
      0.1562129348289487, -1.0285959974169396, 0.7884114727246547,
      -1.2533765914671926, 0.5204768601270504, -2.360887409399498,
      -0.7137913930164591, 1.6227772724845126, -2.191434944776444,
      -1.5691416297149636, 2.2601892476972365, -0.4948146722699222,
      0.6651996292260093, -0.3955524426219424, 1.9807092888515818,
      -0.2158674690013993, 1.087563496093435, -0.7454973153568965,
      0.13835190032681216, 0.8657998767952549, 0.7025259502589795,
      -1.0954658935429484, -1.5732582409004234, 0.14060617035144968,
      -0.7938189874092854, 0.37760571938694754, -0.36982256007598857,
      -1.5158378620609767, 0.4708487386523818, 0.5590459943944448,
      -1.1962264640107667, 1.1477314276798964, 0.005163198594691766,
      -0.8126928080275749, 0.5659329111030362, 0.5372470040001396,
      -0.6092111196862806, -0.65754756654507, 0.15469620128219813,
      0.4183422204148385, 1.9649582504790235, -0.9994380015696641,
      0.9471502653544684, -1.1171466610319862, -0.46614936295904047,
      0.518732712131482, 0.6770653897734208, -0.7950233203762306,
      -0.06963131021893898, -0.636938690848724, 0.6242382995566015,
      -0.7333277504571627, -0.2698821515459782, 0.3687748832569489,
      0.3984303376116105, -1.587190012948291, -1.596884761008911,
      -0.688452190277175, 0.5243416793215139, 1.5313055187437388,
      -1.240771216645545, 0.309124395707931, -0.37578983403755956,
      -1.6496034478751562, -0.8217246447722585, 0.8472028752809773,
      -0.06787497075946593, -1.5142187756115553, -1.0693912157477024,
      0.4736483245495272, 1.0457913459428314, -1.5945819719171102,
      0.044684427947500306, 0.5620920651297558, 0.5834713201125639,
      -0.3099090297017589, -1.297242907175599, 2.4333898546283095,
      0.23645802183981035, -1.5337852346379515, 0.1400117724522501,
      0.24605237174231354, 0.18607332299922397, -0.09267676568899709,
      -1.8789045119190781, -0.30631573489851593, 0.9574484941104714,
      -1.6830317592535269, 0.3526607912089392, -0.0440754507003777,
      0.06541419184766187, 0.32397489888485553, -0.22427692700644483,
      0.01833402221130557, -0.07675776277312801, -0.5434691955229366,
      0.5243776027064375, 0.6244924595366356, 1.1696237440500232,
      0.3434988728424462, 1.9962686952181725, -1.600014564913985,
      -0.8581207131784792, 0.8403978192995696, -0.857789856206184,
      -0.9817431708335856, 0.7701581792830342, -1.4851627428211656,
      -1.8712324696214693, 1.372536271715009, -2.1484021952031944,
      -0.5687497853319996, -0.07984281277846737, -0.5505751836267944,
      0.41474393736401, 1.1229945029867947, 0.49817275310113607,
      1.307263352184483, -1.2845485363259324, -0.4261122946764295,
      -0.9680008978307473, 0.9705279525303796, 0.5567731498940681,
      -1.4033865115721893, 0.3824459151823449, -0.6431805699094506,
      0.4720012249986719, 2.141465013653043, 0.29143297799282963,
      0.009738049930115171, -0.64855983694531, -1.8879403857489303,
      1.3158267226217177, 0.8183769521732714, -0.21754358194744308,
      0.7924853045712614, -0.005892589690684459, 0.7110644789905364,
      -1.540141447804388, -2.2301446099680646, -1.9979145373883225,
      -0.627069656883659, 1.5932278206836998, 0.26605304767638904,
      0.3499020488397022, 0.4509964597974626, 0.17675370400431328
    ],
    [
      0.22397716719522393, -1.6290041058988192, 1.470674713299418,
      -1.1182865328530913, -0.7899686004514008, 0.002255918070057853,
      1.758359092386461, -0.47850979245184105, -0.5169620167065601,
      -1.022093565027649, -0.4739740568607716, 1.2096848590479643,
      1.492360950400121, -0.04004479256045776, -1.0683517818231107,
      -1.2759940538041958, 0.16116282813413238, -0.47106945440174414,
      1.2207844362462819, -1.4209723574688284, -0.014409894723723888,
      0.40605099575750453, -1.0772015626494529, -0.342688307542815,
      -0.4914999111988037, 1.0048955824791501, -2.3463224622965853,
      -0.8222052188299992, -0.4135611463907086, 1.2803852092753165,
      -0.3733444697655571, -0.6571277824660232, 0.6755637373355662,
      -1.3490442642264695, -0.13433422763427919, -0.7019854653417686,
      -2.3490255448200124, -1.4020418700054667, 0.10454196568921417,
      2.0465090652071627, 0.8029919914482774, -1.484947514008471,
      0.536967083531726, -1.573408906857713, -0.3665611625235987,
      -1.073479386831876, -2.747016724530666, 1.220266199397168,
      0.0673196021074311, 0.9209107564196158, -1.61619309760592,
      -0.6477380966962117, -0.842612317674984, 0.32739737164860766,
      0.76120466947919, 0.7978208107457601, 0.1678841251718164,
      0.14838054247074098, -0.8701936056864119, 0.34710872104141083,
      -0.28812824487291255, -0.21173179751592763, 0.6255714730643016,
      1.0418420109547761, 0.14587975807994422, -0.30704938923717445,
      1.3770521493489787, 0.4635161872459517, 0.7908356998954282,
      1.0863478680917433, 0.9755512998978818, -2.1234221647026796,
      0.5397851587436406, -2.373670667368212, 1.4522762991283722,
      0.5506450310216426, 0.15840780488745967, 0.9258782726642946,
      0.18052014311099207, 1.0924587310354767, 1.8746716174989992,
      -0.4652273152874922, 1.5661062142123743, -0.7355017737037098,
      -2.1443650670410044, 1.1338286654951406, 0.3661755977729491,
      0.5187938568915007, 1.551953307426567, 0.6281273174442485,
      1.72229968353165, -1.0247842750998364, 0.3642746761219422,
      -0.07235113106143812, 1.4857547952899, 1.758528460692582,
      -0.2019007080756212, -0.4184849019004852, -1.1845822614085522,
      -1.5830399968895073, 0.5708195006718743, 0.016939846558237628,
      2.9158710642846586, 0.7967542824017144, -0.4144931927828543,
      0.5147688539713958, 1.9658075780463864, -1.0786848557255129,
      -0.7791258951808161, 0.9742515913311974, -1.4791542860718843,
      0.4377205771496966, 0.23184046158407237, 2.40125159785995,
      -1.936741087063173, -1.3464010533091837, 2.4278431386799326,
      -0.5770464198731783, 1.3460168320637553, -0.39527907195576545,
      0.06643825493501691, 1.0915488573019487, -0.18761281980086728,
      0.6579522568674081, -0.43269177486813437, 0.006946600356528607,
      -0.25619395357780417, -0.2106875741521742, -0.8318972460624817,
      -0.6072313398349217, -0.892375054734656, -0.03912374965314026,
      1.716148888149859, -1.3626811183774001, 0.02017522566824437,
      1.901936572319955, -1.513276311919706, -0.8444168587524559,
      0.1661833528877128, 1.5297919076792315, -0.7352277524612197,
      2.1965719320778665, -1.5119312805111493, 0.48033744452840854,
      1.4569342353933896, -0.19080404346214203, -0.4428804964374694,
      0.3335948657067488, -0.6344274290203356, -0.21742809309565647,
      -2.4448262591664522, -0.009479789982734813, -0.9691697311537193,
      -0.7649143300506678, 0.3988865166278938, 1.1335466342099614,
      1.0926278675495638, -0.19848397979057844, 0.337846529916236,
      1.7272240875646514, 2.263154833419623, 0.16447429684306125,
      1.056496761187839, -0.26710749352293767, -1.599383047702867,
      -0.12887760244336505, 0.44473627463857446, -0.07346335415253225,
      1.0873154379575398, -0.7731241585767965, -0.47087037668390624,
      -1.5019867015506385, 1.149895162255925, 0.602143787857027,
      0.7546250903709364, -1.046677053038113, 0.9412254007182259,
      -0.0901636133009571, -1.6585450090741372, 0.4671561410079322,
      1.6584141261926484, -1.0634372809279788, 0.10091493651305947,
      -2.9048378032716595, -0.2270044205082768, 0.25419803890276077,
      2.7713010417045436, 0.6777281583569904, 0.5263333499639004,
      -0.45550459774652957, -0.28324641127560796, 0.4356798961863053,
      -0.2261780300386132, 0.12389928196796009, -2.084215246117062,
      0.6600606870909287, 0.11475923750386649, 0.17072490131709972,
      0.4487299174796362, -0.0967457195117643, 1.1674928113376364,
