{
  "epoch": 3040,
  "input_size": 180,
  "hidden_size": 300,
  "output_size": 26,
  "activation_function_type": "SIGMOID",
  "input_nodes_weights": [
    [
      -1.015451082431149, 0.5502770848120698, 0.7071596425337879,
      -1.9861245275141968, 1.3168232745603001, 0.6591298924126766,
      -0.03528153386902288, -0.896206221070858, 0.8335870572777224,
      0.38352226883115687, 0.6082220627262063, -0.44858521104578747,
      0.2103890160277088, 0.28154675090227027, 0.5559213372235586,
      1.1528665071158122, 0.7540812245318801, -0.08724290538482546,
      0.5439456315201503, -2.4214887843239157, -0.5210570217566345,
      1.7739633012475644, 0.1675725650627167, -0.9292667771110181,
      -0.015966623326804135, -0.41639648203919793, -1.7541269450145338,
      -0.9366547980945793, -0.6174259120664054, 1.1475395673614173,
      1.2566468339469592, 0.027358057696643803, -0.002718102270536321,
      0.7227935915243445, 0.5728156577563455, -1.626580573361685,
      0.4568231047762338, 0.7028751144534463, 0.297220292608235,
      1.8279822040258207, 0.17789465308763058, -1.2016594015178332,
      -0.12846675621914908, 0.21722781178767456, -0.14939238682418857,
      -1.1046293117723194, -2.5921327868735595, -0.9474665696269856,
      -0.7210854807839858, -0.06989980532733879, 0.0024428025957301423,
      2.187088247380539, 2.9646240817680685, 0.11086913190445076,
      0.22891389358888503, 0.23520665780148775, -0.19084877879020581,
      -1.053541566047988, 0.08714070011256243, 0.6406966507504521,
      -1.7515965071835937, 1.2472101336861139, -0.5796036197245825,
      -0.11870858736225665, -0.20269307370654174, -0.2834223209520509,
      0.15306300756038171, 1.8771922196480364, -2.824507493520666,
      0.2621353984100374, -1.366835020358026, -0.44416754026016425,
      -0.7750294472952642, 0.9584886621572184, 0.48197331347162914,
      0.9548832776276538, -0.35125004273599253, -1.304275536145216,
      -0.7079965389251257, 0.7229296241154497, 0.008006593097990778,
      0.832349529004462, -0.1855381634697787, 0.76549923139098,
      -0.07305282019326151, -1.6436201205629744, -0.3782706058328711,
      1.177226855027266, 0.41258789685242553, 0.7018481168679229,
      0.7250769124440872, 0.507217659967355, 1.2740045321862503,
      -2.0138324214738454, 0.14186665439096727, -0.7620044930255906,
      -1.468310724349723, -0.16161781710234358, -0.057069364831234086,
      -2.7310439828723423, -0.32850729372440934, 0.2173824483878428,
      0.9599049661876651, 0.5251272923569247, 0.21486614388964478,
      -0.40724607213102715, -0.6774859905234266, 1.4501169452101121,
      -1.7347301713308476, 0.7859069526051261, 0.09163996584959741,
      1.616078862899248, 1.3675712420227792, 0.5154069924043928,
      0.1471683039801888, -1.0284274116309315, -0.7610245499993195,
      -0.009649472818783152, 0.3457931622598693, -1.6381541290276331,
      0.7863737666864721, -1.1136199324835498, 2.9029651982274154,
      0.43163167453599605, 0.1140017719968246, 1.2179101886647599,
      -0.44661931500789437, 1.2464827620320018, 1.287863185390672,
      -0.007058288108340526, 1.1951698113543683, 0.34857744081465464,
      -0.7851616227683466, 1.4434274394694961, -0.7252555161130667,
      0.23881962284294958, 0.6270385250039645, 0.815067910301834,
      -1.0457657376070617, 0.22685907072720635, -0.13877357156978948,
      0.49797134433519374, 1.14579164478434, -0.7070063449368813,
      -1.3644170672431073, 0.1385818766179901, 0.2643486659559828,
      0.1598980418159983, -0.3439698687639102, 1.4511718785092547,
      -0.4706438434321887, 0.6475444944265435, -0.30684298678564714,
      0.7221667408084907, 0.07173327664548006, 0.45882720768065427,
      -0.11774820829459574, 1.951457399002771, -0.7180082085137266,
      -0.569390873076, -0.2442229325619606, -0.741597756091009,
      -0.1670095404055444, 0.3829931351357803, 1.5623992234582438,
      -0.18830955993270854, 0.7723522833882471, 0.039245619246440995,
      0.9671443376209828, -1.3524878098989253, -0.6988714888042519,
      -0.6212763470103495, 0.24919877596640802, -0.9107140792291806,
      -0.8335656778423283, -0.8753690320533596, 0.8544720992634046,
      -0.2227962797613665, -0.73427137074319, 1.4975232774403913,
      0.27465493643964306, -1.3232823239771385, 1.4513040977717673,
      -0.23396299694216421, -2.437901671686682, 0.6373023597201108,
      -0.40596768862539495, 0.3249129190997, -0.17374001308710557,
      0.2723293397948599, 2.428605389037506, -0.5389305198912109,
      -0.5867937727269362, 0.15879460290648162, 0.11729028849295606,
      -0.1639047183531767, 0.5764382053920576, 1.1651397804637307,
      -0.35706043752304767, 0.6546834111032153, -1.119384002860512,
      0.3165264550438531, -0.414382429629781, -0.5909252505339709,
      -0.6699421376827588, -0.505370399926039, -0.09147734530298679,
      -0.45770989927703826, -1.3852555987311714, 0.5333593829968541,
      -1.4698902956897277, -0.1253442121698802, -0.0894990650310613,
      0.715913038163665, -0.30191299271872674, -0.39058006901687936,
      -1.1367108608224488, 0.3756680419119732, -0.7965671441222383,
      -0.17226842155523456, -1.027763307593974, 0.8067091153701128,
      0.09405421044938955, -0.035137813122266465, -0.7461704616973751,
      0.7568867061746999, 0.3589393755164701, -1.6286565650263023,
      1.114101948184021, 0.0336464130915061, -0.13013382225713002,
      -1.3587103023892007, 0.4645191095628684, 0.5555693995104488,
      1.1280224865262043, 0.6963886992144073, 1.4384817303712285,
      -0.3529033898047475, 1.6045928848553588, 1.5585939730609264,
      0.13118091908554755, -0.08478694864558083, 0.02269390033896328,
      -0.27685124989122767, 0.17440404149034122, -0.321379274429813,
      -0.6670058304352499, 0.5208262320472767, 1.617479830038114,
      0.44229989190487545, -0.801128728940148, -0.6573872478110815,
      -0.6657218232634249, -0.1899041535637525, 0.3439544058446603,
      -0.42078156034165853, 0.6251539228243093, -0.5488864644421998,
      -0.5904880289259331, -0.29722835765058675, 1.485022101964143,
      0.45447886114031727, 0.7046131386487084, 1.1091742200139496,
      0.6803626593688965, 0.2757103676403663, 1.3852870176997947,
      -0.5466494999120947, -1.9297122959389321, -1.3733729009224431,
      0.02884748339252684, -0.9419388594445399, -0.18329860395641073,
      0.6513742831190776, 1.2585497158865877, 0.8294544335637777,
      -0.6190250472709659, -0.24185059463618735, -1.2697011570083232,
      2.5947700200893475, -0.7158399257128508, 1.5459202810382697,
      1.7510863163869388, -1.3110698464984296, -1.266297664412943,
      1.1240337582019273, 0.07351519326278064, -0.4925154902858972,
      -0.28923995791222756, 0.9576714207733344, -0.35800614899580496,
      1.4370926460347333, -1.5785824225273581, 1.5024197322893094,
      -0.5881592594427155, -0.10672065642418736, -0.7733235756280822,
      -0.06780297776242515, 0.752667076246928, 2.02414128907281
    ],
    [
      -1.0229773331864254, -1.2392183702797905, 0.49740399189560297,
      -1.9745340731307222, 0.03028883851605981, 0.45025531122630624,
      -0.0904428513471127, -0.29831008589780095, -0.36051037033870675,
      -1.6870722184212505, -0.02192726176216502, 2.2859964522716805,
      0.034019876437795464, 1.0673181599611623, 0.6537671469389161,
      1.1796642122964085, -1.6562760395195537, 0.15690451732682617,
      2.293325311389079, -0.2600239433937196, -1.420762174774004,
      0.26140870437887925, -0.9306674782659541, 1.996740203160028,
      -0.3282364828443776, -0.6485548712898578, 0.3892225961168906,
      -0.525525178018332, -0.6411464172115616, -2.6571790096308328,
      0.3650394886511213, 0.020012190222000494, -1.4938416950439866,
      0.7950395361799588, -0.35507331996249053, 0.3692622680287438,
      1.220413980968107, 0.004511058918987326, -0.403217366635872,
      -0.21357919734323882, -1.3080436964803521, 0.04316931939112924,
      1.8616828999873154, 0.6723716704273707, 0.6670646714440357,
      0.27769437551684745, 0.8339838854378253, 0.9177984791691814,
      2.144934476484108, 1.0833193944800035, -0.01314055303031691,
      0.692013047844457, 0.2872290079246289, -1.0781406105896103,
      1.6630794237789237, -1.5055618006271165, 0.555550695142388,
      1.183277142617141, -0.5035565734279787, 2.253147793350532,
      -0.8940578819385632, -0.9266356582264237, -0.5355998846862075,
      -0.8009670819948975, 0.5681095464928153, -0.20771516984472085,
      1.2506801998215258, 0.8079637218294653, 0.5800159124767166,
      0.8121302203930599, 1.8773912530708954, -1.3966029960304294,
      0.2566346649529072, 1.4920863189008027, -0.03669642879842144,
      2.1342773886972557, -0.422311322502682, -1.4322115749787006,
      1.8384569378849103, -0.716362017352843, -1.0982313748683412,
      -0.16752161387205983, 1.276189557097188, -0.012611378520598002,
      -0.3250897434800611, 0.5492138027377365, -0.9455920477528913,
      -0.17197519194195088, -0.12308373902391362, 1.395017387712683,
      -0.5430442554550772, 0.8605019449779105, -1.1993430865972747,
      -0.5908095847000101, 2.1290381355390453, 1.4378188563874856,
      0.517985039028729, 0.6991830221516105, -1.7217113092503757,
      -1.1578632389580594, 2.3858000625108633, -0.18520911262538542,
      0.38744569240928833, 3.3312967719538116, -1.201794405359591,
      -1.6966534132451814, 0.7395416433041655, -0.45556002316674976,
      1.883664233477391, 0.7932615288424494, -0.9447015697223595,
      0.35129739463015636, -1.6048358296491907, 0.0950557977549839,
      -1.9599447517249213, 1.592406234250785, 0.1865217484213005,
      -0.3184792038081295, -0.9097357708199871, 1.2310669028228263,
      -0.7047022243403331, 0.47985849898387395, -1.6979920850867651,
      0.9060489906515867, 2.3422027872014035, 0.412609292950046,
      0.20241665942697798, -1.1632112006175301, 0.38420053206804455,
      -0.14916312457108147, 0.4673891326081584, -0.3471993622837218,
      -0.5400734695720419, 0.8621783732734338, 1.3330634515330317,
      0.05982160731997848, -0.3350289940844015, -0.7753576529177508,
      -0.6882994079675737, 0.08368591456138053, 1.4809623251013149,
      1.6835255653569166, 1.3161045953675783, 1.6737383588398775,
      0.2668581733449303, -0.15950426337946164, -0.058876349492295865,
      -0.29055286470707803, 0.30576976699577174, -0.8348452948270394,
      0.36487156457363396, 0.5622520160373121, 0.4458069195851891,
      -0.22674834746255798, -0.8553507822077021, -1.9569233177241339,
      1.745214161709775, 0.36229373714680113, -0.9348095233139346,
      0.6920238885208563, -0.4814348640204386, -0.5550462847772781,
      -0.662326977455155, -0.46079864180598734, -0.3775004031407191,
      0.430570308407285, 0.4254628897871198, 1.0824953360816856,
      1.3205367405405652, 0.47597925379265105, 2.0458315296556377,
      0.12610372762066965, -1.4078058141226206, -0.4295075679591974,
      0.9686710696334057, -0.6856685499379244, 0.3803132015690679,
      -1.6742209954540037, 0.5969414228416685, 1.025910597990186,
      -0.23582032613205872, 0.9219936807041734, -1.3614574617039379,
      0.538586658775239, 0.6455032464048707, -1.2341916991471702,
      3.1342480160661412, -0.46415337947126045, 0.4088364417600702,
      -0.04705028430465816, -0.7027011475153347, 0.31474926589167823,
      0.130442815121019, -0.11858217495465498, 2.8680874561112306,
      -0.8965711697270394, -0.6698813937717385, 0.38276068326673723,
      -0.18013993723259997, -0.12183487838235296, 0.44274419444761504,
      0.1331734630981054, 1.9395363421632845, -1.49714654827137,
      -2.032733373056795, -1.0756618882212527, -0.9330733149326342,
      1.1637453374171767, -0.5090608821338887, 1.0418771827861528,
      -0.19171678067953593, 0.17403440974509166, 0.03647443541911428,
      -0.7174315199954814, -0.3070006882529835, 0.9369915082526827,
      1.0280160156297768, -0.07093805531462773, 1.482451949368046,
      1.5829957028317518, -0.4713495005567455, -0.9453768351378159,
      -0.012907632800494138, 0.8051183861851119, -0.6169616403649967,
      1.2411851816934563, -0.34679144448625526, -1.622239102585046,
      -1.8846667336419844, -0.6689271470415417, -0.7770721946936493,
      1.2081796331083186, -1.8496367911020553, -0.6435302928062089,
      -0.869682893638262, -1.3072536625395001, -0.07565370860503945,
      1.2191212112332064, 1.6261143308789423, 0.1516689128154536,
      1.467980396898229, 0.563373616797456, 0.17958748962252022,
      -0.05550559939849352, -0.7425151714371436, 1.1647180932342134,
      -0.20835007706620365, -0.6495808925757323, -0.07176621034956078,
      -0.051185242533173, -0.858403357148458, -0.5987145852096677,
      -2.527144501449397, -1.7912863937104702, -0.4601647193408359,
      -0.7555000827055571, 0.743583117652317, 0.6962633251763959,
      -2.280326574251696, -0.8036554049640068, 0.010495510431693672,
      -1.222303365366637, -1.228545144544732, 0.5455997040443382,
      -0.27920838511684715, 0.0689745862368967, -0.6870048566663581,
      -0.470548123278421, 0.4224002578862255, 0.6828951880738412,
      -0.6821394649686348, 0.6566449798587776, 0.7738608434682439,
      -0.6925403773777906, -1.4970860137405646, -0.9117678117617054,
      1.3714318041629576, 1.1773014960553223, 0.770382044765519,
      -0.3328316312806687, -1.0151434908228099, -1.4195145083732512,
      0.9840301015829389, 0.6545034088760726, -0.5677438127394646,
      1.3286757610863074, 0.16660537467614478, 0.9264902382476635,
      0.39895798805123167, 0.2826083567207283, -0.047304766384690035,
      1.9069213120560566, -0.18167398590688305, 1.0564646668670161,
      -0.018352316444297235, 1.0480930870970904, 2.744456774545915,
      0.5084556241869911, 0.20117921581265444, 0.41307102582301286
    ],
    [
      0.5469333285201776, -1.5095540344894685, -1.0450827097524837,
      0.6730844929237357, 1.8923375723749585, 1.1247797534601056,
      0.6844747319987933, 2.1376686178681874, -0.60024258719834,
      -0.9144624748833099, -1.0055017476888481, -0.07495650948661856,
      0.20131957346282714, -0.5877696756476776, -1.3615616713450351,
      1.7241037208108474, 0.0559949595085392, 1.428750906062252,
      -1.4363527442594555, -0.7817735689218241, -1.2453342661159361,
      0.035391648977431224, -0.33000451009178944, 0.754123063963755,
      0.2785366109283493, 2.027838764222721, 0.11318339122162,
      -1.119285519285622, -1.1701157972102114, -1.7222538835170123,
      -0.9553100705375054, -0.1834842989350691, -1.4022211558165432,
      -0.6549821024641931, 0.2314398961950802, -0.7925400054919887,
      -0.5752666372638995, 0.6535157872587581, 0.6717878326346249,
      0.5760648279690038, -0.6249582513054387, 3.394612859525136,
      -0.6500179958534724, -0.15902099105920353, 1.0708806725732336,
      -1.7615521108277765, 1.5243773021942921, -0.5512788400568462,
      1.4603396269088675, -1.2006578021328704, 0.35510598921920367,
      0.2938013081473002, 0.1425622062477813, 0.6727135537211423,
      -2.0438353211757474, 0.14408065374569456, -0.6938276241380626,
      -3.365800228909574, -0.25198619610664874, 0.5737389816820143,
      0.023841551955428076, -0.005579770127384121, 1.237691833295777,
      -0.43884039048700124, -0.5836413183695754, 0.051211964296457614,
      -0.9517780341598745, 1.4876949475043877, 1.9972397595391376,
      1.160400610064971, -1.1075372766760072, 0.2591362297331275,
      0.5564266705022741, -0.4939951500045196, 0.9387828210224978,
      -1.1472102336863994, 1.8470115619703271, -1.2342008831019777,
      0.8655861791974049, 0.15126065726012747, -1.9197838758427457,
      -0.2765909772599813, -0.12461820961042508, 0.7682838098714685,
      -1.9427650902741715, -0.38816485102601694, -1.759793585660753,
      1.5527164805695584, -1.1636228122680707, -0.40738562551112817,
      -0.29363760927768495, -1.6818631839727753, 0.9761259274218805,
      1.9797856573319876, -1.6608409959231702, 1.2861751176146168,
      -0.6756595783890189, 0.5678384484049139, -1.73773532231971,
      0.2892899029826095, -1.4649254870338344, -1.3870719975008219,
      1.515335956974509, -1.2421160244346665, 0.430348668888243,
      0.7704645766262723, 2.1284393034753153, -1.8266841568773986,
      0.49246390725253786, -0.5401229721142775, 0.27729494478922656,
      -0.789335527072035, 0.43700430970236903, 1.543539792396151,
      0.034747195187575956, 0.3275515264618593, -0.7393363625388022,
      0.6273057148305888, 0.29779312860290497, -0.5606935598580008,
      1.0624907514713768, -0.9139245728086323, 0.8095663304371503,
      1.4089116022069326, 1.0227638623467945, -1.2480184158739538,
      -1.2246768256220006, 1.5382602568931663, 1.1299838231537842,
      0.794476702469234, 0.46743499330770694, 0.6555660636154396,
      -0.6696632151432929, 1.799234559398859, 0.4118906038444111,
      -0.032931430892955416, 0.056856332978935026, 1.012781400386591,
      -0.353652383843288, 0.7552593568803305, -0.998343553759287,
      1.560547709205388, 0.14057058777053455, -2.3633354880247532,
      -0.8739106753582367, -0.4668811254767127, 0.3048173734500588,
      -1.155324138591891, 0.13646558593499175, -0.915014079007433,
      -0.7146414526134652, -2.400412545420251, -1.9474569143021307,
      -0.7113583133800446, 0.4290535307766699, -1.259142126947435,
      0.7438934103296051, 2.248528719954271, 0.061071435605269876,
      -0.8594350803948668, -0.44323472791982516, 0.12897373953476785,
      -1.6579809848293974, -0.322015674137311, 0.1945010123429434,
      0.9535547819958131, 0.6228053505161006, 0.25949841843563776,
      -2.2052821715917625, 0.5752053264578965, -0.25390731691954144,
      -0.8025879148489901, -0.22194413044756092, -0.2467121623363417,
      0.25156714974847105, -0.05947756285419489, 0.8809279283512564,
      0.16448847891484103, -1.8207961385860785, 1.081992396436003,
      0.7472446642910647, -0.505218184996151, 0.6795808713395314,
      -0.3981989659074867, 2.006999545675297, -1.820041976632556,
      0.4671877714660404, 0.7177418512753269, -1.633293722794079,
      0.9837015104039976, 1.2687602619926874, -1.281571537603647,
      2.107898192430771, 0.19618620036250745, -1.110995005704562,
      -0.956684280703538, -2.0929916635108867, 0.28282359308175287,
      1.7813463855337313, 2.037917330981666, 0.4025034384700613,
      -0.2815655787126145, -0.1791466751389043, -1.1004117395770845,
      1.4357118140139349, -0.19651626366467287, -1.5654449554919159,
      -0.04760121266964332, -0.5298047619159029, 0.3627935557888812,
      0.9554473160195388, -0.7253564706389318, 0.9522753809115936,
      -0.07153074152767849, 0.33733166088376826, 0.769922650128975,
      0.5394278468789835, 1.2467357143363949, -0.22932567242467414,
      -0.1736735688999159, 0.03754732477157329, -0.8139142215909173,
      -0.24192940352451014, -0.9379720406106345, -0.6426150561874387,
      -0.5553238415400087, -0.58063581530612, 0.08697114786519021,
      -0.6007776602861238, -0.11712755722273825, 0.3991705421524866,
      -0.3564261816167998, 1.8403952121356058, -0.7973085558063006,
      -0.7805808694278925, 0.009749125328037851, 0.9823559535324009,
      -0.7682404617134958, -0.3723737297621623, 0.6379928547437245,
      1.0851914586689477, 0.21399516567771193, -1.3996292140744275,
      0.3112118031979287, 0.599670179081465, 2.5953498920530715,
      0.24047838488471124, 0.06914592874149589, -1.573835118422854,
      0.7867360908816056, -0.9493801032836852, 0.20447991904995602,
      0.20898333966059338, 0.270577706172641, -0.11564712946652084,
      1.7974425720534815, 0.7354823051891104, -0.22413852099901682,
      -0.18775149921437792, -1.2233500348450141, -0.9605776684851928,
      2.2576587110897335, 1.0825588391598124, 1.5365627385084075,
      1.8019775905116653, -0.886273889796635, -0.03765737685199746,
      -0.8544310509230676, -0.5476608663456952, 0.4065807246152289,
      0.8144178393282797, -0.30937131290959813, -0.23342650787826746,
      -1.1537781141785477, -1.1608406280605608, -0.2839204363688073,
      1.0777658140820259, -1.2452945810139069, -0.29766294934518855,
      0.6556064083728939, -0.2552677108613244, 1.6074694018679476,
      -0.5895444563498122, 0.7242246319522472, 1.0663820307724463,
      -1.2631482128926936, 0.1217494371963986, -1.0236042847711844,
      1.0570018172518236, 0.5198859135368107, 0.1349776213877039,
      -1.4788889827104543, 1.3589648675316723, -1.9263571325400355,
      -0.3139086942178328, -0.037392826895949895, 0.40431458532997194,
      -0.5215334637130006, -0.7654015005819224, -2.1389259260780134
    ],
    [
      -0.6933400997766933, -0.323916362216702, 1.0548303484606836,
      0.6717551488303414, 1.4492025299723874, -1.1432825721355055,
      -0.8365308123664306, 0.21117256040193513, 1.111191007600049,
      1.5339013116080507, -0.6730427585414916, -1.2321738287679298,
      -0.4071351687964032, 0.7295275788117819, -1.7370233229993426,
      -0.6996753814527701, -0.2934307363550749, 0.9437561738617806,
      0.3130715701456224, 1.4149292258396589, -0.6050479351504231,
      -0.8983378535506505, 0.19038231784416593, -0.07008595076268681,
      -0.7282139475859117, -1.894611123545745, -0.4522751595789915,
      -1.9202407321299375, -0.9415936301304003, 0.011990330195340345,
      -1.0746422379875595, 0.12919677897810034, 2.2680482053691247,
      0.1514406417157379, -0.7707571021563283, 0.6905177351442155,
      -0.4011496600697885, 1.444634221812121, -0.44183003257155085,
      -1.207107143233894, 0.05458656550399723, -0.16475139008414028,
      -0.44470632073239275, 1.6567159076552695, 1.546356872828325,
      0.2708247909395838, -0.09981531581849537, 0.5760415597553924,
      1.3933598912294705, -0.08384028767617722, -1.060810406654803,
      0.31211394337244214, 1.2245759052307272, 0.9920270029137005,
      -0.380318134307124, 1.398056354337713, -1.3543746105895786,
      0.07531359257215542, -0.49980642093678335, 2.0273815110104976,
      0.07146862150426712, -1.4367256719479333, 2.1531662322043794,
      -0.15245845919731876, -0.7778440164519012, 1.4396670554603068,
      -0.030027334532547138, -0.5088216159604363, 1.1997738766286643,
      -0.14911084500215924, 1.2609227490146107, 0.8163991533391243,
      0.5505315883908278, -1.7633990225363934, -0.42679181015741746,
      -1.3188816101277847, -1.0962972078241342, 1.832034616424986,
      -0.22131005917532354, 0.3834867553514984, 0.7675321668480127,
      -0.3883908461628089, -0.6744652050879338, 0.04707417028112595,
      -0.5300502246374799, 0.21959272639410707, -0.6986399719711033,
      -0.7491748955714116, -1.9758917792278572, 0.2640435690554012,
      -0.46682079667148646, -0.2771445432764279, 0.7793025003982346,
      0.23285987646044906, 0.497776816475984, 0.30005650480620644,
      -0.7503541589118554, -1.371255438575195, 0.7757817592379843,
      -1.3518100625468614, -0.6194822601370925, 2.5376344128439023,
      0.5724625178366689, -0.3966987031949305, -2.1345628242707773,
      -1.1206114881710105, -0.48576534870867294, 0.3881893239324131,
      -0.222288229400236, -0.34525430658706074, 0.2897279510691692,
      0.8465291861825559, 0.666614486142841, 0.08855518239501989,
      0.593650565551706, -0.28537944049736247, -0.07483621333152793,
      1.0252693216440718, 1.49091614611273, -0.17276312784878778,
      0.4529705313628267, -0.5911133154730532, 1.7857492475283088,
      -0.004361122544660629, -0.49707925932811015, -0.4972548897663478,
      -1.697421101965461, 1.1964766561307556, 0.08483118685126337,
      -0.037462225621640206, 0.7109106242723351, 0.006362641001662572,
      -0.898546051854899, 1.234207247529796, 0.520785691380434,
      0.05438602919211732, 1.5103044735944418, -2.036674142304126,
      1.684580444346075, -0.26559618672957214, 0.2711018666840734,
      0.22943398722503655, -2.003007400369278, 0.0950737595642177,
      2.073999267937144, 0.611179708172984, 0.9507743383557088,
      -0.1333768618119448, 0.08803954377194177, 0.6034395714417968,
      0.45509938163721364, -0.8649833086640529, 1.2361000253992505,
      -0.6685023827993035, 0.7522487845648623, 1.160635035845559,
      0.10594214626669379, -1.6913093636656662, 2.5007857603453707,
      -0.20832654645427018, -1.4695261633822987, -2.4346452093017086,
      2.519511341005995, 0.024307465401842813, -0.08941246460269367,
      -0.8447196401014271, -0.4466647464151197, -0.4659254391400569,
      0.9374140179814602, 0.47390093323273746, -0.8808491601841556,
      0.31768634988439437, -0.3466317158055534, 0.5171641550645275,
      1.112592710923888, 0.017663085732260317, 1.3915928981039998,
      -0.19617801297176723, 0.6751253862008723, 0.4368372877878405,
      -0.9175782877622349, -0.29239225178521805, 0.3360427092647004,
      0.04148617944880321, -0.3439165728504453, -0.17795429756955158,
      -2.9303119891029197, -1.0450803085819282, 0.621494999150464,
      -0.6931632144580511, -0.23335468539250181, -0.47284399737236055,
      0.3587569720141482, 1.647374603002652, 0.18323768458896308,
      -0.14542332295940053, -2.5164627151153205, 1.0091378035637208,
      0.6699652866345399, 1.2070440134885194, -1.3693475198251255,
      -0.45787354591440416, -2.0989288280258225, -0.6824373080237968,
      -0.7482162795906068, 1.7428370834053328, -0.7139743821384561,
      -0.9895539277829991, 1.694318817712497, 0.6494677084175547,
      -0.22527137106312825, -0.15715062479707137, 0.8870150997073545,
      1.7590679509257712, 0.5014351560512079, 0.2874117497371892,
      -0.5255648994490396, 0.9499470321750233, -1.161281188881296,
      -1.8798476342965174, 0.9344929158225299, 0.3050190489650595,
      0.2234647152781314, -0.5554770472773584, 0.373031397459685,
      -1.1095938617002081, 1.8478697884443138, -1.270199511751431,
      -1.0798763205021251, 1.1117832056909411, -0.9368441635907253,
      -0.7183640760332513, 0.9085448109462114, 0.46657891439875593,
      -0.45832563854779973, -1.4454315978131285, 1.4610735975127667,
      -0.2958615289851297, 1.4274225656955801, -0.7905722580273178,
      0.3459357100989097, 1.6345228713832451, -0.6453789131041865,
      0.5603111735765222, 1.3988120586375656, 1.3812498079568292,
      0.44052770670935726, 0.49089427215835524, 0.02877118906047133,
      -0.08561954360242031, 3.1057692143837365, -1.3909600905965374,
      -0.5482681920505966, 0.8521689059672917, -0.2671479328755819,
      0.7582589632739231, -0.1461736828298212, 1.064448788721532,
      -0.5501511726454831, 0.3936283780315311, -0.5954577027484099,
      1.071122074869903, 1.497688843078061, 0.1541325244608184,
      -1.0028756860885513, 0.15214792456518417, 0.7012304429744828,
      -0.004717439083866789, -0.00894872179338141, 0.20587712158415752,
      0.05907372263439363, 0.6790097697771942, -0.6246191421826501,
      -0.9308441721621351, -0.4171830606260613, -0.05509290100603751,
      -0.9743034770946758, 1.3718078731027907, -0.9447497964045158,
      -0.9261726456805425, -0.12821188947054604, 1.066126139035809,
      0.031213969053546568, 1.2024650792675204, 0.15458730797839956,
      -0.4686708230554466, -2.214295543632288, 0.5811220353460572,
      -2.5906201004333202, -0.6424328510005429, -0.7052250696706687,
      0.5963118406249798, 1.091858986140433, -1.5656875636327,
      -2.8214158833284633, 1.0131488728664853, 0.31659976165680254,
      -1.16214746132345, -1.1348434812992652, 0.8096517786321584
    ],
    [
      0.03828989380414165, -1.541475902390471, -0.7798319463838796,
      0.20581324755776528, -1.3849903993801258, 0.8968313924110677,
      -1.8724097176633308, -1.6840223785782618, 0.05625051598529405,
      0.430308599376105, -0.7914201847772283, -0.5230996191659505,
      0.3798662360811488, 0.7359746849326086, -1.447066765741153,
      -0.720013380078387, 1.2288600519829966, -1.071599542823073,
      -2.3126929183503067, 0.31731983202178404, -0.6076761760571814,
      -3.1164059906030954, -0.10156872980814248, 0.6085200745581224,
      -0.7694841884579484, 0.3513211178313932, 1.8796283587362044,
      -1.9114093354080823, 0.08279025503623429, -0.6395514684682453,
      0.6142336558150321, -0.0853401114295214, -1.1125141115421053,
      0.9508910550751529, -1.3791483079843936, 0.6364821467971433,
      0.028364546125473573, -1.349532117140143, 1.0392516400790472,
      -0.10293614385483238, 0.07044977306125408, 1.8503267629455649,
      -0.9508357267550778, -1.8538290029462023, -0.3494725266557374,
      -0.6760317026384605, 0.12915282570968345, 0.39329173181670846,
      -0.43944325791932526, -1.1513817659660959, -0.9522883064761785,
      0.7355661470351811, 0.34083263536333813, -0.3268368180893717,
      0.2374567029268687, 0.08385246014626241, -0.21519383003780077,
      -0.9724693607305034, -0.8843726764340796, 1.1979109894388276,
      1.7639869808566893, 1.2931373635980594, 0.9631979212636195,
      -1.4616068822713815, 0.6919799252765997, 0.2526930104105724,
      1.0393993631097387, 1.0055455404780111, -1.687978622150741,
      0.31638953668673303, 0.3421128603463934, -0.09947274165724605,
      0.2495011302392802, 2.9494877790868306, 1.5841163289623081,
      -0.5453591116172098, 2.2552575163231037, 0.4335565189698058,
      1.503724527033085, -0.01830840857931288, -2.27850253477235,
      -0.5146743756179649, -1.2486884728148118, -0.35038935913665004,
      -0.46805776211358346, 0.09465619309226532, 1.00467659976631,
      -0.02242330145470434, 2.131563061874285, 0.1624051833275612,
      1.547333840074164, 2.532055858388455, -0.3186059798893337,
      0.2759063861686359, -1.0651533144696086, 1.5773533644822755,
      0.24363169101937573, 0.15426244200194303, -0.1737247782747012,
      0.441588753173068, 0.4072953093828442, -0.3784341585813783,
      0.7615765208321711, 0.7924737653502852, -0.024220291211013083,
      -1.9587782098477429, 0.943466232551224, -1.8869951266380967,
      -0.3814592010144455, 0.18219827105829503, 0.8071014355154776,
      -0.1303255478102408, 0.4174498210154548, -0.4097426399590357,
      0.9715233499650734, 0.7639493971239645, -0.008451879535059575,
      0.49596349696081793, 0.5182721880995046, -0.11455096961769791,
      1.4181992349555357, -0.9387595128787033, 0.35112732687015286,
      -0.3424209279292333, 0.22020214373217475, 1.1541246525683844,
      -0.20993097151467766, 1.7524473583385987, 1.3444906029943267,
      -0.16108741451838526, 1.8918901650629827, 0.6782413188169581,
      -1.5828618479239212, -0.3716938868541835, -0.16555092271121394,
      0.6191126952672431, 0.17498018395992937, -1.0758793439731105,
      -0.21312381604890057, 0.09720828100909841, -0.27373125831858713,
      -0.4137223639811522, -0.45090490361412483, 2.2836980896752728,
      0.21595502618317552, -1.1127953822450223, 0.9321259636935857,
      -0.6904764816983464, -0.8443964745793996, 1.3549156489204954,
      -1.5478569430897748, -1.4446209921759203, -0.2835368340994303,
      -0.32619401141282817, 0.784528605266204, 2.0339817238021247,
      0.2482487086387719, -0.7191819314381761, -0.16584490903306454,
      0.9273348241014548, -0.3863514317970736, -0.9728794089338645,
      -1.5485616665574045, 0.6490229712671767, 0.8596041471551759,
      -1.6623662279389069, -0.4283385198734636, 0.8405805883842292,
      -1.278774659934648, 0.05448301621073034, -0.4210793842707971,
      0.3346428337812885, -1.8946101875771941, -0.3899507050787042,
      -0.47235035180610296, 0.4815398472293023, 0.5119323453236102,
      -0.19547962790689538, 0.5015495769502358, 1.1944392033601205,
      -1.3626221644505883, -0.282726087340663, 1.7852072743920657,
      -0.15613068823663107, -1.2715918100030372, -1.9520681515666507,
      0.27157619174713804, -0.7799905235507915, 0.27840491947773066,
      0.6553838736156774, 0.29033252267708887, -0.7236296464779636,
      -0.36609498041781413, 0.43606872239229005, 0.1668231718627035,
      0.9827119891178467, 1.1343599200018253, -1.5465122313045445,
      0.3127287420518274, 0.649298824850344, 0.5722855614299527,
      1.2510008860760085, 2.4439563709811347, 0.651696956661405,
      0.6084161650592927, 0.4032010737680561, 1.1139812393265107,
      -0.1362081454299666, 0.7390888642819298, 0.01734724609028566,
      -1.015210245768679, 0.8144099540988795, 0.41773480163616883,
      1.2160463610471155, 1.0920682331045108, 0.5232722027953264,
      0.693771531253396, 1.3711050263936997, 1.7215375101280916,
      -1.2022403569581195, 0.18017364203732025, -1.76239668992934,
      0.1162109338075089, 0.6085340119602045, -0.14973596424230232,
      -0.0911707208352053, -0.6087091594618398, 0.8782743663552831,
      0.4879324734245204, 0.8927138182704751, -1.134596760153068,
      0.018065615646663213, 0.8766718662768911, -0.851188641328505,
      1.395852585343108, 0.4604197906682716, 1.7466322610546683,
      0.11651011615785596, -0.3713195985245219, 0.13902723369019673,
      3.1540830265555257, 0.6914535192605429, 0.2618140090050043,
      1.6215855320126888, 1.7654760394720508, 1.3076986251562546,
      -0.04384161037494405, -0.1644088817408231, -0.00819939801108029,
      0.785270149473166, 0.8435137697456563, 0.6686191810297433,
      -1.785271621352246, 0.9108705235815193, 0.9169308287158958,
      -0.14743161831366855, -1.233802444410809, -0.011857505599628565,
      0.2539531012071402, 0.3195267396812259, 1.066190660276142,
      0.059194134560399125, 0.3567920558286741, -0.9486629377708512,
      0.3196759872208235, 0.6805066149074122, -0.08336994663239967,
      1.922591057246832, -0.41378156426103824, 0.7915319297557142,
      -0.17657638080751198, -0.09733653148341852, 0.3935661411808271,
      0.3782486406823473, -0.6103237596028194, -1.0852342052586113,
      0.3921594403421012, 0.06162167520995663, 1.8630259476083206,
      -0.3624341242460762, -0.12895473880120895, 0.3165457378300996,
      -1.0003973903654515, 0.8801129816793892, -1.3217183546193283,
      -0.7442624869483745, -0.9584297197408066, -1.4637865966304118,
      0.6283734439084252, -1.0244393479754321, -0.5211262199245372,
      -0.3231729294943616, 1.184777834077964, 1.819283972274511,
      0.6083908907457684, 0.6495093446349978, -1.0032625343769634,
      -0.8390872985137916, 0.23646515130938106, 0.3322246936631512
    ],
    [
      -0.22403900115162348, 0.41394384157670006, 0.9202700978212036,
      0.9612925114593961, -0.0639711599822077, 0.1808481996459788,
      0.10755112502182848, -0.1987237071964078, -0.19125801742197948,
      1.0976988984081193, 1.6087673883475466, 0.53810035663071,
      2.403253281856375, -0.6058872712449829, -0.9793571309418525,
      0.9334938687278347, 0.3354459231994176, -1.302217310329173,
      0.7425849170283143, 1.2435885955032149, 0.7150198804120285,
      0.0321352615331057, 0.8585809112105898, 1.0971299847867073,
      0.5329937488983836, 1.3909322752898114, 2.041605676491367,
      0.14118648458494001, -1.560474843243564, 0.4543194260152694,
      -1.3319007212933933, -0.24534044638727306, -0.19073473530455318,
      -0.3123789937522004, 0.32602437550435137, -1.850700224202455,
      -0.22589697565020883, -0.4699268130202058, -1.0906122516990382,
      -0.5935222707881399, 0.705170656563522, 1.257582546109601,
      0.7275035964442909, -1.6092953730936181, 0.5443370252499136,
      0.5524229071429394, -0.12496915569050822, 0.8017755590744519,
      0.935464104912913, -0.22518229588681693, -0.2652774031103751,
      -0.5142638524264826, -1.231385902372155, -0.22111419752406278,
      -0.4290478077645009, -1.312081573506417, 0.8218048044825966,
      -1.484845800133245, -0.0835410363260013, -0.04387297261268643,
      0.9740766666408255, 1.87067592344185, 1.1324461156424304,
      -0.1376114701864128, 0.5472605375359755, -0.09311948355586558,
      0.5099789939706643, 1.561073705027932, 0.13813869743800058,
      -0.3404027412929481, -1.1462372520488044, -0.33549246335000416,
      1.1502793780248173, -0.575831959232157, 1.8348360138655264,
      -1.5684482532857331, 1.7402907091146187, 1.0417129867410901,
      0.08546926696465787, 1.4015010846973974, 1.3834524119802416,
      3.3631151128231136, 0.7734473723601504, -0.19654346566236489,
      -0.6102622384690167, -0.46540909191793867, 0.3099164035162827,
      0.2596378583666592, 0.0542123436925968, 2.152067263652113,
      1.2549687477037785, -0.9980196035128108, -1.629565439421706,
      1.2006816342615114, 0.034165630976873605, 1.8467266371654034,
      0.5245507755589779, -1.0999021996319922, -0.7873833092922817,
      -0.026757825171654055, -1.0274608734297772, -0.4669311480138747,
      1.009327794798708, -0.05008961814130104, -2.377361842878241,
      0.5371890267667334, 0.0685108420654075, 0.7335521214230865,
      -0.21169150018923244, -0.43737390561405826, 0.3225575746066819,
      0.33581613906378927, -0.29811288845601913, 0.36389617343876646,
      0.3109576089851719, -0.3530480088604088, -1.535607232882611,
      0.4280062194047823, 0.4982402775978606, 1.1716453030610567,
      -0.19799515270423404, 0.033975205663590656, 2.013445982516841,
      0.0010162255356030926, 0.35413866303711344, 0.051701424874687936,
      -1.2917788453421004, -0.5334531132713789, 0.08546817917661727,
      0.33101224939577234, -1.862528002753514, 1.4946768609516645,
      -1.6763149348874928, 1.059430766819067, -0.18881774959604838,
      -0.527780043557087, -0.49873823229640946, -0.8293888426223591,
      0.20252303158645185, 0.4816596779000353, -0.8590103105706668,
      0.22740660314822347, 0.3830057675933662, -1.8919280170542414,
      0.36709258218896934, -1.1672710707811425, -0.5555562056921899,
      -1.1932498743570512, 0.47922054451619817, 0.7200132262934825,
      0.8466611661013115, -1.1804882076850856, -0.11984074583792771,
      2.2243323870030776, 0.4421492114152455, 1.106169196638799,
      -1.0319086026139195, 0.17353503825294567, -0.06909793576154873,
      0.8341628229159945, 0.27767192375488947, 0.9249779053155961,
      -1.6226764212371254, -1.01971122135992, -0.14212214488722366,
      0.1999694403695686, -1.9622416219876342, -0.6560809772277849,
      -0.08592657247279012, 0.8360208647458921, 0.7223159159470509,
      -1.5709649046485452, 0.13397801744971669, 0.44286899707001004,
      0.17205469861847014, -1.603715388463665, -0.4185681811934843,
      1.3678109068318165, 1.0343819649152708, -1.056269900688218,
      -0.6637154414574432, -1.7298422300860563, -1.0146598402529683,
      0.7888818750077422, 0.9386695535812389, -0.8566858410168048,
      0.18846804167582373, -0.8845396730299466, -0.2917843973387084,
      -0.7669268877925527, -0.4771017808489198, -0.49797647316508936,
      -0.6367820297870809, 0.6775426849666705, 0.5744846308497022,
      -0.8427031753854679, -2.033130036812044, 0.01918422464215712,
      1.9930812564126659, -0.5894655252465507, -0.6805179923466519,
      -0.954851114857802, -1.8924615435316579, 1.1310958756855647,
      -0.3565761824706885, 0.45117297746239443, 0.7106672495984637,
      -1.1381976443953614, 0.31077203190946745, -0.5293612279166192,
      -0.27210221282110886, 0.5162703951454872, -1.6481422117433229,
      1.7993280118122197, 1.2694047873398955, 0.8874431518053644,
      0.9337147316537168, 1.5084508793560372, -0.21670886125157537,
      -0.8271023291642241, 0.7131165457654631, 1.2061036514578791,
      0.6607931835574546, -0.5165469208290661, 0.7256206605508404,
      0.20908037498537357, 0.3821376978908612, 1.399530825220632,
      -0.18551990605558616, 0.2526179472827128, -0.17896810124123305,
      2.4457034822543413, -0.6441323991331466, 0.9746125020869111,
      -0.6223484313846026, 1.2233234428752582, 0.7153277402971421,
      -0.7577378699324137, -0.1132278509167426, -1.9031028801245127,
      -0.568681562866517, 1.648866272650166, 0.8258781675918133,
      0.7921979391468328, -0.8534966433460699, 0.3828904053799301,
      0.1218035976089236, -0.455807245345392, -1.5207412400043374,
      -0.8350328684945899, 0.3807946250575271, -1.3617245320718814,
      0.29267087140014636, -0.5042681528176448, 0.20913117257425898,
      0.022512091042535574, -0.4390063621252836, 0.6070892499188322,
      -0.4813223406663267, 0.27271015439367635, -0.08170854663098606,
      -1.2883317008278024, -0.4044483874924761, 1.2295847109009153,
      0.5026924510137737, 1.2668849100555315, -2.1544046479161736,
      0.43429052904693755, 3.2411153798106103, 0.5613782238199906,
      1.0262195427677272, -0.34212810351019063, 1.9125813243250283,
      0.15160060189437524, 0.6683936469955281, -0.2618695812027644,
      0.13740731783491206, -1.175123527116296, -2.19139668155023,
      0.40724661922155114, 0.18111941887004043, -0.40155426549312057,
      1.3240640206437864, -1.350421837180771, 0.2633162234934197,
      -0.7316969840976074, -0.20535246999244255, -0.5621903819450496,
      0.6066929115174029, -0.0120161307577946, 0.23595516872171654,
      -1.9911552863908835, 1.1486296973588128, -0.2837462011773235,
      -0.965687424639713, -0.4711274764905063, -0.04888685691621238,
      1.3225134553228657, -0.7317764855868724, -1.1737446986488638
    ],
    [
      -0.6423272931328032, 1.0896664984999473, -0.41195159094768646,
      -0.029038435604782174, 0.5862541573932873, 0.8165397826726848,
      0.5487989072325714, 0.28778525551605993, -0.5968125884710629,
      -0.34274299391260993, -0.012542534759936684, 0.40514148585842463,
      -0.4906723803010076, -1.1115275960870963, -0.02930038641019664,
      1.7147099427497141, 0.23837055437144264, 0.33297863471999584,
      0.1519892061900514, -0.43009698754932046, 0.9126409386673051,
      -0.24967524428261606, -0.10866193839682498, 0.5518255513583656,
      -1.2458322738175995, -0.579019508443608, -0.05632834539085853,
      -0.38068959249038814, -0.4209502322741999, 1.7471079451736284,
      -0.13643003703200024, -1.2594266130241218, -0.6767780953098614,
      0.3433582926703233, -1.5131650770077842, -0.28979658487858545,
      -1.1785795115035136, -0.4010480336439943, -0.847642802959795,
      -0.2501012975751252, -2.0062411668740316, 0.05040064330666081,
      -0.6794672421663014, -0.8160543037120002, 0.14860732514184002,
      0.6527654119360332, -1.0033421197319035, 2.2576445660779982,
      -0.22287372759024102, -0.5555537441249089, -0.0467884774412938,
      0.6952858364336761, 0.05655520429516944, -0.2685758391708788,
      1.5829004863250278, 2.036433615230521, 1.6929667893477771,
      -1.2151058019368213, 1.701093524062264, 0.9709533115558866,
      -1.2466330437909312, -0.19537689603843475, 0.3441643303244709,
      -1.655210306849363, 0.3986767761003594, 0.6664345633351229,
      2.0790616597017153, 0.6193179115728485, 0.3374098338760402,
      0.08804042121361182, 0.3329983499417227, 0.537265210502595,
      -1.2650662021066392, -0.23853359051479295, -0.8025909370858695,
      -1.4438697022610123, 0.3626233067664033, 1.002389855739985,
      0.6909696811049071, -0.605193745939963, -0.10692455589011506,
      1.7311109572477483, -1.4001055516669818, -0.8304843639223245,
      0.7005798190604162, -1.1045407855861633, 0.42932413188473173,
      0.28529839565046544, 0.02429133659128651, 0.06381503792647823,
      2.058382316989886, -0.4184064614457556, -2.1760670042352483,
      1.238211731662615, -1.2095766362350713, -0.8804825843457166,
      -0.09083454614193111, -0.5385374686415367, 0.05211934676390218,
      -0.08487585802574651, 0.4890496488597874, -0.035428705968810606,
      0.31512862058192814, 2.6374239609264696, 0.18000283117989585,
      -0.4673251304200732, 0.6956947793160734, -0.681277560573167,
      1.2210791246681567, -0.8613209867184575, 1.4250840139404453,
      0.566333073356357, 0.9439358033794015, -1.5194055223324754,
      1.4542252393381316, -0.5437090417889584, 0.5041801261141735,
      2.019982620606699, 0.13110080107699834, -1.4575828174782282,
      0.37435773116129084, 1.1961556624368614, -0.49690559142392976,
      1.4284921356995195, -0.04781712382264614, -1.2129658513516632,
      0.5546674971282803, -1.5430811964443518, 1.4319245495356172,
      0.08440976811369162, -0.4486864187498095, -1.0251146857298337,
      0.6399097089912533, 1.7380826396137705, -1.7285391643393642,
      -0.8014151327555553, -0.44496700077688645, 0.7607036452862933,
      -0.16083590121796185, 0.8280861003149241, -0.9268129051589947,
      -0.8468229101928371, -0.7730963574947771, 0.22652544574842584,
      0.19710430680218055, 0.024769095257346378, 1.0487205220920195,
      -1.0457935471354278, -0.020460364074899175, 1.3623883046509744,
      0.019104781636129036, -2.170980184481583, 1.2324024519535273,
      0.960803358682754, 2.2105834261331836, 0.520382961961072,
      2.575988793040747, -0.538363838285812, 0.658073405013856,
      -0.24976128170217365, -0.2958820229853693, -0.2689331089318601,
      0.8336186805152906, 0.4486291003659464, -2.5650464539826556,
      1.742764299640825, 0.5821824629761997, 1.6158008711732899,
      -0.15973853176636532, -1.0615574871642128, -0.3642157028535755,
      0.4163052779828749, -0.9911405857147076, -0.6540740401193791,
      -0.35933123263024175, -1.1354227603520521, -1.0034810216929881,
      -1.0869304974440293, -1.0033366862578896, -1.006908067590792,
      0.3808199932632836, -0.5761600585574559, -0.3518582157054559,
      -0.4725108449413606, 1.5383065535172467, 0.6231961769646506,
      -0.22271946682272967, 0.7831756051162672, 1.1394027366571842,
      -1.1715516963735066, -1.1082208147840897, -0.507464465651103,
      1.2407342104079422, 0.390443422670115, -1.001478965590994,
      -0.11194424398108674, -1.2334853090074702, 0.6619578816293755,
      0.2378983354284852, 0.6378646929019561, 0.9637838180826143,
      1.052379445236497, -0.29605637259529044, 1.7902869670995236,
      -0.48168469444223777, 1.6878841393499588, -0.6145542225169182,
      0.10468471134259912, -0.06682677579533446, 0.5328107724675727,
      2.0169365016160388, 0.9905854842224112, 0.8277843494340578,
      -0.5989563147685962, 1.829201026329785, 0.7543513938116092,
      1.3027456007755809, 0.8789778621746737, -0.08232435805025089,
      0.39954085484559, -0.07229608508556953, 0.905662096281825,
      -0.7743208333945799, 1.0446117273018687, -1.200496577839034,
      -1.830597925095717, -0.7413311602453218, -0.6780952074712308,
      -1.6120413626617576, 0.35116637473200596, -0.17492540708475177,
      1.6453107717444697, 0.9748944787816172, -0.7160167033215404,
      0.44513971016822246, 1.9907484532137492, -0.6086387483115566,
      -0.2974674776581421, -0.8713659571021226, -0.578926205172262,
      -0.4846568536717514, 0.689963738925766, 0.4509894390881374,
      -0.5250666300545435, 0.6597809432672054, -0.8588379435927366,
      -0.9650967143737194, -1.9663663066884063, 0.6608892603056173,
      0.7469526594638105, 1.4933280535960134, -0.3337136082823913,
      0.5085355591763974, -0.49890495589308137, -0.28046341342323955,
      1.160436703306885, 0.5729631976295564, 0.2797258385582288,
      -1.016848161766402, 1.1367825343342428, 0.7761031291929044,
      2.764850884146317, -1.1018604073020057, 1.2332312004495487,
      -0.05803705729721756, -1.39543599206385, 0.931263307148892,
      -0.8372380894610699, -1.6675677562381237, -1.061948673509882,
      -0.7294331677153211, 0.4938858608227949, -0.40478552979675747,
      1.119479987275051, 0.39030352072070706, -0.4668589561177594,
      -0.8134284470663277, -0.5792824726819018, 0.22228293335994692,
      -0.8630640938861339, -0.433164690153915, -2.0661208114821203,
      1.0449282640627187, 1.131265387182126, -0.6658437501840037,
      0.37154819892899676, 0.5313836995675005, -1.9047835708724619,
      -0.10118662947636925, 0.12845524124375027, 1.8325493531898442,
      0.47606467791340995, 0.07427489636395489, -1.1395544422304114,
      -0.8333450140267835, -1.855355830063996, 2.0308912681099467,
      -1.4541525093711327, 1.0560940452944603, 0.4067077923327562
    ],
    [
      0.327477182824249, 0.6835584696281733, -0.8119097354143904,
      0.6719347327221352, -0.20762806430408456, 2.6253879440232724,
      0.7737609917961761, -1.3199041512678806, -1.2560374863156014,
      -0.47121182449654203, 0.925801084508391, -0.41018550082938565,
      0.17151718366651333, 0.31949753993540264, -0.9179515144305667,
      0.08403164340377191, 0.2060960637193587, -1.250972028798495,
      -0.4851279026869993, 0.03407739404723797, 0.28612688349463156,
      0.7294414663467063, 0.19010180413386954, -0.6474413628439718,
      0.7716318025655073, -1.1100578012572688, 0.022146033690484207,
      -0.8349919567655951, -0.8072995205716795, 0.7637378463676009,
      1.122226349054871, 1.2079174612191312, 1.5520572696629018,
      0.9967985145956957, -0.902643674812625, -0.31627039549531494,
      1.7289485635255881, 0.3219574054938025, -0.4751460944851048,
      -0.41049509411378515, 0.12592371921352338, 0.9099274472786374,
      0.2808096501194325, 1.2744426467377181, 0.15020851135840899,
      0.20902471504341902, 0.2506091827785036, 0.163343980501735,
      0.14589362340757403, 0.7655477191417546, -0.3889903574086321,
      0.6243571994637567, -0.4128604726234763, 1.3884259395474536,
      1.3603827304212244, -1.0246815643502227, 1.3861352684846409,
      -1.1830983971961038, -0.5768025433078467, -0.6582091521414897,
      0.9422404965989367, 2.4894561030606783, -1.244284257016609,
      -0.07052168666181512, 0.5192945751793944, 1.152661281870775,
      -0.47771230400201475, 1.681056938234715, -0.3023323693285366,
      -0.5982965233281718, -1.4638446982704012, -0.8133754807456918,
      0.028014150116205908, -1.2921814822751443, 1.5256961593070453,
      -1.3907541217332826, -0.8136708293660246, -1.4917482841806553,
      -1.1982812683061634, -1.324987186771607, 1.4741680818661878,
      0.028504495533079845, -0.03646719199205833, -1.3602425181358233,
      0.886039825826278, -0.8478687777129648, -0.09266536076916225,
      -0.32657446532392903, -1.5824974672965413, 0.21152608505729284,
      1.970449061789796, -0.7082182938808582, 0.1276440171983308,
      0.1647256629546981, -0.9480422785051361, -0.41870953065091004,
      0.2760551500895804, 1.832467427413389, 0.6483034197338489,
      -0.11953704572305207, -0.034910667328530195, 0.9953461600374132,
      1.2102209307257965, -0.23957989739828137, -0.19077563776563838,
      0.37973904011369575, 1.7418112011571565, -0.37425428702829316,
      -1.7552537902482879, -1.1718244842867014, -1.0390356298510048,
      0.606040883382743, 0.8257416666248063, 1.722745454846808,
      -0.9235072915507908, -1.281897548953957, 0.01778018869596121,
      -0.03999103753337119, -0.4338420360712768, -0.1335140477063628,
      -0.4757329567750507, -1.723268797989133, 0.33773230454694164,
      1.5522354862788712, 1.7062383715996603, -0.9766448490963149,
      -0.3273361037527474, -1.7021176811840821, -2.217336775634492,
      1.3470469173422062, -0.43876522377034627, -0.04839205054127597,
      -0.2989025186313687, -0.3367388992120405, -1.496673588599004,
      0.1856645908002771, -0.17287011903339075, 0.05053674582840199,
      -0.6098596908103475, -0.38502301548368534, 0.9824227481862555,
      0.005477721141040727, 2.2940136491532512, 0.10705824058497873,
      2.17418204503453, 1.3205782051925798, 0.14795668296295492,
      -0.9827219984924144, 0.32052264012305914, 1.0561636367787992,
      -0.3331955945782783, 0.8816571975586011, -1.0024466123444802,
      1.7417640376771006, -2.1195681731834046, -0.3478214201881827,
      -0.7351613085248517, -1.4243916059545352, 1.506504935890989,
      -0.9026654427286367, 0.7484621422175224, 0.1197681095519155,
      -0.06305565937386345, -0.6043322721849932, -1.232064162962054,
      0.046263271511984366, -0.07122773918705463, 0.49532025843464045,
      0.8188219717777339, -2.047000202159411, 0.499509507685193,
      -2.2473329260694803, 0.17138190956559643, -0.7468514393685757,
      0.8690714696541382, -0.2227913912748174, -0.9141097641705218,
      0.49825198192535464, -0.7357070352478626, 0.4441178510068706,
      1.827007106477142, 0.27364574278478976, -0.9994205068751336,
      -0.9094314114128852, 1.4001526286741621, -0.7398555995261121,
      0.7932172831415506, 1.2340207965121983, -1.1978865968322019,
      -0.6808705136799813, -0.6702032881235249, -0.5692415520665192,
      0.1019025416965296, 0.5434615297816091, -0.2734606674097986,
      0.47507912823024445, 1.7638453824628755, 2.4008482523202184,
      0.492845668760962, 0.16334023606621356, -0.052864975227297266,
      0.4517799909008452, -1.007647232831645, 0.03908868152543701,
      -1.4031010599501532, -0.49203689016983904, 0.37118600531928586,
      0.39594079675272803, -0.10132626651150173, -0.5160395799733563,
      0.5730376539223334, -2.4308508053679385, -0.09855261952858854,
      0.6020941732151363, 0.5011107860169121, 0.855362087325075,
      0.33398464425156915, 1.6993100504436671, -3.6100118484521277,
      -0.4151987551232766, -2.2382353518404017, -0.188239006362469,
      1.7730787585828307, -0.8509446877347039, 0.7603065381093675,
      1.7738387771078834, 0.8401518974046457, 0.9812251789586455,
      0.4228590489078608, 1.6297396993541335, 0.4003222093125766,
      2.210962808418792, 0.7405573118414917, -0.37958578009495775,
      -0.7720245306186853, -0.3297757420004374, 0.6142036375919061,
      0.8532027819806659, -0.778410727016408, -0.5667290977290581,
      -0.18425501729074978, -1.5034476988177625, 0.4930800931321873,
      -0.8321885848478346, -0.7998920524905669, -1.1050995672640522,
      1.6266447834662183, 0.8924857347356356, -0.6373649922096267,
      1.336187402844296, 0.4226975922687285, -0.009377193359669451,
      -1.343245419331942, 2.176672847167019, 0.7256086034468774,
      1.81378980271118, 1.0801791392337008, 0.8073992843869602,
      -0.05476383467824678, 0.37567539145692036, 1.8251395573584517,
      0.3658792771431044, -0.7398333291719403, -1.3172302394218967,
      -0.81678000650255, 0.3124599426858453, -0.971722440889297,
      0.9042818315878106, -0.4813979952354209, -1.1737498530467485,
      -1.2915789925642853, -1.4585840868522022, 0.4463351921697805,
      0.7605772121893535, 0.42707550420873447, 1.383853325030443,
      0.4232678504814317, -0.6525504429162805, -0.8048495328449976,
      0.15745899600704658, 1.290589948542534, -1.1923736787494723,
      -0.2808215398531923, -0.4418443605012495, 2.0929857365923517,
      -0.9156389447266183, 0.3671486383110363, -1.2440821044834116,
      0.7183555391529082, -0.2767900557278893, -1.814797614930723,
      -0.9030394076182074, -2.035778161527112, 0.7974948815219581,
      -1.5853479746946069, -1.0478221566552808, -0.17975258387440202,
      1.2177666130701226, 0.6336813821020668, -0.05253297367921715
    ],
    [
      0.7896404165125451, -0.2776012280410684, -0.878629679467792,
      0.1626046430897991, 2.511336145870401, -0.235843902527339,
      -0.19516246470888235, 0.8502810178088316, -0.7185192483970518,
      -2.2141836060871705, 0.43667085807285877, -1.1730020368694483,
      -1.3542653008551573, 1.8461260464848084, 0.09034666729582644,
      0.9375241637410029, -1.7977195404732202, 0.7637191786362005,
      0.1710109707213478, -1.2134039401291155, 1.6927764782097794,
      -0.2108984883139241, 1.271054739297826, -0.4586239998427525,
      -0.4168681815793751, -0.2891274437929947, -1.4507250542166057,
      1.624645534375679, 0.027863280450841188, -0.44845444371620485,
      -1.0435323636939484, -1.400831010098681, -0.45985001825181665,
      -0.025251692900759192, -0.7247276296756585, -0.37313313420137095,
      0.20455783826686624, -1.5254954635359994, -0.362661894618437,
      -0.4347646296729331, -0.32187131851242107, -0.2867696937590511,
      0.34870434071472606, 1.2716734211057419, 0.15370218038865135,
      -0.14245038310960575, -0.24208916142246542, -0.9841321501780084,
      -0.4478101274608929, 0.5453212599780185, 0.05630611298272819,
      1.1534657317917276, 1.8698643782391058, -1.1594615855615196,
      0.8896753697828592, 1.183139581990722, 0.6659256970099108,
      0.21290427650271607, -0.2677311232385379, -0.1921882929604278,
      1.3344906639146246, 0.9648075017884445, -0.9084233531760637,
      -0.23015303083442332, -0.3778091308844681, 0.4808202153527566,
      0.15764266517070305, -0.5778421357379001, 0.6122844916460009,
      0.14275398703511744, -1.6454392353642653, 0.7751495469884632,
      0.19369826467527004, 0.03379763726949176, 0.0234582984225641,
      -1.6864694370526025, 1.3365438797267593, -1.3146003119909413,
      -0.319332426971418, -0.5443837651323459, -0.05154761449905422,
      0.2634501292674872, -0.5738958004204305, -0.5511850367040969,
      1.428016503665696, 0.43577338348631295, 0.6296157341485671,
      -1.0656898632673972, -1.323600215217567, -0.14834638476575793,
      -1.6494347037997796, 1.1557875836514018, -0.19598654763987988,
      1.8683531101360666, 0.09187790087736736, -1.2303544926061758,
      -0.22898813939601223, -1.6352709836775368, -0.7064614543312094,
      1.4775217417592124, -0.17550387170087406, 0.3511983193494945,
      -1.353997417786528, 0.3299588875657481, 0.09768183691883144,
      0.09126126902301784, -0.17970630738674315, 0.8850715106756925,
      -0.06878918180454169, -0.44489220765930715, -0.33385143340692064,
      1.454724256530199, -0.439319017276886, 1.401801273939175,
      1.5533755283848782, -0.5039547342486758, 2.2637387016311927,
      1.5734710768465532, 1.9151970001265843, -1.3926995201604448,
      0.2859020365783191, 1.0970836738906296, -0.9483166483334599,
      0.8605874023253482, 0.9631700254668938, 1.0060793445889873,
      -0.4050321129007379, -0.03302785338671735, 1.6081644982699237,
      -0.1175043126473592, -0.6150768606242315, 0.8318640412849878,
      0.34842612139020446, 0.7285271253222434, 1.4593872319405352,
      -0.850679662037224, 0.5749405779007012, 2.259948377611605,
      -0.5693115461072323, 2.090583558510257, -2.6420029137103875,
      -0.11498946122153657, 1.212283143693569, 1.1075902541952394,
      -0.12142948161536445, -1.098744112581075, 0.37960786782153016,
      1.36814058254717, 0.3281952910894486, -1.3158807021771572,
      0.35084590077472394, -0.7605862760560459, 0.7790297853980106,
      0.44873532326969245, -1.3986890956316615, -0.7662603668150245,
      -0.3420637971738019, 1.1162164957568654, -0.8211372853205052,
      -2.3625530629768643, -0.18445148075195958, -0.2520519579063059,
      -1.1941679303189394, -0.10671634877576272, 1.1786312836402324,
      -0.22262680228088738, 0.4907170593503526, -0.09182325247498878,
      1.7189296790891326, -1.1142564157237516, -0.720723810276437,
      -1.3159702582843795, -0.47681746704690703, -1.473414201851685,
      1.4921429112476305, -0.724955099643556, -1.1244459007920131,
      0.24328881330652843, -0.5260440593681648, 0.30333415733131175,
      -0.3122828657927593, -0.20193030430172199, 0.007616272919772067,
      1.4151650015072088, -0.14055515338066094, 0.09068705882667867,
      1.2309095029963804, -0.8108217229894653, -1.3947535993137952,
      -1.6590150743779792, -2.997940287038613, 0.6796255701135323,
      0.40152664662387955, 1.37311544483342, -0.030693722814527504,
      0.505041739564369, 0.0585092779571004, -1.3281219395716921,
      0.2396941134441664, 0.9154057164388008, -0.3504447653142036,
      0.15919906920255408, 0.07827886662291951, -0.5692901289299975,
      1.4368190903108913, -2.191201497945738, 1.3712929017737614,
      1.2986330766823317, -1.1558765599342744, -0.1863573749542357,
      -0.23030924453073026, 0.34254288342348665, 0.438240150399051,
      -0.05451470929787107, 0.8482973509777224, -1.0363212775228892,
      -0.485510314797048, -1.3943816861897165, -1.2629170111945411,
      -0.20871174521307753, -0.6324822323827972, -0.2813313124596996,
      -0.21029875789701716, -0.9049101779988329, -0.6668792398484505,
      0.6256860110825969, -0.10680665582639716, -0.7466159485203406,
      -1.3643998244281685, 0.13029181400646359, 1.1600673880239167,
      0.6469322060438031, -0.3299231476687124, 1.5958236770666663,
      -0.8401449225447808, 0.31209527892422956, -0.9596725914364461,
      2.1888992556869082, 0.5285342327154473, 0.33178552823442925,
      -2.0030558665881437, 1.861223360220209, 0.036157928993766915,
      -0.6327236794362122, -0.3320743117519939, 0.1738794226663544,
      0.873316331222902, 0.6884990526743523, 0.6094003450427349,
      0.997062633504562, 1.1969224096170705, -0.5369724740161638,
      0.028137336379516147, 0.2800327352789518, -0.3455383440950642,
      0.900748688860982, -0.2280019060854532, 0.9662715039489228,
      -0.01320251110503509, -1.3974419144136276, -2.7422729703538145,
      0.2736042863414312, -0.21162535229145338, -0.4270446545826299,
      0.6347780730499069, -0.34658968880074786, -1.3898365009825926,
      0.08718546805856084, 0.6329252375900433, -0.3274265561009406,
      0.9036685984820669, 0.3154328809348238, 0.9544448971729078,
      1.9194706738545269, -0.5292120125345773, -1.8872490092549123,
      -0.39171049860612944, -0.49594299931900215, 1.4455870594648461,
      1.1381289568440585, -2.5238550861705664, 0.9735238034338874,
      0.4174365719385081, 0.21409444289982235, 0.29129335943850126,
      0.0015537198332207613, 0.49512927054251893, 0.8396080720217178,
      0.37746996472116845, 0.3431066344631442, -1.1530306894628588,
      0.9333408389363772, -1.2449807025461468, 0.7375145562711726,
      0.26187065952863103, -1.5961574298819836, -0.6915901157140997,
      0.36730559556466047, -0.8215252874663916, 0.2843149320428895
    ],
    [
      0.9483517730276303, -0.6531995345038766, 0.8611199983303947,
      1.5881072209644385, -0.8482331211026657, 1.09479363195137,
      -0.9982040837880078, 0.5948481917729018, -1.277049130573447,
      -2.221009684409974, 0.04014058717718741, -2.00448846051088,
      2.0546396547852797, -1.328400496679466, -1.3320807988852417,
      1.5635300727114958, 1.0244829911512057, 0.567848219643486,
      -1.435367311533003, 0.3603403130662173, 0.682547169286603,
      -1.1942166561202838, -0.48586282373649453, 0.956823952208492,
      -0.13190098911445775, 0.27106661395568726, -1.0202162282607892,
      0.8640885192231649, -0.6578844498859813, 0.9097146286582837,
      -0.057263130823401565, -0.24709613252373294, -1.0111568113966634,
      0.6185893932015772, -0.5448608808737474, -0.5044669662552795,
      0.6206539332173279, -0.6213343976601235, 0.38906194930106913,
      -0.6361065498426616, 0.7606284647790068, -2.3186440864154343,
      -1.7199413569776292, 1.5275295811378045, -0.21980353480833642,
      0.03929607035924452, -1.7933179327125126, -1.0103654192846114,
      0.7483702764694302, -0.3468065513023019, -0.5138719026082074,
      -0.36554678270979174, -0.02133559288603464, -1.1281722830096463,
      0.31299035205629344, -1.8526428337857799, -1.0629504489628965,
      -0.3989976521017426, -0.9830894418212153, -0.356246528533539,
      -1.5537512766336483, -0.04244017162401134, -1.7092690497750729,
      -0.17184444327586856, -0.027940260421926467, 0.6049473698409574,
      -2.159706147221472, -0.33045331154042495, 1.5181009560849694,
      -0.6187234210067851, 0.008422281166233524, -0.7034179134065689,
      1.7347979057216574, -1.0664186468017198, -0.5690453219044476,
      -0.3955146980221448, -0.08030439514552587, 0.0829048969170514,
      1.6038387251623256, -0.2520616176949476, -0.34748809987114354,
      0.6633454907547478, 2.278707893372924, -0.21694138656620995,
      -1.5340894895319912, -1.9595015464893195, -1.177336367690969,
      -0.42625864842137445, 0.4904822696208478, -1.4056035860885028,
      -0.7650217142428726, 0.3463772719332615, 0.010418231740246359,
      -0.4890137433029793, -0.7906751537449332, 0.6293877730503595,
      -0.09767321938191618, 0.40298729431151015, -0.6478034045751621,
      -0.8872984129925223, 1.7152719770460274, 0.2844515824514406,
      -1.7396645623425555, 0.21964436360825704, -0.17302513937958938,
      1.0605193121641485, -0.12498873580991196, -0.625375629969354,
      -0.9059147608927982, 1.2406862211059633, -1.0342005759148325,
      0.8230111476566536, 0.6458955663006342, -0.594539106757593,
      -2.0201242325046675, -0.6977724519412204, -1.225287513361328,
      -0.3378758632521055, -0.4615239837721362, -1.6612913841466277,
      -0.926921890066377, 2.026575930044931, -0.3275644616897786,
      0.6098496483975281, -0.31069942571550613, -0.2395316594688315,
      1.9401926256298188, 0.492480488049926, 0.06638991404666937,
      -1.1173054220207717, 1.0930363443056181, 0.10777793755449833,
      -0.6902456056392572, -1.086865485785538, -0.30465414666431956,
      -0.03503444826413366, 0.16418946017586145, -0.779099665127904,
      -0.25160107362504336, 1.7303933601563628, -0.7145958969830006,
      1.385612433362498, 0.0653353916037422, -0.3882744702799557,
      1.2883210437623505, -0.6394497242985436, -0.7606894767864374,
      0.33611816525207155, -1.0958208139798464, 0.6194819115649634,
      -0.5386809168353511, -0.21240081948532247, -0.07791103298457591,
      -1.0807182329906224, -0.2636845511407556, -0.7038338574204179,
      2.1518686761370804, 0.2955929023979664, 0.26158317563852734,
      -1.6387625104851617, 0.5895554621860545, 0.4061686830576939,
      1.2119601197106817, 0.4830337245793045, 0.0697850974265782,
      -0.5085579297350923, 2.1321533594774396, -0.49923991917496513,
      0.015350377386419678, -0.27666098764089575, -3.0693735106629103,
      0.31752360694214743, 0.6438916739792686, 1.3883919594280452,
      -1.57604512035306, 0.7419928161091442, -0.6670870033314895,
      0.2797035932174008, -1.331497462876638, 1.28188443065002,
      -0.3029294595370265, -0.9159468963174636, 0.5916753049064226,
      2.007879392455028, 0.32884120382654614, -0.9895528940665878,
      -0.6887308713159964, -1.1265893263911124, -0.3186359723496905,
      -0.6111434201300651, -0.5433794398902149, 0.02622835908519847,
      -0.40236692102083743, -0.6005839867864902, -0.49621080050217725,
      -0.1561505935719315, 0.4146338751929213, 2.2140879964544693,
      0.7795288703632408, 0.03560904367075722, 1.2651472805850525,
      0.36867341444561946, -0.8347574825368769, 0.037539450224156196,
      0.8621659536097431, 1.1838235212955626, -1.31278786902396,
      1.1842871629614822, -0.4489780964781489, 1.1391602448152476,
      -0.06333317577332652, -1.0297828235410418, -2.2485398194061457,
      -1.9979911820470784, -0.9346170086017881, 0.14510758811681063,
      2.10407885663241, 0.05176084604295646, -0.014781090779324242,
      -0.48375050019463867, -0.8080202591198313, 0.7150189537227954,
      0.5309263297353415, -0.7752512001318325, 1.8067000450259199,
      0.6789517581109135, -0.26165729591326925, 0.6168696449098217,
      0.9441104244009558, 1.159957679144205, -1.9044106436265646,
      0.03205347233019495, 1.6079178152174232, 1.6975499637527494,
      0.013555114986061951, -0.013777914974579173, -1.6978395774548576,
      0.20044538399880438, 0.4592658065152671, -0.8841456811724916,
      -0.07918586923919561, -0.20867966011875594, -0.23617880542163863,
      0.7079080468655137, -0.3572497141366577, 0.9800335500405042,
      -1.4886560029346874, 1.5838025871639458, -0.9964095868511449,
      -0.35483524547436157, -0.6796485373180118, 0.8490095532707028,
      -0.5239385916607562, 1.512888502125942, -1.325086272215455,
      0.6814065705494726, -1.5490826685749968, -1.563023398413588,
      0.2319098358732889, 1.688772128901134, -0.8401965771844384,
      1.5077097573221472, -1.7498147718145747, 0.2192109439462933,
      0.01192029953847252, -0.596885661172656, -0.21397744199822938,
      -1.8390661796851917, 0.2252057381981876, -0.40198649091156147,
      1.388080460448993, 1.1748236077224385, -0.043176579996282,
      -0.7525197367266608, -1.1234642119762153, -1.091092794629172,
      -1.087855613160734, 1.0180458839856545, -0.7206552006197494,
      0.25141755005668587, 1.325334960469208, 0.44564989467953114,
      0.2591864261446995, -1.1472150484855377, -0.04759068403695307,
      -1.421470507120331, 0.6045167485410007, 1.1322459031891046,
      -0.8736958637434674, -0.24696682834385977, -0.8988912996427048,
      1.0466093954652953, -0.41113601077983847, -0.8291703511332107,
      0.9177512764245632, 0.06671291065539822, -1.2165479876667695,
      -0.05472762200449539, 1.6821770638342972, -1.1382795862837665
    ],
    [
      0.5889131147780364, -0.4043825643826662, 0.14986327296157065,
      0.4049804150895938, -1.40613685222309, 0.8054076196362561,
      -0.2099386920446771, 0.41402679608568344, -0.36593875161165706,
      -0.2586679214916131, 1.2303577340269198, 1.3776796580553146,
      0.9268199450294735, 0.915393243446093, 0.22971197955502148,
      0.5167568545959207, -0.4718860741103268, 1.5696904097863447,
      0.5393746612912265, -0.05249132059177785, 0.808952245396863,
      0.10033482472570007, 0.7821843426683717, -1.2896929522181446,
      -1.2992625125795894, 0.3008098462053754, 1.3976191349516442,
      -0.03275121578355413, -0.7276572025256806, 0.10075554243467648,
      0.3012350884160637, 0.16766302826361718, -0.30478506743405553,
      2.1829944063149846, 1.0206635726247526, -0.7415497829203938,
      -1.3645518778267605, -0.5584971225804404, -0.4259501322357131,
      1.4267137249681552, 0.022367303725498538, -0.9810772282764632,
      1.5576370263057655, 1.0942805265243047, -1.1879008603993702,
      -1.0490232487706324, 1.4835583450589203, 0.40422244589162465,
      -0.03004837940449674, 0.10747689233202527, 1.4987040569137435,
      -0.16897641765460786, 0.6170326737802141, -1.3654674315167223,
      -0.04161302017191667, 0.1625718940260124, 0.9679052460363499,
      0.40156515689101097, -0.5568325327981332, 0.2876817995601326,
      -0.3102295149418711, 2.133713341818944, -1.2185656969929244,
      -1.6565499902641925, 0.858418222702505, 0.4814850560723889,
      0.9251923833437561, 0.12466429784476028, 3.037462221519485,
      0.47782922090373614, -0.7492573433799453, 0.5498934877369288,
      -0.22599706168663658, -1.5168511312520039, 0.9912238214363527,
      -0.890733713854023, 0.7072584317181865, 0.08495429865012655,
      0.8430711426756461, 0.7420519728529313, -0.09580909362202032,
      -0.3960439119027057, 1.1252985684813477, -1.1040502466786546,
      0.5600438292996981, -0.7188828083640548, -0.32045599841084665,
      0.09183621458575218, -0.13951995139501974, 0.20386808115279154,
      0.3228878115386247, 0.036758059077741864, -1.9408764964901835,
      0.4614842354512554, 0.721739586243609, 0.06909058506277532,
      0.18189353717461423, -0.2141084597814328, -2.4201556686082797,
      -1.5105252326781575, -2.2102722572167823, -0.9472939267705873,
      0.6005959965797762, -0.7688088412334138, -0.41690792873756893,
      -0.29203298963405305, 0.7263927576787097, 0.013014994582003975,
      0.7131331308260933, -0.2869158273452857, 0.23454967114483272,
      0.25523287459278243, -0.07143753720480395, 1.2639452435057443,
      1.6740743455227296, -0.2958759353479508, 0.47285566522771116,
      0.4655307355783922, -0.7995767555109975, 0.11017905152528125,
      1.6191850805110646, 0.34484205334063966, -0.5392475257478906,
      -0.6200878146161388, 0.41214007267807057, -0.6649671074193647,
      -1.162449990079838, 0.24949491106131552, -2.1012732006658394,
      -1.231814593727032, 2.1561808714662023, -1.2642012371107785,
      0.3743892582177944, -1.0711221091442547, -0.01188598489178787,
      1.778243566436362, -1.9325777885385673, 0.6860196777290123,
      -1.1735752427124355, 2.1458299726135794, -0.8459749645114428,
      -0.3663672373119418, -0.24237551307656616, -0.0799642800074899,
      -0.30245739808280697, -0.6203697719097359, -0.20633226271427912,
      0.9784968374784103, 1.250923115539448, -1.5106887102387152,
      1.0828592347986068, 0.7393708425277818, -1.1095321782762044,
      -1.2162907039186153, -0.09983309508558928, -0.6562609005172076,
      -0.20577625831890028, 0.9274584795178628, -0.3392194871140833,
      -0.4759117823190609, -0.5088461353797412, 0.932342503392966,
      0.2503139817258872, -0.6248399552428684, -0.17101707649629733,
      -0.3244011083437203, -0.04380846195574368, -1.3705729866929544,
      -2.123773320855376, 0.2283040192523001, -1.1980710987503609,
      -0.9465573826371101, -0.1669177431337679, 0.6724645341048469,
      -0.4149593908426545, -1.3567305141347177, 0.8345712207615449,
      -1.7065560195476213, 1.7251572647320659, -0.4885362827781977,
      1.7993930211986109, -1.2757443193388853, 1.943232416088718,
      -1.476439103649872, 1.9702239940169035, -0.0994987156044708,
      3.2400161776244256, -0.8084281314699255, 0.300171508224717,
      -1.9729796054589617, -0.004934828737097001, 0.8757782516972211,
      -1.118028577949493, 1.4595550481566333, -0.08283748385011826,
      -0.08114444714792371, 0.009921503497075134, -0.4791570484911324,
      1.3327038390750003, 0.4818875792790605, -0.3820343694904271,
      1.0126975502763076, 0.9948322012554479, -0.9937534471293282,
      -0.9675105079249171, -0.498005818281134, -1.3283755632976155,
      -0.4920386793483258, -1.1309164631887056, 0.23464172737163583,
      0.8342881248612332, 2.3288649644138797, 0.930364152053673,
      -0.3932332043682472, 0.6723163554757156, 0.265352424850664,
      -0.5864607745778834, -0.09047119988516726, 1.6979043686318533,
      0.571167331239432, 1.84836119056948, -1.1437885368975829,
      1.8947845454298906, 0.0774177606239497, 1.8448574319127458,
      0.7672833686300744, 1.3711163806265967, -0.6295643288432784,
      -2.6319372538054933, -0.18139301380211487, -0.6051402236418665,
      0.6812707717931806, 5.310645675239157e-5, 1.332589203966306,
      1.9726811471151142, -0.965180143597021, 0.2785384261236664,
      -0.5007956310432324, 0.47448292769705663, 1.1189349116597727,
      -1.425552382061894, 0.026561461807930134, -0.7752996821148985,
      0.31103606383791277, -0.43637466468778024, 1.127611015900632,
      0.18552382877558493, -0.39593941061044546, -1.107112857476961,
      1.1282110765423858, 0.00010389972937398046, -0.2294559538475084,
      -0.539517616737617, -0.0842519167969009, 0.1368916167131495,
      -1.0926744014653438, -1.2959318519385565, 0.2572731850902586,
      -0.7450751554650862, -0.5205796996961538, 3.287663069426523,
      -1.0443443999899733, -0.024241909654452085, -1.0673677730277058,
      0.7387306310760692, 1.406751184883429, 0.57842505467389,
      2.023550431861251, 0.7958833826323108, -1.6418505981866631,
      1.0724337798752428, 0.24203405770100922, -0.013927854188135708,
      -0.3897815538944544, 0.5366220572136801, -0.22074122017014924,
      -0.5060161015815645, -1.7284903333552741, 1.1185993458154284,
      -0.1026939933192216, 0.15594138693067613, 0.047215218640663595,
      0.19388537962248675, 0.7313241644114253, -0.17150938450553224,
      0.13533984138639232, -0.9807296669421914, -0.8875049493671513,
      0.5188168272901542, -0.5694963847221277, 0.47920238093811934,
      -0.6593952176718395, 1.232891845846538, 1.0476693306562446,
      0.3467583983636919, -0.6518866596640468, 0.26735371729515395,
      -1.245281689690675, 2.256025529163069, -1.0922199125771563
    ],
    [
      0.5985546190887147, 0.6086365568201795, 0.5631797389531578,
      -1.0050433486274049, -0.2710871249636312, -0.06676998863942356,
      0.485968725935481, 0.09310272889898527, 0.09855202342596354,
      1.1386650216152177, -0.03302138066586123, -0.7397286806229595,
      0.5347903266042391, -1.0636157693657886, 0.2641103039692772,
      -0.9751635964382995, -0.6562382323020253, 1.044241918192407,
      0.05904424085934135, 0.12437300993992563, -0.5327732358616516,
      -0.37325650038762864, -0.6887158624084594, -1.1700968394602824,
      0.6865398597254149, 1.065758140298904, -0.8424102433285598,
      -0.07088008440925321, -0.8469950773235959, 0.9598562832474284,
      0.1881906849331971, 0.6410341373295939, -0.42266724951408324,
      -0.021762689245053257, -0.1912216243468056, -2.0865112011906133,
      -0.3132762842505661, 1.1242273975311532, 0.8937837312245601,
      -0.31332848972685945, 0.8578843694306598, -0.4354145514175646,
      0.7630967590415111, 0.8118531265466205, -0.6244589539339929,
      -0.04191337138005227, 0.31277658483524434, 0.5482548208374454,
      0.36578867076266386, 0.7495384273279226, -0.5090683431240594,
      1.4313976151628485, -1.0494365221388058, -0.8854023138993462,
      -0.8582045008802738, -0.5652905613397735, 0.14723656221302306,
      -0.49242918245132644, 0.12998472460841617, -1.0276034305841195,
      -0.4423615297968315, -1.5003581436231446, -0.24060954800659143,
      -0.018336317748523345, -0.19644551090552487, -0.4382714417815935,
      -0.5352428800327624, -1.4938835342658014, 1.3763310296748417,
      0.334488666015889, -0.213559868419911, 1.3003503596124264,
      -0.797363175284198, 0.05403830300892326, -2.3309325154782696,
      -0.29369786757693717, 0.4662352527250405, -0.9873442780162206,
      0.13954357671388629, -0.2188324187283607, -1.9639500587900616,
      -0.8801965072202428, -0.9391961046316063, 1.2335125907201225,
      -0.2997641719337788, 0.44328208356603555, -1.426047088523053,
      0.5254145939600184, -0.843732184386306, -0.10839475678683046,
      -2.070980691016363, -1.0965761862029861, 0.1970964921233292,
      -0.15911051701698314, 0.8909818787996895, 2.479357159888324,
      -0.5637557754178566, -0.5492832357466552, 0.15300872836643667,
      -0.7534887420778466, -0.615400380139432, -0.3975820497245841,
      0.9971514077155091, -1.96728704824654, -0.34956780619672023,
      0.35780093157059395, -0.02032151573471484, -0.15095216813139042,
      2.4442683348691108, -1.0267046962956745, 0.6456645327609769,
      -0.4006907594633931, -0.22273010252045022, -0.9320573459808028,
      -0.7573519010016906, 0.09732178230202643, -0.7675150091242213,
      -0.7229466815722773, -0.22657001065355978, 0.46907231586358783,
      -0.2086763498995332, -0.6669728254141478, 0.7038403374050156,
      -0.3773467661954613, -1.3407345222640012, 0.680582171493564,
      -0.16649138221714196, 1.5004666309345231, -1.04315454716299,
      1.041278625956502, 1.556670473352941, -1.283440564686923,
      1.5894427924734285, -0.965104250647694, 0.9766976683139368,
      0.5441602855781177, -1.6828699209527014, 0.5659260701156821,
      -0.6085673689230164, -1.4931151393725726, 0.8149980438489244,
      2.128950558180402, 0.05699515818310898, -2.0701711727489074,
      0.185585081363529, -1.8250370644224525, 0.18105326529981153,
      -0.5043385738131578, 0.027739916717733987, -1.418736139199204,
      0.6500230882437735, 0.2250662240474743, -0.7465374836704936,
      0.9020725825230983, 0.684105557756494, -0.6497914096708145,
      -0.12445270881859168, 1.3488159189342575, -0.22056457881758798,
      -0.8693164349082351, -0.12516698942685026, -1.2421414132404196,
      0.17985763514585854, -0.2693619970759144, -0.3058597746939515,
      -1.4374614456001167, -1.12177415489577, -0.2613358389465141,
      -0.35727427761717373, -0.7050162395457826, 0.7164310905218619,
      1.0262457704040187, -1.126447124536859, -0.3260932115913945,
      -0.27401967059809246, 0.4045490039547642, -1.3416223105882878,
      -1.1496688993447501, 0.4357563368543099, -0.9347349853463425,
      -0.0654052932103364, 0.4362023093956119, -0.3218432431493308,
      -0.11325110439795935, 0.7022707669433953, 0.8625350037693821,
      0.2987242695774614, 0.8403317095331867, -0.06362142266433513,
      -0.17595264866420285, -0.34096191341159837, 2.352899020675694,
      0.7852080526673197, -0.7835245272134848, 1.1013180689903617,
      0.182435997662314, 0.40413675826203044, 0.23423851889183842,
      1.08473486789713, -0.36171446302060023, 1.5478681008932627,
      -1.2037530445697884, -0.5358137042295609, 1.1634060968026634,
      -0.8543946076056324, 0.6233915455719169, -0.49389065607624494,
      -0.5989545836811276, -0.6509381604319627, 0.5144702869764668,
      1.2378374575923687, -0.7328838527323074, -2.462930368699215,
      1.190583687715121, -0.4913642942145551, -0.1060244484646985,
      0.16663911973901752, -0.06116945371386762, -1.1418251422553456,
      0.22725249583279628, 0.19142841752979622, -0.536096980545407,
      0.533649478880528, 0.364974199724987, 1.1974158579733596,
      -0.27871701230027657, -0.3734489556970603, -0.13759689326245583,
      0.4309390632212486, -0.6755715653363769, -0.9806968374019254,
      1.3767705596302444, -0.7710154118688988, -0.42644543450206945,
      1.331925065466475, -0.02149586083793905, 1.3979402477150407,
      -0.20409541356510594, 1.7392470287638466, 1.6578433874720202,
      -0.30523046575611684, -1.227752009782804, 1.2851123561545335,
      1.3920008939051685, 0.11159691603107594, 0.23869815379150622,
      1.2087687764864798, -1.1507302638539578, 0.48974041177547145,
      1.3950949631566136, 1.187481804400995, -1.9238949651670412,
      0.1325975729284703, 0.19870039949731527, -0.6562513631000924,
      2.16791576119653, 1.2589366111200713, -0.9857982490040688,
      0.033373756590877976, 0.10803990962666182, 1.0002234435835782,
      -0.21014020645278594, 0.4058962244124537, -1.6004167041956894,
      -0.4017707857586262, -1.8427622368917125, 0.009507048018112895,
      -0.4032908166559836, 0.0974747027968954, 1.7522487691779365,
      0.3845149197768822, 0.6471190497160745, 0.2826406255654897,
      1.0776907522609855, 0.18195739659268612, 0.49106191103556845,
      1.4436982640384475, -0.592119554916885, 0.5144271046619864,
      1.5076257271736768, 0.1992301366736306, 0.01761224710790641,
      -0.7478411698771011, -3.2038763895949596, -1.9022821457299834,
      -0.15533787099237323, 0.3058155432089021, -0.6124803446288427,
      -0.9141235237803582, 0.17940167368046, -0.11383213424232011,
      0.4801378849660096, 0.8662095494486077, -0.9118844605979678,
      -1.0008651542246985, -0.36882187968678914, -1.8062212521188346,
      1.1022815526398546, 0.7712459656846719, 1.6702772229267107
    ],
    [
      -0.18539829970117902, -1.1745805573743775, -0.01202273283408113,
      1.2387026203004943, 1.0628536969435523, -1.1459144199794693,
      0.18627358564970964, 0.19548364866861864, 0.3517501243627528,
      -0.10769407341535527, -1.4234787185919506, -0.07394996265419045,
      -0.26733741938198546, -0.2895008786957046, 1.0969355957604958,
      0.13925013698282954, -0.20089563040908026, -1.1302008315732,
      -1.4256718075067638, 1.3608541647295878, 0.5550045280031032,
      0.13661944001416712, -0.26662349481170433, -0.8032326511287956,
      0.11916693385494716, 1.0544527234508025, 1.6446473870445366,
      -0.11272160328605212, -1.767501422523428, -0.2405219098464571,
      0.6429161138927202, -0.4453333513106237, -0.07463968602771155,
      0.09753412110293198, 1.992179232721124, -0.03724441221644789,
      -0.06930677116147085, 0.17287427711915213, 2.957951584718465,
      0.9695194961825961, -1.408158882663039, 0.06434229522076114,
      -0.8021369414169897, -2.3961979080661897, -0.7912419406861769,
      -1.4070148556149769, -0.35772746910513975, 0.4466991707533856,
      -1.2364995648278654, -0.08840117046153294, -0.4862709585959138,
      -0.9660789730323331, 1.5139807036416524, 0.05105422643909724,
      -0.9372249482820678, -0.024623390596714548, 0.5898882853155822,
      0.5287568711187572, -0.3756423803451113, 1.533056627060468,
      -0.6282609423538513, 0.06501159747586384, -2.1059806925494193,
      0.8541006076382618, 0.44468964896407814, -0.6816470717614503,
      0.026273404191232107, 1.3606176974193984, -0.2032130438618547,
      -0.08513601331430148, 0.6540707102838608, 0.16979898187140963,
      -0.6570547576916452, 0.4896493621694636, -1.0783475157574685,
      -1.879965267838371, -0.8707750979896031, 1.1361741631885216,
      -1.63283934405989, 0.3288986360707905, 0.9176677737032278,
      -0.07116065531040172, 2.367503843551659, -1.4277948410742172,
      -0.2923663206402651, -1.7992457970354037, 0.7480103144249513,
      -0.17110803884783926, -0.12848571790959262, -1.1718989954195558,
      0.9936914299593137, -0.48945522109361794, 0.4233454226376846,
      -0.9553124993105223, 0.4340745777782833, -0.04606536595016197,
      -0.5156494473129981, -1.5488013595942307, -0.2620490598199488,
      0.06693874716613722, 0.49853824328895474, 1.0322111440428559,
      1.3960185087335775, 0.2555551685426537, -0.3553150886176998,
      0.46354369298209297, -0.3519129585357725, -2.1853582081122416,
      -0.44305079549281856, -0.5877774816295498, 1.1667275755146485,
      -1.7725386247237327, -1.1447670232764902, -0.12772450098394036,
      0.1744209904114153, -1.6191044789064368, -0.3001868944789109,
      -0.5997334119967839, -0.6522178396039229, 0.3941091039134837,
      0.41459027478938953, 0.939132127713125, -0.20935459080329594,
      0.9090435171569301, 1.2698665352538647, 1.0523917144315116,
      1.0068558202851023, -1.1374315554934062, -1.514545452252505,
      1.151992981393543, -0.5770279265809551, -0.5683548977293138,
      1.9254648451294145, 0.8263600920796997, -1.0356479793791993,
      0.7486340512482174, 1.6610740567216151, -2.0501148457234235,
      0.39265551033587803, 0.40821930602405054, -0.05329462887175172,
      -0.1528185491727281, -0.47194798362774376, -0.27786928120189375,
      0.16536795054700912, 0.9080476015662075, -0.6971054515286792,
      -0.10260113239377971, -1.5096320818328013, 1.128828707872045,
      -1.3691237984088371, 0.011080171484109554, -0.44967246700976066,
      -0.8337191147693, 0.5893355915960083, 0.23641820343664444,
      -1.8055957291149913, 0.5219652584701611, 1.5834119710845322,
      2.1326459731068534, -0.7485942208677956, 0.5709998022499925,
      -0.13175363972934329, 1.315229891165595, 0.13029931989510862,
      -0.6139097860212502, -1.0353362890238285, 0.2013276086364258,
      1.1893948103054057, -0.8456764081736666, -0.936239112351657,
      0.16068489508545353, -0.31474804911420096, -0.20397740271606374,
      0.7560763668354247, -0.606538983272627, -0.11989602418397174,
      -0.7253636378621112, 0.1400852803307933, 0.5192197984111266,
      -0.8794077020972877, 0.6809798547700838, 1.3271416529117854,
      -0.2117921477808862, -1.112423781772898, -1.4098928560463622,
      1.247010009422691, -0.9298226781438101, 1.7101573454639583,
      -0.5421625786086686, -0.37575780163006123, 1.4573373832536993,
      -0.285316033397009, 1.199707851183825, -0.6975414984147219,
      -0.26158427347376023, 0.8500286035222402, -0.8297241374450713,
      -0.04213634217410752, 0.3303984395619062, -1.7257203820061537,
      -0.030745673108666053, 0.4401323039347538, 0.706249280599666,
      -1.8322221512567791, 1.6396760251247533, 0.25501411141453717,
      -0.5297956628512513, -0.4592151947002443, -1.6609684462042629,
      0.45993695327136364, 1.0490378914087002, 0.07766369727858151,
      -2.2785678164297845, -1.1447834123971714, -0.5068603443068258,
      -0.1900397192370311, -0.20364605149509493, -0.25694325709921084,
      0.8504534180121838, -0.20975911860236743, 1.4227135453036397,
      1.375014891121235, 0.021807648057351116, -1.1617048804905097,
      -0.41843681097588253, 0.5075805443552073, -0.23431428368783133,
      0.05022069231875993, 0.0024427111861499468, 0.7755719296880215,
      -0.16278948634572477, 1.3868183721548688, 0.9611887146938466,
      2.244341459565159, 1.0161424520904483, 0.5388235349999675,
      -0.20465118873769314, -1.3771467447225194, 0.029678991857652257,
      1.7753554561830942, -0.0023578140263157627, 0.23132768587030517,
      -1.4217040469462248, 1.0012902508052788, -1.5901879653709676,
      0.0021094602875298307, -0.6814876697107606, 0.6847291017952184,
      0.7490475325639369, 1.3511270602821193, -0.8541773608148349,
      1.2042697738051638, 0.14826761621715223, -1.354177572903062,
      -0.0005234532081680495, -1.9837368844622514, 0.8862410577679946,
      1.192661399131415, -0.9535979718391149, -0.5322824078320788,
      -0.1365122830613343, -0.8719941876838236, -1.644308037342851,
      0.266715163481383, 0.03958875438661386, -0.10045158043519291,
      -1.5164760883808128, 1.3167243436206901, -0.9656501121843843,
      0.6370030725117857, -0.5655253202753134, -0.002267258586301713,
      -0.23735134920897685, 0.5493120059754033, -0.2921236765714433,
      0.8650029355385883, 1.5315673387824293, 0.268654446047218,
      1.2087017109532339, 1.1958875089443681, -0.2670794533137915,
      0.3617886352796882, -0.0209192070907233, 0.8304916056770074,
      0.3449363483311491, -0.4706117369925286, 0.14075264013575325,
      0.2762824099684638, -0.215647676361777, 0.32286965876054613,
      -0.8728993994397947, -0.8714254594437566, 0.7726206625079476,
      0.15072372630852668, 0.6767738122967929, -1.036247471576109,
      0.4717147171381912, 1.8461738714146545, -0.7874149992545044
    ],
    [
      -0.47156986286311814, 0.20489088611066106, -0.7830451827877134,
      -0.4667110735920655, 0.8811770245553989, -0.31329326444779326,
      0.2673310571980381, -0.34276793314014053, -1.1203969288768316,
      2.083688730955605, 0.5559166702402356, -0.07841692045109062,
      -0.3900013057666628, -1.814874589695726, -1.663071067738935,
      -0.18688692626551479, -1.6383244654640112, -0.5591249999326179,
      -0.29890354387643525, 1.0282320264433709, -0.7427543745639255,
      -1.1251107325263032, -0.8631925214224205, 1.3811104896333506,
      1.5645837332616634, 2.1119484563234026, 0.3626776130482178,
      1.3106680020485875, 1.2259592090281395, -0.8813766967845418,
      0.6031282308067709, 1.1415974700475582, -0.4400700887578966,
      -0.19664906505374918, -0.46225083626891617, -0.29298172590274957,
      -1.0003508881473921, 0.9716736375910775, -0.2203804769227344,
      -0.7656102525670351, -1.303321595075028, -0.15818441905626993,
      0.06227979110371474, -0.6567288406324918, 0.357533741158465,
      1.4686624634125527, -0.20409184534905955, 0.8410523944091013,
      1.6765681680888107, 1.515789627828788, -0.6540478775369998,
      -0.8622040423121086, -0.4406554140658796, -1.9900317101519194,
      0.38035480598596527, 1.0266216760129787, -0.5163434009578673,
      1.5493589703684758, 0.8314470316697216, 1.3746805993687183,
      -0.6746472170407696, -0.34378243918149043, 0.17633426303372415,
      1.2651858699628549, 0.696257058277932, -0.19521663616014567,
      0.28316578843429047, -1.2213069422885217, 0.4411050923800279,
      -1.6037675824436821, -0.7625531428194386, 0.8341483958131999,
      -1.441778350494468, -1.329340346171444, 1.0621251501221427,
      -0.17055614696126403, -1.6111578445018362, -1.766524403957733,
      0.08387319624359596, -0.3163634496059438, 0.3222815533049606,
      2.180684968104645, 0.6475682592771468, 0.31546434405118756,
      0.6840320602620512, 2.8063420072087033, -1.6016826557857513,
      1.3691336143483548, -0.2809340918310343, -0.21194249879365284,
      -0.9063742925950011, 1.8320642817576722, -0.822190982615492,
      2.042881655268923, -1.3166627622409706, 2.0329994952319597,
      2.7536706672344375, 0.8967063921477348, 0.5923092788500777,
      -1.642331895706441, 0.7857472159956013, 0.9905255606451526,
      -0.2804057859166563, -0.9722707447711211, -1.31728313885841,
      -1.5256919576532808, -1.8680462454870155, -0.04492254312561617,
      -0.3714129805107752, -0.6762879731898037, -0.1518560267229932,
      0.03393766384207245, 0.15469771113828631, -0.8444111017832443,
      0.37141306584189565, -2.1803365557970857, -0.0071868120557625394,
      -0.005777074271955234, 0.40899150368826637, -0.7091725652752755,
      -0.6489372132887002, -0.7823050524256239, 0.2405201232291723,
      -0.24058466642914356, 1.1798499270959366, -0.2050767485670273,
      -1.5744466616873343, -0.8798331731815602, 0.8245361952123273,
      1.0550408334416326, -0.4892833890926363, 1.533778970602349,
      1.3469431559066667, -0.9694100713621906, 1.3042166199376002,
      0.4114444562272421, -2.0205154598201718, 1.758343696610115,
      -2.269974560297796, -0.32568537634503475, -0.02509818414602879,
      -0.5946539910139713, 1.2380461202439945, 0.6317092425486986,
      -0.4161526549800715, 1.9558326369133217, 0.2667475903392473,
      -0.2829266050346789, -1.7605186792269232, 0.9374042248646117,
      0.5973109517824005, -0.9588433728189187, -0.704538483717996,
      0.07078308659507883, -1.0341481227379452, 0.8273441942972173,
      -1.2953886248272417, 0.5399111037988852, -2.3621976892547805,
      -0.7082595341274563, 1.6576939557620949, -2.2379697829651835,
      -1.613110567587084, 2.236401264522683, -0.5189463097508594,
      0.641881453471327, -0.45402019825104356, 2.019974912609196,
      -0.22111420086091685, 1.1301719078378938, -0.6984744346659334,
      0.030441995445701833, 0.9084169760647672, 0.6616470946070839,
      -1.0327658923976946, -1.5355963541164437, 0.1404312404885749,
      -0.828981939888234, 0.33941753811956393, -0.37713621607500836,
      -1.4766678823072423, 0.4967641368969353, 0.5360752465530588,
      -1.26283924315216, 1.1398730995535538, -0.032848881242973006,
      -0.807479072860294, 0.5932902366483284, 0.38331410219826745,
      -0.5473605537395844, -0.7358806749131229, 0.23276814115709937,
      0.41416917097904615, 1.9159116198683293, -1.015959027281375,
      0.9441550243567216, -1.1205487567884977, -0.40078548061612435,
      0.43221772384026563, 0.59401710430596, -0.7710597561385418,
      -0.05016878946209399, -0.6134436167692486, 0.5939821909321651,
      -0.6906061749485889, -0.35920435274749635, 0.3503521534680177,
      0.31135304874255465, -1.5724093504273626, -1.4110558610843438,
      -0.6160533196226944, 0.5291264578857986, 1.5690834062743961,
      -1.2434491902954263, 0.31384438940416676, -0.3671563055436524,
      -1.6392709893011623, -0.8344934865448399, 0.9036627899203605,
      -0.06376079443643486, -1.5174017241918354, -1.0739670218455997,
      0.42149317886715354, 1.0019732841534659, -1.6489228335097745,
      0.006459956533719626, 0.5626378329328164, 0.5468284481586887,
      -0.39927873477628223, -1.3342764389401924, 2.3373646995160793,
      0.25032085017755495, -1.4700225829603994, 0.12740500528639243,
      0.2642200476117778, 0.028505441679979912, -0.06256891769121421,
      -1.870689320510897, -0.3203076568392149, 0.8974830324054085,
      -1.6053056139592292, 0.40428952300898624, 0.049955509569781925,
      0.1070697941574738, 0.29039957346497, -0.1356080109745295,
      0.058573209810279185, -0.0435310669977671, -0.47299246437339754,
      0.5291575918854966, 0.6501022500228205, 1.1895852099497592,
      0.2820365148755781, 2.0966109994233455, -1.597384475240446,
      -0.8728201351557489, 0.8171113444590566, -0.9122311023778523,
      -0.9846872400974953, 0.7305937015656007, -1.474807211876263,
      -1.7612323445100342, 1.4495598523447826, -2.2093908040966292,
      -0.4839072201873773, -0.07322529218370438, -0.5131952621020395,
      0.3467052407468205, 1.1715109678227402, 0.4916533381544034,
      1.3515851991513341, -1.3166458695401895, -0.46939217883512263,
      -0.9967539967710092, 0.9585053840880954, 0.5140164963250801,
      -1.3930901981700918, 0.5635260934210181, -0.6415153177014594,
      0.5157585548009753, 2.143302208290806, 0.3191574080684387,
      0.07601548564861974, -0.6874062771532998, -1.8718632550514565,
      1.3699872235934196, 0.9216981322149166, -0.2297887640999322,
      0.7555537545129127, 0.014742818084163896, 0.7015298845948554,
      -1.5877952973795673, -2.199880040847428, -2.0484146790936153,
      -0.6179158267050177, 1.544223446873884, 0.2263374676657749,
      0.34694405948563173, 0.37560356643273834, 0.21952536314203946
    ],
    [
      0.27412468933159534, -1.5204498765707177, 1.4925853221141199,
      -1.1293575410661516, -0.6994863446186917, 0.09733752770150987,
      1.7466628711961305, -0.533763134074946, -0.5520697658947196,
      -0.9602479069955485, -0.4277094094240358, 1.2648819446714694,
      1.4137198888027258, 0.038985346733625574, -1.1943201081830146,
      -1.2842487836984469, 0.09741718879194385, -0.44608232262470765,
      1.318429677379601, -1.4090640934295042, -0.008960393588518824,
      0.4920316152862615, -1.030259266014167, -0.23785708701340405,
      -0.43620409643169183, 1.0214890864163, -2.262997692113774,
      -0.7898414823511964, -0.33387923109484374, 1.1583482808845944,
      -0.26517339478223295, -0.7802878013817897, 0.7530756564631944,
      -1.5002702156305356, 0.060042368678582085, -0.7416177445782961,
      -2.468099427910559, -1.2933724577607475, 0.19959309401631253,
      2.0615866113331673, 0.8145797147126238, -1.4368729846523973,
      0.5430926721994559, -1.4879901656913728, -0.3636905500784864,
      -1.0335383282069213, -2.7126833091095945, 1.1629757790799606,
      0.31888090253133305, 0.9152218810774512, -1.6910582325926236,
      -0.6112442624934793, -0.8329779081180796, 0.3472644683748986,
      0.6716575329723327, 0.9023045538346723, 0.14439060739724927,
      0.2452254286425316, -0.9060817708609685, 0.2961950260568196,
      -0.3867404751047467, -0.2049961198907902, 0.4726380962886864,
      1.0732535872205973, 0.1397958169688782, -0.31400762110317754,
      1.3724496177280312, 0.37239333711104944, 0.806140776677011,
      1.0384287376732892, 0.9982129969111078, -2.0751147416456273,
      0.6412837725033468, -2.375180186913031, 1.4578363085702215,
      0.4932617197479822, 0.11524803262073909, 0.9139113511127854,
      0.13615233214378833, 1.1027970404030922, 1.9293431800348322,
      -0.4326352550012203, 1.5398099286207954, -0.7178702884569973,
      -2.0179999719456707, 1.2047755420914776, 0.4511391676705818,
      0.5834808421966686, 1.5426413678028483, 0.8044750467683214,
      1.7429627557453227, -0.9252050191156179, 0.20489626265386654,
      -0.012064931592401304, 1.397868659863375, 1.734328039060507,
      -0.25320028789258386, -0.3290138449167918, -1.2219595284371416,
      -1.7090359638506027, 0.5232241464081857, -0.026746510747977143,
      2.94416291839943, 0.7540457499334011, -0.45235048201898226,
      0.5213506248202672, 1.9447546874614576, -1.0697823658089054,
      -0.8370881471116555, 0.9935638818931783, -1.6079902021960264,
      0.2939536402841436, 0.261095832842601, 2.4317049663694537,
      -1.9352209938190077, -1.3296438257693874, 2.332303800903285,
      -0.6545302635984002, 1.527745572174231, -0.29766559709988777,
      0.0924453164978404, 1.014316114419452, -0.22148992700660647,
      0.8454405746806413, -0.39258366037935455, 0.01667808610774721,
      -0.31955201221180435, -0.25318599729212193, -0.8627595829154996,
      -0.6171370413739975, -1.01489300928153, 0.005874390444432258,
      1.7232908624865602, -1.3456485929522293, 0.012891800894015124,
      1.9543178968830732, -1.53107284574564, -0.8986008609984378,
      0.1622700004215487, 1.510614721907338, -0.6320629244534597,
      2.056368196291418, -1.516353182924249, 0.5138240166275747,
      1.4843070821719102, -0.165701266878891, -0.48762690028362676,
      0.3991565750682583, -0.631291612726157, -0.18599628154328365,
      -2.448189093249902, -0.021441325607065284, -0.8306777893577526,
      -0.9136165793808853, 0.381296822646674, 1.1473933729382384,
      1.0151164715754806, -0.25006094012606184, 0.3513918222037371,
      1.7594234253695633, 2.297254162378696, 0.03879207092348306,
      0.9769785350867761, -0.23428622012029246, -1.5558593980593993,
      -0.14566082633059935, 0.4267905888038465, 0.0030020812798638935,
      1.0651928109576405, -0.7706335190968626, -0.35099661474959726,
      -1.5961952427556252, 1.0811871716766739, 0.5378416188397116,
      0.7949193239219946, -1.076772136036038, 0.8727455889259699,
      -0.09162590797281601, -1.654496150304482, 0.5272803714543347,
      1.705686692901215, -1.0639796028755695, 0.07229374085872411,
      -3.0258870707349477, -0.24833919797512657, 0.16605760872799405,
      2.7274992076882376, 0.6416835378399894, 0.32282439160297177,
      -0.42468119300058593, -0.4419277489286011, 0.5112482806456209,
      -0.2808072432204075, 0.09852662572021786, -2.083143235033638,
      0.6552610137322892, 0.1954321453072243, 0.3348012127594544,
      0.40195804738551544, -0.2893010939632269, 1.1437149240743785,
