{
  "epoch": 3100,
  "input_size": 180,
  "hidden_size": 300,
  "output_size": 26,
  "activation_function_type": "SIGMOID",
  "input_nodes_weights": [
    [
      -1.0155478792480352, 0.5503005286511977, 0.7071524679920392,
      -1.9861484379239602, 1.3168061220037288, 0.6591026494608734,
      -0.03516418294059122, -0.8961259306039876, 0.8336948616929407,
      0.38353036124520096, 0.6082871185378579, -0.4485999741917865,
      0.21050650253230518, 0.28187850503555356, 0.5558256555478204,
      1.1528665840956394, 0.754011794328048, -0.08735578995083525,
      0.5440776356695028, -2.4214190600622683, -0.5210741131289378,
      1.7739358503564702, 0.16753977383230337, -0.9292541603908625,
      -0.01589115165944241, -0.41634557551269047, -1.7541454068621574,
      -0.9367016780323597, -0.6177801341230915, 1.147314199211964,
      1.2566728965892742, 0.02745608310711894, -0.002698665400485161,
      0.7228931554924392, 0.5729431127984607, -1.6266257067496763,
      0.45675362325230356, 0.702901919937784, 0.29728629343533075,
      1.8279926195586198, 0.17775189084355864, -1.20190517361634,
      -0.12844996730323138, 0.21757135887046242, -0.14917843471605738,
      -1.1046999966053617, -2.592201493643323, -0.9471744313239391,
      -0.721170876921937, -0.06998660796682611, 0.002444212073995355,
      2.187148184407347, 2.964618874085375, 0.11089029354215763,
      0.22891871728545965, 0.2352898750500081, -0.19085225754927104,
      -1.0533638874627302, 0.08709578320425326, 0.6407344103624955,
      -1.7514685052478143, 1.2472164530438208, -0.5796353645904138,
      -0.118715675839843, -0.20263652027201795, -0.28354127811668706,
      0.15318256033463046, 1.8771722132179454, -2.8243811848429603,
      0.2621494133361623, -1.3667997923314772, -0.444127273551805,
      -0.7750227683406875, 0.9586158934353352, 0.48188313574478747,
      0.9549062334393007, -0.3515830474269956, -1.3042409398976087,
      -0.7079937650520756, 0.7227741661568241, 0.008091876043440284,
      0.8323470607475066, -0.18536334665180546, 0.7654122500948828,
      -0.07310813484403234, -1.6438531420390616, -0.37790091298691175,
      1.1771363660500649, 0.4126695252482617, 0.7020515709577784,
      0.7250881792968181, 0.5071626776444333, 1.2739499714210951,
      -2.0141680674948006, 0.14168808232210028, -0.7617800376138899,
      -1.4678258940582931, -0.16157809584969893, -0.05707936321326201,
      -2.7311240956645073, -0.3284946562790323, 0.21733158472600325,
      0.9599155662705552, 0.5250660657699389, 0.21492979760227032,
      -0.40726826258220633, -0.6775251052233668, 1.4500449236857866,
      -1.7348450499690629, 0.7859042637845106, 0.09150615567788613,
      1.61614078017119, 1.3676296906203056, 0.5154058844421382,
      0.14722257037304176, -1.0284240781290528, -0.760971870811559,
      -0.009564227224937561, 0.34562269178779587, -1.6381560363367809,
      0.7863903121374165, -1.1136261740240352, 2.902980536298549,
      0.4316906088781602, 0.11414609107959951, 1.2179676871857554,
      -0.4466333849643924, 1.2462700497270423, 1.287708808659971,
      -0.006867024339454591, 1.1951276388100747, 0.34859438377991947,
      -0.7852004656536443, 1.4433123979366447, -0.724990006094996,
      0.23889089798099564, 0.626935023195145, 0.8149764806423061,
      -1.0456328566701243, 0.2268981447835714, -0.13882023784301192,
      0.4980760516562888, 1.1458121119715934, -0.7068643636826132,
      -1.3643144161199725, 0.13845960773612936, 0.26435506756418475,
      0.15974788537354986, -0.3439669775182358, 1.451203074234264,
      -0.47065132403206966, 0.647119552607117, -0.3068692155388208,
      0.7221371046049182, 0.07174503248894942, 0.45867512223939916,
      -0.11774843542043559, 1.9514894607021414, -0.7179825563930378,
      -0.5693123371506245, -0.244432711073727, -0.7415689284507978,
      -0.16691898395338933, 0.3828928130876043, 1.5622749483357954,
      -0.1881911875670178, 0.7724554521622349, 0.03947542972205522,
      0.9673699178893784, -1.352461092332715, -0.6988528960957837,
      -0.6213006919011864, 0.2491345975996117, -0.9106671860190939,
      -0.8335770431693353, -0.8753996968605091, 0.854306753371391,
      -0.2226915452889129, -0.7342425607470279, 1.4973170208174778,
      0.27464975651068974, -1.3232642393848697, 1.4517000445075234,
      -0.23394681356634736, -2.438206655658164, 0.6373301484462728,
      -0.40600248198068367, 0.32486204476934644, -0.17368154685775947,
      0.27258316187669185, 2.428635927657288, -0.5387862270924088,
      -0.5868745367276659, 0.15881600667617748, 0.11727513775185623,
      -0.16390764590180454, 0.5764140149421393, 1.165035530466514,
      -0.35707628946233105, 0.6547245889842503, -1.119299257131637,
      0.31654987966183495, -0.4142382336187034, -0.5912006831943838,
      -0.6698984357797835, -0.5051594158278488, -0.09131321340986283,
      -0.457712617063244, -1.3849768168249768, 0.5332900471846955,
      -1.4700119431087555, -0.12530727333653474, -0.08929606794895015,
      0.7158979798220985, -0.301908333924694, -0.39062692743069083,
      -1.1367919993929918, 0.3756507447695298, -0.7965622059258,
      -0.17238153186252458, -1.0279109068447339, 0.8067194366526206,
      0.09405907680793314, -0.03520223808552108, -0.7462852394893434,
      0.7567821845441842, 0.35869982863699684, -1.628606367033315,
      1.1141039964620212, 0.03368865967465324, -0.12959756657374916,
      -1.3587123750511405, 0.4645881420282875, 0.5555125844752833,
      1.1281332111145723, 0.6963469235915092, 1.4384296008592206,
      -0.3531109568606116, 1.604371907489031, 1.5587985035070135,
      0.13140490975290672, -0.08477565452612404, 0.02264102416486624,
      -0.2767229391829768, 0.17434160173927765, -0.3213844001672122,
      -0.6670699223408514, 0.5208041027840445, 1.617669094329462,
      0.44227642443965787, -0.8013225686483179, -0.6574411529178443,
      -0.6657328489936515, -0.18991580673319144, 0.3439335205874917,
      -0.42069681200262365, 0.624998085447363, -0.5488545083093292,
      -0.5902847243796662, -0.2971013563588125, 1.4847938063922843,
      0.45454248495963917, 0.7045375764759547, 1.1088073189340442,
      0.6805728535287787, 0.2756697754557695, 1.3850704597333499,
      -0.5466888848609869, -1.929488413718309, -1.3730625459816495,
      0.029075031480043187, -0.9418040919420543, -0.1829781199682851,
      0.6514140199101514, 1.2585897378080955, 0.8300465599018427,
      -0.6186568696492207, -0.2417486449408, -1.270169711139982,
      2.5950876842314923, -0.7159754932803069, 1.545930718740992,
      1.7511324331770972, -1.3112004794284673, -1.2661802871837498,
      1.124095569947604, 0.07350851710545615, -0.49249762887816706,
      -0.2892831843910761, 0.9577640690211667, -0.3581377544786024,
      1.4370963336663414, -1.57873145203267, 1.5026141073656767,
      -0.5880832714089401, -0.10673567990203926, -0.7734970082166548,
      -0.06771190504252189, 0.7526355493016517, 2.0241453018721467
    ],
    [
      -1.0230461686668508, -1.2391481421015915, 0.49737566210034373,
      -1.9745202558818529, 0.030263194439058474, 0.4502718641561163,
      -0.09030433627722623, -0.29823537692693675, -0.36041635224484625,
      -1.687144044367072, -0.02190994665318901, 2.2859898797842404,
      0.03409907596983403, 1.0676138138657592, 0.653720268972903,
      1.1795977784929237, -1.656333959800913, 0.15677871246905029,
      2.29348710886469, -0.25999242626030117, -1.4206902428285466,
      0.2613789448707449, -0.9304885644176563, 1.9967410490868636,
      -0.3281630439478586, -0.6484874895343076, 0.3892782551866333,
      -0.5256111828050825, -0.6414194040539835, -2.657423055560717,
      0.36526721527749567, 0.02014304419913267, -1.4938846813953235,
      0.795000735219785, -0.3549555650730118, 0.3691655622658505,
      1.2202901003546178, 0.004569817018711536, -0.4031458830334184,
      -0.21357787510100654, -1.3081532731975234, 0.04292555282209323,
      1.8616964019374986, 0.6726491584338045, 0.6671861423471372,
      0.27770413564198343, 0.8339174040736843, 0.9180252369005851,
      2.144871530844854, 1.08324807851185, -0.013194601545556595,
      0.6921499942943637, 0.28725278701291523, -1.0780697362308782,
      1.6630555126634567, -1.5054652122474015, 0.555532740775025,
      1.1834648608816065, -0.5035843729498235, 2.253137293964566,
      -0.8939345170675753, -0.9266376757133507, -0.5356428261477337,
      -0.8009195422123978, 0.568139981474997, -0.20780498397920585,
      1.2507768367109484, 0.8079203849393882, 0.5801418722683697,
      0.8120976849227491, 1.8774343718974311, -1.3964968448422495,
      0.25673729168121606, 1.4922217512083766, -0.036682996744534076,
      2.134303117150893, -0.4226696762980589, -1.4321934368986702,
      1.8384995674150335, -0.716508444779118, -1.0981357062969859,
      -0.16748049549686655, 1.2762990159986183, -0.012624058599148967,
      -0.3251355704938244, 0.5490115587875736, -0.9452313089178661,
      -0.172061119639408, -0.12295007746624674, 1.395368703931388,
      -0.5430030593521632, 0.8605108093679394, -1.1994363246844173,
      -0.5910520087140231, 2.128683104979418, 1.4379651422906268,
      0.5183462187678426, 0.6991914775303967, -1.7217174973671014,
      -1.1579776511822593, 2.3858754820453307, -0.18527638296380772,
      0.3873875024360009, 3.331205600535247, -1.2018648072988762,
      -1.6967105340482047, 0.7395154761521372, -0.4556252587206392,
      1.8835870377403614, 0.7932601500554924, -0.9449269666940845,
      0.35133182731194046, -1.604819028359084, 0.09505891829802034,
      -1.9599088506960671, 1.5924308042271282, 0.1865510593566731,
      -0.31844867578825264, -0.9098607931197582, 1.231075396348408,
      -0.7046899136415917, 0.47979367967521286, -1.6978635557655983,
      0.9061527875819615, 2.3423095116288075, 0.4126263890031049,
      0.2024281452902181, -1.1634255279718224, 0.3840913313798162,
      -0.14893329898714758, 0.46731539248908704, -0.34716646804380624,
      -0.5399505047420541, 0.8620885578301425, 1.3333042996246045,
      0.05992049846284046, -0.3350836739282895, -0.7754895222352716,
      -0.6881541509096489, 0.0837133526854887, 1.48102506474095,
      1.6836468072005306, 1.3161235035011998, 1.6737736869487116,
      0.2668055579244997, -0.1595772035104233, -0.05887056498199098,
      -0.29070881530748394, 0.305759457864173, -0.8348177455547441,
      0.3648996165979011, 0.5617435354230093, 0.4457757731421234,
      -0.2268025128565233, -0.8553332313739697, -1.9570461183456824,
      1.7451468020661332, 0.36237912082940543, -0.9348351839973054,
      0.6920548807367959, -0.481643533193148, -0.5549924875067865,
      -0.6622435298029629, -0.460876141308623, -0.37764496727164026,
      0.4307522374254619, 0.425523396547085, 1.08266769630871,
      1.3207258089442806, 0.47600663411550775, 2.045787476130439,
      0.12609407390226282, -1.4080051019049098, -0.42946414465175203,
      0.9686689031274746, -0.685763344211787, 0.3802318466120333,
      -1.6742065100407053, 0.5970157853261221, 1.025841579854206,
      -0.23584411225783766, 0.9219038689814582, -1.3610483320770537,
      0.5384587492479138, 0.6451489250072037, -1.2342236020550903,
      3.1342521190158097, -0.46406829132665234, 0.4088263667427998,
      -0.0468811833717647, -0.7026846787574859, 0.31485874075309506,
      0.13039124174251868, -0.11863319916174912, 2.8680695773493814,
      -0.8966245764335714, -0.669905395668528, 0.3826111835326325,
      -0.18014605607649445, -0.12180762597279288, 0.4428168009331692,
      0.1332117554606555, 1.9395009067516615, -1.497398150530298,
      -2.0327167177759486, -1.0755026765054223, -0.9328590748331849,
      1.163742778634813, -0.5087466179885548, 1.0417681037967266,
      -0.19178501881819318, 0.17394905679581288, 0.03661836893298989,
      -0.7174236419358048, -0.3071320028439455, 0.9369438318754869,
      1.0278703882096092, -0.0709984406309543, 1.4825255635411154,
      1.5828427083685084, -0.4714851272035821, -0.9453545350591653,
      -0.012909900462419679, 0.8050144806736915, -0.6170752280679701,
      1.2410538471617465, -0.3470933986102347, -1.6221563073133956,
      -1.8846059976862888, -0.6691259323833424, -0.7766715087526165,
      1.2081791324953204, -1.849557068390892, -0.6436512022934184,
      -0.8697416466364445, -1.3074573031912935, -0.07580920449811442,
      1.2188967427867332, 1.6259066233641586, 0.151876373512714,
      1.4681893015513334, 0.563385466431221, 0.1795436580483699,
      -0.05540571256626386, -0.742522587606524, 1.1647164188816985,
      -0.2083783934619455, -0.6495841324930767, -0.07157021030614255,
      -0.051165360168906174, -0.8586100301606594, -0.5987664966854112,
      -2.5271404227479723, -1.7912500404186116, -0.4601955775376503,
      -0.755428289497679, 0.743557711001752, 0.6962233500304199,
      -2.280179468429446, -0.803570118802723, 0.010295348996392669,
      -1.2222026989789054, -1.2284041326524882, 0.5452580472232332,
      -0.27903771251008797, 0.06891628799683731, -0.6872273946585059,
      -0.47050524131179994, 0.4226765491129124, 0.683270197867948,
      -0.6820257414781459, 0.6568558658867696, 0.7741853249914314,
      -0.692495694837785, -1.497089468417964, -0.9113154903181361,
      1.3717825706601288, 1.1775238079175394, 0.7699525396891361,
      -0.332495470686027, -1.0152631636471043, -1.419473700837753,
      0.9840914376210099, 0.6543876458063903, -0.5677365329741456,
      1.3288658652456968, 0.16670842183954207, 0.9264929365063816,
      0.39893726747790903, 0.2824558939584951, -0.04741038927039856,
      1.9069009452602148, -0.1816830278068158, 1.056653856167214,
      -0.018312189214254374, 1.0480702944783307, 2.744291323363927,
      0.508498187616389, 0.20115733075324044, 0.4130698782846662
    ],
    [
      0.5467356846798954, -1.5094940436258713, -1.045095528508272,
      0.6731271775762561, 1.8923196318883677, 1.1246524254719426,
      0.6846185172396477, 2.1377466452733844, -0.600149838230201,
      -0.9144015282195097, -1.0054923966956448, -0.07498005224368284,
      0.20141388922700323, -0.5873837442282632, -1.3616253778122789,
      1.7240381567912917, 0.05597917318364949, 1.4286710776649256,
      -1.4361196447730145, -0.7817401114825688, -1.2453876440072473,
      0.03537085254010669, -0.3298361407995487, 0.7541519357501312,
      0.2786208805967376, 2.0279096840726374, 0.1131980589278092,
      -1.119421928975807, -1.1704002450776805, -1.7224877622207024,
      -0.9551098626207414, -0.18334415441928084, -1.4022473345659916,
      -0.6550205081226009, 0.23157199067024983, -0.7926471408281571,
      -0.5754411621444434, 0.6535825207526242, 0.6718529589217969,
      0.5760645695716226, -0.6250671334667403, 3.394370933408253,
      -0.6500222284459545, -0.15871925584705912, 1.0710051075403517,
      -1.7615349333914663, 1.524301003372736, -0.5510300437166444,
      1.4602140206213632, -1.200716262378419, 0.35504841912562235,
      0.29380071681726655, 0.14259453256392698, 0.672812179163199,
      -2.0438407526219926, 0.14417769562963267, -0.6938509497489199,
      -3.3655976026879517, -0.2520005719240344, 0.5737276942410369,
      0.023948168988015616, -0.005581986699833518, 1.2375417428448539,
      -0.4388096868977307, -0.5836305422821841, 0.05110301703282403,
      -0.9516775871942768, 1.4876502083688898, 1.9973486575006552,
      1.1603574886113774, -1.1075027288843746, 0.2591879732462889,
      0.5565263314199466, -0.493859433029243, 0.9387969426052191,
      -1.147138093110003, 1.846636547472565, -1.2341850476993923,
      0.8656626781445581, 0.15111052230710947, -1.9196821419925543,
      -0.2764928711029105, -0.12452490594636319, 0.7682511313074729,
      -1.9428216036453976, -0.3883426786714886, -1.7593701975904799,
      1.5526332866040755, -1.1635457703895906, -0.40709259237054524,
      -0.2935786452178001, -1.6818268026312797, 0.9760427207487157,
      1.9795340337878815, -1.661194780064851, 1.2863309892983854,
      -0.6754696188291439, 0.567852306505524, -1.737739209844356,
      0.2891799689858568, -1.4648444818432107, -1.387160115274498,
      1.5152769914373982, -1.2422127212448717, 0.4302719528095242,
      0.7704221919556888, 2.128406914580754, -1.82674717513814,
      0.4923828522889625, -0.5400981267789635, 0.2770707458704161,
      -0.7893051828217272, 0.436969334782897, 1.5435339670339574,
      0.03478315743829324, 0.3275754316038943, -0.739375963505415,
      0.6273031393240832, 0.2976751046733088, -0.5606151257725419,
      1.0625029780940536, -0.9139521687313953, 0.8097212405381501,
      1.4090116505491639, 1.022911847422599, -1.248015119762131,
      -1.2246793564534433, 1.5380432937118718, 1.1298617272054843,
      0.7947103422438115, 0.4673510553183864, 0.6556102085255592,
      -0.6695386906042082, 1.7991333225682167, 0.41213532016702425,
      -0.0327901471676802, 0.05680580078487572, 1.0126552113252831,
      -0.3534930367534597, 0.7552863436127095, -0.9982777737091516,
      1.560673207418442, 0.14058965022517692, -2.3632973171769422,
      -0.8739123257206285, -0.46694218131141674, 0.3048258790288277,
      -1.1555003321334174, 0.13645694899860528, -0.9150040725695237,
      -0.7146296645293807, -2.400921266687683, -1.9475247925992394,
      -0.7113825851982268, 0.4291451645890422, -1.2592320491142928,
      0.743822770012879, 2.24864459829039, 0.06106622603241333,
      -0.8594034643161073, -0.44344179879261475, 0.1290111736574418,
      -1.6578932766804788, -0.3221033784335466, 0.19446999178523802,
      0.9537344385797116, 0.6228496887525401, 0.25971208728610196,
      -2.2051497684101045, 0.5752397035405838, -0.2539558870626994,
      -0.8025930276380044, -0.22217198359395296, -0.24667144932006752,
      0.25156352222088796, -0.05960317419222243, 0.880858396014695,
      0.16450385907584167, -1.8207259677565923, 1.0818891862508766,
      0.7472793782989628, -0.5053017057946457, 0.6800118510774619,
      -0.3983282512931782, 2.006646657686053, -1.8200743413621026,
      0.46719229142527, 0.7178521532654081, -1.6333012839733094,
      0.9839107284278024, 1.268758855037179, -1.2814006142061218,
      2.1077933355648515, 0.19608783291519863, -1.111008184841962,
      -0.9567326643662709, -2.093006301953515, 0.2827646696079189,
      1.781335481570382, 2.037943783488348, 0.4025695878285117,
      -0.2815180767246215, -0.17910695832143314, -1.1006650917988037,
      1.435716840220754, -0.1963482793820865, -1.5652252074315538,
      -0.04761382817465757, -0.5295086977059913, 0.3626845122522245,
      0.9553786542039931, -0.725450115514563, 0.9524316872029521,
      -0.07151347914682192, 0.3372025319387875, 0.76987563695006,
      0.5392683291968982, 1.2466850134447816, -0.22925506108153942,
      -0.17382346623191536, 0.037410584125701266, -0.8139229376986422,
      -0.24190819375435127, -0.9380914605940676, -0.6427245264718007,
      -0.5555154706050996, -0.580929666980078, 0.08709518459883175,
      -0.6007144472172798, -0.11732778633670159, 0.39957245835725264,
      -0.3564283246908114, 1.8404548183493004, -0.7974569670457036,
      -0.780639720953691, 0.009483633614332403, 0.9822001098698911,
      -0.7685117144772431, -0.3725539878095676, 0.6381664720458415,
      1.0854022117881372, 0.21399195446608676, -1.3996722827203538,
      0.31131059800026967, 0.5996363566577965, 2.5953417462131934,
      0.24050100351689466, 0.06915351331364415, -1.5736208897409463,
      0.7867531078222431, -0.9495790734902058, 0.20443018306757096,
      0.2089825791470077, 0.27059607381044926, -0.11567440448208066,
      1.7975121275636858, 0.7354698744922102, -0.2241684174740756,
      -0.1876062446909072, -1.223275090380941, -0.9608168173357731,
      2.257754388340345, 1.082706689889102, 1.5361807024516902,
      1.8021470401849062, -0.8863331213385524, -0.037880816554945664,
      -0.854378516813352, -0.54737452373882, 0.40694386300743374,
      0.8145315340740292, -0.30916882662614864, -0.2331600299838735,
      -1.1537308987583785, -1.1608363721793662, -0.28346703542915497,
      1.0781037778906533, -1.2450466993930707, -0.2979976695651922,
      0.6559382102665087, -0.25538782159104045, 1.6075396713066707,
      -0.5894839711023518, 0.7240912871679558, 1.066379053129618,
      -1.2629592635823146, 0.1218887472787069, -1.0235190245167043,
      1.0570026084986524, 0.5196317194414062, 0.134877745974873,
      -1.4789553238392286, 1.3589632074655038, -1.9261705042962882,
      -0.3138656751181094, -0.03740176673429409, 0.4041548055020046,
      -0.5214923295435896, -0.7654435104959673, -2.1389261105176853
    ],
    [
      -0.6934526902963167, -0.32384391017051456, 1.0548063327467778,
      0.671715967697515, 1.4491565094152292, -1.1433434491319423,
      -0.8364323711550221, 0.21125370308266053, 1.1112516474276037,
      1.5337375947011458, -0.6730390461317671, -1.2321566050104744,
      -0.40705240905849677, 0.7298551149870504, -1.7370757973687991,
      -0.6997303062889325, -0.2934091864639524, 0.9436498165356082,
      0.31323634063291295, 1.414963109943773, -0.6049981710436672,
      -0.8983043357170212, 0.19046490394435428, -0.07006677489701255,
      -0.7281312247583601, -1.8945455623942538, -0.45221689420775213,
      -1.9202722238906544, -0.9418860728081045, 0.011790420025770767,
      -1.0745620091606671, 0.1293671823828026, 2.2680554612725756,
      0.1513360982650602, -0.770639715935729, 0.690203069933519,
      -0.4013184374087455, 1.4446988231994284, -0.4417658315091697,
      -1.2071062770856291, 0.0544782323643856, -0.16499589644603838,
      -0.44477129103377044, 1.6570042385509698, 1.5464800816666857,
      0.27083404669860556, -0.09989280326343264, 0.5762807628411585,
      1.3933429037738154, -0.08389861631229129, -1.0608618938547745,
      0.31225741130130025, 1.224650805800583, 0.9920980043618409,
      -0.3804100781498338, 1.3981024186983664, -1.354381130090561,
      0.07550661449493336, -0.4997472482295769, 2.0273878850591176,
      0.07161064599563992, -1.4367278832068662, 2.153124255986593,
      -0.152425446488382, -0.777835960763316, 1.4395576222050097,
      -0.029926227378005366, -0.5088605662234138, 1.199931620945361,
      -0.1491620972379395, 1.2609520652556376, 0.8165567252119104,
      0.550645990095111, -1.763268142908903, -0.4267771110280917,
      -1.3188612523551555, -1.096662097134539, 1.832048981390154,
      -0.22124429397046955, 0.3833597455310157, 0.767618380919227,
      -0.3885478539029024, -0.6743666571735524, 0.047016273314621736,
      -0.530081797285657, 0.2194872602528296, -0.6982860979524851,
      -0.7492751605088788, -1.9758328247358339, 0.26439317790736494,
      -0.46675840951475217, -0.27711524706484736, 0.7792179139798869,
      0.2326656269308907, 0.4974475983931176, 0.3001692525264914,
      -0.7500031720505254, -1.3712325660769795, 0.775738887986836,
      -1.3519180886601194, -0.6193833551446773, 2.5375691094289907,
      0.5723823490499753, -0.39676735747120906, -2.134640213426937,
      -1.120653764546702, -0.4858177370586486, 0.388120566034709,
      -0.2223711122327603, -0.3452549496991376, 0.2898412037169953,
      0.8465167431705596, 0.6665874100117939, 0.08851957491098317,
      0.5936895719702168, -0.2853448308040657, -0.07488806081638226,
      1.0252944475016303, 1.490794923024902, -0.17270548884225878,
      0.45298350559317263, -0.5912135127004038, 1.7858513073344109,
      -0.004320614470927772, -0.4969031145639483, -0.4972495924103789,
      -1.697525176917704, 1.1962539154620406, 0.08471972072031515,
      -0.03726444613423624, 0.7108237819909936, 0.006400048131410813,
      -0.8984481242949083, 1.234113172121366, 0.5210081491213578,
      0.05448464903878344, 1.5102501836186233, -2.0367138564772405,
      1.6847403582779623, -0.2655686290793629, 0.27124888673395137,
      0.22949417905470043, -2.0029882068195914, 0.0951389801614875,
      2.0739553524303074, 0.6110987710231431, 0.950848981442596,
      -0.13356042071810173, 0.08803104356507294, 0.6034669987344907,
      0.45513069273106854, -0.8654668783553946, 1.2360643063647059,
      -0.6685477424892228, 0.7522426581781716, 1.160538597375076,
      0.10584331827824547, -1.691221488634029, 2.50076291349781,
      -0.20832965139882403, -1.4698407358843968, -2.4346186589090872,
      2.5195940316454686, 0.02428192200169179, -0.08955493878241208,
      -0.8445384101609953, -0.4466439008082872, -0.4657606235424866,
      0.9376038472339296, 0.4740485933451955, -0.8808842740267856,
      0.31767593911127706, -0.34687584906831975, 0.5171799438470818,
      1.1125806212500007, 0.017554585528815014, 1.391520059361802,
      -0.19616513346851247, 0.6751999992789595, 0.43684058734109865,
      -0.9175569501908574, -0.2924731076808578, 0.33640822939274245,
      0.04130772103608376, -0.34427483816992366, -0.17798554844932166,
      -2.930296211900139, -1.0449492762694192, 0.621482673546628,
      -0.6930084000455231, -0.23335106327940439, -0.4726972704523728,
      0.35868577327843004, 1.6473182924598408, 0.183349181946929,
      -0.14546938280471988, -2.516502366225544, 1.0089999038913966,
      0.6700728479881863, 1.2071107095112534, -1.369303988108065,
      -0.4578183430517222, -2.0989523072971408, -0.6826880931831515,
      -0.748214590281202, 1.742933044807309, -0.7138521938851078,
      -0.9895640430502333, 1.6946153011704659, 0.6493588182629527,
      -0.22533461852272418, -0.1572205476662048, 0.8871709311639067,
      1.7590601475477239, 0.5013044410286043, 0.287364367557763,
      -0.5257414248317354, 0.9498924427321622, -1.1611824048631432,
      -1.8800038687518008, 0.9343448494498391, 0.30496631967649673,
      0.22347306024619648, -0.5555954230114017, 0.3729338383350342,
      -1.1097451503602656, 1.8475682859541247, -1.2701051395850065,
      -1.0797771575744195, 1.111564517017307, -0.9365642301624614,
      -0.7183033889037819, 0.9086510970895415, 0.46647413734517706,
      -0.45838727474974356, -1.4457629241367724, 1.4608910105034765,
      -0.2961169848963519, 1.4272477996321258, -0.7904591085056365,
      0.3461512451776331, 1.6345337707708918, -0.6452961242313876,
      0.5603606572014115, 1.3989152674671892, 1.3812437499735692,
      0.44063147096645333, 0.490913380608089, 0.029037800717123044,
      -0.08559663507867107, 3.105576518841535, -1.391018772928893,
      -0.5484387486150241, 0.8522044666221177, -0.2671935988501559,
      0.7583284952270701, -0.14618480167304507, 1.064458313608401,
      -0.5500800197358047, 0.39371227463629616, -0.5957064288540086,
      1.0711601277058254, 1.4978535616134199, 0.15379713443288814,
      -1.0027054920495333, 0.1520982925558303, 0.7010068226806908,
      -0.00466716233692001, -0.008718953943750567, 0.20624697068812958,
      0.05921811860447336, 0.6790899087479465, -0.6243438217421056,
      -0.9308615182456457, -0.4170578821689383, -0.05465023567555051,
      -0.9739729419681218, 1.3720328836365072, -0.9450900036006616,
      -0.9258461404775452, -0.1283158907122693, 1.066139339995865,
      0.031277399277272314, 1.2023464423480048, 0.15451499942674604,
      -0.46847837315045476, -2.214075483419129, 0.5811236925172633,
      -2.590534392244047, -0.6426553065716034, -0.7053169441889252,
      0.5962743362247307, 1.0918552958514496, -1.5654886588899584,
      -2.8213725327575156, 1.013123730008692, 0.3164277531013215,
      -1.1621259839012643, -1.134940059815976, 0.8096350441423051
    ],
    [
      0.03818210541848998, -1.5413239001983994, -0.7798523594618384,
      0.20579549587299875, -1.3850005146351791, 0.8967686409057896,
      -1.872308402612511, -1.6839290360122452, 0.05632686368678334,
      0.4300969117002131, -0.7913938377906591, -0.5231137725921747,
      0.37988824358896234, 0.7363627460417039, -1.4471208110852405,
      -0.720096611540791, 1.2288653397821991, -1.0717095005009276,
      -2.312575010766703, 0.31739186490109367, -0.6076278518268521,
      -3.1162564216374555, -0.10148785445059501, 0.6085361863152692,
      -0.7694320393518387, 0.35138692901997504, 1.8796487698187738,
      -1.911452179332999, 0.08248115759302836, -0.6397016534293183,
      0.6142978629656203, -0.08515281083878141, -1.1123688101918356,
      0.9508240984298248, -1.3790242941527455, 0.6362727407181246,
      0.0281834248146232, -1.349420548948519, 1.0393186805364156,
      -0.10293579479817032, 0.070341666381168, 1.8500817202194018,
      -0.9508685185134979, -1.8535065410773437, -0.34937954175358354,
      -0.6760269949418518, 0.12906443123414688, 0.3935394080704539,
      -0.4395055232076805, -1.151434393914087, -0.9523362784247379,
      0.7358033347199976, 0.3408558777535655, -0.3267720070229741,
      0.23736767208397222, 0.08392191714786698, -0.21523672601839955,
      -0.9722399024052923, -0.8842715213013651, 1.197885260954379,
      1.7641285993416174, 1.2931352176831696, 0.9629932935093459,
      -1.461574166504641, 0.6919946312680535, 0.25256823268324935,
      1.0395065472993594, 1.005468248365372, -1.687841177522416,
      0.3163447319239397, 0.34214245652680264, -0.09934718619498127,
      0.24961386486384482, 2.9495594538394205, 1.5841322544323715,
      -0.5453160080015892, 2.254864107450514, 0.43356009810487545,
      1.5037362513648351, -0.018414755036216784, -2.2784195448880653,
      -0.5148728233747333, -1.2486155403432913, -0.35037814284361374,
      -0.46814670111374157, 0.09457271207133272, 1.005002345724134,
      -0.02253796498982419, 2.1316122067325756, 0.16297579754197158,
      1.5473936780127662, 2.5321005872681606, -0.3186218565609949,
      0.275704665402961, -1.0654461918709317, 1.5774753388606757,
      0.24398878906490862, 0.15426898260926694, -0.1737659107085529,
      0.4414697225029098, 0.40739449349242635, -0.3785079737436154,
      0.7614900430713197, 0.7924105967075987, -0.024301845853801057,
      -1.9588207452104234, 0.9433964862675923, -1.8870632041532027,
      -0.38165445992664293, 0.1821977158705381, 0.8071707894217145,
      -0.13033574260161018, 0.4174389177337666, -0.4097860077581379,
      0.9715760949247418, 0.7639824275025737, -0.00850655140800545,
      0.49597989836441325, 0.5181655295568791, -0.11449472725131826,
      1.4182092348204927, -0.9388728917563715, 0.351152788739582,
      -0.3423872157731905, 0.22028267812717905, 1.1541293496039866,
      -0.2100400374646436, 1.7522501549867642, 1.344376111243902,
      -0.160885937548951, 1.891831568660176, 0.6783163115398818,
      -1.5827621421549083, -0.3717870684417902, -0.16538178200238426,
      0.6192112879358411, 0.17493400266910888, -1.0759093492327458,
      -0.2129376886284959, 0.09723530781477686, -0.27361118122915357,
      -0.41371528988963074, -0.45088273482117475, 2.2837415050879843,
      0.21592401821299206, -1.112859890440075, 0.9321675022068271,
      -0.6906521867025349, -0.8443999180881339, 1.3549428770499405,
      -1.5478240277167432, -1.4450933904957153, -0.2835369981206949,
      -0.32624623217505055, 0.784512290975555, 2.0338799976896498,
      0.2481463187972571, -0.7191317715308864, -0.16588979232442633,
      0.9273495510320328, -0.386587251815752, -0.9728286329212845,
      -1.5484828207091113, 0.6489888382858912, 0.8594821955995466,
      -1.6621834459374876, -0.42836198818863763, 0.8407638064543471,
      -1.278661120707784, 0.0546227863732708, -0.4211032411041831,
      0.3346223571912999, -1.8948851756309228, -0.3899237366503309,
      -0.47235457263806396, 0.4813546709385011, 0.5118592007847816,
      -0.19534542196870627, 0.501624349014496, 1.1944325905384618,
      -1.362590351740187, -0.28278378761351064, 1.785593271895878,
      -0.15630031648777828, -1.2719650271638303, -1.9520247186140651,
      0.27158085827858325, -0.7799473724257366, 0.2783886631163765,
      0.6555412632519306, 0.2903293808665361, -0.7234288132998881,
      -0.36616803993479974, 0.4360520211515126, 0.16693082577631377,
      0.9826631095202264, 1.1343225738341884, -1.5466538696661551,
      0.31284122659972874, 0.6493075881244427, 0.5723191817874548,
      1.251074967532012, 2.4439503369420232, 0.6514453707444586,
      0.6084244562056682, 0.4032881561115595, 1.1140884519642649,
      -0.13621826661445877, 0.7393804900175353, 0.017240352371478532,
      -1.0152802848939209, 0.8141085108866543, 0.41788533020716684,
      1.216071670829827, 1.0919356475183062, 0.5231865681272732,
      0.6935540365585, 1.3710268567641444, 1.7216337650958784,
      -1.2023832170263988, 0.1800144549386937, -1.7624573031825912,
      0.11621025616988173, 0.6083553931176362, -0.1498337213741872,
      -0.09137893580825532, -0.6090181003292405, 0.8783606827440863,
      0.48805016597990136, 0.892481097483406, -1.1343001680325469,
      0.018126151136835626, 0.8767146552112588, -0.8512723969887523,
      1.3958228730075715, 0.46020309872177406, 1.7464441559479764,
      0.11624546873880946, -0.3714992057844763, 0.13915680517161336,
      3.154299691303078, 0.6914527363870786, 0.26190748415932374,
      1.6216350029469322, 1.765576810574412, 1.3076927098223257,
      -0.04372751228196712, -0.16443442525751442, -0.008069014524766006,
      0.7852904679712279, 0.8433215677882309, 0.6685165120958625,
      -1.7853307133247858, 0.9108086211423154, 0.916885563791752,
      -0.14736146024869634, -1.2337872714262696, -0.011737171564806307,
      0.25410958039747655, 0.31967056433571583, 1.0659335855576517,
      0.05932067428290352, 0.356961256209676, -0.9489978157701949,
      0.31983178895216113, 0.6804531457617993, -0.08359333587476267,
      1.9226275932506511, -0.4134833015983115, 0.791861844059086,
      -0.17647857830061003, -0.09726156792527642, 0.3938075937695982,
      0.37824990917273793, -0.610321564709612, -1.08479713695571,
      0.3925074011951819, 0.06183267945426924, 1.8626985149098991,
      -0.3620978655218054, -0.12907848478532336, 0.3165592188250865,
      -1.0003451243235904, 0.8800005445171449, -1.3218428523822725,
      -0.7441452217809588, -0.9582059702941532, -1.4637828075865371,
      0.6284412390700046, -1.0246519258173614, -0.5212176978842261,
      -0.3232022920997997, 1.1847746336729288, 1.8194529373903656,
      0.6084781114233143, 0.6494940099450683, -1.0034205994180634,
      -0.8391273470406841, 0.23635733864175343, 0.33220727164118596
    ],
    [
      -0.2241031743846492, 0.41386982922913623, 0.9202836797761761,
      0.9613040124516788, -0.06396326398093403, 0.18089524933300077,
      0.11080454386311239, -0.1984431202511547, -0.19114476238634925,
      1.0975229628147405, 1.6088599402391413, 0.5378561881670519,
      2.403448707048807, -0.6052363363720105, -0.9793875681450296,
      0.9333604362593164, 0.3339372299431652, -1.3024203396835596,
      0.743031259619488, 1.2436164390399562, 0.7150814072040106,
      0.03229432894805047, 0.8584537881398021, 1.0971310781297894,
      0.5334250198083657, 1.389833059152985, 2.041527723120304,
      0.1412215885848476, -1.5607907878179241, 0.45418583795975437,
      -1.3319826678301918, -0.2440250700541736, -0.19059371091290328,
      -0.3123431723935451, 0.32627114412240943, -1.849422711298555,
      -0.23032239003900412, -0.4698458546463454, -1.0905464079443643,
      -0.5934782250566121, 0.705092130565795, 1.2573597928896252,
      0.7274729192871079, -1.6086742235756466, 0.5444219385989818,
      0.5523996806488468, -0.12512687387357874, 0.8079341054043068,
      0.9355595032885451, -0.225693844400579, -0.2642343594583381,
      -0.5142700463424372, -1.2314373309152156, -0.22098605340523966,
      -0.4288352559948047, -1.3120179329198038, 0.8223151606727794,
      -1.4846370433248228, -0.0834688739389345, -0.043934322351718076,
      0.9732943822991017, 1.8706957112484306, 1.1319196121755448,
      -0.13768892317590004, 0.5417560616060096, -0.09322878251421107,
      0.5146626037024147, 1.561012699750664, 0.13821272203168394,
      -0.3404385099906529, -1.1462539137693384, -0.3349651689972897,
      1.1504397894995542, -0.5747844409056674, 1.8347409869592097,
      -1.5683950190042812, 1.7398938127996486, 1.0414018868578192,
      0.0854476897304232, 1.401426001776723, 1.3833689380868204,
      3.3627532252480394, 0.773528636369853, -0.19649644876200484,
      -0.6103734407291233, -0.4654136401918287, 0.31021393712450307,
      0.25937348164042956, 0.05426849037340651, 2.1524869267509024,
      1.2553061450684557, -0.9976692090570818, -1.6294207517432788,
      1.200285813572156, 0.03402511996729969, 1.8474212231722498,
      0.524725404197603, -1.0918393580159884, -0.7873997890363669,
      -0.02688115669488644, -1.0273822807344506, -0.46789311367103703,
      1.0056956307008431, -0.05013242290515087, -2.378571883634935,
      0.5371114964035395, 0.06887281283420411, 0.7372420180490598,
      -0.21198873111591562, -0.43737588013420536, 0.3226669820359712,
      0.33591450751091423, -0.298287335186816, 0.36386679457601045,
      0.31237186256557337, -0.35252493191267353, -1.535630417808101,
      0.4280279579781118, 0.49810219473417916, 1.1741720892419532,
      -0.1979882298109055, 0.0335563396714397, 2.014193607747234,
      0.0008814856687445709, 0.3540067152285163, 0.050631291201694656,
      -1.291872250294041, -0.5350283688920097, 0.08536571937241741,
      0.3311471490754849, -1.862511672667769, 1.4947137685473246,
      -1.6762980521802446, 1.058449066062799, -0.18866074008889597,
      -0.5275851819462921, -0.49696967492408917, -0.828505845072033,
      0.2062430658454407, 0.48176000817499975, -0.859003340574668,
      0.2274731271880976, 0.3785225867213647, -1.8914118979318666,
      0.3682791266048692, -1.167309891198895, -0.5528365978832043,
      -1.1934264446720386, 0.4808126615678707, 0.7200495173178206,
      0.8466808719093226, -1.18016273327699, -0.11982243692327824,
      2.224383668737454, 0.4402369682692876, 1.1075531802017142,
      -1.0319229450133318, 0.173619081059035, -0.07340603576016132,
      0.8349008561064841, 0.2773199217703116, 0.9249872944457375,
      -1.6225552776915086, -1.0197396626932713, -0.14486687266232512,
      0.2001460389843049, -1.9621906390700814, -0.6559861709819398,
      -0.08581724963400035, 0.8363198362140818, 0.7223142942440234,
      -1.5692342246635436, 0.13160582755141106, 0.44301139440552484,
      0.17274280420514498, -1.603850684176052, -0.4186487955424853,
      1.3680055198927468, 1.0343197591885864, -1.056437920955169,
      -0.6637204513435765, -1.730170039584385, -1.014078159441169,
      0.7892599482799654, 0.9391011039518349, -0.8566666679587466,
      0.18616033554375747, -0.8875331260323143, -0.2916929940481486,
      -0.766692402600632, -0.4770906360047092, -0.4978391631102514,
      -0.6368113264230169, 0.6770623940338506, 0.5779482688539005,
      -0.8426788331524937, -2.0331406064323336, 0.018510474333931486,
      1.9929198572521267, -0.5898305112170129, -0.6799494177625681,
      -0.9546532915979234, -1.8924239872355786, 1.1306527408173068,
      -0.3558146405366342, 0.45006057551568146, 0.7107721160173457,
      -1.1382013775593058, 0.31108414571938847, -0.5293287331823703,
      -0.2721811816926179, 0.5158792660747942, -1.6479077405057074,
      1.7987392254877317, 1.2749711237934713, 0.8873305126705865,
      0.9335440589598782, 1.5084348118976323, -0.21665753860393425,
      -0.8272490937910576, 0.7127490610549089, 1.2032996050857272,
      0.6608713930538084, -0.5170035384239203, 0.7201035008850117,
      0.20899713032445907, 0.3818762460052475, 1.3996477188206273,
      -0.18536113014935549, 0.2522929822472114, -0.18116949503209015,
      2.445758175441237, -0.6441418264498855, 0.9746236134190469,
      -0.6221518536740361, 1.2232907003660123, 0.7151604238897126,
      -0.7577359008086375, -0.11343688381747197, -1.9036673946212233,
      -0.5683972780565141, 1.648852883230749, 0.8302436242494128,
      0.7921576495061137, -0.8536522895643577, 0.38281541036398076,
      0.12178097358124156, -0.45585518023656996, -1.5207381677709864,
      -0.835032893781594, 0.3806505037025069, -1.3618310071518054,
      0.29267224139524894, -0.5043905945280147, 0.2090858998352896,
      0.02259271671633856, -0.4387900505829397, 0.6072394536054883,
      -0.48119245592462606, 0.2724136193385301, -0.08189117150664821,
      -1.2882197000125788, -0.4045154650736124, 1.2292440274638399,
      0.5028143925872222, 1.2669904298307169, -2.154646235776189,
      0.43426135565841506, 3.2421125904155015, 0.5619023816674792,
      1.0297887938886174, -0.33902995185142293, 1.908938412611862,
      0.15109102204006436, 0.6683728572273916, -0.26113518169452915,
      0.13746484765589817, -1.1779514719047721, -2.1906528285968103,
      0.4062225224879244, 0.18099429558733146, -0.4001563448847821,
      1.3238664754275657, -1.3505378446292735, 0.2636479059302946,
      -0.7315075285845651, -0.20529224005897878, -0.5622016238504377,
      0.6089147877448593, -0.012710388014507822, 0.23468211944029407,
      -1.9960147168987266, 1.1520888776186404, -0.28360187317853636,
      -0.9683707698263363, -0.4715136815032841, -0.04950102872187204,
      1.3227420381208843, -0.7318175412833653, -1.1735392836695295
    ],
    [
      -0.6423781517434904, 1.0896007843101618, -0.41192634466506667,
      -0.029024588723846504, 0.5862851870712823, 0.8166425294001977,
      0.5489387572404635, 0.28791479568118866, -0.5967939431129774,
      -0.3427394613334936, -0.012446082847401212, 0.4048011011078862,
      -0.49062060374241323, -1.1110283509503196, -0.029283407866109935,
      1.714611689127675, 0.23852807138549076, 0.3327556092103895,
      0.15261159008487507, -0.4300344065242135, 0.9126565749567962,
      -0.2494737323716755, -0.10905415251368406, 0.5521002363213211,
      -1.245705668201294, -0.5791421738478025, -0.056213887335527186,
      -0.3813869875038282, -0.4214436182800406, 1.7469142259881105,
      -0.13648990944401557, -1.25865038451661, -0.6766311285005308,
      0.3433683614377115, -1.5130284562397607, -0.2893587657836028,
      -1.1785957591431708, -0.4010672719504571, -0.8476014766732183,
      -0.25005050247212995, -2.006140641116068, 0.05060247263239589,
      -0.6794296697603011, -0.8160301344330516, 0.14877482377323806,
      0.6527708166547272, -1.0034616653516348, 2.2587888081200838,
      -0.222895546771132, -0.5559044778853577, -0.046829288034462804,
      0.6955670467354662, 0.05656248863780613, -0.2684957333777294,
      1.5828518419342257, 2.036704602029521, 1.693000789494881,
      -1.2148272174175916, 1.701178287534327, 0.9708991653704797,
      -1.246476917619806, -0.19535422663419505, 0.34378014655654054,
      -1.6552061479175477, 0.39765667076578215, 0.666319412078794,
      2.079186541623818, 0.6187648189052573, 0.3372310566199669,
      0.08790710958638062, 0.33298420349902447, 0.5373139614792278,
      -1.2643956596716877, -0.2383654817169313, -0.8027296906239504,
      -1.4438450322842473, 0.3619647466590402, 1.0023831175698354,
      0.6912964429718251, -0.6053648205198805, -0.1070382494722751,
      1.7309330277674768, -1.4000280591192025, -0.8304329115657779,
      0.7003284230723789, -1.104554767109004, 0.42957399901452237,
      0.2851264115474098, 0.02403801162530574, 0.06437126158414673,
      2.0584299199153087, -0.41824335504786014, -2.176013438683642,
      1.2378190192298235, -1.209686741751168, -0.8797107793398955,
      -0.09044918756876458, -0.5386028367556696, 0.05210161375931819,
      -0.08493492469856054, 0.4890636215555241, -0.035921377343542144,
      0.3145056429352671, 2.637683354454022, 0.17992360988123518,
      -0.46733571809416563, 0.6959180874379979, -0.681259737849389,
      1.2209463410521297, -0.8613269307805186, 1.425406657538873,
      0.5665563121960695, 0.9439068519959062, -1.5192385490530902,
      1.4543691760791884, -0.5433602819809525, 0.5041326588604251,
      2.0199461288884635, 0.130968330486613, -1.4575673990860463,
      0.3743141094802993, 1.1958103915805596, -0.4969299608540949,
      1.4280311247041908, -0.04800218362213245, -1.2129913040697167,
      0.5545641345550684, -1.5434021625649412, 1.4319608195312254,
      0.08454197587253515, -0.4487043955164894, -1.025059149299114,
      0.6399460678748607, 1.737928635135274, -1.7283963193338785,
      -0.8012468007627341, -0.44484742738785515, 0.761038683432778,
      -0.16055825653745018, 0.828331651694971, -0.9268416168977441,
      -0.846528343877221, -0.7733918899967653, 0.22727871655836773,
      0.19728813190319788, 0.024824135788498035, 1.0492184896166206,
      -1.0459858006676945, -0.020439463190891387, 1.3624382994880466,
      0.019118534828158996, -2.170636225348683, 1.232374653891342,
      0.961035552107516, 2.21044958721676, 0.5204778488974956,
      2.5760062283928904, -0.5383177156976436, 0.6578657640776767,
      -0.24941539300224527, -0.2960089599469466, -0.26915400573327103,
      0.8336460927898323, 0.44884226526534043, -2.565257791170841,
      1.7428820614821596, 0.5822118077704798, 1.6157228480197041,
      -0.15945781658282368, -1.0611435224127084, -0.3642207900349757,
      0.4164293322028262, -0.9913922275825642, -0.6539967721842876,
      -0.35900034835462746, -1.1355440614703964, -1.003559316198775,
      -1.0859021947425063, -1.0034443553343246, -1.007273171784895,
      0.38093452411127404, -0.5762593988419193, -0.3513682758516412,
      -0.47244314953734495, 1.5383532652752334, 0.6228536105950931,
      -0.22305394549725951, 0.7828653245072893, 1.13949526742144,
      -1.1713901018031616, -1.1082084174825713, -0.5072747817018756,
      1.2405267789174181, 0.39019263940999516, -1.0013938953534807,
      -0.11185850856990853, -1.233606439576639, 0.6618122250421359,
      0.23758403839373257, 0.6379121495967246, 0.9638680688425348,
      1.0524393026446477, -0.29604728507800526, 1.78979703732856,
      -0.4817686689737671, 1.687993760590364, -0.614415632422801,
      0.10467521793097471, -0.06660853221414614, 0.5327368424536592,
      2.016781084834735, 0.9903173438734143, 0.8279948921961964,
      -0.599203806124562, 1.829603683107782, 0.7542244130122094,
      1.3024433395153012, 0.8789204795108032, -0.08224872471736565,
      0.3992422493860557, -0.07257494322487062, 0.9054269368686867,
      -0.774258519113783, 1.0437646840072674, -1.2006314320053577,
      -1.8306022348002016, -0.7415923144197166, -0.677975302907935,
      -1.6119631265125771, 0.3511829344504133, -0.17562426952033272,
      1.645372837656333, 0.9749235582145209, -0.7160487500544683,
      0.4453288682913013, 1.9907236695546138, -0.6088120108514804,
      -0.2975070768835683, -0.8715723913164725, -0.5789660291855196,
      -0.4845030137854658, 0.6898675193706141, 0.45155018822794796,
      -0.5251087222329518, 0.6597283199417687, -0.8588986723785343,
      -0.965133040548124, -1.9663999845785116, 0.6609775954393617,
      0.7469282421756234, 1.4930749728572146, -0.33375088097976574,
      0.5086332130643224, -0.4991753123872528, -0.2804947827876542,
      1.1604435761259928, 0.5730086470177743, 0.2800457562218837,
      -1.0167278900834302, 1.1367122167673274, 0.775947016148858,
      2.7649548468901832, -1.1019201867145698, 1.2329103963835955,
      -0.05781537531830759, -1.39548673511947, 0.9310149006633365,
      -0.8372691196491948, -1.6672061438494954, -1.0615571406817812,
      -0.7291335993684306, 0.49425580495920396, -0.4051231991325975,
      1.1191338667932589, 0.3898340539595049, -0.4660899431271948,
      -0.8140886647349349, -0.5795402336277458, 0.22266834155448004,
      -0.8628274533311779, -0.4331125488126533, -2.0660216692209845,
      1.0448797813137662, 1.1311708014983042, -0.6659532294303183,
      0.3717806678761776, 0.5316732264841493, -1.9047809537474312,
      -0.10108733846201613, 0.12834146552669098, 1.8322259332598803,
      0.47601524132942186, 0.07445173841848804, -1.1394229402058826,
      -0.8336781944248314, -1.855652622143489, 2.0304828341615866,
      -1.454201707188505, 1.0559378000669548, 0.4067342003327616
    ],
    [
      0.32737352361576283, 0.6835669197049811, -0.8119041281957976,
      0.671938572775377, -0.2076574183876727, 2.6253114022416306,
      0.7738380247958953, -1.319777012647416, -1.2560331997438143,
      -0.47138181625464387, 0.9258179888536406, -0.4101671886676743,
      0.17157407750112705, 0.31975229751618417, -0.9179917303274546,
      0.08395577150689919, 0.20614299599765962, -1.2510697588353052,
      -0.4849890644421957, 0.034128864533538326, 0.2861159445105057,
      0.7294930640460654, 0.18997168791725574, -0.6474126410000464,
      0.7716980145967792, -1.1100393300784035, 0.02208553586827894,
      -0.8349315547293327, -0.8076337625266552, 0.7635935780464314,
      1.1221796047225632, 1.2081653321171077, 1.5520566360112422,
      0.9967854532519261, -0.9025637244385644, -0.3165214370193505,
      1.7289005340121488, 0.32204359642217095, -0.47514063934713285,
      -0.4104687468148754, 0.12582661000591924, 0.9097004824784941,
      0.2808277090879597, 1.274526849406916, 0.15033985160176552,
      0.2090350069929024, 0.25049277092189176, 0.16367780565046908,
      0.14587823775114886, 0.765488080377532, -0.3890128707369904,
      0.6244869945580727, -0.4127950583910815, 1.3884755016407992,
      1.3603289155665144, -1.0246613887499691, 1.3861347131690365,
      -1.1828671792451355, -0.5767000337100722, -0.6582203454699214,
      0.9423575283129418, 2.489457310434648, -1.2443028118060224,
      -0.07052006059827556, 0.51931981433425, 1.1525023153063862,
      -0.4776302632513076, 1.680979501332232, -0.3021905894823913,
      -0.5983110940913943, -1.4638543337526975, -0.8131966022572517,
      0.027955635030082686, -1.2920351582902632, 1.5257117751288958,
      -1.3907565221488343, -0.8140359598867436, -1.4917371151043488,
      -1.198300925183037, -1.3250490215127682, 1.4742555674874438,
      0.02837349463828312, -0.03636051269865864, -1.3602794915785645,
      0.8859349898025038, -0.847862397966976, -0.09238872818280545,
      -0.3265929377432348, -1.5824218566939066, 0.21179882640447137,
      1.970508708590035, -0.708250399416438, 0.1276054201647598,
      0.16448747214804954, -0.9481699385906256, -0.4185976422433964,
      0.27646881380796523, 1.8324495212854077, 0.6482546737909781,
      -0.1196495473122086, -0.03481078951995089, 0.9953019493884475,
      1.210131105730063, -0.2395987332061324, -0.19075091140271974,
      0.3797050068294257, 1.7417409579807286, -0.3743242916530203,
      -1.7553353684006554, -1.171828400346505, -1.0386465104743898,
      0.6060418828804218, 0.8256904121355297, 1.7227000104150656,
      -0.9234417024219345, -1.2818654948484018, 0.01773138877503607,
      -0.03996550860721347, -0.4339879083528819, -0.1334601532817231,
      -0.4757469820174215, -1.7233607221549478, 0.3377123628883724,
      1.5521465403479398, 1.7064208955915294, -0.9766511673022825,
      -0.3274034744864449, -1.7023272994483634, -2.217408234163326,
      1.3471824934358578, -0.4388774194232914, -0.048355635979633924,
      -0.2989182212851286, -0.33685872737364764, -1.4964821844759504,
      0.18577143534287952, -0.17285178915375984, 0.05055632920725775,
      -0.6096714176255447, -0.3849984950479457, 0.9825113039713848,
      0.0053999548540278495, 2.2940361075912046, 0.10724041925983595,
      2.174264607877388, 1.3205414036314762, 0.14797732287303783,
      -0.9829036083763055, 0.32054899110937873, 1.0561915401498336,
      -0.33314759887476164, 0.8812796580537255, -1.0025063273066666,
      1.7416811017220906, -2.119550305600527, -0.3479370827580059,
      -0.7351956596565117, -1.424281461237715, 1.5064578076322115,
      -0.9026563799929742, 0.7482128390083828, 0.11979559007477388,
      -0.06293724717799687, -0.6043901091703091, -1.2321854887653498,
      0.046429998258985555, -0.07112299297493532, 0.4955388237883538,
      0.8189335832318132, -2.046870135032781, 0.4994867329168821,
      -2.2473380148884234, 0.17128469900152496, -0.746876793904052,
      0.869091828080887, -0.22294147462505662, -0.914184907235116,
      0.4982722648594412, -0.7356409681054809, 0.4439035976304082,
      1.8270041363409737, 0.27361937049915447, -0.9990588609844419,
      -0.9093994487737183, 1.3998246017244715, -0.7398164120709197,
      0.7932501974670843, 1.2340828331303393, -1.197864266716742,
      -0.6807140746275177, -0.6701879927694783, -0.5690765969509388,
      0.10176199958320425, 0.5434885025668729, -0.2733870883660918,
      0.4750513148229871, 1.7638511908816275, 2.4007651590171823,
      0.4928561038900327, 0.16338259295174404, -0.05282690730457961,
      0.4518209052953541, -1.0074960124512395, 0.03878661540415749,
      -1.4030917581503441, -0.4919318675597469, 0.3713136415942501,
      0.3959361347721316, -0.10101884993427014, -0.5161867856500938,
      0.5729754950799427, -2.4308670091462505, -0.0983692349248027,
      0.6021005998751116, 0.5011495630958004, 0.8553188552052021,
      0.3338041381093006, 1.6993045086614398, -3.6099630534191323,
      -0.4153581887806121, -2.2383769319313926, -0.18833941410388422,
      1.7730542835199534, -0.8510999466145253, 0.7602225909089725,
      1.773681266617979, 0.8398433507735422, 0.9813491083442973,
      0.4229336502468382, 1.6297944770481334, 0.4007344062118169,
      2.211025999077806, 0.7406418539011539, -0.37955520829583334,
      -0.7718536461897523, -0.32991205655406247, 0.6140198402615862,
      0.8529631362236946, -0.7786214752119067, -0.5667466340774191,
      -0.184042382558205, -1.5034543509464933, 0.49308299064567734,
      -0.832131596596111, -0.7997722087562258, -1.105107559161671,
      1.6266998004512638, 0.8924947645308449, -0.6371660281234657,
      1.3361692114634198, 0.4225542074221149, -0.009437945437437022,
      -1.343313928250611, 2.1766066146916203, 0.725579174107747,
      1.8137934300824134, 1.0801935778601128, 0.8073778518796142,
      -0.054721627972572524, 0.37575314100910695, 1.8249753150106076,
      0.36594776007108276, -0.7398931137003948, -1.3175440398925862,
      -0.8166028388103359, 0.3123990038794666, -0.9719439519385388,
      0.9043206461383899, -0.4811857125319462, -1.1733996547202064,
      -1.2914356107742215, -1.4585112422874367, 0.44655430611566416,
      0.7605745588474867, 0.42720210704205847, 1.384316048478531,
      0.4235519502877198, -0.6524562931239165, -0.8052588394542786,
      0.15781227330747352, 1.2904985515139795, -1.1923320872694299,
      -0.2808051500749666, -0.441921505717214, 2.092756430180652,
      -0.9153926965046835, 0.367179717435992, -1.2440795918225438,
      0.7184375263052021, -0.2768868008138752, -1.81490647284271,
      -0.9030566272220294, -2.035820924520913, 0.797643471503341,
      -1.585263742503514, -1.04781127035672, -0.17993078760151346,
      1.2177064333229433, 0.633534011373265, -0.05254184693831472
    ],
    [
      0.7896338171633324, -0.27760379842746874, -0.8786201460147696,
      0.1626212168145226, 2.51132775769052, -0.2358182581361836,
      -0.1950148812741483, 0.8503402248352241, -0.718467074262303,
      -2.214258033055458, 0.436711912104426, -1.1729687856962157,
      -1.3542306802804034, 1.8465375424900234, 0.09030297019569847,
      0.9374688483630843, -1.7977463723385654, 0.763562737853583,
      0.17114831785690365, -1.213355931669023, 1.6928242089756889,
      -0.21089891004129474, 1.2710079272097912, -0.4585931214414238,
      -0.4169062656964083, -0.2891046176337003, -1.4507838898128318,
      1.624597251529666, 0.027604161772886462, -0.4486042656068155,
      -1.0435379949760355, -1.4007343894879074, -0.45988570708251264,
      -0.025136017898560518, -0.7245926044448995, -0.37321948335417393,
      0.20447890176264755, -1.5254101628241563, -0.3626496585784623,
      -0.43475936981504226, -0.3219640158692766, -0.28692465308624815,
      0.34873029057848476, 1.271767256869006, 0.1538255441852504,
      -0.14242086642756244, -0.2422049661054751, -0.983807409944321,
      -0.4478880307921985, 0.5452564853933765, 0.056281881443945095,
      1.1535457971735787, 1.8699039172703684, -1.15940324873863,
      0.8897273173503432, 1.183182696743326, 0.6659210530744071,
      0.2129257844455825, -0.26769020080610345, -0.19220347395325654,
      1.3345374371691106, 0.9648097996617677, -0.908396524562173,
      -0.23014734583440621, -0.37779703172507756, 0.48066853666989323,
      0.1577329352461639, -0.5779228036809153, 0.6122377581339028,
      0.14274404631514548, -1.6454461108112428, 0.775274941047482,
      0.19358795784369026, 0.03392006498642836, 0.023473840221555523,
      -1.68646834761926, 1.336236709234944, -1.3145969397939168,
      -0.3193689427775888, -0.5445136601895121, -0.05144265830443595,
      0.2634951052685904, -0.5737631546675365, -0.5511938361770059,
      1.4279119620320746, 0.4356971098524045, 0.6298705435254531,
      -1.0657431660835341, -1.3235031727853523, -0.14807232287543667,
      -1.649392157546567, 1.1557892974193362, -0.19602864426992828,
      1.8680172008389013, 0.09175040835385735, -1.2302089672403926,
      -0.2285422305747716, -1.6352853104693186, -0.7064585244338211,
      1.4774610148180605, -0.17549369238286658, 0.35113996576882606,
      -1.3540748775882527, 0.3299363875402836, 0.09769993960348627,
      0.09125494932084037, -0.17967066518669736, 0.885006742527105,
      -0.06891739440311405, -0.44489742661509607, -0.33383948178534095,
      1.4547661574575506, -0.4393782897028513, 1.4017842431728866,
      1.5534339944459685, -0.5039405056548149, 2.263792621456348,
      1.5734959410346352, 1.9150685727126293, -1.3926714986625368,
      0.28589101175285453, 1.0970136125295786, -0.9482649063832523,
      0.8605731903700782, 0.9632119339571928, 1.0060703255053403,
      -0.4050327282998846, -0.03325211250963901, 1.6080528479062575,
      -0.11736131193837934, -0.6149308290879955, 0.8318640593891229,
      0.3483602337406246, 0.7284566619367314, 1.459643013752762,
      -0.8506100800293841, 0.5749758147061464, 2.259964518213908,
      -0.5691417748046212, 2.0905988027762867, -2.641964990377784,
      -0.11498653132118027, 1.2123025841951705, 1.107623977732403,
      -0.12130496051498334, -1.098749710132751, 0.3795913592832214,
      1.3680873812106595, 0.3282207704217472, -1.315849679775876,
      0.3509020722359344, -0.7608340912614101, 0.7789860539378609,
      0.4486302922264082, -1.3986939834414063, -0.7663672409916389,
      -0.34207321499390136, 1.1162990437611466, -0.8211799027453485,
      -2.3624300255085298, -0.18464596013187687, -0.2520243974206899,
      -1.194045263799279, -0.10683750973475967, 1.1786315245078622,
      -0.22246145632768732, 0.49072213123830444, -0.09160799691837113,
      1.7189574960409923, -1.1142234051344262, -0.7207561186714958,
      -1.3159706707542749, -0.476902904812292, -1.4734392395803155,
      1.4921469095442343, -0.7250724798683574, -1.1243989775249497,
      0.24330776620803407, -0.5259805019104687, 0.3030397357628003,
      -0.3122809946497111, -0.2019349901577805, 0.008049048711024933,
      1.4151959310218838, -0.1408817119632393, 0.0907099227253258,
      1.2309008660231227, -0.8107565019011941, -1.3947317923390778,
      -1.6588117304315584, -2.9979173998891673, 0.6797792844357596,
      0.40153355176442646, 1.3731254670441135, -0.030702461269434593,
      0.5050370968043357, 0.0585363135234132, -1.3282984822681783,
      0.23963412324533237, 0.91539266563594, -0.35040897143368593,
      0.15923401150321717, 0.07825705346282595, -0.5695745873137829,
      1.4368240826648504, -2.1909793351977958, 1.3715216852465848,
      1.298627609202512, -1.1555620407400449, -0.18648069894973424,
      -0.23037760511705188, 0.3425051194797738, 0.4383951223480624,
      -0.05456002332954333, 0.8483443870887354, -1.0363692584203488,
      -0.48558748806427116, -1.394388594173618, -1.2628713790355972,
      -0.20886265819270364, -0.6326288968038224, -0.28127112860583703,
      -0.2103182501618537, -0.905018553515747, -0.6669921333619586,
      0.6256105571731199, -0.10713153429153235, -0.7464845995154973,
      -1.3643634028410634, 0.13030292251044318, 1.1606210329130981,
      0.6469330140510049, -0.32984282571085505, 1.5958092907434007,
      -0.8399835691645353, 0.3120618437395239, -0.9597642514769801,
      2.188677009187685, 0.5283348955139922, 0.33182937302593385,
      -2.0028707662296155, 1.8612228174205654, 0.0361305926781023,
      -0.6325390055578037, -0.33206568517342927, 0.173869352965435,
      0.8733142520552445, 0.6885136612872962, 0.6094014702323575,
      0.9970114177174406, 1.196744534305823, -0.5370286117785678,
      0.0282425486700731, 0.2799398449472489, -0.3455638194672991,
      0.9007543303097799, -0.22795745111526364, 0.966263149428283,
      -0.01307857803680029, -1.3973779254991658, -2.742368361957273,
      0.27371962063104527, -0.21168223046238832, -0.42737127747784864,
      0.6349200285685176, -0.34666083573329365, -1.390055242711982,
      0.08725243625026569, 0.6332156766226181, -0.3271062705088662,
      0.9037915489393575, 0.31565973309032597, 0.9547155292772143,
      1.919616250198562, -0.5291376491494684, -1.8867833835998769,
      -0.3914313479321364, -0.49606349794037535, 1.4452550676614435,
      1.13849641808706, -2.5239459206136083, 0.9736011381887034,
      0.41745654234882984, 0.21403306512043635, 0.2910862894583473,
      0.0015403670335001089, 0.4951453631625468, 0.8396120341452993,
      0.3773712044152482, 0.34308748318397586, -1.1531491766902937,
      0.9333181667910911, -1.2450066009356082, 0.7376509596177354,
      0.26195563097604396, -1.5961477060216305, -0.6917713359024259,
      0.3673497393812551, -0.821576511134616, 0.2843084570902951
    ],
    [
      0.9484150224401184, -0.6531889596477023, 0.8611350164657738,
      1.5881068937838354, -0.8482725460133069, 1.0948251205663333,
      -0.9980456562106429, 0.5948965958486793, -1.2769901768093608,
      -2.221082594996223, 0.04022395512712558, -2.0044955206170485,
      2.0546508446047382, -1.3279591063856484, -1.332145243027398,
      1.5634755090699057, 1.024454913727085, 0.5676958603767064,
      -1.4351722761234627, 0.3603837434270858, 0.6825984110815454,
      -1.1942264864507317, -0.4858931926669047, 0.9568381923622156,
      -0.1319249790899682, 0.27108905654364324, -1.0202301966472638,
      0.8640133736493428, -0.6581396590226206, 0.9094721819470106,
      -0.05724008578470549, -0.24704576166043773, -1.0111971794612729,
      0.6188185174670737, -0.5446788486034171, -0.5044595908475381,
      0.6205656748865396, -0.6212557665866281, 0.38906524384855906,
      -0.6360734629817807, 0.7605202121072996, -2.318801229773449,
      -1.7199316176613568, 1.527718889631498, -0.2196718415232606,
      0.039338492352050454, -1.7934220729130121, -1.0100515601857998,
      0.7483401813605208, -0.3468713899013029, -0.5138910394054393,
      -0.3654706821865691, -0.02132971749636828, -1.1280883223435814,
      0.31304217357682074, -1.8525783674958831, -1.0629414283376262,
      -0.3990013613604063, -0.9830768367570918, -0.35624798995018253,
      -1.5537032532177617, -0.04243957794856863, -1.709244546809399,
      -0.1718405124678924, -0.027937670999603308, 0.6048461152794756,
      -2.15959426152763, -0.33049793697737395, 1.5180734093906496,
      -0.6187673354910088, 0.008416412403362888, -0.7033336413758118,
      1.7347724532509063, -1.0663032850929015, -0.5690428283673944,
      -0.39553359834201984, -0.08061774371571784, 0.08290753203091539,
      1.6038283598797503, -0.2521987244779748, -0.34733201441045747,
      0.6633891333227885, 2.2788820396601563, -0.2169343684435603,
      -1.5341372418946275, -1.9595950566071807, -1.1770589526170534,
      -0.42635416945825666, 0.4905721848756234, -1.4053979106642083,
      -0.764976041012828, 0.34635610885723206, 0.010368601696072902,
      -0.48935992198693373, -0.790829236912709, 0.6295293612589441,
      -0.09723897268140436, 0.40299643206394126, -0.6478013925994961,
      -0.8873235552310154, 1.7152818944440407, 0.2843934069597348,
      -1.7396784044336266, 0.21961603390412812, -0.17300260693440933,
      1.0604997174678403, -0.12494334672667727, -0.6254432264420579,
      -0.9060498753945776, 1.2406817912373118, -1.0342166017292391,
      0.8230631412508839, 0.6459089363159429, -0.5945428392199844,
      -2.020045888186071, -0.6977565315163499, -1.2252593265571732,
      -0.3378508038687416, -0.4616449026556268, -1.661267302530947,
      -0.926929673408196, 2.026502368827715, -0.32747431380694886,
      0.609855253658374, -0.31067034064794, -0.23953977459830636,
      1.9401907575159698, 0.4922558995574941, 0.06625955546889026,
      -1.1171540394914687, 1.0931900717994414, 0.1077424776713302,
      -0.6903136286755461, -1.0869270477974184, -0.3043932401684543,
      -0.03495666824402781, 0.16421916885418533, -0.7791090389418727,
      -0.25146458120137616, 1.7304087132008181, -0.7146138228829975,
      1.3857089693063784, 0.0653354775462331, -0.3882285626096202,
      1.2884460641322577, -0.6395284255170232, -0.760680833921466,
      0.33606229318122016, -1.0958180986305024, 0.619526194174128,
      -0.5386482873388561, -0.21265880122876626, -0.07795829038264263,
      -1.0808185890973594, -0.2636833225377125, -0.7039231169972812,
      2.1519130553994312, 0.2956760952095737, 0.2615701835130687,
      -1.6386455079166538, 0.5893958755356304, 0.40617643709732854,
      1.2120641891460429, 0.4828970545605565, 0.06977895370988414,
      -0.5083939914164064, 2.132154007930199, -0.4990523242623507,
      0.015452105621101764, -0.27662446459388684, -3.0694018978332904,
      0.3175236524718773, 0.64380239125013, 1.3883524803495546,
      -1.5760346399664238, 0.7420336796068281, -0.6670388333915475,
      0.27974479296143556, -1.3314322388832636, 1.2816118111795314,
      -0.3029276115974103, -0.9159305547925511, 0.592094930863269,
      2.0079002307459617, 0.32851522040426606, -0.9895326883747585,
      -0.6887654498052983, -1.1266340668241241, -0.3186126790918198,
      -0.6109359110454704, -0.5433566039157792, 0.026382115499339765,
      -0.40237565144639015, -0.6005757368731302, -0.49621902905078513,
      -0.15616572622809113, 0.4146616520008844, 2.2139415210804874,
      0.779460177285529, 0.03562194440049573, 1.265183340772551,
      0.368683353982744, -0.8348104437573799, 0.037265972891866735,
      0.8621805225192362, 1.1840847594070036, -1.3125615127683765,
      1.1842774337446698, -0.4486671887526563, 1.1390399977608006,
      -0.06344348855134589, -1.0298149972803932, -2.24841276230923,
      -1.9980513486163056, -0.9345853792275473, 0.14505223381139704,
      2.1041055361674146, 0.05174163329314906, -0.014746663488351887,
      -0.48391287956340456, -0.8081820299669853, 0.7150754427905083,
      0.5309116879620863, -0.7753546895926847, 1.8065682946007426,
      0.6789454475700819, -0.2619747167867462, 0.6169217327070469,
      0.944058533670958, 1.159942250732395, -1.9038924146927865,
      0.0320542935324986, 1.6080039083507602, 1.6974878120716108,
      0.013709284698171167, -0.01377791628775957, -1.6978123001781391,
      0.20026297348333907, 0.45906451687573446, -0.8840867233747222,
      -0.07903704058358516, -0.2086881956376469, -0.23619353304051752,
      0.708103369367692, -0.35728360369239703, 0.98006996467486,
      -1.4886439425769007, 1.5837795709538003, -0.9964216411786013,
      -0.35490114813734186, -0.6798220556944834, 0.8489605581448446,
      -0.5238858782180069, 1.5128517496986633, -1.3250793242060026,
      0.6814321403709589, -1.5491456214844654, -1.5630140905677432,
      0.23202903795983498, 1.688843241500259, -0.8402278803988275,
      1.5077929467736026, -1.7498729147684662, 0.2188337644360781,
      0.01207191371507126, -0.5969563956391265, -0.21419438423494977,
      -1.8391233145734556, 0.22549599533049927, -0.4016635579770646,
      1.3882103461761304, 1.1750537483587569, -0.04289369185835181,
      -0.7523913331348175, -1.1233945012409645, -1.0906240136793557,
      -1.0875788508742963, 1.0179435218556385, -0.7210079648564148,
      0.2517999111832175, 1.3252368527220117, 0.4457304033781248,
      0.2591954628163076, -1.1472769371986355, -0.0476408400970419,
      -1.4215746167380199, 0.6045238813288174, 1.1322507952735927,
      -0.8738060418200797, -0.24696708777579657, -0.8990038670607775,
      1.0466018359746727, -0.4111460205034126, -0.8290252531474629,
      0.9178074094225446, 0.06672354113208345, -1.2167307979756914,
      -0.054616783364678484, 1.6820981663220107, -1.1382745283288471
    ],
    [
      0.5889803252364423, -0.4043542959800853, 0.1498619677707839,
      0.40497777889524994, -1.4061719067950607, 0.8054098195393337,
      -0.20978204622096505, 0.4141186783931548, -0.36590804275052535,
      -0.2587367759251137, 1.2305049403051656, 1.3776714905405574,
      0.9268528392437241, 0.9159014167492918, 0.22964731459464302,
      0.5167084936146142, -0.47191553611166515, 1.5695505481722676,
      0.5395242049625679, -0.05245633061554951, 0.8090065041614593,
      0.10033722218884886, 0.7821451332172688, -1.2896866834173744,
      -1.2992592549294841, 0.3008198927926366, 1.3976139821244635,
      -0.0327852407463125, -0.7279125485480121, 0.10051409494570208,
      0.30125172919259147, 0.16770668734849398, -0.30475292078991506,
      2.183157057946239, 1.0208190040285343, -0.7415480143177782,
      -1.3646377908733207, -0.5584224629573743, -0.42594122365020365,
      1.426710451607961, 0.022243292016781456, -0.9812525840167508,
      1.5576679398699886, 1.0944597412407524, -1.1877404905004416,
      -1.049010437859731, 1.4834453145823274, 0.40461173686297736,
      -0.030117499511414174, 0.10738694312925594, 1.4986922938634168,
      -0.16890981180543757, 0.6170378262930812, -1.3654141891387372,
      -0.041567117190960456, 0.1626658921239749, 0.9679126881664644,
      0.40156633065831415, -0.5568508087226328, 0.2876926050800601,
      -0.3101560151818734, 2.1337248555192083, -1.2185644148065946,
      -1.6565556673969823, 0.8584310120241179, 0.48139854480558913,
      0.9252925634999383, 0.12463038350586027, 3.0374610661423853,
      0.4777655385665874, -0.7492540852148329, 0.549965260423005,
      -0.22599130122491257, -1.5167339297510605, 0.9912130568809033,
      -0.8907306892775025, 0.7069419546364535, 0.0849755509838332,
      0.8430690055291126, 0.741912881691706, -0.09564913858899847,
      -0.39601853436037543, 1.1254833976923337, -1.1040495835584005,
      0.5599963500168171, -0.7189924928813263, -0.3201205932061673,
      0.09173164771931522, -0.13941695949446206, 0.20408004535792185,
      0.32293478945520854, 0.03669953420450243, -1.9409034139357202,
      0.4611701336926475, 0.7215877473578896, 0.06930912537111875,
      0.18240411614610794, -0.21404909208988154, -2.420135212476977,
      -1.510576488849557, -2.210263071872796, -0.9473525525274626,
      0.6005965751846244, -0.7688536040566954, -0.4168911173125169,
      -0.29203877799239203, 0.7264155307400021, 0.012936334034298311,
      0.7129950025201484, -0.28693581867485407, 0.23456292728366837,
      0.2552848212417511, -0.07143078699489204, 1.263952858429445,
      1.6741577788049475, -0.2958667440114609, 0.4728976572891267,
      0.46560899355084545, -0.7997157770818116, 0.11019631773045857,
      1.6192195775310456, 0.3448175261898808, -0.5391402074620854,
      -0.620044711384836, 0.4121508038636123, -0.6649505642694108,
      -1.1624332219087652, 0.2492736157713944, -2.101365813584799,
      -1.2316725818992043, 2.156345711784124, -1.2642252234841995,
      0.37429071949895876, -1.0711338772045929, -0.011639925645684989,
      1.7783131956081428, -1.9325484294280735, 0.686010366912323,
      -1.1733400554847941, 2.145858549062914, -0.8459895649653266,
      -0.36627075738191095, -0.24237544899461458, -0.0798832734493934,
      -0.30234277777909796, -0.6204618775241154, -0.20632629722469684,
      0.9784302635189089, 1.2509391882001233, -1.5105905655469383,
      1.0828846460690695, 0.739078122573101, -1.1095886848451209,
      -1.2163494231219927, -0.0998400283930016, -0.6563490209531618,
      -0.20578780063104435, 0.9275266535063438, -0.33921178246862166,
      -0.4757603060373094, -0.5090154142336375, 0.9323757444791223,
      0.25042026743494644, -0.6249654060648862, -0.17102305798432138,
      -0.3242612233071927, -0.04379937143597447, -1.3702646725829373,
      -2.123663987822738, 0.22834552748256368, -1.1980825241019961,
      -0.9465534714885843, -0.1669618266882309, 0.6724249031786979,
      -0.4149561622296013, -1.3567184435636983, 0.8346201300181957,
      -1.7064559955351313, 1.7252156487938595, -0.48878577145426594,
      1.7994000076005943, -1.275781105225101, 1.9435754047634324,
      -1.4764084844727108, 1.9699135887551458, -0.09950559572723162,
      3.2399709060824837, -0.8084322360736385, 0.30022704506952647,
      -1.9727920058861652, -0.004911669427733299, 0.8759271047618692,
      -1.1180283053226536, 1.459591737374345, -0.08284610880316126,
      -0.08115167869228287, 0.009934347234617226, -0.47932841117895447,
      1.3326791987775124, 0.4819170728481537, -0.3819559946655132,
      1.0127432573767128, 0.9947508052268964, -0.994074375868765,
      -0.9674942812830519, -0.4977412566312288, -1.3281350027011511,
      -0.49204266704958866, -1.1306169898316774, 0.23451180262495958,
      0.834183704687472, 2.3289458870892257, 0.9304911338847722,
      -0.39331377189796396, 0.6723271306697518, 0.2652822642387059,
      -0.5865023818018672, -0.09045739124004523, 1.6979329033006068,
      0.5710367272070774, 1.8482064755498884, -1.143755221680443,
      1.894745148250663, 0.07734217642084924, 1.8447192276848197,
      0.7672960600224589, 1.370799849377902, -0.6294907572217078,
      -2.6319575443229306, -0.18137112782520695, -0.6046178642489323,
      0.681267979720503, 0.0001546704562615523, 1.3325181265896249,
      1.9728202278537692, -0.9651911400186769, 0.2785446653553382,
      -0.5009882345259352, 0.4742157379956765, 1.1190294602677933,
      -1.4254027216710858, 0.02655665611477306, -0.7753531003524629,
      0.3112383278836952, -0.4364162499132584, 1.1275542848745537,
      0.18551750903106598, -0.3959699003494785, -1.1071614322351908,
      1.1281631189297847, -5.3307823747119815e-5, -0.22950524629286048,
      -0.539558658864471, -0.08428447476121574, 0.1368992002845525,
      -1.0926437518641534, -1.2959329105508326, 0.25728170787011495,
      -0.7449589677274027, -0.5205043984212638, 3.287586870057801,
      -1.044192726049094, -0.024296827937176416, -1.0677570419360456,
      0.7388903677581264, 1.406675315195932, 0.5782203284319842,
      2.023550961140888, 0.796172967522006, -1.6414954348692545,
      1.0727048755866253, 0.24226247503263557, -0.013644152124176707,
      -0.3896716147253885, 0.5367034915833984, -0.22025625452343262,
      -0.5057310114122502, -1.7284904164071484, 1.1181381338041323,
      -0.1023017998125639, 0.15583792601669502, 0.04723716431615998,
      0.19386183439321497, 0.7312559783576321, -0.1715728163172007,
      0.1352528732468268, -0.9807664723839896, -0.8874944682755785,
      0.5187386502367464, -0.56946564345351, 0.47908583047955566,
      -0.6594003721640919, 1.2328742917654083, 1.047852913280757,
      0.34681943193935094, -0.651881895244632, 0.26717710792534016,
      -1.245169125899528, 2.2559876774108902, -1.092237744498552
    ],
    [
      0.5985724980777638, 0.6086374618327987, 0.563188983229778,
      -1.0050609220512587, -0.27111470464140813, -0.0667634973912708,
      0.4861553635940269, 0.09327753707507189, 0.09858878007858886,
      1.1386600421876742, -0.032894144229447524, -0.7397151282305264,
      0.5349108660270624, -1.063196864741468, 0.2639959265207667,
      -0.9751579649894154, -0.6563016050109702, 1.0442321018069016,
      0.0591228934613517, 0.12442253946868725, -0.5328913311119012,
      -0.3732713830019957, -0.6886542748193111, -1.170091060739596,
      0.6865446132916858, 1.065761161155026, -0.8424049143092411,
      -0.07091910412929532, -0.8473140714117031, 0.9598674649885162,
      0.18856824354804805, 0.6410837925361951, -0.42267288222482197,
      -0.02170303180530298, -0.1913388482103072, -2.0865562595674962,
      -0.313277241925829, 1.1242124100033495, 0.8937848936438257,
      -0.3133498433073404, 0.8577577546879412, -0.43569637723896226,
      0.7630742098785424, 0.812058641361889, -0.6242509100864191,
      -0.04176473980169496, 0.3126806518574041, 0.5485766132741117,
      0.3657652449478362, 0.7494954681340252, -0.5090725998981935,
      1.431461851064971, -1.049421490134883, -0.8854415269636557,
      -0.8582017920555146, -0.5653719110542055, 0.147249770264072,
      -0.4924191703139866, 0.12996056127600794, -1.0275213139830977,
      -0.4422791521286374, -1.5003502674934937, -0.24055575526736317,
      -0.018359264736007956, -0.19642405045578043, -0.4384212958930895,
      -0.5351871848058437, -1.4938959672967014, 1.3763181793123538,
      0.3344622137832844, -0.21352705625751775, 1.3003859683910837,
      -0.7973724302379975, 0.0541541435917242, -2.33095974953758,
      -0.29368793584381386, 0.46584740361044674, -0.9873195387083116,
      0.13964516026263218, -0.21897512155044782, -1.963875531756668,
      -0.8801774876955597, -0.9390996686321265, 1.2334460773686224,
      -0.299829706990647, 0.4432541725960115, -1.4257764957181625,
      0.525427389236843, -0.8437317038337284, -0.10827515213416096,
      -2.0709062637557936, -1.0967489101076289, 0.1970379807083881,
      -0.15947818682056789, 0.8908700066718692, 2.479495858146994,
      -0.5633470927518303, -0.5492648045252971, 0.15300685554334967,
      -0.75352102940219, -0.6154003917742892, -0.3976541525874633,
      0.9971472549853949, -1.9673127780406698, -0.3495002486924515,
      0.35778644179160635, -0.020300029013961548, -0.15097584166059028,
      2.444324938786431, -1.0267078210112304, 0.6457208656406087,
      -0.40061174685782075, -0.22274410884229398, -0.9320528958768655,
      -0.7572649121045105, 0.09733367981534838, -0.7674721661871253,
      -0.7228734660542365, -0.2267069352829099, 0.46908581103322317,
      -0.20867895276740456, -0.6669644011432689, 0.7038315519845821,
      -0.3772811235167657, -1.3406975943685058, 0.6806236851384866,
      -0.16649924897130972, 1.5002443929867963, -1.0431051273370908,
      1.041382741590178, 1.5567208772811811, -1.283440980203942,
      1.5893482283639562, -0.9651840201221416, 0.9766693732830823,
      0.5441870741243208, -1.6829391551167872, 0.565918711524312,
      -0.6084462779504314, -1.4930817690217593, 0.8149994919387095,
      2.1289662066776684, 0.05701534045095649, -2.070154617695413,
      0.18569855766081036, -1.8252041893897513, 0.18106367974114637,
      -0.5043084822010457, 0.02773914973731641, -1.4186902603599374,
      0.6500159630688505, 0.2247826730069539, -0.746630612432265,
      0.9020160979101748, 0.6840679835533922, -0.6498710930921898,
      -0.12445606451318224, 1.3487526227033775, -0.22051842914395742,
      -0.8692945636135613, -0.12535659643179883, -1.2421371499303804,
      0.179938669788127, -0.2694358293330635, -0.3058618778149038,
      -1.4374811135201762, -1.1217869289730402, -0.2609454310613973,
      -0.3572156473901835, -0.7050290637963665, 0.7164653869968076,
      1.0262331551699564, -1.126450679873803, -0.3261375520820877,
      -0.274005810666469, 0.40453297188297654, -1.341645410074881,
      -1.1496071303854156, 0.4358279332743255, -0.9347638603757018,
      -0.06531071128685868, 0.43621665399410514, -0.32157998078310845,
      -0.11323635408378252, 0.7024058634884238, 0.8625295625951033,
      0.29868533162401295, 0.8403207967649502, -0.06353582895276731,
      -0.17568755286397458, -0.3409363352490892, 2.353028151591224,
      0.7850975467576651, -0.783513769197911, 1.1013254227745624,
      0.18246664574682234, 0.4041462985711078, 0.23418195968933309,
      1.0847181228652292, -0.36171657916801403, 1.5478976405907323,
      -1.2037455228591658, -0.5360431671144009, 1.1631618481559178,
      -0.8543683486633514, 0.6235693495180118, -0.49374417300280665,
      -0.5989581866277544, -0.6506440612809788, 0.5143322707850366,
      1.2378324365427642, -0.7327879110680702, -2.4627345461922747,
      1.190515205369353, -0.4913533108579744, -0.1062458689563063,
      0.1665301578408005, -0.061190533747307686, -1.1418559333717915,
      0.22719006497625885, 0.19149390644277192, -0.5360726010778409,
      0.5336494362840991, 0.36483684741377875, 1.197386740179144,
      -0.2786918813311124, -0.37341244284991704, -0.13753793956020105,
      0.4309385454010158, -0.6755823007584673, -0.9806112569770337,
      1.3767753756976528, -0.7710392821845018, -0.4264931504240665,
      1.3320314122002768, -0.021517945839215857, 1.3979611731862072,
      -0.20434091581486347, 1.739012667548946, 1.6578915779309618,
      -0.3049126412044813, -1.2277600735596415, 1.2850922524926176,
      1.3922472306123634, 0.1115673666927487, 0.23870924231782412,
      1.2087813389339934, -1.1507385911982049, 0.4897065287509482,
      1.3951389154147342, 1.1874836520497123, -1.9239342101004364,
      0.1325934966327342, 0.19870574103013994, -0.6562606994979707,
      2.167945030638785, 1.25892714121216, -0.9854424010577,
      0.033516831169303714, 0.10808255337781889, 1.000075200041333,
      -0.21001789429433024, 0.4058425600411919, -1.600529654434151,
      -0.40156404759331477, -1.8428195438302928, 0.009197218991491373,
      -0.4032642722716035, 0.09745480171860348, 1.7526031263088373,
      0.38522870454549263, 0.6472491026999462, 0.28263556432357584,
      1.077813235782354, 0.18204975998841827, 0.4914725489062232,
      1.443929860424741, -0.5920395536751156, 0.5140233985732476,
      1.507610538986039, 0.1991133100236214, 0.017621819046225742,
      -0.7478008569809911, -3.203918161588353, -1.9023536962436494,
      -0.155400543973414, 0.30581495452613183, -0.6124781580869216,
      -0.9141577339735402, 0.17942748940039913, -0.11394935706028225,
      0.4801600758171601, 0.8661685642537618, -0.9117299347573619,
      -1.0007997786910494, -0.368805321936393, -1.8062699372594562,
      1.1023494783562204, 0.7711612231856187, 1.6702737020551148
    ],
    [
      -0.18418788409051015, -1.1756199289794977, -0.012062540420931467,
      1.237582395782662, 1.0628831322138408, -1.1459200249239159,
      0.18783197216108236, 0.19718549233284613, 0.3517384549942822,
      -0.10841735506256017, -1.4241451823421334, -0.07393482118358427,
      -0.2681621293283139, -0.2893947598802382, 1.094804648004133,
      0.13933684549380193, -0.20104976878771397, -1.1303696474073657,
      -1.425491789625312, 1.3612561149717353, 0.5550571926641308,
      0.1365085585956112, -0.26646861049091647, -0.8031545193413682,
      0.11841091645745776, 1.0545003462793832, 1.6444416921454172,
      -0.11282351377996366, -1.7665276193828179, -0.24034588772677834,
      0.6421897668222459, -0.44579462523099506, -0.07554375944937458,
      0.0978197953805043, 1.9920707126428863, -0.03578529785517203,
      -0.07173178727519969, 0.17331381278167904, 2.9580240803210853,
      0.9708927777090529, -1.4082885283154871, 0.06398374289209915,
      -0.8019468999837743, -2.399327429563533, -0.7916482390365661,
      -1.4068897172609973, -0.3578051844486141, 0.44707502824185846,
      -1.2365690759318995, -0.08854110001115302, -0.48622918380621677,
      -0.9664398281857811, 1.5137673710439326, 0.051754238709909965,
      -0.9360184577744697, -0.02438863929054553, 0.5898921341909268,
      0.5287970253557346, -0.3755684344949567, 1.5333558005176993,
      -0.628181429733266, 0.06510047384705597, -2.1067079861260205,
      0.8541160638786153, 0.4453928385070139, -0.68232664932618,
      0.02880873376529484, 1.3593210538737326, -0.20480899463004149,
      -0.08501340411922194, 0.6541174067233383, 0.16999071342985989,
      -0.6570751934593777, 0.48916729441621565, -1.0780144996711563,
      -1.8799310689646722, -0.8713778725111864, 1.1340839468618882,
      -1.6339439828304374, 0.3287504644054859, 0.9192658788323124,
      -0.07161880224456638, 2.3661436381715126, -1.4284102031433152,
      -0.2931124487032218, -1.7996961815393653, 0.7478963654178138,
      -0.17130954916218902, -0.12877729523437786, -1.1713698578782903,
      0.9930933364682925, -0.48681223917864674, 0.42336095437641086,
      -0.9549321705965711, 0.43458848870055644, -0.04553924291357128,
      -0.5177696438675661, -1.548755190168, -0.2619528378446948,
      0.06684224333500019, 0.4985408900773045, 1.0321273884804965,
      1.3950395947745315, 0.25561152577508606, -0.3542074151075107,
      0.4635301707877285, -0.3499154767145392, -2.1848685222193986,
      -0.44522337819934965, -0.5877768929884895, 1.1666980909161038,
      -1.7725183251496006, -1.1447062240787813, -0.12769953584193877,
      0.1745884626961159, -1.6172483204751806, -0.30012747126636624,
      -0.6015331960505084, -0.6526687707902421, 0.3956391221288222,
      0.4158254994127472, 0.9388964802277872, -0.20830416064540874,
      0.9085285841730126, 1.268564143083384, 1.0513813024334107,
      1.006500556702139, -1.1390241823245664, -1.5138849166141077,
      1.1521798788758424, -0.5771339753130873, -0.5683088449863083,
      1.9254173986903533, 0.8256626452926337, -1.0348911985555955,
      0.7489996225992374, 1.6618415150361354, -2.049713577053447,
      0.39283543360714684, 0.4088797744199825, -0.053578357762124225,
      -0.15244299738016073, -0.47457749334773625, -0.2764308387276041,
      0.1656997270285618, 0.9087284402386584, -0.6962550056234359,
      -0.10304918517619358, -1.5095969017050885, 1.1283557111688465,
      -1.3690969757455727, 0.011001943438565137, -0.44996601317332835,
      -0.8336093866689002, 0.5893541501331152, 0.23623405770650865,
      -1.8051245827145088, 0.5220807385585627, 1.583801271574527,
      2.1334683807155614, -0.748259090409105, 0.5701165440634802,
      -0.13194716386292563, 1.3154742553910495, 0.1300663052852781,
      -0.6140015665754445, -1.0352147449707545, 0.20171647766679676,
      1.1895488302417219, -0.8450566056978513, -0.9376688064572593,
      0.1612774102260117, -0.31569724654719633, -0.20181395838054797,
      0.7561560845977243, -0.6060304379121533, -0.11879803259354735,
      -0.7251510550458512, 0.13924156029690885, 0.5189259316684179,
      -0.879723126758815, 0.6809356598483436, 1.327466992146764,
      -0.21140237597637487, -1.1112580160981136, -1.4109980957814767,
      1.2470497284101922, -0.9318538072592203, 1.7101368919271398,
      -0.5397951907488786, -0.37575497501063065, 1.4577406746764714,
      -0.2855104015084268, 1.1980625514684766, -0.6975328288048132,
      -0.26086844289464867, 0.8476863496910627, -0.8311041803190032,
      -0.04262387398318278, 0.3299030121595304, -1.7269761885874741,
      -0.03128810017340722, 0.4427423892925089, 0.7069353833192975,
      -1.8320262212208838, 1.6398862368548863, 0.2550705026527115,
      -0.5298025967914158, -0.45891367212147677, -1.6609759039864502,
      0.4589631694676355, 1.0455889333206982, 0.07814567258257808,
      -2.278951547895274, -1.142723340593052, -0.5062365703163677,
      -0.19010302138397506, -0.20374218467016333, -0.2568069566460023,
      0.8499532127609509, -0.20989852335275452, 1.4227194026765204,
      1.3749386336923048, 0.022887099950180508, -1.1618900698289683,
      -0.41846939880635003, 0.5076449128355209, -0.23429337104209627,
      0.05072379127835849, 0.002272023506713671, 0.7771858714816293,
      -0.1627895268182073, 1.386686964867673, 0.9613470299466688,
      2.244389607122409, 1.0159752098922534, 0.5387608107680744,
      -0.20405727502602222, -1.3773686942660353, 0.028725980091116307,
      1.7758000063605859, -0.0036053969901334165, 0.23127242724050254,
      -1.4221550183327356, 1.000507531482501, -1.59027841982152,
      0.0027362664061376224, -0.6815038711024215, 0.6849859972598066,
      0.7492249851809978, 1.3509847013258942, -0.8542240905679532,
      1.2043141586789803, 0.14819463793675086, -1.3542366466225513,
      -0.00048381303873955164, -1.9839024218727885, 0.8878231311137273,
      1.1927907941071072, -0.9536169079350107, -0.5324694717994134,
      -0.1367244616504421, -0.8725654872718867, -1.644816937610791,
      0.2668081963593667, 0.03959675384527901, -0.1015062419225958,
      -1.5157538468950895, 1.317073287743515, -0.9641843190351627,
      0.6379976642596635, -0.5637253196324393, -0.003120759217326262,
      -0.23745168309870024, 0.5491873406151145, -0.2936583494175468,
      0.8646995512141544, 1.5315071288532578, 0.2690174395776063,
      1.2085784890399387, 1.1957761103285909, -0.26702180503011896,
      0.3617226173300458, -0.021138106107657432, 0.8315028521273073,
      0.3450813565440778, -0.4686230187227638, 0.140784529260513,
      0.2775981744885248, -0.21545327168084327, 0.32304001761554973,
      -0.8729730876710634, -0.8715011970946979, 0.7726536552012535,
      0.1507074547539723, 0.6752640443980507, -1.0379493944777867,
      0.4718105472830515, 1.8466439560383887, -0.7869451621989381
    ],
    [
      -0.4718278879298924, 0.2052929509614187, -0.7831148224406144,
      -0.4666359430453924, 0.8808442897990836, -0.31312916958897563,
      0.2666218403645384, -0.34265545407886866, -1.121014893461567,
      2.0831703958794887, 0.5552765294214104, -0.07832974658749706,
      -0.39163569169198864, -1.81630943770456, -1.663031774681914,
      -0.186499271269284, -1.6381228501839207, -0.559699012704319,
      -0.29880369302508275, 1.0285293574504066, -0.7426302315724805,
      -1.1251661027179864, -0.8632342163672548, 1.3813680990267116,
      1.5636687804968687, 2.111962870070323, 0.36235864802756956,
      1.3109653658080735, 1.227013033767801, -0.8811557245503678,
      0.602951598890913, 1.140981435860856, -0.4417549690536719,
      -0.19634167948673148, -0.46225545598799417, -0.2924553981875307,
      -1.000816757954892, 0.9723485006208705, -0.22014473903529835,
      -0.7637620557883409, -1.3031429712112337, -0.15799712645393682,
      0.06263797635152611, -0.6607022896102362, 0.3567600279156369,
      1.4686460561896182, -0.2042926997778551, 0.8413790175717164,
      1.6765960912216433, 1.515463618706325, -0.6541461071822611,
      -0.8618783260080445, -0.44040465398422185, -1.9896457149655709,
      0.3816042562054044, 1.0269718940297017, -0.5163620274327237,
      1.549147094240198, 0.8316884327851746, 1.374407100623172,
      -0.6750282802683607, -0.3440239962806961, 0.17582606032979725,
      1.265023553370484, 0.6974349379515569, -0.19542404707158614,
      0.2831037802441998, -1.2214802077960898, 0.44095096610811074,
      -1.6037236192490656, -0.7628235240489354, 0.8342315431424029,
      -1.4408995983443984, -1.3301673471269757, 1.0628625873492614,
      -0.17073779947594378, -1.6110038722994044, -1.7658010650930005,
      0.08287467102923135, -0.31652593098572296, 0.32423154576711716,
      2.1809521341537255, 0.6474244688393275, 0.3160519350499969,
      0.6830171161097952, 2.8061795819493622, -1.601748569778411,
      1.3691254107048518, -0.2810467896652968, -0.211715848617722,
      -0.9070712408635417, 1.833351133901028, -0.8224582316093505,
      2.042965786519162, -1.316402294756846, 2.0332174492971844,
      2.750126207347947, 0.8964698366736215, 0.5923485210103924,
      -1.6424906732505609, 0.7858189043072097, 0.9905473813960324,
      -0.2803392207440089, -0.9722758928662896, -1.3161067287680852,
      -1.5257060266076379, -1.8673983875626716, -0.04468640886373173,
      -0.3737325549177607, -0.6761628326970535, -0.15210508481025856,
      0.03367686329991959, 0.15454373708496646, -0.8444720545007113,
      0.371294926010497, -2.180772292758444, -0.007656778446271151,
      -0.007186968078101151, 0.4088994762688668, -0.7092856611152828,
      -0.6491133576655581, -0.7823709786701065, 0.2413987401384749,
      -0.24093059770119396, 1.178098752330308, -0.20542495799664762,
      -1.574235183145483, -0.8796741760907346, 0.8246665010955859,
      1.0549809716933207, -0.48891715938152747, 1.5338381691060836,
      1.347248102914, -0.9693442577902083, 1.3051541021088457,
      0.4115953740673275, -2.020572416874715, 1.7587626148358195,
      -2.270006811606565, -0.32564499470135255, -0.024934379039434955,
      -0.5948386050523315, 1.2377764483418754, 0.6320385675245408,
      -0.4164272976443463, 1.956836073245379, 0.2669055230121572,
      -0.2831919261274261, -1.7603685417220802, 0.9370243620914902,
      0.5973110398634165, -0.957954979476399, -0.7047449193505189,
      0.07069782020195618, -1.033687790837921, 0.8274838320236643,
      -1.294957252039389, 0.5401740926370502, -2.36160786576208,
      -0.7078389355858759, 1.6586671853000052, -2.2378542248035176,
      -1.6128700609080278, 2.236368661718827, -0.5189566066299439,
      0.6419216473000875, -0.4540497434506505, 2.0198353885133833,
      -0.22150658696917483, 1.1310924678924756, -0.6989011930193747,
      0.03105915915354295, 0.9085321602101428, 0.6626535611145004,
      -1.03256490969407, -1.5349231425737302, 0.1404439430938789,
      -0.8289601337829224, 0.3389771075115186, -0.3773019985252751,
      -1.4769763980317172, 0.49662222276453977, 0.5358912178362806,
      -1.2629789053627167, 1.139710211837655, -0.03395815609203056,
      -0.807478048269347, 0.5916396959841409, 0.38289206349096927,
      -0.5488235835685041, -0.7362739544277787, 0.23165478950898358,
      0.4142643570435611, 1.9148240139949855, -1.0164044713527933,
      0.9441235692864366, -1.1218967557067598, -0.40016750131031686,
      0.43150731830574596, 0.5932926031177984, -0.7731186143299229,
      -0.05068247203022967, -0.610367297570064, 0.5959136267990063,
      -0.690452541793707, -0.35935882549989273, 0.35020663460219836,
      0.31073324033785626, -1.5728964851824698, -1.410821765853646,
      -0.6157149809749635, 0.5253533226729422, 1.5691663191984824,
      -1.2438451428216117, 0.3141912287226259, -0.36609893436553875,
      -1.6386910015671394, -0.8349778200539494, 0.9038087508817974,
      -0.06392393861820271, -1.5174306332866823, -1.0739908244332832,
      0.42137461948375704, 1.0037514053093206, -1.6494776416664139,
      0.006426361961912187, 0.5625549225151804, 0.5467934816615414,
      -0.3990930574007369, -1.3345934590929909, 2.3380586192919792,
      0.2503308191201399, -1.469093625039481, 0.12780446374630752,
      0.2640169795184649, 0.02835461872601209, -0.0623643717392183,
      -1.8707363644872588, -0.32030847575740623, 0.8972799785398768,
      -1.6048409599201214, 0.40292362225692796, 0.050162183446981666,
      0.10663370724148914, 0.29013070722468143, -0.13573057641743877,
      0.05940275870736015, -0.04361786286217372, -0.47301044099184164,
      0.5291208531754629, 0.6499467389765803, 1.19011190079646,
      0.2821677305918106, 2.0973191533058224, -1.5973814247959972,
      -0.873554975317157, 0.817430773149689, -0.9122286630562841,
      -0.9849317706384544, 0.7297468976086613, -1.4747560498343164,
      -1.7625152071807633, 1.4497365169552274, -2.209679260774456,
      -0.48391372192310356, -0.07317917629721063, -0.5127716307828023,
      0.3473337211208969, 1.171884609400131, 0.4914603836807969,
      1.3502119069753515, -1.3174872427766564, -0.4678030614642505,
      -0.9968466722247945, 0.9581883734568907, 0.5111721780129832,
      -1.3926863543160932, 0.5630969026893372, -0.6400378840278786,
      0.5169681262005572, 2.143290832986742, 0.3194268534405482,
      0.07601581765547279, -0.6874493572857269, -1.8712367673418417,
      1.3701416146015828, 0.9215291237657579, -0.22994466911350725,
      0.7555451724842064, 0.014817241113272775, 0.7020867180936583,
      -1.5877646190613768, -2.1993513132855353, -2.04882333014817,
      -0.6180845084889317, 1.5440449186624663, 0.22451634903788642,
      0.34704819278364246, 0.3760773853858827, 0.22005836138902415
    ],
    [
      0.274250029277876, -1.5203340320853291, 1.4923834600471864,
      -1.1300403669165655, -0.6993125160455154, 0.09758934488034898,
      1.7466492007773367, -0.5337397825025644, -0.5523402289675295,
      -0.9606432939969891, -0.42825435405179435, 1.264970429728283,
      1.4138941014072353, 0.03866311155129511, -1.19479995774981,
      -1.2840494208802826, 0.09725574375895342, -0.4464803355010847,
      1.3189208013209077, -1.4090815153320968, -0.008867037246199945,
      0.49218880851982705, -1.030270675940015, -0.23761186727967729,
      -0.4363168995761261, 1.0214786211128846, -2.2628787596702162,
      -0.7899268887230473, -0.33397661744589874, 1.1584622923088073,
      -0.26561320079998524, -0.7803231204568205, 0.753078452664495,
      -1.5002025737087261, 0.06045965864332514, -0.7418462831573815,
      -2.4687042727765913, -1.2931692325647948, 0.19981052989229292,
      2.0618893547479895, 0.8146929314026998, -1.436687941278365,
      0.5430018935235572, -1.487857725972224, -0.3638353882596005,
      -1.0333681106620733, -2.712506686785384, 1.162462458022974,
      0.31926868955838916, 0.9151769949999226, -1.691296616402633,
      -0.6112438849453845, -0.8333719203390219, 0.34748991165076354,
      0.6718104313028926, 0.9023966468762157, 0.14436251541052295,
      0.24538468963127189, -0.9059716318465482, 0.2958953729836915,
      -0.3868936113415675, -0.2049824841697062, 0.4723946763393113,
      1.0735025128411106, 0.13993329047085215, -0.3143506300712914,
      1.3725475212292637, 0.3721965757604214, 0.8056936976601061,
      1.0383920622502247, 0.9982809057904887, -2.0751565527172233,
      0.6422475920971088, -2.3752940736073986, 1.4578476196345656,
      0.4933274904791496, 0.11538274950885365, 0.9136672922148127,
      0.1357041537203618, 1.1027298550868825, 1.9294134109498222,
      -0.4325407505667526, 1.5398992913537146, -0.7177724984461499,
      -2.018094326060494, 1.204893858905282, 0.45085336276922827,
      0.5836082717216766, 1.542501369889858, 0.8049622386744478,
      1.742968449383858, -0.9247726604161529, 0.204660883623007,
      -0.012180353418011393, 1.3979760715342817, 1.73425582520796,
      -0.2546233450182467, -0.32898998007679514, -1.222023959092246,
      -1.7091872540616317, 0.5231062303870139, -0.02684683780162203,
      2.944040062864229, 0.7540648925717088, -0.4524213828588365,
      0.5214792582744088, 1.9454598575702704, -1.0698674186913282,
      -0.837332365281996, 0.9936256520819872, -1.6079372688619007,
      0.29387739748209657, 0.2610110017820242, 2.431671633284078,
      -1.9351415504747809, -1.329527076607676, 2.3321869196728016,
      -0.6548757122852916, 1.5280382465996585, -0.29740248194689967,
      0.09262823089461877, 1.0138742438318806, -0.2209911097680542,
      0.8457392255036673, -0.3926523623816375, 0.016717179173055412,
      -0.3196117213326335, -0.25342026630112424, -0.8625708407629219,
      -0.6171120094232923, -1.0146002120367588, 0.0058193629391157355,
      1.723339374298616, -1.3456245600124739, 0.01304686153918721,
      1.954405024114805, -1.5308907009208748, -0.8990227029055483,
      0.16269308621710385, 1.5105544939076876, -0.6319038798609676,
      2.0564291351669235, -1.5165188280466084, 0.5138734767541704,
      1.4844770398260911, -0.16526798152959035, -0.48778230362819297,
      0.39903590603473355, -0.6311849857825393, -0.18589780767458106,
      -2.448213548925536, -0.021461179343564264, -0.8304435573651415,
      -0.9134687532908506, 0.38146722857547744, 1.1475438410193084,
      1.0151460746450724, -0.2500878132890555, 0.3511041739972875,
      1.7597268447897838, 2.29763323060613, 0.038730360415341954,
      0.9770664646043795, -0.23411642581524206, -1.5559361167890675,
      -0.14555052718041825, 0.4269195504880619, 0.0025614181740310363,
      1.064693328600006, -0.7704627256991796, -0.3508273443545937,
      -1.5958936332132858, 1.0808254067795395, 0.5379505226096356,
      0.7951475185505709, -1.076453388799124, 0.8722556570245292,
      -0.0917278893890902, -1.654623419970606, 0.5275724108672397,
      1.7061431314279127, -1.0639379765928365, 0.07221076741537223,
      -3.0261431208846874, -0.2483074021650909, 0.16581327266822474,
      2.7274568227416784, 0.6416853221470691, 0.3222797567588293,
      -0.4249404389663512, -0.4426548067707811, 0.5107548888949105,
      -0.2807945815018413, 0.09790790672314947, -2.083316336169589,
      0.6551961465565639, 0.19541844335685066, 0.3344105497679763,
      0.40179704358483614, -0.28957893801703805, 1.1433424191594166,
      0.8656620176093653, -0.6880900493558669, 0.5368346397813859,
