{
  "epoch": 650,
  "input_size": 180,
  "hidden_size": 300,
  "output_size": 26,
  "activation_function_type": "SIGMOID",
  "input_nodes_weights": [
    [
      -1.0057191414637006, 0.5436900932017197, 0.7107480459925787,
      -1.982091676250253, 1.3129192964956646, 0.6489457694054536,
      -0.025202665751198842, -0.8860631437157627, 0.8118265921959442,
      0.38865787855476075, 0.6075030879230418, -0.43864150403898344,
      0.21856433955038748, 0.29995820552208396, 0.5754280027110524,
      1.1466730189942498, 0.7556307381982266, -0.04575397827640325,
      0.527870757894519, -2.4292550079707844, -0.5367895555512722,
      1.7819782246478935, 0.24285386645527762, -0.9476031489614537,
      -0.0030805481781255224, -0.44084600447308214, -1.7610578798890264,
      -0.9348632178356955, -0.6181664002216416, 1.1829910683567497,
      1.292818623893645, 0.025423537439003063, -0.0012999577783597432,
      0.7026300649468977, 0.5519442707341097, -1.6238423499676742,
      0.47551589559985374, 0.6920079483671446, 0.28758973006807426,
      1.8193599853255304, 0.2067717514864082, -1.2050101720080448,
      -0.1321645668037708, 0.20094378394557819, -0.16743680044116385,
      -1.0997749166320563, -2.594106318006681, -0.940324358741595,
      -0.6961474639938054, -0.05827236057219585, 0.01428381981067634,
      2.1839528931591885, 2.9848270993072754, 0.09814670716707677,
      0.22587775733505625, 0.2290509484668772, -0.19071952657387137,
      -1.0597361325711778, 0.10184956924604789, 0.6420922803707411,
      -1.7690549504935689, 1.2440593119567034, -0.5717220176841802,
      -0.13311344804628303, -0.2143850365022683, -0.2870332922878465,
      0.14350501530467064, 1.8876281043749377, -2.834952593581524,
      0.2638249654136341, -1.3719895125051191, -0.42743568148223976,
      -0.762095048650895, 0.9733747567579785, 0.4857285171690537,
      0.9625825454405671, -0.36489803713993535, -1.2906652172060888,
      -0.6977312147958621, 0.7308139239257854, -0.002272423004141444,
      0.8288259769344728, -0.18060866575244997, 0.7690956866530342,
      -0.05896155731757687, -1.6280083784410961, -0.38076273887850476,
      1.1886529547573763, 0.40629471812420087, 0.6864534406050928,
      0.7254073557390263, 0.4943921832929068, 1.2813075814251391,
      -2.0139366075921794, 0.16687621399902572, -0.768054016044678,
      -1.4730918550210519, -0.16269997170659084, -0.051079506184535696,
      -2.721780014680616, -0.3310989664054324, 0.20911322199233642,
      0.9588361619288379, 0.5278118183940776, 0.2042487269409446,
      -0.4037115444867061, -0.6677507276942272, 1.4562027198495329,
      -1.7000430377309657, 0.7862244350645078, 0.1415774127182809,
      1.6053080536988469, 1.3708720543910664, 0.5247671035469667,
      0.1522799446654326, -1.0290588913468752, -0.7526813717079073,
      -0.009679526771981098, 0.3484402360302913, -1.6288912571130563,
      0.7833014676973308, -1.1151172248021155, 2.9165814756679582,
      0.4134606941975895, 0.08421002379504311, 1.2186732524289634,
      -0.444286216438988, 1.2529907074828353, 1.3037476282285734,
      -0.0232447820979312, 1.2225425915799741, 0.33672125184418733,
      -0.7935342294396848, 1.447307664747074, -0.7520360965759132,
      0.22161343937720757, 0.6531556090060926, 0.8017486054453646,
      -1.0274828338738182, 0.24642150463722587, -0.1181286675810442,
      0.4776866867728536, 1.1447015163890277, -0.7251610036002537,
      -1.3757148761168345, 0.14330145512876996, 0.27890592773817535,
      0.20947503562000036, -0.3462343377313436, 1.4463134571996266,
      -0.4696788187321889, 0.6318797333366285, -0.3289390024534351,
      0.7568487444492553, 0.05255991171893606, 0.45112395765921565,
      -0.11806858929632354, 1.9507656305793657, -0.7173322377699818,
      -0.5742131982475792, -0.2517173802848442, -0.7338751588680802,
      -0.1786996637357967, 0.3898471264095309, 1.576698312807334,
      -0.19869432680926463, 0.7717416695202443, 0.06032386842713129,
      0.946646081588567, -1.3511130618478795, -0.6940534017901299,
      -0.6201634458975775, 0.24765949272776375, -0.9156595957700198,
      -0.8353579544957158, -0.87752444919126, 0.8661155670668014,
      -0.22805577012699904, -0.7354942008333853, 1.5167818252446226,
      0.2815187660209634, -1.3259037245182193, 1.4473298203543739,
      -0.2352746626792734, -2.4040474804924954, 0.6389921973247303,
      -0.4074970932044501, 0.33103052062575145, -0.14806766675908514,
      0.2798800077664292, 2.4451714224625776, -0.5626351481820415,
      -0.5896021934681644, 0.1646988893672022, 0.12572098770954349,
      -0.14097397042413512, 0.5804448129500167, 1.1626628146518785,
      -0.3498374231925519, 0.6701363786591625, -1.1141891304602611,
      0.31569806900931235, -0.4386594667021208, -0.5887132879888658,
      -0.6721561162104844, -0.5107942326591006, -0.09118894090663156,
      -0.4561429183720711, -1.3758208781990553, 0.5276831834821526,
      -1.4571377369439047, -0.10672633115233829, -0.09103032473828641,
      0.7141393636651936, -0.30202713748561283, -0.39587275997466254,
      -1.154669118416485, 0.38182868761150235, -0.7963473415722364,
      -0.1701321515128702, -0.9936295741369121, 0.7928133087909294,
      0.08859639274330286, -0.031653381014554435, -0.7243497607019732,
      0.7746359236879556, 0.38613119072694524, -1.6301958567184738,
      1.1260827632290489, 0.014627104951683553, -0.17856755306578057,
      -1.3578298850759418, 0.4583493624027108, 0.5564864566811817,
      1.124586627628031, 0.6802620696250186, 1.44578475525305,
      -0.3707891069510998, 1.6047604252854588, 1.5096609623181996,
      0.13337017635482745, -0.08204925105763869, 0.02270182649730545,
      -0.2725347870526338, 0.18126799116356732, -0.3077674944554799,
      -0.6572518594480045, 0.5288407543917581, 1.59669127909403,
      0.46851970740935023, -0.7804694891115371, -0.6392159401997468,
      -0.663938291666475, -0.19338055618714556, 0.3462700408055216,
      -0.440770498871133, 0.6544565293718664, -0.5290207529382124,
      -0.6289405957945976, -0.3210528240400623, 1.5055188675211477,
      0.46567569234033906, 0.7099940581431626, 1.1434120583438745,
      0.6670558372597357, 0.2781180232983761, 1.3754367702562613,
      -0.5317693573914134, -1.9788836220035795, -1.342591629009341,
      0.10382634479780443, -0.932494908569719, -0.24750943198323463,
      0.6532976527024301, 1.2608121374381551, 0.8147675365723046,
      -0.636972869623682, -0.2186747382524884, -1.2556450260098349,
      2.562013996269303, -0.6991054194717105, 1.545746566231634,
      1.7443103988743378, -1.2917960024147506, -1.313442460811663,
      1.099663183240787, 0.09821695055240867, -0.4931368360296159,
      -0.3056995964301873, 0.9337022990705721, -0.35906937424136787,
      1.4402941443600932, -1.5757380705727646, 1.50861075753793,
      -0.6013034760017872, -0.1168976909566301, -0.7581053483765218,
      -0.06763157376220454, 0.7616192643638856, 2.022881316347994
    ],
    [
      -0.994376698577896, -1.263959667194631, 0.4952436356340285,
      -1.9733238848281716, 0.03061915681210957, 0.4542513413259576,
      -0.07416383779020554, -0.2968151897539782, -0.3739321255772109,
      -1.6767540965693568, -0.01834853623552196, 2.310695523159857,
      0.04787008534187605, 1.0836318843638086, 0.669664112405719,
      1.1666498919086412, -1.6244941040606742, 0.17173992460145315,
      2.2732211372995352, -0.2681543998236163, -1.4272610289127765,
      0.257444759195149, -0.9077604822391533, 1.9528521946556077,
      -0.3160822332527211, -0.6931636991902836, 0.36998017984881193,
      -0.5376214360103596, -0.6461637689579653, -2.5904214817416835,
      0.42029818667788144, 0.01011571755298089, -1.4820498456267686,
      0.7827836522972776, -0.3586473863810049, 0.40264529668920734,
      1.2616352654107714, -0.004234925223822359, -0.4147166826405474,
      -0.20748406413825513, -1.2811656601354229, 0.04062371217884022,
      1.86302741073171, 0.6509070023950488, 0.659591989086094,
      0.3000066867523211, 0.8260106965101605, 0.9689734699418625,
      2.107012324066403, 1.1090560528209192, 0.032263468765001274,
      0.6929941856205911, 0.35459242972990707, -1.083684368292209,
      1.6800742099507693, -1.4995297558054403, 0.5487879345782454,
      1.1770129136808771, -0.48420993694616743, 2.2470684516304256,
      -0.8895221262179624, -0.9451334952810841, -0.528084327300787,
      -0.8219443013895084, 0.5715307602949525, -0.20897771842189075,
      1.241872266114801, 0.8072692329269825, 0.5570452250525633,
      0.8140357889755316, 1.8716800027548106, -1.3827042803378269,
      0.21971464602566645, 1.498029997468439, -0.04329652766051128,
      2.1438204390617255, -0.4375578421852411, -1.406378147100318,
      1.8337223522678008, -0.6965128868901247, -1.117912352737056,
      -0.1896917086197594, 1.2717072868968402, -0.01886159440911191,
      -0.308491206709963, 0.5618417306856283, -0.951065853552292,
      -0.16373485570924493, -0.14400380577479208, 1.3772371870411357,
      -0.5509041170044285, 0.8391004675087569, -1.1763354567692428,
      -0.6224396813368515, 2.163978214478392, 1.4386668031589558,
      0.5338300499726539, 0.7095319792440009, -1.7075711729607685,
      -1.1483720466984297, 2.376829884042725, -0.19818661865785353,
      0.3868641634769211, 3.3462623698638616, -1.1849823861936593,
      -1.7003199326353582, 0.7578044014033452, -0.45151801130680824,
      1.9205975979410357, 0.7936765604384222, -0.9211772336666507,
      0.34193429476016646, -1.5895996999197934, 0.09559360586365873,
      -1.9520963219088427, 1.5901362657646883, 0.19663813589274615,
      -0.31678972015641405, -0.9337403836677877, 1.2246427172951375,
      -0.7108286270963948, 0.4834528320757429, -1.6834442492851405,
      0.8604466371780534, 2.319642365196963, 0.41449935440647845,
      0.21801456492212648, -1.1468498650280357, 0.3921017427569905,
      -0.1722699998351279, 0.5316597708086771, -0.3845222320508091,
      -0.5830890458579326, 0.8692474341095051, 1.3004554859021686,
      0.03927003388694952, -0.30327818192819045, -0.7739536084360629,
      -0.658857598242613, 0.10407969239641778, 1.4768139452427325,
      1.6780780236560062, 1.312421716010711, 1.6737635806184326,
      0.2613280373266467, -0.16007353952040512, -0.018964382510547727,
      -0.23472205910984245, 0.30481566101463886, -0.8404936526949067,
      0.35873589121874494, 0.5445055368467133, 0.436441757679753,
      -0.19535487314173433, -0.8682228284546245, -1.975236247099166,
      1.7434151702093716, 0.34153816984754287, -0.9209966742529817,
      0.7070379665952511, -0.5012145416972508, -0.5432401185886578,
      -0.6795005903257754, -0.45276794657696934, -0.34149693403157527,
      0.4235237523739894, 0.444257580467099, 1.0731555028648905,
      1.301116002609182, 0.47114285692893304, 2.0387746192993155,
      0.11448518522828297, -1.3856600379975508, -0.4371174831642222,
      0.9563388732134734, -0.6737636647934112, 0.380146813753912,
      -1.6644341994230936, 0.588916893961598, 1.0529301577868393,
      -0.2270794881697304, 0.9027943587102216, -1.3590815047550309,
      0.5586665511829448, 0.6827891222177394, -1.229931191908126,
      3.1163819167586375, -0.46979268204226104, 0.45932474880373675,
      -0.03479695794819566, -0.69138549556955, 0.31285499862465477,
      0.11941334492961422, -0.1061106733633612, 2.875768218322784,
      -0.8815107025181835, -0.6654841296917995, 0.36944077928053287,
      -0.17135290496271388, -0.09575019327506994, 0.4383114384996026,
      0.11307131971941096, 1.9161067783868164, -1.499958761689751,
      -2.0197001036275335, -1.0637932528083485, -0.9244744769985231,
      1.1654094145791634, -0.5076900910239172, 1.064455357667585,
      -0.1728274047976646, 0.19470096982525256, 0.04443513064891299,
      -0.7050053631803669, -0.2902615730560061, 0.9309043962238258,
      1.0372169632878436, -0.05970883466575395, 1.4837755857761021,
      1.5859549579935228, -0.4438988093362441, -0.9593942385562076,
      -0.015345560292902207, 0.8176934966787797, -0.6083769335384908,
      1.2662671752281571, -0.31420970060677017, -1.6304401233517003,
      -1.8872984785437927, -0.6216393316893146, -0.7870344719229346,
      1.2088420740022203, -1.869420565819034, -0.6808582684323754,
      -0.8633564513241047, -1.266753280927856, -0.05821932335070788,
      1.18389896545001, 1.6286583848211427, 0.11535139426230881,
      1.4798381859161724, 0.5493681491320721, 0.16252571831396312,
      -0.04853755357028406, -0.7592366216964413, 1.176442734530462,
      -0.2297452890835847, -0.6397762297603086, -0.10664608049398713,
      -0.027748975232032742, -0.8388726757693388, -0.5811576057234247,
      -2.512812441162881, -1.806473596702358, -0.4523722763853261,
      -0.7702676832002524, 0.7618352807700238, 0.7243616696081108,
      -2.3016247366518283, -0.8234937637370553, 0.03888865764913035,
      -1.244776616811295, -1.2763109372149577, 0.5647781616252481,
      -0.31163569065085506, 0.06897577935059344, -0.698420170519038,
      -0.43934087388798493, 0.36523524300017457, 0.721046133790691,
      -0.6023724078010076, 0.6764663887043323, 0.7332212505748552,
      -0.6864295016297662, -1.4828978977272087, -0.9102681184443283,
      1.3610563567719252, 1.203405653564928, 0.7612055259405477,
      -0.35486728267288753, -0.9772396506955559, -1.4170784545711925,
      0.9587233059191331, 0.6708954440075184, -0.6027502260081093,
      1.2916699316195757, 0.16589602391821714, 0.9262131294274327,
      0.37823470659791064, 0.26823223645575045, -0.04794080725774936,
      1.9173104111478985, -0.19396686053971968, 1.0602303278076781,
      -0.033767061858866604, 1.0275715985238338, 2.7490371685214394,
      0.5287265184768716, 0.21521246065178867, 0.41279904212859
    ],
    [
      0.6142809821926476, -1.5365263929047317, -1.0502556120842235,
      0.6491021842542165, 1.8934573931563092, 1.1749145832604384,
      0.7040288587884342, 2.1393633238431913, -0.6082495702354119,
      -0.9435934772902268, -0.9988994413241409, -0.062156945243610894,
      0.21026282144590377, -0.587714164216007, -1.340228061643541,
      1.712307652130625, 0.072319586808289, 1.4213027922480206,
      -1.4665450036241094, -0.7902091120962794, -1.2073421224510914,
      0.028303272786328038, -0.3084116187042591, 0.7144522104964968,
      0.2862684034965454, 1.9911707270637176, 0.10540327634610946,
      -1.1310894766777737, -1.1692715377261296, -1.6681623304091244,
      -0.8983115903109783, -0.20259814814018773, -1.3792614043044964,
      -0.6521384100470012, 0.21920439630912045, -0.7579551962033549,
      -0.5334278425898061, 0.6415151274989925, 0.6637029319068588,
      0.5941175897162678, -0.6034616097905442, 3.3940305659101,
      -0.6482664650983129, -0.17903796896540156, 1.059591677391048,
      -1.7427499125701258, 1.5218904645024565, -0.5112493897947442,
      1.4479525029128744, -1.175357218854551, 0.40300504215299815,
      0.34963928430939983, 0.19562006822782155, 0.6626586497578113,
      -2.0263064230335393, 0.15074266666020647, -0.6957584734642879,
      -3.38396423074041, -0.2427002249949779, 0.5627999093202547,
      0.0022941811606115668, -0.02435675272302089, 1.2944795324511695,
      -0.4551401531449546, -0.5868490239562938, 0.04279262678768695,
      -0.9593007795963915, 1.4772423515335835, 1.9688716390952987,
      1.1676308142987581, -1.1081313422174717, 0.29387014810781187,
      0.5506477863343083, -0.4914246284126348, 0.9319006350097765,
      -1.1629640183719587, 1.833589308548271, -1.2078106825617956,
      0.8457013239393414, 0.16715687197630855, -1.9520618988495275,
      -0.3038387694457891, -0.12466575619516859, 0.7624483730732597,
      -1.9172733859926798, -0.3898123444825713, -1.7921605012463593,
      1.5770830724380773, -1.180745602012652, -0.39751286950922465,
      -0.30654481559630703, -1.7011873692943809, 1.003734167192645,
      1.948863505343361, -1.6425967588178891, 1.2854929937093165,
      -0.6112633100250501, 0.5776038007255111, -1.721748658459055,
      0.30706097307382035, -1.4769686801784618, -1.3992612299839247,
      1.5398984301732226, -1.2274002126487933, 0.4512784487349279,
      0.7765016280229914, 2.1506341114155516, -1.823088153257931,
      0.5295410764688605, -0.5484188803170108, 0.30215377567488966,
      -0.7975191167505056, 0.46184589840548257, 1.545494426300269,
      0.04068259774317602, 0.33107607398830613, -0.6980602037183254,
      0.6327005896904144, 0.27338704018310067, -0.595699990231901,
      1.0575318379549745, -0.9299236579754071, 0.8127692418317783,
      1.3689312378273533, 0.9714403019837213, -1.2437689867505637,
      -1.1914407073903648, 1.5481839789761382, 1.1377631765807452,
      0.770239397488481, 0.543803243210824, 0.6080528324692538,
      -0.7068622667591697, 1.815223929948745, 0.37815294864356513,
      -0.07115482141510905, 0.07654162841089926, 1.0077621546983722,
      -0.3257864942937467, 0.7751620731867692, -1.0184064366700967,
      1.5572526834444407, 0.1368436490744861, -2.365822388080684,
      -0.8742829252865786, -0.4836882456609497, 0.3511674016680658,
      -1.1046236101623605, 0.13490586988211856, -0.9132857555753224,
      -0.7157941959542916, -2.3978369846164633, -1.9475977623818994,
      -0.6832770008634685, 0.3786153234481009, -1.274316841302203,
      0.7565383338231886, 2.217965331940515, 0.05728074116480087,
      -0.8491542004373435, -0.43697409386673725, 0.15183701751675316,
      -1.671995284962835, -0.30771989367578745, 0.17510634162822453,
      0.9540521683272981, 0.6432506708147557, 0.24004606306116752,
      -2.2083636580170816, 0.5606237853478989, -0.26806099504757,
      -0.8095303812633464, -0.19621025738927877, -0.24949403770132728,
      0.24202409320181464, -0.018794283934808025, 0.8764020368020615,
      0.17408734638034448, -1.8250861228027109, 1.111896569184034,
      0.7560534874160401, -0.5073591865061485, 0.689913827884672,
      -0.3756067104152652, 2.044269246232336, -1.8192925548220453,
      0.4461276909486162, 0.6923212204386838, -1.5815826133789008,
      0.9827864281070802, 1.2864578775220994, -1.3025765248032548,
      2.1011725694139973, 0.23330488867710528, -1.1156888961838576,
      -0.9517980600003839, -2.0919512997564618, 0.2050335078678789,
      1.75900668143706, 2.0749370678583814, 0.4063309125923313,
      -0.2897723817324294, -0.21289168475941067, -1.1239335782277153,
      1.456191005715316, -0.17261324669528547, -1.546814437233265,
      -0.04296088920461023, -0.5304501684227713, 0.381219969135367,
      0.9734831853217669, -0.704534015735834, 0.964747483235604,
      -0.06375444204663386, 0.35713581383387427, 0.7633803778000329,
      0.564718603652491, 1.2538902265717067, -0.25335026144006045,
      -0.1698419537421632, 0.06315293964761166, -0.8145330314102763,
      -0.252573769375747, -0.9278634774628444, -0.645519598386815,
      -0.5044207784682244, -0.5509111698017687, 0.057096956765000526,
      -0.5969762912762028, -0.07995430785753702, 0.39513853580574027,
      -0.3502558774602069, 1.822672350789682, -0.8170472930150051,
      -0.7726259652833807, 0.08519673850841955, 1.0013564197296536,
      -0.7866757749200658, -0.36996563958279366, 0.6434405353312302,
      1.0955566577826306, 0.19710500080053123, -1.4104586154732757,
      0.3233947844267381, 0.5842787913860789, 2.5936187736069707,
      0.1927340234560885, 0.08839971833402925, -1.6085267721504646,
      0.8094033490858331, -0.930227697344073, 0.222528290589778,
      0.22863567913807178, 0.25145207645432655, -0.11000555392068959,
      1.78410876985803, 0.7338982402567016, -0.19409093928624072,
      -0.20233067775711172, -1.2371638506617824, -0.9286079031022019,
      2.237268320610272, 1.0333306069790333, 1.567123755550007,
      1.7573217554939502, -0.8895528062966045, -0.05303433600018002,
      -0.8172211183951038, -0.6061189344934981, 0.4444489939403033,
      0.8921124913952709, -0.26176811938149136, -0.2506087246881078,
      -1.145691649480985, -1.160453025005445, -0.2765526056313594,
      1.0692296510077544, -1.253571701973932, -0.29023671167998827,
      0.6302102148468434, -0.22762252721728235, 1.608192458715324,
      -0.614185043028317, 0.7448990949007319, 1.0504831623683057,
      -1.328082458410033, 0.09099739059060005, -1.0624585965038076,
      1.0199104465175313, 0.5257769000555753, 0.13414870446107924,
      -1.458347065786481, 1.3374691197767357, -1.9238857029559446,
      -0.32948929577882685, -0.06295152267848149, 0.4101463964820198,
      -0.49883640314289385, -0.7446064195098515, -2.139801772265849
    ],
    [
      -0.6502788869727457, -0.3562375823574548, 1.0522300571867518,
      0.674620374878077, 1.44612251187461, -1.1736900231318441,
      -0.8174382392716946, 0.21808249759650714, 1.1002383968170755,
      1.5551107391523167, -0.6724027180003951, -1.2276023326324021,
      -0.3917723328687177, 0.7473097987580853, -1.7091331630006548,
      -0.7158029370792027, -0.24062729001718738, 0.9530553803543574,
      0.29991343646498014, 1.4045829687035374, -0.6117730774220153,
      -0.9141270934863617, 0.21192406985536366, -0.10849180966894068,
      -0.7213816368464719, -1.9315228879090678, -0.47532649004347904,
      -1.9316585564035142, -0.9423478131298892, 0.07198755090693532,
      -1.0116912660704993, 0.1202579837498408, 2.2845319663271324,
      0.1587146931523982, -0.7801498963764392, 0.7462700974433633,
      -0.35875700573973035, 1.4334606785333606, -0.4499935009012879,
      -1.1870722323872038, 0.063704167676877, -0.16620056699028704,
      -0.4339086362338528, 1.6206167265295606, 1.5343711530447215,
      0.2829205197469517, -0.10313574358454106, 0.6416580412308175,
      1.2903884570156983, -0.05853068201171841, -1.0121687996875275,
      0.2936222883025068, 1.3048187136784468, 0.9896214712697075,
      -0.33591958232488683, 1.401360439112974, -1.3710491922453119,
      0.06240045053873097, -0.4836666557395248, 2.0062450037948114,
      0.0567713320614474, -1.455511162726354, 2.1617685893432057,
      -0.17260747367944196, -0.7683354578232551, 1.4276004464984546,
      -0.03790544277477122, -0.5205696189880722, 1.1643109694999398,
      -0.11155396608177759, 1.2554995856413804, 0.814983777066849,
      0.5186438320627877, -1.7587045795078688, -0.4338033332717095,
      -1.3148970991251643, -1.1174094177769973, 1.8538201389480642,
      -0.2340368205886804, 0.3959943016131482, 0.7425266757741217,
      -0.39247562535872255, -0.6787570510611928, 0.047449878075265406,
      -0.5056892078828503, 0.21740654152328237, -0.7146067421415769,
      -0.7166507338201125, -1.9881256156369496, 0.25899086071022825,
      -0.4755261403003958, -0.29358074980595134, 0.8099554874042627,
      0.19464437078225383, 0.5152761356491891, 0.3039577174439439,
      -0.6914503164874091, -1.3878970648522315, 0.796605052627375,
      -1.3292567344327406, -0.6209147130239567, 2.518285411264844,
      0.6081381203717013, -0.38989553383373726, -2.109094227967256,
      -1.1118301899381597, -0.46674531567111543, 0.3900075196118428,
      -0.18682062276028316, -0.3449108013083756, 0.323698645840482,
      0.8433464144793357, 0.6882875957293902, 0.09083918053696478,
      0.5993803174311283, -0.28440120047661976, -0.05972216899688919,
      1.0242887664924656, 1.4682787855830957, -0.2113686014588067,
      0.44527304760563874, -0.5865993727315902, 1.794932469893019,
      -0.05142557958859457, -0.5333671927442759, -0.4977123031203155,
      -1.6650308356474937, 1.213148718145692, 0.09002876842398613,
      -0.05166295134384334, 0.7790912714401302, -0.040478618129195044,
      -0.9349737551958168, 1.2460200407770532, 0.4892863497515132,
      0.035182593489437614, 1.5331403236380807, -2.043533515067086,
      1.7245698956234647, -0.24570018780180863, 0.2372417153485345,
      0.23323084450406328, -2.0067650052544725, 0.10080199619335016,
      2.0969332361321924, 0.5881807941265322, 0.9901889419802345,
      -0.09767319710118538, 0.08801021459645225, 0.5978958030712925,
      0.44855821506006077, -0.870108337109321, 1.2148748474531448,
      -0.6293326273114898, 0.7420312771761435, 1.1406975963520578,
      0.11328763524310721, -1.7111582494493676, 2.504449925275829,
      -0.1932755479775145, -1.4528070306151162, -2.407927908987794,
      2.512505630019768, 0.027306777542880897, -0.061083103524351624,
      -0.8444485410388738, -0.41704660816750955, -0.47084984024283577,
      0.9180466634554161, 0.4425622259530676, -0.8931524475376054,
      0.31713573490420627, -0.3232839905710166, 0.515906705073328,
      1.09783834473716, 0.046082712113373704, 1.3949419680037496,
      -0.18177112951547744, 0.6696462961527838, 0.46451189571142626,
      -0.9084144014177016, -0.2901820685536733, 0.34818688609440884,
      0.06959286292210153, -0.306899627259837, -0.15007264877371992,
      -2.9490552654108004, -1.0916587613061959, 0.7154682491599029,
      -0.6858603252955336, -0.21891052642402303, -0.4906676011024503,
      0.33831688114304515, 1.671113307187586, 0.1704626877984545,
      -0.13772648807226842, -2.5104207752041354, 0.961278836452953,
      0.6447457749217109, 1.2429588141557206, -1.3457737575860826,
      -0.4384389177771178, -2.1200903401293165, -0.711535563040242,
      -0.7409603690526855, 1.7785010606135208, -0.6951012703920263,
      -0.9857652715311658, 1.6995367784639308, 0.6573360947038237,
      -0.21061642786419718, -0.1363782060724078, 0.8986265745637833,
      1.771754218326544, 0.5050477117354992, 0.2778013650652447,
      -0.5053446510748895, 0.9613624433974087, -1.1963976455553211,
      -1.873885139998778, 0.9600419060359949, 0.2992456834068053,
      0.21203521865313948, -0.536320913874839, 0.3720871350828074,
      -1.0775867519243958, 1.880512740348966, -1.2823102316504738,
      -1.064581099663871, 1.169754818275677, -0.9239924380193372,
      -0.7152589702864109, 0.8834718354922101, 0.442037823738465,
      -0.44999007783499234, -1.3906263648758894, 1.4800226946288753,
      -0.3225242495193046, 1.4301163497569298, -0.788232449378964,
      0.35788767579364333, 1.610007820544166, -0.6737353514773822,
      0.5742653909317113, 1.3628143076428019, 1.3771713138331172,
      0.40199808266311016, 0.5089133605865737, -0.02046445326400569,
      -0.06195578452881832, 3.123931328548683, -1.374799096635592,
      -0.5225619764096123, 0.8272745882985746, -0.2552343381576873,
      0.7449633271343936, -0.1523675470631854, 1.089248192511329,
      -0.5612193085748748, 0.3874370560012273, -0.5668144134929292,
      1.0539068755355199, 1.44749143683982, 0.17043660170889,
      -1.0509027815821146, 0.15369572129452932, 0.6853485507389291,
      0.03309515352954382, -0.06859269720107042, 0.23528286440158985,
      0.13187189222598233, 0.7305108699103977, -0.6657146984307305,
      -0.9182898605104483, -0.42850247382384876, -0.03300495987586538,
      -0.9820095549447817, 1.3706952532962282, -0.9250873818056298,
      -0.949596932071659, -0.07399581409137115, 1.0775364530335787,
      -0.007873095093631922, 1.2198873045995082, 0.13933122479945606,
      -0.5506351436061562, -2.23357401299793, 0.5815798665179339,
      -2.633171059955992, -0.6693351413635696, -0.7114427465794586,
      0.6160456848769055, 1.0572202390842953, -1.5662273553872625,
      -2.839239889157434, 0.9926558304533726, 0.3228831190991998,
      -1.1406174042620565, -1.1185967638142515, 0.8113150645863967
    ],
    [
      0.07938994839716489, -1.587329264112378, -0.7835953133417258,
      0.20728780080457218, -1.3998610784503533, 0.8521702897442953,
      -1.8544499174733127, -1.688148695250923, 0.03829290094387107,
      0.45830678868880853, -0.8075033209229288, -0.5064843097136892,
      0.4231257129667453, 0.6969805662008147, -1.4140684533290837,
      -0.7238139270288161, 1.290030477508133, -1.0623535030166147,
      -2.3284794475942787, 0.2914582919584297, -0.6144651168364546,
      -3.170193958172046, -0.04885865902934795, 0.5787588816217543,
      -0.763917535421105, 0.32224122327349036, 1.8646038723368703,
      -1.9225275313312435, 0.07829068831801099, -0.5530579021585975,
      0.6712089144554341, -0.09814591602159073, -1.1501480980251189,
      0.9819168174512131, -1.3863505940329899, 0.5997267369199966,
      0.07700743677627794, -1.372075489868996, 1.0312987527973578,
      -0.08098633337397777, 0.07926624156378874, 1.8490952244781353,
      -0.9709169226221782, -1.8672586087228358, -0.35432799692065453,
      -0.6701262012694938, 0.13055595786196975, 0.4416003090150454,
      -0.49139834932622634, -1.1231684246986604, -0.9136187243746868,
      0.6766488252906268, 0.41051094027706997, -0.32836970154704836,
      0.28007002056223657, 0.07954164983829896, -0.2289087535936949,
      -0.9931377701950496, -0.8727287546488227, 1.1956712223409698,
      1.7503624375332858, 1.2743397806678949, 1.0250376148829787,
      -1.4802357554925878, 0.6843484566487947, 0.2373591550669835,
      1.03112180986859, 0.994919552749807, -1.7274688522213668,
      0.3493437676687772, 0.33782897846999166, -0.09559498632575243,
      0.22178991008847723, 2.988651266695487, 1.5825182480458249,
      -0.544627737142483, 2.242587540771783, 0.4544991770566132,
      1.4944492803373324, -0.0187673948291509, -2.290793827976846,
      -0.5055604530971197, -1.248099737663987, -0.3786726807790357,
      -0.4529112481014795, 0.08671062176601861, 0.9980842412198223,
      -0.00853598176946738, 2.1253154148577815, 0.09324105198317009,
      1.5453553895966394, 2.515401418798902, -0.30709259161345254,
      0.22547363678694274, -1.0309377982705359, 1.5805007419366104,
      0.2811320624488661, 0.14152720643507863, -0.15132734125743671,
      0.4648103083859365, 0.40729641905104014, -0.3971407235556611,
      0.8105488275351411, 0.7939492538015445, 0.000633452235090676,
      -1.9586274608367202, 0.9611692754062567, -1.8852458803682701,
      -0.30837374459336137, 0.18189956255150125, 0.8118712002491714,
      -0.12943614924138627, 0.42462197426491843, -0.40229478816247466,
      0.9629597827247187, 0.7644219610210703, 0.014747406409554431,
      0.4937083618316072, 0.5050626269453359, -0.15333418969309864,
      1.4129037734027565, -0.9434746393473995, 0.37656315163972565,
      -0.3887641528152398, 0.21377325973123032, 1.1538834723699642,
      -0.17497655155356748, 1.7481700314051352, 1.350619313275488,
      -0.17838035604529667, 1.9468836495044324, 0.6284680121899683,
      -1.6178017705048737, -0.35695971580371266, -0.17401382707381927,
      0.5994887102306536, 0.20942982624653148, -1.0918061933716772,
      -0.180427599636037, 0.11755725972332644, -0.2812780787784217,
      -0.41329952512191215, -0.45466153056280556, 2.273285365423093,
      0.21951583857693974, -1.1351976981715368, 0.9593060056467071,
      -0.6616948010818459, -0.8357050618988474, 1.3493802910443535,
      -1.5544022466281942, -1.4527153276690457, -0.28238832260002317,
      -0.2651046129644664, 0.7719210768394126, 2.0138425701729212,
      0.270950169598358, -0.7358301534169979, -0.16419146905111723,
      0.9414508791175465, -0.396824951314311, -0.9363154557884071,
      -1.5576163834349845, 0.6514763285655083, 0.8833134411628387,
      -1.6617347018641377, -0.4136056197172521, 0.8531045315312512,
      -1.2915705779497433, 0.023988131512253666, -0.46704689284838896,
      0.30503760838020105, -1.8371784573529994, -0.39619936688385143,
      -0.4776327108816977, 0.5174010362346602, 0.5390937843844219,
      -0.22624598698060988, 0.49763156746633613, 1.24409791919822,
      -1.3522568785068674, -0.2923856470994347, 1.7888584078806757,
      -0.1306567679274432, -1.2384768427876338, -1.9535723434623318,
      0.2772862905404842, -0.765977632175899, 0.35319291415969617,
      0.6599860560323538, 0.31974916997365005, -0.7311069481695593,
      -0.37297352334082334, 0.46067878254116934, 0.1557877337401537,
      0.9798984781280299, 1.1403649167891596, -1.5935683794337272,
      0.27190569553042876, 0.7012052504718356, 0.6092392498474166,
      1.2647234103407878, 2.410883139559774, 0.6147464566949976,
      0.603717781215865, 0.4413414284740605, 1.1530622402761308,
      -0.12740001946234447, 0.7537841024838132, 0.04041068491436824,
      -0.9892904587643788, 0.9289853487608798, 0.4317903660423772,
      1.2126161160433937, 1.0956713856166636, 0.5305726565959602,
      0.7143638396104421, 1.3924642930891282, 1.6870162569313525,
      -1.1908922434988325, 0.2106538312909326, -1.763150701443537,
      0.10261392173405591, 0.6567173155325209, -0.15191533188420434,
      -0.04762944006321548, -0.5756180300722689, 0.8626363764681048,
      0.5001323641183434, 0.9602194397969385, -1.1265721388490204,
      0.01890005707314802, 0.8766548170774767, -0.8835572512580087,
      1.376532656519028, 0.5229906395738247, 1.7692428489574716,
      0.10512800504735617, -0.36871605820642855, 0.13042388554488818,
      3.1633224412951138, 0.6705312156663826, 0.23087998812567911,
      1.6350514273004115, 1.7276490027548752, 1.2693362760108067,
      -0.08096115754342284, -0.15016485014885594, 0.030688576193759025,
      0.8096010458153932, 0.8610581006711078, 0.6998833147608634,
      -1.7688172587487445, 0.9088962967607854, 0.9289500031397435,
      -0.16086645343218692, -1.2594680652144759, -0.03999702289327733,
      0.21927388429671663, 0.2707034311635646, 1.0963678598919464,
      0.04590171476085317, 0.3120142913654486, -0.9479949111329458,
      0.28293498500961806, 0.6782047145583813, -0.09906559734154605,
      1.9314879096028057, -0.48064069392911934, 0.8349227661281247,
      -0.09453609767248702, -0.03611855490700904, 0.36042659498606655,
      0.38617462362878774, -0.5774123535772234, -1.0558397724903745,
      0.36706804903055495, 0.05983558341493348, 1.884712674673846,
      -0.38096941352086566, -0.07795940323299627, 0.3366138386160514,
      -1.028869310581922, 0.9052246617657002, -1.3266782635949375,
      -0.8249505838851499, -0.9752128568265349, -1.4629474924292938,
      0.5932260733287845, -1.0380330275741494, -0.5356429321422792,
      -0.3022504215070039, 1.1586040221876648, 1.828422728201672,
      0.5857464299747717, 0.6344058587470356, -1.0153665803305902,
      -0.8196129924883484, 0.25008761697058307, 0.3331426241575464
    ],
    [
      -0.16972700340068458, 0.3929120649350949, 0.89571084799796,
      0.9538262763621121, -0.06954873732449393, 0.1549451317521617,
      0.11918537674999537, -0.22914442533639023, -0.2163322358816234,
      1.1240933991088422, 1.5843492625024838, 0.5907522405997614,
      2.4512241457702575, -0.6629607074022877, -0.9657687743872023,
      0.9256508752372329, 0.38710047242054574, -1.286271219865764,
      0.6890048045237434, 1.216226558387449, 0.7141998974172429,
      -0.025241203584109046, 0.934143144979505, 1.0197486414308163,
      0.5830513526804398, 1.373422913098236, 2.0674035296058806,
      0.13719960092089775, -1.5360211451336845, 0.5253823230913387,
      -1.2202900735485709, -0.28790783405767545, -0.23172578518191544,
      -0.2995075772756359, 0.35356280680012775, -1.9187293858886838,
      -0.21493971782331076, -0.4863691647034356, -1.0981794887510266,
      -0.5696234887980695, 0.7279153675681943, 1.247098960991265,
      0.6929460902966, -1.5735704112617859, 0.528481550091513,
      0.5730534531984941, -0.12094706452562973, 0.8301164630827603,
      0.9759483746168466, -0.1916110157525269, -0.23817684991001523,
      -0.5344615002814582, -1.1899417546533404, -0.23003450175780424,
      -0.41663681027351074, -1.2878389525098135, 0.8041706409223263,
      -1.5004956932771083, -0.07019287934793217, -0.022474154948124693,
      1.0008363452966471, 1.848680381967261, 1.1456361986854782,
      -0.13876602991313086, 0.5336905682995639, -0.08106750707884199,
      0.4993462518188901, 1.547980708699269, 0.11981626518726851,
      -0.3543452832759615, -1.1422575260829646, -0.3224109868935624,
      1.1346474230246104, -0.5449369630726929, 1.8391854134608558,
      -1.5712739658008443, 1.7278443371657348, 1.065992104029587,
      0.09103963907563543, 1.3904913984045655, 1.3788039402767172,
      3.355111689930752, 0.7873211284116252, -0.26145415168170233,
      -0.5941476174018349, -0.48068074582285786, 0.30633982913461627,
      0.29014987769092493, 0.09369513472973001, 2.1283706426759927,
      1.260729000629254, -0.9948307362284423, -1.6450522024040928,
      1.1851670591507486, 0.05960014467904543, 1.8496772753160675,
      0.4828673728666988, -1.0907521940498581, -0.7865284154992598,
      -0.02385029162625369, -1.0180644073199425, -0.4843606767050238,
      1.0311682719494908, -0.05082383404210698, -2.3785974716896403,
      0.5140634708935358, 0.0788594344091569, 0.7281822056623963,
      -0.14638413524697597, -0.43606934477267917, 0.3155706499603585,
      0.32704154636046084, -0.28876128691096403, 0.382996925396416,
      0.3078645092864593, -0.3508333479668846, -1.5308580471847917,
      0.4252105968921766, 0.5151633119619842, 1.157909203744135,
      -0.1953879287900658, 0.022467253067623195, 2.0336550711136514,
      0.011838288054731956, 0.39241860454040417, 0.06407020715373107,
      -1.2696410447293942, -0.5410956405851355, 0.07101139110636273,
      0.33706384236843384, -1.848097077983328, 1.4555848162245741,
      -1.6757725241394381, 1.0704834542418504, -0.19354860436882954,
      -0.5500588593737421, -0.4645976023665806, -0.873704597810269,
      0.19444587803430466, 0.49346092231641003, -0.8272919105169941,
      0.2187155350449004, 0.3862484650206598, -1.980268621089652,
      0.28894500376682813, -1.1836153024844125, -0.5677510366584249,
      -1.1483073497274612, 0.4791556906480987, 0.7126949218026373,
      0.8350993559656315, -1.2378453024389018, -0.11233549343378314,
      2.2669574084233712, 0.41619443880808304, 1.0625449558820685,
      -1.0540404326238442, 0.16500972484776905, -0.05472906471262285,
      0.8553864268103742, 0.22130922214422627, 0.9535863432390923,
      -1.6458850151616027, -1.0071219548980304, -0.12368918233151394,
      0.20031500430370713, -1.9731847790572021, -0.6580127161995534,
      -0.0970738303457063, 0.7849173043840708, 0.7035450099932763,
      -1.6179295123497908, 0.16543154007426863, 0.42917459132239566,
      0.1699399754375029, -1.5885289649506535, -0.394037940674411,
      1.3257198836040518, 1.0599624353040722, -0.9706603507000704,
      -0.6456307474566152, -1.7862966071636783, -1.0199174999468248,
      0.720514798117701, 0.9543572998326076, -0.8854878512967885,
      0.19084312047080734, -0.8266607755230411, -0.28744442568880146,
      -0.767465364798769, -0.4541069319873992, -0.4712743917179502,
      -0.630360061613879, 0.6836905194302467, 0.5537612295226941,
      -0.8649515232175429, -2.0316893339180617, 0.006461415130147124,
      1.980129501458794, -0.5840985384110529, -0.6663369370809163,
      -0.9671690529181494, -1.95713985467855, 1.131647848867606,
      -0.3561671770329912, 0.44841164410706796, 0.7437210305411874,
      -1.14643532943371, 0.3091061193833455, -0.4875021488906853,
      -0.24740191973923972, 0.6603355680983279, -1.6637712622002552,
      1.810107196037377, 1.239445422683262, 0.9138141604360546,
      0.9376371364860578, 1.4918805741990138, -0.2110717887215476,
      -0.8153726581356587, 0.7497110390817093, 1.2454905133287286,
      0.659311711160092, -0.4677563023847215, 0.7608813347480415,
      0.2255057028347263, 0.4152216500735966, 1.3419369050853127,
      -0.17638123673870196, 0.2723171294050925, -0.2637969072632319,
      2.447962373965889, -0.6372472843550214, 0.9215198006013813,
      -0.6841224114203935, 1.2633400313217968, 0.7418246199242625,
      -0.7757876555297563, -0.10810405646138598, -1.9824854301212942,
      -0.5590234153900452, 1.632964695677871, 0.8295869544741256,
      0.8055170179317106, -0.9095140917872543, 0.37374444796676143,
      0.12293089325738353, -0.4349370501511759, -1.4593174213203066,
      -0.813948216527867, 0.4016207024094037, -1.344548574003031,
      0.31002982742771784, -0.47026247444861785, 0.22831229541145837,
      0.005780815337446422, -0.4329373702200706, 0.5726293943647172,
      -0.5042896167571952, 0.21146886928588907, -0.05604348984778584,
      -1.2861890826061002, -0.3995733231823535, 1.231748719980094,
      0.4796666399162838, 1.2581807887927963, -2.165144294902174,
      0.47060373506592185, 3.202362425327186, 0.6131488949798142,
      1.1042309907486114, -0.3050773320507707, 1.8879888162239529,
      0.15216963167927788, 0.6951648713198584, -0.267073380843988,
      0.10792332463476056, -1.1166122689597604, -2.2136216172952525,
      0.3860856981650333, 0.23398223677299335, -0.40466413160814707,
      1.3077438063105504, -1.3340491676434554, 0.18549285098809776,
      -0.785646282346996, -0.1898676030506045, -0.5595834867068302,
      0.5842983025027345, -0.03720280751079824, 0.2402757064523303,
      -1.9804301103688604, 1.1527132159563926, -0.268022341603254,
      -0.9813599938757106, -0.4861181574746915, -0.07990638637880275,
      1.324746901061709, -0.7488510947041875, -1.1870157655204294
    ],
    [
      -0.5960056409308764, 1.0862590739196398, -0.44400954750364285,
      -0.03590228629739286, 0.593115356915949, 0.8525318391928558,
      0.5631822012436966, 0.25433918559989954, -0.6187681270484643,
      -0.3203564156562335, -0.028957282460641116, 0.4516030315478272,
      -0.4388580018808809, -1.1644115220738456, -0.03806227225196068,
      1.7100531947502478, 0.25686235827469317, 0.37190399459533013,
      0.09801867677749118, -0.46775741340217575, 0.9017229102195244,
      -0.2905343740444406, -0.04006390914778246, 0.4912853553444043,
      -1.1982860279659808, -0.583051272577704, -0.022423655950964686,
      -0.3828765685269088, -0.3799584793251743, 1.7839385332835618,
      -0.02014129383845835, -1.2976932815458704, -0.715975749121995,
      0.3512705725213621, -1.481509229445585, -0.39251344615663214,
      -1.2069079089902575, -0.4066671566860013, -0.8459004628417685,
      -0.22455910817414873, -1.9696479390479984, 0.03397242783672597,
      -0.7320720320519863, -0.7237991078884854, 0.13085108883155674,
      0.6860805959030141, -0.9733814389343552, 2.2593835243781704,
      -0.12883464193271327, -0.5215475636161996, -0.03115804229513076,
      0.6849009154413611, 0.053448638314327446, -0.28497357923599964,
      1.5883301130492635, 2.0377777859885033, 1.7035666055185574,
      -1.2112813082988427, 1.710957443860198, 0.9982812618660081,
      -1.226077048435386, -0.21780005111321188, 0.33415293425609865,
      -1.6585801388751726, 0.3642467195356642, 0.6827324256995951,
      2.077402479382783, 0.6176214681510354, 0.34946442419641144,
      0.0361010218676584, 0.3384711471016746, 0.5507110322611193,
      -1.19996129513219, -0.19906861285033411, -0.7983200921790573,
      -1.436820670580615, 0.35392195892273254, 1.0389906359423586,
      0.7010402157758081, -0.6218126702836081, -0.12914969939267315,
      1.7347485348519556, -1.3961047926384391, -0.9179948362322881,
      0.7243580074258322, -1.1189924704636247, 0.4346375179594933,
      0.3086071444251731, 0.06635487634724188, 0.02870799759708772,
      2.0708612191564324, -0.4105143875329446, -2.2070659342215,
      1.2523658197168315, -1.203256314270669, -0.8842754337478148,
      -0.17706653033845973, -0.4738792017872585, 0.03577285417550165,
      -0.090713542558733, 0.506021799131984, -0.06144878810515307,
      0.3117191818484328, 2.6250458496525533, 0.16926587934624088,
      -0.49701637978438595, 0.6990232127846867, -0.6825383696761315,
      1.270383334712181, -0.8595233836525116, 1.4070954653616707,
      0.5474084126639822, 0.9638613435629031, -1.499265428076487,
      1.4707842228681578, -0.5304989164529368, 0.5037338979943853,
      2.0174585812370456, 0.1654941658281201, -1.4185530356678175,
      0.38682212683977696, 1.1743838817622325, -0.46527347682175263,
      1.489206971532084, 0.010811782552799331, -1.1925701905036858,
      0.5712897963614515, -1.565668758858129, 1.4017544872538628,
      0.09018342082391965, -0.4541914650600035, -1.0585917031848224,
      0.6456204112373592, 1.7796817014897155, -1.7277200663423993,
      -0.8180802828591719, -0.40193336954082154, 0.6708146650739492,
      -0.19148175569501122, 0.8362633278830799, -0.8918989899774906,
      -0.8750415130258884, -0.7748712924097149, 0.12013510866452191,
      0.11011365647093654, 0.010186238287363258, 1.0229122682519707,
      -0.9660361779399328, -0.01771749648146314, 1.3535586035756162,
      0.015072125189074944, -2.2497024241710353, 1.2494684007698418,
      0.9610972084762675, 2.1919432855492964, 0.47428868080579284,
      2.5517424436764697, -0.5510525040684486, 0.6618649881165296,
      -0.24222383031264066, -0.3517158093492332, -0.2551774678406869,
      0.7954235195399288, 0.4713760137680635, -2.560247221502184,
      1.7470687001278251, 0.5468377211903146, 1.6341009695551858,
      -0.16691108630740478, -1.1240093448458517, -0.3327374401920643,
      0.3704218134635898, -0.9864859317293465, -0.6718436809627689,
      -0.3509074857422981, -1.126754014357822, -0.9999507162325718,
      -1.1464764035564186, -0.9803869552722548, -0.8949150520343837,
      0.4039999841779835, -0.6495033786361741, -0.3583618088168116,
      -0.5710237388678889, 1.552125839957198, 0.5480386274907515,
      -0.22287063119388928, 0.8650258372145548, 1.0882832619836582,
      -1.1626978491641309, -1.1051525931701145, -0.49086140085796537,
      1.2741640545756412, 0.36610185098029213, -1.0144571087104737,
      -0.1314139941812639, -1.243580178847105, 0.6464381112765175,
      0.25185038377408214, 0.5949748815792103, 0.9336092302050677,
      1.0111268693640953, -0.35355186673196015, 1.8283851729649192,
      -0.4704752495860607, 1.6589172187856047, -0.6076147533352091,
      0.09131964417081681, -0.06973666838884768, 0.5797288621548072,
      2.0277736423205535, 1.1241207231747867, 0.8195960107335899,
      -0.5927025065629227, 1.7799877908215247, 0.7988956602430278,
      1.2831708035622345, 0.8665619685592065, -0.07185546490113744,
      0.41147983653881975, -0.030145985875891474, 0.9490538063820302,
      -0.7741726212485132, 1.0742872450492102, -1.1708218844793872,
      -1.8176305821655996, -0.7087851021189248, -0.7314468123665135,
      -1.603682018044065, 0.3160324249131177, -0.3241865973139098,
      1.6498173684211512, 0.9555365210311899, -0.7751721127851768,
      0.3899540117445747, 1.9957814312940536, -0.5834809495350057,
      -0.31990976484142414, -0.8678877129211215, -0.6897403289818774,
      -0.47229105472521143, 0.7061583031223058, 0.48397057383037473,
      -0.5124696700375649, 0.6082821416337785, -0.8308545784883398,
      -0.9359486534003506, -1.9533719488421946, 0.7235744364781506,
      0.7722338127830972, 1.5197202725903671, -0.3253924666213568,
      0.5105390234213317, -0.4477481306213258, -0.2641645308289051,
      1.1581719024558488, 0.5770562198242373, 0.24832684683892414,
      -1.032340716350532, 1.06788077315172, 0.7916860287604123,
      2.7877676692277302, -1.10025042846893, 1.2265630853630312,
      -0.07151730614016996, -1.395262975045801, 0.9234005489243382,
      -0.8231775955630741, -1.6927035026173538, -0.9956530223043366,
      -0.6434012698750916, 0.5339162997999101, -0.4515630284835684,
      1.1187930246426936, 0.4221164266518056, -0.4894857259379664,
      -0.8356498095716421, -0.5144437874395652, 0.189187107522931,
      -0.9021383340349037, -0.4303843947313492, -2.0857849542928464,
      1.0591758985174087, 1.1304207914186954, -0.7726834006611245,
      0.3095645756377584, 0.5722594595213529, -1.9046876040283232,
      -0.12798361312448667, 0.08706754976085027, 1.8367747564742165,
      0.46519579019568796, 0.09552291506939424, -1.1222561040291974,
      -0.8372895168571801, -1.8686949985760741, 1.9829538368023314,
      -1.4477146983629683, 1.0449865030218048, 0.39295022744059305
    ],
    [
      0.38053549249591107, 0.6903264717903783, -0.8264773844977776,
      0.6796816274666857, -0.19646131218534454, 2.629781125213384,
      0.7820953567674805, -1.3402496663842247, -1.2707985778504094,
      -0.44797895405180166, 0.9265414858553879, -0.39748117216647594,
      0.1822261368851327, 0.3353769733953509, -0.9245346927059197,
      0.07708640979509329, 0.2155985035718661, -1.2181451171204387,
      -0.5109212914289354, 0.01591454729755335, 0.2737989411935949,
      0.7141723074620516, 0.26871283824481224, -0.6884191586036759,
      0.7892700575644476, -1.1152129912785413, 0.03445476800387575,
      -0.8456016566458051, -0.7938253026811183, 0.8055488953053168,
      1.1733245959869931, 1.188185092322586, 1.5511934307565511,
      0.9989200214964882, -0.890947602991018, -0.29973292206742896,
      1.7178880864729287, 0.31005635754660454, -0.4745903249933895,
      -0.4103614684902657, 0.1549341262478631, 0.9006143539129442,
      0.27260984685891376, 1.3342976175926635, 0.14516035467397545,
      0.2399133654416164, 0.26470211247476894, 0.17303489114159998,
      0.11811061074767662, 0.7918967956139035, -0.3655673163855185,
      0.6370740414073611, -0.4122212899740027, 1.3718920312645264,
      1.3747327982917554, -1.0305216375606392, 1.3804666217540695,
      -1.1899329491865116, -0.5617829713717469, -0.654873258826746,
      0.9814465514291181, 2.4678790776345356, -1.2692804169408047,
      -0.08276598873000905, 0.5032098809821739, 1.1560671610749154,
      -0.47960360791989476, 1.683840632160655, -0.3099874425236891,
      -0.6290951216832077, -1.466716945873487, -0.80855325583593,
      0.05257115916856384, -1.3027150672333587, 1.523258889394299,
      -1.3853453116102985, -0.8336818590884216, -1.4763760530478047,
      -1.1898274297789568, -1.341454112667152, 1.4688279597387495,
      0.02197429412224643, -0.03913083040762569, -1.3635179116937364,
      0.8904807087695892, -0.8612286067647301, -0.09336437815407585,
      -0.3191234201519528, -1.5818259599672382, 0.21712623030170686,
      1.9704981818987484, -0.7053410281879584, 0.12753469385546456,
      0.16236619310387082, -0.9374327198108189, -0.4175310694771396,
      0.22405869301882836, 1.8545104048997678, 0.637348007270705,
      -0.11236126043325396, -0.03080484717158278, 0.9737176129861499,
      1.1981395264499437, -0.24767636056026693, -0.20012155018653466,
      0.3674954131447275, 1.7589213100124579, -0.3738315797771588,
      -1.730652749510733, -1.171118899134393, -1.0676585293901655,
      0.5905682265920881, 0.8482652754420335, 1.7326338060812134,
      -0.9192284389764028, -1.2790326346845322, 0.017096921836372264,
      -0.043240728928787706, -0.41785269112785883, -0.1211692064909648,
      -0.47642217472327386, -1.7175275588966272, 0.3476097605555747,
      1.5888403138962477, 1.7005220506701846, -0.9623426526066022,
      -0.32148047765562726, -1.7005204034508559, -2.231147903327126,
      1.3388314248109026, -0.4432360418308295, -0.06129309183223652,
      -0.2968696247855895, -0.31028318978690744, -1.5154467357765522,
      0.16599971046818318, -0.17221696752168505, 0.013866390963455977,
      -0.610687729708545, -0.37644632285827784, 0.9854609496655659,
      -0.0036653818749042702, 2.290935337434912, 0.07501623653600617,
      2.147827680999599, 1.3215831890637957, 0.14298653702404043,
      -0.9356669830327592, 0.3174661886197687, 1.0508784049286235,
      -0.34445501362262143, 0.8248006291751321, -0.997554108024129,
      1.7629834168688703, -2.127643107784639, -0.3638552896493848,
      -0.7419382613289265, -1.4394095908089812, 1.511580496310072,
      -0.896805284542049, 0.7687407962912886, 0.14623088955887303,
      -0.08414591668578711, -0.5948674323767329, -1.2115032497527112,
      0.03556744012080363, -0.08968037854764767, 0.5069176356760143,
      0.8115496147185434, -2.0717999742105744, 0.5018420108883911,
      -2.2518744590023045, 0.16800733729829206, -0.7534374139483899,
      0.8654125735465719, -0.2084153102390368, -0.9112377982910042,
      0.5010280455526163, -0.7357139313609948, 0.5319344515979647,
      1.8383862824004753, 0.24279348336398085, -1.015070535212557,
      -0.9371743386808099, 1.4216406964557222, -0.762952051513274,
      0.7781022605853805, 1.2225333454224312, -1.181057053480455,
      -0.666315316954441, -0.6704779665039948, -0.5578195363874459,
      0.108678265717106, 0.5375789486438938, -0.27736535436087706,
      0.47695072319211723, 1.7620982497487787, 2.390035975249487,
      0.49565203188825413, 0.13021795331097283, -0.053616174601123896,
      0.4189483836669901, -1.050307540930504, 0.043975666152838065,
      -1.4047203293387136, -0.5025799996220507, 0.37167703776027355,
      0.3849158416019863, -0.10500120281601882, -0.49370329584189704,
      0.5744402326351025, -2.3974997529829642, -0.1081501121399079,
      0.6073920065951858, 0.47233050367223794, 0.8486377291380527,
      0.3197901491380558, 1.6821418846204872, -3.594065360698478,
      -0.40481885229523573, -2.2046032281305927, -0.1675845446990325,
      1.7690504914369598, -0.8435606060468893, 0.7613236021347851,
      1.7880613567849317, 0.8730841127678565, 0.9481883307685339,
      0.4077384719646157, 1.6051544057613436, 0.32137570623281725,
      2.2079657771156405, 0.7051407205954124, -0.40629841317952525,
      -0.782565763880404, -0.32379500971522424, 0.641720443032719,
      0.8399881726414444, -0.7763933523649662, -0.6229230513759069,
      -0.184956601933096, -1.4995807812162325, 0.5071940565822397,
      -0.8246063134473299, -0.8413129329381036, -1.0929866812302877,
      1.6353871933850712, 0.8851898473587926, -0.6552273999985755,
      1.3565270321453686, 0.43540340323573795, -0.005740570245992428,
      -1.3479972078407834, 2.1796117627135225, 0.7457976481390709,
      1.8136720225685874, 1.0624495189498226, 0.8375752074737804,
      -0.06069252015975748, 0.3545407307316366, 1.8398036235230313,
      0.38316187027663634, -0.7454035026277457, -1.3120369054694843,
      -0.8445466168512267, 0.3076534138506332, -0.9822603739623299,
      0.9049413804367374, -0.5042898102927744, -1.1508874983581094,
      -1.2164047585796118, -1.44143791327887, 0.39835825692244364,
      0.7675160779515369, 0.426248292496473, 1.3660265099410036,
      0.42084171216304045, -0.6086541774203019, -0.8144068965306172,
      0.13950316862452825, 1.2840349685799928, -1.2084299577673825,
      -0.28209454152304303, -0.4391542675190266, 2.035623815453224,
      -0.9626777143493209, 0.38034177696220406, -1.2439907575160727,
      0.6961852999391045, -0.2726827617005877, -1.808510361981805,
      -0.9008916561680673, -2.0168151940121435, 0.7971291384760918,
      -1.5950481283212432, -1.0533650078799572, -0.17320849792567378,
      1.2244999865231416, 0.6291629950259585, -0.053072969865023516
    ],
    [
      0.8002600971435231, -0.2688965216428811, -0.8958671564310592,
      0.1678657710172175, 2.5200360525806196, -0.234524858452499,
      -0.18937921967251745, 0.8511481612231476, -0.7385552112344572,
      -2.204534241371392, 0.4359199611056334, -1.1593141242341405,
      -1.3438430597021644, 1.8237543984022542, 0.08404785242756077,
      0.9313442574334406, -1.801680443927121, 0.8019226742213686,
      0.14473555679132893, -1.2283054481235134, 1.6737711177635357,
      -0.21283377123120262, 1.288061017698194, -0.49878351327714116,
      -0.37515453330030946, -0.29638082798329174, -1.4380920686347103,
      1.631948075126484, 0.028015053134499045, -0.4191532625107305,
      -1.0067525931601453, -1.4050100552772355, -0.4527684153578474,
      -0.047234967352577414, -0.7127363260708202, -0.3604260497134069,
      0.2034246796130812, -1.5352666587040478, -0.36227996568030274,
      -0.43624807521665665, -0.29460775764409675, -0.30528986764258537,
      0.3402793326216689, 1.289003072163862, 0.15071730038726552,
      -0.13128306424528904, -0.2269849455251159, -0.9816467079830942,
      -0.4051151173945734, 0.5618723669825629, 0.05490015445170429,
      1.1683110125326086, 1.857421090769978, -1.1773398057265605,
      0.8870462002636698, 1.182840442847814, 0.6689157646686005,
      0.2355379322464835, -0.2529020512940375, -0.17737175359630392,
      1.3828097796706613, 0.961599561928167, -0.9434195134248663,
      -0.24284947553358974, -0.38894853199950713, 0.48349011090944133,
      0.15479532204870863, -0.5716866383345068, 0.6297226021716046,
      0.10827464142802389, -1.6471468195167112, 0.7863048410055166,
      0.21144957079969565, 0.037313606615370504, 0.021017862135403898,
      -1.6837623835275621, 1.3194471234921512, -1.3053529354272198,
      -0.3018117849344798, -0.549521500713221, -0.05811816238822028,
      0.24558353466038862, -0.5645309091468501, -0.5562702600558904,
      1.4375309943612287, 0.4352139144343864, 0.6333788890043228,
      -1.029046075774921, -1.3001100609617129, -0.15054567807458277,
      -1.6433297020422077, 1.1571597136782878, -0.19566771110502443,
      1.8953053319611015, 0.09679717654628398, -1.2314642314556998,
      -0.2863685217623275, -1.614939747900202, -0.7181132250055748,
      1.4709504343928277, -0.17236440024095043, 0.3508167124550324,
      -1.3665001314041465, 0.3315833589547825, 0.08670340126281181,
      0.07639731377067835, -0.18444773137885054, 0.8879741588148666,
      -0.03914036875727712, -0.443789317610521, -0.31697808689024265,
      1.4366591241696005, -0.4237913109680579, 1.4176473961410783,
      1.5597257342937485, -0.5009635932827277, 2.2460452751485134,
      1.5705760103000155, 1.926972045291709, -1.3745534230514849,
      0.2856799264521957, 1.1014440801909111, -0.9562124286007819,
      0.8828263358728831, 0.9805066550394521, 1.0202618115938227,
      -0.40594826088604674, -0.022199459830019298, 1.6013657524936653,
      -0.12741191548756758, -0.6670099704563001, 0.8331766104841984,
      0.3651039577821063, 0.7507902805834701, 1.4359762872413544,
      -0.8583103183705837, 0.5725022536868031, 2.2182869135893193,
      -0.5805614082459007, 2.102550217107629, -2.6375891360824966,
      -0.1324579384578743, 1.2095644805123134, 1.093258295873075,
      -0.16553059203508666, -1.0989005929670752, 0.38106714852048873,
      1.3724436946283594, 0.3238444249338141, -1.3211860017459014,
      0.33799301386785735, -0.8407335742092839, 0.8023887302869175,
      0.458587437093498, -1.412822703576792, -0.7776639950012547,
      -0.3648369409969335, 1.1150085544013744, -0.813482360097849,
      -2.3731809833433117, -0.206595680032675, -0.2518392896383145,
      -1.2152271097504337, -0.09056622394937586, 1.1791203206580938,
      -0.235781369856185, 0.48676742550136215, -0.07999607813202718,
      1.7321005023663014, -1.117454897115403, -0.7121441994546516,
      -1.321376167112024, -0.4820308021998244, -1.4815063779656146,
      1.486933593698521, -0.7223613411632248, -1.1379881526503524,
      0.24460072396990645, -0.5227249890153428, 0.37811549743420364,
      -0.28996984318529573, -0.22971521813702336, -0.020122397908245226,
      1.3867361509735938, -0.119086174786616, 0.06787324799262304,
      1.2267430551759837, -0.7978541108715351, -1.4033474445550922,
      -1.6660535123954512, -2.9968150437123517, 0.6927930166491869,
      0.37966466340571725, 1.3638767553990103, -0.023843334504677616,
      0.5016026194563117, 0.05229614177413905, -1.3111555951105733,
      0.2621739639662221, 0.890424937658515, -0.3541750197765929,
      0.13388464037352454, 0.052359752313222374, -0.5497214719665697,
      1.4337330849810623, -2.225957826803661, 1.3563492677731137,
      1.2875409818456645, -1.1710697855140804, -0.17380431497582136,
      -0.22702582937751892, 0.38627596880307685, 0.42007966249773676,
      -0.05124864804649675, 0.8311565620005827, -1.038904214817171,
      -0.5195717119300982, -1.4139769520160246, -1.2431957648506249,
      -0.1994443905923214, -0.5938855544759022, -0.2808434063556837,
      -0.21466246085331375, -0.9017591975941708, -0.6510306675091468,
      0.6148359433099978, -0.07306980901971616, -0.7772077315593231,
      -1.362585132273668, 0.11383997364561156, 1.0534501884952976,
      0.6469163606404067, -0.36418316199362694, 1.589693319904793,
      -0.8641269855724059, 0.29619305480382907, -0.9443471680950815,
      2.172699309902533, 0.5304549171406674, 0.2591900689580398,
      -1.9985484154633744, 1.8702802526749653, 0.054368144031271416,
      -0.6397160172941783, -0.3515829804846459, 0.1878293261899395,
      0.8871469325252668, 0.690753617817659, 0.6229707334210602,
      1.0193756987033387, 1.2175908097349901, -0.5318429187108122,
      0.0136616697003995, 0.28675217815519893, -0.3288162084905811,
      0.9001075794587109, -0.21918980329259558, 0.9984850314725183,
      -0.025716703839575195, -1.4175150951221835, -2.74706323492034,
      0.27780214598376013, -0.1923290022881825, -0.4019605772430687,
      0.6418526328781141, -0.3525194446060668, -1.400103403994361,
      0.10623248804590248, 0.5998810296570032, -0.31036576742521566,
      0.9850317658211079, 0.2942520596616227, 0.9097767526771235,
      1.9105449188867245, -0.5296142638056156, -1.9122847496104165,
      -0.39338069129709646, -0.434268994828698, 1.4044790124097994,
      1.1114210868422019, -2.525717222425884, 0.9521302638887262,
      0.41649219507419827, 0.21633255886951835, 0.21829052605022267,
      0.014185517321744976, 0.5290213997089963, 0.8396100295892187,
      0.3828620272359682, 0.3458798591635639, -1.1430145875348132,
      0.9334281136610226, -1.2260088022448887, 0.7468947659176768,
      0.2631054420565766, -1.5948920425935582, -0.6848624578759213,
      0.3489272593278852, -0.8372181694022643, 0.2826856593493059
    ],
    [
      0.9464251218925357, -0.6483224289043333, 0.836010896807096,
      1.5946717406478312, -0.8384396717487352, 1.1010981799817,
      -0.992749827147701, 0.5832387006882015, -1.2966393088865311,
      -2.211210144135362, 0.031009126199282016, -1.9833748192778715,
      2.0657763070673427, -1.3530028876693256, -1.3307172655826425,
      1.5599069212874261, 0.9886522466647912, 0.6002636610742617,
      -1.4632558161711313, 0.34449791986170103, 0.6617326158385421,
      -1.185428229314136, -0.4737558048691486, 0.9348243651523716,
      -0.0907721719283755, 0.264430914759607, -1.0054545580546965,
      0.8691515671331981, -0.6575559411716412, 0.9441262899441024,
      -0.027027738559707706, -0.24796020908833044, -1.0071067642953657,
      0.5849266459750748, -0.5587524441682307, -0.5123462451009952,
      0.6276600662849511, -0.630068257180689, 0.3900091331710775,
      -0.6411728263188559, 0.7838839111504476, -2.336844424425363,
      -1.7223431903019433, 1.5305137435486589, -0.22602170391726364,
      0.04689417419207892, -1.7705798776230757, -1.0166056748888888,
      0.7932980964744334, -0.33051476412974573, -0.5056765707549091,
      -0.3573029702389811, -0.03978620406091395, -1.1682311621136026,
      0.3099267432709637, -1.8521124848383967, -1.0641164882528218,
      -0.382523333633305, -0.970671891561538, -0.3482667406770137,
      -1.5364499066240633, -0.04262198903804, -1.7172297035073794,
      -0.17201191144562838, -0.025383136770039897, 0.5981266509181989,
      -2.160975696103201, -0.3191426187459168, 1.5284231873155907,
      -0.6443490743003599, 0.006151054993708374, -0.6769492111665292,
      1.7416907780323914, -1.0532114089893672, -0.5746526677854538,
      -0.38987217518024986, -0.09057742111149375, 0.09225013601996572,
      1.6200834101324182, -0.255356523030939, -0.3627356396177438,
      0.6482295111888575, 2.2771109576256303, -0.2319809222173401,
      -1.5180840176632526, -1.9668045183905585, -1.2017598300953378,
      -0.38776738619242923, 0.5109859171734152, -1.3982736077543243,
      -0.7651425249313756, 0.3381565092298759, 0.011301352365092531,
      -0.4567977245132001, -0.7808206201418947, 0.6184797207894694,
      -0.11239967754272744, 0.4183824415537398, -0.6607556670759217,
      -0.8978026476957278, 1.7171043273506648, 0.3052905149263958,
      -1.7538197720146869, 0.2359584089985207, -0.17804548622210553,
      1.059840104469967, -0.1276067194148403, -0.6206726080406221,
      -0.8679422008631569, 1.2414816264735418, -1.0068897014093718,
      0.8002718336875214, 0.6500089786301794, -0.5794769781418774,
      -2.0183643030295224, -0.6855502595689914, -1.222465055282559,
      -0.34034662329262516, -0.4465810020423951, -1.6498243030313735,
      -0.9223895642287557, 2.000087994271727, -0.3351814031619182,
      0.6206675969988481, -0.3204072689010726, -0.21552885888939066,
      1.938489857703328, 0.5084063405602639, 0.06936001644154764,
      -1.1325884331824032, 1.0450849667444724, 0.1150742965234854,
      -0.6888936667631766, -1.0679232888435535, -0.33068830613094863,
      -0.04819872877926482, 0.1615969870136715, -0.8141804660989973,
      -0.23956505054219493, 1.7423454011086015, -0.7175074658595555,
      1.3663435104420976, 0.06543169486491347, -0.4010670685652472,
      1.2502993853824362, -0.6346317630659661, -0.7494752516770739,
      0.337258574463447, -1.0983800700397235, 0.605992534995811,
      -0.54494776742208, -0.2753258780983517, -0.035555621074104975,
      -1.0708194626662642, -0.2861724142442827, -0.7110452763965922,
      2.138128917060254, 0.28852819548972714, 0.25242594762696274,
      -1.6495687100991163, 0.5713083349060645, 0.4013835834068523,
      1.2022533598574199, 0.503662851736133, 0.06916523087861362,
      -0.5218689622867854, 2.139621750156685, -0.4777347892668586,
      0.02732497403765433, -0.28264319653301023, -3.0616693819020306,
      0.31884978417652093, 0.6471909070765329, 1.380651532367213,
      -1.5869561207623775, 0.7312192072908689, -0.6799880250891261,
      0.2887121929541805, -1.3376797101211275, 1.3447263209707785,
      -0.2916445960264857, -0.9296852037962656, 0.5710784983628032,
      1.9933988704236312, 0.3500244385640143, -1.0162534886187127,
      -0.6877587796029719, -1.1080611416454165, -0.3253675280725082,
      -0.6270671480626983, -0.5408476916154353, 0.027216225605748212,
      -0.4116003060363099, -0.5947828953128161, -0.48860249674536144,
      -0.15672999559187625, 0.4083493227938428, 2.226031150261468,
      0.7885947177451402, 0.02901472438109938, 1.2460843418389027,
      0.3644173075239931, -0.8865888863412154, 0.043535161409708326,
      0.8566047300488346, 1.1650401458488344, -1.3260108149622418,
      1.1865957742913475, -0.45368457909945387, 1.146172648337122,
      -0.05271520775698426, -0.9865141038354448, -2.248015021056177,
      -1.9938779672571683, -0.9498139460488275, 0.14956596680650674,
      2.0578907747223223, 0.06171595177640362, -0.004867341652659616,
      -0.4938287588396832, -0.7656245745682365, 0.7117785850758138,
      0.5243682232973054, -0.7772760770664855, 1.8223461855001415,
      0.6674792873846123, -0.22821390772260475, 0.6000639373830541,
      0.963698258153434, 1.141649678933174, -1.9643110582539505,
      0.03202940242445854, 1.5966963780906889, 1.7072894404929837,
      -0.008650985475412206, -0.04355583815143271, -1.70326874469508,
      0.18341981320570785, 0.4619810456122719, -0.9426914040200385,
      -0.07773727598602932, -0.18547656881428726, -0.22268328820295927,
      0.6913696441493415, -0.34421569574986804, 0.9826556896984919,
      -1.487582874299694, 1.5918864082254043, -0.9748409721653081,
      -0.3241906626995332, -0.6593567074549358, 0.8595863196227227,
      -0.5367596109735695, 1.5186137661366357, -1.3292073427591748,
      0.7000548001524147, -1.5352005899290342, -1.5372814089605915,
      0.22390392096307887, 1.668252943862986, -0.8474548916932465,
      1.5115566120479016, -1.7324970579954206, 0.2715791932880477,
      0.017183758934725388, -0.5913593593916664, -0.2267958338294531,
      -1.8125502793966324, 0.19350182721940315, -0.3767477825944666,
      1.4700251963392714, 1.152957193737124, -0.06390848946006543,
      -0.7599785059990382, -1.122783933732325, -1.110026587280174,
      -1.0935469284124422, 1.0465926239439194, -0.7474096823705456,
      0.220653509781934, 1.331768094893901, 0.421255543456367,
      0.25910703825886244, -1.144738980072592, -0.12749075535536372,
      -1.4028994727728392, 0.6349123292425121, 1.1247737135959646,
      -0.8579386024585258, -0.263375814023913, -0.891653898758936,
      1.0687097566127568, -0.4024006274520636, -0.8158484825957585,
      0.9209269807208742, 0.06456698521818718, -1.2018301174732926,
      -0.0771650123578379, 1.6870672628088292, -1.1431476984456759
    ],
    [
      0.5851602360981608, -0.40538306703699056, 0.1411196170906006,
      0.4111840622702986, -1.4006157031814506, 0.805379574341432,
      -0.20336952717660267, 0.42060801454135177, -0.3813375074023104,
      -0.2490459967749842, 1.2198869048386731, 1.4004990395509829,
      0.9387918855734934, 0.9039608680881784, 0.23428183838971792,
      0.5106349302403616, -0.47422616541123164, 1.6018676456428849,
      0.5281626851279296, -0.06346432845165777, 0.7856779197314853,
      0.11013051300301317, 0.7907266663087262, -1.2990151575436197,
      -1.2636240925799496, 0.2965755055816058, 1.4080510125535024,
      -0.03180581592759906, -0.7299890117230653, 0.13830497488373478,
      0.3319351831051677, 0.1673769580113473, -0.30104188961988715,
      2.15436711315906, 1.003908310220569, -0.7408723437821606,
      -1.358259983550626, -0.5642468754316676, -0.4277300286618131,
      1.4272312936228575, 0.042570229981696614, -0.9937517313537287,
      1.550176772299679, 1.098371766512106, -1.1925760137110613,
      -1.0344236822367594, 1.4948067863154202, 0.4106995968085119,
      -0.0016266115391178231, 0.12410483822036407, 1.4973518821507257,
      -0.159778195923987, 0.6204390788156525, -1.3790974998289736,
      -0.04358804166629944, 0.16236465334783773, 0.9677737535326091,
      0.4190677358346218, -0.5428315657814474, 0.2912332484269016,
      -0.2997743492208591, 2.1302439084256957, -1.228243427477597,
      -1.6560554900167352, 0.8476269193597282, 0.47189054361327887,
      0.9198340552319579, 0.13049163305554523, 3.046898389707132,
      0.46809276826722135, -0.7529385394084902, 0.5680015957697262,
      -0.230168806442222, -1.5039434381953625, 0.9953919390328767,
      -0.8912751912507894, 0.6920022867446887, 0.09361270288974276,
      0.859853639665051, 0.7395630615889464, -0.11355056648533356,
      -0.4144305201819708, 1.1283155075443991, -1.1095141765630239,
      0.5750834220507728, -0.7089103753207489, -0.3253157371035609,
      0.13709581550354974, -0.13648052112836667, 0.19836168588344313,
      0.324756519954605, 0.03534124056103725, -1.941194423672138,
      0.48101402179443575, 0.7312580634136054, 0.05995071014420546,
      0.15452020955897322, -0.1963759381693664, -2.429152297402658,
      -1.5159478376868674, -2.208479908160747, -0.9480990337268473,
      0.5929112006112406, -0.7661157637896716, -0.42409623160191845,
      -0.2936729971069508, 0.7200334617177068, 0.019115033510604063,
      0.7478698646176539, -0.28473453836861135, 0.2572401905417715,
      0.2395165018162422, -0.06853517213859445, 1.279645367131282,
      1.6758521353591984, -0.29551625983395136, 0.46877234328551376,
      0.4601192937221355, -0.7844176133997532, 0.12338510715715093,
      1.6183422518018615, 0.345915726327149, -0.5484348021617723,
      -0.6102767060651733, 0.417637099452332, -0.6614548856182517,
      -1.1668605295625654, 0.2607694374100571, -2.095992996604336,
      -1.24337339067325, 2.0999530712691294, -1.2545719262559458,
      0.38190341450015314, -1.0733447093467583, -0.03580117457118088,
      1.7684573987057295, -1.9345889683757183, 0.666668036085294,
      -1.1888195235692895, 2.157537178590846, -0.8374270962829503,
      -0.3878541012651482, -0.24230306324934348, -0.09097229062092262,
      -0.31682115772546704, -0.6124989086885515, -0.20320465470320642,
      0.9822130237535135, 1.2471155516249546, -1.5329980979501328,
      1.075593970008507, 0.6965891855413602, -1.0916133840954791,
      -1.215860704909587, -0.11307454662068149, -0.6620416737010025,
      -0.20730209114269046, 0.9277966354741005, -0.3409147699366952,
      -0.4886751578721639, -0.528125198138111, 0.9190206631890923,
      0.2350411589514837, -0.6143541093603511, -0.17049587761736296,
      -0.341943804240125, -0.04082829476803851, -1.3588431266005192,
      -2.1117337675386723, 0.224268269640858, -1.1914912403778664,
      -0.9565066091416793, -0.1669954940205097, 0.663818740183934,
      -0.4215226895774309, -1.365313806445194, 0.8201793886030094,
      -1.7110502009007236, 1.7253828344788285, -0.4310802062826129,
      1.8137804002437634, -1.2759748313371098, 1.9365635073115393,
      -1.4914394325778608, 1.9910560680482237, -0.10757795262076314,
      3.2428354522307195, -0.7976696585158324, 0.2904056674658527,
      -1.977470580990423, -0.0029456391201775687, 0.8800969688767458,
      -1.1389754229615512, 1.4581977366176329, -0.07541661224753633,
      -0.08093987789309631, 0.007240223948361777, -0.4595565177188986,
      1.3344769571782436, 0.47502670782341927, -0.39183556908624345,
      1.0071651523836798, 0.9738495867983203, -0.9957936001307317,
      -0.9736854042140792, -0.5121317294606527, -1.340527925809975,
      -0.49090024944967103, -1.134065601110333, 0.24103081712609503,
      0.8419359696977238, 2.343680568724293, 0.9317094941513451,
      -0.3859505175920315, 0.6682545597020434, 0.2625684301854365,
      -0.6061004519418816, -0.09111829021977444, 1.7035504524950467,
      0.5801811266200166, 1.8875403794017573, -1.148728884077706,
      1.8896261651045538, 0.07078744170792434, 1.8607930774167798,
      0.7608563841076577, 1.4042038490076933, -0.6401758034139742,
      -2.6207064542427836, -0.20252074584953464, -0.6673299336769425,
      0.6813731586206838, -0.022402151611451437, 1.3342183593034678,
      1.9592821618097471, -0.9925931412787664, 0.27901255872570513,
      -0.524595203069552, 0.4796400702102038, 1.0651271877990263,
      -1.4174539868716696, 0.03622178830759213, -0.7587165632636073,
      0.30226441279395444, -0.4297315298792599, 1.1438903926776502,
      0.18915797325448608, -0.38659186280322594, -1.0838114998986108,
      1.1526149539053667, 0.01729288970193432, -0.22558969606670182,
      -0.5391825751697279, -0.07843910847758917, 0.13654183081427887,
      -1.103578248108521, -1.294149736450771, 0.2773825437515535,
      -0.7560432195574305, -0.5446912229643401, 3.2872294348481814,
      -1.0491531048920573, -0.006607706269314905, -1.0369404590476548,
      0.7408852630008715, 1.4120426197614881, 0.5665702384508532,
      2.023284371312241, 0.7617498685537816, -1.622424272473264,
      1.1485332537844795, 0.22271998602146764, -0.05837080497427415,
      -0.4001156019005859, 0.5366633804843381, -0.2334906010373798,
      -0.5122932502801183, -1.6900740885241543, 1.1078824163245933,
      -0.1310856935464531, 0.16374348943193298, 0.04364749091202267,
      0.19753104694250137, 0.732878640602708, -0.22528507490643,
      0.15201679972064405, -0.9369699623644522, -0.8901155223713136,
      0.519421536879764, -0.5887495444596632, 0.48662552104474704,
      -0.6605322666087152, 1.24155939428955, 1.0537174986037237,
      0.34806305820084205, -0.6509212294204374, 0.2847365963202808,
      -1.2684905593880074, 2.2474191107874404, -1.0961644144662575
    ],
    [
      0.6017589137810653, 0.608764984796997, 0.5561001841589234,
      -0.999020418036858, -0.26746321829272246, -0.06692178623493343,
      0.4890849611243168, 0.08907488568470597, 0.08258503385639071,
      1.1443065271698287, -0.04208253452269981, -0.7235363734514103,
      0.5389295486433924, -1.0663678970981156, 0.2706637763796473,
      -0.9797777033823857, -0.6583849222269909, 1.0697617606866159,
      0.052208896604307053, 0.11368992382015307, -0.5422947246516675,
      -0.3662926406474789, -0.6851029240057104, -1.1695581466467393,
      0.714513465333333, 1.0639186188567349, -0.8371105452562704,
      -0.07222150633545976, -0.8427554974302712, 0.9729016637500847,
      0.19764505927893736, 0.6429614317421857, -0.4197248737768695,
      -0.034451996649091245, -0.19305440655039666, -2.083465095598372,
      -0.30935172254885906, 1.1229949830417156, 0.8930203378285154,
      -0.31302903515727687, 0.8793438992650939, -0.4388472441228289,
      0.76164031875618, 0.8163341376808583, -0.6310983682525819,
      -0.04002523152566335, 0.31963885098603606, 0.5581565476879234,
      0.37524372536907713, 0.761726698965915, -0.5107951300562048,
      1.4336828311082248, -1.0495560863751892, -0.8913346326064858,
      -0.8574263017595488, -0.5661062757131158, 0.14563783440720665,
      -0.47908242094142156, 0.14206170808824195, -1.028735767442469,
      -0.4363376697608756, -1.5027307788783786, -0.2519518860522818,
      -0.01768898372563032, -0.20520528609426286, -0.43986027019368173,
      -0.5360866472523363, -1.489079843420528, 1.3840001750149924,
      0.33327715957821974, -0.21767731360028716, 1.3179033340804736,
      -0.7957912745887131, 0.060433457149882755, -2.32566473163862,
      -0.2938519966682911, 0.4544008046980839, -0.9801714890919903,
      0.15068429137674022, -0.22220534830207905, -1.9756515814210656,
      -0.8929220252940453, -0.9336675921639495, 1.2315511076025778,
      -0.2848179715260236, 0.4451921843771637, -1.4304324760844571,
      0.5523082745737952, -0.8380393016435552, -0.10917373089327362,
      -2.070898758194055, -1.0914208018778242, 0.20035407862996477,
      -0.1435255973226075, 0.8961030716692207, 2.47573077339526,
      -0.5641206878075508, -0.5439469832787946, 0.1478448571761607,
      -0.7595083300189255, -0.6152087613096404, -0.3983420867795157,
      0.997232323815409, -1.9677709866316762, -0.3575230014362721,
      0.35683849319347055, -0.022344034143917915, -0.14882825697247776,
      2.4583126880984243, -1.0261308519926817, 0.6541242809230274,
      -0.4159804395668884, -0.22101239799813277, -0.914835063116106,
      -0.7567395708080731, 0.09762965533666641, -0.7685431296934216,
      -0.7271102771274985, -0.214573201130766, 0.47978207819650537,
      -0.20739686865129406, -0.6681434225776184, 0.7052569813719202,
      -0.3695353853160792, -1.3392074352411114, 0.6815166882724857,
      -0.16843663337024112, 1.5115157633772365, -1.0484749169474854,
      1.0357917559825247, 1.5169116797194606, -1.2793886111196928,
      1.591934437987347, -0.9634617111197257, 0.973617639421271,
      0.5416359952757029, -1.679119033157489, 0.5459798097758395,
      -0.6099262156075831, -1.4821734644763158, 0.817319554024571,
      2.118084184170638, 0.05593134838573198, -2.080171008291748,
      0.1700225514079247, -1.81409977055825, 0.17992396533817578,
      -0.5030082335254067, 0.025937892059814848, -1.4315601500015602,
      0.6511137210345005, 0.18274394745528824, -0.7369602076523284,
      0.902775742460232, 0.6767710205031311, -0.6567716364521804,
      -0.12435013451483577, 1.3587956663161211, -0.226895196351407,
      -0.8707753911252935, -0.13614555017680757, -1.2463719621397156,
      0.16954866776499383, -0.2649082076468182, -0.30479759285884034,
      -1.4409139968386693, -1.1147601080633158, -0.24405444047354694,
      -0.345881681543618, -0.7046296664917124, 0.718923229366248,
      1.0270346695638952, -1.1236320562142423, -0.3338793654803174,
      -0.2788740701757755, 0.40475552825468536, -1.3432631156038433,
      -1.1506170111054637, 0.43357596927890446, -0.9174161434772545,
      -0.061084597060984666, 0.4340747501418804, -0.3202177186325082,
      -0.1151283694914909, 0.6984580358000032, 0.8561545618609435,
      0.2996911888892729, 0.8477768091836891, -0.06540943940600405,
      -0.1816739089270116, -0.3396856902240521, 2.3571672193719615,
      0.7766316874618497, -0.7836883368452703, 1.1060162952092054,
      0.18417481210450265, 0.40182483950999615, 0.23768292364938629,
      1.0879675763867094, -0.3655975802238537, 1.5462325036311384,
      -1.2052697126530614, -0.5316344585992171, 1.1561685472372667,
      -0.8611258656830844, 0.6182626053032639, -0.4952621853016464,
      -0.59752127490037, -0.64766464688541, 0.5148980389608924,
      1.2372423866066231, -0.7196691370083589, -2.4676385312681055,
      1.1970973487310683, -0.4960712461225686, -0.10147275698831251,
      0.1594838702249411, -0.058851161829996106, -1.1370717136330677,
      0.23032332791999996, 0.21135301450292165, -0.5379908117925158,
      0.5249479780149732, 0.3617107510186055, 1.1984013091773533,
      -0.2831496327934909, -0.363654438163829, -0.14597630877496925,
      0.43982908012012967, -0.6900662323166796, -1.0023872572446957,
      1.3762573992416425, -0.7859205475443773, -0.4227199008029028,
      1.3305697507009242, -0.047007657566796236, 1.396701354124636,
      -0.21944293509546145, 1.7421685811642658, 1.6192640285790787,
      -0.31071910542143366, -1.2219239474762225, 1.2902938978058929,
      1.3820616485734878, 0.11636350700372496, 0.24459239474940744,
      1.2092598318627377, -1.1444975582557881, 0.5058083598002151,
      1.4092786264039274, 1.1915572903655183, -1.9208559094417526,
      0.1302838376415202, 0.20441706242659716, -0.6553588740890761,
      2.16006318030661, 1.262418563708562, -0.9865592635657632,
      0.02724821001270638, 0.09149669086994992, 1.0070012964671198,
      -0.20769567618740203, 0.42356047039729633, -1.5917883333513871,
      -0.4043113127397998, -1.8386922938301526, 0.00811073730294397,
      -0.4047978216352666, 0.08776831393705815, 1.7619279905809009,
      0.41800398148921675, 0.6402317253396528, 0.2591888058265819,
      1.0682823673938089, 0.17899926664314608, 0.4864717343847585,
      1.4421926375764953, -0.5671587302774838, 0.5076373188761858,
      1.5040997414862398, 0.2054919136518278, 0.016103057501058546,
      -0.7494125167706456, -3.201443000795902, -1.9415454683810685,
      -0.14274632473076074, 0.3390523926195524, -0.6124800816933238,
      -0.9178504593091429, 0.163717917242851, -0.10882428461426243,
      0.4789289987687875, 0.8700599303575742, -0.9058338519805721,
      -1.0013523070149388, -0.3701388985577571, -1.7990417394163631,
      1.0845791142886914, 0.7674147644480753, 1.6666188391158399
    ],
    [
      -0.1651015320109416, -1.186836575165477, -0.00977643632495278,
      1.2349529117923723, 1.062707921565648, -1.146418408582475,
      0.17570511832547112, 0.17743701550059024, 0.3431850517115925,
      -0.10928080957124618, -1.4379241980989375, -0.07987706728578133,
      -0.26906046931233757, -0.2688525932140907, 1.126981770963557,
      0.1340868556542693, -0.18861089963038064, -1.144887360437,
      -1.4403424070305615, 1.3568004634948634, 0.5681131586629115,
      0.12874932986287818, -0.21114159813175354, -0.8295833724538503,
      0.09791274713555086, 1.0310345003440187, 1.631361728710644,
      -0.12755828756236426, -1.7616745925285715, -0.24443059122258984,
      0.6504755532856513, -0.45037149086038575, -0.08757121290376106,
      0.07647843303142374, 1.9577015595734966, -0.038151260090874974,
      -0.05913883121095952, 0.17296407454211968, 2.9500431837448207,
      0.9651635557377038, -1.3767257624174511, 0.07530996415908377,
      -0.8095727155581021, -2.4009599376743487, -0.8233420986242157,
      -1.4172253367627996, -0.35602167213908226, 0.4249461182736885,
      -1.2383439630602673, -0.06352507309043949, -0.46227976153513795,
      -0.9603257988027889, 1.5463983666681596, 0.05702558405209632,
      -0.9343773177577164, -0.024868824776816012, 0.5910221832472712,
      0.5340396849241137, -0.37130273994647744, 1.530432878113583,
      -0.6618702729784957, 0.029626579031782552, -2.0664080531777276,
      0.8320187035678028, 0.4373778892962557, -0.6762636900684974,
      0.02055976304085091, 1.3531506679791037, -0.23329297017597858,
      -0.07595458222957621, 0.6540780229502551, 0.1729631764830985,
      -0.6180630096960217, 0.5013260046821088, -1.0812752360176787,
      -1.8654901695687403, -0.8671293447710904, 1.1575254818867593,
      -1.6412694793057034, 0.33908303614142293, 0.9078625769701891,
      -0.062294008980410015, 2.382282608892707, -1.4206493960069735,
      -0.2945126452585096, -1.7936157023244086, 0.7612678117759482,
      -0.18069567803903655, -0.12868680210993755, -1.1719125991492756,
      0.9924244474301072, -0.484688872639005, 0.44191061333462256,
      -0.9839380960967716, 0.4630275478200801, -0.04932401644731959,
      -0.5288494006551254, -1.5529659749835343, -0.2565072152597063,
      0.08583446910415421, 0.48980165153598293, 1.0229334938992887,
      1.3960924715548237, 0.2554135459464516, -0.35646989300495885,
      0.47734955159924336, -0.33152209538058713, -2.176224109773519,
      -0.4445234693480663, -0.5996467900219912, 1.1650801394467598,
      -1.7732113290454363, -1.1410261269673467, -0.14195504392288283,
      0.17452878026688698, -1.6208283309456906, -0.27670190698966907,
      -0.5970553163383172, -0.6723975274434686, 0.3959975678273622,
      0.41140985193899743, 0.9466354101076115, -0.18726978741593936,
      0.8950602469441061, 1.2451118358413216, 1.0563277658796328,
      1.0124539811250914, -1.1198537291887463, -1.523582081126102,
      1.140822228257838, -0.5230315315600687, -0.5943948675946437,
      1.920152119869773, 0.8340696392744373, -1.032865695618137,
      0.7276455624347011, 1.6905168503116503, -2.0621594277191257,
      0.42937776363373376, 0.4138959802123789, -0.033616545179892036,
      -0.16164283468980206, -0.47427882621990425, -0.3107865442366494,
      0.15190460980499748, 0.9092510956529042, -0.6823775815502421,
      -0.047638472964593837, -1.5076531838262497, 1.1150508804773487,
      -1.3695235078831831, 0.01353748691700374, -0.48110253352062154,
      -0.7937513324682209, 0.5731503623052782, 0.22884028821893596,
      -1.79913871207845, 0.5128628161967677, 1.5908967228131732,
      2.1568241766849305, -0.7592075928663818, 0.5850498421968161,
      -0.13232370023628776, 1.3306536598951848, 0.1586382544474106,
      -0.6036749876346486, -1.035874433252396, 0.1693853231818661,
      1.1627110723871665, -0.8476304088462688, -0.9279102646833797,
      0.18093405405296462, -0.33115186842579575, -0.19494498051492523,
      0.752335840668197, -0.6052194577939402, -0.10777987690117626,
      -0.7213679381687959, 0.14632528425382, 0.51782136423891,
      -0.885170850601273, 0.6771762445670558, 1.3220168022865753,
      -0.21371654611474974, -1.1053131460568921, -1.4048114720728822,
      1.2300776497233459, -0.9421637273037781, 1.7425236850401586,
      -0.5378297419852716, -0.3498614813495255, 1.4328457774273669,
      -0.2518903798788961, 1.2112416045441818, -0.6976133877592086,
      -0.25677310783457397, 0.8549277254422066, -0.8327065196375936,
      -0.03890137802312664, 0.34929893884426283, -1.7173757475281706,
      -0.03327758372729315, 0.449028498188321, 0.7029159526102637,
      -1.8267448754077908, 1.6430345114140497, 0.28494114503699886,
      -0.5264001458822166, -0.46255845707614063, -1.666315901449811,
      0.4558365284938252, 1.0607266843924121, 0.07417975527254689,
      -2.2692521930182137, -1.1411394442507716, -0.5018001126013196,
      -0.17000381525392785, -0.19294141674083243, -0.25520296582176033,
      0.8471433650978165, -0.21532029690529092, 1.4089017570701843,
      1.3766456104076878, 0.03436072490032104, -1.1431461197654682,
      -0.39911088181871973, 0.51526445813342, -0.234439878699348,
      0.07246737765683513, -0.006592317410592525, 0.7885581640302128,
      -0.16550553611341562, 1.407502221710917, 0.9333136257733519,
      2.253052324014926, 1.043878728282776, 0.5510534796812956,
      -0.20404281261023097, -1.376117191279925, 0.025917943251350335,
      1.7591325361977856, 0.011677688779686321, 0.19558397825116272,
      -1.4203938136803091, 0.9907692336065066, -1.5940271066090266,
      0.0015051258699367203, -0.6690219033419977, 0.658314907940289,
      0.7403880071679638, 1.3580055866727705, -0.8291436135426989,
      1.2259063402726764, 0.14653531894770674, -1.3593419435679281,
      -0.01901261415523719, -1.9565913500792684, 0.8801233298308205,
      1.1652502584997642, -0.9739241476020226, -0.518190229909922,
      -0.1314755809526017, -0.8580890813207342, -1.6293758400008684,
      0.24154090925927435, 0.03593631161364854, -0.0894000581817892,
      -1.5040086746885537, 1.2984755771169358, -0.9462251504860001,
      0.6222897216861192, -0.5607300334595762, -0.0015043603320082685,
      -0.23150663307033112, 0.551693050487792, -0.29842169323927853,
      0.8466894292913884, 1.5278420706280322, 0.2798204277915147,
      1.2113407915988723, 1.2017235474393788, -0.2710169341879394,
      0.34694322330987315, 0.004258303200117776, 0.8357934425419103,
      0.30023549822638623, -0.4627805819462056, 0.1412458834858889,
      0.2609604301850386, -0.24754537869204143, 0.32538684226945186,
      -0.8738484905394912, -0.8667688389347599, 0.7755229844711211,
      0.12928423930143304, 0.6653889697715637, -1.0335228339895581,
      0.49447592360375475, 1.8733455650361868, -0.7894358633841778
    ],
    [
      -0.5027299668248508, 0.09792785993431256, -0.8377013159751074,
      -0.49041783600382455, 0.8731089081227222, -0.35535863839633935,
      0.2808900554233981, -0.3527945965949614, -1.0804937701088273,
      2.0176203348744517, 0.507275291335352, -0.09206345798563062,
      -0.38194075558775886, -1.8344114931765354, -1.6606850447376187,
      -0.21494671413186622, -1.6211877092132823, -0.580955559759783,
      -0.34378340917119277, 1.0336721339459987, -0.7385126137541309,
      -1.162689416411621, -0.9496408045885613, 1.2786910035619123,
      1.5108198331694853, 2.0775739761229146, 0.31561682561672083,
      1.271581713730876, 1.24080978482524, -0.7992226809033637,
      0.5547353263332415, 1.1770208891619378, -0.4044574341703483,
      -0.10216916839958239, -0.590648130972701, -0.21624137248839795,
      -0.9512300509073867, 0.9331019049115912, -0.2864488953472702,
      -0.7913948558005289, -1.2693215335806793, -0.17842527892136914,
      0.06106861854168232, -0.6686988866069131, 0.32729972671537233,
      1.4412332504138714, -0.19778614429949795, 0.8488164555536477,
      1.4271831962562516, 1.5567473976968458, -0.5338869844132961,
      -0.8750300983706437, -0.41294698239689714, -2.0466575416543518,
      0.43916584342602105, 0.9912389601713687, -0.5193898851886621,
      1.5654021226267363, 0.8773606302497631, 1.367589993558679,
      -0.6196437867534363, -0.36253513200692405, 0.19687385626824816,
      1.3016664691162687, 0.7127844504323059, -0.17879906372976384,
      0.2824322046454133, -1.1679708762607466, 0.4315400641908105,
      -1.5636181436869108, -0.7569145732289286, 0.8126341681169073,
      -1.5735406210224665, -1.364729961423824, 1.0202359535666121,
      -0.10216208674671881, -1.5901593697157528, -1.7865395044703645,
      0.06234218797465802, -0.2845532749107881, 0.24623642827995756,
      2.106121265662914, 0.6484654978778266, 0.31266986553690523,
      0.6769745096800385, 2.7812526274956744, -1.6948499930398875,
      1.343227218281225, -0.24491464261169707, -0.19873059398763088,
      -0.9209578764841966, 1.769363850667613, -0.7488677207408091,
      2.0758196323746816, -1.2438550247952735, 2.016622407181491,
      2.816716902208534, 0.855117165806003, 0.6141854064748963,
      -1.597196033095026, 0.7912644599453046, 1.004224328320568,
      -0.33117986970534774, -0.9780646328574344, -1.2865866486115063,
      -1.5101887522462445, -1.8507237499358788, -0.047693211542174346,
      -0.3568824101024854, -0.6655888461478074, -0.06332035806778717,
      0.09916313851950552, 0.16038025869259637, -0.8612847518438299,
      0.40280494070361345, -2.1404518918004842, 0.04531115876391318,
      0.0600825736575528, 0.31289702074164494, -0.7575905568782089,
      -0.6597753793354381, -0.7470116148341648, 0.2557014706414591,
      -0.34799287272794066, 1.16004937026758, -0.1812689891507305,
      -1.5708939063055474, -0.8258259570206867, 0.8134174659395613,
      1.0666229295335097, -0.39938048305207124, 1.5083765941298701,
      1.2890169324737566, -0.9656865576242109, 1.2715660956970576,
      0.3862904772282888, -2.0076655571280053, 1.7770116682248982,
      -2.2096334785226124, -0.3189189252116392, -0.08847196241896615,
      -0.4620945290659108, 1.244359528165475, 0.6400901913860889,
      -0.4088581670630068, 1.8990309843678228, 0.31094041581431114,
      -0.3255824980401269, -1.7722679207426866, 0.8944069307921668,
      0.6036509227956733, -0.9822987350628207, -0.6811076056091044,
      0.13491980732006417, -1.0681177985327879, 0.7832726085255263,
      -1.295612395006365, 0.5034163631222636, -2.3696190372534884,
      -0.7065268769053085, 1.6192300168675835, -2.2003198212028154,
      -1.573625798915044, 2.271575962310085, -0.48786982137296475,
      0.6690879829609538, -0.41961388596018345, 1.9559438176153208,
      -0.21942623672552022, 1.0934086681514872, -0.7313419633305205,
      0.11503325522665804, 0.9029253431441934, 0.701586839038493,
      -1.1015337797403106, -1.5819531919315166, 0.1438410710465484,
      -0.7806990435856769, 0.36003444227205206, -0.35758092891876836,
      -1.5083007918738183, 0.4879121315218177, 0.5495023079796649,
      -1.200777452923643, 1.1448197114184762, 0.00031327024929858827,
      -0.8177890271541869, 0.5808364136699711, 0.5097977809381447,
      -0.5965935881218954, -0.6721870092033138, 0.15364256409700838,
      0.40073852238521757, 1.9347203774113075, -0.9990159444630532,
      0.9367668827393844, -1.1334097375166226, -0.4706328436950073,
      0.4822121724412717, 0.6763052641921605, -0.8068309199382857,
      -0.054204427094008335, -0.6594620275137515, 0.6140454176919172,
      -0.7072349764418955, -0.3260457156334981, 0.37472880769679967,
      0.3950547946687734, -1.5822930923151417, -1.5193384333778803,
      -0.6843075782660728, 0.49461344578654837, 1.5740405155142323,
      -1.2392378566524416, 0.3212197336259871, -0.34589721801991474,
      -1.6333381257931776, -0.8077306832077914, 0.8677651446029003,
      -0.08065687117431518, -1.5176023228776583, -1.0512537490497842,
      0.46941992617384115, 1.0431175601340297, -1.6321166624544328,
      0.018165868564935277, 0.5622612035072059, 0.5782800302418946,
      -0.2942140289218188, -1.303460926462995, 2.44179774290335,
      0.24770441496482057, -1.516767363276823, 0.161609702057699,
      0.25335088682779355, 0.17822015955306042, -0.09143567840778631,
      -1.866769138892884, -0.30980699509047405, 0.9364899804827689,
      -1.626042428677142, 0.37295143028835115, -0.006150826727062254,
      0.08334870583855389, 0.3114736653471245, -0.20985775872299264,
      0.019357193952131594, -0.06898314532670942, -0.5286644161640006,
      0.5272463903277016, 0.6428611188380208, 1.1522129987807586,
      0.30387248285196494, 1.9936907946824158, -1.617738086378709,
      -0.8478902513277322, 0.8244215392289912, -0.898717004868449,
      -0.9656929963852845, 0.7914034312484286, -1.495503562178425,
      -1.8690643593208682, 1.3918163858933432, -2.1408525052248404,
      -0.5615963404726264, -0.07475426943472366, -0.5393479372400252,
      0.4322349216871811, 1.1539978847501682, 0.5065163494741399,
      1.3242213437143688, -1.2957052963751075, -0.4182209945145618,
      -0.9769313374056001, 0.9673717617032825, 0.5699755828697824,
      -1.3933202700493283, 0.3798938700771894, -0.6322217472083974,
      0.47062502218815355, 2.1575750630796073, 0.29583518973012324,
      0.022852053199216155, -0.6700327618618126, -1.8879098010313609,
      1.3054545138504046, 0.8721790458423258, -0.22559706440553423,
      0.7708868436075047, 0.015454518349350035, 0.6993294819613499,
      -1.5524454828256868, -2.229253198234277, -1.9955703969228316,
      -0.6139833285167062, 1.5284823832471603, 0.2662360282453723,
      0.35807352515014024, 0.421537273007405, 0.1715876047502877
    ],
    [
      0.2186570102637697, -1.5903869056938154, 1.474621192447593,
      -1.1225347036479303, -0.7614985589196148, 0.029308459165237364,
      1.7629376063861941, -0.5052809181856893, -0.5290272091876562,
      -0.9694097307946662, -0.47932050077963073, 1.2198658743059743,
      1.4279915815322477, -0.012167031553605366, -1.1429196301783702,
      -1.2843981645907965, 0.16078009175437213, -0.4678197443655412,
      1.2900597059787, -1.4038914804489235, 0.024003310847141152,
      0.41722740643283185, -1.0614210982877996, -0.30719966535881943,
      -0.48945939514043746, 1.00773146793848, -2.3199583039757616,
      -0.8263290366139404, -0.3608257813704989, 1.2569540428004098,
      -0.3699204489527575, -0.7272230812453477, 0.7231053924557836,
      -1.3447405520714006, -0.09620994049433361, -0.6859519212807551,
      -2.41091131768861, -1.3498191634539012, 0.15960418109809812,
      2.0529259348309825, 0.8114345483699472, -1.457100505581199,
      0.5316320679987896, -1.5174402411626948, -0.38008305805052744,
      -1.0851618199990691, -2.7428201978930637, 1.2155881583319512,
      0.027178812323998863, 0.9268140978176939, -1.610997375090468,
      -0.6130049156518769, -0.7848638667485947, 0.31819592864410523,
      0.7552911256583233, 0.8219173343654844, 0.1489496136121025,
      0.1905988052862938, -0.8592344024595449, 0.2973725377987535,
      -0.33564484310954545, -0.2033637314162371, 0.5482874897506604,
      1.0629977751212558, 0.13517524903109732, -0.3234645316341905,
      1.3629405128846652, 0.40864844289071034, 0.7914064824149637,
      1.0911799136487552, 0.9797053657536935, -2.0904787170490233,
      0.5532256132517503, -2.3341325816133516, 1.4490990050904766,
      0.5095954463998466, 0.12069560701517101, 0.9033500179191882,
      0.15232670000567444, 1.1054793416596915, 1.8813379563985748,
      -0.44500945863869784, 1.5395509015864723, -0.6937737356081984,
      -2.0595109054845078, 1.1854753001829563, 0.3839588650389778,
      0.5238634571077649, 1.5409550016092972, 0.7091399471588341,
      1.7279951486639669, -0.9961776135796672, 0.2978885239827444,
      -0.02580053786150146, 1.477948994909399, 1.7691490390298472,
      -0.15749898868981518, -0.4226745747569479, -1.1737335562628257,
      -1.6429945343433343, 0.5538975034811034, -0.04040394481713471,
      2.976273716641717, 0.7268828708095719, -0.39392095914383024,
      0.5448492132380793, 1.964541257902167, -1.0596650560506278,
      -0.8127398130370463, 0.9714927121655674, -1.557597912959779,
      0.37678343905708506, 0.25007625698455954, 2.4021143950828217,
      -1.953328029135331, -1.3268267093476205, 2.396870626895389,
      -0.6060057006995563, 1.4386308597175066, -0.37038583792665314,
      0.08181409054107329, 1.081284214825887, -0.22604380774657737,
      0.6830108937365673, -0.41165305571321664, -0.005152888774138982,
      -0.2802598115414018, -0.2122358251725957, -0.8579486073718646,
      -0.6023291091340174, -0.926284188059472, -0.0009328053112944516,
      1.699591189784312, -1.351809090589364, 0.028409381844906663,
      1.9124124943762897, -1.5043682725426168, -0.8486074712289704,
      0.1609168392606539, 1.534292475983301, -0.6676595426749532,
      2.1366945422009285, -1.5121314566628725, 0.5255683794257556,
      1.4775914033431605, -0.2145969028943182, -0.4541437723879707,
      0.35671275088591514, -0.6276803879700854, -0.21450296230062837,
      -2.443530303914171, 0.02595362797063962, -0.9075290855559219,
      -0.7859812119472334, 0.3850604460622817, 1.1219955884537087,
      1.0317625011892873, -0.23687094452056226, 0.3315790443986741,
      1.748685346182888, 2.2648898795556804, 0.13893027540686118,
      1.0340964230282559, -0.2552960960986218, -1.5881564119409117,
      -0.12772491545825324, 0.4276124879675468, -0.05972109163025165,
      1.0826302016144254, -0.798597555533147, -0.4668564852708409,
      -1.5201739128159635, 1.161963453118157, 0.5948657783112277,
      0.7465312464201528, -1.0732261031351535, 0.9598241308804442,
      -0.07288716878006404, -1.6531521939074678, 0.4886742452187486,
      1.6681074703015268, -1.0548178017256071, 0.09370557372793654,
      -2.9230035227044895, -0.2366340467242534, 0.2711997974655403,
      2.7663284254578797, 0.6792052167865509, 0.49203306017087095,
      -0.44876499238924494, -0.3233466617026518, 0.4588876776900469,
      -0.28611671147610884, 0.10755507548286841, -2.0837446131578137,
      0.665269391530116, 0.16952913403504347, 0.20546832473577478,
      0.4153865364336921, -0.09886203869257897, 1.1720449310619443,
