{
  "input_size": 2,
  "hidden_size": 50,
  "output_size": 1,
  "activation_function_type": "SIGMOID",
  "input_nodes_weights": [
    [
      -0.2109195544551657, -1.6117176825672042, -2.020339181384841,
      -1.336911310656332, 2.5661870517463083, 2.4193366426959595,
      0.5355482106203532, -0.8548323734254326, 2.2210131804516866,
      -1.630844070357756, -0.26023368448860973, -0.21029214730164503,
      -0.0420760696811608, -0.0669422806167035, 0.06735732961022015,
      -0.2856441601136225, -0.9328805595377485, -0.6648048228940319,
      1.3725221475286313, 1.061907435382583, -2.360759271306763,
      0.7428918685333336, -0.08367620222646975, -1.211945408687016,
      -1.1394173261821472, 0.05261376447431619, 0.35403223876015266,
      0.5483318746941628, -1.1347837725384984, -0.6487278348182247,
      1.2331274244443509, 1.154972002263762, 0.5391539730120474,
      0.5735766384586607, -1.3412166955980114, -0.685179961787123,
      -0.10635962419906696, -1.428546997738095, 2.7281970460419283,
      0.5387938683565059, -0.5315888632274288, -1.7693224089090913,
      0.7520087077256438, 4.177329752281138, -0.16544734834700048,
      1.8445704725236196, 1.6707324654472022, 6.570305141051288e-7,
      3.5486500347408203, -1.5129512031129508
    ],
    [
      -0.4904410242700627, 0.20310844713955556, 1.174711237538379,
      -0.3881159932333192, -1.883915393366496, 2.4935270530339158,
      -2.003240323854373, -0.013755500125415559, -3.494532642857876,
      -0.8632458220780396, -0.505998024464695, -0.4074311842090619,
      -1.0228899698522804, 0.7971049092606036, 1.1687204090748595,
      0.914652737738897, -1.5641465981663998, -1.5187526098451656,
      0.05210493649403102, 1.0320674207070646, -2.4750497332346817,
      -0.034435230649947614, 1.2639483876346775, 2.1978066002413374,
      -0.39054717666037636, 0.27022083523966545, 0.4448372179599801,
      0.3977475490862769, 0.5310853242299279, 1.579406068087181,
      -2.8040697995574346, 0.2651257605738787, -0.06382103529353784,
      -0.3636656957905787, 0.8701076733115055, -0.21519678777579207,
      -1.0042441437760667, -0.3117143507583041, -1.4017851063017688,
      2.2688462265197473, -0.06012259431153609, 2.9598766933403593,
      0.26108686593551267, 4.267075654810333, 1.7788212760418682,
      -0.9207537170617444, 1.8699356862127705, -1.0007551385032707,
      -2.249428330442724, 2.962100622481875
    ]
  ],
  "hidden_nodes_weights": [
    [0.09194016960689547],
    [0.7169807839467888],
    [2.0019992497515795],
    [1.0250292255034525],
    [-2.381358017932579],
    [2.1569481009577354],
    [0.7470601339062275],
    [0.6535234884161736],
    [3.594772981505977],
    [-0.3240717505540235],
    [-0.06404100886295616],
    [-0.756348570463303],
    [0.552009656140087],
    [-0.6802655939709981],
    [-0.38651190747767067],
    [0.22015811002846716],
    [-0.55093115330996],
    [-0.19276124433862823],
    [-0.6231139804884913],
    [1.8606935072610118],
    [-2.6254203052443317],
    [0.2898706373994277],
    [0.12892370763744349],
    [-1.4790508857499896],
    [1.7419054868419033],
    [0.7596062307702847],
    [-1.5159013258063523],
    [-1.2284242992942151],
    [1.3043745485365905],
    [-0.6101196625211616],
    [2.05024230736138],
    [-0.6571088723338151],
    [0.5294152457893274],
    [-0.4891048482610047],
    [1.1607473988763386],
    [1.3888226821786112],
    [0.5387447760083157],
    [0.3385516369380581],
    [-2.5332901668388583],
    [0.45776613502972785],
    [-0.2577761166592014],
    [-3.8736004392025944],
    [-0.7704652133177096],
    [5.787594448814186],
    [-0.9159145528563769],
    [-1.5666200577166307],
    [2.2154419265813985],
    [0.5892414007160741],
    [-3.1424333305036445],
    [-2.1072758422791398]
  ],
  "hidden_nodes_biases": [
    -0.004596332334971428, 0.0505390866796285, -0.7513579562030056,
    0.5335981339585958, 1.1732587816874178, -0.12799785525090682,
    -0.07095424669411685, 0.07093823548332251, -1.1127892117516276,
    -0.14546341280008626, -0.04987592153533645, -0.21128461049890962,
    0.069319498670087, 0.040225816165452156, -0.0516117275127413,
    -0.03458733918434334, -0.20833766194804684, -0.09117719646639023,
    -0.16141153158474505, 0.6080539432326776, 0.04711373335581461,
    0.04714522721097986, 0.008167676354370882, 0.7486253434045652,
    0.7892059048307194, 0.14597594706592554, -0.16174980447943613,
    -0.2708313042912625, -0.3381426885057317, 0.2670559766212431,
    -0.48937064635781363, -0.2762312521871226, 0.059236850306888376,
    0.09222766266779653, -0.5580735012349757, 0.22621432327715385,
    0.09023336028473274, 0.08022680494994607, 0.631246458426734,
    0.13249076417646993, -0.05781010209069988, 0.9455682177288712,
    -0.20449487140894446, -1.3050023523801522, -0.14577008369956976,
    0.554404989223696, 0.397970637212984, 0.054243799612081284,
    1.0588814766772527, 0.697467018724562
  ],
  "output_nodes_weights": [
    [
      0.09194016960689547, 0.7169807839467888, 2.0019992497515795,
      1.0250292255034525, -2.381358017932579, 2.1569481009577354,
      0.7470601339062275, 0.6535234884161736, 3.594772981505977,
      -0.3240717505540235, -0.06404100886295616, -0.756348570463303,
      0.552009656140087, -0.6802655939709981, -0.38651190747767067,
      0.22015811002846716, -0.55093115330996, -0.19276124433862823,
      -0.6231139804884913, 1.8606935072610118, -2.6254203052443317,
      0.2898706373994277, 0.12892370763744349, -1.4790508857499896,
      1.7419054868419033, 0.7596062307702847, -1.5159013258063523,
      -1.2284242992942151, 1.3043745485365905, -0.6101196625211616,
      2.05024230736138, -0.6571088723338151, 0.5294152457893274,
      -0.4891048482610047, 1.1607473988763386, 1.3888226821786112,
      0.5387447760083157, 0.3385516369380581, -2.5332901668388583,
      0.45776613502972785, -0.2577761166592014, -3.8736004392025944,
      -0.7704652133177096, 5.787594448814186, -0.9159145528563769,
      -1.5666200577166307, 2.2154419265813985, 0.5892414007160741,
      -3.1424333305036445, -2.1072758422791398
    ]
  ],
  "output_nodes_biases": [0.285057499376235]
}
